svm_type c_svc
kernel_type rbf
gamma 0.03125
nr_class 22
total_sv 359
rho -0.18095537791280977 -0.024516780087639963 -0.3829969877053705 -0.15666849361952292 -0.08524575075330632 -0.4550280642117047 -0.42188087949721154 -0.48916246905651034 -0.08800660220275795 0.1727169107573475 -0.2138764880481108 -0.24383254463697132 -0.09261959953264602 -0.36177924467522266 0.09501220223868624 -0.2980120182230816 -0.30478039151560005 -0.007462237805703842 -0.08026461730303662 -0.39141796889613517 -0.3221983468975118 0.17854475574280682 -0.030278074917162036 0.03721635883838325 0.1627354982593886 -0.2378076804987134 -0.21781530087170717 -0.20027122530233163 0.07866845580586203 0.5026786035504338 6.624370628109594E-4 -0.1791344032087216 0.05952662000834846 -0.12367763603472993 0.34737329697341346 -0.050968462834621336 -0.08963903324874913 0.23306409137233905 0.12713602732861828 -0.08072816746614042 -0.09744472353567377 -0.15777802119511306 -0.1406824162488887 0.15558749710301928 -0.4558074078459658 -0.33333906755859005 -0.6258641662954569 -0.0910726471730525 0.35738927282459865 -0.1636024582401649 -0.24271983198864402 -0.10197555182669983 -0.3360574675116597 0.146965565937147 -0.3157482562575782 -0.2578961986818337 0.007898288386242788 -0.09553679957848607 -0.37555086245152447 -0.24296195926328593 0.04640425777259023 0.207064812260653 -0.10158020880032101 -0.09398851117367515 -0.11486372062147972 0.21094802213245203 0.5553336746015991 0.05368410862121208 -0.03711639444878413 0.14404919497982627 -0.14510506224835307 0.3385392782946916 0.06325681275065617 -0.054345324138957936 0.3828111823633672 0.23034529549426838 -0.030029382658060013 -0.03754481613944558 0.18941973780162757 -0.19023681677957785 -0.22023861079659804 -0.18727449157734946 0.09172410311998937 0.4347172839543302 0.01003636949585149 -0.1351072565074033 0.021452381125031516 -0.24653885107746204 0.22767024158047422 -0.09896411791704307 -0.2251548079412018 0.13534587393814235 0.08573692178148959 -0.09067736321625289 -0.14678494125157446 -0.268528993739511 -0.43073074661709226 -0.3563917223863077 -0.045354344661348515 0.08831608090575212 -0.09246058577533399 -0.2050600827951693 -0.05299497018773652 -0.3891123913017621 0.11419665799080655 -0.4002880497048261 -0.25336517290136473 0.0472488221065152 -0.009183001884219421 -0.2016275387082139 -0.22124499255692068 0.003136539883490696 0.17955876478236452 0.25244540033126167 0.5046679548005295 0.17598051135198908 0.10472757588473644 0.24414000801337732 0.011810673412973515 0.4308247733673643 0.2621922136897845 0.07959711789760542 0.3105778980661529 0.40873561810816117 0.7802051038450344 0.10707478221153022 0.0036842131171981054 0.27249450996661334 0.5395086003230181 0.2068086977406643 0.2787304573264009 0.2896492999096422 0.024959172920816303 0.4914767256978218 0.10316929577617309 0.046496647113643604 0.3096054474300781 0.2989136257820595 0.12440459320719051 0.08614718742516544 0.26262386144092914 0.5106753177983399 0.21587299132714946 0.08893825605471062 0.2668493784893428 0.029965132533715133 0.44968775114764636 0.1561571606592874 0.07334641140831845 0.35041216821490034 0.4573733982299114 0.20572215680788922 0.08625415637528501 0.6180728158715608 -0.10509767457601128 -0.23233636236497004 -0.14318941368594887 -0.256657191964934 0.4124615789560844 -0.24380309629326025 -0.28042381524908416 0.13347368170608703 -0.01746567715769705 -0.16536690719993177 -0.19345339082056576 -0.3703568542558337 -0.5762770634963713 -0.45824673778186575 -0.5390288097816417 -0.17363290195243966 -0.6372637907899507 -0.4419362673985832 -0.3708190028698292 -0.4052919022255935 -0.4421772233980186 -0.45125159674212406 -0.1143764489483155 0.043250907168343435 -0.1632671291099936 0.47660761334107205 -0.07226593125205363 -0.13710489662593428 0.13801835252263422 0.0897836097546785 -0.08002718760280002 -0.12472055665473793 0.20887454260033128 -0.07219767598329245 0.48370585538917565 0.0686716872438793 -0.007822400588442784 0.30456994389457276 0.19575245896012383 0.02108799226848192 -0.13048273489883813 -0.22281660104508047 0.26105543651319274 -0.19095870326461042 -0.16181590358005174 0.11144546672792639 0.04453842229331746 -0.14218683532965387 -0.19359960587290936 0.35111442152752514 0.09750706045944728 0.017296205058978473 0.2898150457242017 0.3844851174451666 0.13480785083569416 0.07902904987039226 -0.48694554148756386 -0.3442488734972259 -0.29790341400367154 -0.15621802732249618 -0.32859861035613824 -0.4339195137760975 -0.036540454721731945 0.49421281768974784 0.24514976433695126 -0.02844567977702142 -0.0676915449833953 0.24429130905452473 0.21256193598320774 0.03989862464967643 -0.0027081008666246425 -0.04760489298092512 -0.216406635754673 -0.2569490827885268 -0.30385889073266836 -0.22798406754320497 -0.019376003173659343
label 71 80 69 67 65 90 79 74 86 82 70 81 68 66 78 89 76 77 75 87 85 83
nr_sv 20 18 20 12 14 18 10 12 18 20 20 17 16 16 16 20 19 11 18 16 15 13
SV
0.7860336406411225 0.03352686452960561 0.0 0.0 0.0 0.0 0.0 0.0 0.2396881160011643 0.025094922660553312 3.604182859382922 0.5787349248060661 0.0 0.0 2.370595400093002 0.0 0.5630613312622005 0.06223785952111614 0.0 0.0 0.17535920533555785 1:0.6711640954017639 2:0.02227800339460373 3:-0.9654382467269897 4:-0.260631799697876 5:0.5886414051055908 6:0.0 7:-0.9889692068099976 8:0.1481209248304367 9:0.46375900506973267 10:0.05334169417619705 11:-0.7689914703369141 12:0.6392590999603271 13:0.3319736123085022 14:0.2133667767047882 15:-0.5152485966682434 16:0.8570407629013062 17:0.21117037534713745 18:0.4734859764575958 19:-0.3243580460548401 20:0.9459344148635864 21:0.1782240867614746 22:0.6617507934570312 23:-0.022635629400610924 24:0.9997438192367554 25:0.20363980531692505 26:0.80608731508255 27:0.31197020411491394 28:0.9500918388366699 29:0.26106056571006775 30:0.9140257239341736 31:0.6192630529403687 32:0.7851836085319519 33:0.35236895084381104 34:0.994665801525116 35:0.889015793800354 36:0.457876592874527 37:0.4279887080192566 38:1.0 39:0.9814267754554749 40:-0.19183702766895294 41:0.5738939046859741 42:0.9513648748397827 43:0.8865442276000977 44:-0.46264389157295227 45:0.6721054315567017 46:0.8726074695587158 47:0.7202532291412354 48:-0.6937112212181091 49:0.7612173557281494 50:0.7709444761276245 51:0.5459535121917725 52:-0.8378154039382935 53:0.8217759132385254 54:0.6429244875907898 55:0.18857842683792114 56:-0.9820581078529358 57:0.8020080924034119 58:0.5585189461708069 59:-0.8021023273468018 60:-0.5971866846084595 61:0.6928145289421082 62:0.5469092726707458 63:-0.9972641468048096 64:0.07392106205224991 65:0.569187343120575 66:0.5757765173912048 67:-0.9249693155288696 68:0.3800417482852936 69:0.404141902923584 70:0.6655160784721375 71:-0.8441377878189087 72:0.5361261367797852 73:0.34044569730758667 74:0.721054196357727 75:-0.6342006921768188 76:0.7731685042381287 77:0.32538437843322754 78:0.7615311741828918 79:-0.34873610734939575 80:0.9372209906578064 
0.0 0.009419740588894204 0.0 0.20615492324400664 0.041780456110569714 6.401523420314294 0.24016966724976557 0.1882553033225131 0.0 0.0 0.0 0.0 0.0 0.8914656004082848 0.0 0.0 0.17560111526318187 0.0 0.0 0.5014795485093406 0.4143984120021986 1:0.5732394456863403 2:0.1665996015071869 3:0.30037498474121094 4:-0.9538211226463318 5:0.5961771011352539 6:0.09376257658004761 7:0.13234876096248627 8:-0.991203248500824 9:0.592153012752533 10:0.0249496977776289 11:-0.4727463722229004 12:-0.881198525428772 13:0.5458752512931824 14:0.0 15:-0.9992479085922241 16:0.038776710629463196 17:0.45734405517578125 18:0.030181080102920532 19:-0.8085094094276428 20:0.5884833335876465 21:0.35955744981765747 22:0.13561366498470306 23:-0.5803337693214417 24:0.8143786787986755 25:0.2617708146572113 26:0.30462774634361267 27:-0.3637462854385376 28:0.931498110294342 29:0.2074446976184845 30:0.5251509547233582 31:-0.11211470514535904 32:0.9936953186988831 33:0.21468807756900787 34:0.7219315767288208 35:0.1811342090368271 36:0.9834583401679993 37:0.27303826808929443 38:0.881287693977356 39:0.5510088801383972 40:0.8344993591308594 41:0.3812875747680664 42:0.9742454290390015 43:0.8925854563713074 44:0.4508783519268036 45:0.5080481767654419 46:1.0 47:0.999706506729126 48:-0.024225274100899696 49:0.6303824186325073 50:0.9682092666625977 51:0.9019455313682556 52:-0.43184971809387207 53:0.7358149290084839 54:0.8909457325935364 55:0.6283004283905029 56:-0.7779707908630371 57:0.7925553321838379 58:0.7674043774604797 59:0.17016509175300598 60:-0.985415518283844 61:0.7800803184509277 62:0.6346076130867004 63:-0.3138243854045868 64:-0.9494810104370117 65:0.7136822938919067 66:0.5287726521492004 67:-0.710299015045166 68:-0.703900158405304 69:0.6014083623886108 70:0.4575452506542206 71:-0.94629967212677 72:-0.3232908248901367 73:0.4875252842903137 74:0.4515090882778168 75:-0.9992642998695374 76:0.03835143893957138 77:0.412676066160202 78:0.4647887349128723 79:-0.9846234321594238 80:0.17469054460525513 
0.0 0.0 0.0 0.0 0.0 0.0 0.515059655804229 0.0 0.21203766518267525 0.0 0.776663784224114 0.0 0.0 0.0 0.0 0.0 0.0 0.3344631176386216 0.0 0.0 0.4663828494200622 1:0.7786589860916138 2:0.054794520139694214 3:-0.7863183617591858 4:-0.6178215146064758 5:0.748377799987793 6:0.031002162024378777 7:-0.9274551868438721 8:-0.3739342987537384 9:0.6427541971206665 10:0.0 11:-0.998928427696228 12:-0.04628237336874008 13:0.5616438984870911 14:0.022350402548909187 15:-0.8325727581977844 16:0.5539157390594482 17:0.3777937889099121 18:0.17627976834774017 19:-0.6670737862586975 20:0.744991660118103 21:0.2591925263404846 22:0.36012977361679077 23:-0.4699627161026001 24:0.8826862573623657 25:0.15284785628318787 26:0.5987743139266968 27:-0.20857934653759003 28:0.9780054688453674 29:0.1618601530790329 30:0.8165104985237122 31:0.3902158737182617 32:0.9207233786582947 33:0.30425381660461426 34:0.956020176410675 35:0.8704367876052856 36:0.4922802150249481 37:0.4863014221191406 38:1.0 39:0.9991598129272461 40:0.04098570719361305 41:0.6294159889221191 42:0.9693583846092224 43:0.8195850849151611 44:-0.5729575157165527 45:0.6827685832977295 46:0.8626532554626465 47:0.16235360503196716 48:-0.9867326021194458 49:0.6665464639663696 50:0.7436913847923279 51:-0.497143417596817 52:-0.8676684498786926 53:0.5483056306838989 54:0.6279739737510681 55:-0.8179558515548706 56:-0.5752810835838318 57:0.45998555421829224 58:0.59841388463974 59:-0.9589541554450989 60:-0.28356125950813293 61:0.41420334577560425 62:0.5883201360702515 63:-0.9863936901092529 64:-0.16440045833587646 65:0.42754149436950684 66:0.5930064916610718 67:0.9990094900131226 68:0.044499095529317856 69:0.5760636329650879 70:0.5955299139022827 71:0.9968910813331604 72:-0.07879215478897095 73:0.7422494888305664 74:0.5681326389312744 75:0.9972386956214905 76:-0.07426244765520096 77:0.8471521139144897 78:0.5753424763679504 79:0.9976465106010437 80:0.06856710463762283 
0.0 0.0 0.0 0.0 0.0 0.0 0.10494179496279889 0.0 0.0 0.0 0.0 0.0 0.0 0.0 0.0 0.0 0.0 0.0 0.0 0.0 0.0 1:0.8430372476577759 2:0.028156450018286705 3:-0.8987497091293335 4:-0.4384620487689972 5:0.7853227853775024 6:0.0 7:-0.9974120855331421 8:0.0718962624669075 9:0.5231237411499023 10:0.05121671408414841 11:-0.8897141814231873 12:0.4565180242061615 13:0.1680467128753662 14:0.31672829389572144 15:-0.5597813129425049 16:0.828640341758728 17:0.0867626965045929 18:0.697158932685852 19:0.1688726842403412 20:0.985637903213501 21:0.2795258164405823 22:0.9673843383789062 23:0.8468526005744934 24:0.5318277478218079 25:0.5689898133277893 26:1.0 27:0.9918392300605774 28:-0.1274953931570053 29:0.8187030553817749 30:0.8980761170387268 31:0.8298817276954651 32:-0.5579392910003662 33:0.8248182535171509 34:0.8280035257339478 35:-0.23754620552062988 36:-0.9713762402534485 37:0.7772963047027588 38:0.7287552356719971 39:-0.5967985987663269 40:-0.8023911118507385 41:0.7068414688110352 42:0.6693846583366394 43:-0.8081604242324829 44:-0.5889623761177063 45:0.6842911243438721 46:0.6609759330749512 47:-0.9615238904953003 48:-0.2747213542461395 49:0.6738436222076416 50:0.659956693649292 51:-0.9983327984809875 52:-0.05771998316049576 53:0.6247930526733398 54:0.657535970211029 55:-0.9991589784622192 56:-0.04100281372666359 57:0.6148552894592285 58:0.657535970211029 59:0.9961745142936707 60:0.08738616853952408 61:0.6465790271759033 62:0.6594470739364624 63:0.9937360286712646 64:0.11175259202718735 65:0.7621350288391113 66:0.6740986108779907 67:0.999281108379364 68:0.03791144862771034 69:0.8715760707855225 70:0.6679831743240356 71:0.990346372127533 72:-0.13861504197120667 73:0.9132373332977295 74:0.6529493927955627 75:0.874813437461853 76:-0.48445987701416016 77:0.9035545587539673 78:0.6502739191055298 79:-0.9638811349868774 80:-0.26633262634277344 
0.0 0.0 0.0 0.0 0.0 4.949206622142402 0.0 0.0 0.0 0.0 0.0 0.0 0.0 0.0 0.0 0.0 0.2656331629557709 0.0 0.0 0.0 0.0 1:0.7599681615829468 2:0.1116427332162857 3:-0.5905188918113708 4:-0.8070237636566162 5:0.73604416847229 6:0.07894736528396606 7:-0.7201581001281738 8:-0.693809986114502 9:0.6945773363113403 10:0.048644330352544785 11:-0.8844943642616272 12:-0.4665508568286896 13:0.5909099578857422 14:0.0023923353292047977 15:-0.9639541506767273 16:-0.2660684287548065 17:0.518341064453125 18:0.0 19:-0.9256290197372437 20:0.37843218445777893 21:0.44657111167907715 22:0.06140352040529251 23:-0.6107097268104553 24:0.7918545603752136 25:0.3301438093185425 26:0.24401913583278656 27:-0.4740051031112671 28:0.8805220723152161 29:0.21132314205169678 30:0.49840521812438965 31:-0.35836124420166016 32:0.9335829615592957 33:0.1443379819393158 34:0.7280702590942383 35:-0.1182108074426651 36:0.9929885268211365 37:0.1634771227836609 38:0.90031898021698 39:0.39391809701919556 40:0.9191455841064453 41:0.2591700851917267 42:0.996012806892395 43:0.9274414777755737 44:0.3739682137966156 45:0.4106861352920532 46:1.0 47:0.99008709192276 48:-0.14045439660549164 49:0.6020729541778564 50:0.9473683834075928 51:0.8874282836914062 52:-0.46094581484794617 53:0.7392346858978271 54:0.8293461203575134 55:0.639550507068634 56:-0.7687491774559021 57:0.8389161825180054 58:0.6626793146133423 59:0.351386696100235 60:-0.9362304210662842 61:0.8556619882583618 62:0.5191386342048645 63:-0.14328886568546295 64:-0.9896808862686157 65:0.8046255111694336 66:0.42583730816841125 67:-0.8826920986175537 68:-0.4699517786502838 69:0.6834133863449097 70:0.42743220925331116 71:-0.9811317324638367 72:0.19334040582180023 73:0.5334925651550293 74:0.47926637530326843 75:-0.918484091758728 76:0.39545801281929016 77:0.396331787109375 78:0.5510366559028625 79:-0.88603276014328 80:0.46362248063087463 
0.3505255777144623 0.31377576752700187 0.12395483228494895 0.4017267192732505 0.373121036260051 0.0 0.5101691622660446 0.0 0.46298901257959474 0.5086441723367294 2.075383984355847 0.3995493886126229 0.3200414349788937 0.20219544089923513 0.9441012420144612 0.08081276425817976 0.3108276663365703 1.1603493865355998 0.7566771180087498 0.0 0.9400523109392172 1:0.8231511116027832 2:0.11414790898561478 3:-0.6507911682128906 4:-0.7592567801475525 5:0.7845659255981445 6:0.06913183629512787 7:-0.8245132565498352 8:-0.5658425688743591 9:0.6591640114784241 10:0.0016077160835266113 11:-0.9992009401321411 12:-0.03996804729104042 13:0.46302250027656555 14:0.05627009645104408 15:-0.8795813918113708 16:0.4757483899593353 17:0.1479099690914154 18:0.2781350612640381 19:-0.6712794303894043 20:0.7412043213844299 21:0.0 22:0.5675241351127625 23:-0.1389886438846588 24:0.9902940392494202 25:0.07073955237865448 26:0.827974259853363 27:0.7248710989952087 28:0.6888845562934875 29:0.4533762037754059 30:0.9983922839164734 31:0.9781717658042908 32:0.20779812335968018 33:0.6913183331489563 34:0.9598070383071899 35:0.9148282408714294 36:-0.4038431644439697 37:0.8102893829345703 38:0.8408359885215759 39:0.28216639161109924 40:-0.9593654870986938 41:0.7717041969299316 42:0.6864951848983765 43:-0.4148108661174774 44:-0.9099076390266418 45:0.7106109261512756 46:0.6221864819526672 47:-0.9086767435073853 48:-0.417500376701355 49:0.6527331471443176 50:0.6318327784538269 51:-0.9325680136680603 52:0.3609943985939026 53:0.610932469367981 54:0.6607717275619507 55:-0.9028602838516235 56:0.4299338757991791 57:0.5852090120315552 58:0.6639871597290039 59:-0.9486832618713379 60:0.3162277638912201 61:0.6012861728668213 62:0.6639871597290039 63:0.977176308631897 64:-0.212429940700531 65:0.7331189513206482 66:0.6318327784538269 67:0.9909553527832031 68:-0.13419198989868164 69:0.909967839717865 70:0.6221864819526672 71:0.9981904625892639 72:-0.06013191491365433 73:1.0 74:0.6157556176185608 75:0.99083012342453 76:-0.13511309027671814 77:0.9807074069976807 78:0.6125401854515076 79:-0.9863939881324768 80:-0.16439899802207947 
0.5796902725463196 1.3092369257931662 0.0 0.0 0.0 13.700631663214185 0.0 0.26438556212976216 0.0 0.0730215777156989 0.0 0.0 0.0 0.0 0.0 0.1503705394186788 0.0 0.0 0.1966405522217446 1.546235981265921 0.0 1:0.4583333432674408 2:0.0 3:-0.7568238973617554 4:0.6536186933517456 5:0.3618418276309967 6:0.0833333358168602 7:-0.8499038815498352 8:0.5269378423690796 9:0.2390340119600296 10:0.13596491515636444 11:-0.7474098801612854 12:0.6643631458282471 13:0.0855255052447319 14:0.32894739508628845 15:-0.5094899535179138 16:0.860476553440094 17:0.041666656732559204 18:0.46929824352264404 19:-0.1434265375137329 20:0.9896609783172607 21:0.041666656732559204 22:0.6315789222717285 23:0.0 24:1.0 25:0.041666656732559204 26:0.8245614171028137 27:0.2990913689136505 28:0.9542244076728821 29:0.1337738037109375 30:0.9254385828971863 31:0.768220067024231 32:0.6401857733726501 33:0.2521921694278717 34:1.0 35:0.9725111126899719 36:0.23285642266273499 37:0.4451751708984375 38:1.0 39:0.9899495840072632 40:-0.14142096042633057 41:0.5899124145507812 42:0.9517543911933899 43:0.9021348357200623 44:-0.4314541518688202 45:0.7478078603744507 46:0.8552631735801697 47:0.8198408484458923 48:-0.5725915431976318 49:0.8662261962890625 50:0.7587718963623047 51:0.7371528744697571 52:-0.6757259964942932 53:0.9583333730697632 54:0.6622807383537292 55:0.43073704838752747 56:-0.9024775624275208 57:0.9583333730697632 58:0.565789520740509 59:-0.18588536977767944 60:-0.9825714230537415 61:0.9276326894760132 62:0.5 63:-0.9333443641662598 64:-0.35898223519325256 65:0.7872823476791382 66:0.5 67:-1.0 68:0.0 69:0.6513164043426514 70:0.5 71:-1.0 72:0.0 73:0.5548248291015625 74:0.5 75:-1.0 76:0.0 77:0.4583333432674408 78:0.5 79:-1.0 80:0.0 
0.6978461036850042 0.7910609405435804 0.2818997191086464 0.6596212523592961 0.6612935562155674 0.0 0.34348329108632375 0.5709417567147904 1.0999121933800577 0.9985540498581185 6.023625388520368 0.4051427642897239 0.5651667776993493 0.1496500843756853 1.6356218949583954 0.0 0.2802008927856468 1.2580711865346523 0.3307078679718704 0.09652630269701762 0.17275026291448092 1:0.737785279750824 2:0.0 3:-0.9873309135437012 4:0.15867501497268677 5:0.651386022567749 6:0.013885317370295525 7:-0.9564400911331177 8:0.2919287085533142 9:0.32919809222221375 10:0.12471071630716324 11:-0.8764633536338806 12:0.4814685881137848 13:0.10536101460456848 14:0.3138338625431061 15:-0.48865872621536255 16:0.8724750280380249 17:0.07810389995574951 18:0.5730264782905579 19:0.18399746716022491 20:0.9829267263412476 21:0.20949913561344147 22:0.870146632194519 23:0.6931915283203125 24:0.7207533717155457 25:0.48874983191490173 26:1.0 27:0.9965633749961853 28:0.08283419162034988 29:0.7616978883743286 30:0.9160453081130981 31:0.8056126236915588 32:-0.5924426317214966 33:0.9177786707878113 34:0.6844947934150696 35:0.4359876811504364 36:-0.8999525904655457 37:0.9218961000442505 38:0.5853689908981323 39:-0.2876672148704529 40:-0.9577304124832153 41:0.8662248849868774 42:0.5128567814826965 43:-0.8202199339866638 44:-0.5720482468605042 45:0.7561706304550171 46:0.4697866141796112 47:-0.9695127010345459 48:-0.24504119157791138 49:0.6205314993858337 50:0.45075857639312744 51:-0.9889587759971619 52:-0.14819124341011047 53:0.5880023837089539 54:0.4445873200893402 55:-0.9851062297821045 56:-0.17194664478302002 57:0.5851755142211914 58:0.4445873200893402 59:0.99421226978302 60:0.10743394494056702 61:0.5927615165710449 62:0.4451015889644623 63:0.9860662817955017 64:0.16635289788246155 65:0.6377598643302917 66:0.4534584879875183 67:0.9911662936210632 68:0.13262495398521423 69:0.8281684517860413 70:0.47660067677497864 71:0.9969518780708313 72:0.07801838964223862 73:0.897337019443512 74:0.47377219796180725 75:0.9963005185127258 76:-0.08593818545341492 77:0.9161087870597839 78:0.4690151810646057 79:0.9693589806556702 80:-0.24564851820468903 
0.0 0.0 0.0 0.19606235459665985 0.0 0.0 0.0 0.0 0.0 0.0 2.9159248503946444 0.0 0.0 0.0 0.0 0.0 0.1573024402917845 0.0 0.0 0.0 0.0 1:0.749451756477356 2:0.0486111119389534 3:-0.058041296899318695 4:-0.9983140826225281 5:0.7476242780685425 6:0.017178364098072052 7:-0.5852677822113037 8:-0.8108400702476501 9:0.7143640518188477 10:0.0 11:-0.9968777894973755 12:-0.07896058261394501 13:0.599963366985321 14:0.005482455249875784 15:-0.9338221549987793 16:0.3577376902103424 17:0.3642178475856781 18:0.13413742184638977 19:-0.785871148109436 20:0.6183903813362122 21:0.1763523817062378 22:0.33881568908691406 23:-0.4995574355125427 24:0.8662807941436768 25:0.07693713903427124 26:0.6323099136352539 27:-0.027324719354510307 28:0.999626636505127 29:0.1631944477558136 30:0.8201754689216614 31:0.6203163266181946 32:0.7843517661094666 33:0.3174341022968292 34:0.9364035129547119 35:0.9076595306396484 36:0.4197072684764862 37:0.5520832538604736 38:1.0 39:0.9969019293785095 40:0.07865463197231293 41:0.7158259749412537 42:0.9678362607955933 43:0.8537452816963196 44:-0.52069091796875 45:0.818165123462677 46:0.8377192616462708 47:0.34570568799972534 48:-0.9383430480957031 49:0.8156067728996277 50:0.6970029473304749 51:-0.3620215356349945 52:-0.9321697354316711 53:0.7278874516487122 54:0.6052631735801697 55:-0.7986191511154175 56:-0.6018368005752563 57:0.6123902797698975 58:0.5438596606254578 59:-0.9326420426368713 60:-0.36080312728881836 61:0.527595043182373 62:0.5277777910232544 63:-0.9435448050498962 64:-0.33124494552612305 65:0.5780335664749146 66:0.531798243522644 67:0.9995871186256409 68:-0.028732599690556526 69:0.7691885828971863 70:0.5208333134651184 71:0.9955673217773438 72:-0.094051294028759 73:0.8952850699424744 74:0.5018274784088135 75:0.9840935468673706 76:-0.17765097320079803 77:0.9230628609657288 78:0.4930555522441864 79:0.9535827040672302 80:-0.30113112926483154 
1.3298653975128454 1.3627037045841932 1.017134431137639 0.7615329484518488 1.198345468481422 0.0 0.35463094185992033 0.7273911477764878 1.378968302904788 1.543347973318554 1.7647956535494083 0.7858043117201426 1.3780637188788065 0.7003568543858287 1.2493688334526072 1.6431154918081468 0.686043748418729 1.6545349785642494 1.8465657404078006 0.43651618930823655 0.4105349590035159 1:0.7786299586296082 2:0.0 3:-0.9858575463294983 4:0.16758517920970917 5:0.6705737709999084 6:0.018368389457464218 7:-0.9007033109664917 8:0.43443477153778076 9:0.29117101430892944 10:0.23511528968811035 11:-0.7290423512458801 12:0.6844685077667236 13:0.07176315784454346 14:0.5805675387382507 15:-0.1900157630443573 16:0.9817810654640198 17:0.16664615273475647 18:0.878515362739563 19:0.6378263831138611 20:0.7701801657676697 21:0.4191170632839203 22:1.0 23:0.9779092073440552 24:0.2090299129486084 25:0.6585392951965332 26:0.9836584329605103 27:0.917356014251709 28:-0.39806774258613586 29:0.7738162279129028 30:0.8460856080055237 31:0.46355098485946655 32:-0.886070191860199 33:0.764442503452301 34:0.7812261581420898 35:-0.6189042925834656 36:-0.7854664325714111 37:0.6810874342918396 38:0.728401243686676 39:-0.930206298828125 40:-0.3670370876789093 41:0.5962127447128296 42:0.7148467302322388 43:-0.9932758212089539 44:-0.1157722994685173 45:0.5854452252388 46:0.717253565788269 47:-0.9741872549057007 48:0.22574131190776825 49:0.58582603931427 50:0.717253565788269 51:1.0 52:0.0 53:0.5859517455101013 54:0.717253565788269 55:1.0 56:0.0 57:0.5889921188354492 58:0.717253565788269 59:0.999552845954895 60:0.02990042418241501 61:0.6155948638916016 62:0.7181403040885925 63:0.9997177124023438 64:-0.023760473355650902 65:0.8021923899650574 66:0.7121863961219788 67:0.998164713382721 68:-0.060557249933481216 69:0.9225369095802307 70:0.6995185613632202 71:0.9937243461608887 72:-0.11185652017593384 73:0.9282368421554565 74:0.6979984641075134 75:-0.9962653517723083 76:0.08634405583143234 77:0.8845332264900208 78:0.7028122544288635 79:-0.9939885139465332 80:0.10948412865400314 
0.0 0.0 0.0 0.0 0.0 0.8663541026627991 0.0 0.4707194309497239 0.0 0.0 1.6706189875945887 0.0 0.0 0.0 0.0 0.0 0.0 0.0 0.0 0.5445496690755558 0.0 1:0.7429735660552979 2:0.007726120762526989 3:-0.9956667423248291 4:-0.0929926186800003 5:0.6602504253387451 6:0.0 7:-0.9496331810951233 8:0.3133638799190521 9:0.41154977679252625 10:0.11709071695804596 11:-0.7957141399383545 12:0.6056722402572632 13:0.11755672097206116 14:0.41308116912841797 15:-0.39727964997291565 16:0.917697548866272 17:0.13993629813194275 18:0.7445052266120911 19:0.4436422288417816 20:0.8962039947509766 21:0.38917022943496704 22:0.9617690443992615 23:0.8572325110435486 24:0.5149295926094055 25:0.5652729272842407 26:1.0 27:0.9999985694885254 28:-0.0016850087558850646 29:0.7054088115692139 30:0.9612361788749695 31:0.8342084884643555 32:-0.551449179649353 33:0.7389769554138184 34:0.8851738572120667 35:0.18364600837230682 36:-0.98299241065979 37:0.7329831123352051 38:0.8136406540870667 39:-0.17565467953681946 40:-0.9844518899917603 41:0.7083395719528198 42:0.7134674787521362 43:-0.382286936044693 44:-0.9240437150001526 45:0.6662448644638062 46:0.6523244976997375 47:-0.6774446368217468 48:-0.7355737686157227 49:0.6276147365570068 50:0.6258159279823303 51:-0.9474452137947083 52:-0.31991809606552124 53:0.5636743903160095 54:0.6176901459693909 55:-0.99630206823349 56:-0.08591997623443604 57:0.5550155639648438 58:0.6195550560951233 59:0.9980652928352356 60:0.062174733728170395 61:0.6043033599853516 62:0.6202211380004883 63:0.9945774078369141 64:-0.10399845242500305 65:0.7359132766723633 66:0.6006394028663635 67:0.9916850328445435 68:-0.12868855893611908 69:0.8732517957687378 70:0.5853203535079956 71:0.9900929927825928 72:-0.14041319489479065 73:0.8824433088302612 74:0.5798587799072266 75:-0.8625709414482117 76:-0.5059361457824707 77:0.8593982458114624 78:0.5771946310997009 79:-0.9933838844299316 80:-0.11484119296073914 
0.5907568160988658 1.2704173430447496 1.5588697725481433 1.436204218760805 1.850890364580137 0.0 0.8813582733030747 0.4524355526018073 0.9026542539635509 1.4185041475607127 0.0 0.5900185938616421 0.7870689015857465 1.1490839419915155 1.2487472739809262 0.7292139923913215 1.1187592994066307 1.0081557813915225 1.0887089872580418 0.8263547877429114 1.286692310415084 1:0.7733812928199768 2:0.18705035746097565 3:0.7071071267127991 4:-0.7071064114570618 5:0.8021582961082458 6:0.158273383975029 7:0.5144955515861511 8:-0.8574930429458618 9:0.8165467381477356 10:0.11510791629552841 11:-0.1240348368883133 12:-0.9922778606414795 13:0.7877697944641113 14:0.04316546767950058 15:-0.6305925846099854 16:-0.7761140465736389 17:0.7230215668678284 18:0.0 19:-0.9761871099472046 20:-0.21693044900894165 21:0.5935251712799072 22:0.0 23:-0.9532306790351868 24:0.3022438883781433 25:0.42805755138397217 26:0.09352517873048782 27:-0.715187132358551 28:0.698932945728302 29:0.27697843313217163 30:0.3093525171279907 31:-0.4522312879562378 32:0.8919006586074829 33:0.16906476020812988 34:0.6043165326118469 35:-0.11961688846349716 36:0.9928202033042908 37:0.2050359845161438 38:0.9064748287200928 39:0.4273795783519745 40:0.9040723443031311 41:0.35611510276794434 42:1.0 43:0.9747322797775269 44:0.2233760952949524 45:0.5503597259521484 46:0.9856114983558655 47:0.9526592493057251 48:-0.30404022336006165 49:0.6942445635795593 50:0.8920863270759583 51:0.6804510354995728 52:-0.7327934503555298 53:0.7374100685119629 54:0.7841726541519165 55:-0.06651879101991653 56:-0.997785210609436 57:0.6798561215400696 58:0.6762589812278748 59:-0.5943911075592041 60:-0.8041760921478271 61:0.6151078939437866 62:0.6187050342559814 63:-0.9037380218505859 64:-0.42808613181114197 65:0.5431654453277588 66:0.6115108132362366 67:-0.986393928527832 68:-0.16439922153949738 69:0.528777003288269 70:0.6043165326118469 71:0.9805805683135986 72:-0.19611643254756927 73:0.6510791778564453 74:0.5899280309677124 75:0.9863938689231873 76:-0.16439904272556305 77:0.8309352397918701 78:0.5539568066596985 79:0.9805806875228882 80:-0.19611619412899017 
0.0 1.2351944499282512 0.8523545998725423 0.0 0.6926866074948163 2.8143185240788045 0.0 2.0509579779898264 0.050334112143180204 0.6836691650794067 0.0 0.0 0.0 0.03737205981806272 0.4861262716688116 0.483890454616959 0.0 0.5528002498225439 0.0453120808065812 3.4437264578990137 0.0 1:0.6672267913818359 2:0.020963825285434723 3:-0.9786292314529419 4:-0.20563289523124695 5:0.5674576759338379 6:0.0 7:-0.9874415397644043 8:0.15798510611057281 9:0.4259645938873291 10:0.05956442281603813 11:-0.8402873873710632 12:0.5421411991119385 13:0.305503249168396 14:0.16900917887687683 15:-0.6924117207527161 16:0.7215026021003723 17:0.21203172206878662 18:0.2824854254722595 19:-0.43299633264541626 20:0.9013957381248474 21:0.16941659152507782 22:0.45230934023857117 23:-0.20756039023399353 24:0.9782221913337708 25:0.1492590606212616 26:0.5783299803733826 27:-0.03865186125040054 28:0.9992527365684509 29:0.15732207894325256 30:0.7649844288825989 31:0.2021770179271698 32:0.9793490171432495 33:0.2177097648382187 34:0.9099063873291016 35:0.46980828046798706 36:0.882768452167511 37:0.2781059443950653 38:0.991936981678009 39:0.9280475974082947 40:0.37246158719062805 41:0.442192405462265 42:1.0 43:0.9345186948776245 44:-0.35591402649879456 45:0.5739420652389526 46:0.8792669773101807 47:0.6087798476219177 48:-0.793339192867279 49:0.6182037591934204 50:0.7706285715103149 51:0.1349894106388092 52:-0.9908470511436462 53:0.6028839945793152 54:0.666827917098999 55:-0.2332531213760376 56:-0.9724160432815552 57:0.5626368522644043 58:0.5389739871025085 59:-0.4072389304637909 60:-0.9133216738700867 61:0.5111269950866699 62:0.46104294061660767 63:0.015004315413534641 64:-0.9998874068260193 65:0.5635280013084412 66:0.4795878231525421 67:0.9956876635551453 68:0.09276936203241348 69:0.6495901346206665 70:0.47394371032714844 71:0.9835758805274963 72:-0.18049506843090057 73:0.7606474161148071 74:0.4434146285057068 75:0.9432860612869263 76:-0.3319810628890991 77:0.850740909576416 78:0.4031504988670349 79:0.9129725098609924 80:-0.40802106261253357 
0.32494032954306046 0.0 0.0 0.0 0.0 0.0 0.0 0.0 0.23048647744293066 0.16388745135505706 0.0 0.3043313361317694 0.0 0.0 0.0 0.0 0.0 0.314014595479781 0.0 0.0 0.0 1:0.8563217520713806 2:0.0 3:-0.9548574090003967 4:0.29706454277038574 5:0.8218387365341187 6:0.01072796992957592 7:-0.7777926325798035 8:0.6285209655761719 9:0.7804598808288574 10:0.061302684247493744 11:-0.6962293386459351 12:0.7178193926811218 13:0.7229883670806885 14:0.11264368146657944 15:-0.8072977066040039 16:0.5901443958282471 17:0.5383141040802002 18:0.2383141815662384 19:-0.7728286385536194 20:0.6346148252487183 21:0.41877371072769165 22:0.3624521493911743 23:-0.6443864703178406 24:0.7646999955177307 25:0.29616880416870117 26:0.5256704688072205 27:-0.565208375453949 28:0.8249481320381165 29:0.18199217319488525 30:0.7080458998680115 31:-0.4216095209121704 32:0.9067775011062622 33:0.14367824792861938 34:0.8536398410797119 35:0.03478912636637688 36:0.9993947148323059 37:0.19042131304740906 38:0.9501916170120239 39:0.7071071863174438 40:0.707106351852417 41:0.2900385856628418 42:1.0 43:0.9962835907936096 44:0.08613357692956924 45:0.4563216269016266 46:0.9731799960136414 47:0.9630072712898254 48:-0.26947543025016785 49:0.6432947516441345 50:0.9011493921279907 51:0.8773579001426697 52:-0.47983649373054504 53:0.7911875247955322 54:0.7900382280349731 55:0.6704617142677307 56:-0.7419441342353821 57:0.8517239689826965 58:0.6704981327056885 59:0.09207279980182648 60:-0.9957522749900818 61:0.8118771314620972 62:0.5662835240364075 63:-0.6341284513473511 64:-0.7732276916503906 65:0.73294997215271 66:0.5256704688072205 67:-0.9949215054512024 68:-0.10065340995788574 69:0.6149424314498901 70:0.546360194683075 71:-0.9623093008995056 72:0.27195748686790466 73:0.4862068295478821 74:0.5954023599624634 75:-0.8998872637748718 76:0.43612268567085266 77:0.39042139053344727 78:0.6551724076271057 79:-0.8483796119689941 80:0.5293883085250854 
0.0 0.7722522382706244 0.47146211463064297 0.18372870148337483 0.05644895910007797 0.0 0.0 0.03596772688417744 0.08872931420614717 0.6875045323068885 1.0195885554781188 0.0 0.011457268789858272 0.3620186052826264 0.5701246677681744 0.8579290408205337 0.2662606910042897 0.2655705128625263 0.938542260753668 0.2651239826074016 0.05957787645665851 1:0.6345136761665344 2:0.08238097280263901 3:-0.802752673625946 4:-0.5963121056556702 5:0.5954826474189758 6:0.053387392312288284 7:-0.9884536266326904 8:-0.15152378380298615 9:0.4017292559146881 10:0.04669657349586487 11:-0.9675812721252441 12:0.25255998969078064 13:0.19710014760494232 14:0.15737397968769073 15:-0.7244818210601807 16:0.6892939209938049 17:0.05157497525215149 18:0.37984395027160645 19:-0.39465948939323425 20:0.9188274145126343 21:0.0 22:0.616253137588501 23:0.007992343977093697 24:0.9999680519104004 25:0.054921749979257584 26:0.798578143119812 27:0.5914583206176758 28:0.8063355088233948 29:0.23250767588615417 30:0.933230996131897 31:0.9493044018745422 32:0.3143581748008728 33:0.522163987159729 34:0.9533034563064575 35:0.9941636919975281 36:-0.10788220167160034 37:0.7694450616836548 38:0.8749649524688721 39:0.8937119841575623 40:-0.4486411511898041 41:0.870924174785614 42:0.7782267332077026 43:0.222070574760437 44:-0.9750306010246277 45:0.8165585398674011 46:0.6681069135665894 47:-0.8121740818023682 48:-0.5834152102470398 49:0.655142605304718 50:0.6232227087020874 51:-0.9947602152824402 52:-0.1022353395819664 53:0.4747711718082428 54:0.6329801082611084 55:-0.999738335609436 56:0.022874154150485992 57:0.4480073153972626 58:0.6279619932174683 59:0.952086865901947 60:-0.3058277666568756 61:0.5207698941230774 62:0.6182044744491577 63:0.9902377724647522 64:-0.13938824832439423 65:0.8282696604728699 66:0.5744353532791138 67:0.9898881316184998 68:-0.14185075461864471 69:0.9701712727546692 70:0.5538053512573242 71:0.9912590980529785 72:-0.13192982971668243 73:0.9832738637924194 74:0.5538053512573242 75:0.9423342943191528 76:-0.3346731662750244 77:1.0 78:0.5432115793228149 79:0.8448064923286438 80:-0.5350720286369324 
0.0 0.0 0.0 0.0 0.0 0.0 0.0 0.0 0.0 0.0 0.0 0.0 0.0 0.0 0.0 0.0 0.0 0.0 0.0 0.0 1.0290052565077572 1:0.602371096611023 2:0.005153974983841181 3:-0.624664843082428 4:-0.7808929681777954 5:0.5982482433319092 6:0.0 7:-0.9554035663604736 8:0.29530319571495056 9:0.5740239024162292 10:0.013915734365582466 11:-0.8796274065971375 12:0.47566333413124084 13:0.5508311986923218 14:0.025641025975346565 15:-0.8632503151893616 16:0.5047760605812073 17:0.45921963453292847 18:0.08104625344276428 19:-0.791333019733429 20:0.6113853454589844 21:0.3156808018684387 22:0.20731864869594574 23:-0.6663602590560913 24:0.7456299066543579 25:0.18193571269512177 26:0.39131560921669006 27:-0.46196886897087097 28:0.8868961334228516 29:0.12124747037887573 30:0.5805952548980713 31:-0.12449602037668228 32:0.9922201037406921 33:0.1349058747291565 34:0.7661384344100952 35:0.26283806562423706 36:0.9648399949073792 37:0.21401850879192352 38:0.9211441278457642 39:0.6744527816772461 40:0.7383180260658264 41:0.34853819012641907 42:1.0 43:0.9852952361106873 44:0.17086048424243927 45:0.5260915756225586 46:0.975260853767395 47:0.9206323027610779 48:-0.39043086767196655 49:0.7058372497558594 50:0.848473072052002 51:0.7314815521240234 52:-0.6818612813949585 53:0.8489875793457031 54:0.6742686033248901 55:0.5535562038421631 56:-0.8328117728233337 57:0.8787525296211243 58:0.5883262753486633 59:-0.2581366300582886 60:-0.9661084413528442 61:0.818966805934906 62:0.5619121193885803 63:-0.9981228709220886 64:-0.061243392527103424 65:0.6813570857048035 66:0.5762143731117249 67:-0.9938474893569946 68:0.1107574850320816 69:0.559980571269989 70:0.5907743573188782 71:-0.9960646629333496 72:0.08862917125225067 73:0.5235154628753662 74:0.5902590155601501 75:-0.9999427795410156 76:-0.010693226009607315 77:0.5117900371551514 78:0.5902590155601501 79:-1.0 80:0.0 
0.2035205103843136 0.4867846395041447 1.919797588024847 0.32415896910948944 0.9042696693181171 2.007540911953505 0.3770795444716318 0.27958600961664065 0.18156980052152316 0.6969361372347341 0.0 0.17241536806435176 0.49896796349939326 0.28866607591423277 0.3040498375726038 2.5190258643639543 0.0 0.9698937912263971 1.0831185389104399 2.2290302279408096 0.4703250367536186 1:0.664878249168396 2:0.08414239436388016 3:-0.7236727476119995 4:-0.6901432871818542 5:0.576647937297821 6:0.0 7:-0.9532317519187927 8:-0.3022403419017792 9:0.4462388753890991 10:0.014818601310253143 11:-0.9545355439186096 12:0.29809728264808655 13:0.390146940946579 14:0.05824344977736473 15:-0.7272239327430725 16:0.6864002346992493 17:0.3116164207458496 18:0.14188383519649506 19:-0.45236536860466003 20:0.8918326497077942 21:0.2678419351577759 22:0.2993662357330322 23:-0.1960161328315735 24:0.9806006550788879 25:0.24740248918533325 26:0.4631238281726837 27:-0.10959853231906891 28:0.9939759373664856 29:0.23871570825576782 30:0.5635191202163696 31:-0.06730270385742188 32:0.9977325797080994 33:0.22900697588920593 34:0.7358291149139404 35:0.009352320805191994 36:0.9999562501907349 37:0.24178163707256317 38:0.8913302421569824 39:0.2517710030078888 40:0.9677867889404297 41:0.29069289565086365 42:0.9729446768760681 43:0.6752008199691772 44:0.737634003162384 45:0.3412536084651947 46:1.0 47:0.9955840110778809 48:0.09387505054473877 49:0.4584038555622101 50:0.988758385181427 51:0.9581233859062195 52:-0.2863556742668152 53:0.5715559720993042 54:0.9311692118644714 55:0.8723374605178833 56:-0.48890429735183716 57:0.6776528358459473 58:0.8658795952796936 59:0.7493003606796265 60:-0.6622303128242493 61:0.733180046081543 62:0.7883261442184448 63:0.5058180689811707 64:-0.8626402020454407 65:0.7709929943084717 66:0.7066939473152161 67:-0.1433020532131195 68:-0.9896790385246277 69:0.7108042240142822 70:0.6337932348251343 71:-0.9271898865699768 72:-0.3745916783809662 73:0.595608115196228 74:0.6358371376991272 75:-0.9864622950553894 76:0.16398830711841583 77:0.40342360734939575 78:0.6848918199539185 79:-0.9689342379570007 80:0.24731837213039398 
0.8178863851647414 0.4931249372870981 0.0 0.3081675077060476 0.21440406457386346 0.0 0.9662547622338687 1.3069842860228356 0.6117292188489342 0.9332549006917845 0.0 1.1905537272843636 1.6274232520375544 0.19913938997675587 0.5150740450162935 1.1044849561802894 0.25234690156831524 0.23569797114289012 0.5251570488573041 2.0248721633886175 0.598862763762839 1:0.3947368562221527 2:0.0 3:-0.7071086168289185 4:0.7071049809455872 5:0.32548442482948303 6:0.06925207376480103 7:-0.7517591714859009 8:0.6594377756118774 9:0.2368421107530594 10:0.13850414752960205 11:-0.5943900942802429 12:0.8041768074035645 13:0.18421053886413574 14:0.2603878080844879 15:-0.39643600583076477 16:0.9180623888969421 17:0.1315789520740509 18:0.3822714686393738 19:-0.2110460251569748 20:0.9774760603904724 21:0.1315789520740509 22:0.5041550993919373 23:0.31888508796691895 24:0.9477934241294861 25:0.23130236566066742 26:0.6786704063415527 27:0.4701600968837738 28:0.8825811743736267 29:0.28947368264198303 30:0.8005539774894714 31:0.5015290379524231 32:0.8651407957077026 33:0.34210526943206787 34:0.8698061108589172 35:0.713683545589447 36:0.7004682421684265 37:0.43905800580978394 38:0.9473684430122375 39:0.7872284054756165 40:0.6166614890098572 41:0.5083104372024536 42:1.0 43:0.9920835494995117 44:0.12557987868785858 45:0.6578947305679321 46:0.9750692248344421 47:0.9327980279922485 48:-0.3603995740413666 49:0.752077579498291 50:0.9058171510696411 51:0.6498848795890808 52:-0.7600327134132385 53:0.8213300704956055 54:0.7839335203170776 55:0.43072977662086487 56:-0.902480959892273 57:0.8684210777282715 58:0.6620499491691589 59:0.04050412029027939 60:-0.9991793632507324 61:0.8296396732330322 62:0.5789473652839661 63:-0.9317775964736938 64:-0.3630295693874359 65:0.6551240682601929 66:0.5789473652839661 67:-1.0 68:0.0 69:0.5332409143447876 70:0.5789473652839661 71:-1.0 72:0.0 73:0.41135767102241516 74:0.5789473652839661 75:-0.9641160368919373 76:-0.26548123359680176 77:0.34210526943206787 78:0.5263158082962036 79:-0.7961637377738953 80:-0.60508131980896 
0.0 0.0 0.0 0.0 0.0 4.384841987617153 0.0 0.0 0.0 0.0 0.0 0.0 0.0 0.0 0.0 0.0 0.0 0.0 0.0 0.0 0.0 1:0.6967965364456177 2:0.043478261679410934 3:-0.9146862030029297 4:-0.40416473150253296 5:0.5983986258506775 6:0.0 7:-0.9840194582939148 8:-0.17806102335453033 9:0.4565224051475525 10:0.0 11:-0.9354721903800964 12:0.35340023040771484 13:0.3924487829208374 14:0.07780319452285767 15:-0.5339914560317993 16:0.8454898595809937 17:0.3466830253601074 18:0.17391304671764374 19:-0.5524616837501526 20:0.833538293838501 21:0.2620139718055725 22:0.27459949254989624 23:-0.3880597651004791 24:0.9216342568397522 25:0.2368422895669937 26:0.43478259444236755 27:-0.15145808458328247 28:0.9884636998176575 29:0.21853572130203247 30:0.5583524107933044 31:-0.06880184262990952 32:0.9976304173469543 33:0.21853572130203247 34:0.7002288103103638 35:0.05635993555188179 36:0.9984105229377747 37:0.2345534712076187 38:0.8421052098274231 39:0.34030476212501526 40:0.9403152465820312 41:0.30549225211143494 42:0.9405032992362976 43:0.696634829044342 44:0.7174258828163147 45:0.38787245750427246 46:1.0 47:0.9960972666740417 48:0.08826252073049545 49:0.48627039790153503 50:0.95652174949646 51:0.9159568548202515 52:-0.4012768566608429 53:0.6281466484069824 54:0.8947368860244751 55:0.7958283424377441 56:-0.6055223345756531 57:0.6967965364456177 58:0.7963386178016663 59:0.5379128456115723 60:-0.8430004119873047 61:0.7814642786979675 62:0.6544622182846069 63:0.38301828503608704 64:-0.9237407445907593 65:0.7746005058288574 66:0.6086956262588501 67:-0.7627566456794739 68:-0.6466856002807617 69:0.6762012243270874 70:0.5652173757553101 71:-0.9988681077957153 72:-0.04756546765565872 73:0.5343250036239624 74:0.5972538590431213 75:-0.9884636998176575 76:0.15145833790302277 77:0.3924487829208374 78:0.6086956262588501 79:-0.9967639446258545 80:0.08038514852523804 
0.0 0.0 0.0 0.0 0.0 0.0 0.20371139915809988 0.0 0.0 0.0 0.0 0.0 0.17620279015134097 0.0 0.0 0.0 0.0 0.0 0.0 0.0 0.0 1:0.8626760244369507 2:0.025821596384048462 3:-0.9878771305084229 4:-0.1552378088235855 5:0.6983567476272583 6:0.0 7:-0.9988526105880737 8:0.04789019003510475 9:0.5199530124664307 10:0.0422535203397274 11:-0.8034126162528992 12:0.595422625541687 13:0.23591548204421997 14:0.34272301197052 15:-0.5071560740470886 16:0.8618542551994324 17:0.13732394576072693 18:0.6924882531166077 19:0.07731890678405762 20:0.997006356716156 21:0.28051644563674927 22:0.9178403615951538 23:0.7488033771514893 24:0.6627922058105469 25:0.48474177718162537 26:1.0 27:0.9999768733978271 28:0.006802540272474289 29:0.6255868673324585 30:0.920187771320343 31:0.8126227259635925 32:-0.5827900767326355 33:0.7171361446380615 34:0.8333333134651184 35:0.5684321522712708 36:-0.8227301239967346 37:0.7147887945175171 38:0.7910798192024231 39:-0.5717927813529968 40:-0.8203980922698975 41:0.6631455421447754 42:0.7558685541152954 43:-0.927241861820221 44:-0.37446296215057373 45:0.59272301197052 46:0.7417840361595154 47:-0.975716233253479 48:-0.21903856098651886 49:0.5481220483779907 50:0.7300469279289246 51:-0.9701424837112427 52:-0.24253587424755096 53:0.5363849997520447 54:0.7276995182037354 55:-1.0 56:0.0 57:0.5434272289276123 58:0.7300469279289246 59:0.9987523555755615 60:0.049937427043914795 61:0.5833333730697632 62:0.7300469279289246 63:0.9993921518325806 64:0.034862689673900604 65:0.7453051805496216 66:0.737089216709137 67:0.9993395805358887 68:0.03633973374962807 69:0.841549277305603 70:0.7394366264343262 71:0.9997026920318604 72:0.02438291721045971 73:0.841549277305603 74:0.7394366264343262 75:-0.9892033338546753 76:-0.14654916524887085 77:0.7781690359115601 78:0.7300469279289246 79:-0.9892033338546753 80:-0.14654916524887085 
-0.9826861942118317 1.2333955136609693 0.3379055703454939 0.8483920040914867 0.36635679595423776 0.8143274387957874 0.4978565282937407 0.4566288838587294 1.7104638777834404 1.6798246888677324 0.8669370302244465 0.6991619890316644 0.7353324876617655 0.5670817024044633 1.5466093329311872 0.41436033060661853 0.5311083639775193 0.7569716604060095 0.8150905836208039 0.750727081956708 0.8355291127533284 1:0.3520301878452301 2:0.06871422380208969 3:-0.08108113706111908 4:0.9967074990272522 5:0.33068719506263733 6:0.33107760548591614 7:-0.1281481385231018 8:0.9917550086975098 9:0.2801925837993622 10:0.6246747374534607 11:-0.2380521595478058 12:0.9712523818016052 13:0.20054656267166138 14:0.8620511293411255 15:-0.3070835471153259 16:0.9516825675964355 17:0.16462776064872742 18:0.9828216433525085 19:-0.3086801767349243 20:0.9511659145355225 21:0.15577825903892517 22:1.0 23:0.0 24:-1.0 25:0.16462776064872742 26:0.9370120763778687 27:0.13912880420684814 28:-0.9902743697166443 29:0.06780317425727844 30:0.07183759659528732 31:0.97942715883255 32:-0.2017979919910431 33:0.36530449986457825 34:0.010541385971009731 35:0.9912778735160828 36:-0.13178838789463043 37:0.6081467866897583 38:0.0 39:0.998684287071228 40:0.05128142982721329 41:0.813899040222168 42:0.03357626497745514 43:0.9457783102989197 44:0.32481274008750916 45:0.917360782623291 46:0.10619470477104187 47:0.5602349042892456 48:0.8283337950706482 49:0.932196855545044 50:0.2084851861000061 51:-0.3060090243816376 52:0.9520286321640015 53:0.8541125059127808 54:0.30296725034713745 55:-0.7820368409156799 56:0.6232322454452515 57:0.7283966541290283 58:0.37090063095092773 59:-0.9465588331222534 60:0.3225310742855072 61:0.5378708839416504 62:0.41072362661361694 63:-0.9887446761131287 64:0.1496126502752304 65:0.4316762089729309 66:0.4157991111278534 67:-0.9966506958007812 68:-0.0817764550447464 69:0.38560643792152405 70:0.3982301354408264 71:-0.9465469121932983 72:-0.3225662112236023 73:0.3617907166481018 74:0.39198338985443115 75:-0.5900168418884277 76:0.8073908686637878 77:0.3707703948020935 78:0.4185320734977722 79:0.320403128862381 80:0.9472813010215759 
-0.0 0.0 0.0 0.0 0.0 0.0 0.0 0.0 0.0 0.0 0.0 9.48525858041554 0.0 0.0 0.0 0.3662763648551099 0.0 0.0 0.0 0.0 0.0 1:0.20670393109321594 2:0.16201117634773254 3:0.0 4:1.0 5:0.20670393109321594 6:0.2048417180776596 7:0.17532408237457275 8:0.9845107197761536 9:0.23091253638267517 10:0.2979516088962555 11:0.17947031557559967 12:0.9837633371353149 13:0.2569832503795624 14:0.4804469347000122 15:0.06683573126792908 16:0.997763991355896 17:0.2569832503795624 18:0.6871508955955505 19:-0.06454171240329742 20:0.9979150295257568 21:0.23277470469474792 22:0.8547486066818237 23:-0.17579065263271332 24:0.9844275712966919 25:0.20111733675003052 26:1.0 27:-0.2129497528076172 28:0.9770631790161133 29:0.11173185706138611 30:0.25139665603637695 31:0.09053577482700348 32:-0.9958931803703308 33:0.12011174857616425 34:0.15921787917613983 35:0.46850255131721497 36:-0.8834620714187622 37:0.20949721336364746 38:0.0670391097664833 39:0.8488538861274719 40:-0.5286275744438171 41:0.3533519506454468 42:0.013966480270028114 43:0.9695391654968262 44:-0.24493622779846191 45:0.4748603403568268 46:0.0 47:0.9778023958206177 48:0.2095290571451187 49:0.6075419187545776 50:0.06843575090169907 51:0.7982549667358398 52:0.6023197770118713 53:0.7821228504180908 54:0.23184357583522797 55:0.6405141949653625 56:0.7679463624954224 57:0.8743016719818115 58:0.3882681429386139 59:0.313749760389328 60:0.9495057463645935 61:0.8882681131362915 62:0.5530726313591003 63:-0.3495904803276062 64:0.9369025826454163 65:0.7695530652999878 66:0.6689944267272949 67:-0.9040722250938416 68:0.42737963795661926 69:0.5810055732727051 70:0.6983240246772766 71:-0.9993091821670532 72:0.03716442734003067 73:0.43156424164772034 74:0.6815642714500427 75:-0.9725789427757263 76:-0.2325732260942459 77:0.3240223526954651 78:0.6368715167045593 79:-0.9234312772750854 80:-0.38376384973526 
-0.0 0.0 0.03878547489067516 0.0 0.0 0.0 0.0 0.0 0.0 0.0 0.0 3.1167359532880963 0.0 0.0 0.0 0.08204149216228004 0.0 0.0 0.0 0.0 0.5489161410404197 1:0.2112363874912262 2:0.10269835591316223 3:0.14101985096931458 4:0.9900067448616028 5:0.25070518255233765 6:0.3797825574874878 7:0.1053427904844284 8:0.9944359660148621 9:0.271647185087204 10:0.6729762554168701 11:0.008709590882062912 12:0.9999620914459229 13:0.2547321617603302 14:0.8421264886856079 15:-0.024057209491729736 16:0.9997106194496155 17:0.26439788937568665 18:0.9742247462272644 19:0.03059791959822178 20:0.9995318055152893 21:0.2595650255680084 22:1.0 23:-0.7474088072776794 24:0.6643643975257874 25:0.24989929795265198 26:0.9871124029159546 27:-0.6000011563301086 28:-0.7999990582466125 29:0.19673779606819153 30:0.06403544545173645 31:0.9496577382087708 32:-0.31328916549682617 33:0.3139347434043884 34:0.02537253499031067 35:0.966315507888794 36:-0.25736039876937866 37:0.4371727705001831 38:0.0 39:0.9988499879837036 40:-0.047944795340299606 41:0.5404752492904663 42:0.014498591423034668 43:0.9342183470726013 44:0.3567016124725342 45:0.6365283727645874 46:0.076117604970932 47:0.6623396277427673 48:0.7492037415504456 49:0.7615787982940674 50:0.2645992934703827 51:0.461879700422287 52:0.8869425654411316 53:0.8032622337341309 54:0.39629483222961426 55:0.1263376772403717 56:0.9919872879981995 57:0.7942005395889282 58:0.5207410454750061 59:-0.39609140157699585 60:0.9182111024856567 61:0.7235199213027954 62:0.5811518430709839 63:-0.9539259672164917 64:0.30004197359085083 65:0.5157067775726318 66:0.6083367466926575 67:-0.997617781162262 68:0.06898421049118042 69:0.26923075318336487 70:0.6125654578208923 71:-0.9998055100440979 72:-0.019720129668712616 73:0.20942406356334686 74:0.6022956371307373 75:-0.9676172733306885 76:-0.25242188572883606 77:0.2136528193950653 78:0.5980668663978577 79:0.7071055173873901 80:-0.7071080207824707 
-0.0 0.23561717354270884 0.0 0.0 0.0 0.0 0.0 0.0 0.0 0.0 0.0 1.5213067162067122 0.0 0.0 0.0 0.1424037855493867 0.0 0.0 0.0 0.0 0.0 1:0.17784669995307922 2:0.08220610022544861 3:0.19043634831905365 4:0.981699526309967 5:0.22147098183631897 6:0.30708929896354675 7:0.17148372530937195 8:0.9851869940757751 9:0.2640804350376129 10:0.5776254534721375 11:0.1210852786898613 12:0.9926421046257019 13:0.2830173969268799 14:0.8116391897201538 15:0.07675952464342117 16:0.9970496296882629 17:0.2948533296585083 18:0.9773426651954651 19:0.05735723301768303 20:0.9983537793159485 21:0.29383906722068787 22:1.0 23:-0.06958184391260147 24:0.9975762367248535 25:0.29383906722068787 26:0.9918838739395142 27:0.0 28:-1.0 29:0.29383906722068787 30:0.981738805770874 31:0.0 32:-1.0 33:0.27490153908729553 34:0.018291933462023735 35:0.9872884750366211 36:-0.158938467502594 37:0.3885267376899719 38:0.0 39:0.9999825954437256 40:0.005902097560465336 41:0.5301276445388794 42:0.01979832910001278 43:0.951334536075592 44:0.30816006660461426 45:0.6934638023376465 46:0.0987764298915863 47:0.7861575484275818 48:0.618026077747345 49:0.7847088575363159 50:0.21993356943130493 51:0.4463188350200653 52:0.8948739767074585 53:0.8221533298492432 54:0.35680028796195984 55:0.13017751276493073 56:0.9914906620979309 57:0.8161278963088989 58:0.45923516154289246 59:-0.3925178050994873 60:0.9197443723678589 61:0.7494158744812012 62:0.5272380709648132 63:-0.885654628276825 64:0.46434450149536133 65:0.6478416919708252 66:0.5474668145179749 67:-0.9903848171234131 68:0.13833948969841003 69:0.4104769825935364 70:0.5745819211006165 71:-0.9972598552703857 72:0.073978491127491 73:0.3519427478313446 74:0.5694171190261841 75:-0.9632452130317688 76:-0.26862359046936035 77:0.3340813219547272 78:0.5532771944999695 79:-0.7419574856758118 80:-0.6704469323158264 
-0.0 0.0 0.0 0.0 0.0 0.0 0.0 0.0 0.0 0.0 0.0 0.0 0.0 0.0 0.0 0.0 0.0 0.0 0.006258678431816509 0.0 0.0 1:0.20392273366451263 2:0.2077122926712036 3:0.0 4:1.0 5:0.20392273366451263 6:0.2430238574743271 7:-0.005250241607427597 8:0.9999861717224121 9:0.20261362195014954 10:0.45705199241638184 11:-0.01359899714589119 12:0.9999075531959534 13:0.19737717509269714 14:0.7243059277534485 15:0.04995838552713394 16:0.9987513422966003 17:0.2287958413362503 18:0.9804781675338745 19:0.07810955494642258 20:0.9969447255134583 21:0.21897751092910767 22:1.0 23:-0.2483569234609604 24:-0.9686685800552368 25:0.1875588446855545 26:0.8196411728858948 27:-0.08207443356513977 28:-0.9966261982917786 29:0.1836315244436264 30:0.5707952380180359 31:0.017871100455522537 32:-0.999840259552002 33:0.1967226266860962 34:0.30695202946662903 35:0.08681772649288177 36:-0.9962241649627686 37:0.22159573435783386 38:0.13515998423099518 39:0.38175705075263977 40:-0.9242626428604126 41:0.3000275492668152 42:0.05684301257133484 43:0.856788694858551 44:-0.515667736530304 45:0.4461658000946045 46:0.0 47:0.9887456893920898 48:-0.1496058851480484 49:0.6237913966178894 50:0.007854707539081573 51:0.9529634714126587 52:0.3030852675437927 53:0.7811602354049683 54:0.10654330998659134 55:0.8189029097557068 56:0.5739320516586304 57:0.8333868980407715 58:0.15475071966648102 59:0.1785951405763626 60:0.9839227199554443 61:0.8171952962875366 62:0.3050689399242401 63:-0.3609812259674072 64:0.9325730800628662 65:0.707459568977356 66:0.4800763428211212 67:-0.7565388679504395 68:0.6539487242698669 69:0.5211409330368042 70:0.5609769821166992 71:-0.9659295082092285 72:0.25880518555641174 73:0.3371993899345398 74:0.5792815685272217 75:-0.9962506294250488 76:-0.08651398867368698 77:0.16661307215690613 78:0.5301899313926697 79:-0.9609973430633545 80:-0.2765575349330902 
-0.0 0.0 0.0 0.0 0.0 0.0 0.0 0.0 0.0 0.0 0.0 2.134440594247547 0.0 0.0 0.0 0.0 0.0 0.0 0.0 0.0 0.0 1:0.19437938928604126 2:0.18735362589359283 3:0.07728755474090576 4:0.9970088005065918 5:0.2031615972518921 6:0.30064404010772705 7:0.18957699835300446 8:0.9818658232688904 9:0.25644028186798096 10:0.5087822079658508 11:0.25830909609794617 12:0.9660623073577881 13:0.31235361099243164 14:0.7090163826942444 15:0.22835122048854828 16:0.9735788106918335 17:0.34309130907058716 18:0.8782201409339905 19:0.1569495052099228 20:0.9876065850257874 21:0.3553864359855652 22:0.9798009395599365 23:0.16132067143917084 24:0.9869019985198975 25:0.3629976511001587 26:1.0 27:0.4648326635360718 28:0.8853985667228699 29:0.3615339398384094 30:0.9915105104446411 31:-0.1788858324289322 32:-0.9838698506355286 33:0.35831379890441895 34:0.9742388725280762 35:-0.18328270316123962 36:-0.9830602407455444 37:0.3817330002784729 38:0.007025761064141989 39:0.9964681267738342 40:-0.08397207409143448 41:0.4651053249835968 42:0.0 43:0.9960725903511047 44:0.08853977918624878 45:0.5714285373687744 46:0.02388758584856987 47:0.929042637348175 48:0.3699725866317749 49:0.6768149733543396 50:0.08430911600589752 51:0.6633078455924988 52:0.748346745967865 53:0.7723654508590698 54:0.2505854666233063 55:0.4054543972015381 56:0.9141152501106262 57:0.8056206107139587 58:0.37470725178718567 59:-0.35024604201316833 60:0.936657726764679 61:0.6903982162475586 62:0.46978920698165894 63:-0.8874201774597168 64:0.46096134185791016 65:0.5044494271278381 66:0.5311475396156311 67:-0.9724353551864624 68:0.2331724911928177 69:0.34660422801971436 70:0.5522248148918152 71:-0.9970154762268066 72:0.07720251381397247 73:0.2927400469779968 74:0.5475409626960754 75:-0.9886444211006165 76:-0.15027345716953278 77:0.2880561947822571 78:0.5433255434036255 79:-0.7432978749275208 80:-0.6689605712890625 
-0.0 0.0 0.0 0.0 0.0 0.2917153285344951 0.1519563042910826 0.0 0.0 0.0 0.0 0.0 0.0 0.0 0.0 0.0 0.0 0.0 0.0 0.008327128004331361 0.6269407160587271 1:0.2903883457183838 2:0.03142328932881355 3:0.06723877787590027 4:0.9977368712425232 5:0.2975510060787201 6:0.13770794868469238 7:0.07878176122903824 8:0.9968919157981873 9:0.31441792845726013 10:0.33548983931541443 11:0.07151217013597488 12:0.9974397420883179 13:0.3241221606731415 14:0.5083179473876953 15:-0.007957353256642818 16:0.9999683499336243 17:0.3116452693939209 18:0.6839186549186707 19:-0.05932158976793289 20:0.9982389211654663 21:0.304020494222641 22:0.8465803861618042 23:-0.012890246696770191 24:0.9999168515205383 25:0.30841052532196045 26:0.9348428845405579 27:0.03767834231257439 28:0.9992899298667908 29:0.30933475494384766 30:0.987523078918457 31:0.007092136889696121 32:0.9999748468399048 33:0.30887264013290405 34:1.0 35:-0.037012189626693726 36:0.9993147850036621 37:0.3606286346912384 38:0.029574861750006676 39:0.978620171546936 40:-0.20567603409290314 41:0.46968597173690796 42:0.006654344033449888 43:0.9905248284339905 44:-0.13733401894569397 45:0.5739380121231079 46:0.0 47:0.9632912278175354 48:0.26845866441726685 49:0.6726430654525757 50:0.06321625411510468 51:0.5863623023033142 52:0.8100489377975464 53:0.7096116542816162 54:0.18743067979812622 55:0.06620632857084274 56:0.9978059530258179 57:0.693345844745636 58:0.3752310574054718 59:-0.24750643968582153 60:0.9688862562179565 61:0.6360445022583008 62:0.4754159152507782 63:-0.7045387625694275 64:0.7096654772758484 65:0.5410345792770386 66:0.5286506414413452 67:-0.9638022780418396 68:0.26661786437034607 69:0.42088669538497925 70:0.5349352955818176 71:-0.9900534749031067 72:-0.1406916230916977 73:0.33031368255615234 74:0.4987061321735382 75:-0.8769589066505432 76:-0.48056545853614807 77:0.30147892236709595 78:0.46950092911720276 79:-0.7025793194770813 80:-0.711605429649353 
-0.2710301709437228 1.592096802677095 0.0 0.0 0.0 0.3346448234520999 0.4379164659971497 0.14087638181671824 0.0 0.16988579432467854 0.08195541754140329 0.0 1.1343678870886906 0.013250106383772565 0.6411213366993631 0.0 0.0 0.0 0.06736632840022415 0.4462815753108485 0.6431319604066684 1:0.20182093977928162 2:0.034901365637779236 3:0.17550338804721832 4:0.9844788908958435 5:0.22609978914260864 6:0.17109255492687225 7:0.1141679510474205 8:0.9934614896774292 9:0.2450682818889618 10:0.41122910380363464 11:0.016580957919359207 12:0.9998624920845032 13:0.2348254919052124 14:0.6972686052322388 15:-0.01981170102953911 16:0.9998037219047546 17:0.23520559072494507 18:0.9089528918266296 19:0.08103346079587936 20:0.9967113733291626 21:0.2575872540473938 22:0.9772382378578186 23:0.39760109782218933 24:0.9175583720207214 25:0.27465859055519104 26:1.0 27:0.6000003218650818 28:0.7999997138977051 29:0.19271624088287354 30:0.021244309842586517 31:0.9966109395027161 32:-0.08225993812084198 33:0.3122154772281647 34:0.011380882002413273 35:0.9977424740791321 36:-0.06715582311153412 37:0.5083456039428711 38:0.0 39:0.9994378685951233 40:0.03352411836385727 41:0.674127459526062 42:0.023520486429333687 43:0.9496017098426819 44:0.31345924735069275 45:0.7427928447723389 46:0.07738997787237167 47:0.6531575918197632 48:0.757222056388855 49:0.7860391139984131 50:0.15326248109340668 51:0.38301122188568115 52:0.9237436652183533 53:0.8072837591171265 54:0.23292867839336395 55:-0.028765158727765083 56:0.9995861649513245 57:0.7814867496490479 58:0.3114566504955292 59:-0.6416341662406921 60:0.7670108079910278 61:0.6752655506134033 62:0.39074352383613586 63:-0.9571948647499084 64:0.2894442081451416 65:0.49544766545295715 66:0.3979514241218567 67:-0.999828577041626 68:-0.01851523295044899 69:0.3065250515937805 70:0.3839150369167328 71:-0.9926633238792419 72:-0.12091067433357239 73:0.2431711107492447 74:0.3672230541706085 75:-0.8904344439506531 76:-0.4551115036010742 77:0.23823976516723633 78:0.34901362657546997 79:-0.26139697432518005 80:-0.9652313590049744 
-1.2154833280034198 0.4309633034896161 0.3741682769469167 0.32576742513620616 0.3538880419309376 0.802830496334088 0.07934540039370348 0.49485808566812267 0.24589212447099515 0.5149825328406192 1.0167852718105488 0.4592159171915608 0.8441069713920145 0.2870376806696675 1.211419052186475 0.45661232805343493 0.3906807240659561 0.7304873840379998 0.5373482288426475 0.4694818559518401 0.5085468567201311 1:0.27034687995910645 2:0.0 3:-0.9954954981803894 4:0.09480903297662735 5:0.2480538785457611 6:0.002123141661286354 7:-0.8367038369178772 8:0.5476556420326233 9:0.21195992827415466 10:0.03821656107902527 11:-0.35112354159355164 12:0.9363291263580322 13:0.20346787571907043 14:0.12101911008358002 15:0.025634411722421646 16:0.9996713399887085 17:0.21939145028591156 18:0.3280254304409027 19:0.053420595824718475 20:0.9985721111297607 21:0.2310682237148285 22:0.6369425654411316 23:0.02792208455502987 24:0.9996101260185242 25:0.23531502485275269 26:0.8980891704559326 27:0.035066090524196625 28:0.9993850588798523 29:0.24380706250667572 30:1.0 31:0.3767978847026825 32:0.9262954592704773 33:0.26079273223876953 34:0.9607219099998474 35:-0.1031469851732254 36:-0.9946662187576294 37:0.22894558310508728 38:0.8566879034042358 39:-0.29271429777145386 40:-0.9561999440193176 41:0.1779901683330536 42:0.03821656107902527 43:-0.991227924823761 44:-0.1321636289358139 45:0.16206660866737366 46:0.036093421280384064 47:0.9759811758995056 48:0.21785485744476318 49:0.2176218181848526 50:0.047062989324331284 51:0.9988945722579956 52:0.04700677841901779 53:0.43276724219322205 54:0.04883226752281189 55:0.9951810240745544 56:0.09805447608232498 57:0.6988680362701416 58:0.09447983652353287 59:0.925095796585083 60:0.37973374128341675 61:0.8379334211349487 62:0.2151450663805008 63:0.2658875286579132 64:0.9640039801597595 65:0.7735315561294556 66:0.36518049240112305 67:-0.6894811987876892 68:0.7243035435676575 69:0.5576785802841187 70:0.5095542073249817 71:-0.8952919840812683 72:0.44547969102859497 73:0.33474868535995483 74:0.5835102200508118 75:-0.9419828057289124 76:0.3356613516807556 77:0.2448691576719284 78:0.6210191249847412 79:-0.9228612780570984 80:0.385132372379303 
-1.0638244673288473 1.6357583677406156 0.9003910206180986 0.7345124258894877 1.052695749124027 0.5033992152685476 1.0034222192472084 0.9109064346996228 2.2668511000176794 1.7710786961501936 1.747982064449173 2.5055772676856862 0.21880967142812902 0.4332243419700326 2.8002238967491895 0.7923116027336361 0.5340424101350254 1.7818943195107844 1.0917277351880428 0.7298642641512378 0.9838217526401157 1:0.29330337047576904 2:0.00667094299569726 3:-0.894427478313446 4:0.4472128748893738 5:0.2889415919780731 6:0.008851828053593636 7:-0.25139784812927246 8:0.967883825302124 9:0.2881718873977661 10:0.026427196338772774 11:0.13691729307174683 12:0.9905825257301331 13:0.30805641412734985 14:0.1471455991268158 15:0.1203746423125267 16:0.9927284717559814 17:0.3307632803916931 18:0.3776780068874359 19:0.0876990482211113 20:0.9961470365524292 21:0.35526615381240845 22:0.6833868026733398 23:0.09760772436857224 24:0.9952249526977539 25:0.38438740372657776 26:0.9244387149810791 27:0.13332104682922363 28:0.9910728931427002 29:0.39785757660865784 30:1.0 31:0.20208963751792908 32:0.9793670773506165 33:0.38772284984588623 34:0.9406029582023621 35:-0.1681959629058838 36:-0.9857535362243652 37:0.28406667709350586 38:5.131494835950434E-4 39:0.9999919533729553 40:-0.004019259940832853 41:0.4117382764816284 42:0.0 43:0.9818686842918396 44:0.18956232070922852 45:0.5977036356925964 46:0.06106478348374367 47:0.8291988968849182 48:0.5589536428451538 49:0.7159333229064941 50:0.20505444705486298 51:0.3581218421459198 52:0.9336748719215393 53:0.7069018483161926 54:0.34576013684272766 55:-0.4589031934738159 56:0.8884862661361694 57:0.5729697942733765 58:0.48184734582901 59:-0.7916053533554077 60:0.6110327243804932 61:0.4279537796974182 62:0.5610775351524353 63:-0.9005730748176575 64:0.4347047209739685 65:0.39798587560653687 66:0.5663117170333862 67:-0.9897987246513367 68:0.1424729824066162 69:0.4008594751358032 70:0.5649775266647339 71:0.9966849088668823 72:-0.0813584178686142 73:0.4030146896839142 74:0.5659012198448181 75:0.7546050548553467 76:0.6561791300773621 77:0.41030144691467285 78:0.5731879472732544 79:0.7071082592010498 80:0.7071053385734558 
-0.0 0.0 0.0 0.0 0.0 0.0 0.0 0.0 0.0 0.0 0.0 1.3098707661651456 0.0 0.0 0.0 0.0 0.0 0.0 0.0 0.0 0.0 1:0.29532164335250854 2:0.005847954656928778 3:-0.2169305384159088 4:0.9761871099472046 5:0.26608186960220337 6:0.13742689788341522 7:-0.09950374811887741 8:0.9950371980667114 9:0.26608186960220337 10:0.2982456088066101 11:0.0 12:1.0 13:0.26608186960220337 14:0.4444444179534912 15:0.0 16:1.0 17:0.26608186960220337 18:0.5760233998298645 19:0.0 20:1.0 21:0.26608186960220337 22:0.7368420958518982 23:0.0 24:1.0 25:0.26608186960220337 26:0.8684210777282715 27:0.0 28:1.0 29:0.26608186960220337 30:1.0 31:0.0 32:1.0 33:0.26608186960220337 34:0.9853801131248474 35:0.0 36:-1.0 37:0.2514619827270508 38:0.049707602709531784 39:0.9486833810806274 40:-0.3162277638912201 41:0.3742690086364746 42:0.008771931752562523 43:0.9801293015480042 44:-0.19835954904556274 45:0.49707597494125366 46:0.0 47:0.9778023958206177 48:0.2095291167497635 49:0.6198829412460327 50:0.06140349805355072 51:0.7888002395629883 52:0.6146495938301086 53:0.7222221493721008 54:0.17543859779834747 55:0.47733157873153687 56:0.8787233233451843 57:0.7485380172729492 58:0.2982456088066101 59:2.2904259822098538E-7 60:1.0 61:0.7222222089767456 62:0.43567246198654175 63:-0.41300496459007263 64:0.9107287526130676 65:0.6345028877258301 66:0.5497076511383057 67:-0.8053366541862488 68:0.5928177833557129 69:0.5116959810256958 70:0.5906432867050171 71:-0.9753604531288147 72:0.2206171602010727 73:0.3888888955116272 74:0.6052631735801697 75:-1.0 76:0.0 77:0.32456138730049133 78:0.5906432867050171 79:-0.9751327633857727 80:-0.2216210663318634 
-0.0 0.0 0.16982025141279614 0.20548732697584907 0.04980772340820915 0.0 0.411808569302494 0.0 0.18093817576235813 0.5576513948090025 0.0 3.1098716600291456 0.0 0.08498160077069561 0.11725763349956192 0.0 0.0 0.1720766073514 0.6053365369491269 0.0 0.18355351261933892 1:0.229611337184906 2:0.13660554587841034 3:0.10994330793619156 4:0.9939379096031189 5:0.25149208307266235 6:0.33441752195358276 7:0.12021783739328384 8:0.9927475452423096 9:0.2857910394668579 10:0.6005322337150574 11:0.09917798638343811 12:0.995069682598114 13:0.2961399555206299 14:0.7823772430419922 15:0.07476779073476791 16:0.9972009658813477 17:0.3103328049182892 18:0.9278532862663269 19:0.13331103324890137 20:0.99107426404953 21:0.3254127502441406 22:1.0 23:0.1108831912279129 24:0.9938334226608276 25:0.3183163106441498 26:0.9994085431098938 27:-0.19784681499004364 28:-0.9802329540252686 29:0.3124025762081146 30:0.935541033744812 31:-0.09219938516616821 32:-0.995740532875061 33:0.30826300382614136 34:0.0020697815343737602 35:0.9999465346336365 36:-0.010337794199585915 37:0.5084673166275024 38:0.0 39:0.9862378239631653 40:0.16533306241035461 41:0.6303962469100952 42:0.05607225000858307 43:0.7712740898132324 44:0.6365031599998474 45:0.706601619720459 46:0.1635127067565918 47:0.5025012493133545 48:0.8645764589309692 49:0.7549592852592468 50:0.270388662815094 51:0.33608588576316833 52:0.9418312907218933 53:0.770388662815094 54:0.3422665297985077 55:-0.024418583139777184 56:0.9997017979621887 57:0.751948893070221 58:0.39363473653793335 59:-0.633463978767395 60:0.7737722396850586 61:0.6845870018005371 62:0.44707271456718445 63:-0.8981617093086243 64:0.43966519832611084 65:0.5455352067947388 66:0.49467769265174866 67:-0.9769237637519836 68:0.21358831226825714 69:0.3816462755203247 70:0.5133057236671448 71:-0.9988511204719543 72:0.04792200028896332 73:0.3455190658569336 74:0.5042738914489746 75:-0.8589832782745361 76:-0.5120036005973816 77:0.34344929456710815 78:0.4905381202697754 79:-0.14900262653827667 80:-0.9888368248939514 
-0.0 0.0 0.0 0.0 0.0 0.0 0.0 0.0 0.0 0.0 0.0 11.658178662814372 0.0 0.0 0.0 0.0 0.0 0.0 0.0 0.0 0.0 1:0.2666666507720947 2:0.0 3:-0.09950362145900726 4:0.9950371980667114 5:0.25333333015441895 6:0.13333334028720856 7:-0.024382969364523888 8:0.9997027516365051 9:0.25999999046325684 10:0.273333340883255 11:0.049322567880153656 12:0.9987828731536865 13:0.2666666507720947 14:0.4033333361148834 15:0.025632575154304504 16:0.999671459197998 17:0.2666666507720947 18:0.5333333611488342 19:0.0 20:1.0 21:0.2666666507720947 22:0.6633333563804626 23:-0.025632578879594803 24:0.999671459197998 25:0.25999999046325684 26:0.7933333516120911 27:-0.051214706152677536 28:0.9986876845359802 29:0.25333333015441895 30:0.9233333468437195 31:-0.03224126622080803 32:0.999480128288269 33:0.25333333015441895 34:1.0 35:0.0 36:1.0 37:0.3199999928474426 38:0.013333333656191826 39:0.9934588670730591 40:-0.11419068276882172 41:0.4359999895095825 42:0.0 43:0.998352587223053 44:-0.05737660452723503 45:0.5519999265670776 46:0.0 47:0.9733437299728394 48:0.2293512523174286 49:0.6679999828338623 50:0.05466669797897339 51:0.7282001376152039 52:0.6853645443916321 53:0.7333333492279053 54:0.1706666797399521 55:0.3211221396923065 56:0.9470378160476685 57:0.746666669845581 58:0.2866666615009308 59:-0.022982561960816383 60:0.9997358322143555 61:0.7279999852180481 62:0.40266671776771545 63:-0.4405101239681244 64:0.8977476358413696 65:0.6413332223892212 66:0.5013333559036255 67:-0.8404592275619507 68:0.5418748259544373 69:0.5253332853317261 70:0.5333333611488342 71:-0.9814388155937195 72:0.19177542626857758 73:0.4093332886695862 74:0.54666668176651 75:-1.0 76:0.0 77:0.30666667222976685 78:0.5333333611488342 79:-0.9916720390319824 80:-0.1287885159254074 
-1.1142963627039135 1.4654679966458313 0.5474234326479203 0.5076510811665212 0.6317475650335866 0.5213979719915693 0.0 1.0049316778729038 1.079549190853776 1.894830591247418 1.402694002866782 0.0 1.412349921554535 0.34806295577039525 1.875698016110407 1.1588668907264705 0.7208918844966631 1.0961559272812975 0.9499243416397712 0.8272478523049109 0.0 1:0.22259096801280975 2:0.17944608628749847 3:0.0 4:1.0 5:0.22259096801280975 6:0.2538338303565979 7:0.015065673738718033 8:0.9998865127563477 9:0.22693978250026703 10:0.46807050704956055 11:0.030113166198134422 12:0.999546468257904 13:0.23563742637634277 14:0.6868849992752075 15:0.05631290003657341 16:0.9984132051467896 17:0.2523460388183594 18:0.9185168743133545 19:0.1046847403049469 20:0.9945054650306702 21:0.268596887588501 22:1.0 23:0.3324657380580902 24:0.9431153535842896 25:0.274776816368103 26:0.9821469187736511 27:0.05604502931237221 28:-0.998428225517273 29:0.274776816368103 30:0.889906108379364 31:-0.04092942550778389 32:-0.9991620779037476 33:0.2631036937236786 34:0.697184681892395 35:-0.09154552966356277 36:-0.9958009123802185 37:0.2317463755607605 38:0.42183569073677063 39:-0.10843850672245026 40:-0.9941031336784363 41:0.213893324136734 42:0.24605172872543335 43:-0.006507449317723513 44:-0.9999788403511047 45:0.2296864092350006 46:0.10528726875782013 47:0.31333425641059875 48:-0.9496428966522217 49:0.2882811427116394 50:0.02059963531792164 51:0.9142470955848694 52:-0.4051571190357208 53:0.46726974844932556 54:0.0 55:0.9947864413261414 56:0.10198025405406952 57:0.6432822942733765 58:0.056992482393980026 59:0.8242228627204895 60:0.5662655830383301 61:0.7707713842391968 62:0.20851463079452515 63:0.353169322013855 64:0.9355594515800476 65:0.7861067056655884 66:0.43533995747566223 67:-0.28828632831573486 68:0.9575442671775818 69:0.6675440073013306 70:0.5513848066329956 71:-0.898017168045044 72:0.4399603307247162 73:0.4226367473602295 74:0.6134126782417297 75:-0.99480140209198 76:0.1018340215086937 77:0.22259096801280975 78:0.5969329476356506 79:-0.9966239929199219 80:-0.08210168033838272 
-0.0 0.11868118569681382 0.0 0.0 0.0 0.0 0.0 0.0 0.0 0.0 0.0 0.0 0.0 0.0 0.0 0.0 0.0 0.0 0.0 0.0 0.0 1:0.33143508434295654 2:0.0 3:0.0 4:1.0 5:0.33143508434295654 6:0.07972665131092072 7:0.20074649155139923 8:0.9796432256698608 9:0.3883826732635498 10:0.27790433168411255 11:0.1554476022720337 12:0.9878441691398621 13:0.4020501375198364 14:0.5284737944602966 15:0.014421616680920124 16:0.9998959898948669 17:0.3952164053916931 18:0.751708447933197 19:-0.03139821067452431 20:0.9995068907737732 21:0.3883826732635498 22:0.9635535478591919 23:0.056513357907533646 24:0.9984018802642822 25:0.40888383984565735 26:0.9931662678718567 27:0.6305931210517883 28:0.7761136293411255 29:0.4179954528808594 30:1.0 31:1.0 32:0.0 33:0.4202733635902405 34:0.9931662678718567 35:0.3162277638912201 36:-0.9486833214759827 37:0.33143508434295654 38:0.05466970428824425 39:1.0 40:0.0 41:0.3883826732635498 42:0.05466970428824425 43:0.9970544576644897 44:0.07669650763273239 45:0.4498860836029053 46:0.06378132104873657 47:0.9662349820137024 48:0.2576626241207123 49:0.5250569581985474 50:0.09111617505550385 51:0.9068347215652466 52:0.4214864671230316 53:0.6116173267364502 54:0.13895216584205627 55:0.7270130515098572 56:0.6866235136985779 57:0.6890660524368286 58:0.24601367115974426 59:0.3801122307777405 60:0.9249403476715088 61:0.6799544095993042 62:0.30523917078971863 63:-0.5795236825942993 64:0.814955472946167 65:0.6161731481552124 66:0.34851935505867004 67:-0.9292960166931152 68:0.36933577060699463 69:0.5022779107093811 70:0.3758542239665985 71:-0.9948341250419617 72:0.10151369124650955 73:0.392938494682312 74:0.3712984025478363 75:-0.99430912733078 76:-0.10653311014175415 77:0.3109339475631714 78:0.35535308718681335 79:-0.981615424156189 80:-0.1908695101737976 
-0.0 0.0 0.10377472665446923 0.4790133324225055 0.3076864093443352 0.0 0.0 0.0 0.0 0.5698636844962125 0.0 5.369091474393588 0.3249812459433197 0.28560935859576186 0.0 0.0632532493427895 0.224411564234166 0.09827703706679095 0.3332346653715118 0.0 0.0 1:0.07257205247879028 2:0.09391675144433975 3:0.08304548263549805 4:0.9965457916259766 5:0.10138741880655289 6:0.4397011399269104 7:0.10370324552059174 8:0.9946082830429077 9:0.14300961792469025 10:0.7694770097732544 11:0.20823606848716736 12:0.9780786037445068 13:0.20704376697540283 14:0.9359658360481262 15:0.4371926486492157 16:0.8993679285049438 17:0.255069375038147 18:1.0 19:0.5999998450279236 20:0.8000000715255737 21:0.2454642504453659 22:0.9871931672096252 23:-0.5881716012954712 24:-0.8087360858917236 25:0.22945572435855865 26:0.9647812247276306 27:-0.5812380909919739 28:-0.8137335777282715 29:0.08217717707157135 30:0.0779082179069519 31:0.7682211995124817 32:-0.6401844620704651 33:0.1270010769367218 34:0.0405549630522728 35:0.9334725141525269 36:-0.35864901542663574 37:0.2849525213241577 38:0.0 39:0.999882161617279 40:-0.015349064022302628 41:0.6136606335639954 42:0.033084314316511154 43:0.9667473435401917 44:0.25573328137397766 45:0.8175021409988403 46:0.14087514579296112 47:0.8129714727401733 48:0.582303524017334 49:0.9220907092094421 50:0.254002183675766 51:0.41931793093681335 52:0.9078394174575806 53:0.9274279475212097 54:0.3788687288761139 55:-0.3887488842010498 56:0.9213437438011169 57:0.8153681755065918 58:0.5069370269775391 59:-0.821646511554718 60:0.5699973702430725 61:0.6382065415382385 62:0.5795090794563293 63:-0.952215313911438 64:0.30542755126953125 65:0.47598719596862793 66:0.6157950758934021 67:-0.983677327632904 68:0.17994119226932526 69:0.2881541848182678 70:0.6435431241989136 71:-0.9943091869354248 72:0.10653337836265564 73:0.2369268834590912 74:0.6414087414741516 75:-0.9769006371498108 76:-0.2136942446231842 77:0.2198505997657776 78:0.6286019086837769 79:-0.8000085949897766 80:-0.5999886393547058 
-0.0 0.0 0.0 0.0 0.0 0.0 0.0 0.0 0.0 0.0 0.0 1.005411561210119 0.0 0.0 0.0 0.0 0.0 0.0 0.0 0.0 0.0 1:0.40366971492767334 2:0.0 3:0.0 4:1.0 5:0.40366971492767334 6:0.09480123221874237 7:-0.04706816375255585 8:0.9988917112350464 9:0.3899082541465759 10:0.29204896092414856 11:-0.037788089364767075 12:0.9992857575416565 13:0.3899082541465759 14:0.45871564745903015 15:0.0 16:1.0 17:0.3899082541465759 18:0.5993884205818176 19:0.0 20:1.0 21:0.3899082541465759 22:0.7339450120925903 23:0.05723085254430771 24:0.9983609318733215 25:0.40366971492767334 26:0.8394495844841003 27:0.13543128967285156 28:0.9907867908477783 29:0.41896024346351624 30:0.9464832544326782 31:0.10419169813394547 32:0.9945571422576904 33:0.42048928141593933 34:1.0 35:-0.0623788945376873 36:-0.9980525970458984 37:0.41743117570877075 38:0.9220184087753296 39:-0.039185620844364166 40:-0.9992319345474243 41:0.44495412707328796 42:0.08256880939006805 43:0.9951974153518677 44:-0.09788823127746582 45:0.538226306438446 46:0.07339449971914291 47:0.9381522536277771 48:0.3462229073047638 49:0.7018348574638367 50:0.17737004160881042 51:0.7397240996360779 52:0.6729103326797485 53:0.7752293348312378 54:0.2889908254146576 55:0.27146029472351074 56:0.9624496102333069 57:0.7691131830215454 58:0.41590216755867004 59:-0.34174278378486633 60:0.9397934675216675 61:0.6896024942398071 62:0.5244648456573486 63:-0.7790840864181519 64:0.6269193291664124 65:0.5733945369720459 66:0.5733945369720459 67:-0.9684439301490784 68:0.2492317259311676 69:0.48165133595466614 70:0.5779816508293152 71:-0.9995059370994568 72:-0.03143119439482689 73:0.33027517795562744 74:0.5657492280006409 75:-0.9659481048583984 76:-0.2587359845638275 77:0.22477063536643982 78:0.5091743469238281 79:-0.881290078163147 80:-0.47257569432258606 
-1.0337445100990004 0.8046135265858998 0.9001111830146481 0.49315675567383394 1.07836348520703 0.6245571742312239 1.3790226321767431 0.5605489870349569 1.1466871606693152 1.4383984296128411 0.06020638843919064 2.465897757144768 3.0535408186388895 0.47426660235165813 1.6933456507487998 2.0885548946640333 0.6640435725223403 1.5843290866529278 0.6492048397336495 0.7409064010632549 1.290364685054455 1:0.3231707215309143 2:0.0 3:-0.11290959268808365 4:0.9936052560806274 5:0.3109756112098694 6:0.10731706023216248 7:-0.05368586257100105 8:0.9985578656196594 9:0.3109756112098694 10:0.22682924568653107 11:0.0 12:1.0 13:0.3109756112098694 14:0.33170729875564575 15:0.02272152341902256 16:0.999741792678833 17:0.31585368514060974 18:0.4414633810520172 19:0.05941857025027275 20:0.9982331395149231 21:0.3231707215309143 22:0.5365853905677795 23:0.03486233949661255 24:0.9993920922279358 25:0.3231707215309143 26:0.6512194871902466 27:0.0 28:1.0 29:0.3231707215309143 30:0.7634146213531494 31:0.0 32:1.0 33:0.3231707215309143 34:0.8585364818572998 35:-0.024089371785521507 36:0.9997097849845886 37:0.31829267740249634 38:0.9658536314964294 39:0.0 40:1.0 41:0.3231707215309143 42:1.0 43:0.1414211094379425 44:0.9899495244026184 45:0.37195122241973877 46:0.0731707289814949 47:0.9644984006881714 48:0.26408886909484863 49:0.5 50:0.10823170840740204 51:0.9414786696434021 52:0.33707261085510254 53:0.6189024448394775 54:0.16158536076545715 55:0.7445693016052246 56:0.6675451397895813 57:0.6768292188644409 58:0.26676830649375916 59:0.3162277340888977 60:0.9486833214759827 61:0.6890243887901306 62:0.37195122241973877 63:-0.12493911385536194 64:0.9921644330024719 65:0.6509146094322205 66:0.47256097197532654 67:-0.713448166847229 68:0.7007080316543579 69:0.5182926654815674 70:0.5396341681480408 71:-0.9560322761535645 72:0.2932615280151367 73:0.40243902802467346 74:0.5487805008888245 75:-0.9965457916259766 76:-0.08304573595523834 77:0.3353658616542816 78:0.5243902206420898 79:-0.9397932291030884 80:-0.341743528842926 
-0.0 -0.0 0.0 0.0 0.0 0.0 0.0 0.0 0.0 1.626015127816862 0.0 0.0 0.0 0.0 0.0 0.0 0.0 0.0 0.24598351798163315 0.0 0.0 1:0.42424243688583374 2:0.050505053251981735 3:-0.7071043252944946 4:0.707109272480011 5:0.37878820300102234 6:0.0959596037864685 7:-0.3987261652946472 8:0.9170700907707214 9:0.3232323229312897 10:0.28282830119132996 11:-0.29507389664649963 12:0.9554744362831116 13:0.27272725105285645 14:0.4393939971923828 15:-0.3162277936935425 16:0.9486833810806274 17:0.2222222089767456 18:0.5858586430549622 19:-0.3259906768798828 20:0.945372998714447 21:0.17171715199947357 22:0.7323232889175415 23:-0.16990691423416138 24:0.9854601621627808 25:0.17171715199947357 26:0.8787879943847656 27:0.2614130973815918 28:0.9652270078659058 29:0.23737309873104095 30:0.9747475981712341 31:0.901523232460022 32:0.43273070454597473 33:0.42424243688583374 34:1.0 35:0.998664915561676 36:-0.051655273884534836 37:0.5303033590316772 38:0.9595959782600403 39:0.8192320466041565 40:-0.573462188243866 41:0.6262626647949219 42:0.8585858941078186 43:0.6887484192848206 44:-0.7250004410743713 45:0.12121209502220154 46:0.4545454680919647 47:0.9363300204277039 48:0.3511211574077606 49:0.2558932900428772 50:0.505050539970398 51:0.9889364242553711 52:0.14834006130695343 53:0.45791348814964294 54:0.505050539970398 55:1.0 56:0.0 57:0.6767677068710327 58:0.505050539970398 59:1.0 60:0.0 61:0.3232323229312897 62:0.050505053251981735 63:1.0 64:0.0 65:0.4747474789619446 66:0.050505053251981735 67:1.0 68:0.0 69:0.6262626647949219 70:0.050505053251981735 71:0.9805806875228882 72:-0.1961161345243454 73:0.7272727489471436 74:0.0 75:0.9805806875228882 76:-0.19611617922782898 77:0.8787878751754761 78:0.0 79:1.0 80:0.0 
-0.0 -0.0 0.0 0.22950289174854577 0.0 0.0 0.0 0.0 0.47655977696856244 2.7721239193068237 0.0 0.007698743737499722 0.5604814253477307 0.1573374732260436 0.27904306312404226 0.2512557633855874 0.18073793201964905 0.0 0.1992458390779238 0.0 0.0 1:0.19230768084526062 2:0.1538461595773697 3:0.1414191871881485 4:0.9899497628211975 5:0.20769205689430237 6:0.26153847575187683 7:0.25449338555336 8:0.9670745730400085 9:0.26923078298568726 10:0.446153849363327 11:0.1643996387720108 12:0.9863938093185425 13:0.26923078298568726 14:0.6307693123817444 15:0.0 16:1.0 17:0.26923078298568726 18:0.8153846263885498 19:0.0 20:1.0 21:0.26923078298568726 22:0.9230769276618958 23:0.0 24:1.0 25:0.11538460850715637 26:0.07692307978868484 27:0.9899494647979736 28:-0.14142203330993652 29:0.2230764478445053 30:0.0615384578704834 31:0.9670745730400085 32:-0.2544931173324585 33:0.4076925218105316 34:0.0 35:0.9823387265205383 36:-0.18711158633232117 37:0.5461543202400208 38:0.0 39:1.0 40:0.0 41:0.7000004053115845 42:0.0 43:1.0 44:0.0 45:0.807692289352417 46:0.0 47:1.0 48:0.0 49:0.26923078298568726 50:0.5384615659713745 51:0.9805805683135986 52:-0.19611729681491852 53:0.39743512868881226 54:0.5128205418586731 55:0.9743912816047668 56:-0.2248590886592865 57:0.6025648713111877 58:0.4615384638309479 59:0.9883716702461243 60:-0.15205688774585724 61:0.7307692766189575 62:0.4615384638309479 63:1.0 64:0.0 65:0.3461538553237915 66:1.0 67:1.0 68:0.0 69:0.5 70:1.0 71:0.9701425433158875 72:-0.24253563582897186 73:0.6538461446762085 74:0.9230769276618958 75:0.9805806279182434 76:-0.19611608982086182 77:0.884615421295166 78:0.9230769276618958 79:1.0 80:0.0 
-0.0 -0.0 0.0 0.0 2.8894276468481075 0.0 0.0 0.007124441078050905 0.0 0.0 0.0 0.0 0.0 0.0 0.0 0.0 0.0 0.0 0.0 0.3744779214843506 0.0 1:0.24193547666072845 2:0.032258063554763794 3:0.9950371384620667 4:-0.09950370341539383 5:0.4032258093357086 6:0.016129031777381897 7:0.9985681176185608 8:-0.05349475145339966 9:0.5430105924606323 10:0.016129031777381897 11:0.9980525970458984 12:-0.06237829476594925 13:0.6612902879714966 14:0.0 15:0.9908301830291748 16:-0.13511306047439575 17:0.22580644488334656 18:0.032258063554763794 19:0.0 20:1.0 21:0.22580644488334656 22:0.20381230115890503 23:0.0 24:1.0 25:0.22580644488334656 26:0.3489736020565033 27:-0.05603426322340965 28:0.9984288215637207 29:0.20967741310596466 30:0.49120235443115234 31:-0.06111021712422371 32:0.9981310963630676 33:0.20821109414100647 34:0.6363636255264282 35:-0.055470023304224014 36:0.9984603524208069 37:0.19354838132858276 38:0.7815248966217041 39:-0.055164314806461334 40:0.9984772801399231 41:0.19354838132858276 42:0.9017595648765564 43:0.2686581015586853 44:0.9632355570793152 45:0.2536658048629761 46:0.997067391872406 47:0.9325096011161804 48:0.3611450493335724 49:0.44721418619155884 50:1.0 51:0.999961256980896 52:0.008810407482087612 53:0.586510181427002 54:1.0 55:1.0 56:0.0 57:0.7243401408195496 58:1.0 59:0.9973219037055969 60:-0.0731368362903595 61:0.8064516186714172 62:0.9838709831237793 63:0.9812488555908203 64:-0.19274502992630005 65:0.25806450843811035 66:0.4032258093357086 67:0.9922778606414795 68:-0.12403484433889389 69:0.3870967626571655 70:0.3870967626571655 71:0.9938837289810181 72:-0.11043151468038559 73:0.5483871102333069 74:0.3709677457809448 75:0.9982743859291077 76:-0.05872197076678276 77:0.6612902879714966 78:0.3709677457809448 79:1.0 80:0.0 
-0.19850920681530598 -0.0 0.0 0.0 0.0 0.0 0.006189402773445428 0.37372780211930146 0.0 0.0 0.41486431175227445 0.0 0.0 0.0 0.0 0.0 0.0 0.0 0.0 0.0 0.0 1:0.3181818127632141 2:0.13636364042758942 3:-0.41665664315223694 4:0.9090639352798462 5:0.26818153262138367 6:0.2454545497894287 7:-0.2821663022041321 8:0.9593655467033386 9:0.22727273404598236 10:0.44545456767082214 11:-0.10174129158258438 12:0.994810938835144 13:0.22727273404598236 14:0.6454545855522156 15:0.09480764716863632 16:0.995495617389679 17:0.2636358141899109 18:0.8272727727890015 19:0.4036402702331543 20:0.9149177670478821 21:0.3636363744735718 22:0.9545454382896423 23:0.7961623072624207 24:0.6050832271575928 25:0.49090853333473206 26:1.0 27:0.9832819700241089 28:0.18208953738212585 29:0.6090906262397766 30:1.0 31:1.0 32:0.0 33:0.7090904712677002 34:1.0 35:0.9684932231903076 36:-0.24903979897499084 37:0.7681822180747986 38:0.9590909481048584 39:0.5734649896621704 40:-0.8192300796508789 41:0.7727272510528564 42:0.9090909361839294 43:0.09052739292383194 44:-0.9958939552307129 45:0.1818181872367859 46:0.5454545617103577 47:1.0 48:0.0 49:0.3068181872367859 50:0.5454545617103577 51:0.9970544576644897 52:-0.07669662684202194 53:0.47727271914482117 54:0.5227272510528564 55:0.9679968953132629 56:-0.25096219778060913 57:0.6136363744735718 58:0.46590909361839294 59:0.9647638201713562 60:-0.263117253780365 61:0.7272727489471436 62:0.4545454680919647 63:0.9950371980667114 64:-0.09950361400842667 65:0.1818181872367859 66:0.13636364042758942 67:0.9950371384620667 68:-0.09950391948223114 69:0.3333331048488617 70:0.12121211737394333 71:0.9820063710212708 72:-0.188847616314888 73:0.5757570862770081 74:0.060606058686971664 75:0.9701424837112427 76:-0.24253550171852112 77:0.8181818127632141 78:0.0 79:0.9701426029205322 80:-0.24253515899181366 
-1.1341708165763897 -0.24830523301284413 1.431779645653087 0.0 0.0 0.907292723026146 0.11580871279537748 0.20869025020978688 0.5315409845013778 4.727354126985014 0.0 0.0 0.14766113048628704 0.0 0.5775132862016148 4.907760726753355 0.0 1.1370468250102939 0.39553009562380953 1.3365410411526133 0.4534101640404673 1:0.3888888955116272 2:0.0 3:-0.42993271350860596 4:0.9028609395027161 5:0.3383839726448059 6:0.10606060177087784 7:-0.4640069901943207 8:0.8858315348625183 9:0.2777777910232544 10:0.21212120354175568 11:-0.48031508922576904 12:0.8770959973335266 13:0.2222222089767456 14:0.3181818127632141 15:-0.39391714334487915 16:0.919145941734314 17:0.1868692934513092 18:0.42424240708351135 19:-0.22337619960308075 20:0.9747323393821716 21:0.1666666567325592 22:0.5606060028076172 23:-0.06880418211221695 24:0.9976301193237305 25:0.1666666567325592 26:0.7171716690063477 27:0.06880416721105576 28:0.99763023853302 29:0.1868692934513092 30:0.8535353541374207 31:0.2970682978630066 32:0.9548562169075012 33:0.2373741865158081 34:0.9444444179534912 35:0.5677318572998047 36:0.8232135772705078 37:0.2878791093826294 38:1.0 39:0.9424274563789368 40:0.33441051840782166 41:0.3939395546913147 42:1.0 43:1.0 44:0.0 45:0.5555555820465088 46:1.0 47:1.0 48:0.0 49:0.2222222089767456 50:0.4444444477558136 51:0.8682431578636169 52:0.4961388409137726 53:0.3194444477558136 54:0.5 55:0.9701424837112427 56:0.24253559112548828 57:0.4444444477558136 58:0.5 59:1.0 60:0.0 61:0.5694444179534912 62:0.5 63:1.0 64:0.0 65:0.6666666269302368 66:0.5 67:1.0 68:0.0 69:0.5 70:0.0 71:1.0 72:0.0 73:0.6388888359069824 74:0.0 75:1.0 76:0.0 77:0.8333333730697632 78:0.0 79:1.0 80:0.0 
-0.0 -0.0937912243205909 0.0 0.3472445640587582 0.0 0.0 0.0 0.0 0.0 0.27193562996214266 0.11331484680072014 0.0 0.0 0.06245085830009718 0.0 0.0 0.0 0.0 0.6215079309539404 0.0 0.0 1:0.2560240924358368 2:0.16265061497688293 3:-0.2195121943950653 4:0.9756097793579102 5:0.20180721580982208 6:0.40361452102661133 7:-0.11462410539388657 8:0.9934089183807373 9:0.20180721580982208 10:0.6325302124023438 11:0.04407408833503723 12:0.9990282654762268 13:0.21987922489643097 14:0.8132531046867371 15:0.2904811501502991 16:0.9568807482719421 17:0.3042166829109192 18:0.9698796272277832 19:0.738956868648529 20:0.6737528443336487 21:0.42469897866249084 22:1.0 23:0.9941444396972656 24:-0.108059361577034 25:0.5813252925872803 26:0.9397590756416321 27:0.9258472919464111 28:-0.3778979480266571 29:0.7198787927627563 30:0.8795180916786194 31:0.8682430982589722 32:-0.4961390793323517 33:0.7921685576438904 34:0.8192771673202515 35:0.5449922680854797 36:-0.8384410738945007 37:0.7981927990913391 38:0.7590362429618835 39:0.09950615465641022 40:-0.9950369596481323 41:0.2560240924358368 42:0.4879518449306488 43:0.9958931803703308 44:-0.09053574502468109 45:0.40512046217918396 46:0.4743976294994354 47:0.986393928527832 48:-0.16439896821975708 49:0.5813252925872803 50:0.4337349832057953 51:0.9743912220001221 52:-0.22485946118831635 53:0.757530152797699 54:0.39307233691215515 55:0.9805806875228882 56:-0.19611608982086182 57:0.8524096608161926 58:0.3795181214809418 59:0.9899494647979736 60:-0.1414213478565216 61:0.14759033918380737 62:0.05421687290072441 63:1.0 64:0.0 65:0.29668673872947693 66:0.05421687290072441 67:1.0 68:0.0 69:0.5 70:0.05421687290072441 71:0.9950371980667114 72:-0.09950371831655502 73:0.7033132910728455 74:0.013554218225181103 75:0.988371729850769 76:-0.1520572006702423 77:0.8524096608161926 78:0.0 79:0.9958931803703308 80:-0.09053575992584229 
-1.3803264886764997 -0.0 0.022399063962117237 0.45978756714488106 1.0932119077867393 0.4795772675486414 0.2143434174593803 0.46686639648040135 0.009874875303402558 1.2546111921413252 1.4786575960345794 0.0 0.09988521301234679 0.3422543231952848 0.8841139224095155 0.3987627348458257 0.6381454919081592 0.35850449389723277 0.29344975197060186 0.3333860203331587 0.2708110783739495 1:0.10112360864877701 2:0.14606741070747375 3:-0.09842357784509659 4:-0.9951445460319519 5:0.09101097285747528 6:0.04382022097706795 7:0.0 8:-1.0 9:0.10112360864877701 10:0.024719109758734703 11:0.18622824549674988 12:0.9825064539909363 13:0.12359552085399628 14:0.21573038399219513 15:0.06061706691980362 16:0.9981610774993896 17:0.1348314732313156 18:0.579775333404541 19:-0.017298460006713867 20:0.9998504519462585 21:0.11235956102609634 22:0.8651685118675232 23:-0.057049792259931564 24:0.9983713626861572 25:0.11235956102609634 26:0.9730337858200073 27:0.2946462631225586 28:0.9556064605712891 29:0.15393273532390594 30:1.0 31:0.9908301830291748 32:0.13511300086975098 33:0.3101120889186859 34:1.0 35:0.9910893440246582 36:-0.1331987977027893 37:0.6471914052963257 38:0.9337078332901001 39:0.9808521866798401 40:-0.19475391507148743 41:0.932584285736084 42:0.8764045238494873 43:0.9804319143295288 44:-0.19685842096805573 45:0.10112360864877701 46:0.1910112351179123 47:0.08540112525224686 48:-0.9963467121124268 49:0.11235956102609634 50:0.05992509052157402 51:0.699779748916626 52:-0.7143585681915283 53:0.2808988690376282 54:0.007490629330277443 55:0.9936231374740601 56:-0.1127515658736229 57:0.6404494047164917 58:0.0 59:0.9997830390930176 60:-0.020828794687986374 61:0.0674157440662384 62:0.516853928565979 63:0.9965457320213318 64:-0.08304546028375626 65:0.10112360864877701 66:0.5140449404716492 67:0.99430912733078 68:-0.10653310269117355 69:0.2247191071510315 70:0.5 71:0.9969274401664734 72:-0.07832999527454376 73:0.49438202381134033 74:0.483146071434021 75:0.9973521828651428 76:-0.07272358983755112 77:0.7640448808670044 78:0.4606741666793823 79:0.9965458512306213 80:-0.08304548263549805 
-1.948946383437908 -3.168081937662556 0.5622852088434768 0.8522478496896166 0.9246355474945236 2.0283194805035007 1.5101173519543933 1.182691566977927 1.327274894276378 2.223887122667701 1.209688590730819 2.752253009998553 1.3811299314974845 0.6681256461437426 2.1534753066501118 0.8764026527204276 0.6807789390074448 1.5116400558717689 1.6583728630455 2.004143444801174 1.755175993266937 1:0.2972440719604492 2:0.06299212574958801 3:0.9805806875228882 4:-0.19611583650112152 5:0.3169291317462921 6:0.05905511975288391 7:0.027017351239919662 8:0.9996349215507507 9:0.3011811077594757 10:0.20866142213344574 11:-0.05651335418224335 12:0.9984018206596375 13:0.2933070659637451 14:0.4763779640197754 15:-0.08181437104940414 16:0.9966475963592529 17:0.2578740119934082 18:0.7362204790115356 19:-0.16177500784397125 20:0.9868276119232178 21:0.2145669162273407 22:0.9566929340362549 23:-0.16201017796993256 24:0.9867890477180481 25:0.2145669162273407 26:1.0 27:0.9048187732696533 28:0.42579686641693115 29:0.2814960479736328 30:0.9881889820098877 31:0.9444968104362488 32:-0.3285207748413086 33:0.39566928148269653 34:0.9370078444480896 35:0.957024335861206 36:-0.29000747203826904 37:0.5413385629653931 38:0.9094488024711609 39:0.9922778606414795 40:-0.12403467297554016 41:0.6476377844810486 42:0.9055117964744568 43:0.9997418522834778 44:-0.022721389308571815 45:0.7145669460296631 46:0.9055117964744568 47:1.0 48:0.0 49:0.7460629940032959 50:0.4173228442668915 51:-0.5854908227920532 52:0.8106790781021118 53:0.7119422554969788 54:0.4645669162273407 55:-0.9680852890014648 56:0.2506210505962372 57:0.4875327944755554 58:0.4842519760131836 59:-0.9994291663169861 60:-0.033783502876758575 61:0.2460629791021347 62:0.4488188922405243 63:-0.9894046187400818 64:-0.14518442749977112 65:0.7854330539703369 66:0.023622047156095505 67:-0.9805806875228882 68:-0.19611622393131256 69:0.7460629940032959 70:0.015748031437397003 71:-0.9981310367584229 72:0.06111005321145058 73:0.5282151699066162 74:0.03937007859349251 75:-0.9992319345474243 76:-0.03918556869029999 77:0.3444882035255432 78:0.0 79:-0.9778023958206177 80:-0.20952916145324707 
-0.0 -0.0 0.0 0.0 0.0 0.0 0.0 1.6201250987435212 0.0 0.0 0.0 0.0 0.0 0.0 0.0 0.0 0.0 0.0 0.0 0.8366814693875045 0.0 1:0.25515463948249817 2:0.19329896569252014 3:0.8574939966201782 4:-0.514494001865387 5:0.2615979313850403 6:0.1894330084323883 7:0.11781970411539078 8:0.9930350184440613 9:0.2641754150390625 10:0.2693299353122711 11:-0.326806902885437 12:0.945091187953949 13:0.16623719036579132 14:0.46520623564720154 15:-0.4483000636100769 16:0.8938831090927124 17:0.05154654383659363 18:0.6932989954948425 19:-0.3565066456794739 20:0.9342927932739258 21:0.016752570867538452 22:0.85695880651474 23:0.15102483332157135 24:0.9885299801826477 25:0.09407215565443039 26:0.9716495275497437 27:0.8599177002906799 28:0.5104327201843262 29:0.25773173570632935 30:1.0 31:0.9999749660491943 32:-0.007067087106406689 33:0.4587627351284027 34:0.969072163105011 35:0.9674162864685059 36:-0.2531910538673401 37:0.5876287221908569 38:0.9136597514152527 39:0.8526878952980042 40:-0.5224207639694214 41:0.6417526006698608 42:0.85695880651474 43:0.6904774308204651 44:-0.7233539819717407 45:0.06829896569252014 46:0.657216489315033 47:0.8487790822982788 48:-0.5287476778030396 49:0.16655927896499634 50:0.5960051417350769 51:0.9521194100379944 52:-0.30572643876075745 53:0.4194587469100952 54:0.5444587469100952 55:0.9764934778213501 56:-0.21554704010486603 57:0.6481958627700806 58:0.48969072103500366 59:0.9730210900306702 60:-0.23071622848510742 61:0.7319587469100952 62:0.4703608453273773 63:0.9743912816047668 64:-0.22485928237438202 65:0.313144326210022 66:0.1739690750837326 67:0.8192319273948669 68:-0.5734623074531555 69:0.4420103132724762 70:0.08376289159059525 71:0.916834831237793 72:-0.3992668092250824 73:0.7126288414001465 74:0.0 75:0.988235354423523 76:-0.15294119715690613 77:0.9832473993301392 78:0.0 79:1.0 80:0.0 
-0.4995225316961276 -0.7943084410835045 0.0 0.0 0.0 0.5318663846999704 0.0 0.6354958411441116 0.24182701630610587 0.6032112187311864 0.6877751914781837 0.12966091097435836 0.23782110253359934 0.0 0.7919599531831844 0.0 0.12480039268859956 0.27064020804099287 0.32553795992730966 0.40238174024102735 0.0 1:0.24511757493019104 2:0.049652427434921265 3:-0.016692176461219788 4:0.9998606443405151 5:0.24263495206832886 6:0.19836142659187317 7:-0.0996788740158081 8:0.9950196743011475 9:0.20316128432750702 10:0.4684706926345825 11:-0.149361714720726 12:0.9887826442718506 13:0.16095663607120514 14:0.7390762567520142 15:-0.1458556354045868 16:0.9893059134483337 17:0.13687533140182495 18:0.9180733561515808 19:-0.11578599363565445 20:0.9932741522789001 21:0.13091698288917542 22:0.9967724680900574 23:0.2494329959154129 24:0.9683920741081238 25:0.15797753632068634 26:1.0 27:0.9716819524765015 28:-0.23629264533519745 29:0.3402020037174225 30:0.9458787441253662 31:0.9816808104515076 32:-0.190532848238945 33:0.6031114459037781 34:0.9136046767234802 35:0.9947506189346313 36:-0.10232886672019958 37:0.694968581199646 38:0.9093843102455139 39:0.9837051033973694 40:-0.1797896921634674 41:0.6981959342956543 42:0.8962262868881226 43:0.23821550607681274 44:-0.9712123274803162 45:0.21284347772598267 46:0.40714991092681885 47:0.997419536113739 48:-0.07179372757673264 49:0.45427843928337097 50:0.38977155089378357 51:0.9997196197509766 52:-0.023677613586187363 53:0.6845415830612183 54:0.39597809314727783 55:0.9996468424797058 56:0.026575520634651184 57:0.7577788829803467 58:0.39784008264541626 59:0.9993149042129517 60:-0.03701129928231239 61:0.7180569171905518 62:0.39473679661750793 63:-0.9969621300697327 64:-0.07788785547018051 65:0.31463098526000977 66:0.0 67:0.9992738366127014 68:0.03810380399227142 69:0.7486759424209595 70:0.016550783067941666 71:0.9980409741401672 72:0.06256376206874847 73:0.869083046913147 74:0.034756697714328766 75:0.8893840909004211 76:0.45716068148612976 77:0.837222695350647 78:0.06206553429365158 79:-0.7592570185661316 80:0.6507908701896667 
-1.261342680210127 -0.0 0.45713127100673084 1.2224839016423836 2.9095652993547136 0.5982672338694169 0.3220937993566186 0.888915026048952 0.0 0.8444063687485064 0.05528476268043186 0.025217625084672936 0.30631084084006327 1.4398022638992751 0.38131376645729675 0.0 0.7261173458791854 0.0 0.5862323028093308 1.0938128170094457 0.5151853132003023 1:0.2777777910232544 2:0.03703703731298447 3:1.0 4:0.0 5:0.47685185074806213 6:0.03703703731298447 7:0.9989200830459595 8:0.04646139591932297 9:0.6759259700775146 10:0.0555555559694767 11:0.9986178278923035 12:0.05255882441997528 13:0.828703761100769 14:0.0555555559694767 15:0.9615238904953003 16:-0.2747211456298828 17:0.8703703880310059 18:0.0 19:0.5999996662139893 20:-0.8000003099441528 21:0.3888888955116272 22:0.0555555559694767 23:-0.29116198420524597 24:0.9566737413406372 25:0.33703696727752686 26:0.22592593729496002 27:-0.3095862567424774 28:0.9508713483810425 29:0.2851850986480713 30:0.3740741014480591 31:-0.32852062582969666 32:0.9444968700408936 33:0.2185184359550476 34:0.5666667222976685 35:-0.279641717672348 36:0.9601044058799744 37:0.17407411336898804 38:0.7555556297302246 39:-0.2659287750720978 40:0.963992714881897 41:0.12962964177131653 42:0.8888888955116272 43:0.20209147036075592 44:0.979366660118103 45:0.222222238779068 46:0.9888889193534851 47:0.9230770468711853 48:0.3846151828765869 49:0.3962964713573456 50:1.0 51:0.999747633934021 52:0.02246611751616001 53:0.5518518686294556 54:0.9962962865829468 55:0.9952746033668518 56:-0.0970999076962471 57:0.6999999284744263 58:0.9703704118728638 59:0.8041761517524719 60:-0.5943910479545593 61:0.7222222089767456 62:0.8703703880310059 63:0.21693095564842224 64:-0.9761869311332703 65:0.25925928354263306 66:0.48148149251937866 67:0.9963465929031372 68:-0.085401251912117 69:0.4753085970878601 70:0.46296295523643494 71:0.9991084933280945 72:-0.04221590980887413 73:0.6975307464599609 74:0.46296295523643494 75:0.9985157251358032 76:-0.05446445569396019 77:0.8148148059844971 78:0.4444444477558136 79:0.9877630472183228 80:-0.15596234798431396 
