svm_type c_svc
kernel_type rbf
gamma 0.015625
nr_class 21
total_sv 188
rho 0.3629485941313058 0.14700682857305467 0.15833690062048278 5.933856602205619E-4 0.35878717147435396 0.04111505557952711 0.29745278151328436 0.1970530409603381 0.09645951396553828 0.024548921746177024 0.34135522017566355 0.308580382399725 0.2547160948182291 -0.041791288228085165 0.0831393448137725 -0.03518796608793852 0.220797677513268 0.4179114673270396 0.013720737071874116 -0.052367011411087336 -0.17352187084442505 -0.6390128928013997 -0.45668555863752647 -0.02771263215437855 -0.2773853945443447 -0.1413265548009059 -0.23291866492911098 -0.44780477875100466 -0.5567808112587581 -0.07916513603071981 -0.21686928250540183 -0.1517417352180267 -0.6337011431956528 -0.34336999037500904 -0.8638300824304211 -0.1938541605012354 -0.02454942437353455 -0.43876821603314337 -0.5498888405620312 0.029399068670507122 -0.27165614944048183 0.2685420191540062 -0.32543412279034795 0.17456811584401224 -0.1403610833380068 -0.043767412822203054 -0.15843870805636995 0.21756803374483197 -0.0223361737521244 0.11888215260566869 -0.23442873560774416 -0.10934455232214792 -0.318636839193562 0.10536898954749688 0.14596843924506572 -0.2972444249704624 -0.1248273957406951 -0.21881961935168612 0.23991923485605707 -0.16233680113257906 0.15800695133286138 -0.048279447243324974 -0.06214184260393844 -0.16953965557239767 0.20981573068686565 -0.004424659489053406 0.07953362380257346 -0.1065530000430351 -0.1488437785539202 -0.2078442842224461 0.047163951807850185 0.2117920300483065 -0.17971798830605254 -0.19013670611067376 0.2807927978048536 0.3502538737829991 0.37301639610761383 0.19112820524280388 0.06399357398108313 -0.004588347037734535 0.37941558816532966 0.14971152742410176 0.4957288817989636 0.01633975117114154 0.017949897194347895 -0.030686926222352327 0.21482168175777827 0.30556398294508874 0.2138115435577758 -0.05598645165324454 -0.3845786552966587 -0.13696390158764846 -0.18392610208649515 -0.5198640179534164 -0.4174900794020511 0.017379512711579777 -0.2470283554798886 -0.26595611707506 -0.3831898170770104 -0.3433556641455636 -0.3495643564680043 -0.15129474159812625 -0.09234051360124486 -0.34671988248558 -1.019731349185478 0.25718803410105917 0.1262011270075263 0.04014882783897712 -0.027182732631603673 0.28386675618757207 0.07254307499036203 0.20260998554445245 -0.09395014108441059 -0.0452049905570499 -0.13027922027751712 0.3814274140696462 0.21517126622886656 -0.2954503458181641 -0.013048577351136412 -0.21151575600701733 -0.15365053113283234 -0.6167325574909719 0.03367226607073957 -0.13943616180285287 0.29181002017902247 -0.6505287227452495 -0.27558237487439097 -0.5270781156833523 -0.21147060407782794 -0.03865677384986311 -0.34290906494260154 -0.5399817778566173 -0.033433365901952325 -0.1383780456216936 0.23782320389716077 0.024899055929829897 0.0964573643847786 -0.1518568273522403 -0.1152991368615946 -0.1395675732133789 0.1389611312026614 0.25676138203222304 -0.14117383616831697 -0.2112611733103028 -0.016482823331638353 0.37235886852514644 0.10158586901320768 0.18590876428653616 -0.04837479057721886 -0.09101408176827201 -0.07483590802542889 0.0836507419959332 0.2790827497264204 -0.11016909265281458 0.1405601421097762 0.5406713809330747 0.10909537584864251 0.29559513827829914 -0.43308113807436277 0.07192192126243953 -0.18933823500421257 0.14488264687715693 0.290794811818584 0.013601941471209113 -0.021872855408982893 -0.2710257995626823 -0.13906366235277426 -0.6095900078651119 -0.6019873604442523 -0.49603090446369996 -0.13225595323438608 -0.03534535245769483 -0.36753651042488034 -0.5083452462614072 0.34321850657465763 -0.14086272897435678 -0.23324576118068766 -0.1801821545492677 0.03576883110777049 0.19811037336310902 -0.17207128413658337 -0.15738366643222848 -0.2706928162919793 -0.31240828974727713 -0.22152984069727882 -0.12251961605064156 0.1186989647452288 -0.22607139133498833 -0.4532119206451229 0.06142652388563655 -0.9952293085564307 0.2056704775274648 0.30442641717468827 0.04494125886883911 0.11920760583841054 -0.11000396395522483 0.15680024152187608 0.3061228015522771 0.004100485751657806 -0.038588512945071554 0.2694557018693176 0.3073002697349664 0.06779467330606831 0.13054943164907504 0.12941217736042177 -0.3070590219569913 -0.34994486189280055 -0.2925446181774838 -0.5455906576853742 -0.032659914651054035
label 77 71 80 81 74 75 68 69 66 67 86 87 65 90 85 78 79 89 82 83 76
nr_sv 7 10 9 8 6 9 10 10 10 5 9 10 10 10 9 10 8 10 10 8 10
SV
0.0059273427046831785 1.3366038620802037 1.6647871034240467 1.1793504367004815 1.772881281228098 1.2413529698366101 1.2486588484041916 2.9010583165944386 0.1310388483956489 1.3087373585847304 1.8405178276721934 0.6030019619939958 1.4229322328085066 0.8174613362401861 0.2893745416661709 0.19500019134227944 2.0273430136938133 4.476873341927934 0.0 1.2267379416286037 1:0.0100602051243186 2:0.7521020770072937 3:-0.5034087896347046 4:0.8640483617782593 5:0.0 6:0.76936936378479 7:-0.3531597852706909 8:0.9355629682540894 9:0.0015016478719189763 10:0.7747747302055359 11:0.6238938570022583 12:-0.7815090417861938 13:0.014264262281358242 14:0.7515015006065369 15:0.5388709902763367 16:-0.8423883318901062 17:0.17717738449573517 18:0.500150203704834 19:0.5529705882072449 20:-0.8332007527351379 21:0.35795775055885315 22:0.23363369703292847 23:0.5738505721092224 24:-0.8189601302146912 25:0.44504499435424805 26:0.11786792427301407 27:0.6917266845703125 28:-0.7221593260765076 29:0.4705708920955658 30:0.116066113114357 31:0.402564138174057 32:0.9153918027877808 33:0.5031530261039734 34:0.24999994039535522 35:0.13265268504619598 36:0.9911625385284424 37:0.529128909111023 38:0.5536035299301147 39:0.09194856137037277 40:0.9957636594772339 41:0.5507509708404541 42:0.7654653787612915 43:0.046000316739082336 44:0.9989414811134338 45:0.5412911176681519 46:0.8177176713943481 47:0.498753160238266 48:-0.8667441606521606 49:0.5999996066093445 50:0.6798800230026245 51:0.45342332124710083 52:-0.891295313835144 53:0.7908405065536499 54:0.32717782258987427 55:0.5111445188522339 56:-0.8594947457313538 57:0.9337836503982544 58:0.11861871182918549 59:0.6726463437080383 60:-0.7399640679359436 61:0.9873871207237244 62:0.11096101999282837 63:0.2915118336677551 64:0.9565671682357788 65:0.9935434460639954 66:0.31471455097198486 67:-0.03600380942225456 68:0.9993517398834229 69:0.9689191579818726 70:0.6235731840133667 71:-0.010869372636079788 72:0.9999409317970276 73:0.9884381294250488 74:0.7843842506408691 75:0.11628609895706177 76:0.9932157397270203 77:1.0 78:0.8890389800071716 79:0.10980825871229172 80:0.9939528107643127 
1.3653199944405299 0.17529462542223767 0.0 0.0 0.01747807426658637 0.0 0.0 0.0 1.010903472068671 0.0 0.12431826583540824 0.6205832083692018 0.0 0.0 0.4687547913017257 0.8682578073525791 0.0 0.19900594705273353 1.0637117187151275 0.0 1:0.058006174862384796 2:0.8984139561653137 3:-0.9615233540534973 4:0.27472296357154846 5:0.029456621035933495 6:0.9065710306167603 7:-0.9449277520179749 8:0.3272790014743805 9:0.0 10:0.9185045957565308 11:0.29354527592658997 12:-0.9559451937675476 13:0.05830853059887886 14:0.812613308429718 15:0.49547141790390015 16:-0.8686242699623108 17:0.22945627570152283 18:0.5162386298179626 19:0.49001309275627136 20:-0.8717151284217834 21:0.39864063262939453 22:0.2071751207113266 23:0.4609745740890503 24:-0.8874133229255676 25:0.4552874267101288 26:0.08149540424346924 27:0.5602062344551086 28:-0.828353226184845 29:0.4800609052181244 30:0.08678241074085236 31:0.22786840796470642 32:0.9736919403076172 33:0.49954718351364136 34:0.27061933279037476 35:0.05340539291501045 36:0.9985729455947876 37:0.5075531005859375 38:0.6008309125900269 39:0.04138939827680588 40:0.999143123626709 41:0.5211482048034668 42:0.7920695543289185 43:0.04192516580224037 44:0.9991207122802734 45:0.5173717141151428 46:0.8348187804222107 47:0.7702977061271667 48:-0.6376845240592957 49:0.5623868107795715 50:0.7579305171966553 51:0.530862033367157 52:-0.8474583029747009 53:0.7344412803649902 54:0.488292932510376 55:0.5265989303588867 56:-0.8501138687133789 57:0.9098188281059265 58:0.19705438613891602 59:0.5578175783157349 60:-0.8299636244773865 61:0.9898793697357178 62:0.10823260247707367 63:0.7142482399940491 64:0.6998923420906067 65:1.0 66:0.2854229807853699 67:-0.023242345079779625 68:0.9997299313545227 69:0.9777950048446655 70:0.6280210018157959 71:-0.043838754296302795 72:0.9990386366844177 73:0.975679874420166 74:0.8396527767181396 75:-0.06383275240659714 76:0.9979606866836548 77:0.9592147469520569 78:0.9185045957565308 79:-0.2044023722410202 80:0.9788869619369507 
0.8184221490297842 0.0 0.14632051006259644 0.042768201068016765 0.3679190494796765 0.04199003109176218 1.0360144913703795 0.0 0.4926501374071408 0.6486348463727782 1.1076348412220822 2.368191502939634 0.8293871859894218 0.9302391196941415 3.5754147488584858 0.5692732099887554 0.0 0.0391713373269161 0.0 0.34487095547396535 1:0.0 2:0.9942108392715454 3:0.2550773322582245 4:-0.9669206142425537 5:0.013101761229336262 6:0.9445460438728333 7:0.349439799785614 8:-0.9369588494300842 9:0.05545400083065033 10:0.845521092414856 11:0.3615659475326538 12:-0.9323464632034302 13:0.11578305810689926 14:0.6797685027122498 15:0.27921536564826965 16:-0.9602285027503967 17:0.1678854376077652 18:0.45886659622192383 19:0.18140541017055511 20:-0.9834083914756775 21:0.19683119654655457 22:0.2404022365808487 23:0.19014249742031097 24:-0.9817565083503723 25:0.22760510444641113 26:0.15051798522472382 27:0.870500385761261 28:-0.4921676218509674 29:0.27605119347572327 30:0.19561246037483215 31:0.4538196325302124 32:0.8910935521125793 33:0.3446069359779358 34:0.38025590777397156 35:0.37307921051979065 36:0.9277994632720947 37:0.4268737733364105 38:0.5706886053085327 39:0.47805255651474 40:0.8783312439918518 41:0.48506999015808105 42:0.6383302211761475 43:0.8392255902290344 44:0.5437833070755005 45:0.5463132262229919 46:0.6480804085731506 47:0.8765125870704651 48:-0.4813788831233978 49:0.6182205677032471 50:0.5652042031288147 51:0.527103066444397 52:-0.8498013615608215 53:0.7309566736221313 54:0.35039621591567993 55:0.40303438901901245 56:-0.9151847958564758 57:0.8129189014434814 58:0.12309562414884567 59:0.35465413331985474 60:-0.93499755859375 61:0.861669659614563 62:0.00578916072845459 63:0.7256703972816467 64:-0.6880425214767456 65:0.8951858282089233 66:0.04509444534778595 67:0.40695059299468994 68:0.9134502410888672 69:0.9750152230262756 70:0.26020708680152893 71:0.19755184650421143 72:0.9802924394607544 73:1.0 74:0.5652036666870117 75:0.0277827437967062 76:0.9996140003204346 77:0.989945113658905 78:0.7973796725273132 79:-0.04326661676168442 80:0.9990635514259338 
1.5052421466856918 1.3369002004661774 1.935697287091358 1.0132726756160235 1.8136102274565649 0.48692582209523516 0.9119522307048784 1.602674791640659 1.1972258455915685 0.852056843554365 0.7463102434431433 1.4009838396461192 1.285024661894344 0.4939206557874401 0.3601839928811001 0.3028543651195036 2.053621583126533 1.9024672862807932 0.6126199581851892 0.11372110532686905 1:0.2084399163722992 2:0.805626630783081 3:0.0 4:-1.0 5:0.2084399163722992 6:0.6854220032691956 7:0.153882697224617 8:-0.9880891442298889 9:0.25703325867652893 10:0.4936061501502991 11:0.15058103203773499 12:-0.9885976314544678 13:0.26726341247558594 14:0.2992327809333801 15:0.13262099027633667 16:-0.9911668300628662 17:0.30562663078308105 18:0.1304348260164261 19:0.14834064245224 20:-0.9889363646507263 21:0.30562663078308105 22:0.04347832500934601 23:0.9832821488380432 24:-0.18208883702754974 25:0.37468022108078003 26:0.11764715611934662 27:0.5144956707954407 28:0.8574930429458618 29:0.45140665769577026 30:0.28644511103630066 31:0.3354323208332062 32:0.9420642852783203 33:0.4948849380016327 34:0.4552430510520935 35:0.3734665513038635 36:0.9276436567306519 37:0.5306904315948486 38:0.4833759665489197 39:0.5639617443084717 40:-0.8258008360862732 41:0.5664962530136108 42:0.3503836691379547 43:0.3569428622722626 44:-0.9341261982917786 45:0.6508951187133789 46:0.1687980443239212 47:0.5358239412307739 48:-0.8443297743797302 49:0.735293984413147 50:0.0843990221619606 51:0.6401841640472412 52:-0.7682214975357056 53:0.7915600538253784 54:0.0 55:0.8087369799613953 56:-0.5881705284118652 57:0.7915600538253784 58:0.04347836971282959 59:0.0 60:1.0 61:0.7915600538253784 62:0.18158571422100067 63:-0.09757152944803238 64:0.9952285289764404 65:0.7531968355178833 66:0.4347827732563019 67:-0.09552064538002014 68:0.9954274892807007 69:0.7429667711257935 70:0.6879798173904419 71:0.005318767391145229 72:0.9999858736991882 73:0.7557542324066162 74:0.9156010746955872 75:0.15388265252113342 76:0.9880891442298889 77:0.7915600538253784 78:1.0 79:0.3905518352985382 80:0.9205809235572815 
0.3355841311909007 0.2874775556850538 0.0 0.0 0.0 0.8684265413087876 0.644591711603689 0.0 0.0 0.0027075585674509513 0.19187083108122174 0.5815667370322669 0.0 0.7055429834610745 0.0 0.9183604360559932 0.39241464592842257 0.0 1.2157313386132709 0.8226432941955443 1:0.11872908473014832 2:0.9364548325538635 3:0.0 4:-1.0 5:0.11872908473014832 6:0.7692307829856873 7:0.06707523763179779 8:-0.9977479577064514 9:0.1454848349094391 10:0.5384615659713745 11:0.13639448583126068 12:-0.9906546473503113 13:0.1822742372751236 14:0.3076923191547394 15:0.2468351125717163 16:-0.9690575003623962 17:0.23578573763370514 18:0.18394649028778076 19:0.3113081455230713 20:-0.9503090381622314 21:0.24581938982009888 22:0.11371239274740219 23:0.9701422452926636 24:0.2425367683172226 25:0.2625414729118347 26:0.19063545763492584 27:0.4536854326725006 28:0.8911618590354919 29:0.33946549892425537 30:0.29765889048576355 31:0.5776686668395996 32:0.8162713646888733 33:0.41638755798339844 34:0.408026784658432 35:0.45985186100006104 36:0.8879956007003784 37:0.4364548325538635 38:0.48494985699653625 39:0.9976304173469543 40:0.06880147010087967 41:0.5133769512176514 42:0.41471564769744873 43:0.6850259304046631 44:-0.7285187244415283 45:0.6471575498580933 46:0.26086947321891785 47:0.6215746998786926 48:-0.7833548784255981 49:0.7575238943099976 50:0.10702342540025711 51:0.6401844024658203 52:-0.7682211995124817 53:0.8645488023757935 54:0.0 55:0.8895688056945801 56:-0.45680129528045654 57:0.8812708854675293 58:0.04347827658057213 59:0.12716172635555267 60:0.9918820261955261 61:0.8812708854675293 62:0.13043494522571564 63:0.0 64:1.0 65:0.8812708854675293 66:0.30769240856170654 67:0.0 68:1.0 69:0.8812708854675293 70:0.5752507448196411 71:0.0 72:1.0 73:0.8812708854675293 74:0.8327760696411133 75:0.0 76:1.0 77:0.8812708854675293 78:1.0 79:0.0 80:1.0 
0.0 0.0 0.0 0.0 0.0 0.0 0.0 0.0 0.0 0.0 0.0 0.0 0.0 0.0 0.0 0.0 0.0 0.0 0.0 0.23192792851770852 1:0.0 2:0.875 3:0.412168025970459 4:-0.9111078381538391 5:0.05000000074505806 6:0.7644737362861633 7:0.1814054548740387 8:-0.9834083914756775 9:0.05000000074505806 10:0.6039474010467529 11:0.15388274192810059 12:-0.9880891442298889 13:0.10000000149011612 14:0.4434210956096649 15:0.2602190673351288 16:-0.9655495882034302 17:0.15000000596046448 18:0.23289474844932556 19:0.2683548927307129 20:-0.9633201360702515 21:0.2026321440935135 22:0.07499998807907104 23:0.9037377238273621 24:-0.42808666825294495 25:0.3499999940395355 26:0.13815782964229584 27:0.5501561760902405 28:0.83506178855896 29:0.3499999940395355 30:0.2986842095851898 31:0.15388274192810059 32:0.9880890846252441 33:0.4000000059604645 34:0.45921048521995544 35:0.32432079315185547 36:0.9459471106529236 37:0.44473570585250854 38:0.5750000476837158 39:0.9945054054260254 40:0.1046852171421051 41:0.5 42:0.46973684430122375 43:0.6211956143379211 44:-0.78365558385849 45:0.6157897710800171 46:0.3592105805873871 47:0.54527348279953 48:-0.8382582664489746 49:0.6763153076171875 50:0.19868430495262146 51:0.44372931122779846 52:-0.896160900592804 53:0.75 54:0.0881580263376236 55:0.915519654750824 56:-0.4022730886936188 57:0.8500000238418579 58:0.12236842513084412 59:0.7371549010276794 60:0.6757237911224365 61:0.9078949093818665 62:0.2328946888446808 63:0.32652029395103455 64:0.9451901316642761 65:0.949999988079071 66:0.4118419587612152 67:0.11275108903646469 68:0.9936232566833496 69:0.949999988079071 70:0.6039472818374634 71:0.0 72:1.0 73:0.949999988079071 74:0.7644734978675842 75:0.1538827270269394 76:0.9880891442298889 77:1.0 78:0.925000011920929 79:0.2973833978176117 80:0.9547581672668457 
0.14335460647403742 0.0 0.0 0.13502275589165086 0.0 0.0 0.0 0.0 0.2110131883324675 0.21616229196711068 0.0 0.2686109727080893 0.6857736371737794 0.0 0.31600724048363565 0.20853391752872616 0.0 0.0 0.0 0.24213375838922244 1:0.0 2:0.9681440591812134 3:0.6976146101951599 4:-0.7164732813835144 5:0.10249248147010803 6:0.8628808856010437 7:0.45356816053390503 8:-0.8912215828895569 9:0.15789473056793213 10:0.6578947901725769 11:0.36274927854537964 12:-0.9318867921829224 13:0.2631579041481018 14:0.45013853907585144 15:0.43273112177848816 16:-0.9015230536460876 17:0.3573407530784607 18:0.24238230288028717 19:0.3571380078792572 20:-0.9340515732765198 21:0.40720248222351074 22:0.07340723276138306 23:0.6585044264793396 24:-0.7525768280029297 25:0.4736842215061188 26:0.10941827297210693 27:0.2631165385246277 28:0.9647641181945801 29:0.4736842215061188 30:0.31717449426651 31:-0.12566259503364563 32:0.9920730590820312 33:0.42105263471603394 34:0.5249307751655579 35:-0.12566262483596802 36:0.9920730590820312 37:0.42105263471603394 38:0.7326868772506714 39:0.0 40:1.0 41:0.42105263471603394 42:0.8905817866325378 43:0.9312431216239929 44:-0.364398330450058 45:0.5484763979911804 46:0.6828255653381348 47:0.3924374580383301 48:-0.9197787046432495 49:0.5983372926712036 50:0.4750693440437317 51:0.4424249827861786 52:-0.896805465221405 53:0.7534629702568054 54:0.2673131227493286 55:0.5269414782524109 56:-0.849901556968689 57:0.8559562563896179 58:0.05955686792731285 59:0.7231703400611877 60:-0.6906696557998657 61:1.0 62:0.03185594081878662 63:0.45269036293029785 64:0.8916677832603455 65:0.9473684430122375 66:0.2396121770143509 67:-0.12566253542900085 68:0.9920730590820312 69:0.9473684430122375 70:0.44736841320991516 71:-0.00666604982689023 72:0.9999777674674988 73:0.9445985555648804 74:0.6551244854927063 75:-0.1256626695394516 76:0.9920730590820312 77:0.8947368264198303 78:0.8628808856010437 79:-0.23337380588054657 80:0.9723870754241943 
-0.7050546056329249 1.4034686282993618 6.9449321524592555 0.44298645640325796 0.0 0.63213429792612 0.0 0.26089089812746274 0.0 0.0 0.0 0.0 0.0 0.0 0.0 0.0 5.132115635416453 0.7709339078357736 1.4922708908195181 0.0 1:0.6711640954017639 2:0.02227800339460373 3:-0.9654382467269897 4:-0.260631799697876 5:0.5886414051055908 6:0.0 7:-0.9889692068099976 8:0.1481209248304367 9:0.46375900506973267 10:0.05334169417619705 11:-0.7689914703369141 12:0.6392590999603271 13:0.3319736123085022 14:0.2133667767047882 15:-0.5152485966682434 16:0.8570407629013062 17:0.21117037534713745 18:0.4734859764575958 19:-0.3243580460548401 20:0.9459344148635864 21:0.1782240867614746 22:0.6617507934570312 23:-0.022635629400610924 24:0.9997438192367554 25:0.20363980531692505 26:0.80608731508255 27:0.31197020411491394 28:0.9500918388366699 29:0.26106056571006775 30:0.9140257239341736 31:0.6192630529403687 32:0.7851836085319519 33:0.35236895084381104 34:0.994665801525116 35:0.889015793800354 36:0.457876592874527 37:0.4279887080192566 38:1.0 39:0.9814267754554749 40:-0.19183702766895294 41:0.5738939046859741 42:0.9513648748397827 43:0.8865442276000977 44:-0.46264389157295227 45:0.6721054315567017 46:0.8726074695587158 47:0.7202532291412354 48:-0.6937112212181091 49:0.7612173557281494 50:0.7709444761276245 51:0.5459535121917725 52:-0.8378154039382935 53:0.8217759132385254 54:0.6429244875907898 55:0.18857842683792114 56:-0.9820581078529358 57:0.8020080924034119 58:0.5585189461708069 59:-0.8021023273468018 60:-0.5971866846084595 61:0.6928145289421082 62:0.5469092726707458 63:-0.9972641468048096 64:0.07392106205224991 65:0.569187343120575 66:0.5757765173912048 67:-0.9249693155288696 68:0.3800417482852936 69:0.404141902923584 70:0.6655160784721375 71:-0.8441377878189087 72:0.5361261367797852 73:0.34044569730758667 74:0.721054196357727 75:-0.6342006921768188 76:0.7731685042381287 77:0.32538437843322754 78:0.7615311741828918 79:-0.34873610734939575 80:0.9372209906578064 
-0.30112139356349044 0.5077847215305155 0.0 1.1233527117872417 1.31903609570176 0.5300620827360616 0.971601812055813 0.8855422217493318 0.39607105260834496 0.6995465607085555 2.3519188803381716 1.7304397633588342 1.9981498138123128 1.4844877663029048 2.491422860205636 4.32213481131169 0.0 0.8714358528330838 1.395307188889809 1.1205355863274522 1:0.5732394456863403 2:0.1665996015071869 3:0.30037498474121094 4:-0.9538211226463318 5:0.5961771011352539 6:0.09376257658004761 7:0.13234876096248627 8:-0.991203248500824 9:0.592153012752533 10:0.0249496977776289 11:-0.4727463722229004 12:-0.881198525428772 13:0.5458752512931824 14:0.0 15:-0.9992479085922241 16:0.038776710629463196 17:0.45734405517578125 18:0.030181080102920532 19:-0.8085094094276428 20:0.5884833335876465 21:0.35955744981765747 22:0.13561366498470306 23:-0.5803337693214417 24:0.8143786787986755 25:0.2617708146572113 26:0.30462774634361267 27:-0.3637462854385376 28:0.931498110294342 29:0.2074446976184845 30:0.5251509547233582 31:-0.11211470514535904 32:0.9936953186988831 33:0.21468807756900787 34:0.7219315767288208 35:0.1811342090368271 36:0.9834583401679993 37:0.27303826808929443 38:0.881287693977356 39:0.5510088801383972 40:0.8344993591308594 41:0.3812875747680664 42:0.9742454290390015 43:0.8925854563713074 44:0.4508783519268036 45:0.5080481767654419 46:1.0 47:0.999706506729126 48:-0.024225274100899696 49:0.6303824186325073 50:0.9682092666625977 51:0.9019455313682556 52:-0.43184971809387207 53:0.7358149290084839 54:0.8909457325935364 55:0.6283004283905029 56:-0.7779707908630371 57:0.7925553321838379 58:0.7674043774604797 59:0.17016509175300598 60:-0.985415518283844 61:0.7800803184509277 62:0.6346076130867004 63:-0.3138243854045868 64:-0.9494810104370117 65:0.7136822938919067 66:0.5287726521492004 67:-0.710299015045166 68:-0.703900158405304 69:0.6014083623886108 70:0.4575452506542206 71:-0.94629967212677 72:-0.3232908248901367 73:0.4875252842903137 74:0.4515090882778168 75:-0.9992642998695374 76:0.03835143893957138 77:0.412676066160202 78:0.4647887349128723 79:-0.9846234321594238 80:0.17469054460525513 
-0.0 0.0 3.322542374760884 1.6032447684792157 2.3062973946452585 0.0 0.0 0.0 1.5110516934604146 0.0 0.0 0.0 1.0344060679557663 0.0 0.0 0.0 0.0 0.7908550232062548 0.009547498645959974 1.2956449780873602 1:0.7786589860916138 2:0.054794520139694214 3:-0.7863183617591858 4:-0.6178215146064758 5:0.748377799987793 6:0.031002162024378777 7:-0.9274551868438721 8:-0.3739342987537384 9:0.6427541971206665 10:0.0 11:-0.998928427696228 12:-0.04628237336874008 13:0.5616438984870911 14:0.022350402548909187 15:-0.8325727581977844 16:0.5539157390594482 17:0.3777937889099121 18:0.17627976834774017 19:-0.6670737862586975 20:0.744991660118103 21:0.2591925263404846 22:0.36012977361679077 23:-0.4699627161026001 24:0.8826862573623657 25:0.15284785628318787 26:0.5987743139266968 27:-0.20857934653759003 28:0.9780054688453674 29:0.1618601530790329 30:0.8165104985237122 31:0.3902158737182617 32:0.9207233786582947 33:0.30425381660461426 34:0.956020176410675 35:0.8704367876052856 36:0.4922802150249481 37:0.4863014221191406 38:1.0 39:0.9991598129272461 40:0.04098570719361305 41:0.6294159889221191 42:0.9693583846092224 43:0.8195850849151611 44:-0.5729575157165527 45:0.6827685832977295 46:0.8626532554626465 47:0.16235360503196716 48:-0.9867326021194458 49:0.6665464639663696 50:0.7436913847923279 51:-0.497143417596817 52:-0.8676684498786926 53:0.5483056306838989 54:0.6279739737510681 55:-0.8179558515548706 56:-0.5752810835838318 57:0.45998555421829224 58:0.59841388463974 59:-0.9589541554450989 60:-0.28356125950813293 61:0.41420334577560425 62:0.5883201360702515 63:-0.9863936901092529 64:-0.16440045833587646 65:0.42754149436950684 66:0.5930064916610718 67:0.9990094900131226 68:0.044499095529317856 69:0.5760636329650879 70:0.5955299139022827 71:0.9968910813331604 72:-0.07879215478897095 73:0.7422494888305664 74:0.5681326389312744 75:0.9972386956214905 76:-0.07426244765520096 77:0.8471521139144897 78:0.5753424763679504 79:0.9976465106010437 80:0.06856710463762283 
-0.0 0.0 0.0 0.8704714948484021 0.0 0.0 0.0 0.0 0.0 0.0 0.0 0.0 0.0 0.0 0.0 0.0 0.0 0.0 0.0 0.0 1:0.8430372476577759 2:0.028156450018286705 3:-0.8987497091293335 4:-0.4384620487689972 5:0.7853227853775024 6:0.0 7:-0.9974120855331421 8:0.0718962624669075 9:0.5231237411499023 10:0.05121671408414841 11:-0.8897141814231873 12:0.4565180242061615 13:0.1680467128753662 14:0.31672829389572144 15:-0.5597813129425049 16:0.828640341758728 17:0.0867626965045929 18:0.697158932685852 19:0.1688726842403412 20:0.985637903213501 21:0.2795258164405823 22:0.9673843383789062 23:0.8468526005744934 24:0.5318277478218079 25:0.5689898133277893 26:1.0 27:0.9918392300605774 28:-0.1274953931570053 29:0.8187030553817749 30:0.8980761170387268 31:0.8298817276954651 32:-0.5579392910003662 33:0.8248182535171509 34:0.8280035257339478 35:-0.23754620552062988 36:-0.9713762402534485 37:0.7772963047027588 38:0.7287552356719971 39:-0.5967985987663269 40:-0.8023911118507385 41:0.7068414688110352 42:0.6693846583366394 43:-0.8081604242324829 44:-0.5889623761177063 45:0.6842911243438721 46:0.6609759330749512 47:-0.9615238904953003 48:-0.2747213542461395 49:0.6738436222076416 50:0.659956693649292 51:-0.9983327984809875 52:-0.05771998316049576 53:0.6247930526733398 54:0.657535970211029 55:-0.9991589784622192 56:-0.04100281372666359 57:0.6148552894592285 58:0.657535970211029 59:0.9961745142936707 60:0.08738616853952408 61:0.6465790271759033 62:0.6594470739364624 63:0.9937360286712646 64:0.11175259202718735 65:0.7621350288391113 66:0.6740986108779907 67:0.999281108379364 68:0.03791144862771034 69:0.8715760707855225 70:0.6679831743240356 71:0.990346372127533 72:-0.13861504197120667 73:0.9132373332977295 74:0.6529493927955627 75:0.874813437461853 76:-0.48445987701416016 77:0.9035545587539673 78:0.6502739191055298 79:-0.9638811349868774 80:-0.26633262634277344 
-1.1594133788380803 0.0 0.0 0.0 0.6654646945375831 0.0 0.0 0.0 1.924333967828043 0.0 0.0 0.0 0.0 0.0 0.0 18.068042850278534 0.0 0.10111804902852506 1.832628675212994 0.5160797917840512 1:0.7599681615829468 2:0.1116427332162857 3:-0.5905188918113708 4:-0.8070237636566162 5:0.73604416847229 6:0.07894736528396606 7:-0.7201581001281738 8:-0.693809986114502 9:0.6945773363113403 10:0.048644330352544785 11:-0.8844943642616272 12:-0.4665508568286896 13:0.5909099578857422 14:0.0023923353292047977 15:-0.9639541506767273 16:-0.2660684287548065 17:0.518341064453125 18:0.0 19:-0.9256290197372437 20:0.37843218445777893 21:0.44657111167907715 22:0.06140352040529251 23:-0.6107097268104553 24:0.7918545603752136 25:0.3301438093185425 26:0.24401913583278656 27:-0.4740051031112671 28:0.8805220723152161 29:0.21132314205169678 30:0.49840521812438965 31:-0.35836124420166016 32:0.9335829615592957 33:0.1443379819393158 34:0.7280702590942383 35:-0.1182108074426651 36:0.9929885268211365 37:0.1634771227836609 38:0.90031898021698 39:0.39391809701919556 40:0.9191455841064453 41:0.2591700851917267 42:0.996012806892395 43:0.9274414777755737 44:0.3739682137966156 45:0.4106861352920532 46:1.0 47:0.99008709192276 48:-0.14045439660549164 49:0.6020729541778564 50:0.9473683834075928 51:0.8874282836914062 52:-0.46094581484794617 53:0.7392346858978271 54:0.8293461203575134 55:0.639550507068634 56:-0.7687491774559021 57:0.8389161825180054 58:0.6626793146133423 59:0.351386696100235 60:-0.9362304210662842 61:0.8556619882583618 62:0.5191386342048645 63:-0.14328886568546295 64:-0.9896808862686157 65:0.8046255111694336 66:0.42583730816841125 67:-0.8826920986175537 68:-0.4699517786502838 69:0.6834133863449097 70:0.42743220925331116 71:-0.9811317324638367 72:0.19334040582180023 73:0.5334925651550293 74:0.47926637530326843 75:-0.918484091758728 76:0.39545801281929016 77:0.396331787109375 78:0.5510366559028625 79:-0.88603276014328 80:0.46362248063087463 
-0.0 0.04911777811100039 1.839997939373392 0.047791022944823576 1.3786063732780895 0.3806779500218295 0.06866150012728721 0.0 0.25216296136224137 0.0 1.170412591014132 0.11750172657336465 0.0 0.0 0.0 0.0 0.20202760454051674 0.1480817688071704 1.3033179243424162 0.0 1:0.8231511116027832 2:0.11414790898561478 3:-0.6507911682128906 4:-0.7592567801475525 5:0.7845659255981445 6:0.06913183629512787 7:-0.8245132565498352 8:-0.5658425688743591 9:0.6591640114784241 10:0.0016077160835266113 11:-0.9992009401321411 12:-0.03996804729104042 13:0.46302250027656555 14:0.05627009645104408 15:-0.8795813918113708 16:0.4757483899593353 17:0.1479099690914154 18:0.2781350612640381 19:-0.6712794303894043 20:0.7412043213844299 21:0.0 22:0.5675241351127625 23:-0.1389886438846588 24:0.9902940392494202 25:0.07073955237865448 26:0.827974259853363 27:0.7248710989952087 28:0.6888845562934875 29:0.4533762037754059 30:0.9983922839164734 31:0.9781717658042908 32:0.20779812335968018 33:0.6913183331489563 34:0.9598070383071899 35:0.9148282408714294 36:-0.4038431644439697 37:0.8102893829345703 38:0.8408359885215759 39:0.28216639161109924 40:-0.9593654870986938 41:0.7717041969299316 42:0.6864951848983765 43:-0.4148108661174774 44:-0.9099076390266418 45:0.7106109261512756 46:0.6221864819526672 47:-0.9086767435073853 48:-0.417500376701355 49:0.6527331471443176 50:0.6318327784538269 51:-0.9325680136680603 52:0.3609943985939026 53:0.610932469367981 54:0.6607717275619507 55:-0.9028602838516235 56:0.4299338757991791 57:0.5852090120315552 58:0.6639871597290039 59:-0.9486832618713379 60:0.3162277638912201 61:0.6012861728668213 62:0.6639871597290039 63:0.977176308631897 64:-0.212429940700531 65:0.7331189513206482 66:0.6318327784538269 67:0.9909553527832031 68:-0.13419198989868164 69:0.909967839717865 70:0.6221864819526672 71:0.9981904625892639 72:-0.06013191491365433 73:1.0 74:0.6157556176185608 75:0.99083012342453 76:-0.13511309027671814 77:0.9807074069976807 78:0.6125401854515076 79:-0.9863939881324768 80:-0.16439899802207947 
-0.0 2.5720958460445638 0.0 0.22539732114139724 0.1780570436458601 1.8875642588180361 3.7263863840307154 1.3492454165694863 0.0 3.2330205839762685 0.7326603050310516 0.0 0.0 7.708626654835068 0.0 24.928550692307162 0.0 0.17627498648444712 0.3638938601125844 0.8183782274656513 1:0.4583333432674408 2:0.0 3:-0.7568238973617554 4:0.6536186933517456 5:0.3618418276309967 6:0.0833333358168602 7:-0.8499038815498352 8:0.5269378423690796 9:0.2390340119600296 10:0.13596491515636444 11:-0.7474098801612854 12:0.6643631458282471 13:0.0855255052447319 14:0.32894739508628845 15:-0.5094899535179138 16:0.860476553440094 17:0.041666656732559204 18:0.46929824352264404 19:-0.1434265375137329 20:0.9896609783172607 21:0.041666656732559204 22:0.6315789222717285 23:0.0 24:1.0 25:0.041666656732559204 26:0.8245614171028137 27:0.2990913689136505 28:0.9542244076728821 29:0.1337738037109375 30:0.9254385828971863 31:0.768220067024231 32:0.6401857733726501 33:0.2521921694278717 34:1.0 35:0.9725111126899719 36:0.23285642266273499 37:0.4451751708984375 38:1.0 39:0.9899495840072632 40:-0.14142096042633057 41:0.5899124145507812 42:0.9517543911933899 43:0.9021348357200623 44:-0.4314541518688202 45:0.7478078603744507 46:0.8552631735801697 47:0.8198408484458923 48:-0.5725915431976318 49:0.8662261962890625 50:0.7587718963623047 51:0.7371528744697571 52:-0.6757259964942932 53:0.9583333730697632 54:0.6622807383537292 55:0.43073704838752747 56:-0.9024775624275208 57:0.9583333730697632 58:0.565789520740509 59:-0.18588536977767944 60:-0.9825714230537415 61:0.9276326894760132 62:0.5 63:-0.9333443641662598 64:-0.35898223519325256 65:0.7872823476791382 66:0.5 67:-1.0 68:0.0 69:0.6513164043426514 70:0.5 71:-1.0 72:0.0 73:0.5548248291015625 74:0.5 75:-1.0 76:0.0 77:0.4583333432674408 78:0.5 79:-1.0 80:0.0 
-0.4935914970261473 1.009959444340026 14.287424260578392 0.4129507407118642 2.1221809556509514 0.7610536328539228 2.4742599874424607 0.8629620367135911 0.38611293085470005 1.4804424478556162 1.337103318443265 0.8495340737678923 0.8127567184057757 1.5842909224338695 0.4476498857125225 0.8437166716488204 2.7715626663406856 1.9408948587053658 0.0 0.11656310818089266 1:0.737785279750824 2:0.0 3:-0.9873309135437012 4:0.15867501497268677 5:0.651386022567749 6:0.013885317370295525 7:-0.9564400911331177 8:0.2919287085533142 9:0.32919809222221375 10:0.12471071630716324 11:-0.8764633536338806 12:0.4814685881137848 13:0.10536101460456848 14:0.3138338625431061 15:-0.48865872621536255 16:0.8724750280380249 17:0.07810389995574951 18:0.5730264782905579 19:0.18399746716022491 20:0.9829267263412476 21:0.20949913561344147 22:0.870146632194519 23:0.6931915283203125 24:0.7207533717155457 25:0.48874983191490173 26:1.0 27:0.9965633749961853 28:0.08283419162034988 29:0.7616978883743286 30:0.9160453081130981 31:0.8056126236915588 32:-0.5924426317214966 33:0.9177786707878113 34:0.6844947934150696 35:0.4359876811504364 36:-0.8999525904655457 37:0.9218961000442505 38:0.5853689908981323 39:-0.2876672148704529 40:-0.9577304124832153 41:0.8662248849868774 42:0.5128567814826965 43:-0.8202199339866638 44:-0.5720482468605042 45:0.7561706304550171 46:0.4697866141796112 47:-0.9695127010345459 48:-0.24504119157791138 49:0.6205314993858337 50:0.45075857639312744 51:-0.9889587759971619 52:-0.14819124341011047 53:0.5880023837089539 54:0.4445873200893402 55:-0.9851062297821045 56:-0.17194664478302002 57:0.5851755142211914 58:0.4445873200893402 59:0.99421226978302 60:0.10743394494056702 61:0.5927615165710449 62:0.4451015889644623 63:0.9860662817955017 64:0.16635289788246155 65:0.6377598643302917 66:0.4534584879875183 67:0.9911662936210632 68:0.13262495398521423 69:0.8281684517860413 70:0.47660067677497864 71:0.9969518780708313 72:0.07801838964223862 73:0.897337019443512 74:0.47377219796180725 75:0.9963005185127258 76:-0.08593818545341492 77:0.9161087870597839 78:0.4690151810646057 79:0.9693589806556702 80:-0.24564851820468903 
-0.6769079029502484 0.0 0.0 0.0 0.0 0.0 2.1531555042922657 0.0 0.0 0.878465368998913 0.6795116855685878 1.1352230702914547 0.5266768490742106 1.916386287195676 0.6677349245417784 1.9474515285338445 0.17717011549863657 0.0 0.0 0.0 1:0.749451756477356 2:0.0486111119389534 3:-0.058041296899318695 4:-0.9983140826225281 5:0.7476242780685425 6:0.017178364098072052 7:-0.5852677822113037 8:-0.8108400702476501 9:0.7143640518188477 10:0.0 11:-0.9968777894973755 12:-0.07896058261394501 13:0.599963366985321 14:0.005482455249875784 15:-0.9338221549987793 16:0.3577376902103424 17:0.3642178475856781 18:0.13413742184638977 19:-0.785871148109436 20:0.6183903813362122 21:0.1763523817062378 22:0.33881568908691406 23:-0.4995574355125427 24:0.8662807941436768 25:0.07693713903427124 26:0.6323099136352539 27:-0.027324719354510307 28:0.999626636505127 29:0.1631944477558136 30:0.8201754689216614 31:0.6203163266181946 32:0.7843517661094666 33:0.3174341022968292 34:0.9364035129547119 35:0.9076595306396484 36:0.4197072684764862 37:0.5520832538604736 38:1.0 39:0.9969019293785095 40:0.07865463197231293 41:0.7158259749412537 42:0.9678362607955933 43:0.8537452816963196 44:-0.52069091796875 45:0.818165123462677 46:0.8377192616462708 47:0.34570568799972534 48:-0.9383430480957031 49:0.8156067728996277 50:0.6970029473304749 51:-0.3620215356349945 52:-0.9321697354316711 53:0.7278874516487122 54:0.6052631735801697 55:-0.7986191511154175 56:-0.6018368005752563 57:0.6123902797698975 58:0.5438596606254578 59:-0.9326420426368713 60:-0.36080312728881836 61:0.527595043182373 62:0.5277777910232544 63:-0.9435448050498962 64:-0.33124494552612305 65:0.5780335664749146 66:0.531798243522644 67:0.9995871186256409 68:-0.028732599690556526 69:0.7691885828971863 70:0.5208333134651184 71:0.9955673217773438 72:-0.094051294028759 73:0.8952850699424744 74:0.5018274784088135 75:0.9840935468673706 76:-0.17765097320079803 77:0.9230628609657288 78:0.4930555522441864 79:0.9535827040672302 80:-0.30113112926483154 
-0.8377615925147355 1.8959211667247617 1.7172628594054968 0.5450768104785434 2.4553476694533187 0.8260889136918111 1.4739362854467946 2.0660502782332717 1.4879613024515157 1.346228897727557 3.230207807127932 0.9732550346699713 1.4712339732940343 0.7217492378308838 1.0025979339128228 0.0 1.4443228982053136 2.2305016016703494 0.536565993065903 2.144543532810356 1:0.7786299586296082 2:0.0 3:-0.9858575463294983 4:0.16758517920970917 5:0.6705737709999084 6:0.018368389457464218 7:-0.9007033109664917 8:0.43443477153778076 9:0.29117101430892944 10:0.23511528968811035 11:-0.7290423512458801 12:0.6844685077667236 13:0.07176315784454346 14:0.5805675387382507 15:-0.1900157630443573 16:0.9817810654640198 17:0.16664615273475647 18:0.878515362739563 19:0.6378263831138611 20:0.7701801657676697 21:0.4191170632839203 22:1.0 23:0.9779092073440552 24:0.2090299129486084 25:0.6585392951965332 26:0.9836584329605103 27:0.917356014251709 28:-0.39806774258613586 29:0.7738162279129028 30:0.8460856080055237 31:0.46355098485946655 32:-0.886070191860199 33:0.764442503452301 34:0.7812261581420898 35:-0.6189042925834656 36:-0.7854664325714111 37:0.6810874342918396 38:0.728401243686676 39:-0.930206298828125 40:-0.3670370876789093 41:0.5962127447128296 42:0.7148467302322388 43:-0.9932758212089539 44:-0.1157722994685173 45:0.5854452252388 46:0.717253565788269 47:-0.9741872549057007 48:0.22574131190776825 49:0.58582603931427 50:0.717253565788269 51:1.0 52:0.0 53:0.5859517455101013 54:0.717253565788269 55:1.0 56:0.0 57:0.5889921188354492 58:0.717253565788269 59:0.999552845954895 60:0.02990042418241501 61:0.6155948638916016 62:0.7181403040885925 63:0.9997177124023438 64:-0.023760473355650902 65:0.8021923899650574 66:0.7121863961219788 67:0.998164713382721 68:-0.060557249933481216 69:0.9225369095802307 70:0.6995185613632202 71:0.9937243461608887 72:-0.11185652017593384 73:0.9282368421554565 74:0.6979984641075134 75:-0.9962653517723083 76:0.08634405583143234 77:0.8845332264900208 78:0.7028122544288635 79:-0.9939885139465332 80:0.10948412865400314 
-1.0601221324274457 -1.958562265063334 1.9917029706309373 0.8784845619254287 1.8223273610903286 4.351882359969542 2.566649343281158 0.5557270749548335 0.49829948270931956 1.0354053818922204 1.306709871148305 1.1216653294636973 0.954687823406917 1.2720846973863305 0.941779161682347 1.5248142709378625 2.5384475341235366 2.3158386391032044 1.3923530574140608 0.15775955538258202 1:0.3520301878452301 2:0.06871422380208969 3:-0.08108113706111908 4:0.9967074990272522 5:0.33068719506263733 6:0.33107760548591614 7:-0.1281481385231018 8:0.9917550086975098 9:0.2801925837993622 10:0.6246747374534607 11:-0.2380521595478058 12:0.9712523818016052 13:0.20054656267166138 14:0.8620511293411255 15:-0.3070835471153259 16:0.9516825675964355 17:0.16462776064872742 18:0.9828216433525085 19:-0.3086801767349243 20:0.9511659145355225 21:0.15577825903892517 22:1.0 23:0.0 24:-1.0 25:0.16462776064872742 26:0.9370120763778687 27:0.13912880420684814 28:-0.9902743697166443 29:0.06780317425727844 30:0.07183759659528732 31:0.97942715883255 32:-0.2017979919910431 33:0.36530449986457825 34:0.010541385971009731 35:0.9912778735160828 36:-0.13178838789463043 37:0.6081467866897583 38:0.0 39:0.998684287071228 40:0.05128142982721329 41:0.813899040222168 42:0.03357626497745514 43:0.9457783102989197 44:0.32481274008750916 45:0.917360782623291 46:0.10619470477104187 47:0.5602349042892456 48:0.8283337950706482 49:0.932196855545044 50:0.2084851861000061 51:-0.3060090243816376 52:0.9520286321640015 53:0.8541125059127808 54:0.30296725034713745 55:-0.7820368409156799 56:0.6232322454452515 57:0.7283966541290283 58:0.37090063095092773 59:-0.9465588331222534 60:0.3225310742855072 61:0.5378708839416504 62:0.41072362661361694 63:-0.9887446761131287 64:0.1496126502752304 65:0.4316762089729309 66:0.4157991111278534 67:-0.9966506958007812 68:-0.0817764550447464 69:0.38560643792152405 70:0.3982301354408264 71:-0.9465469121932983 72:-0.3225662112236023 73:0.3617907166481018 74:0.39198338985443115 75:-0.5900168418884277 76:0.8073908686637878 77:0.3707703948020935 78:0.4185320734977722 79:0.320403128862381 80:0.9472813010215759 
-0.0 -0.0 0.0 0.0 0.0 24.59204062786904 0.0 0.0 0.0 0.0 0.0 0.0 0.0 0.0 0.0 0.0 0.08114949315805327 0.7081662690019093 0.0 0.11434156431547655 1:0.20670393109321594 2:0.16201117634773254 3:0.0 4:1.0 5:0.20670393109321594 6:0.2048417180776596 7:0.17532408237457275 8:0.9845107197761536 9:0.23091253638267517 10:0.2979516088962555 11:0.17947031557559967 12:0.9837633371353149 13:0.2569832503795624 14:0.4804469347000122 15:0.06683573126792908 16:0.997763991355896 17:0.2569832503795624 18:0.6871508955955505 19:-0.06454171240329742 20:0.9979150295257568 21:0.23277470469474792 22:0.8547486066818237 23:-0.17579065263271332 24:0.9844275712966919 25:0.20111733675003052 26:1.0 27:-0.2129497528076172 28:0.9770631790161133 29:0.11173185706138611 30:0.25139665603637695 31:0.09053577482700348 32:-0.9958931803703308 33:0.12011174857616425 34:0.15921787917613983 35:0.46850255131721497 36:-0.8834620714187622 37:0.20949721336364746 38:0.0670391097664833 39:0.8488538861274719 40:-0.5286275744438171 41:0.3533519506454468 42:0.013966480270028114 43:0.9695391654968262 44:-0.24493622779846191 45:0.4748603403568268 46:0.0 47:0.9778023958206177 48:0.2095290571451187 49:0.6075419187545776 50:0.06843575090169907 51:0.7982549667358398 52:0.6023197770118713 53:0.7821228504180908 54:0.23184357583522797 55:0.6405141949653625 56:0.7679463624954224 57:0.8743016719818115 58:0.3882681429386139 59:0.313749760389328 60:0.9495057463645935 61:0.8882681131362915 62:0.5530726313591003 63:-0.3495904803276062 64:0.9369025826454163 65:0.7695530652999878 66:0.6689944267272949 67:-0.9040722250938416 68:0.42737963795661926 69:0.5810055732727051 70:0.6983240246772766 71:-0.9993091821670532 72:0.03716442734003067 73:0.43156424164772034 74:0.6815642714500427 75:-0.9725789427757263 76:-0.2325732260942459 77:0.3240223526954651 78:0.6368715167045593 79:-0.9234312772750854 80:-0.38376384973526 
-0.0 -0.0 0.0 0.0 0.03910877634894985 5.359749774903088 0.0 0.13821405915628826 0.5561927219239609 0.0 0.3914763220545854 0.0 0.221800470746263 0.0 0.18530676781301259 0.0 0.0 0.0 0.0 0.472319435659975 1:0.2112363874912262 2:0.10269835591316223 3:0.14101985096931458 4:0.9900067448616028 5:0.25070518255233765 6:0.3797825574874878 7:0.1053427904844284 8:0.9944359660148621 9:0.271647185087204 10:0.6729762554168701 11:0.008709590882062912 12:0.9999620914459229 13:0.2547321617603302 14:0.8421264886856079 15:-0.024057209491729736 16:0.9997106194496155 17:0.26439788937568665 18:0.9742247462272644 19:0.03059791959822178 20:0.9995318055152893 21:0.2595650255680084 22:1.0 23:-0.7474088072776794 24:0.6643643975257874 25:0.24989929795265198 26:0.9871124029159546 27:-0.6000011563301086 28:-0.7999990582466125 29:0.19673779606819153 30:0.06403544545173645 31:0.9496577382087708 32:-0.31328916549682617 33:0.3139347434043884 34:0.02537253499031067 35:0.966315507888794 36:-0.25736039876937866 37:0.4371727705001831 38:0.0 39:0.9988499879837036 40:-0.047944795340299606 41:0.5404752492904663 42:0.014498591423034668 43:0.9342183470726013 44:0.3567016124725342 45:0.6365283727645874 46:0.076117604970932 47:0.6623396277427673 48:0.7492037415504456 49:0.7615787982940674 50:0.2645992934703827 51:0.461879700422287 52:0.8869425654411316 53:0.8032622337341309 54:0.39629483222961426 55:0.1263376772403717 56:0.9919872879981995 57:0.7942005395889282 58:0.5207410454750061 59:-0.39609140157699585 60:0.9182111024856567 61:0.7235199213027954 62:0.5811518430709839 63:-0.9539259672164917 64:0.30004197359085083 65:0.5157067775726318 66:0.6083367466926575 67:-0.997617781162262 68:0.06898421049118042 69:0.26923075318336487 70:0.6125654578208923 71:-0.9998055100440979 72:-0.019720129668712616 73:0.20942406356334686 74:0.6022956371307373 75:-0.9676172733306885 76:-0.25242188572883606 77:0.2136528193950653 78:0.5980668663978577 79:0.7071055173873901 80:-0.7071080207824707 
-0.0 -0.11138131201200618 0.0 0.0 0.12200908617429902 14.976178902735827 0.6529799238123352 0.0 0.0 0.0 0.826299469883815 0.5695111686592704 0.0 0.0 0.15457567146905468 0.0 0.0 0.1509840416913356 0.2088083425679187 0.0 1:0.17784669995307922 2:0.08220610022544861 3:0.19043634831905365 4:0.981699526309967 5:0.22147098183631897 6:0.30708929896354675 7:0.17148372530937195 8:0.9851869940757751 9:0.2640804350376129 10:0.5776254534721375 11:0.1210852786898613 12:0.9926421046257019 13:0.2830173969268799 14:0.8116391897201538 15:0.07675952464342117 16:0.9970496296882629 17:0.2948533296585083 18:0.9773426651954651 19:0.05735723301768303 20:0.9983537793159485 21:0.29383906722068787 22:1.0 23:-0.06958184391260147 24:0.9975762367248535 25:0.29383906722068787 26:0.9918838739395142 27:0.0 28:-1.0 29:0.29383906722068787 30:0.981738805770874 31:0.0 32:-1.0 33:0.27490153908729553 34:0.018291933462023735 35:0.9872884750366211 36:-0.158938467502594 37:0.3885267376899719 38:0.0 39:0.9999825954437256 40:0.005902097560465336 41:0.5301276445388794 42:0.01979832910001278 43:0.951334536075592 44:0.30816006660461426 45:0.6934638023376465 46:0.0987764298915863 47:0.7861575484275818 48:0.618026077747345 49:0.7847088575363159 50:0.21993356943130493 51:0.4463188350200653 52:0.8948739767074585 53:0.8221533298492432 54:0.35680028796195984 55:0.13017751276493073 56:0.9914906620979309 57:0.8161278963088989 58:0.45923516154289246 59:-0.3925178050994873 60:0.9197443723678589 61:0.7494158744812012 62:0.5272380709648132 63:-0.885654628276825 64:0.46434450149536133 65:0.6478416919708252 66:0.5474668145179749 67:-0.9903848171234131 68:0.13833948969841003 69:0.4104769825935364 70:0.5745819211006165 71:-0.9972598552703857 72:0.073978491127491 73:0.3519427478313446 74:0.5694171190261841 75:-0.9632452130317688 76:-0.26862359046936035 77:0.3340813219547272 78:0.5532771944999695 79:-0.7419574856758118 80:-0.6704469323158264 
-0.3035022912497261 -0.0 0.05344668458551579 0.0 0.0 0.0 0.0 0.7080396373386829 0.0 0.0 0.5370045001086335 0.39035078557178615 0.0 0.0 0.12948286106223028 0.0 0.0 0.0 0.0 0.0 1:0.20392273366451263 2:0.2077122926712036 3:0.0 4:1.0 5:0.20392273366451263 6:0.2430238574743271 7:-0.005250241607427597 8:0.9999861717224121 9:0.20261362195014954 10:0.45705199241638184 11:-0.01359899714589119 12:0.9999075531959534 13:0.19737717509269714 14:0.7243059277534485 15:0.04995838552713394 16:0.9987513422966003 17:0.2287958413362503 18:0.9804781675338745 19:0.07810955494642258 20:0.9969447255134583 21:0.21897751092910767 22:1.0 23:-0.2483569234609604 24:-0.9686685800552368 25:0.1875588446855545 26:0.8196411728858948 27:-0.08207443356513977 28:-0.9966261982917786 29:0.1836315244436264 30:0.5707952380180359 31:0.017871100455522537 32:-0.999840259552002 33:0.1967226266860962 34:0.30695202946662903 35:0.08681772649288177 36:-0.9962241649627686 37:0.22159573435783386 38:0.13515998423099518 39:0.38175705075263977 40:-0.9242626428604126 41:0.3000275492668152 42:0.05684301257133484 43:0.856788694858551 44:-0.515667736530304 45:0.4461658000946045 46:0.0 47:0.9887456893920898 48:-0.1496058851480484 49:0.6237913966178894 50:0.007854707539081573 51:0.9529634714126587 52:0.3030852675437927 53:0.7811602354049683 54:0.10654330998659134 55:0.8189029097557068 56:0.5739320516586304 57:0.8333868980407715 58:0.15475071966648102 59:0.1785951405763626 60:0.9839227199554443 61:0.8171952962875366 62:0.3050689399242401 63:-0.3609812259674072 64:0.9325730800628662 65:0.707459568977356 66:0.4800763428211212 67:-0.7565388679504395 68:0.6539487242698669 69:0.5211409330368042 70:0.5609769821166992 71:-0.9659295082092285 72:0.25880518555641174 73:0.3371993899345398 74:0.5792815685272217 75:-0.9962506294250488 76:-0.08651398867368698 77:0.16661307215690613 78:0.5301899313926697 79:-0.9609973430633545 80:-0.2765575349330902 
-0.0 -0.06272808756154521 0.33095104391834257 0.0 0.0 1.8610143742118364 1.0491659648810796 0.0 0.0 0.1921638601488593 0.21333218422036718 0.135369318306265 0.1563271677410304 0.0 0.0 0.0 0.5242888029868964 0.24747045311900556 0.0 0.0 1:0.19437938928604126 2:0.18735362589359283 3:0.07728755474090576 4:0.9970088005065918 5:0.2031615972518921 6:0.30064404010772705 7:0.18957699835300446 8:0.9818658232688904 9:0.25644028186798096 10:0.5087822079658508 11:0.25830909609794617 12:0.9660623073577881 13:0.31235361099243164 14:0.7090163826942444 15:0.22835122048854828 16:0.9735788106918335 17:0.34309130907058716 18:0.8782201409339905 19:0.1569495052099228 20:0.9876065850257874 21:0.3553864359855652 22:0.9798009395599365 23:0.16132067143917084 24:0.9869019985198975 25:0.3629976511001587 26:1.0 27:0.4648326635360718 28:0.8853985667228699 29:0.3615339398384094 30:0.9915105104446411 31:-0.1788858324289322 32:-0.9838698506355286 33:0.35831379890441895 34:0.9742388725280762 35:-0.18328270316123962 36:-0.9830602407455444 37:0.3817330002784729 38:0.007025761064141989 39:0.9964681267738342 40:-0.08397207409143448 41:0.4651053249835968 42:0.0 43:0.9960725903511047 44:0.08853977918624878 45:0.5714285373687744 46:0.02388758584856987 47:0.929042637348175 48:0.3699725866317749 49:0.6768149733543396 50:0.08430911600589752 51:0.6633078455924988 52:0.748346745967865 53:0.7723654508590698 54:0.2505854666233063 55:0.4054543972015381 56:0.9141152501106262 57:0.8056206107139587 58:0.37470725178718567 59:-0.35024604201316833 60:0.936657726764679 61:0.6903982162475586 62:0.46978920698165894 63:-0.8874201774597168 64:0.46096134185791016 65:0.5044494271278381 66:0.5311475396156311 67:-0.9724353551864624 68:0.2331724911928177 69:0.34660422801971436 70:0.5522248148918152 71:-0.9970154762268066 72:0.07720251381397247 73:0.2927400469779968 74:0.5475409626960754 75:-0.9886444211006165 76:-0.15027345716953278 77:0.2880561947822571 78:0.5433255434036255 79:-0.7432978749275208 80:-0.6689605712890625 
-0.3345732566571588 -0.8079506508473481 0.0 2.2902746903350595 1.745989860565878 4.106377040490088 0.721403316495878 1.3479747010189567 0.9169526217204246 0.7026275607225106 0.3041527390037297 0.0 1.0979924852043896 0.7943738778029986 0.2253146191471835 1.004058074993552 0.6163602628714554 0.32606467342156104 1.7438581425014008 1.9678579857110101 1:0.2903883457183838 2:0.03142328932881355 3:0.06723877787590027 4:0.9977368712425232 5:0.2975510060787201 6:0.13770794868469238 7:0.07878176122903824 8:0.9968919157981873 9:0.31441792845726013 10:0.33548983931541443 11:0.07151217013597488 12:0.9974397420883179 13:0.3241221606731415 14:0.5083179473876953 15:-0.007957353256642818 16:0.9999683499336243 17:0.3116452693939209 18:0.6839186549186707 19:-0.05932158976793289 20:0.9982389211654663 21:0.304020494222641 22:0.8465803861618042 23:-0.012890246696770191 24:0.9999168515205383 25:0.30841052532196045 26:0.9348428845405579 27:0.03767834231257439 28:0.9992899298667908 29:0.30933475494384766 30:0.987523078918457 31:0.007092136889696121 32:0.9999748468399048 33:0.30887264013290405 34:1.0 35:-0.037012189626693726 36:0.9993147850036621 37:0.3606286346912384 38:0.029574861750006676 39:0.978620171546936 40:-0.20567603409290314 41:0.46968597173690796 42:0.006654344033449888 43:0.9905248284339905 44:-0.13733401894569397 45:0.5739380121231079 46:0.0 47:0.9632912278175354 48:0.26845866441726685 49:0.6726430654525757 50:0.06321625411510468 51:0.5863623023033142 52:0.8100489377975464 53:0.7096116542816162 54:0.18743067979812622 55:0.06620632857084274 56:0.9978059530258179 57:0.693345844745636 58:0.3752310574054718 59:-0.24750643968582153 60:0.9688862562179565 61:0.6360445022583008 62:0.4754159152507782 63:-0.7045387625694275 64:0.7096654772758484 65:0.5410345792770386 66:0.5286506414413452 67:-0.9638022780418396 68:0.26661786437034607 69:0.42088669538497925 70:0.5349352955818176 71:-0.9900534749031067 72:-0.1406916230916977 73:0.33031368255615234 74:0.4987061321735382 75:-0.8769589066505432 76:-0.48056545853614807 77:0.30147892236709595 78:0.46950092911720276 79:-0.7025793194770813 80:-0.711605429649353 
-0.0 -0.6279672449030945 0.4519086569247193 1.3370810743482548 0.0 0.0 2.857987838039773 1.316741903748325 0.0 0.2915685979533437 0.5410245597881477 0.12563553021509613 0.0 0.7432699470373618 0.2892463188336672 0.45361939936880974 1.6317773423067126 0.564203092097865 1.6824153850614187 0.0 1:0.20182093977928162 2:0.034901365637779236 3:0.17550338804721832 4:0.9844788908958435 5:0.22609978914260864 6:0.17109255492687225 7:0.1141679510474205 8:0.9934614896774292 9:0.2450682818889618 10:0.41122910380363464 11:0.016580957919359207 12:0.9998624920845032 13:0.2348254919052124 14:0.6972686052322388 15:-0.01981170102953911 16:0.9998037219047546 17:0.23520559072494507 18:0.9089528918266296 19:0.08103346079587936 20:0.9967113733291626 21:0.2575872540473938 22:0.9772382378578186 23:0.39760109782218933 24:0.9175583720207214 25:0.27465859055519104 26:1.0 27:0.6000003218650818 28:0.7999997138977051 29:0.19271624088287354 30:0.021244309842586517 31:0.9966109395027161 32:-0.08225993812084198 33:0.3122154772281647 34:0.011380882002413273 35:0.9977424740791321 36:-0.06715582311153412 37:0.5083456039428711 38:0.0 39:0.9994378685951233 40:0.03352411836385727 41:0.674127459526062 42:0.023520486429333687 43:0.9496017098426819 44:0.31345924735069275 45:0.7427928447723389 46:0.07738997787237167 47:0.6531575918197632 48:0.757222056388855 49:0.7860391139984131 50:0.15326248109340668 51:0.38301122188568115 52:0.9237436652183533 53:0.8072837591171265 54:0.23292867839336395 55:-0.028765158727765083 56:0.9995861649513245 57:0.7814867496490479 58:0.3114566504955292 59:-0.6416341662406921 60:0.7670108079910278 61:0.6752655506134033 62:0.39074352383613586 63:-0.9571948647499084 64:0.2894442081451416 65:0.49544766545295715 66:0.3979514241218567 67:-0.999828577041626 68:-0.01851523295044899 69:0.3065250515937805 70:0.3839150369167328 71:-0.9926633238792419 72:-0.12091067433357239 73:0.2431711107492447 74:0.3672230541706085 75:-0.8904344439506531 76:-0.4551115036010742 77:0.23823976516723633 78:0.34901362657546997 79:-0.26139697432518005 80:-0.9652313590049744 
-1.438078563319342 -3.8697580246629006 2.765998970899186 0.4845150942103682 2.3498889032060917 1.2085038689752303 2.0104572631385578 2.501593189963446 1.331205489050812 1.953609754336824 2.0164894475025252 1.0565838002984465 1.1839025833877286 1.7060585032623181 0.7932328140295434 2.1112751658440003 3.906107074697969 1.9614629972449125 1.6102224206034894 1.8379751734812781 1:0.27034687995910645 2:0.0 3:-0.9954954981803894 4:0.09480903297662735 5:0.2480538785457611 6:0.002123141661286354 7:-0.8367038369178772 8:0.5476556420326233 9:0.21195992827415466 10:0.03821656107902527 11:-0.35112354159355164 12:0.9363291263580322 13:0.20346787571907043 14:0.12101911008358002 15:0.025634411722421646 16:0.9996713399887085 17:0.21939145028591156 18:0.3280254304409027 19:0.053420595824718475 20:0.9985721111297607 21:0.2310682237148285 22:0.6369425654411316 23:0.02792208455502987 24:0.9996101260185242 25:0.23531502485275269 26:0.8980891704559326 27:0.035066090524196625 28:0.9993850588798523 29:0.24380706250667572 30:1.0 31:0.3767978847026825 32:0.9262954592704773 33:0.26079273223876953 34:0.9607219099998474 35:-0.1031469851732254 36:-0.9946662187576294 37:0.22894558310508728 38:0.8566879034042358 39:-0.29271429777145386 40:-0.9561999440193176 41:0.1779901683330536 42:0.03821656107902527 43:-0.991227924823761 44:-0.1321636289358139 45:0.16206660866737366 46:0.036093421280384064 47:0.9759811758995056 48:0.21785485744476318 49:0.2176218181848526 50:0.047062989324331284 51:0.9988945722579956 52:0.04700677841901779 53:0.43276724219322205 54:0.04883226752281189 55:0.9951810240745544 56:0.09805447608232498 57:0.6988680362701416 58:0.09447983652353287 59:0.925095796585083 60:0.37973374128341675 61:0.8379334211349487 62:0.2151450663805008 63:0.2658875286579132 64:0.9640039801597595 65:0.7735315561294556 66:0.36518049240112305 67:-0.6894811987876892 68:0.7243035435676575 69:0.5576785802841187 70:0.5095542073249817 71:-0.8952919840812683 72:0.44547969102859497 73:0.33474868535995483 74:0.5835102200508118 75:-0.9419828057289124 76:0.3356613516807556 77:0.2448691576719284 78:0.6210191249847412 79:-0.9228612780570984 80:0.385132372379303 
-0.0 -1.8890321739686315 -0.0 0.0 0.0 0.0 0.0 0.0 0.0 1.225696837939461 0.0 0.0 0.0 0.0 0.0 0.0 0.0 0.0 0.0 0.0 1:0.47575756907463074 2:0.08939392864704132 3:-0.8721429705619812 4:0.4892509877681732 5:0.35151514410972595 6:0.15909090638160706 7:-0.7902198433876038 8:0.6128235459327698 9:0.17878787219524384 10:0.31969696283340454 11:-0.6370460987091064 12:0.7708256840705872 13:0.04848484694957733 14:0.5257575511932373 15:-0.3883512318134308 16:0.9215114712715149 17:0.0 18:0.7439393997192383 19:0.04028983414173126 20:0.9991880059242249 21:0.06363636255264282 22:0.9015151858329773 23:0.851362943649292 24:0.5245771408081055 25:0.30000001192092896 26:0.928787887096405 27:0.9969553351402283 28:-0.07797419279813766 29:0.6060606241226196 30:0.8590909242630005 31:0.9431018233299255 32:-0.33250391483306885 33:0.7727272510528564 34:0.7621212005615234 35:0.6167457103729248 36:-0.7871624827384949 37:0.8363636136054993 38:0.5651515126228333 39:0.10957251489162445 40:-0.9939787983894348 41:0.8151515126228333 42:0.37727272510528564 43:-0.20843395590782166 44:-0.9780364036560059 45:0.7575757503509521 46:0.19545453786849976 47:-0.4317949712276459 48:-0.9019718170166016 49:0.678787887096405 50:0.09242423623800278 51:-0.8922132849693298 52:-0.4516141414642334 53:0.5121212005615234 54:0.07121211290359497 55:-0.9919978976249695 56:-0.12625427544116974 57:0.657575786113739 58:0.6439394354820251 59:0.9269469380378723 60:0.37519243359565735 61:0.7848485112190247 62:0.6954545378684998 63:0.9119215607643127 64:0.41036462783813477 65:0.8999999761581421 66:0.7530303001403809 67:0.9125093221664429 68:0.4090559184551239 69:0.960606038570404 70:0.7742424011230469 71:0.9005516767501831 72:0.4347490966320038 73:0.9878787994384766 74:0.7954545617103577 75:0.7926238775253296 76:0.6097109317779541 77:1.0 78:0.8045454621315002 79:0.800000011920929 80:0.6000000238418579 
-0.0 -0.0 -0.0 0.0 1.0663381166102954 0.0 0.0 0.0 0.0 0.0 0.0 0.0 0.0 0.0 0.0 0.0 2.0193248148274634 2.074475932198239 0.0 0.0 1:0.43805310130119324 2:0.05530976131558418 3:-0.999687671661377 4:-0.024991989135742188 5:0.4159291684627533 6:0.05475666746497154 7:-0.8610415458679199 8:0.5085346102714539 9:0.27323007583618164 10:0.15265490114688873 11:-0.7380679249763489 12:0.6747264266014099 13:0.119469054043293 14:0.3257743716239929 15:-0.5415744185447693 16:0.8406527638435364 17:0.050884947180747986 18:0.49778762459754944 19:-0.31361323595046997 20:0.9495508074760437 21:0.019911497831344604 22:0.627212405204773 23:0.16226506233215332 24:0.9867472052574158 25:0.09181414544582367 26:0.7466814517974854 27:0.7944031953811646 28:0.607390820980072 29:0.29480087757110596 30:0.8373894095420837 31:0.996786892414093 32:0.08009906858205795 33:0.5873892307281494 34:0.7865045070648193 35:0.939985454082489 36:-0.3412145972251892 37:0.8478983640670776 38:0.6366150975227356 39:0.7123253345489502 40:-0.7018495202064514 41:0.9634956121444702 42:0.4159293472766876 43:0.3123045563697815 44:-0.9499820470809937 45:0.980088472366333 46:0.2345132678747177 47:-0.1994209736585617 48:-0.9799139499664307 49:0.8993363380432129 50:0.10066378116607666 51:-0.7825849652290344 52:-0.6225438714027405 53:0.6852874755859375 54:0.0 55:-0.9807612299919128 56:-0.1952115297317505 57:0.43805310130119324 58:0.008849583566188812 59:-0.9993599653244019 60:0.03577139973640442 61:0.4690265357494354 62:0.5121681690216064 63:0.4314553737640381 64:0.9021342396736145 65:0.5542035102844238 66:0.6902655363082886 67:0.37139078974723816 68:0.9284766316413879 69:0.6084071397781372 70:0.8606195449829102 71:0.4244340658187866 72:0.9054588079452515 73:0.6703540086746216 74:0.9380531311035156 75:0.5214499831199646 76:0.8532817959785461 77:0.6935840845108032 78:1.0 79:0.3511234521865845 80:0.936329185962677 
-0.0 -8.537109339298402 -0.0 0.0 2.198208749283993 0.0 1.4500870730863018 0.0 0.701213087535858 0.0 0.852796015997193 0.15822518580382433 0.007321136298968696 0.0 0.0 0.0 0.0 0.001606851372593071 0.0 0.6355350338645769 1:0.4980691969394684 2:0.08602773398160934 3:-0.9862582683563232 4:-0.16521120071411133 5:0.4029921591281891 6:0.07010108232498169 7:-0.9887990951538086 8:0.14925287663936615 9:0.25506746768951416 10:0.12270728498697281 11:-0.8492359519004822 12:0.5280135273933411 13:0.1056937500834465 14:0.2549467384815216 15:-0.5897213220596313 16:0.8076068162918091 17:0.014718789607286453 18:0.4518580436706543 19:-0.20864816009998322 20:0.9779906868934631 21:0.0 22:0.7503620982170105 23:0.19801273941993713 24:0.9801994562149048 25:0.10207570344209671 26:0.8842908143997192 27:0.8755010366439819 28:0.483216255903244 29:0.32528847455978394 30:0.9298989176750183 31:0.9984076619148254 32:-0.056410763412714005 33:0.5419881343841553 34:0.8594354391098022 35:0.901099681854248 36:-0.4336119592189789 37:0.742518424987793 38:0.7291265726089478 39:0.5812394022941589 40:-0.8137326240539551 41:0.8026067614555359 42:0.4945705235004425 43:0.14723336696624756 44:-0.989101767539978 45:0.8067088723182678 46:0.29790037870407104 47:-0.2315230816602707 48:-0.9728294610977173 49:0.7261101007461548 50:0.17314165830612183 51:-0.8039815425872803 52:-0.5946542620658875 53:0.5796329379081726 54:0.12994667887687683 55:-0.9591641426086426 56:-0.282850056886673 57:0.41964250802993774 58:0.5158059597015381 59:0.5648804306983948 60:0.8251727223396301 61:0.48363837599754333 62:0.609290599822998 63:0.7906933426856995 64:0.6122123599052429 65:0.6781365871429443 66:0.7159509062767029 67:0.9043928980827332 68:0.42670074105262756 69:0.9065160155296326 70:0.8088080883026123 71:0.9442142248153687 72:0.3293318450450897 73:0.9893342852592468 74:0.8244933485984802 75:0.9827972054481506 76:0.18468792736530304 77:1.0 78:0.8263756632804871 79:0.9847815036773682 80:0.17379695177078247 
-0.0 -0.0 -0.05859258972426091 0.0 0.0 0.0 0.0 0.0 0.0 0.0 0.0 0.0 0.0 0.0 0.0 0.0 3.2235485375607253 0.0 0.0 0.0 1:0.36538463830947876 2:0.03846153989434242 3:-0.8320503830909729 4:0.5547000169754028 5:0.2884615361690521 6:0.08974358439445496 7:-0.5407576560974121 8:0.8411784172058105 9:0.25 10:0.21794870495796204 11:-0.25242185592651367 12:0.9676172733306885 13:0.21153846383094788 14:0.38461539149284363 15:-0.09950371086597443 16:0.9950371980667114 17:0.21153846383094788 18:0.6025640964508057 19:0.0 20:1.0 21:0.21153846383094788 22:0.8205127716064453 23:0.3387194275856018 24:0.9408873915672302 25:0.32692307233810425 26:0.9230769276618958 27:0.9383428692817688 28:0.34570586681365967 29:0.455128014087677 30:0.9102564454078674 31:0.9209673404693604 32:-0.389639675617218 33:0.6602566242218018 34:0.7820513248443604 35:0.7071070075035095 36:-0.7071065902709961 37:0.75 38:0.6153846383094788 39:0.3259902596473694 40:-0.9453731179237366 41:0.7884615659713745 42:0.41025644540786743 43:0.029399266466498375 44:-0.9995677471160889 45:0.7628206014633179 46:0.17948737740516663 47:-0.38235175609588623 48:-0.9240168929100037 49:0.634615421295166 50:0.03846153989434242 51:-0.8320499658584595 52:-0.5547006130218506 53:0.493589848279953 54:0.0 55:-0.9990561008453369 56:-0.043437566608190536 57:0.3397436738014221 58:0.025640927255153656 59:-0.9037379622459412 60:0.42808622121810913 61:0.25 62:0.11538461595773697 63:-0.7071067094802856 64:0.7071068286895752 65:0.557692289352417 66:0.6153846383094788 67:0.6507915258407593 68:0.7592564821243286 69:0.634615421295166 70:0.7051282525062561 71:0.5734626650810242 72:0.8192317485809326 73:0.7371796369552612 74:0.8717949390411377 75:0.4625660479068756 76:0.8865848183631897 77:0.7884615659713745 78:1.0 79:0.37139007449150085 80:0.9284769296646118 
-1.5173612187085839 -1.1519921891830724 -0.82251808582822 0.9623390982875353 2.5577781586998714 0.8574822694655023 1.0832093135385905 1.673806808053744 0.7723787048465978 0.7155557123968829 0.9543722654045547 1.4507160114558737 2.2223412431869503 0.4916370213451087 1.014950080069802 0.0 2.5642253104507384 4.0893210839445135 0.0 0.6385327719507612 1:0.0763520747423172 2:0.20952634513378143 3:-0.35027050971984863 4:0.9366486072540283 5:0.004771960899233818 6:0.40093672275543213 7:-0.16508063673973083 8:0.9862801432609558 9:0.0 10:0.665694534778595 11:0.295158714056015 12:0.9554482102394104 13:0.12778374552726746 14:0.7991339564323425 15:0.8760693669319153 16:0.4821849763393402 17:0.33492398262023926 18:0.8500353097915649 19:0.9976133704185486 20:0.06904810667037964 21:0.5950865745544434 22:0.8314775228500366 23:0.9695984125137329 24:-0.24470144510269165 25:0.818840503692627 26:0.7279073596000671 27:0.7220616340637207 28:-0.691828727722168 29:0.9201129674911499 30:0.5200600624084473 31:0.2604842185974121 32:-0.9654781222343445 33:0.9416754245758057 34:0.27262285351753235 35:-0.049719639122486115 36:-0.9987632036209106 37:0.8999646902084351 38:0.11532346159219742 39:-0.6171014904975891 40:-0.786883533000946 41:0.767585813999176 42:0.05063629150390625 43:-0.9785016179084778 44:-0.20623894035816193 45:0.5947331786155701 46:0.05098976939916611 47:-0.976619303226471 48:0.21497613191604614 49:0.39342525601387024 50:0.1329975426197052 51:-0.863629937171936 52:0.5041261911392212 53:0.2601626217365265 54:0.24628843367099762 55:-0.7618895173072815 56:0.6477069854736328 57:0.6323789358139038 58:0.6690526604652405 59:0.872809648513794 60:0.48806077241897583 61:0.7449628710746765 62:0.7320077419281006 63:0.827971339225769 64:0.5607705116271973 65:0.8488157391548157 66:0.8156415224075317 67:0.7512525320053101 68:0.6600149273872375 69:0.9227996468544006 70:0.8882467150688171 71:0.7290732860565186 72:0.6844356656074524 73:0.9839165806770325 74:0.9424707889556885 75:0.7840455770492554 76:0.6207032203674316 77:1.0 78:0.9493637084960938 79:0.9191445112228394 80:0.39392054080963135 
-0.082053443965263 -7.113241093230536 -2.0125557850081335 0.9388762357438162 1.329069923870568 1.5238651996883876 1.5745858286417609 1.6028714623797844 0.8468518493957178 0.38506927704059074 2.369922252951391 0.761379084382683 0.6067357676606353 0.6838390847593951 0.8329907171522918 0.9703298517513473 2.0957691995387453 1.2043851033994597 1.786981503859876 0.9437692769639294 1:0.4221137464046478 2:0.12627330422401428 3:-0.9839910268783569 4:0.17821790277957916 5:0.3119693696498871 6:0.14622236788272858 7:-0.9261513948440552 8:0.3771519362926483 9:0.16362474858760834 10:0.23153647780418396 11:-0.5676425695419312 12:0.823275089263916 13:0.0 14:0.5986841917037964 15:-0.18283407390117645 16:0.9831438064575195 17:0.057300493121147156 18:0.8032681941986084 19:0.7229998707771301 20:0.6908481121063232 21:0.37224113941192627 22:0.9543718099594116 23:0.9669688940048218 24:0.2548943758010864 25:0.6112055778503418 26:0.9492783546447754 27:0.9885590076446533 28:-0.15083444118499756 29:0.8493209481239319 30:0.8815789222717285 31:0.8285548686981201 32:-0.5599079132080078 33:1.0 34:0.6865448951721191 35:0.22493790090084076 36:-0.9743731021881104 37:0.9823853373527527 38:0.3051782250404358 39:-0.3022735118865967 40:-0.9532212018966675 41:0.8092106580734253 42:0.08488963544368744 43:-0.8454370498657227 44:-0.5340750813484192 45:0.5715194344520569 46:0.04562816023826599 47:-0.9796026945114136 48:0.20094424486160278 49:0.4119269549846649 50:0.1663837730884552 51:-0.6057223081588745 52:0.7956761121749878 53:0.3421052396297455 54:0.3469863831996918 55:-0.3605944514274597 56:0.9327227473258972 57:0.5876485705375671 58:0.7166807651519775 59:0.8349579572677612 60:0.5503135919570923 61:0.7090407013893127 62:0.7966892719268799 63:0.8612692952156067 64:0.5081489086151123 65:0.8635398745536804 66:0.879456639289856 67:0.8817847371101379 68:0.4716520309448242 69:0.9463073015213013 70:0.9235992431640625 71:0.8944270610809326 72:0.4472138583660126 73:0.9463073015213013 74:0.9208403825759888 75:-0.7071067690849304 76:-0.7071067690849304 77:0.9352716207504272 78:0.9125635623931885 79:-0.7999979257583618 80:-0.6000027656555176 
-0.0 -0.0 -0.0 0.0 0.0 0.0 0.0 0.0 0.0 0.19244011614940457 0.0 0.0 0.0 0.0 0.0 0.0 0.0 0.0 0.0 0.0 1:0.28155407309532166 2:0.05524718761444092 3:-0.7924734950065613 4:0.6099063158035278 5:0.10238537937402725 6:0.19313965737819672 7:-0.6483966112136841 8:0.7613027095794678 9:0.0 10:0.3858286142349243 11:-0.21674124896526337 12:0.9762290716171265 13:0.015503574162721634 14:0.5844659209251404 15:0.3028494119644165 16:0.9530383944511414 17:0.13248634338378906 18:0.8027505874633789 19:0.7776739001274109 20:0.6286677718162537 21:0.3720400333404541 22:0.8726882338523865 23:0.987560510635376 24:0.1572393774986267 25:0.5762661695480347 26:0.8734092116355896 27:0.9573836326599121 28:-0.2888190448284149 29:0.726956307888031 30:0.7656187415122986 31:0.5886101126670837 32:-0.808417022228241 33:0.8055451512336731 34:0.5585097074508667 35:0.289681077003479 36:-0.9571232795715332 37:0.8419573903083801 38:0.3856483995914459 39:0.0284999068826437 40:-0.9995937943458557 41:0.8150990009307861 42:0.22342199087142944 43:-0.370394229888916 44:-0.9288746118545532 45:0.7500274777412415 46:0.1551065742969513 47:-0.924798309803009 48:-0.3804577887058258 49:0.6411545872688293 50:0.15186205506324768 51:-0.9888747334480286 52:0.14875049889087677 53:0.494791716337204 54:0.19350016117095947 55:-0.961835503578186 56:0.27362820506095886 57:0.6002389192581177 58:0.6738706827163696 59:0.6597647666931152 60:0.7514722347259521 61:0.7216199040412903 62:0.8121236562728882 63:0.7728964686393738 64:0.63453209400177 65:0.8594037294387817 66:0.8866396546363831 67:0.8956992030143738 68:0.44466063380241394 69:0.9850044250488281 70:0.9428781867027283 71:0.9241667985916138 72:0.38198915123939514 73:1.0 74:0.9447528123855591 75:0.9615190029144287 76:-0.2747384309768677 77:0.9915651679039001 78:0.9410035610198975 79:-0.9137939214706421 80:-0.40617799758911133 
-2.1473902379041543 -9.420784790896777 -2.7003418663980865 2.2717969909584452 1.9192661606855266 2.281410388782589 3.3275632648365487 1.6545341715356687 0.9901243081086253 2.3970465381226926 1.4576633774838406 1.2664143154663157 1.7410494785150215 4.263227708614922 0.944559400341812 4.664432612805343 6.1874585736143235 1.987139130658662 2.117022503316048 1.6498611975268345 1:0.43939393758773804 2:0.03030303120613098 3:-0.9191446900367737 4:-0.3939199447631836 5:0.3686870038509369 6:0.0 7:-0.9593654870986938 8:0.28216639161109924 9:0.26767683029174805 10:0.08080807328224182 11:-0.6139410138130188 12:0.7893519401550293 13:0.22727271914482117 14:0.1818181872367859 15:-0.2900075912475586 16:0.9570242762565613 17:0.1666666567325592 18:0.41414138674736023 19:-0.14834047853946686 20:0.9889363050460815 21:0.1666666567325592 22:0.5858585238456726 23:0.09632417559623718 24:0.9953499436378479 25:0.19696968793869019 26:0.7272727489471436 27:0.5098019242286682 28:0.8602917790412903 29:0.3282826542854309 30:0.8585858345031738 31:0.8814800977706909 32:0.4722212553024292 33:0.4797980487346649 34:0.8787878751754761 35:0.9922778606414795 36:-0.12403462082147598 37:0.6515151262283325 38:0.8181818127632141 39:0.854787290096283 40:-0.5189785361289978 41:0.7626259326934814 42:0.7070707678794861 43:0.6163084506988525 44:-0.7875047922134399 45:0.8333333730697632 46:0.5858586430549622 47:0.26963120698928833 48:-0.9629637002944946 49:0.8333333730697632 50:0.4545454680919647 51:-0.17134082317352295 52:-0.9852117896080017 53:0.7929294109344482 54:0.35353538393974304 55:-0.6459420919418335 56:-0.7633863687515259 57:0.6111112833023071 58:0.1919192671775818 59:-0.8682432174682617 60:-0.49613887071609497 61:0.43939393758773804 62:0.1515151560306549 63:-0.9734171628952026 64:-0.2290394902229309 65:0.6212121248245239 66:0.6060606241226196 67:0.0 68:1.0 69:0.6212121248245239 70:0.747474730014801 71:0.10653305053710938 72:0.99430912733078 73:0.6515151262283325 74:0.8888888359069824 75:0.5144956707954407 76:0.857492983341217 77:0.7727272510528564 78:1.0 79:0.7371540069580078 80:0.6757248044013977 
-0.3753563218658972 -0.0 -0.0 -0.07381633283307061 1.8707632794496416 0.5939281333290799 1.2841006445670646 0.26605882809797143 0.7043470100516922 0.0 0.9675326902678729 1.5266847916019195 4.579924376434726 0.0 0.8925422069540452 0.0 2.3437350271464346 1.7500919413000242 0.0 1.1757940025424372 1:0.3578033745288849 2:0.0 3:0.5630225539207458 4:0.8264415264129639 5:0.38149338960647583 6:0.03477376326918602 7:0.43142518401145935 8:0.9021486639976501 9:0.41362401843070984 10:0.11672596633434296 11:0.5141959190368652 12:0.8576727509498596 13:0.48256218433380127 14:0.2033553421497345 15:0.6727341413497925 16:0.7398843169212341 17:0.5776296854019165 18:0.297102153301239 19:0.6850162148475647 20:0.7285277843475342 21:0.6698522567749023 22:0.4025419056415558 23:0.5993371605873108 24:0.8004966974258423 25:0.7397035360336304 26:0.513573944568634 27:0.45911556482315063 28:0.8883765339851379 29:0.782408595085144 30:0.6203354597091675 31:0.28073349595069885 32:0.9597858190536499 33:0.7986785769462585 34:0.7152007818222046 35:0.007526569999754429 36:0.9999716877937317 37:0.7837310433387756 38:0.7960344552993774 39:-0.5050697326660156 40:0.8630785346031189 41:0.6918141841888428 42:0.8978139162063599 43:-0.7483587861061096 44:0.6632941961288452 45:0.6289772391319275 46:0.9331976771354675 47:-0.9232660531997681 48:0.38416120409965515 49:0.47188591957092285 50:0.9893237352371216 51:-0.9658209085464478 52:0.2592102587223053 53:0.38007089495658875 54:1.0 55:-0.999923825263977 56:0.012345685623586178 57:0.29893210530281067 58:0.9914591312408447 59:-0.9856164455413818 60:-0.168997660279274 61:0.21758955717086792 62:0.9721403121948242 63:-0.895172119140625 64:-0.4457205832004547 65:0.20132142305374146 66:0.9428572058677673 67:-0.086825430393219 68:-0.9962235689163208 69:0.2135220468044281 70:0.925470232963562 71:0.9210689067840576 72:-0.38939961791038513 73:0.2513464391231537 74:0.9217081665992737 75:0.9999995827674866 76:-9.452459635213017E-4 77:0.321097731590271 78:0.9253685474395752 79:0.9986258745193481 80:0.05240549519658089 
-0.9887042267409406 -1.926864275014995 -0.3638919309827763 -1.6782518735908496 1.772193453799955 0.6327888455789 0.5328154444320357 1.0764617103653413 1.7626958633636012 0.0 0.7305882076626807 1.4287675455929945 1.9606440433319758 0.4266870529820288 0.9352218122159829 0.8690441880162666 3.5194975024358097 1.148343998796847 6.373928989148549 0.5935651004999254 1:0.6130952835083008 2:0.0317460335791111 3:-0.7071060538291931 4:-0.7071074843406677 5:0.5813493132591248 6:0.0 7:-0.9535828828811646 8:-0.3011307120323181 9:0.5753967761993408 10:0.01984127052128315 11:-0.11462708562612534 12:0.9934086203575134 13:0.5753967761993408 14:0.0515872985124588 15:0.1504376232624054 16:0.9886194467544556 17:0.5892852544784546 18:0.111111119389534 19:0.25836485624313354 20:0.9660474061965942 21:0.6210322976112366 22:0.2222222536802292 23:0.22699986398220062 24:0.9738948345184326 25:0.6507936716079712 26:0.3749999701976776 27:0.13632747530937195 28:0.9906638264656067 29:0.6507936716079712 30:0.4384920597076416 31:0.1766648292541504 32:0.9842710494995117 33:0.6785715818405151 34:0.5297619104385376 35:0.1981208175420761 36:0.980177640914917 37:0.6884920597076416 38:0.6250000596046448 39:0.05672577768564224 40:0.9983897805213928 41:0.6884920597076416 42:0.7043651342391968 43:-0.13756583631038666 44:0.9904926419258118 45:0.6686511635780334 46:0.7678571939468384 47:-0.529997706413269 48:0.847999095916748 49:0.6091272830963135 50:0.8313491940498352 51:-0.5836408734321594 52:0.8120118379592896 53:0.5773801803588867 54:0.8948413133621216 55:-0.6922264099121094 56:0.7216804027557373 57:0.5158729553222656 58:0.9285714626312256 59:-0.8858316540718079 60:0.4640067219734192 61:0.4523800015449524 62:0.9603175520896912 63:-0.8944280743598938 64:0.44721174240112305 65:0.3888881802558899 66:0.9920635223388672 67:-0.9453725218772888 68:0.32599177956581116 69:0.3373013436794281 70:1.0 71:-0.9333444833755493 72:-0.35898202657699585 73:0.3115079402923584 74:0.9623016119003296 75:-0.2470015287399292 76:-0.9690150618553162 77:0.3115079402923584 78:0.898809552192688 79:0.0 80:-1.0 
-0.2383781937794538 -0.024267367256504028 -0.0 -0.0 0.0 0.0 0.011688727474737594 0.0 0.0 2.5650773524770907 0.2502591442636061 0.0 0.0 1.422567928435802 0.3104831080248155 0.7881536690383232 0.0 0.0 0.0 0.0 1:0.3960525393486023 2:0.0 3:0.0 4:1.0 5:0.3960525393486023 6:0.06842105090618134 7:0.1334075629711151 8:0.9910612106323242 9:0.4144729673862457 10:0.13684210181236267 11:0.36245274543762207 12:0.9320021867752075 13:0.45131683349609375 14:0.21052631735801697 15:0.4472174048423767 16:0.8944253325462341 17:0.5197372436523438 18:0.34736841917037964 19:0.49971914291381836 20:0.8661875128746033 21:0.609210193157196 22:0.4842105507850647 23:0.5528479218482971 24:0.8332821726799011 25:0.7013152837753296 26:0.621052622795105 27:0.41905707120895386 28:0.9079598784446716 29:0.7355255484580994 30:0.7578946948051453 31:0.26397964358329773 32:0.9645282030105591 33:0.7697372436523438 34:0.871052622795105 35:0.25449562072753906 36:0.967073917388916 37:0.7881576418876648 38:0.9578946828842163 39:-0.1293542981147766 40:0.9915984272956848 41:0.7539458870887756 42:0.9921053051948547 43:-0.9138095378875732 44:0.40614306926727295 45:0.6934219598770142 46:1.0 47:-0.9955794215202332 48:-0.09392360597848892 49:0.6144729852676392 50:0.9789473414421082 51:-0.8970126509666443 52:-0.44200485944747925 53:0.5118423700332642 54:0.9105262756347656 55:-0.8320479393005371 56:-0.5547037124633789 57:0.40921175479888916 58:0.8421052694320679 59:-0.8408058881759644 60:-0.5413366556167603 61:0.31973570585250854 62:0.7868421077728271 63:-0.8700243234634399 64:-0.49300873279571533 65:0.25131532549858093 66:0.7526315450668335 67:-0.7249979972839355 68:-0.6887510418891907 69:0.21447297930717468 70:0.6868420839309692 71:-0.3589734435081482 72:-0.9333478212356567 73:0.2118423581123352 74:0.6499999761581421 75:0.6507989168167114 76:-0.7592501044273376 77:0.2460525631904602 78:0.6499999761581421 79:1.0 80:0.0 
-0.0 -0.02713125672232181 -4.133801378989302 -0.0 0.6783428921836575 5.889501596979421 2.1249337678411333 2.1470596867836163 0.0 0.6950229606257042 1.2792630425189735 0.0 0.0 0.7049565174928167 0.03515543292410283 0.8994340052188785 1.4243579393059966 1.0507792964775773 3.788720301114451 1.1740484154120088 1:0.6343335509300232 2:0.0 3:-0.31622788310050964 4:0.9486832022666931 5:0.6196789741516113 6:0.0439637117087841 7:-0.20740346610546112 8:0.9782555103302002 9:0.6097347736358643 10:0.11602453142404556 11:-0.06863047182559967 12:0.9976421594619751 13:0.6086881160736084 14:0.20373158156871796 15:0.07730302214622498 16:0.9970076084136963 17:0.6233426332473755 18:0.29153046011924744 19:0.11818648874759674 20:0.9929914474487305 21:0.6311932802200317 22:0.39281779527664185 23:0.10781636089086533 24:0.9941707849502563 25:0.6427075862884521 26:0.4700939953327179 27:0.19357487559318542 28:0.981085479259491 29:0.6589047908782959 30:0.5332666039466858 31:0.2562771439552307 32:0.9666033387184143 33:0.6807581186294556 34:0.6136096119880676 35:0.19840207695960999 36:0.9801207184791565 37:0.6901605129241943 38:0.6876721382141113 39:0.11296939849853516 40:0.993598461151123 41:0.6974878311157227 42:0.760752260684967 43:0.08682147413492203 44:0.9962238669395447 45:0.7027215957641602 46:0.8318029642105103 47:-0.01615927927196026 48:0.9998694658279419 49:0.6953942775726318 50:0.8902927041053772 51:-0.49346059560775757 52:0.8697682023048401 53:0.636353611946106 54:0.9487824440002441 55:-0.7978422045707703 56:0.6028663516044617 57:0.5696001052856445 58:0.9853454232215881 59:-0.9443889260292053 60:0.3288304805755615 61:0.5103023052215576 62:0.9926727414131165 63:-0.9939339756965637 64:0.10997772216796875 65:0.4371579885482788 66:1.0 67:-0.9779236316680908 68:-0.20896238088607788 69:0.358871728181839 70:0.9603151082992554 71:-0.8111858367919922 72:-0.5847885012626648 73:0.30460572242736816 74:0.904442310333252 75:-0.49876323342323303 76:-0.8667382597923279 77:0.29727843403816223 78:0.8532798290252686 79:-0.14176952838897705 80:-0.9898996949195862 
-0.0 -1.8572904461802469 -0.0 -0.2142275662065441 0.0 0.0 0.9787024102155674 0.0 0.8605882053885237 1.1936154909666048 0.9518764061378792 0.3910833953668576 0.0 1.6519598152278936 0.6356756298249033 0.9888267610995991 0.0 0.0 0.0 0.5170858961010268 1:0.7424594163894653 2:0.03016241453588009 3:0.0 4:-1.0 5:0.7424594163894653 6:0.0 7:0.0 8:1.0 9:0.7424594163894653 10:0.05800464004278183 11:0.0 12:1.0 13:0.7424594163894653 14:0.11600928008556366 15:0.0 16:1.0 17:0.7424594163894653 18:0.22969838976860046 19:0.0 20:1.0 21:0.7424594163894653 22:0.34570765495300293 23:0.0 24:1.0 25:0.7424594163894653 26:0.5011600852012634 27:-0.028157837688922882 28:0.9996035099029541 29:0.7331786751747131 30:0.6751740574836731 31:-0.12566260993480682 32:0.9920729994773865 33:0.6983758807182312 34:0.8491879105567932 35:-0.2540900409221649 36:0.9671805500984192 37:0.6612528562545776 38:0.9489559531211853 39:-0.5335034132003784 40:0.8457978963851929 41:0.6032482385635376 42:1.0 43:-0.9678226113319397 44:0.25163355469703674 45:0.545243501663208 46:0.9791183471679688 47:-0.8860982656478882 48:-0.4634975790977478 49:0.45243626832962036 50:0.9211137294769287 51:-0.912168562412262 52:-0.4098152220249176 53:0.38515082001686096 54:0.907192587852478 55:-0.9200237989425659 56:-0.3918624520301819 57:0.3271462321281433 58:0.8677493929862976 59:-0.946772575378418 60:-0.3219032883644104 61:0.26914164423942566 62:0.8677493929862976 63:-0.6097114086151123 64:-0.7926234602928162 65:0.25754058361053467 66:0.7772622108459473 67:0.03123455122113228 68:-0.9995120167732239 69:0.27378198504447937 70:0.7192575335502625 71:0.35521793365478516 72:-0.9347834587097168 73:0.3016241192817688 74:0.6612529754638672 75:0.233372300863266 76:-0.972387433052063 77:0.3016241192817688 78:0.6032482981681824 79:0.0 80:-1.0 
-0.7679753268898812 -1.4357179816206784 -0.4926621108470323 -2.206716552359333 1.6728111692464132 0.0 0.07167921330084658 1.7756839344817035 0.13747614783682047 0.0 0.0 0.0 0.0 0.0 0.0 0.0 1.1140986418072576 1.102547155884816 0.0 0.4199884825752182 1:0.5907894372940063 2:0.0 3:0.0 4:1.0 5:0.5907894372940063 6:0.07894737273454666 7:0.0 8:1.0 9:0.5907894372940063 10:0.18684211373329163 11:0.14886131882667542 12:0.9888581037521362 13:0.6276317834854126 14:0.3236842155456543 15:0.3437623083591461 16:0.9390566945075989 17:0.6986843347549438 18:0.4815789759159088 19:0.33035025000572205 20:0.9438584446907043 21:0.7381580471992493 22:0.6394737362861633 23:0.27232271432876587 24:0.9622060656547546 25:0.7776317596435547 26:0.7605262994766235 27:0.2397136390209198 28:0.9708436131477356 29:0.7907894253730774 30:0.8526315689086914 31:-0.015386074781417847 32:0.9998816251754761 33:0.7749996185302734 34:0.9315789937973022 35:-0.37991848587989807 36:0.9250199794769287 37:0.7302631735801697 38:1.0 39:-0.8750337362289429 40:0.48406198620796204 41:0.6513156890869141 42:1.0 43:-1.0 44:0.0 45:0.5381580591201782 46:1.0 47:-0.9935731291770935 48:-0.11319216340780258 49:0.44342154264450073 50:0.9763157963752747 51:-0.9397937655448914 52:-0.34174197912216187 53:0.3644733428955078 54:0.936842143535614 55:-0.8974490165710449 56:-0.44111818075180054 57:0.28815802931785583 58:0.8999999761581421 59:-0.9529253244400024 60:-0.3032051622867584 61:0.24868430197238922 62:0.8999999761581421 63:-1.0 64:0.0 65:0.2092105746269226 66:0.8999999761581421 67:-1.0 68:0.0 69:0.21184195578098297 70:0.8999999761581421 71:1.0 72:0.0 73:0.2513164281845093 74:0.8999999761581421 75:1.0 76:0.0 77:0.2907894253730774 78:0.8999999761581421 79:1.0 80:0.0 
-0.8484687377424436 -0.08766004886724796 -0.5409521189039921 -0.41712514609346124 -0.4014255785496033 0.3616613418988305 0.23388259692780294 2.369601283359933 2.54421071753302 0.0 0.6906172585320586 1.4622501959343222 1.7308465408137617 0.0 1.0816812087023433 0.05984545376297391 1.6378509208113259 5.600166599390943 0.7056576854728032 0.7320001515236728 1:0.0 2:0.025528162717819214 3:0.3653421401977539 4:0.9308733344078064 5:0.15886148810386658 6:0.43029922246932983 7:0.22555671632289886 8:0.9742300510406494 9:0.1670221984386444 10:0.7469345331192017 11:-0.11752836406230927 12:0.993069589138031 13:0.09956088662147522 14:0.9313665628433228 15:-0.39659351110458374 16:0.9179943799972534 17:0.08922385424375534 18:0.9270142316818237 19:-0.33162587881088257 20:-0.9434109926223755 21:0.06800588965415955 22:0.8415987491607666 23:-0.24108201265335083 24:-0.9705047607421875 25:0.712701678276062 26:0.025528162717819214 27:-0.8138359189033508 28:0.5810947418212891 29:0.600753664970398 30:0.1054612323641777 31:-0.8227244019508362 32:0.568440318107605 33:0.46829888224601746 34:0.19439199566841125 35:-0.8403328061103821 36:0.5420708060264587 37:0.3165939748287201 38:0.28876322507858276 39:-0.897671639919281 40:0.4406649172306061 41:0.14647431671619415 42:0.3523749113082886 43:-0.941957950592041 44:0.3357309103012085 45:0.06884267926216125 46:0.3770662844181061 47:-0.5964441895484924 48:0.802654504776001 49:0.10713516920804977 50:0.4053148925304413 51:0.864838719367981 52:0.5020498633384705 53:0.2728603482246399 54:0.4955011308193207 55:0.8816059231758118 56:0.4719862937927246 57:0.45616278052330017 58:0.5921741724014282 59:0.8683586120605469 60:0.495936781167984 61:0.6612271070480347 62:0.717305064201355 63:0.8215116262435913 64:0.5701917409896851 65:0.8658716678619385 66:0.876543402671814 67:0.795238733291626 68:0.6062964200973511 69:0.9985356330871582 70:0.9744718074798584 71:0.8124464750289917 72:0.5830356478691101 73:1.0 74:0.9727978706359863 75:-0.543251097202301 76:-0.8395702838897705 77:0.9847252368927002 78:0.953128457069397 79:-0.6133481860160828 80:-0.7898125648498535 
-0.0 -1.6766642061407837 -0.2968572832834624 -0.11604319951266076 -0.021242042832102567 0.0 0.8721252643487382 0.8226740234093836 0.024865170763931754 1.0718117333391133 2.8808030135431824 0.0 0.0 0.7346720124046026 0.4032147071940829 0.716238919354148 0.0 0.6717630152326217 0.0 1.8031787099497307 1:0.0 2:0.018570750951766968 3:0.1528896540403366 4:0.9882432222366333 5:0.06488011032342911 6:0.4379407465457916 7:0.15460693836212158 8:0.9879760146141052 9:0.11565585434436798 10:0.7576398849487305 11:0.10388363152742386 12:0.9945894479751587 13:0.11565585434436798 14:0.9240714311599731 15:-0.1857839971780777 16:0.9825906157493591 17:0.07334273308515549 18:0.9814292192459106 19:-0.7343766689300537 20:0.6787421703338623 21:0.0535966157913208 22:0.9814292192459106 23:-0.6656151413917542 24:-0.746295154094696 25:0.042313117533922195 26:0.9466384649276733 27:-0.30850493907928467 28:-0.9512226581573486 29:0.6177715063095093 30:0.23013633489608765 31:-0.5746456980705261 32:0.8184022903442383 33:0.5030564069747925 34:0.39351195096969604 35:-0.6241732239723206 36:0.7812859416007996 37:0.4123173654079437 38:0.48730602860450745 39:-0.815256655216217 40:0.5790998339653015 41:0.18899859488010406 42:0.6165961027145386 43:-0.8767411112785339 44:0.4809626042842865 45:0.09778985381126404 46:0.6598495244979858 47:-0.7185095548629761 48:0.6955170631408691 49:0.10084626078605652 50:0.7019275426864624 51:0.8719431161880493 52:0.48960721492767334 53:0.24682651460170746 54:0.7435355186462402 55:0.9769095778465271 56:0.21365295350551605 57:0.4125528931617737 58:0.7700986862182617 59:0.9858212471008301 60:0.1677992194890976 61:0.6224725246429443 62:0.807475209236145 63:0.9766187071800232 64:0.21497903764247894 65:0.8236953616142273 66:0.8606017827987671 67:0.9646437764167786 68:0.2635570168495178 69:0.9717912673950195 70:0.9029150009155273 71:0.9606004357337952 72:0.277933269739151 73:1.0 74:0.9116125106811523 75:-0.9805794358253479 76:-0.19612251222133636 77:0.9647390842437744 78:0.9015045166015625 79:-0.9612827301025391 80:-0.275564044713974 
-0.478813255761899 -2.964775095511692 -1.1396087269547932 -0.9265022721326268 -0.9717966038875713 1.0640571986499938 4.769636915162559 0.17122131800677845 2.3746930078616955 2.554420477183656 3.479707872505777 1.3374518554268404 2.508573180388638 2.6826775464297783 1.3574753768363301 1.9293635036192873 0.3973482805530743 1.9385994966148525 1.1352444691648071 4.460815395102615 1:0.3922433853149414 2:0.013658042065799236 3:0.2614201605319977 4:-0.9652251601219177 5:0.3959425091743469 6:0.0 7:-0.33385029435157776 8:0.9426261782646179 9:0.3874061107635498 10:0.027316084131598473 11:-0.26363644003868103 12:0.9646221399307251 13:0.35923635959625244 14:0.13430450856685638 15:-0.2351205199956894 16:0.9719662070274353 17:0.2875313460826874 18:0.440189003944397 19:-0.1885947436094284 20:0.9820549488067627 21:0.2411506474018097 22:0.7492032051086426 23:-0.13957302272319794 24:0.9902118444442749 25:0.2243625372648239 26:0.8883451223373413 27:-0.24604178965091705 28:0.9692592024803162 29:0.21298089623451233 30:0.860175371170044 31:-0.37461572885513306 32:-0.9271802306175232 33:0.24883338809013367 34:0.3861256539821625 35:0.08081284165382385 36:0.99672931432724 37:0.25002843141555786 38:0.4008650779724121 39:0.65190589427948 40:0.7582998871803284 41:0.3830811381340027 42:0.5422832369804382 43:0.6140384674072266 44:0.7892760634422302 45:0.5962042808532715 46:0.8458344340324402 47:0.5404245257377625 48:0.8413925170898438 49:0.6770715713500977 50:1.0 51:0.5486564040184021 52:0.836047887802124 53:0.6631289124488831 54:0.9478148221969604 55:-0.2581225633621216 56:-0.9661121368408203 57:0.22692354023456573 58:0.4000683128833771 59:0.8962298631668091 60:-0.4435899555683136 61:0.26636138558387756 62:0.38054850697517395 63:0.8963346481323242 64:-0.44337812066078186 65:0.48785004019737244 66:0.2709992229938507 67:0.8742325901985168 68:-0.4855072796344757 69:0.7017697095870972 70:0.13874340057373047 71:0.8860161900520325 72:-0.4636543095111847 73:0.7870191335678101 74:0.1144433468580246 75:0.9954275488853455 76:-0.09552016854286194 77:0.780645489692688 78:0.13117456436157227 79:-0.3559878468513489 80:0.9344906210899353 
-0.7121009253852241 -0.5972740237087338 -0.0 -1.3222563453277392 -0.537526844242292 0.0 1.2459144904886479 1.0773596115764583 0.10764163234616615 0.4458746645897424 0.6070615566860845 0.6774146188661949 3.2285092455586124 0.10333812559145623 0.39617604312579485 0.0 1.9055699002077817 2.3626108668179873 0.0 2.7319374699751764 1:0.019178081303834915 2:0.15753424167633057 3:-0.4008188545703888 4:-0.9161573052406311 5:0.0 6:0.11369863152503967 7:0.1414213478565216 8:0.9899494051933289 9:0.024657534435391426 10:0.195890411734581 11:0.21096964180469513 12:0.97749263048172 13:0.08219178020954132 14:0.49452054500579834 15:0.16896381974220276 16:0.9856223464012146 17:0.12328767031431198 18:0.7712329030036926 19:0.1686038076877594 20:0.9856838583946228 21:0.15342465043067932 22:0.9109588861465454 23:0.5734624266624451 24:0.8192319273948669 25:0.23835615813732147 26:0.9356164336204529 27:0.9603461623191833 28:0.2788103222846985 29:0.8301370143890381 30:0.06438356637954712 31:-0.3963675796985626 32:0.9180919528007507 33:0.8214629888534546 34:0.08447489887475967 35:-0.6998372673988342 36:0.7143023610115051 37:0.6091341972351074 38:0.2899543344974518 39:-0.8032205700874329 40:0.5956816673278809 41:0.26301369071006775 42:0.4986301362514496 43:-0.8748729228973389 44:0.4843524992465973 45:0.030136985704302788 46:0.610502302646637 47:-0.9025235772132874 48:0.43064048886299133 49:0.013243792578577995 50:0.6178082227706909 51:-0.39391958713531494 52:0.9191449284553528 53:0.024657534435391426 54:0.6232876777648926 55:0.9771391153335571 56:0.212600976228714 57:0.2315068542957306 58:0.6652967929840088 59:0.9889076352119446 60:0.14853142201900482 61:0.48675888776779175 62:0.6926941275596619 63:0.9878870844841003 64:0.15517501533031464 65:0.7315068244934082 66:0.7438356280326843 67:0.9505905508995056 68:0.31044742465019226 69:0.8474876880645752 70:0.810502290725708 71:0.8630133867263794 72:0.5051810145378113 73:0.918720543384552 74:0.8534246683120728 75:0.882500410079956 76:0.47031161189079285 77:1.0 78:0.8917807936668396 79:0.9043596386909485 80:0.42677122354507446 
-0.0 -1.3554809298459747 -0.0 -0.6540845824343826 -0.2985001311751887 0.0 0.0 0.0 1.130367713507082 0.0 0.0 0.0 0.0 0.0 0.0 0.0 0.0 0.0 0.0 0.0 1:0.28010472655296326 2:0.010471208021044731 3:-0.9899495244026184 4:-0.1414213925600052 5:0.20680628716945648 6:0.0 7:-0.7241379618644714 8:0.689655065536499 9:0.1701570749282837 10:0.11518323421478271 11:-0.13093838095664978 12:0.9913904666900635 13:0.1701570749282837 14:0.2774868607521057 15:0.0 16:1.0 17:0.1701570749282837 18:0.4764397442340851 19:0.0 20:1.0 21:0.1701570749282837 22:0.7486910820007324 23:0.0 24:1.0 25:0.1701570749282837 26:0.8743454813957214 27:0.0 28:1.0 29:0.1701570749282837 30:1.0 31:0.0 32:1.0 33:0.6832460761070251 34:0.19371727108955383 35:-0.7912848591804504 36:0.6114477515220642 37:0.609947681427002 38:0.2503569722175598 39:-0.8041765093803406 40:0.5943905711174011 41:0.5299855470657349 42:0.3069966435432434 43:-0.8526014685630798 44:0.5225617289543152 45:0.4033792018890381 46:0.376963347196579 47:-0.8998140692710876 48:0.4362734854221344 49:0.31009024381637573 50:0.4136125445365906 51:-0.9298065900802612 52:0.3680484890937805 53:0.24345549941062927 54:0.440266489982605 55:-0.42700666189193726 56:0.9042484760284424 57:0.253450483083725 58:0.5335554480552673 59:0.48431503772735596 60:0.8748936653137207 61:0.3467394709587097 62:0.6268444061279297 63:0.7672819495201111 64:0.6413098573684692 65:0.47667762637138367 66:0.7201332449913025 67:0.8613660335540771 68:0.5079847574234009 69:0.6066157817840576 70:0.7801046967506409 71:0.889817476272583 72:0.45631662011146545 73:0.736553966999054 74:0.8534031510353088 75:0.8970890641212463 76:0.4418497681617737 77:0.8298429250717163 78:0.8900523781776428 79:0.9307515621185303 80:0.36565232276916504 
-0.0 -0.0 -0.0 -1.8344469822695708 -0.15224246451323098 0.0 0.0 1.1859583095610524 0.0 0.07613690504383155 0.0 0.0 0.0 0.027379541612830176 0.0 0.0015958867501219961 0.6052386624460521 1.6159219656646866 0.0 0.0 1:0.4469895362854004 2:0.0 3:-0.34115612506866455 4:0.9400066137313843 5:0.38634294271469116 6:0.16710296273231506 7:-0.31872645020484924 8:0.9478467702865601 9:0.3134816884994507 10:0.3970331847667694 11:-0.25462979078292847 12:0.9670385718345642 13:0.2676701545715332 14:0.6178010702133179 15:-0.1680833101272583 16:0.9857728481292725 17:0.2489084005355835 18:0.7757417559623718 19:-0.15525898337364197 20:0.9878737926483154 21:0.2231675535440445 22:0.9009599089622498 23:-0.24164362251758575 24:0.9703649878501892 25:0.19306284189224243 26:1.0 27:-0.29082629084587097 28:0.9567759037017822 29:0.7977748513221741 30:0.1596858650445938 31:0.2970665991306305 32:0.9548567533493042 33:0.8069371581077576 34:0.18913613259792328 35:-0.44721367955207825 36:0.8944270610809326 37:0.7336387038230896 38:0.2879581153392792 39:-0.7237676978111267 40:0.6900437474250793 41:0.6243455410003662 42:0.36321988701820374 43:-0.9134207367897034 44:0.4070166349411011 45:0.4810209572315216 46:0.4005235731601715 47:-0.9855167865753174 48:0.1695777326822281 49:0.36191099882125854 50:0.4083769619464874 51:-0.9985080361366272 52:0.05460574850440025 53:0.3134816884994507 54:0.4096858501434326 55:-0.4299333393573761 56:0.9028605818748474 57:0.3488219976425171 58:0.4358638823032379 59:0.6507911682128906 60:0.7592567205429077 61:0.41557592153549194 62:0.5287958383560181 63:0.5463412404060364 64:0.8375627398490906 65:0.49738219380378723 66:0.6636125445365906 67:0.6151395440101624 68:0.7884182333946228 69:0.6014397740364075 70:0.7670156955718994 71:0.7334897518157959 72:0.6797005534172058 73:0.6937173008918762 74:0.8455497622489929 75:0.7007080912590027 76:0.7134481072425842 77:0.7454188466072083 78:0.9136125445365906 79:0.6048892140388489 80:0.7963097095489502 
-0.0 -0.0 -1.3072057286409515 -0.0 -2.8629476526629007 1.970092049624413 0.7499599132515792 0.5386194867689531 0.0 0.0 0.0 0.0 0.8157265187082023 0.0 0.0 0.0 8.447962710900411 4.316645426261019 0.7201761827981709 1.2260842422304368 1:0.3199999928474426 2:0.0 3:0.03996800258755684 4:0.9992009997367859 5:0.32499998807907104 6:0.125 7:0.15799057483673096 8:0.9874405860900879 9:0.36000001430511475 10:0.25 11:-0.022216716781258583 12:0.9997531771659851 13:0.3199999928474426 14:0.3499999940395355 15:-0.15799057483673096 16:0.9874405860900879 17:0.3199999928474426 18:0.5 19:0.0 20:1.0 21:0.3199999928474426 22:0.625 23:0.0 24:1.0 25:0.3199999928474426 26:0.7900000214576721 27:-0.1359800100326538 28:0.9907116293907166 29:0.2849999964237213 30:0.8799999952316284 31:-0.18711209297180176 32:0.982338547706604 33:0.2800000011920929 34:1.0 35:-0.04163050651550293 36:0.9991331100463867 37:0.7200000286102295 38:0.03999999910593033 39:-0.4299337863922119 40:0.9028604030609131 41:0.6800000071525574 42:0.12399999797344208 43:-0.46400681138038635 44:0.8858316540718079 45:0.6320000886917114 46:0.20799998939037323 47:-0.4249076247215271 48:0.9052366614341736 49:0.5879998803138733 50:0.3199999928474426 51:-0.5547005534172058 52:0.8320500254631042 53:0.5039999485015869 54:0.4000000059604645 55:-0.7264680862426758 56:0.6872001886367798 57:0.4399999976158142 58:0.46000000834465027 59:-0.70710688829422 60:0.7071067094802856 61:0.36000001430511475 62:0.5439999103546143 63:0.1334114521741867 64:0.9910606741905212 65:0.4679998755455017 66:0.6679999828338623 67:0.6831571459770203 68:0.7302713394165039 69:0.5920001268386841 70:0.7919999957084656 71:0.5698991417884827 72:0.8217146396636963 73:0.6399999856948853 74:0.9160000085830688 75:0.6060429811477661 76:0.795431911945343 77:0.7200000286102295 78:0.9599999785423279 79:0.8762161731719971 80:0.4819183051586151 
-0.3218875967392201 -0.0 -1.0556512069412016 -0.0 -0.0 0.9667204319831824 0.5670077590148629 0.16406057049495562 0.4993086246951447 0.0 0.0 0.022559451234275094 0.2845697637548963 0.0 0.0 0.0 1.5437904499061808 0.0 0.38048610762687063 0.6821013713260434 1:0.17899343371391296 2:0.0 3:0.12997503578662872 4:0.9915172457695007 5:0.1969699263572693 6:0.13713404536247253 7:0.09805739670991898 8:0.9951807260513306 9:0.22727271914482117 10:0.4899846017360687 11:0.07692476361989975 12:0.997036874294281 13:0.24987170100212097 14:0.82280433177948 15:0.062120478600263596 16:0.998068630695343 17:0.2580893635749817 18:0.9851051568984985 19:-0.02318279631435871 20:0.9997313022613525 21:0.24576270580291748 22:1.0 23:-0.8790323138237 24:-0.4767622649669647 25:0.19748342037200928 26:0.9522342085838318 27:-0.7108770608901978 28:-0.7033162713050842 29:0.7706729173660278 30:0.04930662736296654 31:-0.7867375016212463 32:0.6172876954078674 33:0.6371344327926636 34:0.15408320724964142 35:-0.7140729427337646 36:0.7000713348388672 37:0.4039549231529236 38:0.40883398056030273 39:-0.6425741910934448 40:0.7662234902381897 41:0.311504989862442 42:0.5423728823661804 43:-0.5680029988288879 44:0.8230264782905579 45:0.3032873570919037 46:0.5546995401382446 47:-0.5038572549819946 48:0.8637869358062744 49:0.3043147027492523 50:0.5546995401382446 51:0.9054580926895142 52:0.42443567514419556 53:0.33615830540657043 54:0.5701078772544861 55:0.895693838596344 56:0.4446714222431183 57:0.4491529166698456 58:0.6266051530838013 59:0.9004287123680115 60:0.43500351905822754 61:0.6402161121368408 62:0.7170003652572632 63:0.8771519064903259 64:0.4802129566669464 65:0.7737545967102051 66:0.8043143153190613 67:0.7852258682250977 68:0.6192094683647156 69:0.8199795484542847 70:0.8587573170661926 71:0.5717904567718506 72:0.8203996419906616 73:0.8210065364837646 74:0.8721109628677368 75:-0.28735554218292236 76:0.9578239917755127 77:0.8168978691101074 78:0.8690292835235596 79:-0.7999833226203918 80:-0.6000223159790039 
