svm_type c_svc
kernel_type rbf
gamma 0.015625
nr_class 9
total_sv 115
rho 0.667466950986634 0.3103826283126317 0.24321186986533755 -0.04839769994977686 -0.0631995316331314 1.064604728628037 0.3003835398328028 0.0260019776937256 0.01326343741818097 -0.15651382640580938 -0.5264231177980251 -0.6117461187566111 0.14382827884100136 -0.1243219280425549 -0.29561694350261036 -0.07878099889782725 -0.9527780665165638 -0.5349370171862273 0.3023136177228659 -0.1275216944125065 -0.5667362486243251 -0.5412829794191788 -0.9095110048388056 0.500577851694502 0.09576978633840494 -0.5128504436615096 0.12336655279723525 0.6654893383601255 0.9472669067952797 0.6010654528848581 0.6382329949097874 0.7469094353697022 0.170896451123469 -0.2522199372555305 -0.35860596465597067 -0.6548870109470147
label 45 43 37 63 40 41 61 33 47
nr_sv 11 15 11 13 12 11 13 15 14
SV
2.762812116102205 1.3106198691622735 0.9505598242226314 0.8275653493191506 0.22159896093662224 4.0 1.3903176032041544 0.8939888184483472 1:0.11920405179262161 2:0.6258280277252197 3:-1.0 4:0.0 5:0.059603944420814514 6:0.6258280277252197 7:-1.0 8:0.0 9:0.0 10:0.6258280277252197 11:-1.0 12:0.0 13:0.04635606333613396 14:0.6258280277252197 15:1.0 16:0.0 17:0.10596001148223877 18:0.6258280277252197 19:1.0 20:0.0 21:0.16556011140346527 22:0.6258280277252197 23:1.0 24:0.0 25:0.22516405582427979 26:0.6258280277252197 27:0.9486851692199707 28:-0.31622225046157837 29:0.2847680151462555 30:0.5860928297042847 31:0.7682275176048279 32:-0.6401768922805786 33:0.3443719446659088 34:0.5264900922775269 35:0.8106759190559387 36:-0.585495114326477 37:0.4039720594882965 38:0.5 39:0.9761865139007568 40:-0.21693278849124908 41:0.4635760188102722 42:0.5 43:1.0 44:0.0 45:0.5231761336326599 46:0.5 47:1.0 48:0.0 49:0.5827800631523132 50:0.5 51:1.0 52:0.0 53:0.6423839926719666 54:0.5 55:1.0 56:0.0 57:0.7019879221916199 58:0.5 59:0.9938836097717285 60:-0.11043278127908707 61:0.7615880370140076 62:0.4867549538612366 63:0.8532791137695312 64:-0.5214545130729675 65:0.8211920261383057 66:0.42715218663215637 67:0.7270201444625854 68:-0.686616063117981 69:0.880795955657959 70:0.37417200207710266 71:0.9138097763061523 72:-0.40614235401153564 73:0.9403960704803467 74:0.37417200207710266 75:1.0 76:0.0 77:1.0 78:0.37417200207710266 79:1.0 80:0.0 
1.621099825648756 1.105695800339919 0.41781298749018825 0.6561975300207985 0.0 0.430063012796562 0.0 0.11115643892063667 1:0.021410778164863586 2:0.5358942151069641 3:-1.0 4:0.0 5:0.0 6:0.5358942151069641 7:-1.0 8:0.0 9:0.016372647136449814 10:0.5358942151069641 11:1.0 12:0.0 13:0.05415607616305351 14:0.5358942151069641 15:0.9791345596313477 16:-0.20321319997310638 17:0.08312441408634186 18:0.5220403075218201 19:0.9503102898597717 20:-0.3113043010234833 21:0.12720495462417603 22:0.511964738368988 23:0.9872410297393799 24:-0.15923312306404114 25:0.20025238394737244 26:0.50314861536026 27:0.9896450042724609 28:-0.1435367465019226 29:0.29219189286231995 30:0.48803526163101196 31:0.9967725872993469 32:-0.08027701079845428 33:0.38790979981422424 34:0.48803526163101196 35:1.0 36:0.0 37:0.4345097839832306 38:0.48803526163101196 39:1.0 40:0.0 41:0.541561484336853 42:0.48803526163101196 43:1.0 44:0.0 45:0.6083124876022339 46:0.48803526163101196 47:0.9930353164672852 48:-0.11781689524650574 49:0.6901772022247314 50:0.4704030156135559 51:0.9899495244026184 52:-0.14142131805419922 53:0.7758188843727112 54:0.4641057848930359 55:0.9992135167121887 56:-0.03965124115347862 57:0.8488677740097046 58:0.4641057848930359 59:1.0 60:0.0 61:0.9030231237411499 62:0.4641057848930359 63:1.0 64:0.0 65:0.9458446502685547 66:0.4641057848930359 67:1.0 68:0.0 69:0.9836273789405823 70:0.4641057848930359 71:1.0 72:0.0 73:1.0 74:0.4641057848930359 75:-1.0 76:0.0 77:0.9785899519920349 78:0.4641057848930359 79:-1.0 80:0.0 
0.0 0.0 0.0 0.0 0.0 4.0 0.0 0.0 1:0.0 2:0.4947916567325592 3:1.0 4:0.0 5:0.04276275634765625 6:0.4947916567325592 7:1.0 8:0.0 9:0.09320068359375 10:0.4947916567325592 11:1.0 12:0.0 13:0.14912159740924835 14:0.4947916567325592 15:1.0 16:0.0 17:0.1918843537569046 18:0.4947916567325592 19:1.0 20:0.0 21:0.234649658203125 22:0.4947916567325592 23:1.0 24:0.0 25:0.2774098813533783 26:0.4947916567325592 27:1.0 28:0.0 29:0.3201751708984375 30:0.4947916567325592 31:1.0 32:0.0 33:0.3728078305721283 34:0.4947916567325592 35:1.0 36:0.0 37:0.4298248291015625 38:0.4947916567325592 39:1.0 40:0.0 41:0.4868418276309967 42:0.4947916567325592 43:1.0 44:0.0 45:0.5438588261604309 46:0.4947916567325592 47:1.0 48:0.0 49:0.5964915156364441 50:0.4947916567325592 51:1.0 52:0.0 53:0.6392542719841003 54:0.4947916567325592 55:1.0 56:0.0 57:0.7061411738395691 58:0.4947916567325592 59:1.0 60:0.0 61:0.7719294428825378 62:0.4947916567325592 63:1.0 64:0.0 65:0.828948974609375 66:0.4947916567325592 67:1.0 68:0.0 69:0.8859660029411316 70:0.4947916567325592 71:1.0 72:0.0 73:0.9429829716682434 74:0.4947916567325592 75:1.0 76:0.0 77:1.0 78:0.4947916567325592 79:1.0 80:0.0 
0.0 0.0 0.0 0.0 0.0 1.9187266473297777 0.0 0.0 1:0.0 2:0.533707857131958 3:1.0 4:0.0 5:0.007096365559846163 6:0.533707857131958 7:0.967074990272522 8:-0.2544914782047272 9:0.01123595517128706 10:0.5307510495185852 11:0.3807521164417267 12:-0.9246771335601807 13:0.01123595517128706 14:0.5236546397209167 15:0.5812358856201172 16:-0.8137351870536804 17:0.01714959368109703 18:0.5224719047546387 19:0.9974586963653564 20:-0.07124713063240051 21:0.02779422700405121 22:0.5224719047546387 23:1.0 24:0.0 25:0.0490834079682827 26:0.5224719047546387 27:1.0 28:0.0 29:0.08456532657146454 30:0.5224719047546387 31:1.0 32:0.0 33:0.12891773879528046 34:0.5224719047546387 35:1.0 36:0.0 37:0.19278527796268463 38:0.5224719047546387 39:1.0 40:0.0 41:0.253104567527771 42:0.5224719047546387 43:1.0 44:0.0 45:0.30987584590911865 46:0.5224719047546387 47:0.9954825639724731 48:-0.09494458884000778 49:0.4577173888683319 50:0.5029568672180176 51:0.9913958311080933 52:-0.13089852035045624 53:0.5830868482589722 54:0.4863986074924469 55:0.9922778606414795 56:-0.12403491139411926 57:0.6469544768333435 58:0.47930219769477844 59:0.9943592548370361 60:-0.10606515407562256 61:0.716144323348999 62:0.47220578789711 63:0.9954954385757446 64:-0.09480906277894974 65:0.7835600972175598 66:0.466292142868042 67:0.9987270832061768 68:-0.050440713763237 69:0.8332346081733704 70:0.466292142868042 71:1.0 72:0.0 73:0.9077467322349548 74:0.466292142868042 75:1.0 76:0.0 77:1.0 78:0.466292142868042 79:1.0 80:0.0 
3.1087146891463466 1.116563940831718 2.6994131486881727 0.38440384253562315 2.5197432965681643 1.631718787450543 1.644978541655272 1.316744193964031 1:0.0 2:0.546068549156189 3:0.9917794466018677 4:-0.1279584914445877 5:0.010737873613834381 6:0.5446831583976746 7:0.9512927532196045 8:-0.3082890510559082 9:0.03740902990102768 10:0.5339452624320984 11:0.9288078546524048 12:-0.37056174874305725 13:0.07758969068527222 14:0.5180116295814514 15:0.955542266368866 16:-0.29485413432121277 17:0.1586427241563797 18:0.49653586745262146 19:0.9868745803833008 20:-0.16148829460144043 21:0.2680981755256653 22:0.48683756589889526 23:0.9991094470024109 24:-0.04219326376914978 25:0.3882922828197479 26:0.48683756589889526 27:1.0 28:0.0 29:0.5396604537963867 30:0.48683756589889526 31:1.0 32:0.0 33:0.6775199770927429 34:0.48683756589889526 35:0.9997035264968872 36:-0.024349190294742584 37:0.7814337611198425 38:0.4809488356113434 39:0.9946485161781311 40:-0.10331601649522781 41:0.8742642402648926 42:0.4664013683795929 43:0.9898179173469543 44:-0.14233940839767456 45:0.9379981160163879 46:0.4584343135356903 47:0.9940303564071655 48:-0.10910379141569138 49:0.987876296043396 50:0.45393142104148865 51:0.9969475865364075 52:-0.07807350158691406 53:0.9954971075057983 54:0.45393142104148865 55:1.0 56:0.0 57:1.0 58:0.45393142104148865 59:-0.8575958013534546 60:0.5143243074417114 61:0.9937650561332703 62:0.45497018098831177 63:-0.8320490717887878 64:0.5547020435333252 65:0.9937650561332703 66:0.45808807015419006 67:0.0 68:1.0 69:0.9937650561332703 70:0.4577414095401764 71:-0.8064106106758118 72:0.5913560390472412 73:0.9833734035491943 74:0.465708464384079 75:-0.8140537738800049 76:0.5807894468307495 77:0.9345340132713318 78:0.5 79:-0.8184126615524292 80:0.5746309757232666 
0.0 0.0 0.0 0.0 0.0 4.0 0.0 0.0 1:0.0 2:0.48750001192092896 3:1.0 4:0.0 5:0.05263061448931694 6:0.48750001192092896 7:1.0 8:0.0 9:0.10526428371667862 10:0.48750001192092896 11:1.0 12:0.0 13:0.15789489448070526 14:0.48750001192092896 15:1.0 16:0.0 17:0.21052856743335724 18:0.48750001192092896 19:1.0 20:0.0 21:0.2631591856479645 22:0.48750001192092896 23:1.0 24:0.0 25:0.3157897889614105 26:0.48750001192092896 27:1.0 28:0.0 29:0.36842042207717896 30:0.48750001192092896 31:1.0 32:0.0 33:0.421051025390625 34:0.48750001192092896 35:1.0 36:0.0 37:0.4736877381801605 38:0.48750001192092896 39:1.0 40:0.0 41:0.526318371295929 42:0.48750001192092896 43:1.0 44:0.0 45:0.578948974609375 46:0.48750001192092896 47:1.0 48:0.0 49:0.631579577922821 50:0.48750001192092896 51:1.0 52:0.0 53:0.6842101812362671 54:0.48750001192092896 55:1.0 56:0.0 57:0.7368408441543579 58:0.48750001192092896 59:1.0 60:0.0 61:0.789471447467804 62:0.48750001192092896 63:1.0 64:0.0 65:0.8421081304550171 66:0.48750001192092896 67:1.0 68:0.0 69:0.8947387933731079 70:0.48750001192092896 71:1.0 72:0.0 73:0.947369396686554 74:0.48750001192092896 75:1.0 76:0.0 77:1.0 78:0.48750001192092896 79:1.0 80:0.0 
0.0 0.0 0.0 0.0 0.0 4.0 0.0 0.0 1:0.0 2:0.53125 3:0.0 4:-1.0 5:0.0 6:0.5137061476707458 7:0.8073950409889221 8:-0.5900112986564636 9:0.028509140014648438 10:0.5104166865348816 11:0.9990282654762268 12:-0.044074587523937225 13:0.07456143945455551 14:0.5104166865348816 15:1.0 16:0.0 17:0.13486862182617188 18:0.5104166865348816 19:0.9994716048240662 20:-0.032503411173820496 21:0.2094300538301468 22:0.5060306787490845 23:0.99163818359375 24:-0.12904897332191467 25:0.2949562072753906 26:0.4895833432674408 27:0.9929882884025574 28:-0.11821296066045761 29:0.34758758544921875 30:0.4895833432674408 31:1.0 32:0.0 33:0.4462718963623047 34:0.4895833432674408 35:1.0 36:0.0 37:0.5635960698127747 38:0.4895833432674408 39:1.0 40:0.0 41:0.6425437927246094 42:0.4895833432674408 43:1.0 44:0.0 45:0.6940791010856628 46:0.4895833432674408 47:1.0 48:0.0 49:0.7817980647087097 50:0.4895833432674408 51:1.0 52:0.0 53:0.8695170283317566 54:0.4895833432674408 55:1.0 56:0.0 57:0.9078941345214844 58:0.4895833432674408 59:1.0 60:0.0 61:0.92982417345047 62:0.4895833432674408 63:1.0 64:0.0 65:0.9572365880012512 66:0.4895833432674408 67:1.0 68:0.0 69:0.9857457280158997 70:0.4895833432674408 71:0.9970545172691345 72:-0.07669644802808762 73:1.0 74:0.48629385232925415 75:0.5646806359291077 76:-0.8253094553947449 77:1.0 78:0.46875 79:0.0 80:-1.0 
0.0 0.9629136368387169 1.0371189075798402 0.8432959447314673 0.9690632908566822 4.0 0.9695952114242584 0.5548199313822249 1:0.0 2:0.44999998807907104 3:1.0 4:0.0 5:0.03157959133386612 6:0.44999998807907104 7:1.0 8:0.0 9:0.06315918266773224 10:0.44999998807907104 11:1.0 12:0.0 13:0.09473876655101776 14:0.44999998807907104 15:1.0 16:0.0 17:0.15263061225414276 18:0.44999998807907104 19:1.0 20:0.0 21:0.215789794921875 22:0.44999998807907104 23:1.0 24:0.0 25:0.27894896268844604 26:0.44999998807907104 27:0.986394464969635 28:0.16439570486545563 29:0.3421081602573395 30:0.4710526168346405 31:0.9230731129646301 32:0.3846243917942047 33:0.40526121854782104 34:0.5026315450668335 35:0.8944222331047058 36:0.44722357392311096 37:0.4684204161167145 38:0.5342105031013489 39:0.9363285899162292 40:0.35112494230270386 41:0.5315765142440796 42:0.550000011920929 43:0.9922777414321899 44:0.12403544783592224 45:0.5947357416152954 46:0.550000011920929 47:1.0 48:0.0 49:0.6578949093818665 50:0.550000011920929 51:1.0 52:0.0 53:0.710528552532196 54:0.550000011920929 55:1.0 56:0.0 57:0.7421051263809204 58:0.550000011920929 59:1.0 60:0.0 61:0.773681640625 62:0.550000011920929 63:0.997054398059845 64:-0.07669709622859955 65:0.8105255365371704 66:0.5447368621826172 67:0.9383465647697449 68:-0.3456960618495941 69:0.8736847043037415 70:0.5131579041481018 71:0.8944264054298401 72:-0.44721508026123047 73:0.936840832233429 74:0.4815789461135864 75:0.8944264054298401 76:-0.44721508026123047 77:1.0 78:0.44999998807907104 79:0.8944307565689087 80:-0.4472064971923828 
0.29620261823915806 0.0 0.0 0.0 0.0 3.450438921588817 0.0 0.0 1:0.0 2:0.47902098298072815 3:0.948682427406311 4:0.3162304162979126 5:0.02870786376297474 6:0.4885903596878052 7:0.9883714914321899 8:0.15205836296081543 9:0.05741572752594948 10:0.4878542423248291 11:0.9873645901679993 12:-0.1584649384021759 13:0.08833280950784683 14:0.47902098298072815 15:0.9950372576713562 16:-0.09950347244739532 17:0.1457485407590866 18:0.47902098298072815 19:1.0 20:0.0 21:0.19138747453689575 22:0.47902098298072815 23:1.0 24:0.0 25:0.23113800585269928 26:0.47902098298072815 27:1.0 28:0.0 29:0.2789844572544098 30:0.47902098298072815 31:1.0 32:0.0 33:0.3334551155567169 34:0.47902098298072815 35:0.9997889399528503 36:0.020543666556477547 37:0.38645583391189575 38:0.481229305267334 39:0.9917779564857483 40:0.1279703676700592 41:0.4247329831123352 42:0.490798681974411 43:0.9917779564857483 44:0.1279703676700592 45:0.47773370146751404 46:0.49300700426101685 47:0.9989685416221619 48:0.04540711268782616 49:0.5380944609642029 50:0.49595141410827637 51:0.9952064156532288 52:0.09779667854309082 53:0.6050778031349182 54:0.5055208206176758 55:0.9997264742851257 56:0.023385854437947273 57:0.6639668941497803 58:0.4988958537578583 59:0.9973010420799255 60:-0.07342082262039185 61:0.7250635027885437 62:0.49668753147125244 63:0.998352587223053 64:0.05737636610865593 65:0.7920502424240112 66:0.5062569379806519 67:0.9974062442779541 68:0.07197730243206024 69:0.8678687214851379 70:0.5069929957389832 71:0.9993757009506226 72:0.03533129766583443 73:0.937798798084259 74:0.5114096403121948 75:0.9944446086883545 76:0.10526162385940552 77:1.0 78:0.5209790468215942 79:0.988371729850769 80:0.15205703675746918 
1.5632748936745011 0.0 0.0 0.0 0.0 0.0 0.0 0.0 1:0.0 2:0.48275861144065857 3:1.0 4:0.0 5:0.0258620698004961 6:0.48275861144065857 7:0.980580747127533 8:0.1961159110069275 9:0.043103449046611786 10:0.4913792908191681 11:0.9899495244026184 12:0.14142118394374847 13:0.08620689809322357 14:0.4913792908191681 15:0.9958931803703308 16:0.0905359536409378 17:0.13793103396892548 18:0.5 19:0.9938836693763733 20:0.11043177545070648 21:0.16379310190677643 22:0.5 23:1.0 24:0.0 25:0.22413793206214905 26:0.5 27:1.0 28:0.0 29:0.2931034564971924 30:0.5 31:1.0 32:0.0 33:0.32758620381355286 34:0.5 35:0.9970544576644897 36:-0.07669667899608612 37:0.4051724076271057 38:0.4913792908191681 39:0.9986178278923035 40:-0.05255894735455513 41:0.4913793206214905 42:0.4913792908191681 43:1.0 44:0.0 45:0.568965494632721 46:0.4913792908191681 47:1.0 48:0.0 49:0.6120689511299133 50:0.4913792908191681 51:0.9977851510047913 52:0.06651914864778519 53:0.6982758641242981 54:0.5 55:0.9986178278923035 56:0.052558936178684235 57:0.7758620977401733 58:0.5 59:0.9974587559700012 60:0.07124698162078857 61:0.818965494632721 62:0.5086206793785095 63:0.9965458512306213 64:0.08304539322853088 65:0.8793103694915771 66:0.5086206793785095 67:0.9974587559700012 68:0.07124694436788559 69:0.9396551847457886 70:0.517241358757019 71:0.9965458512306213 72:0.08304539322853088 73:0.982758641242981 74:0.517241358757019 75:1.0 76:0.0 77:1.0 78:0.517241358757019 79:1.0 80:0.0 
0.5829030647796029 0.06129008833343932 0.0 0.6770711769275716 0.5919604572490197 0.0 0.6750968094046418 0.0 1:0.0 2:0.47140705585479736 3:1.0 4:0.0 5:0.004514765925705433 6:0.47140705585479736 7:1.0 8:0.0 9:5.020285025238991E-4 10:0.47140705585479736 11:0.6584650278091431 12:0.7526112794876099 13:0.008026056922972202 14:0.47542038559913635 15:0.9888205528259277 16:0.14911004900932312 17:0.03210422769188881 18:0.476172536611557 19:0.9973265528678894 20:0.0730728730559349 21:0.0662154033780098 22:0.47968384623527527 23:0.9982309937477112 24:0.0594557523727417 25:0.11211465299129486 26:0.48093804717063904 27:0.999065637588501 28:0.04321829602122307 29:0.16478575766086578 30:0.48394787311553955 31:0.9958385825157166 32:0.09113486856222153 33:0.22447943687438965 34:0.49122118949890137 35:0.9913161396980286 36:0.1315000057220459 37:0.28768500685691833 38:0.5002506971359253 39:0.9912275075912476 40:0.1321660280227661 41:0.35992008447647095 42:0.509280264377594 43:0.9936528205871582 44:0.11248967051506042 45:0.44720324873924255 46:0.518309473991394 47:0.996235728263855 48:0.08668626844882965 49:0.5472791194915771 50:0.5255830883979797 51:0.9988194108009338 52:0.04857850819826126 53:0.65864098072052 54:0.5285929441452026 55:0.9999698996543884 56:0.007760078180581331 57:0.7735142111778259 58:0.5273387432098389 59:0.9997615814208984 60:-0.02183399349451065 61:0.8768500089645386 62:0.5238274335861206 63:0.9998130798339844 64:-0.019332854077219963 65:0.9551042318344116 66:0.5238274335861206 67:1.0 68:0.0 69:0.9922246932983398 70:0.5238274335861206 71:0.9999843835830688 72:0.005585222039371729 73:1.0 74:0.5240781903266907 75:-0.7709423899650574 76:0.6369049549102783 77:0.9864562749862671 78:0.5285929441452026 79:-0.948679506778717 80:0.31623902916908264 
-0.0 0.006738218992554492 4.0 0.0 0.947625418811449 1.5816536624229756 0.3129364031476201 0.8476233208249924 1:0.0928383469581604 2:0.4031830430030823 3:-0.6247001886367798 4:-0.7808647155761719 5:0.07161790132522583 6:0.3766578435897827 7:0.31622323393821716 8:-0.9486847519874573 9:0.10875321924686432 10:0.35543766617774963 11:0.9814905524253845 12:-0.19151043891906738 13:0.1803712546825409 14:0.35543766617774963 15:1.0 16:0.0 17:0.2758619785308838 18:0.35543766617774963 19:0.9987769722938538 20:-0.049444373697042465 21:0.44827592372894287 22:0.34217506647109985 23:0.9943889379501343 24:-0.10578599572181702 25:0.6498677730560303 26:0.3156498372554779 27:0.994278073310852 28:-0.10682312399148941 29:0.7692311406135559 30:0.3076923191547394 31:0.9913318753242493 32:-0.13138160109519958 33:0.8700262904167175 34:0.2864721417427063 35:0.9889363050460815 36:-0.1483406275510788 37:0.9283820986747742 38:0.28381964564323425 39:0.9989685416221619 40:-0.04540696740150452 41:0.42705583572387695 42:0.02122015692293644 43:0.0 44:-1.0 45:0.42705583572387695 46:0.0 47:0.0 48:1.0 49:0.42705583572387695 50:0.03183024376630783 51:-0.0787011906504631 52:0.9968982338905334 53:0.4190984070301056 54:0.10079576820135117 55:-0.1351131647825241 56:0.99083012342453 57:0.4031831622123718 58:0.20689657330513 59:-0.10933972150087357 60:0.994004487991333 61:0.3899208903312683 62:0.36604779958724976 63:-0.07735371589660645 64:0.9970037341117859 65:0.3793104887008667 66:0.5145888924598694 67:-0.032242268323898315 68:0.9994800686836243 69:0.3793104887008667 70:0.6949602961540222 71:0.05705054849386215 72:0.9983712434768677 73:0.40053093433380127 74:0.885941743850708 75:0.15463894605636597 76:0.9879710078239441 77:0.42705583572387695 78:1.0 79:0.22651126980781555 80:0.9740085005760193 
-0.0 1.3689722634536663 1.0588654691870785 0.0 0.9128127540575417 0.0 1.6389577137040554 0.0 1:0.5874587297439575 2:0.0 3:0.0525466725230217 4:0.998618483543396 5:0.5900983810424805 6:0.05016501620411873 7:-0.056444212794303894 8:0.9984058141708374 9:0.5788759589195251 10:0.15181517601013184 11:-0.08351930975914001 12:0.9965061545372009 13:0.5709571242332458 14:0.27854788303375244 15:-0.019793279469013214 16:0.9998040199279785 17:0.573596715927124 18:0.41848185658454895 19:0.04459835961461067 20:0.9990049600601196 21:0.5841584205627441 22:0.5742574334144592 23:0.1034458726644516 24:0.9946351051330566 25:0.6079214215278625 26:0.7485148906707764 27:0.12245222926139832 28:0.9924744367599487 29:0.621783435344696 30:0.8792079091072083 31:0.07788772881031036 32:0.9969621896743774 33:0.624423086643219 34:0.9597360491752625 35:-0.011439104564487934 36:0.9999346137046814 37:0.6204620003700256 38:0.9947194457054138 39:-0.09790535271167755 40:0.9951958060264587 41:0.6204620003700256 42:1.0 43:0.0 44:1.0 45:0.056105613708496094 46:0.5610560774803162 47:0.8221924901008606 48:-0.5692095160484314 49:0.09364686906337738 50:0.5350660085678101 51:0.9439013004302979 52:-0.3302277624607086 53:0.3391089141368866 54:0.46204620599746704 55:0.9688026905059814 56:-0.2478332817554474 57:0.5903465151786804 58:0.4080033004283905 59:0.9860417246818542 60:-0.16649863123893738 61:0.778877854347229 62:0.3877887725830078 63:0.9974241852760315 64:-0.07172790914773941 65:0.8943894505500793 66:0.3861386179924011 67:0.9998875260353088 68:-0.01499821525067091 69:0.9438943862915039 70:0.3853135406970978 71:0.9977478384971619 72:-0.06707566231489182 73:0.9434818625450134 74:0.38283827900886536 75:-0.799996554851532 76:-0.6000046730041504 77:0.9405940771102905 78:0.38283827900886536 79:-1.0 80:0.0 
-0.0 0.20275690560203596 0.0 3.1917617449044253 0.0 0.0 0.0 0.0 1:0.59375 2:0.0 3:-0.6643751263618469 4:0.7473992109298706 5:0.5381927490234375 6:0.0625 7:-0.3387194871902466 8:0.9408873915672302 9:0.53125 10:0.1736111044883728 11:-0.030281739309430122 12:0.9995414018630981 13:0.53125 14:0.2916666567325592 15:0.0 16:1.0 17:0.53125 18:0.4097222089767456 19:-0.2558925449848175 20:0.9667052626609802 21:0.46875 22:0.5277777910232544 23:-0.33282235264778137 24:0.9429894685745239 25:0.44791603088378906 26:0.6458333134651184 27:-0.25589263439178467 28:0.9667052030563354 29:0.40625 30:0.7638888359069824 31:-0.17378276586532593 32:0.9847840070724487 33:0.40625 34:0.8819444179534912 35:0.0 36:1.0 37:0.40625 38:1.0 39:0.0 40:1.0 41:0.03125 42:0.625 43:1.0 44:0.0 45:0.15625 46:0.625 47:1.0 48:0.0 49:0.28125 50:0.625 51:0.9701425433158875 52:-0.24253563582897186 53:0.40625 54:0.5625 55:0.9805806875228882 56:-0.1961161345243454 57:0.59375 58:0.5625 59:1.0 60:0.0 61:0.71875 62:0.5625 63:1.0 64:0.0 65:0.84375 66:0.5625 67:0.9486832618713379 68:0.3162277638912201 69:0.90625 70:0.625 71:1.0 72:0.0 73:0.96875 74:0.5625 75:0.7071067690849304 76:-0.7071067690849304 77:0.96875 78:0.5625 79:0.0 80:0.0 
-0.0 0.0 0.0 0.0 0.0 1.1663979183953153 0.1461383696527053 0.0 1:0.45945945382118225 2:0.024324340745806694 3:0.9578262567520142 4:-0.2873478829860687 5:0.5135135054588318 6:0.008108125999569893 7:0.7071284651756287 8:-0.7070850729942322 9:0.48108240962028503 10:0.0027027130126953125 11:-0.6401844620704651 12:0.7682213187217712 13:0.45945945382118225 14:0.07297298312187195 15:-0.07975012063980103 16:0.9968147873878479 17:0.45945945382118225 18:0.2729729413986206 19:0.0 20:1.0 21:0.45945945382118225 22:0.45675674080848694 23:0.0 24:1.0 25:0.45945945382118225 26:0.6405404806137085 27:0.0 28:1.0 29:0.45945945382118225 30:0.7918918132781982 31:0.0 32:1.0 33:0.45945945382118225 34:0.9324323534965515 35:0.18115778267383575 36:0.9834539890289307 37:0.4972963035106659 38:0.9972972869873047 39:0.0 40:-1.0 41:0.45945945382118225 42:0.8891891837120056 43:-0.33034273982048035 44:-0.9438610672950745 45:0.027027027681469917 46:0.5108107924461365 47:-0.8944272994995117 48:-0.44721338152885437 49:0.0 50:0.4972972869873047 51:0.8320503234863281 52:-0.5547001361846924 53:0.10810811072587967 54:0.45675674080848694 55:0.9877628684043884 56:-0.15596258640289307 57:0.2567567527294159 58:0.45675674080848694 59:1.0 60:0.0 61:0.45945945382118225 62:0.45675674080848694 63:1.0 64:0.0 65:0.6486486196517944 66:0.45675674080848694 67:1.0 68:0.0 69:0.7837837934494019 70:0.45675674080848694 71:1.0 72:0.0 73:0.9189189076423645 74:0.45675674080848694 75:1.0 76:0.0 77:1.0 78:0.45675674080848694 79:1.0 80:0.0 
-1.0204736605590177 1.940929044085853 1.4366136012525643 0.0 0.913023564376951 2.5822498491063812 0.9741707534708328 0.8300398371767826 1:0.5411471128463745 2:0.06733167916536331 3:-0.3713896870613098 4:-0.9284769892692566 5:0.5336658358573914 6:0.04862843081355095 7:-0.15596213936805725 8:-0.987762987613678 9:0.5336658358573914 10:0.019950125366449356 11:0.07669690251350403 12:-0.9970545172691345 13:0.5374065041542053 14:0.0 15:0.6507919430732727 16:-0.7592560648918152 17:0.5486284494400024 18:0.0024937705602496862 19:0.07239020615816116 20:0.9973763823509216 21:0.5486284494400024 22:0.15461349487304688 23:0.07369076460599899 24:0.9972811341285706 25:0.5860349535942078 26:0.5087282061576843 27:0.009399866685271263 28:0.9999557733535767 29:0.5548640489578247 30:0.8179552555084229 31:-0.08213913440704346 32:0.9966208934783936 33:0.5486284494400024 34:0.9625934958457947 35:-0.03595481067895889 36:0.9993534684181213 37:0.5486284494400024 38:0.9912719130516052 39:-0.19611704349517822 40:0.9805805683135986 41:0.5411471128463745 42:1.0 43:-0.675709068775177 44:-0.7371684312820435 45:0.5349133014678955 46:0.9763092994689941 47:0.2918071448802948 48:-0.956477165222168 49:0.5860349535942078 50:0.8528679013252258 51:0.3826230764389038 52:-0.9239045977592468 53:0.1970074474811554 54:0.47880303859710693 55:-0.9701424837112427 56:-0.24253568053245544 57:0.07730668783187866 58:0.44887784123420715 59:0.9954954385757446 60:-0.09480921179056168 61:0.35411468148231506 62:0.46384042501449585 63:0.9954954981803894 64:-0.09480912238359451 65:0.7057356834411621 66:0.3890274465084076 67:0.9685830473899841 68:-0.24869021773338318 69:0.9077306985855103 70:0.3216957747936249 71:0.9535826444625854 72:-0.3011312782764435 73:0.9189527034759521 74:0.3216957747936249 75:0.4472143054008484 76:-0.8944268226623535 77:0.9226933121681213 78:0.2917706072330475 79:0.12403351813554764 80:-0.9922780394554138 
-0.0 0.9446558375746691 0.0 0.0 0.0 0.0 0.0 0.0 1:0.4049456715583801 2:0.0 3:0.07124970108270645 4:0.9974585175514221 5:0.4075148105621338 6:0.035966601222753525 7:0.03817981854081154 8:0.9992709159851074 9:0.4123319983482361 10:0.19332049787044525 11:0.01228758879005909 12:0.9999244809150696 13:0.4116899073123932 14:0.3757225573062897 15:0.022434448823332787 16:0.9997482895851135 17:0.42035970091819763 18:0.5510597229003906 19:0.06991913169622421 20:0.9975526928901672 21:0.43577373027801514 22:0.7193320989608765 23:0.08154789358377457 24:0.9966694116592407 25:0.44637197256088257 26:0.8689788579940796 27:0.05019623041152954 28:0.9987394213676453 29:0.44829827547073364 30:0.968529224395752 31:0.012251090258359909 32:0.9999249577522278 33:0.4479772448539734 34:1.0 35:-0.09145177155733109 36:0.9958094954490662 37:0.4454081058502197 38:1.0 39:-1.0 40:0.0 41:0.07546591758728027 42:0.6098265647888184 43:0.9486843347549438 44:-0.3162246644496918 45:0.1062946692109108 46:0.5995504260063171 47:0.9447916150093079 48:-0.3276718258857727 49:0.18657740950584412 50:0.5712909698486328 51:0.9653218984603882 52:-0.26106253266334534 53:0.3105331063270569 54:0.5443159937858582 55:0.989014208316803 56:-0.1478205770254135 57:0.48522844910621643 58:0.5266538262367249 59:0.9975319504737854 60:-0.07021472603082657 61:0.7074500322341919 62:0.5163776278495789 63:0.9991814494132996 64:-0.040452759712934494 65:0.881824254989624 66:0.510597288608551 67:0.9993609189987183 68:-0.035744559019804 69:0.9229288101196289 70:0.5086705088615417 71:0.9986177682876587 72:-0.052559856325387955 73:0.9245340824127197 74:0.5083493590354919 75:-0.7739399075508118 76:-0.6332591772079468 77:0.9193965792655945 78:0.5057803392410278 79:-0.8944084644317627 80:-0.44725093245506287 
-1.4375280842022038 0.285785434131644 0.0 0.7677123784461829 0.0 0.0 1.5838768587756193 0.0 1:0.5758426785469055 2:0.1488763988018036 3:-0.13819599151611328 4:0.9904049038887024 5:0.567415714263916 6:0.2092696577310562 7:-0.05546984076499939 8:0.9984603524208069 9:0.5660112500190735 10:0.3258426785469055 11:-0.04920140653848648 12:0.9987888336181641 13:0.5533707737922668 14:0.49438202381134033 15:-0.05086010694503784 16:0.9987058043479919 17:0.550561785697937 18:0.6292134523391724 19:-0.049390073865652084 20:0.9987796545028687 21:0.540730357170105 22:0.75 23:-0.1296650469303131 24:0.9915578365325928 25:0.5266854166984558 26:0.8117977380752563 27:-0.2940857708454132 28:0.9557790160179138 29:0.5126404762268066 30:0.841292142868042 31:-0.47222191095352173 32:0.8814796805381775 33:0.5056179761886597 34:0.851123571395874 35:0.9333449006080627 36:-0.3589809238910675 37:0.5308988690376282 38:0.834269642829895 39:0.8320503234863281 40:-0.5547001957893372 41:0.0 42:0.5014044642448425 43:0.9938836097717285 44:0.11043266206979752 45:0.05056179687380791 46:0.507022500038147 47:0.9984603524208069 48:0.0554703027009964 49:0.20224718749523163 50:0.5126404762268066 51:0.998792827129364 52:0.0491209477186203 53:0.3932584226131439 54:0.523876428604126 55:0.9995269179344177 56:0.030754538252949715 57:0.658707857131958 58:0.526685357093811 59:0.9999949932098389 60:0.0031746537424623966 61:0.8356741666793823 62:0.5252809524536133 63:0.9999589920043945 64:-0.009049207903444767 65:0.9691011309623718 66:0.523876428604126 67:0.9999634623527527 68:-0.008546875789761543 69:1.0 70:0.523876428604126 71:0.9980524778366089 72:0.06237960234284401 73:0.9915730357170105 74:0.5252809524536133 75:-0.986393928527832 76:0.16439899802207947 77:0.966292142868042 78:0.5294944047927856 79:-0.9863941073417664 80:0.16439785063266754 
-0.0 0.23172272331424593 0.0 2.887058713860188 0.0 0.0 2.266919835859317 0.8864199163428153 1:0.5777778029441833 2:0.0 3:-0.3162333071231842 4:0.9486814141273499 5:0.5622219443321228 6:0.04666666314005852 7:-0.23463979363441467 8:0.9720824956893921 9:0.5466668009757996 10:0.12888887524604797 11:-0.17784182727336884 12:0.9840590357780457 13:0.5288886427879333 14:0.23111110925674438 15:-0.2849717140197754 16:0.9585359692573547 17:0.49777764081954956 18:0.2933333218097687 19:-0.3905485272407532 20:0.9205824136734009 21:0.46666666865348816 22:0.3777777850627899 23:-0.3615269362926483 24:0.9323616623878479 25:0.4133334755897522 26:0.5111110210418701 27:-0.4045945703983307 28:0.914496123790741 29:0.30444473028182983 30:0.7444444298744202 31:-0.4128885865211487 32:0.9107815027236938 33:0.26222196221351624 34:0.8444444537162781 35:-0.3813328146934509 36:0.9244377613067627 37:0.23111097514629364 38:0.9222221970558167 39:-0.37138932943344116 40:0.9284771680831909 41:0.20000000298023224 42:1.0 43:-0.37138915061950684 44:0.9284772872924805 45:0.0 46:0.4888888895511627 47:1.0 48:0.0 49:0.02777777798473835 50:0.4888888895511627 51:1.0 52:0.0 53:0.07777778059244156 54:0.4888888895511627 55:1.0 56:0.0 57:0.16111111640930176 58:0.4888888895511627 59:1.0 60:0.0 61:0.25555557012557983 62:0.4888888895511627 63:1.0 64:0.0 65:0.35277777910232544 66:0.4888888895511627 67:1.0 68:0.0 69:0.44999998807907104 70:0.4888888895511627 71:0.9996769428253174 72:-0.025415489450097084 73:0.6805555820465088 74:0.48055556416511536 75:0.9991847276687622 76:-0.04037109762430191 77:1.0 78:0.46666666865348816 79:0.9990561008453369 80:-0.04343724623322487 
-0.0 0.1713563344691322 4.0 2.2849721998880472 1.1924232392988152 0.9341301640484514 1.304476215389934 1.4116082367656333 1:0.6037735939025879 2:0.1037735864520073 3:0.0 4:-1.0 5:0.6037735939025879 6:0.08490566909313202 7:0.0 8:-1.0 9:0.6037735939025879 10:0.047169819474220276 11:0.0 12:-1.0 13:0.6037735939025879 14:0.028301894664764404 15:0.0 16:0.0 17:0.6037735939025879 18:0.047169819474220276 19:0.0 20:1.0 21:0.6037735939025879 22:0.2924528419971466 23:0.0 24:1.0 25:0.6037735939025879 26:0.40566039085388184 27:-0.08304542303085327 28:0.9965457916259766 29:0.5849056839942932 30:0.5188679099082947 31:-0.2248595654964447 32:0.9743911027908325 33:0.5471698045730591 34:0.650943398475647 35:-0.25766265392303467 36:0.9662349820137024 37:0.5094339847564697 38:0.801886796951294 39:-0.29408586025238037 40:0.955778956413269 41:0.4716981053352356 42:0.8962264060974121 43:-0.4061386287212372 44:0.913811445236206 45:0.43396225571632385 46:0.9716981053352356 47:-0.44721361994743347 48:0.8944272398948669 49:0.0 50:0.5188679099082947 51:1.0 52:0.0 53:0.03773584961891174 54:0.5188679099082947 55:1.0 56:0.0 57:0.07547169923782349 58:0.5188679099082947 59:1.0 60:0.0 61:0.1320754736661911 62:0.5188679099082947 63:1.0 64:0.0 65:0.24528302252292633 66:0.5188679099082947 67:1.0 68:0.0 69:0.6415094137191772 70:0.5188679099082947 71:0.9994060397148132 72:-0.034462250769138336 73:0.7924528121948242 74:0.5 75:0.987762987613678 76:-0.1559625267982483 77:1.0 78:0.46226415038108826 79:0.9838699102401733 80:-0.17888543009757996 
-3.0417763666058697 1.3092729891653974 0.7192011410867306 0.6382767739776318 0.0 2.214352729612006 0.8407534133254545 0.13761750397907757 1:0.0841466411948204 2:0.5121951103210449 3:-1.0 4:0.0 5:0.06219482421875 6:0.5121951103210449 7:-1.0 8:0.0 9:0.07926829159259796 10:0.5121951103210449 11:1.0 12:0.0 13:0.1353663057088852 14:0.5121951103210449 15:1.0 16:0.0 17:0.2304881066083908 18:0.5121951103210449 19:1.0 20:0.0 21:0.31585395336151123 22:0.5121951103210449 23:0.9988123178482056 24:-0.04872243106365204 25:0.4304884076118469 26:0.502439022064209 27:0.9940857887268066 28:-0.10859756171703339 29:0.6060976982116699 30:0.4804878234863281 31:0.9918357133865356 32:-0.12752178311347961 33:0.7719518542289734 34:0.4585365653038025 35:0.988564670085907 36:-0.15079772472381592 37:0.8939030170440674 38:0.436585396528244 39:0.9667051434516907 40:-0.2558929920196533 41:0.93780517578125 42:0.4146341383457184 43:0.8944256901741028 44:-0.4472165107727051 45:0.523171067237854 46:0.0 47:0.0 48:1.0 49:0.523171067237854 50:0.0731707289814949 51:0.0 52:1.0 53:0.523171067237854 54:0.19512194395065308 55:0.0 56:1.0 57:0.523171067237854 58:0.24390244483947754 59:0.0 60:1.0 61:0.523171067237854 62:0.4146341383457184 63:0.0 64:1.0 65:0.523171067237854 66:0.5121951103210449 67:0.0 68:1.0 69:0.523171067237854 70:0.7317073345184326 71:0.0 72:1.0 73:0.523171067237854 74:0.8780487775802612 75:0.0 76:1.0 77:0.523171067237854 78:1.0 79:0.0 80:1.0 
-1.2414604377517593 1.0138249477108112 0.0 0.0 0.0 2.2149938338530464 0.0 0.0 1:0.539393961429596 2:0.11649832129478455 3:-0.5480228662490845 4:-0.8364633917808533 5:0.5265994668006897 6:0.09696970880031586 7:-0.5755113959312439 8:-0.8177937269210815 9:0.5138035416603088 10:0.08013468980789185 11:-0.8027453422546387 12:0.5963220000267029 13:0.5030303001403809 14:0.11447814106941223 15:-0.13277862966060638 16:0.9911457300186157 17:0.47609493136405945 18:0.36161619424819946 19:-0.08510340005159378 20:0.9963721036911011 21:0.45925959944725037 22:0.6269359588623047 23:-0.077909454703331 24:0.996960461139679 25:0.4363636374473572 26:0.8700336813926697 27:-0.09837223589420319 28:0.9951497316360474 29:0.43030303716659546 30:0.9198653101921082 31:-0.5943964123725891 32:-0.804172158241272 33:0.4249156713485718 34:0.8545454740524292 35:-0.16639740765094757 36:-0.98605877161026 37:0.39393940567970276 38:0.7043771147727966 39:-0.20202361047267914 40:-0.9793806672096252 41:0.0 42:0.41952863335609436 43:0.7071062922477722 44:-0.7071073651313782 45:0.024242423474788666 46:0.3952861726284027 47:0.8682430982589722 48:-0.4961390495300293 49:0.08484848588705063 50:0.37104377150535583 51:1.0 52:0.0 53:0.28484848141670227 54:0.3952861726284027 55:0.9882102012634277 56:0.15310297906398773 57:0.5151515007019043 58:0.4377104341983795 59:0.9926851391792297 60:0.12073198705911636 61:0.7333333492279053 62:0.44983163475990295 63:0.9973075985908508 64:0.07333143800497055 65:0.9272727370262146 66:0.4680134654045105 67:0.9987522959709167 68:0.04993768781423569 69:0.9757575988769531 70:0.4619528651237488 71:0.9363291263580322 72:-0.351123571395874 73:0.9757575988769531 74:0.44983163475990295 75:0.5546998977661133 76:-0.8320505023002625 77:1.0 78:0.4255892336368561 79:0.7071067690849304 80:-0.7071067690849304 
-0.0 0.0 0.0 0.0 0.0 1.2430173513615628 0.7724966654232082 0.0 1:0.44285714626312256 2:0.12142857909202576 3:0.0 4:1.0 5:0.44285714626312256 6:0.19285714626312256 7:0.0 8:1.0 9:0.44285714626312256 10:0.26428574323654175 11:0.0 12:1.0 13:0.44285714626312256 14:0.4642857313156128 15:0.0 16:1.0 17:0.44285714626312256 18:0.5785714387893677 19:0.09950372576713562 20:0.9950372576713562 21:0.4714285731315613 22:0.75 23:0.11043154448270798 24:0.9938836693763733 25:0.4714285731315613 26:0.8357142210006714 27:0.11043154448270798 28:0.9938836693763733 29:0.48571428656578064 30:0.8785713911056519 31:0.0 32:1.0 33:0.4714285731315613 34:0.8642857074737549 35:-0.7071075439453125 36:-0.7071060538291931 37:0.014285714365541935 38:0.5499999523162842 39:-1.0 40:0.0 41:0.0 42:0.5499999523162842 43:1.0 44:0.0 45:0.04285714402794838 46:0.5499999523162842 47:1.0 48:0.0 49:0.18571428954601288 50:0.5499999523162842 51:1.0 52:0.0 53:0.30000001192092896 54:0.5499999523162842 55:0.9962406158447266 56:-0.08662942796945572 57:0.5142857432365417 58:0.5214285850524902 59:0.9970544576644897 60:-0.07669633626937866 61:0.6714285612106323 62:0.5214285850524902 63:0.9958932399749756 64:-0.09053575247526169 65:0.8285714387893677 66:0.4928571581840515 67:0.9938837885856628 68:-0.11043153703212738 69:0.9285714030265808 70:0.4928571581840515 71:0.9965457320213318 72:0.08304565399885178 73:1.0 74:0.5071429014205933 75:0.8944272398948669 76:0.44721361994743347 77:0.9857142567634583 78:0.5214285850524902 79:-0.7071082592010498 80:0.707105278968811 
-0.0 1.2209082487903933 0.0 4.0 1.0144772842895968 0.07338553593372077 4.0 1.6496271493691124 1:0.6428571343421936 2:2.9802322387695312E-8 3:0.0 4:1.0 5:0.6428571343421936 6:0.08441560715436935 7:-0.15206168591976166 8:0.9883710741996765 9:0.61688232421875 10:0.16883118450641632 11:-0.3896399140357971 12:0.9209673404693604 13:0.5714285969734192 14:0.2532467544078827 15:-0.2599691152572632 16:0.9656169414520264 17:0.5714285969734192 18:0.33766233921051025 19:0.0 20:1.0 21:0.5714285969734192 22:0.48701295256614685 23:0.0 24:1.0 25:0.5714285969734192 26:0.5779221057891846 27:0.0 28:1.0 29:0.5714285969734192 30:0.6623376607894897 31:0.0 32:1.0 33:0.5714285969734192 34:0.7467532157897949 35:0.0 36:1.0 37:0.5714285969734192 38:0.8311687707901001 39:0.0 40:1.0 41:0.5714285969734192 42:0.9155844449996948 43:0.3896397054195404 44:0.9209673404693604 45:0.6428571343421936 46:1.0 47:0.645942211151123 48:0.7633863091468811 49:0.0 50:0.5 51:0.7893503308296204 52:0.6139430403709412 53:0.0918361097574234 54:0.5714285373687744 55:0.932003915309906 56:0.36244824528694153 57:0.1836722195148468 58:0.5714285373687744 59:1.0 60:0.0 61:0.3367353081703186 62:0.5714285373687744 63:1.0 64:0.0 65:0.4489789605140686 66:0.5714285373687744 67:1.0 68:0.0 69:0.6020420789718628 70:0.5714285373687744 71:0.9918816089630127 72:-0.12716464698314667 73:0.8469368815422058 74:0.5204081535339355 75:0.9842711091041565 76:-0.1766645312309265 77:1.0 78:0.5 79:0.9912281632423401 80:-0.13216204941272736 
-1.2701577440494303 0.0 0.0 0.0 0.0 2.401752113826374 0.0 0.0 1:0.3333333432674408 2:0.0 3:0.0 4:1.0 5:0.3333333432674408 6:0.12037036567926407 7:0.0 8:1.0 9:0.3333333432674408 10:0.24074073135852814 11:0.0 12:1.0 13:0.3333333432674408 14:0.3611110746860504 15:0.0 16:1.0 17:0.3333333432674408 18:0.4814814627170563 19:0.0 20:1.0 21:0.3333333432674408 22:0.6018518805503845 23:0.0 24:1.0 25:0.3333333432674408 26:0.7222221493721008 27:0.0 28:1.0 29:0.3333333432674408 30:0.8425925374031067 31:0.2316150665283203 32:0.9728075265884399 33:0.3796285092830658 34:0.9166666865348816 35:0.46788763999938965 36:0.883787989616394 37:0.4166666865348816 38:1.0 39:0.4061489701271057 40:0.9138067960739136 41:0.0833333432674408 42:0.4166666567325592 43:0.3162102997303009 44:0.9486891031265259 45:0.1111094206571579 46:0.5 47:0.8574956655502319 48:0.5144912004470825 49:0.2222239226102829 50:0.5 51:1.0 52:0.0 53:0.3333333432674408 54:0.5 55:1.0 56:0.0 57:0.4444478154182434 58:0.5 59:1.0 60:0.0 61:0.5555521845817566 62:0.5 63:1.0 64:0.0 65:0.6666666269302368 66:0.5 67:0.9899498224258423 68:-0.1414191722869873 69:0.75 70:0.4722221791744232 71:0.8574873805046082 72:-0.5145050287246704 73:0.8055521249771118 74:0.4166666567325592 75:0.9486833810806274 76:-0.31622767448425293 77:0.9166666269302368 78:0.4166666567325592 79:1.0 80:0.0 
-1.9236109144222888 1.5361024575012414 4.0 0.750212930064067 3.927641103735787 3.6759890673802724 3.4853281548679553 1.258734189711001 1:0.09259259700775146 2:0.40740740299224854 3:1.0 4:0.0 5:0.14197540283203125 6:0.40740740299224854 7:0.9805805683135986 8:0.19611653685569763 9:0.2160491943359375 10:0.43209877610206604 11:0.9647637009620667 12:0.26311758160591125 13:0.2777777910232544 14:0.4444444477558136 15:0.9982743263244629 16:0.058721937239170074 17:0.4259259104728699 18:0.4444444477558136 19:0.9970544576644897 20:-0.0766965001821518 21:0.5987656116485596 22:0.4197530746459961 23:0.9899495244026184 24:-0.141421377658844 25:0.6851851940155029 26:0.40740740299224854 27:0.9761870503425598 28:-0.21693047881126404 29:0.8209878206253052 30:0.37037035822868347 31:0.9847835898399353 32:-0.1737852394580841 33:0.8950619101524353 34:0.37037035822868347 35:0.919144868850708 36:-0.39391976594924927 37:0.9074074029922485 38:0.3333333432674408 39:0.3162236213684082 40:-0.9486846327781677 41:0.5740740299224854 42:0.0 43:0.0 44:1.0 45:0.5740740299224854 46:0.04938271641731262 47:0.0 48:1.0 49:0.5740740299224854 50:0.09876543283462524 51:0.0 52:1.0 53:0.5740740299224854 54:0.25925925374031067 55:-0.12403466552495956 56:0.9922779202461243 57:0.5370370149612427 58:0.395061731338501 59:-0.11914511770009995 60:0.9928768277168274 61:0.5370370149612427 62:0.5679013133049011 63:0.0 64:1.0 65:0.5370370149612427 66:0.7407407164573669 67:-0.11914514750242233 68:0.9928768277168274 69:0.5 70:0.8765432834625244 71:-0.17378517985343933 72:0.9847835302352905 73:0.5 74:0.9506173133850098 75:0.0 76:1.0 77:0.5 78:1.0 79:0.0 80:1.0 
-0.1621360926117505 -1.0818601531222498 2.677493999882443 0.6896634165129464 1.7988654632678072 1.259814426882549 1.8466090324447197 3.433556800146762 1:0.3103448152542114 2:0.2068965584039688 3:0.47885245084762573 4:0.8778954148292542 5:0.3448275923728943 6:0.270114928483963 7:0.9958933591842651 8:0.09053520113229752 9:0.4367823302745819 10:0.2183908075094223 11:0.678280234336853 12:-0.7348034381866455 13:0.48275864124298096 14:0.12068965286016464 15:0.0 16:-1.0 17:0.4367823302745819 18:0.06896551698446274 19:-0.9965458512306213 20:-0.0830456092953682 21:0.3448275923728943 22:0.10919538140296936 23:-0.7739591002464294 24:0.6332356333732605 25:0.3103448152542114 26:0.17241379618644714 27:-0.47885221242904663 28:0.8778955936431885 29:0.8275861740112305 30:0.0 31:-0.5999999642372131 32:0.800000011920929 33:0.7241379022598267 34:0.13793103396892548 35:-0.5734622478485107 36:0.8192319869995117 37:0.5862069129943848 38:0.3448275923728943 39:-0.47058820724487305 40:0.8823529481887817 41:0.4482758641242981 42:0.6551724076271057 43:-0.4902612566947937 44:0.8715754747390747 45:0.27586206793785095 46:0.8965517282485962 47:-0.6246950626373291 48:0.7808688282966614 49:0.17241379618644714 50:1.0 51:-0.7071067690849304 52:0.7071067690849304 53:0.5862069129943848 54:0.5862069129943848 55:0.9670741558074951 56:-0.25449472665786743 57:0.6954019069671631 58:0.5574712157249451 59:0.877895176410675 60:0.47885292768478394 61:0.7126433849334717 62:0.6551724076271057 63:-0.25997108221054077 64:0.9656164050102234 65:0.6551724076271057 66:0.7068965435028076 67:-0.9578264951705933 68:0.28734713792800903 69:0.5977004766464233 70:0.6896551847457886 71:-0.33034756779670715 72:-0.9438593983650208 73:0.6149429082870483 74:0.5919539928436279 75:0.5913655757904053 76:-0.806403636932373 77:0.7241379022598267 78:0.517241358757019 79:0.8253063559532166 80:-0.5646853446960449 
-0.6728502089352972 -1.3569443458607078 3.5504574006682854 1.3273881428109715 2.534968705938233 3.7341109502235392 1.3673825862309277 1.6752208630274437 1:0.38999998569488525 2:0.11999999731779099 3:-0.6000000238418579 4:-0.7999999523162842 5:0.32999998331069946 6:0.03999999910593033 7:-0.9284766912460327 8:-0.3713906705379486 9:0.18999998271465302 10:0.03999999910593033 11:-0.8944272398948669 12:0.44721361994743347 13:0.16999998688697815 14:0.11999999731779099 15:0.8320503234863281 16:0.5547001361846924 17:0.3100000023841858 18:0.11999999731779099 19:0.986393928527832 20:-0.16439898312091827 21:0.4099999964237213 22:0.07999999821186066 23:0.8574928641319275 24:-0.5144957304000854 25:0.5099999904632568 26:0.0 27:0.7808688282966614 28:-0.6246951222419739 29:0.75 30:0.03999999910593033 31:-0.46788787841796875 32:0.8837878108024597 33:0.6599999666213989 34:0.20999999344348907 35:-0.5547001957893372 36:0.8320503234863281 37:0.4699999988079071 38:0.46000000834465027 39:-0.5734623074531555 40:0.8192319273948669 41:0.3100000023841858 42:0.7099999785423279 43:-0.5199469923973083 44:0.8541985154151917 45:0.18999998271465302 46:0.9200000166893005 47:-0.49613893032073975 48:0.8682430982589722 49:0.6299999952316284 50:0.7200000286102295 51:-0.6357075572013855 52:0.771929919719696 53:0.5499999523162842 54:0.8171428442001343 55:-0.5254929661750793 56:0.8507980108261108 57:0.5099999904632568 58:0.9142857193946838 59:0.062376465648412704 60:0.9980527758598328 61:0.5614281892776489 62:1.0 63:0.9570246934890747 64:0.2900065779685974 65:0.6985718011856079 66:0.9714285135269165 67:0.9363293647766113 68:-0.35112297534942627 69:0.7899999618530273 70:0.9142857193946838 71:0.648465633392334 72:-0.7612439393997192 73:0.8300000429153442 74:0.8171428442001343 75:-0.20165276527404785 76:-0.9794570803642273 77:0.75 78:0.7200000286102295 79:-0.6357075572013855 80:-0.771929919719696 
-1.2483733486377266 -1.7255546980331673 1.0880275143542337 0.9452428523537977 0.2879071513192436 2.936402609808809 1.2927960711037254 0.0 1:0.5742573738098145 2:0.0 3:-0.8192318677902222 4:0.5734624266624451 5:0.3762376010417938 6:0.13861386477947235 7:-0.8192318677902222 8:0.5734624266624451 9:0.3762376010417938 10:0.13861386477947235 11:-0.22082556784152985 12:0.9753133058547974 13:0.3366336524486542 14:0.31353136897087097 15:0.8804710507392883 16:0.47409990429878235 17:0.46204614639282227 18:0.18481847643852234 19:0.0 20:-1.0 21:0.3366336524486542 22:0.1782178282737732 23:-0.9986178278923035 24:-0.05255875736474991 25:0.3366336524486542 26:0.1782178282737732 27:1.0 28:0.0 29:0.5247524976730347 30:0.1782178282737732 31:0.999687671661377 32:0.024992182850837708 33:0.7326732873916626 34:0.1881188154220581 35:0.9988681674003601 36:0.04756513610482216 37:0.7326732873916626 38:0.1881188154220581 39:-0.558376669883728 40:0.8295875787734985 41:0.6171616315841675 42:0.35973599553108215 43:-0.5268679261207581 44:0.8499471545219421 45:0.38283824920654297 46:0.7524752616882324 47:-0.47948578000068665 48:0.8775496482849121 49:0.2673267126083374 50:1.0 51:-0.4228854477405548 52:0.9061831831932068 53:0.2673267126083374 54:0.9900990128517151 55:0.6585045456886292 56:-0.7525767087936401 57:0.6138613224029541 58:0.594059407711029 59:0.6585045456886292 60:-0.7525767087936401 61:0.6138613224029541 62:0.594059407711029 63:-0.16148826479911804 64:0.9868746399879456 65:0.5841584205627441 66:0.7755774855613708 67:0.7270135879516602 68:0.6866230964660645 69:0.7326732873916626 70:0.7062705755233765 71:0.4594229459762573 72:-0.888217568397522 73:0.6831682920455933 74:0.5841584205627441 75:-0.3757055401802063 76:-0.9267390966415405 77:0.6237623691558838 78:0.5544554591178894 79:0.0 80:0.0 
-1.0075463393118271 -2.4282898634596 0.022836583703546486 1.3971979714048546 0.49060227631310094 1.6445323313192488 2.5531454948732013 0.5345004489399915 1:0.6741071939468384 2:0.0 3:-0.5368748307228088 4:0.8436618447303772 5:0.5907739996910095 6:0.1309523731470108 7:-0.4740992486476898 8:0.8804714679718018 9:0.5074408054351807 10:0.3095237910747528 11:-0.5421271324157715 12:0.8402964472770691 13:0.3526785671710968 14:0.5 15:-0.5225626230239868 16:0.8526009321212769 17:0.28125 18:0.6785714030265808 19:-0.2707456052303314 20:0.9626508951187134 21:0.2455357015132904 22:0.8809523582458496 23:0.0 24:1.0 25:0.28125 26:1.0 27:0.2873479425907135 28:0.9578263163566589 29:0.209821417927742 30:0.1071428582072258 31:-0.24253565073013306 32:0.9701425433158875 33:0.1830357015132904 34:0.2142857164144516 35:0.7071067690849304 36:0.7071067094802856 37:0.2991071343421936 38:0.1964285671710968 39:0.7071068286895752 40:-0.7071067690849304 41:0.2901785671710968 42:0.1071428582072258 43:-0.14142130315303802 44:-0.9899495244026184 45:0.28125 46:0.0714285746216774 47:-0.2425355166196823 48:-0.9701424837112427 49:0.6383928656578064 50:0.6428571343421936 51:-0.08662701398134232 52:0.9962407946586609 53:0.6281890869140625 54:0.7602041363716125 55:-0.15044216811656952 56:0.988618791103363 57:0.6026785373687744 58:0.8775510191917419 59:0.2355993688106537 60:0.9718502163887024 61:0.669005274772644 62:0.9285714030265808 63:0.9983713626861572 64:0.05704975500702858 65:0.78125 66:0.8877550959587097 67:0.6831566691398621 68:-0.7302718162536621 69:0.8169642686843872 70:0.7704081535339355 71:0.0487208217382431 72:-0.9988124370574951 73:0.7914537191390991 74:0.6785714030265808 75:-0.5486562848091125 76:-0.8360480070114136 77:0.7098214626312256 78:0.6071428656578064 79:-0.7525752186775208 80:-0.6585062146186829 
-0.11566253474233433 -0.0 0.0 0.0 0.0 0.0 0.20635740132684108 0.0 1:0.31578946113586426 2:0.0 3:-0.7071028351783752 4:0.7071107029914856 5:0.23308362066745758 6:0.0827067643404007 7:-0.6904757618904114 8:0.7233555316925049 9:0.15789473056793213 10:0.1654135286808014 11:0.0 12:1.0 13:0.23308362066745758 14:0.21052631735801697 15:0.9912278652191162 16:0.13216406106948853 17:0.3834581971168518 18:0.19548873603343964 19:0.9221930503845215 20:-0.3867298662662506 21:0.4661640226840973 22:0.11278197914361954 23:0.09053289890289307 24:-0.9958934783935547 25:0.39849531650543213 26:0.03007517382502556 27:-0.7999973297119141 28:-0.6000036001205444 29:0.31578946113586426 30:0.0 31:-0.9397923350334167 32:-0.3417462706565857 33:0.6315789222717285 34:0.21052631735801697 35:-0.44721466302871704 36:0.8944266438484192 37:0.45613983273506165 38:0.5614034533500671 39:-0.47885215282440186 40:0.8778955340385437 41:0.31578946113586426 42:0.7894736528396606 43:-0.40273767709732056 44:0.9153155088424683 45:0.2631579041481018 46:1.0 47:-0.24253550171852112 48:0.9701425433158875 49:0.6842105388641357 50:0.6842105388641357 51:-0.3807500898838043 52:0.9246780276298523 53:0.6315789222717285 54:0.8120300769805908 55:-0.2509623169898987 56:0.9679968357086182 57:0.6315789222717285 58:0.8872180581092834 59:0.24254094064235687 60:0.9701411724090576 61:0.6616548299789429 62:0.9323309063911438 63:0.9863940477371216 64:-0.16439852118492126 65:0.8120309710502625 66:0.8571428060531616 67:0.7682199478149414 68:-0.640186071395874 69:0.8421052694320679 70:0.7819548845291138 71:-1.0702016879804432E-5 72:-1.0 73:0.8120293617248535 74:0.7067669034004211 75:-0.7327935695648193 76:-0.680450975894928 77:0.7368420958518982 78:0.6842105388641357 79:-0.9578256011009216 80:-0.28735002875328064 
-0.0 -0.0 1.8680992360614355 0.0 0.3106811320495734 0.432134156392557 0.09892776868308126 1.1279622229203714 1:0.3509315848350525 2:0.1304347813129425 3:-0.8221927881240845 4:0.569209098815918 5:0.27018606662750244 6:0.18633539974689484 7:-0.41380220651626587 8:0.9103667736053467 9:0.25776407122612 10:0.3354037404060364 11:0.6206998229026794 12:0.784048318862915 13:0.38819754123687744 14:0.3354037404060364 15:0.9715203642845154 16:-0.23695607483386993 17:0.5124226808547974 18:0.2732919156551361 19:0.6139442920684814 20:-0.7893493175506592 21:0.5186336040496826 22:0.1677018404006958 23:-0.3644048273563385 24:-0.9312406778335571 25:0.45652109384536743 26:0.1304347813129425 27:-0.9761871695518494 28:-0.21693015098571777 29:0.3509315848350525 30:0.1304347813129425 31:-1.0 32:0.0 33:0.6552793979644775 34:0.0 35:-0.2524218261241913 36:0.9676172733306885 37:0.5900620222091675 38:0.25 39:-0.3250797688961029 40:0.9456865787506104 41:0.41614896059036255 42:0.695652186870575 43:-0.41036465764045715 44:0.911921501159668 45:0.29658377170562744 46:0.9021739363670349 47:-0.5038710236549377 48:0.8637789487838745 49:0.26397505402565 50:0.95652174949646 51:-0.5144960880279541 52:0.8574926853179932 53:0.6552793979644775 54:0.739130437374115 55:-0.6246979832649231 56:0.7808665037155151 57:0.5393365025520325 58:0.8840579390525818 59:-0.4061410129070282 60:0.9138104319572449 61:0.5393365025520325 62:1.0 63:0.8479999899864197 64:0.5299963355064392 65:0.6552793979644775 66:0.95652174949646 67:0.732795000076294 68:-0.6804494857788086 69:0.7422358989715576 70:0.8115942478179932 71:0.0 72:-1.0 73:0.6552793979644775 74:0.782608687877655 75:-0.9977851510047913 76:0.06651873886585236 77:0.5248446464538574 78:0.8260869383811951 79:-0.9486832618713379 80:0.3162277638912201 
-0.4444457917003775 -0.5680296082601309 1.685504835083576 0.0 1.1601796473857287 1.609368800401676 0.9357352169340399 0.1856652483808501 1:0.8729729652404785 2:0.0 3:-0.5199467539787292 4:0.8541986346244812 5:0.816216230392456 6:0.09324324876070023 7:-0.5692099332809448 8:0.8221921920776367 9:0.6540540456771851 10:0.31621623039245605 11:-0.5895730257034302 12:0.8077150583267212 13:0.41081079840660095 14:0.6486486792564392 15:-0.5669828057289124 16:0.8237296938896179 17:0.2243243157863617 18:0.9405405521392822 19:-0.5383893251419067 20:0.8426962494850159 21:0.1918918788433075 22:0.2918919026851654 23:0.9486832618713379 24:-0.31622785329818726 25:0.2405405193567276 26:0.2756756842136383 27:0.7808687686920166 28:-0.6246951222419739 29:0.2729729413986206 30:0.2270270437002182 31:0.9922778606414795 32:-0.12403474748134613 33:0.3702702522277832 34:0.2594594657421112 35:0.4961389899253845 36:0.8682431578636169 37:0.337837815284729 38:0.3405405580997467 39:-0.5547001361846924 40:0.8320503234863281 41:0.2405405193567276 42:0.4540540874004364 43:-0.8804711103439331 44:0.47409987449645996 45:0.1270270049571991 46:0.4540540874004364 47:-0.7071067094802856 48:-0.7071068286895752 49:0.1432432234287262 50:0.3567567765712738 51:0.16439898312091827 52:-0.986393928527832 53:0.824324369430542 54:0.6324324607849121 55:0.3328203856945038 56:0.942990243434906 57:0.8567568063735962 58:0.7243242859840393 59:0.051216062158346176 60:0.9986875653266907 61:0.8351354598999023 62:0.8432433009147644 63:-0.3511236310005188 64:0.9363291263580322 65:0.7756756544113159 66:0.9405405521392822 67:-0.7949517965316772 68:0.6066726446151733 69:0.6297297477722168 70:1.0 71:-0.9926459193229675 72:-0.12105416506528854 73:0.5540542602539062 74:0.9135136008262634 75:-0.059892307966947556 76:-0.9982048869132996 77:0.6135135293006897 78:0.7297297716140747 79:0.30781930685043335 80:-0.9514448046684265 
-0.0 -0.10835175124310423 0.37967763580567304 0.8550474572588197 0.552646508970909 0.0 2.540325899269379 1.607563650396439 1:0.8499999642372131 2:0.0 3:-0.9191454648971558 4:0.39391833543777466 5:0.7923527359962463 6:0.024705883115530014 7:-0.6289458274841309 8:0.7774491906166077 9:0.6523534655570984 10:0.24431374669075012 11:-0.5383892059326172 12:0.8426963090896606 13:0.47666651010513306 14:0.5188235640525818 15:-0.5574343204498291 16:0.8302210569381714 17:0.26529449224472046 18:0.820784330368042 19:-0.5712049603462219 20:0.8208074569702148 21:0.15000003576278687 22:0.9882352352142334 23:-0.5671030282974243 24:0.8236468434333801 25:0.31470590829849243 26:0.23333331942558289 27:1.0 28:0.0 29:0.35313794016838074 30:0.23333331942558289 31:0.5390549898147583 32:0.8422704935073853 33:0.35862764716148376 34:0.3019607961177826 35:-0.423941969871521 36:0.9056894183158875 37:0.2927454710006714 38:0.3623529076576233 39:-0.9037383198738098 40:0.4280853867530823 41:0.20215672254562378 42:0.37607839703559875 43:-0.7752364873886108 44:-0.631671130657196 45:0.21862748265266418 46:0.3019607663154602 47:0.21693266928195953 48:-0.9761866331100464 49:0.6990196108818054 50:0.6862744688987732 51:0.9899493455886841 52:0.14142215251922607 53:0.7401960492134094 54:0.6921568512916565 55:0.5122758150100708 56:0.8588209748268127 57:0.7656858563423157 58:0.7980391979217529 59:0.046247448772192 60:0.998930037021637 61:0.7500001192092896 62:0.9039216041564941 63:-0.47514933347702026 64:0.8799051642417908 65:0.6598033905029297 66:0.9941176176071167 67:-0.8962308764457703 68:0.443587988615036 69:0.5558820962905884 70:1.0 71:-0.8823519349098206 72:-0.47059008479118347 73:0.5127453207969666 74:0.9156862497329712 75:-0.09861478954553604 76:-0.9951256513595581 77:0.5343137383460999 78:0.782352864742279 79:0.15968726575374603 80:-0.9871675968170166 
-0.35273402333790416 -0.5050341823626159 0.11621282207012945 1.312342788831279 0.43323993046513354 0.41116697438822525 1.1994544906321667 0.0 1:0.1666666716337204 2:0.06666667014360428 3:0.8192294239997864 4:-0.5734659433364868 5:0.26190388202667236 6:0.0 7:0.9981310367584229 8:0.06111009418964386 9:0.4000000059604645 10:0.08095239102840424 11:0.4266199767589569 12:0.9044309258460999 13:0.3809519410133362 14:0.25238093733787537 15:-0.35599690675735474 16:0.9344871640205383 17:0.28571370244026184 18:0.380952388048172 19:-0.8672524094581604 20:0.4978686273097992 21:0.123809814453125 22:0.4000000059604645 23:-0.9413391351699829 24:-0.3374618589878082 25:0.03333333134651184 26:0.2904762327671051 27:-0.15398620069026947 28:-0.9880730509757996 29:0.06666666269302368 30:0.03333333507180214 31:0.12855400145053864 32:-0.9917024970054626 33:0.7333333492279053 34:0.06666667014360428 35:-0.39391955733299255 36:0.9191449284553528 37:0.6583333015441895 38:0.24166665971279144 39:-0.3713907301425934 40:0.9284766316413879 41:0.5333333015441895 42:0.5666666626930237 43:-0.36652448773384094 44:0.9304084181785583 45:0.4416666626930237 46:0.7916666865348816 47:-0.3589790165424347 48:0.9333456754684448 49:0.36666667461395264 50:1.0 51:-0.3387194573879242 52:0.9408873915672302 53:0.7000000476837158 54:0.6333333253860474 55:0.9191446304321289 56:-0.3939201831817627 57:0.8555551767349243 58:0.5666666626930237 59:0.9991330504417419 60:0.04163043200969696 61:0.9666666984558105 62:0.6444444060325623 63:0.16440026462078094 64:0.9863936305046082 65:0.8999999761581421 66:0.8333333134651184 67:-0.7071064114570618 68:0.7071071863174438 69:0.7111114263534546 70:0.8999999761581421 71:-0.9486833810806274 72:-0.31622761487960815 73:0.6666666269302368 74:0.7555555701255798 75:0.0738707035779953 76:-0.9972677826881409 77:0.7333333492279053 78:0.6000000238418579 79:0.39391958713531494 80:-0.919144868850708 
-0.27429276780576944 -1.4861419419261552 0.05713348055483799 2.162765463587695 0.2568648147812043 1.2084684760994648 1.9938286320062983 1.3912092880733344 1:0.8838547468185425 2:0.2822725772857666 3:-0.9816157221794128 4:0.19086791574954987 5:0.8622797727584839 6:0.28646767139434814 7:-0.8743389248847961 8:0.48531574010849 9:0.7478125095367432 10:0.3577849864959717 11:-0.8356238007545471 12:0.5493022203445435 13:0.5404530763626099 14:0.4980223476886749 15:-0.7765619158744812 16:0.6300410032272339 17:0.33489155769348145 18:0.6927964091300964 19:-0.7483607530593872 20:0.663291871547699 21:0.17667505145072937 22:0.8204483985900879 23:-0.7407485842704773 24:0.6717823147773743 25:0.1610931009054184 26:0.8504136204719543 27:-0.4613535404205322 28:0.8872163891792297 29:0.24199925363063812 30:0.030564548447728157 31:-0.9998433589935303 32:0.0176963210105896 33:0.14041706919670105 34:0.03236246109008789 35:-0.7908310890197754 36:0.6120344996452332 37:0.035239070653915405 38:0.19057895243167877 39:0.0294953566044569 40:0.9995648860931396 41:0.14850768446922302 42:0.3065444231033325 43:0.9965457916259766 44:0.08304547518491745 45:0.3372887372970581 46:0.21574975550174713 47:0.6585046052932739 48:-0.7525767087936401 49:0.3624595105648041 50:0.062028054147958755 51:-0.3511234223842621 52:-0.9363292455673218 53:0.2563825845718384 54:0.0 55:-0.8632476925849915 56:-0.5047805905342102 57:0.7921611070632935 58:0.7605178952217102 59:-0.9153861403465271 60:0.40257683396339417 61:0.7234807014465332 62:0.7907227873802185 63:-0.34445229172706604 64:0.9388038516044617 65:0.7188063859939575 66:0.9604460000991821 67:0.6760686635971069 68:0.7368385791778564 69:0.9154980182647705 70:1.0 71:0.8482765555381775 72:-0.5295534729957581 73:0.9647608995437622 74:0.8069040179252625 75:-0.4798406660556793 76:-0.877355694770813 77:0.76878821849823 78:0.7317512035369873 79:-0.9336983561515808 80:-0.35806041955947876 
-0.27904222842307924 -0.9728188605239119 1.501065956276368 2.9547480011607945 0.5713431464934059 0.3764321203773618 1.357737116032778 1.3124485240251924 1:0.15789473056793213 2:0.21052631735801697 3:-0.4472135007381439 4:0.8944272398948669 5:0.10526315867900848 6:0.31578949093818665 7:1.0 8:0.0 9:0.21052631735801697 10:0.21052631735801697 11:0.4472135901451111 12:-0.8944271802902222 13:0.21052631735801697 14:0.10526316612958908 15:-0.7071067690849304 16:-0.7071067690849304 17:0.05263157933950424 18:0.05263158679008484 19:-0.9701424837112427 20:0.24253562092781067 21:0.0 22:0.15789474546909332 23:-0.4472135901451111 24:0.8944271802902222 25:0.7368420958518982 26:0.05263158679008484 27:-0.31622764468193054 28:0.9486833214759827 29:0.6842105388641357 30:0.21052631735801697 31:-0.7071067690849304 32:0.7071068286895752 33:0.4736842215061188 34:0.31578949093818665 35:-0.7682213187217712 36:0.6401844024658203 37:0.3684210479259491 38:0.4736842215061188 39:-0.5547002553939819 40:0.8320502638816833 41:0.15789473056793213 42:0.7894736528396606 43:-0.40613847970962524 44:0.9138115048408508 45:0.15789473056793213 46:0.9473683834075928 47:0.0 48:1.0 49:0.7894737124443054 50:0.5789474248886108 51:-0.34570571780204773 52:0.9383429884910583 53:0.7368420958518982 54:0.7218044996261597 55:-0.18116256594657898 56:0.9834532141685486 57:0.7368420958518982 58:0.864661693572998 59:0.5462669730186462 60:0.8376110792160034 61:0.8496238589286804 62:0.8947368860244751 63:0.9982743263244629 64:-0.05872221291065216 65:0.9924814105033875 66:0.8496240377426147 67:0.6246955394744873 68:-0.780868411064148 69:1.0 70:0.7067669630050659 71:-0.2659280598163605 72:-0.9639929533004761 73:0.9323312640190125 74:0.6315789222717285 75:-0.9417418241500854 76:-0.33633673191070557 77:0.7894737124443054 78:0.6315789222717285 79:-1.0 80:0.0 
-0.0 -0.0 -0.0 0.0 4.0 0.0 1.9375342070848451 2.029054074957626 1:0.21759116649627686 2:0.05568581447005272 3:0.9733220934867859 4:-0.22944316267967224 5:0.3419201672077179 6:0.026377491652965546 7:0.9748347401618958 8:-0.2229287475347519 9:0.4610970616340637 10:0.0 11:0.9906930923461914 12:-0.13611485064029694 13:0.5339050889015198 14:0.0 15:0.9942928552627563 16:0.10668475180864334 17:0.6111865043640137 18:0.016104163601994514 19:0.8723995089530945 20:0.4887934625148773 21:0.7063614130020142 22:0.09662491083145142 23:0.7183014154434204 24:0.6957319974899292 25:0.7751588821411133 26:0.17492443323135376 27:0.4488151967525482 28:0.8936245441436768 29:0.7824088335037231 30:0.24804100394248962 31:-0.020671101287007332 32:0.9997862577438354 33:0.7721354365348816 34:0.3211575448513031 35:-0.3049944341182709 36:0.9523541331291199 37:0.7355772256851196 38:0.3942740857601166 39:-0.5704860091209412 40:0.8213073015213013 41:0.6807397603988647 42:0.4527364671230316 43:-0.7811443209648132 44:0.6243505477905273 45:0.6076232194900513 46:0.496544748544693 47:-0.8430683612823486 48:0.5378064513206482 49:0.5433917045593262 50:0.5403529405593872 51:-0.8134567141532898 52:0.5816254615783691 53:0.48508360981941223 54:0.5841611623764038 55:-0.8332761526107788 56:0.5528570413589478 57:0.4113345146179199 58:0.6279694437980652 59:-0.8693335652351379 60:0.4942258894443512 61:0.3309680223464966 62:0.671777606010437 63:-0.8148429989814758 64:0.5796818137168884 65:0.27984818816185 66:0.7215092182159424 67:-0.685065507888794 68:0.7284814119338989 69:0.23603996634483337 70:0.7727217078208923 71:-0.13462327420711517 72:0.9908968210220337 73:0.25789782404899597 74:0.8830752372741699 75:0.21899855136871338 76:0.9757251739501953 77:0.28705188632011414 78:1.0 79:0.2419331818819046 80:0.9702929258346558 
-0.6411435162997801 -0.5440374479007403 -2.792279043684767 1.0772472612539654 1.5274530218187303 1.0618489877802917 0.8087031594982284 1.033960103301915 1:0.31061679124832153 2:0.30136987566947937 3:-0.9459490180015564 4:0.3243151307106018 5:0.28664350509643555 6:0.3095890283584595 7:-0.9138119220733643 8:-0.4061376452445984 9:0.30445238947868347 10:0.29863014817237854 11:0.742706298828125 12:-0.6696172952651978 13:0.4154112935066223 14:0.19349315762519836 15:0.7358905673027039 16:-0.677100419998169 17:0.5530825257301331 18:0.06986301392316818 19:0.794021725654602 20:-0.6078892946243286 21:0.6681510210037231 22:0.0 23:0.9787711501121521 24:-0.2049563080072403 25:0.7133564949035645 26:0.0363013781607151 27:0.19670245051383972 28:0.9804632663726807 29:0.712329089641571 30:0.22020556032657623 31:-0.2666248381137848 32:0.9638004302978516 33:0.6119853258132935 34:0.4027397632598877 35:-0.6347901225090027 36:0.7726845741271973 37:0.43801403045654297 38:0.5541096329689026 39:-0.7213462591171265 40:0.692574679851532 41:0.371574342250824 42:0.6335617303848267 43:-0.5038782954216003 44:0.8637746572494507 45:0.36849215626716614 46:0.6732876896858215 47:0.589262843132019 48:0.8079413771629333 49:0.43801403045654297 50:0.7246575355529785 51:0.8042640089988708 52:0.594272255897522 53:0.44623321294784546 54:0.9465753436088562 55:-0.3162280023097992 56:0.9486832022666931 57:0.4339044392108917 58:0.983561635017395 59:0.5547001957893372 60:0.8320502638816833 61:0.46267157793045044 62:0.9712328910827637 63:0.9191447496414185 64:0.3939201235771179 65:0.46267157793045044 66:0.9958904385566711 67:0.0 68:1.0 69:0.46267157793045044 70:1.0 71:-0.7071118950843811 72:0.7071016430854797 73:0.4585619568824768 74:1.0 75:-0.7071076035499573 76:-0.7071058750152588 77:0.4503428041934967 78:0.9876712560653687 79:-0.554699718952179 80:-0.832050621509552 
-0.8583059867740567 -2.2185138189400866 -1.6265247533484304 1.941344242024449 4.0 2.2937667068198713 4.0 2.455911945631904 1:0.2676081657409668 2:0.24535605311393738 3:0.49301084876060486 4:-0.8700231909751892 5:0.3465551733970642 6:0.10603715479373932 7:0.7767817974090576 8:-0.6297698616981506 9:0.5702395439147949 10:0.0 11:0.9690465927124023 12:-0.2468780130147934 13:0.7323918342590332 14:0.007739930879324675 15:0.7379740476608276 16:0.6748291254043579 17:0.714976966381073 18:0.13235293328762054 19:-0.3966633081436157 20:0.9179641604423523 21:0.5636608004570007 22:0.3982198238372803 23:-0.5022988319396973 24:0.8646940588951111 25:0.48432642221450806 26:0.5294117331504822 27:-0.3884342610836029 28:0.9214764833450317 29:0.47426414489746094 30:0.6102941036224365 31:0.016667181625962257 32:0.9998610615730286 33:0.4866487979888916 34:0.668730616569519 35:0.2026107907295227 36:0.9792594313621521 37:0.48819640278816223 38:0.6776315569877625 39:0.034453749656677246 40:0.9994062781333923 41:0.48819640278816223 42:0.7136222720146179 43:0.0 44:1.0 45:0.3953171372413635 46:0.9651702642440796 47:-0.7071059346199036 48:0.7071075439453125 49:0.38225600123405457 50:0.9782314300537109 51:-0.10289813578128815 52:0.9946918487548828 53:0.3924146890640259 54:0.9932275414466858 55:0.83761066198349 56:0.5462676882743835 57:0.41563448309898376 58:1.0 59:0.9246780872344971 60:-0.38074991106987 61:0.4746515154838562 62:0.9593653082847595 63:0.22040484845638275 64:-0.9754084944725037 65:0.43837055563926697 66:0.8993808031082153 67:-0.9464059472084045 68:-0.32297956943511963 69:0.35274749994277954 70:0.9177631735801697 71:-0.9340095520019531 72:0.3572479486465454 73:0.33339762687683105 74:0.9395317435264587 75:-0.6246962547302246 76:0.780867874622345 77:0.33339762687683105 78:0.9419504404067993 79:0.0 80:1.0 
-0.0 -2.100288619229187 -0.0 0.26732930622931284 0.0 0.0 0.8424286371152446 0.0 1:0.36538460850715637 2:0.11538461595773697 3:0.0 4:-1.0 5:0.36538460850715637 6:0.04072398319840431 7:0.5314883589744568 8:-0.8470655679702759 9:0.43778228759765625 10:0.0 11:0.9637297987937927 12:-0.2668799161911011 13:0.512442946434021 14:0.0 15:1.0 16:0.0 17:0.5871042013168335 18:0.0 19:0.9447571635246277 20:0.32777106761932373 21:0.6233032941818237 22:0.03846153989434242 23:0.6853652596473694 24:0.7281994819641113 25:0.6595025062561035 26:0.07692307978868484 27:0.44721272587776184 28:0.8944275975227356 29:0.6730769276618958 30:0.13800904154777527 31:-0.19611778855323792 32:0.9805803298950195 33:0.6323529481887817 34:0.21266967058181763 35:-0.6114475131034851 36:0.79128497838974 37:0.557692289352417 38:0.2873303294181824 39:-0.7583162188529968 40:0.6518869400024414 41:0.5033938884735107 42:0.3235293924808502 43:-0.7583163380622864 44:0.6518867015838623 45:0.428733229637146 46:0.3981899917125702 47:-0.7071069478988647 48:0.7071067094802856 49:0.35407257080078125 50:0.47285065054893494 51:-0.5633373856544495 52:0.8262270092964172 53:0.32692307233810425 54:0.5475113391876221 55:0.10151210427284241 56:0.994834303855896 57:0.36538460850715637 58:0.5837103724479675 59:0.7282005548477173 60:0.6853641271591187 61:0.4038461446762085 62:0.619909405708313 63:0.8470639586448669 64:0.5314911007881165 65:0.48076921701431274 66:0.656108558177948 67:0.8470636010169983 68:0.5314916372299194 69:0.5192307829856873 70:0.692307710647583 71:0.7281997203826904 72:0.6853650212287903 73:0.5192307829856873 74:0.9230769276618958 75:-0.4472138583660126 76:0.8944270014762878 77:0.48076921701431274 78:1.0 79:-0.4472138583660126 80:0.8944270014762878 
-0.4618910163220167 -1.582375913149687 -2.3120578947861645 1.7680320615656722 4.0 1.3494476491848608 3.8174703124776572 2.6989692245918318 1:0.2895905375480652 2:0.1661129593849182 3:-0.4083271324634552 4:-0.9128357172012329 5:0.2801785469055176 6:0.14507198333740234 7:0.6970223784446716 8:-0.7170493602752686 9:0.4053131937980652 10:0.047065336257219315 11:0.9115962386131287 12:-0.411086767911911 13:0.6018796563148499 14:0.0 15:0.9990659356117249 16:0.043211910873651505 17:0.7253596782684326 18:0.060908086597919464 19:0.4440905451774597 20:0.8959819078445435 21:0.6960141062736511 22:0.18992245197296143 23:-0.6044201254844666 24:0.7966657876968384 25:0.49556899070739746 26:0.363787442445755 27:-0.7281339764595032 28:0.685434877872467 29:0.33721011877059937 30:0.5276855230331421 31:-0.6328995823860168 32:0.774233877658844 33:0.3244742751121521 34:0.5730897188186646 35:0.20554400980472565 36:0.9786478877067566 37:0.37430816888809204 38:0.7043188810348511 39:0.3550111651420593 40:0.9348620772361755 41:0.37430816888809204 42:0.8787375092506409 43:-0.6139192581176758 44:0.7893688082695007 45:0.3355506360530853 46:0.9285714030265808 47:-0.4258080720901489 48:0.9048134684562683 49:0.3565889000892639 50:0.9163897633552551 51:0.9716700911521912 52:-0.23634137213230133 53:0.35603898763656616 54:0.9235879778862 55:-0.4787620007991791 56:0.8779447674751282 57:0.349945992231369 58:0.9285714030265808 59:-0.28786423802375793 60:0.9576712250709534 61:0.35437458753585815 62:0.9291251301765442 63:-0.665456235408783 64:0.7464368343353271 65:0.28626665472984314 66:1.0 67:-0.7110467553138733 68:0.7031447291374207 69:0.3045407235622406 70:0.9784051775932312 71:0.6978805661201477 72:-0.7162142395973206 73:0.37043434381484985 74:0.913621187210083 75:-0.7682228088378906 76:-0.6401824951171875 77:0.27464038133621216 78:0.9534883499145508 79:-0.9232376217842102 80:0.38422948122024536 
-1.3427902922052606 -1.1760146135774032 -0.0 0.0 1.393018084801169 0.0 0.0 0.0 1:0.30000001192092896 2:1.0 3:1.0 4:0.0 5:0.3500000238418579 6:1.0 7:1.0 8:0.0 9:0.4000000059604645 10:0.15000000596046448 11:0.7071064710617065 12:-0.7071070671081543 13:0.4529411494731903 14:0.09705881774425507 15:0.7270128130912781 16:-0.6866239309310913 17:0.5058822631835938 18:0.05000000074505806 19:0.8843859434127808 20:-0.46675628423690796 21:0.5588241815567017 22:0.041176460683345795 23:0.9042485356330872 24:-0.4270065128803253 25:0.6117645502090454 26:0.0 27:0.9320036768913269 28:-0.36244887113571167 29:0.6647056341171265 30:0.0 31:0.980580747127533 32:0.1961158961057663 33:0.7000000476837158 34:0.01764707639813423 35:0.4472165107727051 36:0.8944257497787476 37:0.7000000476837158 38:0.07058825343847275 39:0.0 40:1.0 41:0.7000000476837158 42:0.12352943420410156 43:-0.24253933131694794 44:0.9701415300369263 45:0.6735290288925171 46:0.17647060751914978 47:-0.4270067811012268 48:0.9042484164237976 49:0.6499999761581421 50:0.2294117957353592 51:-0.4667576253414154 52:0.8843852877616882 53:0.6176468133926392 54:0.2823529839515686 55:-0.6273303031921387 56:0.7787532210350037 57:0.5647056698799133 58:0.3352941572666168 59:-0.8426962494850159 60:0.5383892059326172 61:0.5117645263671875 62:0.3499999940395355 63:-0.7568219304084778 64:0.6536211967468262 65:0.5 66:0.3911765217781067 67:-0.12403280287981033 68:0.9922780990600586 69:0.5 70:0.4441176950931549 71:-0.40613868832588196 72:0.913811445236206 73:0.4529411494731903 74:0.4970588684082031 75:-0.4270063042640686 76:0.9042486548423767 77:0.45000001788139343 78:0.550000011920929 79:-0.05546920746564865 80:0.9984603524208069 
-0.0 -0.0 -0.0 0.0 1.2881146441133087 0.0 0.0 0.2603903497301634 1:0.2838670015335083 2:0.2068965584039688 3:0.22162415087223053 4:-0.975132167339325 5:0.2900247275829315 6:0.17980295419692993 7:-0.12403910607099533 8:-0.9922773241996765 9:0.28017228841781616 10:0.17733991146087646 11:-0.48192185163497925 12:-0.8762142658233643 13:0.2764778137207031 14:0.1551724076271057 15:0.2216234803199768 16:-0.9751323461532593 17:0.29864540696144104 18:0.09605910629034042 19:0.7822798490524292 20:-0.6229271292686462 21:0.40948259830474854 22:0.04926109313964844 23:0.9335883855819702 24:-0.35834717750549316 25:0.5424876809120178 26:0.0024630529806017876 27:0.9803907871246338 28:-0.1970633566379547 29:0.6545566916465759 30:0.0 31:0.9999755620956421 32:0.006992849987000227 33:0.7185962200164795 34:0.003694583661854267 35:0.919144868850708 36:0.39391961693763733 37:0.7235221862792969 38:0.029556669294834137 39:-0.13819505274295807 40:0.9904050230979919 41:0.6964288949966431 42:0.1625615507364273 43:-0.47197335958480835 44:0.8816128373146057 45:0.5929806232452393 46:0.2733990550041199 47:-0.6602563261985779 48:0.7510403394699097 49:0.4993842542171478 50:0.38669946789741516 51:-0.6811617016792297 52:0.7321329712867737 53:0.4119461178779602 54:0.46798035502433777 55:-0.6109150052070618 56:0.7916961908340454 57:0.3786945939064026 58:0.5431034564971924 59:-0.4047503173351288 60:0.9144272208213806 61:0.42179805040359497 62:0.8965517282485962 63:0.0 64:0.0 65:0.42179805040359497 66:0.8965517282485962 67:0.0 68:0.0 69:0.42179805040359497 70:0.8965517282485962 71:-0.8574931621551514 72:0.5144951939582825 73:0.3786945939064026 74:0.9224137663841248 75:-0.6757246255874634 76:0.7371540665626526 77:0.3269704580307007 78:1.0 79:-0.5547000169754028 80:0.8320503830909729 
-0.0 -0.0 -2.2479002369342354 0.0 2.9232483788634425 0.6048237105430975 0.87736504056342 0.0 1:0.2571428418159485 2:0.05714285746216774 3:0.8837879300117493 4:-0.4678877890110016 5:0.31785711646080017 6:0.02500000037252903 7:0.9344877600669861 8:-0.3559953272342682 9:0.40714284777641296 10:0.0 11:0.9903417825698853 12:-0.13864785432815552 13:0.49642854928970337 14:0.0 15:1.0 16:0.0 17:0.5571428537368774 18:0.0 19:0.9734171628952026 20:0.22903937101364136 21:0.6178570985794067 22:0.02857142873108387 23:0.8395701050758362 24:0.5432513356208801 25:0.6785714030265808 26:0.07857143133878708 27:0.8282834887504578 28:0.5603092312812805 29:0.7392857074737549 30:0.11071428656578064 31:0.5692098736763 32:0.8221922516822815 33:0.7428570985794067 34:0.17142857611179352 35:-0.22903932631015778 36:0.9734171628952026 37:0.7107142806053162 38:0.2321428507566452 39:-0.6074500679969788 40:0.7943578958511353 41:0.6499999761581421 42:0.2928571403026581 43:-0.7772449851036072 44:0.6291981339454651 45:0.5607142448425293 46:0.35357141494750977 47:-0.8269264698028564 48:0.5623100996017456 49:0.4714285731315613 50:0.41428571939468384 51:-0.7837457656860352 52:0.6210817694664001 53:0.37142854928970337 54:0.5035714507102966 55:-0.7270132899284363 56:0.6866234540939331 57:0.34285712242126465 58:0.5357142686843872 59:-0.29408589005470276 60:0.955778956413269 61:0.34285712242126465 62:0.5964285731315613 63:0.5240972638130188 64:0.8516584038734436 65:0.3999999761581421 66:0.6285714507102966 67:0.8715754151344299 68:0.4902615249156952 69:0.6285713911056519 70:1.0 71:-0.4472128450870514 72:-0.8944275379180908 73:0.6000000238418579 74:0.9428571462631226 75:0.0 76:-1.0 77:0.6285713911056519 78:0.9428571462631226 79:1.0 80:0.0 
-0.0 -1.307560824973627 -0.9255692106016984 1.132538347190603 0.7639448409904269 1.6749008434277006 1.178744772523031 0.9727056866948903 1:0.2916666567325592 2:0.0 3:1.0 4:0.0 5:0.369047611951828 6:0.0 7:1.0 8:0.0 9:0.4464285969734192 10:0.0 11:1.0 12:0.0 13:0.523809552192688 14:0.0 15:1.0 16:0.0 17:0.601190447807312 18:0.0 19:0.999261200428009 20:0.038433123379945755 21:0.6785714626312256 22:0.0059523810632526875 23:0.9557790160179138 24:0.294085830450058 25:0.7559523582458496 26:0.0476190485060215 27:0.2576623260974884 28:0.9662350416183472 29:0.7023809552192688 30:0.095238097012043 31:-0.6585044860839844 32:0.7525768280029297 33:0.6726190447807312 34:0.1428571492433548 35:-0.73848557472229 36:0.6742693185806274 37:0.5654761791229248 38:0.2202380895614624 39:-0.8320503234863281 40:0.5547001957893372 41:0.4583333134651184 42:0.2857142984867096 43:-0.8574928641319275 44:0.5144957900047302 45:0.386904776096344 46:0.3273809552192688 47:-0.8944271206855774 48:0.4472135603427887 49:0.3154761791229248 50:0.3571428656578064 51:-0.70710688829422 52:0.7071066498756409 53:0.2857142686843872 54:0.4285714328289032 55:-0.5547002553939819 56:0.8320502638816833 57:0.244047611951828 58:0.4642857015132904 59:-0.20601044595241547 60:0.9785498380661011 61:0.2619047462940216 62:0.5416666865348816 63:0.66436368227005 64:0.747409462928772 65:0.3392857015132904 66:0.5714285969734192 67:0.9333455562591553 68:0.35897910594940186 69:0.244047611951828 70:0.9523809552192688 71:0.4472135901451111 72:0.8944271802902222 73:0.2678571343421936 74:1.0 75:1.0 76:0.0 77:0.2916666567325592 78:0.9523809552192688 79:0.4472135901451111 80:-0.8944271802902222 
-0.0 -1.6363654773762848 -0.0 0.0 0.0 0.0 0.0 0.0 1:0.30263158679008484 2:0.15789473056793213 3:-0.3830149471759796 4:-0.9237421751022339 5:0.2763158082962036 6:0.09442725032567978 7:0.2105569839477539 8:-0.9775815606117249 9:0.3243035078048706 10:0.057275544852018356 11:0.780868411064148 12:-0.6246955394744873 13:0.3614550232887268 14:0.02631578966975212 15:0.9353883862495422 16:-0.353622168302536 17:0.45123857259750366 18:0.009287934750318527 19:0.9894312620162964 20:-0.1450028121471405 21:0.5410216450691223 22:0.0 23:0.9938836693763733 24:0.1104317381978035 25:0.6044889688491821 26:0.02631578966975212 27:0.9791787266731262 28:0.20300033688545227 29:0.6679567098617554 30:0.02631578966975212 31:0.9674590826034546 32:0.25302746891975403 33:0.7051082849502563 34:0.05263157933950424 35:0.6163079142570496 36:0.7875053286552429 37:0.7236841917037964 38:0.09752319008111954 39:-0.09950242936611176 40:0.9950373768806458 41:0.694272518157959 42:0.1609906703233719 43:-0.6438479423522949 44:0.7651534676551819 45:0.6168731451034546 46:0.22445818781852722 47:-0.7701308727264404 48:0.6378858089447021 49:0.5410216450691223 50:0.287925660610199 51:-0.650791347026825 52:0.7592566609382629 53:0.4775543212890625 54:0.3869968354701996 55:-0.5112231373786926 56:0.8594480156898499 57:0.43421053886413574 58:0.4674922525882721 59:-0.28829315304756165 60:0.9575421810150146 61:0.43421053886413574 62:0.5309596657752991 63:0.12105244398117065 64:0.9926460981369019 65:0.44969016313552856 66:0.594427227973938 67:0.4634973704814911 68:0.886098325252533 69:0.4868421256542206 70:0.6315789222717285 71:0.7071093320846558 72:0.7071042656898499 73:0.5131579041481018 74:0.9736841917037964 75:0.0 76:1.0 77:0.5131579041481018 78:1.0 79:0.0 80:1.0 
-0.923658453233156 -1.9406787495939413 -0.0 0.0 4.0 0.4331577030095531 0.6750990023587231 0.0 1:0.2586206793785095 2:0.1034482792019844 3:0.0 4:-1.0 5:0.2586206793785095 6:0.050709936767816544 7:0.3328154981136322 8:-0.9429919719696045 9:0.29513126611709595 10:0.0 11:0.8694583177566528 12:-0.49400627613067627 13:0.34787091612815857 14:0.0 15:1.0 16:0.0 17:0.40466517210006714 18:0.0 19:1.0 20:0.0 21:0.48782873153686523 22:0.0 23:1.0 24:0.0 25:0.5750511288642883 26:0.0 27:1.0 28:0.0 29:0.652130126953125 30:0.0 31:0.9709643721580505 32:0.23922407627105713 33:0.7150099873542786 34:0.03448275849223137 35:0.8262263536453247 36:0.5633383393287659 37:0.7413792610168457 38:0.060851920396089554 39:0.3162288963794708 40:0.948682963848114 41:0.7413792610168457 42:0.11359027028083801 43:0.0 44:1.0 45:0.7413792610168457 46:0.16632862389087677 47:-0.1146317571401596 48:0.9934080839157104 49:0.7292080521583557 50:0.21906694769859314 51:-0.5241039991378784 52:0.8516542911529541 53:0.6764694452285767 54:0.2718052566051483 55:-0.7071013450622559 56:0.7071123123168945 57:0.6237329840660095 58:0.32454365491867065 59:-0.5692038536071777 60:0.8221964240074158 61:0.6034482717514038 62:0.37728196382522583 63:-0.6018520593643188 64:0.7986075282096863 65:0.5182558298110962 66:0.46450304985046387 67:-0.5943911671638489 68:0.8041760921478271 69:0.5 70:0.517241358757019 71:-0.3271147310733795 72:0.9449845552444458 73:0.6724137663841248 74:1.0 75:0.44721394777297974 76:-0.8944271206855774 77:0.7068965435028076 78:0.931034505367279 79:0.44721394777297974 80:-0.8944271206855774 
-0.0 -0.0 -0.0 0.0 0.0 0.29057178137817413 0.0 0.0 1:0.27419355511665344 2:0.22580644488334656 3:0.0 4:-1.0 5:0.27419355511665344 6:0.13799282908439636 7:0.3090856969356537 8:-0.9510341882705688 9:0.3207884728908539 10:0.08243726938962936 11:0.7577688097953796 12:-0.6525231599807739 13:0.4032258093357086 14:0.026881709694862366 15:0.8669069409370422 16:-0.49846991896629333 17:0.4641580879688263 18:0.0 19:0.9840590953826904 20:-0.17784181237220764 21:0.551971435546875 22:0.0 23:1.0 24:0.0 25:0.6397852897644043 26:0.0 27:0.9722753763198853 28:0.23383894562721252 29:0.6935483813285828 30:0.03405023366212845 31:0.6925303936004639 32:0.7213887572288513 33:0.725806474685669 34:0.08960576355457306 35:-0.11179512739181519 36:0.9937312602996826 37:0.6774193048477173 38:0.17741934955120087 39:-0.668964684009552 40:0.7432941794395447 41:0.5967742204666138 42:0.23297494649887085 43:-0.7904146909713745 44:0.6125721335411072 45:0.5340502262115479 46:0.28853052854537964 47:-0.7828229665756226 48:0.6222444176673889 49:0.4569894075393677 50:0.34408605098724365 51:-0.7621971368789673 52:0.6473450660705566 53:0.4032258093357086 54:0.39964160323143005 55:-0.6121736168861389 56:0.7907233834266663 57:0.3709677457809448 58:0.4551972448825836 59:-0.04610193148255348 60:0.9989367127418518 61:0.39784979820251465 62:0.5161290168762207 63:0.371390700340271 64:0.9284767508506775 65:0.4354838728904724 66:0.6164875626564026 67:0.42026659846305847 68:0.9074006676673889 69:0.4767022728919983 70:0.6863799691200256 71:0.81067955493927 72:0.5854899883270264 73:0.5645161271095276 74:0.7096773982048035 75:0.9665618538856506 76:0.2564333975315094 77:0.5967742204666138 78:1.0 79:0.0 80:0.0 
-0.8771156031465623 -2.7088447467854166 -3.0421783251052332 1.58314662914304 0.05432025458329118 4.0 1.7764496199202697 2.384934366493417 1:0.33574378490448 2:0.26446279883384705 3:-1.0 4:0.0 5:0.28925618529319763 6:0.26446279883384705 7:-0.9927337169647217 8:0.12033164501190186 9:0.26756197214126587 10:0.27272728085517883 11:-0.9667052626609802 12:0.25589248538017273 13:0.2541322112083435 14:0.2737603187561035 15:0.0 16:-1.0 17:0.26756197214126587 18:0.22107438743114471 19:0.5835636854171753 20:-0.8120673298835754 21:0.3398760259151459 22:0.15444214642047882 23:0.8293963074684143 24:-0.5586607456207275 25:0.4669421315193176 26:0.08677686005830765 27:0.9033113121986389 28:-0.42898571491241455 29:0.6074379682540894 30:0.02737603336572647 31:0.9407328963279724 32:-0.33914831280708313 33:0.7076446413993835 34:0.0 35:0.9956772327423096 36:0.09288033843040466 37:0.7458677291870117 38:0.040289256721735 39:0.20308510959148407 40:0.9791610836982727 41:0.7365702390670776 42:0.13946281373500824 43:-0.383452832698822 44:0.9235605001449585 45:0.6611570119857788 46:0.2443181872367859 47:-0.6147803664207458 48:0.7886984348297119 49:0.5795454382896423 50:0.34090909361839294 51:-0.555805504322052 52:0.831312358379364 53:0.5413222908973694 54:0.4235537052154541 55:-0.3789164423942566 56:0.9254308938980103 57:0.5258264541625977 58:0.4721074402332306 59:-0.09252212941646576 60:0.9957106709480286 61:0.5304751396179199 62:0.5402892827987671 63:0.38805678486824036 64:0.9216355085372925 65:0.567148745059967 66:0.5702479481697083 67:0.7744436264038086 68:0.632642924785614 69:0.5423553586006165 70:0.9669421315193176 71:-0.8944268822669983 72:0.4472142457962036 73:0.5092974901199341 74:0.9834710955619812 75:0.0 76:1.0 77:0.5423553586006165 78:1.0 79:0.8944275975227356 80:0.44721299409866333 
-0.4142528762792162 -4.0 -0.0 -0.0 0.0 0.0 0.0 0.0 1:0.6961009502410889 2:0.0 3:-0.5812386274337769 4:0.8137331008911133 5:0.6272935271263123 6:0.09633027017116547 7:-0.5812386274337769 8:0.8137331008911133 9:0.5584861040115356 10:0.19266054034233093 11:-0.5812350511550903 12:0.8137357234954834 13:0.4896799921989441 14:0.2889907956123352 15:-0.5477830171585083 16:0.8366205096244812 17:0.4323402941226959 18:0.38532108068466187 19:-0.5038756132125854 20:0.8637762069702148 21:0.37729328870773315 22:0.4816513657569885 23:-0.49614217877388 24:0.8682413101196289 25:0.32224762439727783 26:0.5779815912246704 27:-0.3880557119846344 28:0.9216359257698059 29:0.3038990795612335 30:0.6559633016586304 31:-0.12403418868780136 32:0.9922779202461243 33:0.3038990795612335 34:0.7247706055641174 35:0.0 36:1.0 37:0.3038990795612335 38:0.7935779690742493 39:0.11043388396501541 40:0.9938834309577942 41:0.3176608383655548 42:0.8486237525939941 43:0.39391547441482544 44:0.919146716594696 45:0.34518298506736755 46:0.8899081945419312 47:0.5546984672546387 48:0.8320514559745789 49:0.37270647287368774 50:0.9311925768852234 51:0.6305974721908569 52:0.7761101126670837 53:0.40481680631637573 54:0.963302731513977 55:0.8479974269866943 56:0.5300002098083496 57:0.44610071182250977 58:0.9770641326904297 59:0.9486821889877319 60:0.31623104214668274 61:0.4873846173286438 62:0.9908256530761719 63:0.963517963886261 64:0.26764369010925293 65:0.5286698937416077 66:1.0 67:0.9984604716300964 68:-0.055468544363975525 69:0.5699537992477417 70:0.9862385988235474 71:0.9486821293830872 72:-0.31623125076293945 73:0.611237645149231 74:0.9724770784378052 75:0.948683500289917 76:-0.31622716784477234 77:0.6525229215621948 78:0.9587156176567078 79:0.948685348033905 80:-0.31622159481048584 
-0.6023713446395456 -1.1629875539271617 -0.7722380669692489 -2.039194464145704 0.4598081183846475 0.3607335017763139 0.0 0.0 1:0.6656410098075867 2:0.0728205069899559 3:0.28408801555633545 4:-0.9587981700897217 5:0.6738461256027222 6:0.04512820765376091 7:0.33190661668777466 8:-0.9433122873306274 9:0.6851282119750977 10:0.017435899004340172 11:-0.3786315619945526 12:-0.9255474805831909 13:0.6553846597671509 14:0.0 15:-0.9995120763778687 16:-0.031234771013259888 17:0.5866667032241821 18:0.014358974993228912 19:-0.9425148963928223 20:0.334164023399353 21:0.5425640940666199 22:0.03999997675418854 23:-0.7907239198684692 24:0.6121729016304016 25:0.4594871401786804 26:0.11282050609588623 27:-0.709918200969696 28:0.7042841911315918 29:0.41333338618278503 30:0.16820509731769562 31:-0.5471231937408447 32:0.8370521068572998 33:0.339487224817276 34:0.2964102029800415 35:-0.42751219868659973 36:0.9040095806121826 37:0.31487178802490234 38:0.37641021609306335 39:-0.13073661923408508 40:0.9914171695709229 41:0.31487178802490234 42:0.4830768406391144 43:0.05014585703611374 44:0.9987419247627258 45:0.3271794319152832 46:0.6215383410453796 47:0.1898781657218933 48:0.9818076491355896 49:0.3569231331348419 50:0.7005127668380737 51:0.5299987196922302 52:0.8479984402656555 53:0.43999993801116943 54:0.8020512461662292 55:0.6176081895828247 56:0.7864859104156494 57:0.4882051348686218 58:0.8676922917366028 59:0.7071069478988647 60:0.7071065902709961 61:0.5610256195068359 62:0.923076868057251 63:0.8112572431564331 64:0.5846893787384033 65:0.6020513772964478 66:0.9497435688972473 67:0.8022328615188599 68:0.5970112681388855 69:0.6492306590080261 70:0.9887179136276245 71:0.8302959203720093 72:0.5573226809501648 73:0.6769230961799622 74:1.0 75:1.0 76:0.0 77:0.665641188621521 78:0.9887179136276245 79:-0.7071012258529663 80:-0.7071124315261841 
-0.0 -0.0 -0.0 -0.0 0.0 0.0 0.8236064465839922 0.0 1:0.5757899880409241 2:0.0 3:-0.970141589641571 4:0.24253912270069122 5:0.5591477751731873 6:0.004160617012530565 7:-0.8496580123901367 8:0.5273339748382568 9:0.49190372228622437 10:0.05206339433789253 11:-0.6885989904403687 12:0.7251423597335815 13:0.4510851502418518 14:0.11795804649591446 15:-0.5147003531455994 16:0.857370138168335 17:0.40880468487739563 18:0.19048690795898438 19:-0.45091840624809265 20:0.8925652503967285 21:0.37450796365737915 22:0.26953786611557007 23:-0.34438270330429077 24:0.9388293027877808 25:0.34639593958854675 26:0.36062076687812805 27:-0.19540873169898987 28:0.9807218909263611 29:0.3386371433734894 30:0.44956716895103455 31:0.011912968941032887 32:0.9999290704727173 33:0.3484202027320862 34:0.5305296778678894 35:0.2512848675251007 36:0.9679131507873535 37:0.3750702440738678 38:0.5899022221565247 39:0.4525560736656189 40:0.8917359709739685 41:0.39407405257225037 42:0.6204879879951477 43:0.44354191422462463 44:0.8962535858154297 45:0.4185875952243805 46:0.6778365969657898 47:0.44911888241767883 48:0.8934720158576965 49:0.4470369517803192 50:0.7258517742156982 51:0.46986088156700134 52:0.8827404379844666 53:0.4788598418235779 54:0.7910717129707336 55:0.4507526159286499 56:0.8926489353179932 57:0.504272997379303 58:0.8391993045806885 59:0.485874742269516 60:0.8740284442901611 61:0.5386820435523987 62:0.8986844420433044 63:0.580994188785553 64:0.8139077425003052 65:0.5802879333496094 66:0.9456877112388611 67:0.7731631398200989 68:0.6342071890830994 69:0.6362869739532471 70:0.9787474274635315 71:0.8308075070381165 72:0.5565598011016846 73:0.661362886428833 74:1.0 75:-0.43340158462524414 76:0.9012008905410767 77:0.6292027831077576 78:0.9934780597686768 79:-0.9800501465797424 80:-0.19875025749206543 
-0.0 -0.0 -1.1140650594804642 -0.0 0.0 1.245609511366697 0.0 4.0 1:0.7230445146560669 2:0.0 3:-0.9413376450538635 4:0.33746612071990967 5:0.7036734819412231 6:0.0069444444961845875 7:-0.955123245716095 8:0.2962086796760559 9:0.6652958989143372 10:0.017909355461597443 11:-0.936676025390625 12:0.3501969277858734 13:0.6225327253341675 14:0.03728070110082626 15:-0.9372503757476807 16:0.3486570715904236 17:0.5739216208457947 18:0.051900580525398254 19:-0.872035562992096 20:0.4894425570964813 21:0.5300619006156921 22:0.08918128907680511 23:-0.789518415927887 24:0.6137268543243408 25:0.48035430908203125 26:0.1246345043182373 27:-0.7859159111976624 28:0.6183332800865173 29:0.430647075176239 30:0.1673976629972458 31:-0.6913408041000366 32:0.722528874874115 33:0.38313207030296326 34:0.22624267637729645 35:-0.59590083360672 36:0.8030580282211304 37:0.3454861044883728 38:0.28216373920440674 39:-0.48220106959342957 40:0.8760605454444885 41:0.3113119304180145 42:0.35672515630722046 43:-0.34202080965042114 44:0.9396923184394836 45:0.29120972752571106 46:0.4312865138053894 47:-0.19241377711296082 48:0.9813138246536255 49:0.2820722758769989 50:0.5058479309082031 51:-0.09095539152622223 52:0.995854914188385 53:0.2769554853439331 54:0.5873537659645081 55:0.002236209809780121 56:0.9999974370002747 57:0.28243762254714966 58:0.6692251563072205 59:0.10920724272727966 60:0.9940189719200134 61:0.2948646545410156 62:0.7503654360771179 63:0.18456904590129852 64:0.9828195571899414 65:0.3116776943206787 66:0.8249268531799316 67:0.2882433831691742 68:0.957557201385498 69:0.33799317479133606 70:0.8936402797698975 71:0.432429701089859 72:0.901667594909668 73:0.37180158495903015 74:0.9502923488616943 75:0.4829586446285248 76:0.8756431937217712 77:0.3966555893421173 78:1.0 79:0.4472161531448364 80:0.8944259285926819 
-0.534092059946239 -0.9331467686822553 -2.9853487007198516 -0.4066374740402659 0.0 1.7159951094432182 0.0 0.0 1:0.8497307300567627 2:0.019317161291837692 3:-0.8480030298233032 4:-0.5299913883209229 5:0.8281669616699219 6:0.00584007240831852 7:-0.9650446176528931 8:-0.26208579540252686 9:0.7786016464233398 10:0.0 11:-0.9918858408927917 12:0.1271321326494217 13:0.5980088710784912 14:0.03533992916345596 15:-0.9658002257347107 16:0.25928762555122375 17:0.44616764783859253 18:0.08924829214811325 19:-0.9149399399757385 20:0.4035901427268982 21:0.32846707105636597 22:0.1542378067970276 23:-0.8201223611831665 24:0.5721881985664368 25:0.22574110329151154 26:0.2430368959903717 27:-0.6808842420578003 28:0.7323910593986511 29:0.12062010169029236 30:0.37780776619911194 31:-0.4901454746723175 32:0.8716406226158142 33:0.07374992966651917 34:0.513327419757843 35:-0.10489106178283691 36:0.9944837689399719 37:0.09261719882488251 38:0.6433063745498657 39:0.29655030369758606 40:0.9550172090530396 41:0.1559595912694931 42:0.778077244758606 43:0.529999315738678 44:0.8479980826377869 45:0.2505987882614136 46:0.8960766792297363 47:0.7446761131286621 48:0.6674259305000305 49:0.37249210476875305 50:0.9721474051475525 51:0.9485920071601868 52:0.3165014684200287 53:0.5620691776275635 54:1.0 55:0.9986834526062012 56:0.05129722133278847 57:0.7893835306167603 58:0.9935609698295593 59:0.9971543550491333 60:-0.07538755238056183 61:0.8849201202392578 62:0.9755915999412537 63:0.958183765411377 64:-0.28615355491638184 65:0.9217586517333984 66:0.9540282487869263 67:0.8181169629096985 68:-0.5750517249107361 69:0.9262501001358032 70:0.946540892124176 71:0.15527284145355225 72:-0.9878715872764587 73:0.9234062433242798 74:0.9435459971427917 75:-0.5964983701705933 76:-0.8026142716407776 77:0.918014645576477 78:0.9354597330093384 79:-0.5547539591789246 80:-0.8320144414901733 
-0.0 -4.0 -0.17581113362482934 -0.0 0.0 1.0206525982391088 3.8613486146838394 0.0 1:0.44736841320991516 2:0.0 3:0.0 4:1.0 5:0.44736841320991516 6:0.030470913276076317 7:-0.13511572778224945 8:0.9908298254013062 9:0.43905800580978394 10:0.060941826552152634 11:-0.5368778109550476 12:0.8436599373817444 13:0.4085870087146759 14:0.0914127454161644 15:-0.5881704092025757 16:0.80873703956604 17:0.3947368264198303 18:0.12188365310430527 19:-0.22161757946014404 20:0.9751336574554443 21:0.3947368264198303 22:0.15235456824302673 23:-0.18065504729747772 24:0.9835465550422668 25:0.36980557441711426 26:0.2576177418231964 27:-0.23695208132266998 28:0.9715213179588318 29:0.33933618664741516 30:0.3795013427734375 31:-0.2425362765789032 32:0.9701423645019531 33:0.3088635802268982 34:0.5013850331306458 35:-0.2195163369178772 36:0.9756088256835938 37:0.28947368264198303 38:0.6011080741882324 39:-0.11981601268053055 40:0.9927961230278015 41:0.28947368264198303 42:0.6620498299598694 43:0.10706951469182968 44:0.994251549243927 45:0.3088635802268982 46:0.7811633944511414 47:0.18065500259399414 48:0.9835465550422668 49:0.33933618664741516 50:0.9335180521011353 51:0.29982730746269226 52:0.9539934396743774 53:0.36980557441711426 54:0.9750692248344421 55:0.7070971131324768 56:0.7071164846420288 57:0.40581631660461426 58:1.0 59:0.9684927463531494 60:0.24904170632362366 61:0.4667583107948303 62:1.0 63:1.0 64:0.0 65:0.5415505170822144 66:1.0 67:1.0 68:0.0 69:0.6329634785652161 70:1.0 71:0.9874407052993774 72:-0.15799009799957275 73:0.6800553202629089 74:0.9778392910957336 75:0.827477753162384 76:-0.5614985823631287 77:0.7105263471603394 78:0.9473684430122375 79:0.7071088552474976 80:-0.7071046829223633 
-1.6110140974421505 -2.620981073792013 -1.1839443998717472 -0.9712330867723195 0.0 0.6799580861616895 4.0 0.0 1:0.4519718289375305 2:0.0 3:-0.3244192600250244 4:0.9459134340286255 5:0.43912166357040405 6:0.03746739402413368 7:-0.3640841543674469 8:0.9313660264015198 9:0.41553834080696106 10:0.09320074319839478 11:-0.39096567034721375 12:0.9204052090644836 13:0.3856038451194763 14:0.1634581983089447 15:-0.3260640501976013 16:0.9453476667404175 17:0.36177441477775574 18:0.24907687306404114 19:-0.2276734560728073 20:0.9737375974655151 21:0.34488698840141296 22:0.3376002907752991 23:-0.14165709912776947 24:0.9899157881736755 25:0.33691102266311646 26:0.42282506823539734 27:-0.039063964039087296 28:0.9992366433143616 29:0.33774805068969727 30:0.5202107429504395 31:0.03738420829176903 32:0.9993009567260742 33:0.34385305643081665 34:0.6083895564079285 35:0.1357494443655014 36:0.9907432198524475 37:0.36118361353874207 38:0.6912510395050049 39:0.25873610377311707 40:0.9659480452537537 41:0.3874255120754242 42:0.771060049533844 43:0.40563616156578064 44:0.9140346050262451 45:0.4239574372768402 46:0.832701563835144 47:0.5754488110542297 48:0.8178377747535706 49:0.4667913317680359 50:0.8838561177253723 51:0.6888281106948853 52:0.724924623966217 53:0.5150903463363647 54:0.92861008644104 55:0.7766847014427185 56:0.6298896074295044 57:0.5652602314949036 58:0.9637141823768616 59:0.85150545835495 60:0.5243456959724426 61:0.609275758266449 62:0.9866082072257996 63:0.9251176118850708 64:0.3796806037425995 65:0.6465954184532166 66:0.9970952272415161 67:0.9704028964042664 68:0.24149174988269806 69:0.6630889177322388 70:1.0 71:0.9931251406669617 72:0.1170576810836792 73:0.6595441102981567 74:0.9986214637756348 75:-0.8344452381134033 76:-0.5510908961296082 77:0.6446752548217773 78:0.9878391027450562 79:-0.8095473051071167 80:-0.5870546698570251 
-0.0 -0.0 -0.8295765717214648 -1.6500917356504177 2.582325262751288 0.3035974940095067 4.0 4.0 1:0.6559120416641235 2:0.0 3:-0.7474097609519958 4:0.6643632650375366 5:0.6332011222839355 6:0.02018745429813862 7:-0.7474094033241272 8:0.6643638014793396 9:0.6104902625083923 10:0.04037490859627724 11:-0.7231108546257019 12:0.690731942653656 13:0.5848953723907471 14:0.0663302019238472 15:-0.660812258720398 16:0.7505512833595276 17:0.5520907640457153 18:0.10670511424541473 19:-0.6305925846099854 20:0.7761140465736389 21:0.5192861557006836 22:0.14708001911640167 23:-0.5445483326911926 24:0.8387295007705688 25:0.48936545848846436 26:0.20331649482250214 27:-0.42072421312332153 28:0.9071885943412781 29:0.46160784363746643 30:0.27144914865493774 31:-0.37729716300964355 32:0.926092267036438 33:0.43384990096092224 34:0.33958184719085693 35:-0.364585816860199 36:0.9311698079109192 37:0.4082551598548889 38:0.40771448612213135 39:-0.34949252009391785 40:0.9369391798973083 41:0.38302087783813477 42:0.47584715485572815 43:-0.3326893448829651 44:0.9430364966392517 45:0.3603099584579468 46:0.5436192750930786 47:-0.22139309346675873 48:0.9751846790313721 49:0.35273972153663635 50:0.6092285513877869 51:-0.11462319642305374 52:0.9934089779853821 53:0.3451694846153259 54:0.6748377680778503 55:-0.0663352832198143 56:0.9977973699569702 57:0.34408798813819885 58:0.7393655776977539 59:0.05078120157122612 60:0.9987098574638367 61:0.3516582250595093 62:0.8024513125419617 63:0.11914432048797607 64:0.9928769469261169 65:0.3592284619808197 66:0.865537166595459 67:0.2112508863210678 68:0.9774318933486938 69:0.37581101059913635 70:0.9142032861709595 71:0.3726502060890198 72:0.9279718995094299 73:0.395998477935791 74:0.9571017026901245 75:0.42579737305641174 76:0.9048185348510742 77:0.41618597507476807 78:1.0 79:0.42579811811447144 80:0.9048181772232056 
