svm_type c_svc
kernel_type rbf
gamma 0.00390625
nr_class 22
total_sv 197
rho -0.166024598223919 0.03837670605359984 -0.17261494930390475 -0.3279338744686282 0.49732150910732825 0.10160349628562493 -0.49779217623312694 -0.12644127547135295 0.2643076926198058 -0.06130700822861081 -0.09797412955150836 -0.11372065185577733 -0.09198363771424085 -0.39529201438588163 0.3333066608745916 -0.30225305724079504 -0.033799209227838495 -0.2551940565657188 0.13511368078134117 -0.03274013177015456 -0.0999710083296496 0.6220649497882015 0.11899890973332047 -0.10073805243454802 0.5467669688641893 0.8668366908874067 -0.6434227555614954 -0.14876678440429675 0.8791788654388492 0.12304778900128314 0.29122166324321086 0.05039910854013948 0.12495661957878464 -0.1792537140589317 0.4476153956038235 -0.19752306357171198 0.0351519929967771 -0.1088995533311138 0.4936049650011558 -0.010983374000763596 0.1569672450265494 -0.069716048432353 -0.37975271896679647 0.3822927822262271 -0.010246017189163717 -0.7274924906642839 -0.4446719494134526 0.10387459439857691 -0.2248907376303897 -0.28385252759519525 -0.28239101160814717 -0.5689781829927113 -0.3315035427003411 0.1665300749339236 -0.5906246646287776 -0.11939558084920697 -0.32791606032154924 -0.12862434012527438 -0.2936629345637227 0.04300519586687874 -0.09168015016557109 0.33465924950530274 0.3438746586371298 -0.12611328091904403 -0.06221427007967482 0.12856175084637675 -0.06934114748669273 -0.13757696840629485 -0.12365107451426836 -0.11039087651806553 -0.14893986563533948 0.251466798089786 -0.025718220227155215 -0.12637558437852459 -0.20670721635070008 0.05212325322874096 -0.11179689116704755 0.085723458908527 1.1779494014125167 0.291189007644958 -0.024434659479307102 0.010336580368859755 0.6589100458430533 0.16250137697027534 0.4652280443430101 0.11213788220682629 0.09554126408059342 -0.08388532456323339 0.4341242538163096 0.07218710306383083 0.14342288655616528 -0.2561699858933524 0.24420635497810225 -0.016114107130213676 -0.23320849368874694 -0.015661726486081284 -0.6806572646408717 -0.6094069095876335 -0.16974671237199537 -0.49065544563281793 -0.4028431227512825 -0.515337605196687 -0.32486737678918975 -1.2684440244611566 -0.4635604793768352 -0.6271867386002374 -0.5975601903599691 -1.2556913732074406 -0.44976358663147803 -0.6479530810786149 -0.5233358327401928 -0.6217619151619879 -0.7492334618387128 -0.029071371383290877 -0.26347155366862673 -0.38306308083069973 -0.32470555627489384 -0.8843340211112918 -0.3984376711377997 -0.011337622350224457 -0.38951416008378303 -0.2213808009325842 -0.5308626426991834 -0.021506876752944826 -0.22843313613948277 -0.18392294263895184 0.31181713010510737 0.8976927614580971 0.23623405652925195 0.26580443663332876 0.07268988927742288 0.528656738668112 0.042458746402564716 0.5665533403385015 0.5112994379061989 0.11876337001439177 0.0048826448894485185 0.3255836690400053 0.0729456801914891 0.2531104970329469 0.6999011148981494 0.2290634506681463 0.3246094330032633 0.05494827877171643 0.46275823872735283 -0.05371919538796523 0.3900696652026601 -0.07894809269968737 0.13540316323184318 0.03388543276473972 0.2962834743597429 0.13700315241618558 0.1682471765836673 -0.3489223253577055 -0.23602361020748094 -0.32087238854520517 -0.455495504567161 -0.8065474168391255 -0.0047815728105376374 -0.7429830312655804 -0.2810655023695264 -0.5877740557458846 -0.14391841027797644 -0.34923069805798485 -0.3291076402909626 0.04438651191195801 -0.1329995444225235 -0.11409535731148542 -0.1519385328850013 0.18764309976720464 -0.018581263293877867 -0.020804925108363213 -0.16858811764643214 0.25627530547155386 -0.1539243528572326 -0.009038905768315775 -0.18932020405432262 -0.402607226343148 -0.18799315259555716 0.22655688890238007 -0.14674819444595372 -0.22286984401416235 -0.320073272803878 0.10956127351728505 -0.3851959912490377 -0.06128104828806952 0.07559472833352468 -0.026657548464108775 0.40003474488746277 0.038713896408827206 0.04340258174871225 -0.18280796811000516 0.15356177258091303 -0.07619815917999462 0.14137038283261655 -0.08602116244287179 0.2398232397699807 -0.0674110182900036 0.12152301597172835 -0.06255701368271495 -0.15808951090673046 -0.0012450236318216966 -0.020501216568259057 1.0990034782769453 0.23243313265203988 0.11499702159949936 0.04047292130615493 0.3366037271757845 0.11085915749259716 0.11065425442246468 -0.3377108831202231 -0.3616627648879797 -0.41078522063877354 -0.23811231381527206 -0.327955644040958 -0.20306973098143952 0.011674174984948948 -0.07370686307112691 0.3049619775018243 0.015179563663298506 0.048341683410302975 -0.1309532433852203 0.15598966406202958 -0.45868375809981493 -0.001484063890560257 0.2022934079303342 0.03414363078985701 -0.018123385184664133 -0.2653990570743089 -0.20433479098060703 0.07439087216461468
label 106 104 118 114 102 113 100 98 110 121 109 107 119 117 115 103 112 101 99 97 122 111
nr_sv 10 10 10 8 10 10 9 10 9 10 9 10 8 10 7 9 10 7 6 8 9 8
SV
0.0 0.0 0.0 0.0 0.0 0.0 0.13045419646898312 0.0 0.0 0.0 0.0 0.0 0.0 1.7128180772055417 0.0 3.8873492975 0.0 0.0 0.0 0.0 0.0 1:0.552837610244751 2:0.29941290616989136 3:0.7893518805503845 4:0.613940954208374 5:0.5880626440048218 6:0.32681018114089966 7:0.3643992841243744 8:0.931242823600769 9:0.5880626440048218 10:0.38943246006965637 11:0.27074554562568665 12:0.9626509547233582 13:0.6232876777648926 14:0.4520547688007355 15:0.30700331926345825 16:0.9517084360122681 17:0.6272016763687134 18:0.5107632279396057 19:0.3643990457057953 20:0.9312428832054138 21:0.6585127115249634 22:0.5420743823051453 23:0.31622669100761414 24:0.9486836194992065 25:0.6585127115249634 26:0.6046966910362244 27:0.0 28:1.0 29:0.6585127115249634 30:0.7025440335273743 31:0.0 32:1.0 33:0.6585127115249634 34:0.7651662826538086 35:0.0 36:1.0 37:0.6585127115249634 38:0.8277886509895325 39:0.0 40:1.0 41:0.6585127115249634 42:0.8904109597206116 43:-0.2707454562187195 44:0.9626509547233582 45:0.6232876777648926 46:0.9530332684516907 47:-0.6163080334663391 48:0.7875051498413086 49:0.5880626440048218 50:0.980430543422699 51:-0.8320502042770386 52:0.5547003746032715 53:0.552837610244751 54:1.0 55:-0.9847835302352905 56:-0.1737857460975647 57:0.5215265154838562 58:0.9686888456344604 59:-0.7893524765968323 60:-0.6139402389526367 61:0.4823874831199646 62:0.9452055096626282 63:-0.8705639839172363 64:-0.49205517768859863 65:0.43150636553764343 66:0.9178081750869751 67:-0.8877542614936829 68:-0.4603177011013031 69:0.3767123222351074 70:0.8904109001159668 71:-0.7071049809455872 72:-0.7071084976196289 73:0.3414872884750366 74:0.8277886509895325 75:-0.490261435508728 76:-0.8715754151344299 77:0.6232876777648926 78:0.0 79:0.0 80:0.0 
0.0 0.0 0.0 0.0 0.0 0.0 0.0 0.0 0.0 0.0 0.0 0.0 0.0 0.0 0.0 0.0 0.0 0.0 0.0 0.0 1.8584744133586666 1:0.5921052694320679 2:0.3947368562221527 3:0.6441360116004944 4:0.7649109959602356 5:0.6184210777282715 6:0.4259868562221527 7:0.28408852219581604 8:0.9587979912757874 9:0.6184210777282715 10:0.48355263471603394 11:0.0 12:1.0 13:0.6184210777282715 14:0.5559210777282715 15:0.1381959170103073 16:0.9904048442840576 17:0.6381579041481018 18:0.625 19:0.20344661176204681 20:0.9790860414505005 21:0.6447368860244751 22:0.6825658082962036 23:0.06959842145442963 24:0.9975751042366028 25:0.6480263471603394 26:0.7664473652839661 27:0.18290765583515167 28:0.9831300973892212 29:0.6710526347160339 30:0.8240131735801697 31:0.19611592590808868 32:0.9805806279182434 33:0.6710526347160339 34:0.8815789222717285 35:-0.28408804535865784 36:0.9587982296943665 37:0.6447368860244751 38:0.9128289222717285 39:-0.2840878665447235 40:0.9587982296943665 41:0.6447368860244751 42:0.9703947305679321 43:-0.6556869149208069 44:0.7550329566001892 45:0.5904605388641357 46:0.9753289222717285 47:-0.9778023958206177 48:0.20952902734279633 49:0.5065789222717285 50:1.0 51:-0.9999323487281799 52:-0.0116270761936903 53:0.4490131735801697 54:0.9736841917037964 55:-0.9374251961708069 56:-0.3481867015361786 57:0.39144736528396606 58:0.9572368264198303 59:-0.891278088092804 60:-0.4534570872783661 61:0.3552631437778473 62:0.9259868264198303 63:-0.7071067690849304 64:-0.7071067690849304 65:0.32894736528396606 66:0.8947368264198303 67:-0.644135594367981 68:-0.7649112939834595 69:0.6184210777282715 70:0.0 71:-0.24253682792186737 72:0.9701421856880188 73:0.6052631139755249 74:0.05263157933950424 75:-0.2425357699394226 76:0.9701424241065979 77:0.5921052694320679 78:0.10526315867900848 79:-0.24253474175930023 80:0.970142662525177 
1.5482904188723645 5.95013051627007 1.0632740011281125 0.0 0.0 1.013556423589831 3.1187174262173074 0.0 0.0 0.0 0.0 0.0 0.0 1.5076340575188738 1.1033892995626515 0.0 0.0 0.0 0.0 0.0 3.326998339223289 1:0.529411792755127 2:0.0 3:0.7070942521095276 4:0.707119345664978 5:0.57275390625 6:0.04334365203976631 7:0.4568043351173401 8:0.8895672559738159 9:0.5882352590560913 10:0.11455108225345612 11:0.15080095827579498 12:0.988564133644104 13:0.6006182432174683 14:0.2260061651468277 15:0.1920095682144165 16:0.981393039226532 17:0.6439622044563293 18:0.39938080310821533 19:0.27215445041656494 20:0.9622536301612854 21:0.6873061656951904 22:0.5325077176094055 23:0.3899947702884674 24:0.9208170771598816 25:0.7554177641868591 26:0.6625386476516724 27:0.4640078842639923 28:0.8858309984207153 29:0.8235294222831726 30:0.792569637298584 31:0.2533600628376007 32:0.967371940612793 33:0.8235294222831726 34:0.9226005673408508 35:0.0 36:1.0 37:0.8235294222831726 38:0.9783281683921814 39:-0.2696208655834198 40:0.9629665017127991 41:0.8018583655357361 42:1.0 43:-0.9629643559455872 44:0.2696286737918854 45:0.7461296319961548 46:1.0 47:-1.0 48:0.0 49:0.6160996556282043 50:1.0 51:-0.9888367652893066 52:-0.14900286495685577 53:0.5201236605644226 54:0.9659442901611328 55:-0.9207528233528137 56:-0.3901465833187103 57:0.4334357678890228 58:0.9226006269454956 59:-0.887995719909668 60:-0.4598516821861267 61:0.34674787521362305 62:0.8761610388755798 63:-0.7931491136550903 64:-0.6090273857116699 65:0.2600618004798889 66:0.7894737124443054 67:-0.7071018815040588 68:-0.7071117162704468 69:0.20433492958545685 70:0.7337461113929749 71:-0.6448704600334167 72:-0.7642918825149536 73:0.1764705777168274 74:0.6904025077819824 75:-0.3060150444507599 76:-0.9520267248153687 77:0.1764705777168274 78:0.6470588445663452 79:0.0 80:-1.0 
0.0 0.0 0.0 3.596192297053305 0.5202393846716222 3.3874869504781318 0.0 0.0 0.4393709108780393 0.0 5.785484460245875 0.0 0.0 0.0 0.0 0.0 3.227531186437608 0.7292051353796644 0.0 6.0317657788528365 0.0 1:0.4864864945411682 2:0.37837839126586914 3:0.8395698070526123 4:-0.5432518720626831 5:0.5135135054588318 6:0.36089029908180237 7:0.6043890714645386 8:-0.7966892123222351 9:0.5214629173278809 10:0.3322734236717224 11:0.7854892611503601 12:0.6188752055168152 13:0.5659773349761963 14:0.4022257626056671 15:0.3691927492618561 16:0.9293528199195862 17:0.5675675868988037 18:0.44833070039749146 19:0.22486256062984467 20:0.97439044713974 21:0.5945945978164673 22:0.526232123374939 23:0.1856067180633545 24:0.9826241731643677 25:0.5945945978164673 26:0.5914149284362793 27:0.0 28:1.0 29:0.5945945978164673 30:0.6772655248641968 31:-0.13267481327056885 32:0.9911596179008484 33:0.5675675868988037 34:0.793322741985321 35:-0.1462368369102478 36:0.989249587059021 37:0.5675675868988037 38:0.8600953817367554 39:-0.33633503317832947 40:0.9417424201965332 41:0.5278221368789673 42:0.9046105146408081 43:-0.554705798625946 44:0.8320465683937073 45:0.5103330612182617 46:0.9459459185600281 47:-0.7071087956428528 48:0.7071047425270081 49:0.4658186435699463 50:0.9666136503219604 51:-0.8980607390403748 52:0.43987149000167847 53:0.4324324131011963 54:0.9841017723083496 55:-0.8804718852043152 56:0.4740983843803406 57:0.4038151800632477 58:1.0 59:-0.977176308631897 60:0.2124302089214325 61:0.35930076241493225 62:1.0 63:-0.9928767085075378 64:-0.11914650350809097 65:0.3243243098258972 66:0.990460991859436 67:-0.5432543754577637 68:-0.8395681977272034 69:0.3243243098258972 70:0.9459459185600281 71:0.0 72:-1.0 73:0.6486486196517944 74:0.0 75:0.7071065306663513 76:0.7071070075035095 77:0.675675630569458 78:0.027027027681469917 79:0.7071065306663513 80:0.7071070075035095 
2.432527491683839 8.616969157289065 0.0 4.950243811050806 11.050226626192968 2.467610036477361 5.4380097635589015 2.6227890212505325 14.351725202891336 3.4425553097217505 2.776442458289892 3.019400260912741 2.5817663980652323 13.841419837726225 12.3355549063778 7.6736760436303655 3.813144483795918 3.449543378799515 3.2775317092246246 4.891467537248866 2.275008721971061 1:0.5723289251327515 2:0.02270483784377575 3:-0.7498396039009094 4:-0.6616196036338806 5:0.5555469989776611 6:0.007897336035966873 7:-0.8705617785453796 8:-0.4920591413974762 9:0.5496242046356201 10:0.009871670044958591 11:0.0 12:1.0 13:0.5555469989776611 14:0.009871669113636017 15:0.8944270610809326 16:-0.44721388816833496 17:0.569367527961731 18:0.0 19:0.9972677826881409 20:-0.0738714337348938 21:0.5822005867958069 22:0.007897336035966873 23:0.8516563177108765 24:0.5241007804870605 25:0.6019439101219177 26:0.33859819173812866 27:0.049527477473020554 28:0.9987727999687195 29:0.6042220592498779 30:0.3845394253730774 31:0.11314770579338074 32:0.9935781955718994 33:0.6140936613082886 34:0.44528818130493164 35:0.19502820074558258 36:0.9807976484298706 37:0.6304198503494263 38:0.5162882208824158 39:0.1998177319765091 40:0.9798331260681152 41:0.6456069350242615 42:0.5998177528381348 43:0.14688213169574738 44:0.9891539812088013 45:0.6547194719314575 46:0.6799300909042358 47:-0.030217094346880913 48:0.9995433688163757 49:0.6406713724136353 50:0.7630799412727356 51:-0.24733878672122955 52:0.9689290523529053 53:0.6133342385292053 54:0.8420532941818237 55:-0.3922281563282013 56:0.9198679327964783 57:0.5768851637840271 58:0.9126737117767334 59:-0.5999993681907654 60:0.8000004291534424 61:0.5301845073699951 62:0.9529197812080383 63:-0.7764127850532532 64:0.6302247047424316 65:0.4861416220664978 66:0.9863314628601074 67:-0.8914852738380432 68:0.4530496299266815 69:0.43754273653030396 70:1.0 71:-0.9997026324272156 72:0.02438373863697052 73:0.3927403688430786 74:0.9886096119880676 75:-0.9660367369651794 76:-0.2584048807621002 77:0.34528055787086487 78:0.9753208160400391 79:-0.9629637598991394 80:-0.2696308493614197 
0.2605078892556834 10.0739026544926 2.805531759819562 0.0 0.0 1.7646298905593993 0.0 0.668507433734253 10.115437812441032 2.4610122303353594 1.1469085722418537 0.0 3.479155529472586 0.0 0.0 0.0 0.0 0.0 2.6648683965993722 1.1687618498632069 0.5474476787306165 1:0.4411570429801941 2:0.22682447731494904 3:0.4270053803920746 4:0.9042490720748901 5:0.45233386754989624 6:0.2504931092262268 7:0.35834595561027527 8:0.9335888028144836 9:0.4661405086517334 10:0.2919132113456726 11:0.2945101857185364 12:0.9556483030319214 13:0.48454976081848145 14:0.3550296127796173 15:0.3515050709247589 16:0.9361859560012817 17:0.5325442552566528 18:0.4687705636024475 19:0.39648541808128357 20:0.9180409908294678 21:0.5825111865997314 22:0.5818541049957275 23:0.3923659026622772 24:0.9198092222213745 25:0.6127545833587646 26:0.6568047404289246 27:0.3185308575630188 28:0.9479125738143921 29:0.6370807886123657 30:0.7442471981048584 31:0.25956395268440247 32:0.9657258987426758 33:0.6574622392654419 34:0.8231427073478699 35:0.047158051282167435 36:0.9988874793052673 37:0.6443129181861877 38:0.8974359631538391 39:-0.29234540462493896 40:0.9563128352165222 41:0.6186718344688416 42:0.9500328898429871 43:-0.5667776465415955 44:0.8238707184791565 45:0.5805389881134033 46:0.990138053894043 47:-0.871403157711029 48:0.49056756496429443 49:0.5299144387245178 50:1.0 51:-0.9999331831932068 52:-0.011559497565031052 53:0.4667978286743164 54:0.9888231754302979 55:-0.9260357618331909 56:-0.3774358928203583 57:0.3911897540092468 58:0.9434582591056824 59:-0.7752344608306885 60:-0.6316735744476318 61:0.34253770112991333 62:0.8875740170478821 63:-0.6566171050071716 64:-0.7542240619659424 65:0.34253770112991333 66:0.0 67:0.0 68:1.0 69:0.34253770112991333 70:0.009861933067440987 71:0.0 72:1.0 73:0.34253770112991333 74:0.02958580106496811 75:0.24253591895103455 76:0.9701423645019531 77:0.35239964723587036 78:0.04930966719985008 79:0.4472140669822693 80:0.8944269418716431 
0.0 0.4017647157894995 0.0 0.0 0.0 0.0 0.0 0.0 0.0 0.0 0.0 5.691747017754046 0.0 0.7699222579594072 0.0 0.0 0.0 0.0 0.0 0.0 0.515147983592005 1:0.5138888955116272 2:0.4722222089767456 3:0.539053738117218 4:0.8422713279724121 5:0.5416666865348816 6:0.515625 7:0.29408594965934753 8:0.9557790160179138 9:0.5416666865348816 10:0.5625 11:0.0 12:1.0 13:0.5416666865348816 14:0.6493055820465088 15:0.0 16:1.0 17:0.5416666865348816 18:0.7013888955116272 19:0.0 20:1.0 21:0.5416666865348816 22:0.7673611044883728 23:0.0 24:1.0 25:0.5416666865348816 26:0.8263888955116272 27:0.0 28:1.0 29:0.5416666865348816 30:0.8871527910232544 31:0.0 32:1.0 33:0.5416666865348816 34:0.9305555820465088 35:-0.42579713463783264 36:0.9048186540603638 37:0.5138888955116272 38:0.9461805820465088 39:-0.7348038554191589 40:0.67827969789505 41:0.4965277910232544 42:0.9722222089767456 43:-0.5225621461868286 44:0.852601170539856 45:0.4809027910232544 46:1.0 47:-0.9048186540603638 48:0.42579713463783264 49:0.4375 50:1.0 51:-1.0 52:0.0 53:0.366319477558136 54:1.0 55:-0.9656156301498413 56:-0.25997376441955566 57:0.347222238779068 58:0.9756944179534912 59:-0.7612430453300476 60:-0.6484667062759399 61:0.319444477558136 62:0.9600694179534912 63:-0.8715755939483643 64:-0.4902612864971161 65:0.2916666865348816 66:0.9444444179534912 67:-0.871575653553009 68:-0.4902610778808594 69:0.7083333730697632 70:0.0833333358168602 71:0.0 72:-1.0 73:0.7083333730697632 74:0.0416666679084301 75:0.0 76:-1.0 77:0.7083333730697632 78:0.0 79:0.0 80:-1.0 
0.0 4.575909196985636 7.586817081265496 8.258814500121368 5.601360624720642 1.8697424661949753 0.0 0.0 0.0 0.0 2.203623070258423 1.4324888428814901 0.0 1.1273988444828915 1.8874855646966866 0.0 2.788944580121282 5.352948231648825 0.2997126457285299 3.9053286308038473 2.4129218771277237 1:0.5846153497695923 2:0.32307693362236023 3:0.31622886657714844 4:-0.9486829042434692 5:0.5923076868057251 6:0.30000001192092896 7:0.7071081399917603 8:0.7071053981781006 9:0.6000000238418579 10:0.3384615480899811 11:0.16439898312091827 12:0.9863938689231873 13:0.607692301273346 14:0.39230769872665405 15:0.2747211456298828 16:0.9615240097045898 17:0.6307692527770996 18:0.446153849363327 19:0.19611632823944092 20:0.9805806279182434 21:0.6307692527770996 22:0.5076923370361328 23:0.0 24:1.0 25:0.6307692527770996 26:0.6000000238418579 27:-0.09053609520196915 28:0.9958931803703308 29:0.615384578704834 30:0.6769230961799622 31:-0.17888543009757996 32:0.9838699102401733 33:0.6000000238418579 34:0.7692307829856873 35:-0.22162093222141266 36:0.9751328825950623 37:0.5769230723381042 38:0.8461538553237915 39:-0.31622812151908875 40:0.9486832022666931 41:0.5538461208343506 42:0.9076923131942749 43:-0.4228857755661011 44:0.9061830639839172 45:0.5230768918991089 46:0.9615384340286255 47:-0.5547001957893372 48:0.8320503234863281 49:0.4923076629638672 50:1.0 51:-0.8741570115089417 52:0.4856433868408203 53:0.45384615659713745 54:1.0 55:-0.9805806875228882 56:-0.1961161345243454 57:0.41538459062576294 58:0.9846153855323792 59:-0.8479982018470764 60:-0.5299990177154541 61:0.39230766892433167 62:0.9615384340286255 63:-0.6000000238418579 64:-0.800000011920929 65:0.3692307472229004 66:0.9230769276618958 67:-0.5144960284233093 68:-0.8574927449226379 69:0.6000000238418579 70:0.04615384712815285 71:0.4472121596336365 72:-0.8944278955459595 73:0.615384578704834 74:0.015384615398943424 75:0.5547001361846924 76:-0.8320503234863281 77:0.6307692527770996 78:0.0 79:0.7071081399917603 80:-0.7071054577827454 
2.9100648871161474 0.5311493935766599 2.470405474891858 4.792474977172784 1.2588280293844158 3.256336719613352 0.0 0.0 1.9017567908304853 5.158133876775247 6.790208071205138 0.0 0.0 0.0 0.0 0.5936940750510493 0.0 0.9915685443904876 3.7089995270683387 0.0 0.028745156690212374 1:0.6834862232208252 2:0.2844036817550659 3:-0.4472130239009857 4:0.8944275379180908 5:0.6743119359016418 6:0.302752286195755 7:-0.316226989030838 8:0.9486835598945618 9:0.6651376485824585 10:0.33944955468177795 11:-0.09950343519449234 12:0.9950372576713562 13:0.6651376485824585 14:0.39449542760849 15:0.0 16:1.0 17:0.6651376485824585 18:0.4678899049758911 19:0.0 20:1.0 21:0.6651376485824585 22:0.642201840877533 23:-0.03996819257736206 24:0.9992009401321411 25:0.6559633016586304 26:0.6972476840019226 27:-0.1414218544960022 28:0.9899493455886841 29:0.6467889547348022 30:0.7706422209739685 31:-0.29827457666397095 32:0.9544801115989685 33:0.6100918054580688 34:0.8440366983413696 35:-0.4705878794193268 36:0.8823531270027161 37:0.5733945369720459 38:0.9082568883895874 39:-0.581238329410553 40:0.8137333393096924 41:0.5183486342430115 42:0.9724770784378052 43:-0.7682212591171265 44:0.6401842832565308 45:0.4633027911186218 46:1.0 47:-0.9701425433158875 48:0.24253550171852112 49:0.4082568883895874 50:1.0 51:-0.986393928527832 52:-0.16439902782440186 53:0.35321101546287537 54:0.9816513657569885 55:-0.857492983341217 56:-0.5144955515861511 57:0.3165137767791748 58:0.9449541568756104 59:-0.7071071267127991 60:-0.7071065306663513 61:0.6467889547348022 62:0.0 63:0.0 64:1.0 65:0.6467889547348022 66:0.00917431153357029 67:0.0 68:1.0 69:0.6467889547348022 70:0.027522936463356018 71:0.0 72:1.0 73:0.6467889547348022 74:0.03669724613428116 75:-0.24253353476524353 76:0.9701430201530457 77:0.6376147270202637 78:0.06422018259763718 79:-0.31622514128685 80:0.9486841559410095 
9.505844928102857 3.5745340276801283 2.15378567806708 0.0 4.077500893893596 11.457201244064933 7.327258991974839 7.765356772715511 11.571547813564127 1.176659613986772 6.5938621421415196 1.1717112365714544 8.462579774070194 2.2300288792286964 5.763620471513531 12.144944102971795 0.9319680659248287 1.9569716329843216 4.256427768570172 0.0 3.9400805712396485 1:0.6123291254043579 2:0.3287280201911926 3:-0.8584731817245483 4:0.512858510017395 5:0.6007658839225769 6:0.3356359899044037 7:-0.5581775903701782 8:0.8297215104103088 9:0.5678778886795044 10:0.3948040306568146 11:-0.31277504563331604 12:0.949827253818512 13:0.5518090128898621 14:0.4843069612979889 15:-0.07363937795162201 16:0.9972849488258362 17:0.5524091124534607 18:0.6042948961257935 19:-0.06881999224424362 20:0.9976290464401245 21:0.5345398187637329 22:0.7346448302268982 23:-0.27902457118034363 24:0.9602839946746826 25:0.4792770445346832 26:0.8559843897819519 27:-0.5496379137039185 28:0.8354030251502991 29:0.3987840414047241 30:0.9409821033477783 31:-0.7641793489456177 32:0.6450038552284241 33:0.3251987099647522 34:0.9860338568687439 35:-0.9334878921508789 36:0.35860902070999146 37:0.24515575170516968 38:1.0 39:-0.9998493194580078 40:-0.01735805906355381 41:0.19545035064220428 42:0.9837813377380371 43:-0.7810296416282654 44:-0.6244940161705017 45:0.1762276589870453 46:0.9448866248130798 47:-0.44306614995002747 48:-0.8964889645576477 49:0.8237723112106323 50:0.0 51:-0.5093242526054382 52:0.8605746626853943 53:0.8032413721084595 54:0.03468989580869675 55:-0.5187071561813354 56:0.8549520373344421 57:0.7640684843063354 58:0.09840602427721024 59:-0.5941340327262878 60:0.8043661117553711 61:0.6958678960800171 62:0.18005706369876862 63:-0.7054766416549683 64:0.7087331414222717 65:0.6109127998352051 66:0.2522686719894409 67:-0.8165175318717957 68:0.5773206353187561 69:0.5653678178787231 70:0.2723274528980255 71:-0.8780012130737305 72:0.4786584675312042 73:0.5377581715583801 74:0.29215025901794434 75:-0.5051769614219666 76:0.8630157113075256 77:0.5313860774040222 78:0.3303799331188202 79:-0.16441109776496887 80:0.9863919615745544 
-0.0 0.0 0.0 0.0 0.0 0.0 3.9900384141140828 0.0 0.0 0.0 0.0 0.0 0.0 0.0 0.0 0.0 1.4882682561788856 0.0 0.0 1.0623822611231897 0.0 1:0.3187134265899658 2:0.0 3:-0.07319732755422592 4:0.9973174929618835 5:0.3109161853790283 6:0.10623782128095627 7:0.0 8:1.0 9:0.3187134265899658 10:0.21832360327243805 11:0.07147816568613052 12:0.9974421858787537 13:0.3323587477207184 14:0.40545809268951416 15:0.05713539198040962 16:0.9983664155006409 17:0.33723193407058716 18:0.5419103503227234 19:0.019226785749197006 20:0.9998151659965515 21:0.33723193407058716 22:0.6588694453239441 23:0.08565695583820343 24:0.9963247179985046 25:0.3557504713535309 26:0.7573099732398987 27:0.16039584577083588 28:0.9870527982711792 29:0.37524357438087463 30:0.8927875757217407 31:0.1520572304725647 32:0.988371729850769 33:0.39278751611709595 34:0.9980506896972656 35:-0.3162271976470947 36:0.948683500289917 37:0.3557504713535309 38:0.9512670040130615 39:-0.24104273319244385 40:-0.9705144762992859 41:0.3557504713535309 42:0.8489277958869934 43:0.0655866339802742 44:-0.9978469014167786 45:0.36939579248428345 46:0.7436646223068237 47:0.3579358160495758 48:-0.9337461590766907 49:0.4454190135002136 50:0.6150097250938416 51:0.6779636144638062 52:-0.7350954413414001 53:0.5428849458694458 54:0.5555555820465088 55:0.9711913466453552 56:-0.23830091953277588 57:0.655945360660553 58:0.5633529424667358 59:0.7606865763664246 60:0.6491193175315857 61:0.6890838146209717 62:0.6803119778633118 63:0.12247506529092789 64:0.9924716353416443 65:0.6842104196548462 66:0.792397677898407 67:-0.09228765219449997 68:0.9957323670387268 69:0.6705652475357056 70:0.8801169991493225 71:-0.26266372203826904 72:0.9648874402046204 73:0.6364521384239197 74:0.967836320400238 75:0.0 76:1.0 77:0.6705652475357056 78:1.0 79:0.7275905609130859 80:0.6860116124153137 
-0.830020212401325 0.0 0.0 2.6588220740514554 5.2232241141651485 3.665461557755505 1.3216541803741415 0.0 3.0814579813975227 0.0 1.2416859915722815 0.0 0.0 1.5447091145355154 5.451937986873965 0.0 1.5537824530016697 3.3196980721844267 2.770457643298994 2.9270761210610186 0.0 1:0.29950839281082153 2:0.0012090194504708052 3:-0.9301525950431824 4:-0.3671732246875763 5:0.2964456081390381 6:0.0 7:-0.13365890085697174 8:0.9910274147987366 9:0.2962037920951843 10:0.025711314752697945 11:0.06335540860891342 12:0.9979910850524902 13:0.3049086332321167 14:0.13331179320812225 15:0.052652757614851 16:0.9986128807067871 17:0.3128073215484619 18:0.34061408042907715 19:0.0600929781794548 20:0.9981927871704102 21:0.33037805557250977 22:0.5563794374465942 23:0.057898662984371185 24:0.9983224868774414 25:0.337390273809433 26:0.7644876837730408 27:0.01716579869389534 28:0.9998525977134705 29:0.3362618088722229 30:0.8990891575813293 31:-0.015383015386760235 32:0.9998816847801208 33:0.33473044633865356 34:0.9373739957809448 35:-0.4946165084838867 36:-0.8691112995147705 37:0.3306198716163635 38:0.8891754746437073 39:0.053352683782577515 40:-0.9985758066177368 41:0.34553074836730957 42:0.7352300882339478 43:0.24064016342163086 44:-0.9706144332885742 45:0.39082780480384827 46:0.6463286876678467 47:0.771764874458313 48:-0.6359080672264099 49:0.4760214686393738 50:0.6277101635932922 51:0.9905366897583008 52:0.1372479349374771 53:0.5810428857803345 54:0.6726847290992737 55:0.79298996925354 56:0.6092346906661987 57:0.6579350233078003 58:0.7674698829650879 59:0.45034897327423096 60:0.8928526639938354 61:0.6828403472900391 62:0.8745062947273254 63:0.1742354929447174 64:0.9847039580345154 65:0.6917061805725098 66:0.9583299160003662 67:0.13233260810375214 68:0.9912052750587463 69:0.6994439363479614 70:0.9988714456558228 71:0.23855653405189514 72:0.9711286425590515 73:0.7019423842430115 74:1.0 75:0.28734681010246277 76:-0.9578266143798828 77:0.7037962675094604 78:0.9843636155128479 79:0.11773751676082611 80:-0.9930447936058044 
-0.0 0.06590565004181477 4.329858934890424 0.0 5.8791464005768805 1.9978510945420125 4.267440327790675 0.0 1.3137775259506173 0.0 0.0 0.0 0.0 0.0 0.0 0.0 0.0 0.0 0.0 0.0 0.0 1:0.36213627457618713 2:0.0 3:0.9985433220863342 4:0.053954895585775375 5:0.37516146898269653 6:7.037981995381415E-4 7:0.10022915154695511 8:0.9949643611907959 9:0.37532538175582886 10:0.13092689216136932 11:-0.015651380643248558 12:0.9998774528503418 13:0.3711603879928589 14:0.2563100755214691 15:-0.03806869685649872 16:0.9992750883102417 17:0.36213627457618713 18:0.4771311581134796 19:-0.041817598044872284 20:0.9991252422332764 21:0.3552910387516022 22:0.6354678273200989 23:-0.04213995113968849 24:0.9991117119789124 25:0.3491303324699402 26:0.7854938507080078 27:-0.1044369488954544 28:0.9945314526557922 29:0.32038044929504395 30:0.9679141640663147 31:-0.3305799961090088 32:0.9437779188156128 33:0.2991602420806885 34:0.9281542301177979 35:0.1284761130809784 36:-0.9917126297950745 37:0.3340708315372467 38:0.8622375130653381 39:0.5137222409248352 40:-0.8579564690589905 41:0.3924384117126465 42:0.7723723649978638 43:0.46668243408203125 44:-0.8844249844551086 45:0.47252747416496277 46:0.5998438596725464 47:0.5058114528656006 48:-0.8626440763473511 49:0.5362361669540405 50:0.5271302461624146 51:0.9093490242958069 52:-0.41603410243988037 53:0.6417876482009888 54:0.5224060416221619 55:0.8613234758377075 56:0.5080569982528687 57:0.6746447086334229 58:0.6087713837623596 59:0.19151028990745544 60:0.9814906120300293 61:0.6822804808616638 62:0.7299318909645081 63:0.014646803960204124 64:0.9998927712440491 65:0.678809642791748 66:0.893098771572113 67:-0.03162609413266182 68:0.9994997978210449 69:0.6746447086334229 70:0.9712501168251038 71:0.17742463946342468 72:0.984134316444397 73:0.6980823278427124 74:1.0 75:0.9788398146629333 76:0.20462803542613983 77:0.7008397579193115 78:0.976726233959198 79:0.11765514314174652 80:-0.9930545091629028 
-11.625710573761534 0.0 0.0 1.2693597916679902 1.2745677228729593 6.155802001723488 0.0 0.0 15.206513386131025 0.0 3.766220483623151 0.0 0.0 0.0 2.994377410077403 2.1755278623155005 0.0 2.9875027867375836 0.0 0.0 0.0 1:0.5421686768531799 2:0.0 3:-0.11719905585050583 4:0.9931084513664246 5:0.5301204919815063 6:0.10209257900714874 7:-0.1385323405265808 8:0.9903578758239746 9:0.5123652219772339 10:0.21306279301643372 11:-0.17146389186382294 12:0.9851904511451721 13:0.49270766973495483 14:0.31705769896507263 15:-0.302808940410614 16:0.9530512690544128 17:0.4521242678165436 18:0.4026632606983185 19:-0.23361165821552277 20:0.9723299741744995 21:0.4457831382751465 22:0.5123652815818787 23:-0.18791784346103668 24:0.9821847081184387 25:0.40456563234329224 26:0.6512365937232971 27:-0.26085299253463745 28:0.96537846326828 29:0.37159159779548645 30:0.7869372367858887 31:-0.23419702053070068 32:0.9721891283988953 33:0.35003167390823364 34:0.877615749835968 35:-0.3553527593612671 36:0.9347323179244995 37:0.3132530152797699 38:0.9403930902481079 39:-0.6643615365028381 40:-0.7474113702774048 41:0.329740047454834 42:0.8547875285148621 43:0.29950591921806335 44:-0.954094409942627 45:0.37476229667663574 46:0.7444515228271484 47:0.45324647426605225 48:-0.8913852572441101 49:0.44388073682785034 50:0.6303107142448425 51:0.6670305728912354 52:-0.7450303435325623 53:0.5320228934288025 54:0.5688015222549438 55:0.9687844514846802 56:-0.24790461361408234 57:0.6322129964828491 58:0.5821179151535034 59:0.8591013550758362 60:0.5118053555488586 61:0.6810400485992432 62:0.6575777530670166 63:0.30247780680656433 64:0.9531564712524414 65:0.6867469549179077 66:0.7539632320404053 67:-0.06787077337503433 68:0.9976940751075745 69:0.6683576703071594 70:0.8440075516700745 71:-0.2526922821998596 72:0.9675466418266296 73:0.6385542154312134 74:0.9384909272193909 75:-0.18766263127326965 76:0.9822335243225098 77:0.6385542154312134 78:1.0 79:0.0 80:1.0 
-4.201504828868033 10.604722792863763 4.409179916263543 2.57910100937218 13.491049278384112 5.699255656264504 36.56638904094762 19.794593835829968 10.486654022022599 4.589005056714208 5.009975675357295 14.494301607492275 10.517770624531119 4.617447729587976 8.455220295659725 14.43722452755973 4.418524701125754 3.3631144057936986 0.0 1.6286423171677313 4.345128602168106 1:0.2837640047073364 2:0.0 3:-0.009183136746287346 4:0.9999577403068542 5:0.282354474067688 6:0.15348471701145172 7:0.03689807280898094 8:0.9993190169334412 9:0.29817283153533936 10:0.39023759961128235 11:0.0692179873585701 12:0.9976015686988831 13:0.314252108335495 14:0.6132081151008606 15:0.04012758657336235 16:0.9991945624351501 17:0.3138866722583771 18:0.7815191745758057 19:-0.05103512853384018 20:0.9986968636512756 21:0.30020880699157715 22:0.8880188465118408 23:-0.17013879120349884 24:0.9854201674461365 25:0.28705307841300964 26:0.9369356036186218 27:-0.2537290155887604 28:0.9672753214836121 29:0.2882537245750427 30:0.9335944652557373 31:0.40129727125167847 32:-0.9159478545188904 33:0.32605063915252686 34:0.8479249477386475 35:0.4422922134399414 36:-0.8968709707260132 37:0.3953797221183777 38:0.7163665890693665 39:0.5402131080627441 40:-0.8415282368659973 41:0.4805794358253479 42:0.6072044968605042 43:0.7391197085380554 44:-0.6735740303993225 45:0.5678675174713135 46:0.5591751337051392 47:0.9886680841445923 48:-0.1501176655292511 49:0.6325502395629883 50:0.5841295123100281 51:0.6388716101646423 52:0.7693133354187012 53:0.6829286813735962 54:0.6977289319038391 55:0.24047107994556427 56:0.9706562757492065 57:0.6955103874206543 58:0.8382667899131775 59:0.07143484055995941 60:0.997445285320282 61:0.6998956203460693 62:0.9346384406089783 63:0.09188003093004227 64:0.9957700967788696 65:0.7093449234962463 66:0.9882016181945801 67:0.2620731592178345 68:0.9650480151176453 69:0.717645525932312 70:1.0 71:0.4458116888999939 72:-0.8951267600059509 73:0.7160271406173706 74:0.9747846722602844 75:-0.2088640183210373 76:-0.9779446721076965 77:0.7053250074386597 78:0.9423127770423889 79:-0.31301891803741455 80:-0.9497469067573547 
-0.0 4.277100165351846 11.196261934891197 0.0 0.0 0.0 0.0 23.13642248863896 0.0 4.921041794911928 0.0 2.890591563884011 25.27172677890842 0.0 0.0 0.0 0.0 0.0 9.276078306241564 0.0 0.0 1:0.10978120565414429 2:0.0 3:0.0 4:1.0 5:0.10978120565414429 6:0.24667073786258698 7:0.02249063551425934 8:0.9997470378875732 9:0.11805865913629532 10:0.36794689297676086 11:0.10369186848402023 12:0.9946094751358032 13:0.13474902510643005 14:0.48616135120391846 15:0.18738681077957153 16:0.9822862148284912 17:0.16435006260871887 18:0.6106075644493103 19:0.2543775141239166 20:0.967104971408844 21:0.19778499007225037 22:0.7258145809173584 23:0.1799422800540924 24:0.9836771488189697 25:0.20798617601394653 26:0.8491498827934265 27:0.08324483782052994 28:0.9965291619300842 29:0.2183905690908432 30:0.9724852442741394 31:0.47104084491729736 32:0.8821114897727966 33:0.21969111263751984 34:0.8710695505142212 35:0.18043027818202972 36:-0.9835878014564514 37:0.25500917434692383 38:0.772864580154419 39:0.43396976590156555 40:-0.9009274840354919 41:0.31147465109825134 42:0.6805256009101868 43:0.5437431931495667 44:-0.839251697063446 45:0.3729662001132965 46:0.5908013582229614 47:0.6702558398246765 48:-0.7421301007270813 49:0.44463175535202026 50:0.5330895185470581 51:0.9251036643981934 52:-0.3797147274017334 53:0.5885592699050903 54:0.5023097991943359 55:0.9982673525810242 56:0.058841124176979065 57:0.7034274339675903 58:0.5483437776565552 59:0.8384842276573181 60:0.5449258089065552 61:0.7856330275535583 62:0.6303868293762207 63:0.6269221901893616 64:0.7790818810462952 65:0.8344306945800781 66:0.7111427187919617 67:0.41101542115211487 68:0.9116284251213074 69:0.8613899350166321 70:0.798414945602417 71:0.22603601217269897 72:0.9741189479827881 73:0.8800311088562012 74:0.9076610803604126 75:0.14157050848007202 76:0.989928126335144 77:0.8902187943458557 78:1.0 79:0.10966383665800095 80:0.993968665599823 
-0.0 10.269549881985096 0.0 0.0 0.0 0.0 0.0 0.0 1.9976411763618822 0.0 0.0 0.0 9.201731991747648 0.0 0.0 0.0 0.0 0.0 0.0 1.5607704587787299 0.0 1:0.3314659297466278 2:0.0 3:0.0 4:1.0 5:0.3314659297466278 6:0.12978523969650269 7:0.05662541836500168 8:0.9983955025672913 9:0.3492063581943512 10:0.31279176473617554 11:0.05748055875301361 12:0.9983466863632202 13:0.3492063581943512 14:0.43790850043296814 15:0.07488790899515152 16:0.9971919059753418 17:0.3669467866420746 18:0.5490196347236633 19:0.08377524465322495 20:0.996484637260437 21:0.3669467866420746 22:0.6489262580871582 23:0.13341160118579865 24:0.991060733795166 25:0.39309048652648926 26:0.7432305812835693 27:0.1857641190290451 28:0.98259437084198 29:0.40242764353752136 30:0.8366013169288635 31:0.04944487288594246 32:0.9987768530845642 33:0.40242764353752136 34:0.9318393468856812 35:-0.13030777871608734 36:0.9914736151695251 37:0.3809524178504944 38:1.0 39:-0.24253499507904053 40:-0.970142662525177 41:0.3809524178504944 42:0.8459382057189941 43:0.17611734569072723 44:-0.9843692183494568 45:0.43324005603790283 46:0.7077497243881226 47:0.41273045539855957 48:-0.9108532071113586 49:0.4892623722553253 50:0.6069093942642212 51:0.5876338481903076 52:-0.8091269731521606 53:0.5546218752861023 54:0.5406162142753601 55:0.9055966734886169 56:-0.42413991689682007 57:0.636788010597229 58:0.5378151535987854 59:0.8141838312149048 60:0.5806072354316711 61:0.6685340404510498 62:0.6218487620353699 63:0.18560683727264404 64:0.9826240539550781 65:0.6685340404510498 66:0.7058823108673096 67:0.0 68:1.0 69:0.6685340404510498 70:0.7899159789085388 71:-0.1344461888074875 72:0.990920901298523 73:0.6433240175247192 74:0.8916900157928467 75:-0.13262052834033966 76:0.991166889667511 77:0.6507936716079712 78:0.9225022792816162 79:0.23560044169425964 80:0.9718499779701233 
-0.0 0.0 2.1092836754967164 4.544814440376887 4.975317129681196 16.296997049312406 0.0 0.0 0.327290741283844 0.0 10.597164930098733 0.0 5.599930292612159 0.0 0.0 0.0 0.9852604370462156 2.062890023553647 8.169132146513903 2.1402921451059354 0.0 1:0.3214285671710968 2:0.0 3:0.0 4:1.0 5:0.3214285671710968 6:0.0714285746216774 7:0.0 8:1.0 9:0.3214285671710968 10:0.2142857164144516 11:0.0 12:1.0 13:0.3214285671710968 14:0.3571428656578064 15:0.0 16:1.0 17:0.3214285671710968 18:0.5357142686843872 19:0.0 20:1.0 21:0.3214285671710968 22:0.6785714030265808 23:0.0 24:1.0 25:0.3214285671710968 26:0.7857142686843872 27:0.0 28:1.0 29:0.3214285671710968 30:0.8928571343421936 31:0.0 32:1.0 33:0.3214285671710968 34:0.9642857313156128 35:0.7071070671081543 36:0.7071064710617065 37:0.3571428656578064 38:0.9285714030265808 39:0.5547001361846924 40:-0.8320503234863281 41:0.3928571343421936 42:0.8571428656578064 43:0.4472135603427887 44:-0.8944271206855774 45:0.4285714328289032 46:0.7857142686843872 47:0.24253572523593903 48:-0.9701424837112427 49:0.4285714328289032 50:0.7142857313156128 51:0.5547001361846924 52:-0.8320503234863281 53:0.5 54:0.6785714030265808 55:0.8944272398948669 56:0.44721344113349915 57:0.5 58:0.75 59:0.0 60:1.0 61:0.5 62:0.8214285969734192 63:0.0 64:1.0 65:0.5 66:0.8928571343421936 67:0.5547001361846924 68:0.8320502638816833 69:0.5714285373687744 70:0.9285714030265808 71:0.8320502042770386 72:0.5547003149986267 73:0.6071428656578064 74:0.9642857313156128 75:0.8320503830909729 76:0.5547000765800476 77:0.6785714626312256 78:1.0 79:0.8944273591041565 80:0.4472132921218872 
-0.0 3.8367354385638017 5.1780521687819565 0.0 0.0 0.0 0.0 0.0 0.5994826143917884 5.513583786130093 0.0 0.0 0.0 5.813336437240959 0.0 12.57102523254404 0.0 0.0 17.21826968622273 0.0 10.749053507516258 1:0.4674875736236572 2:0.0 3:0.0 4:1.0 5:0.4674875736236572 6:0.029040401801466942 7:-0.09736325591802597 8:0.9952489137649536 9:0.4561237096786499 10:0.11616161465644836 11:-0.13911136984825134 12:0.9902767539024353 13:0.43023982644081116 14:0.294191837310791 15:-0.18884733319282532 16:0.9820064306259155 17:0.374053031206131 18:0.5429292917251587 19:-0.2467328906059265 20:0.9690834879875183 21:0.33428096771240234 22:0.6710858345031738 23:-0.3367707133293152 24:0.9415867328643799 25:0.28125032782554626 26:0.8023989796638489 27:-0.33813539147377014 28:0.9410974383354187 29:0.2440025806427002 30:0.9223483800888062 31:-0.26207420229911804 32:0.9650476574897766 33:0.22758859395980835 34:1.0 35:0.03123539686203003 36:0.9995120763778687 37:0.24589656293392181 38:0.9829545617103577 39:0.5940966010093689 40:-0.8043936491012573 41:0.2989271879196167 42:0.9034091234207153 43:0.5765829682350159 44:-0.8170385956764221 45:0.38667982816696167 46:0.7834596633911133 47:0.6362646222114563 48:-0.771470844745636 49:0.5009473562240601 50:0.6584596633911133 51:0.7213049530982971 52:-0.6926175355911255 53:0.608901858329773 54:0.5700757503509521 55:0.855789065361023 56:-0.5173248648643494 57:0.6972863078117371 58:0.5397726893424988 59:0.9974156022071838 60:0.07184772938489914 61:0.7578913569450378 62:0.5808080434799194 63:0.5348321795463562 64:0.8449583649635315 65:0.7724114060401917 66:0.6584596037864685 67:-0.018630575388669968 68:0.9998264312744141 69:0.754103422164917 70:0.7840909361839294 71:-0.23956763744354248 72:0.9708797931671143 73:0.7124366760253906 74:0.9015151858329773 75:-0.36418846249580383 76:0.9313252568244934 77:0.6714017391204834 78:0.995580792427063 79:-0.39984726905822754 80:0.9165818095207214 
-0.0 0.0 0.0 0.0 0.0 4.089519881048147 25.81771439808133 14.383686948206613 6.368949670267271 0.0 0.0 0.0 0.0 0.0 2.159699855700312 7.800331544362869 0.0 0.0 0.0 0.0 0.0 1:0.4861111342906952 2:0.0 3:-0.3497563302516937 4:0.9368407130241394 5:0.4451751708984375 6:0.10964912921190262 7:-0.29014867544174194 8:0.9569815397262573 9:0.4027777910232544 10:0.27485382556915283 11:-0.2842319905757904 12:0.9587555527687073 13:0.347222238779068 14:0.44005849957466125 15:-0.25678887963294983 16:0.966467559337616 17:0.3223690688610077 18:0.5774853825569153 19:-0.09697658568620682 20:0.9952866435050964 21:0.319444477558136 22:0.7251462340354919 23:-0.010472830384969711 24:0.9999451637268066 25:0.319444477558136 26:0.8567251563072205 27:0.0 28:1.0 29:0.319444477558136 30:0.9254385828971863 31:-0.5900170207023621 32:0.8073908090591431 33:0.2916666865348816 34:0.8947368264198303 35:-0.20164617896080017 36:-0.9794583916664124 37:0.2989773452281952 38:0.8260233402252197 39:0.25148749351501465 40:-0.9678605794906616 41:0.3399115800857544 42:0.709064245223999 43:0.3958258330821991 44:-0.9183256030082703 45:0.4086253046989441 46:0.5716373920440674 47:0.620001494884491 48:-0.7846006751060486 49:0.5051168203353882 50:0.5 51:0.9443041086196899 52:-0.32907411456108093 53:0.6016082763671875 54:0.5043860673904419 55:0.9144781827926636 56:0.4046352505683899 57:0.6703220009803772 58:0.5730994343757629 59:0.5426347255706787 60:0.839968740940094 61:0.7083333730697632 62:0.6695906519889832 63:0.19325484335422516 64:0.9811485409736633 65:0.7083333730697632 66:0.7660819292068481 67:-0.008768687956035137 68:0.9999615550041199 69:0.7068718671798706 70:0.8362575173377991 71:-0.1658141314983368 72:0.9861570596694946 73:0.6805555820465088 74:0.9312865734100342 75:-0.1586812138557434 76:0.98732990026474 77:0.6805555820465088 78:1.0 79:0.0 80:1.0 
-0.0 -7.412557435462117 25.53807282083092 0.0 3.2298217258072297 7.049434280433213 0.0 0.0 1.3077091621635544 0.0 4.228933652064448 0.0 2.496598244475623 0.0 0.0 0.0 0.0 0.0 8.062178567181645 0.0 10.839675515440476 1:0.07871398329734802 2:0.0731707289814949 3:0.0 4:1.0 5:0.07871398329734802 6:0.16629712283611298 7:0.0 8:1.0 9:0.07871398329734802 10:0.25942349433898926 11:0.04540419578552246 12:0.9989686608314514 13:0.08758248388767242 14:0.36141905188560486 15:0.17378336191177368 16:0.984783947467804 17:0.11862482130527496 18:0.48558756709098816 19:0.31166359782218933 20:0.9501925110816956 21:0.1784917116165161 22:0.6385809183120728 23:0.33770275115966797 24:0.9412528872489929 25:0.22283807396888733 26:0.7760531306266785 27:0.2835228443145752 28:0.9589654803276062 29:0.25388041138648987 30:0.8935697674751282 31:0.2827145755290985 32:0.9592040777206421 33:0.28492271900177 34:0.9866961240768433 35:0.7348037362098694 36:0.6782797574996948 37:0.36917993426322937 38:1.0 39:0.9751328229904175 40:-0.22162139415740967 41:0.4312633275985718 42:0.9534368515014648 43:0.5605626106262207 44:-0.828112006187439 45:0.4667398929595947 46:0.8558759093284607 47:0.402739554643631 48:-0.9153145551681519 49:0.5288245677947998 50:0.7317073941230774 51:0.4783540666103363 52:-0.8781670331954956 53:0.6152995824813843 54:0.5831485986709595 55:0.48019903898239136 56:-0.8771595358848572 57:0.695122480392456 58:0.42793795466423035 59:0.4182277023792267 60:-0.9083422422409058 61:0.7572058439254761 62:0.27494460344314575 63:0.408844918012619 64:-0.9126038551330566 65:0.8192905187606812 66:0.15077607333660126 67:0.4812573790550232 68:-0.8765794038772583 69:0.8813738822937012 70:0.04878050088882446 71:0.5603089928627014 72:-0.8282837271690369 73:0.9212859869003296 74:0.0 75:0.9138144850730896 76:-0.40613195300102234 77:0.9212859869003296 78:0.031042128801345825 79:0.0 80:1.0 
-3.7116309454176117 -0.0 5.457847881145943 0.0 0.0 0.5415744080505173 0.0 0.0 0.0 0.0 4.6913784195887 0.0 0.0 0.0 0.0 0.0 0.0 0.0 0.0 0.0 0.0 1:0.03836542367935181 2:0.0 3:0.7889048457145691 4:0.6145153641700745 5:0.05520044267177582 6:0.013113593682646751 7:0.4382685720920563 8:0.8988440632820129 9:0.07310079783201218 10:0.07123870402574539 11:0.4310437738895416 12:0.9023310542106628 13:0.13105008006095886 14:0.1718944013118744 15:0.45486727356910706 16:0.890559196472168 17:0.20760338008403778 18:0.33457380533218384 19:0.38750067353248596 20:0.9218694567680359 21:0.29284051060676575 22:0.5567960739135742 23:0.3385951817035675 24:0.9409321546554565 25:0.36230799555778503 26:0.7644870281219482 27:0.3238876163959503 28:0.9460955858230591 29:0.4163575768470764 30:0.9175969958305359 31:0.38743388652801514 32:0.9218975305557251 33:0.45711344480514526 34:0.9900762438774109 35:0.555931031703949 36:0.8312283754348755 37:0.4714692533016205 38:1.0 39:0.9602179527282715 40:0.2792516052722931 41:0.46686264872550964 42:0.9929115176200867 43:-0.2548425495624542 44:-0.9669825434684753 45:0.46366989612579346 46:0.9704058766365051 47:0.11525966972112656 48:-0.9933353662490845 49:0.4783775210380554 50:0.8936735987663269 51:0.28386369347572327 52:-0.9588646292686462 53:0.5349129438400269 54:0.7297536134719849 55:0.3831668794155121 56:-0.9236791729927063 57:0.6410590410232544 58:0.5015062689781189 59:0.47271472215652466 60:-0.881215512752533 61:0.7592592239379883 62:0.31153643131256104 63:0.5838756561279297 64:-0.8118430376052856 65:0.8820661306381226 66:0.16640079021453857 67:0.683683454990387 68:-0.7297787070274353 69:0.9616345763206482 70:0.09551654011011124 71:0.8389158844947815 72:-0.54426109790802 73:0.9612794518470764 74:0.11500978469848633 75:-0.7014556527137756 76:0.7127130627632141 77:0.8733822703361511 78:0.18518517911434174 79:-0.7814857959747314 80:0.6239230036735535 
-0.0 -0.0 0.0 0.0 0.0 0.0 0.0 0.0 0.0 0.0 0.0 0.0 0.0 0.0 0.0 0.0 0.0 0.0 0.0 0.0 0.6891126706168699 1:0.13398268818855286 2:0.2632034718990326 3:0.786011815071106 4:0.6182114481925964 5:0.17251083254814148 6:0.2935065031051636 7:0.7431005835533142 8:0.6691797971725464 9:0.21666663885116577 10:0.33766233921051025 11:0.5450855493545532 12:0.8383804559707642 13:0.2577921748161316 14:0.4246752858161926 15:0.388384610414505 16:0.9214973449707031 17:0.30844154953956604 18:0.5554112792015076 19:0.3503201901912689 20:0.9366300702095032 21:0.361255407333374 22:0.701298713684082 23:0.36499762535095215 24:0.9310084581375122 25:0.3980518877506256 26:0.7839825749397278 27:0.426340252161026 28:0.9045628905296326 29:0.4430736005306244 30:0.8748917579650879 31:0.420754075050354 32:0.9071747660636902 33:0.4729437232017517 34:0.9454545378684998 35:0.4384847581386566 36:0.89873868227005 37:0.5041125416755676 38:1.0 39:0.7071067690849304 40:0.7071067690849304 41:0.5240259766578674 42:0.9965367913246155 43:0.7336180806159973 44:-0.6795620322227478 45:0.5452380776405334 46:0.961904764175415 47:0.33845633268356323 48:-0.9409821033477783 49:0.5634199380874634 50:0.8870130181312561 51:0.25840499997138977 52:-0.9660367369651794 53:0.6015151739120483 54:0.7515150904655457 55:0.28375497460365295 56:-0.958896815776825 57:0.638744592666626 58:0.6324674487113953 59:0.2886991500854492 60:-0.9574199318885803 61:0.686363697052002 62:0.47012990713119507 63:0.27625390887260437 64:-0.9610846638679504 65:0.7417749166488647 66:0.27402594685554504 67:0.3421090245246887 68:-0.9396601915359497 69:0.81623375415802 70:0.11341986805200577 71:0.45416292548179626 72:-0.8909187316894531 73:0.8660173416137695 74:0.030303040519356728 75:0.4019189774990082 76:-0.9156752228736877 77:0.8660173416137695 78:0.0 79:0.0 80:-1.0 
-0.0 -0.0 0.05858912743574313 0.0 3.9868333066354587 0.0 0.0 0.0 0.0 0.0 0.0 0.0 0.0 1.9120217924780523 0.5559078208908088 0.0 1.6919114722322341 1.9838143533943617 0.0 5.760195255633667 0.0 1:0.0 2:0.15789474546909332 3:1.0 4:0.0 5:0.0827069953083992 6:0.15789474546909332 7:0.9877629280090332 8:0.15596258640289307 9:0.1428571492433548 10:0.1804511398077011 11:0.4961375296115875 12:0.8682438731193542 13:0.1428571492433548 14:0.2631579041481018 15:0.0 16:1.0 17:0.1428571492433548 18:0.3909774422645569 19:0.0 20:1.0 21:0.1428571492433548 22:0.5563909411430359 23:0.2490457445383072 24:0.9684917330741882 25:0.2105276882648468 26:0.6541353464126587 27:0.6207029223442078 28:0.7840458750724792 29:0.2857142984867096 30:0.7368420958518982 31:0.41379669308662415 32:0.910369336605072 33:0.2857142984867096 34:0.8195489048957825 35:0.17887206375598907 36:0.9838723540306091 37:0.3157871663570404 38:0.902255654335022 39:0.5633446574211121 40:0.8262220025062561 41:0.39849853515625 42:0.9849624037742615 43:0.9397938251495361 44:0.3417419493198395 45:0.481201171875 46:0.9624059796333313 47:0.8436620831489563 48:-0.536874532699585 49:0.5639125108718872 50:0.8796992301940918 51:0.7071077823638916 52:-0.7071057558059692 53:0.6466151475906372 54:0.7969924807548523 55:0.6757162809371948 56:-0.7371618151664734 57:0.7293221354484558 58:0.6992482542991638 59:0.5321826934814453 60:-0.8466296195983887 61:0.8120335340499878 62:0.5338345170021057 63:0.36040207743644714 64:-0.9327970743179321 65:0.8571428656578064 66:0.3684210777282715 67:0.13510313630104065 68:-0.9908315539360046 69:0.8571428656578064 70:0.20300762355327606 71:0.2169296145439148 72:-0.9761872291564941 73:0.9172930121421814 74:0.09774432331323624 75:0.6050830483436584 76:-0.7961623668670654 77:1.0 78:0.015037596225738525 79:0.7071079015731812 80:-0.7071056365966797 
-0.0 -0.0 0.0 6.760927556709121 0.0 0.0 0.0 0.0 0.0 2.7341116170206305 0.0 15.893840970933578 0.0 1.5318221474258833 0.0 0.0 0.0 7.776022702142172 0.0 0.0 3.952876403704564 1:0.06185567378997803 2:0.010309278033673763 3:0.0 4:1.0 5:0.06185567378997803 6:0.05154639109969139 7:0.09053575247526169 8:0.9958931803703308 9:0.07216495275497437 10:0.12371134012937546 11:0.22162112593650818 12:0.9751328825950623 13:0.11340206861495972 14:0.27835050225257874 15:0.29221856594085693 16:0.9563515782356262 17:0.18556702136993408 18:0.49484536051750183 19:0.4008188545703888 20:0.9161573052406311 21:0.25773197412490845 22:0.6082473993301392 23:0.47885215282440186 24:0.8778955340385437 25:0.30927836894989014 26:0.7216494679450989 27:0.41380295157432556 28:0.9103664755821228 29:0.3608247637748718 30:0.8350515365600586 31:0.5646838545799255 32:0.825307309627533 33:0.44329896569252014 34:0.9175257682800293 35:0.668964684009552 36:0.7432942986488342 37:0.4536082446575165 38:0.938144326210022 39:0.7071068286895752 40:0.7071068286895752 41:0.4845360815525055 42:0.9587628841400146 43:0.7808690071105957 44:0.62469482421875 45:0.5051546692848206 46:0.9793814420700073 47:0.8320504426956177 48:0.5547000169754028 49:0.5463917851448059 50:1.0 51:0.9938837289810181 52:0.11043152213096619 53:0.5979381799697876 54:0.9896907210350037 55:0.8741572499275208 56:-0.4856429398059845 57:0.639175295829773 58:0.9484536051750183 59:0.47058823704719543 60:-0.8823529481887817 61:0.6804124116897583 62:0.8350515365600586 63:0.25589239597320557 64:-0.9667052626609802 65:0.7319587469100952 66:0.5979381203651428 67:0.20094400644302368 68:-0.9796026945114136 69:0.7628865838050842 70:0.4329896867275238 71:0.24253566563129425 72:-0.9701425433158875 73:0.8247422575950623 74:0.22680412232875824 75:0.375192791223526 76:-0.9269468784332275 77:0.938144326210022 78:0.0 79:0.44721364974975586 80:-0.8944272398948669 
-8.573183302652815 -0.0 7.799838503328426 3.7716588885691578 0.0 1.655389750408178 0.0 0.0 0.0 0.0 3.692555272368702 0.0 0.0 0.0 0.0 0.0 2.617077268256159 0.0 0.0 3.5156308420221305 4.257482828638421 1:0.1288371980190277 2:0.1474418193101883 3:0.995701253414154 4:0.09262347221374512 5:0.16883724927902222 6:0.1511627584695816 7:0.8859221935272217 8:0.46383383870124817 9:0.2176743745803833 10:0.19395345449447632 11:0.6215314865112305 12:0.7833892107009888 13:0.2581394910812378 14:0.26372087001800537 15:0.37361085414886475 16:0.9275856018066406 17:0.2851162254810333 18:0.36139529943466187 19:0.24633437395095825 20:0.9691848754882812 21:0.31488364934921265 22:0.486976683139801 23:0.2980843484401703 24:0.9545394778251648 25:0.36790692806243896 26:0.6265115141868591 27:0.38173240423202515 28:0.9242728352546692 29:0.43302324414253235 30:0.7730231881141663 31:0.4526740610599518 32:0.8916760087013245 33:0.5065116882324219 34:0.8995347619056702 35:0.5472494959831238 36:0.8369695544242859 37:0.5595349073410034 38:0.9665115475654602 39:0.6757240295410156 40:0.7371546626091003 41:0.598604679107666 42:1.0 43:0.6997805237770081 44:-0.7143579721450806 45:0.6265116930007935 46:0.8981395363807678 47:0.1861417293548584 48:-0.9825229048728943 49:0.6437208652496338 50:0.7618605494499207 51:0.09351897984743118 52:-0.9956174492835999 53:0.6567442417144775 54:0.5762791633605957 55:0.10238264501094818 56:-0.994745135307312 57:0.6846508979797363 58:0.36418619751930237 59:0.14893744885921478 60:-0.9888466000556946 61:0.7134884595870972 62:0.19953489303588867 63:0.21764050424098969 64:-0.9760289788246155 65:0.7451163530349731 66:0.09302327781915665 67:0.35740411281585693 68:-0.9339498281478882 69:0.7772091627120972 70:0.03302326425909996 71:0.5974299907684326 72:-0.8019210696220398 73:0.8144185543060303 74:0.0 75:0.9836354851722717 76:0.18017011880874634 77:0.8711627721786499 78:0.05023251846432686 79:0.7487626671791077 80:0.6628382205963135 
-0.0 -0.0 6.205312765551961 0.0 0.0 0.0 0.0 0.0 0.0 0.2144972316014643 0.0 0.0 0.0 0.0 0.0 0.0 0.0 0.0 0.0 0.0 0.0 1:0.0 2:0.19940470159053802 3:0.3932506740093231 4:0.9194313287734985 5:0.03092559240758419 6:0.2717096209526062 7:0.3886726498603821 8:0.9213759303092957 9:0.06186569854617119 10:0.34606170654296875 11:0.3478633761405945 12:0.9375452995300293 13:0.09293647855520248 14:0.43883848190307617 15:0.3395311236381531 16:0.9405948519706726 17:0.128101646900177 18:0.5295535326004028 19:0.4476933479309082 20:0.8941871523857117 21:0.17964427173137665 22:0.6120217442512512 23:0.5211721658706665 24:0.8534515500068665 25:0.22504539787769318 26:0.6883049011230469 27:0.4843387007713318 28:0.8748805522918701 29:0.25611618161201477 30:0.750156044960022 31:0.48419973254203796 32:0.8749574422836304 33:0.2912522852420807 34:0.8079419136047363 35:0.5721473693847656 36:0.8201507925987244 37:0.3324863910675049 38:0.85962975025177 39:0.9394063949584961 40:0.3428054749965668 41:0.4046460688114166 42:0.8493212461471558 43:0.9045297503471375 44:-0.4264105558395386 45:0.5077314376831055 46:0.777016282081604 47:0.7763383388519287 48:-0.630316436290741 49:0.5675208568572998 50:0.7170816659927368 51:0.6306836605072021 52:-0.7760399580001831 53:0.5984464287757874 54:0.6653938293457031 55:0.5064107775688171 56:-0.8622923493385315 57:0.6365880966186523 58:0.599477231502533 59:0.49877944588661194 60:-0.8667289614677429 61:0.6778221130371094 62:0.5274627208709717 63:0.5008010864257812 64:-0.865562379360199 65:0.743912935256958 66:0.41398173570632935 67:0.5037462711334229 68:-0.8638516664505005 69:0.8162177801132202 70:0.2901342511177063 71:0.6296705007553101 72:-0.7768622636795044 73:0.9070780873298645 74:0.21267510950565338 75:0.7752028703689575 76:-0.6317123770713806 77:1.0 78:0.1403702199459076 79:0.7892192602157593 80:-0.6141114830970764 
-20.459438985660416 -11.11709439171034 3.5197035793346023 8.539020076279215 13.15021807234375 15.842090674446261 11.725511325078616 7.250209994019943 25.72215808128629 6.870476847110814 16.989569444891558 3.0161425995636613 11.282140929795622 6.817913971033293 9.148000108960352 17.329850154444856 7.67293910102749 4.991323161136295 5.12827278379056 8.910699509209639 0.6956636820788373 1:0.17625901103019714 2:0.14388488233089447 3:0.0 4:1.0 5:0.17625901103019714 6:0.20683452486991882 7:0.4190581738948822 8:0.9079593420028687 9:0.2841726839542389 10:0.37769782543182373 11:0.5734623074531555 12:0.8192319273948669 13:0.3651078939437866 14:0.4766186773777008 15:0.6726727485656738 16:0.7399400472640991 17:0.4640287756919861 18:0.5755395293235779 19:0.7071068286895752 20:0.7071067094802856 21:0.5629496574401855 22:0.6744604110717773 23:0.6246950626373291 24:0.7808688282966614 25:0.6079136729240417 26:0.7553956508636475 27:0.2216210663318634 28:0.9751328229904175 29:0.6079136729240417 30:0.8723021149635315 31:0.0 32:1.0 33:0.6079136729240417 34:0.935251772403717 35:0.0 36:1.0 37:0.8237409591674805 38:0.0 39:0.0 40:1.0 41:0.8237409591674805 42:0.12949639558792114 43:0.0 44:1.0 45:0.8237409591674805 46:0.2589927911758423 47:-0.19087280333042145 48:0.9816148281097412 49:0.7733803987503052 50:0.38848915696144104 51:-0.40613633394241333 52:0.913812518119812 53:0.7086337804794312 54:0.5179855823516846 55:-0.4472110867500305 56:0.8944284319877625 57:0.6438848972320557 58:0.6474819779396057 59:-0.36244848370552063 60:0.9320037961006165 61:0.6079136729240417 62:0.7769783139228821 63:-0.14980542659759521 64:0.9887155294418335 65:0.6079136729240417 66:0.8848919868469238 67:0.0 68:1.0 69:0.6079136729240417 70:0.9496402144432068 71:0.0 72:1.0 73:0.6079136729240417 74:1.0 75:0.0 76:-1.0 77:0.6079136729240417 78:0.935251772403717 79:0.0 80:-1.0 
-0.0 -10.524362101633868 0.0 0.0 2.6153598632238246 0.0 14.820975864376646 13.206052968063789 13.02017235574622 7.437473555373807 0.0 8.153846878853724 17.820657687752135 1.9462641307233282 6.894196715174296 14.957731889473257 0.0 0.0 6.176084020971987 0.0 23.642943647875143 1:0.0 2:0.24994856119155884 3:0.5948743224143982 4:0.8038186430931091 5:0.02487659454345703 6:0.2835628390312195 7:0.44186699390411377 8:0.8970805406570435 9:0.0646587610244751 10:0.3812190890312195 11:0.33008840680122375 12:0.9439499974250793 13:0.111328125 14:0.5307872891426086 15:0.36304971575737 16:0.9317697286605835 17:0.1720806360244751 18:0.6569181084632874 19:0.4667913317680359 20:0.8843674659729004 21:0.2380756139755249 22:0.7709189057350159 23:0.5373354554176331 24:0.843368649482727 25:0.29625821113586426 26:0.8518195748329163 27:0.6468222737312317 28:0.7626407146453857 29:0.33624589443206787 30:0.8866673111915588 31:0.9897323846817017 32:0.14293250441551208 33:0.3809621334075928 34:0.8640521168708801 35:0.6964564323425293 36:-0.7175990343093872 37:0.45137739181518555 38:0.7680407166481018 39:0.5482504963874817 40:-0.8363142609596252 41:0.5386512279510498 42:0.6235094666481018 43:0.5664525628089905 44:-0.8240944147109985 45:0.6778371334075928 46:0.43857938051223755 47:0.6710140705108643 48:-0.7414445877075195 49:0.861842155456543 50:0.2663959860801697 51:0.7319714426994324 52:-0.6813353300094604 53:0.9616570472717285 54:0.17439347505569458 55:0.7051388621330261 56:-0.7090693116188049 57:0.9909539222717285 58:0.13656455278396606 59:0.5669161677360535 60:-0.8237754702568054 61:1.0 62:0.1186780333518982 63:0.2842370867729187 64:-0.9587540626525879 65:0.9978413581848145 66:0.11333268880844116 67:-0.9999409317970276 68:0.010865086689591408 69:0.9905428886413574 70:0.11878079175949097 71:-0.805833101272583 72:0.5921427011489868 73:0.9656662940979004 74:0.13697558641433716 75:-0.8241863250732422 76:0.566318690776825 77:0.921875 78:0.16596418619155884 79:-0.8338527679443359 80:0.5519869923591614 
-0.9801064283528149 -0.0 0.0 0.0 0.0 0.0 0.0 0.0 0.0 2.091901574435944 0.0 0.0 0.0 0.0 0.0 0.0 0.0 0.0 1.2638119063103883 0.0 2.3446727715574496 1:0.06360030174255371 2:0.20555981993675232 3:0.05989309027791023 4:0.9982048273086548 5:0.06377812474966049 6:0.20852349698543549 7:0.26597583293914795 8:0.9639796614646912 9:0.07432875782251358 10:0.2444431036710739 11:0.32723870873451233 12:0.9449416399002075 13:0.11072264611721039 14:0.3440815210342407 15:0.441169798374176 16:0.8974236249923706 17:0.20087730884552002 18:0.5018670558929443 19:0.48494744300842285 20:0.8745432496070862 21:0.289787232875824 22:0.6670025587081909 23:0.4688877761363983 24:0.8832577466964722 25:0.36044102907180786 26:0.8024419546127319 27:0.417633980512619 28:0.9086153507232666 29:0.40554800629615784 30:0.9188547134399414 31:0.3031121790409088 32:0.952954888343811 33:0.4172841012477875 34:0.9811509847640991 35:0.20106643438339233 36:0.9795776009559631 37:0.42220374941825867 38:1.0 39:0.6552526950836182 40:0.7554097771644592 41:0.4265900254249573 42:0.9918793439865112 43:0.39052191376686096 44:-0.9205936789512634 45:0.46499913930892944 46:0.8991166353225708 47:0.3791864216327667 48:-0.9253203868865967 49:0.5625630021095276 50:0.6600674390792847 51:0.43785104155540466 52:-0.8990475535392761 53:0.7329145669937134 54:0.3490009903907776 55:0.5029164552688599 56:-0.8643350005149841 57:0.8810977339744568 58:0.11261922866106033 59:0.511264979839325 60:-0.8594231605529785 61:0.9276272654533386 62:0.021693989634513855 63:0.4335019886493683 64:-0.9011526107788086 65:0.9352735280990601 66:0.0 67:0.3961796164512634 68:-0.9181729555130005 69:0.9363996982574463 70:0.001363285118713975 71:-0.2747285068035126 72:0.9615218043327332 73:0.9333767294883728 74:0.006638601887971163 75:-0.6523125171661377 76:0.7579501271247864 77:0.8924781680107117 78:0.05239760875701904 79:-0.6663992404937744 80:0.7455950975418091 
-1.4123606699194968 -13.85759702901353 -0.2202765706009901 1.8847529021185576 8.557442909300482 11.820454946894083 10.204964998412978 24.892343217778812 8.37181604461787 12.526634648358556 9.760055122021493 6.261681960545417 10.278412374979874 2.9924832301125113 6.426778751854995 12.512271274226245 4.315043384217908 3.3530868500939315 8.149476989986757 2.4504111795812205 3.031679454412319 1:0.0431266725063324 2:0.0 3:0.054051950573921204 4:0.998538076877594 5:0.059299178421497345 6:0.2987655997276306 7:0.02559233270585537 8:0.9996724128723145 9:0.059299178421497345 10:0.631720781326294 11:0.016249625012278557 12:0.9998679757118225 13:0.06809482723474503 14:0.8399773240089417 15:0.008216500282287598 16:0.9999662637710571 17:0.06213640794157982 18:0.977017879486084 19:-0.1031700149178505 20:0.9946637749671936 21:0.0514967143535614 22:1.0 23:-0.9999751448631287 24:0.007047736551612616 25:0.021846953779459 26:0.977301836013794 27:-0.8399173617362976 28:-0.5427142977714539 29:0.005390822887420654 30:0.9702085852622986 31:-0.07860895991325378 32:-0.996905505657196 33:0.015604916960000992 34:0.8981413841247559 35:0.22489620745182037 36:-0.974382758140564 37:0.06852025538682938 38:0.6966947317123413 39:0.20456096529960632 40:-0.9788538813591003 41:0.10540490597486496 42:0.4684354364871979 43:0.2886224389076233 44:-0.9574429988861084 45:0.19818410277366638 46:0.26656273007392883 47:0.5264462828636169 48:-0.8502083420753479 49:0.3021705746650696 50:0.15065976977348328 51:0.8632537722587585 52:-0.5047701597213745 53:0.4861682057380676 54:0.09816986322402954 55:0.9968746900558472 56:-0.07899917662143707 57:0.7389702200889587 58:0.1160447746515274 59:0.9761238098144531 60:0.21721501648426056 61:0.8992761969566345 62:0.19009801745414734 63:0.7732482552528381 64:0.6341034173965454 65:0.9597105383872986 66:0.2970632016658783 67:0.38313552737236023 68:0.9236921072006226 69:0.9852463006973267 70:0.39736124873161316 71:0.21724386513233185 72:0.9761173725128174 73:0.9907785654067993 74:0.4366576671600342 75:0.9927344918251038 76:-0.12032599747180939 77:0.9946091771125793 78:0.3962264060974121 79:0.09432142227888107 80:-0.9955418109893799 
-0.0 -0.0 -5.131296707874977 0.0 0.0 0.0 0.2168831001483072 6.697677524209683 0.0 0.0 0.0 2.3612657853239987 0.0 0.0 0.0 2.2472267134292663 0.0 0.0 0.0 0.0 0.0 1:0.11416730284690857 2:0.0 3:0.1772433966398239 4:0.9841670393943787 5:0.14280332624912262 6:0.15900525450706482 7:0.06080102548003197 8:0.9981499314308167 9:0.13225321471691132 10:0.2969103157520294 11:-0.05397528409957886 12:0.998542308807373 13:0.12923888862133026 14:0.4099472463130951 15:0.028055472299456596 16:0.9996063113212585 17:0.142426535487175 18:0.6593820452690125 19:0.07556729018688202 20:0.9971407055854797 21:0.16201959550380707 22:0.8425018191337585 23:0.0431014820933342 24:0.9990707039833069 25:0.15712133049964905 26:1.0 27:0.03282894194126129 28:0.9994609951972961 29:0.16541069746017456 30:0.9457422494888306 31:0.07627981156110764 32:-0.9970865249633789 33:0.17822155356407166 34:0.724189817905426 35:-0.028014453127980232 36:-0.999607503414154 37:0.15712133049964905 38:0.649962306022644 39:-0.18526111543178558 40:-0.9826892614364624 41:0.15222306549549103 42:0.5862848162651062 43:0.03981655836105347 44:-0.9992070198059082 45:0.16503390669822693 46:0.45139411091804504 47:0.12635044753551483 48:-0.9919856786727905 49:0.18764129281044006 50:0.3082139790058136 51:0.32457593083381653 52:-0.9458596706390381 53:0.2396383285522461 54:0.23398637771606445 55:0.7697036266326904 56:-0.6384015083312988 57:0.3157497048377991 58:0.20195931196212769 59:0.9588120579719543 60:-0.2840411365032196 61:0.5003767013549805 62:0.15674452483654022 63:0.9740817546844482 64:-0.22619609534740448 65:0.5964581966400146 66:0.1367746740579605 67:0.9937165975570679 68:-0.11192536354064941 69:0.7479277849197388 70:0.12886208295822144 71:0.9987131357192993 72:0.05071604996919632 73:0.885832667350769 74:0.15146951377391815 75:0.9759159088134766 76:0.21814687550067902 77:0.7799547910690308 78:0.13602109253406525 79:-0.9895224571228027 80:-0.1443791687488556 
-0.0 -6.827917405482471 -15.262745778136471 0.0 0.0 0.0 0.0 0.0 0.0 0.0 0.0 0.0 0.0 0.0 0.0 0.0 0.0 0.0 0.0 0.0 0.0 1:0.16610927879810333 2:0.0 3:0.17806068062782288 4:0.9840194582939148 5:0.1872909963130951 6:0.11705685406923294 7:0.16370031237602234 8:0.9865100383758545 9:0.20847269892692566 10:0.25529542565345764 11:0.08268526196479797 12:0.996575653553009 13:0.20847269892692566 14:0.37235227227211 15:0.0 16:1.0 17:0.20847269892692566 18:0.4894091486930847 19:-0.01746445521712303 20:0.9998474717140198 21:0.2040134221315384 22:0.6276477575302124 23:-0.0909254252910614 24:0.9958577156066895 25:0.185061514377594 26:0.7458193898200989 27:-0.22548092901706696 28:0.9742475748062134 29:0.14492756128311157 30:0.8829432129859924 31:-0.3420746326446533 32:0.9396727085113525 33:0.09253063797950745 34:1.0 35:-0.47059011459350586 36:0.8823518753051758 37:0.1270902305841446 38:0.9163880348205566 39:0.33035027980804443 40:-0.9438583850860596 41:0.16276472806930542 42:0.7993310689926147 43:0.3037189245223999 44:-0.9527616500854492 45:0.20847269892692566 46:0.6610924601554871 47:0.3308965265750885 48:-0.9436669945716858 49:0.2530657947063446 50:0.5418060421943665 51:0.3762681782245636 52:-0.9265108108520508 53:0.3121514916419983 54:0.4057970941066742 55:0.4165167808532715 56:-0.9091280102729797 57:0.3690078556537628 58:0.2887401878833771 59:0.4671781361103058 60:-0.8841632008552551 61:0.44704562425613403 62:0.15050171315670013 63:0.6413102149963379 64:-0.7672817707061768 65:0.5562987923622131 66:0.0646599754691124 67:0.9163466691970825 68:-0.40038564801216125 69:0.6945374011993408 70:0.04236343502998352 71:0.9990177750587463 72:-0.04431135952472687 73:0.8327761888504028 74:0.05239684134721756 75:0.9582394957542419 76:0.28596678376197815 77:0.9074693918228149 78:0.1059085875749588 79:0.8129118084907532 80:0.5823867321014404 
-0.0 -0.0 -0.0 0.0 0.0 0.0 0.0 0.9701091957401196 0.0 0.0 0.0 0.0 2.50010740427973 0.0 0.0 0.0 0.0 0.0 0.0 0.0 0.0 1:0.06881938874721527 2:0.09227130562067032 3:-0.14918209612369537 4:0.9888097643852234 5:0.05131460353732109 6:0.20829664170742035 7:-0.06829054653644562 8:0.9976654052734375 9:0.049519240856170654 10:0.37422963976860046 11:0.027576351538300514 12:0.999619722366333 13:0.061637941747903824 14:0.5825090408325195 15:0.0718240961432457 16:0.9974172711372375 17:0.0791427344083786 18:0.7856094837188721 19:0.09108869731426239 20:0.9958428144454956 21:0.09291869401931763 22:0.9244912266731262 23:0.1046639233827591 24:0.9945076107978821 25:0.10170561075210571 26:1.0 27:0.12612250447273254 28:0.9920147061347961 29:0.09587068110704422 30:0.9477100372314453 31:0.0605321004986763 32:-0.9981662631034851 33:0.11023359000682831 34:0.8593747615814209 35:0.17857560515403748 36:-0.9839261770248413 37:0.13352152705192566 38:0.7402592301368713 39:0.15937787294387817 40:-0.9872177243232727 41:0.15663683414459229 42:0.571943998336792 43:0.14817865192890167 44:-0.9889605641365051 45:0.17992472648620605 46:0.4305591881275177 47:0.19415807723999023 48:-0.9809702634811401 49:0.21030782163143158 50:0.30077505111694336 51:0.29125306010246277 52:-0.9566459655761719 53:0.256538450717926 54:0.17891475558280945 55:0.5472858548164368 56:-0.8369457721710205 57:0.3568888008594513 58:0.07661370933055878 59:0.8064554333686829 60:-0.5912947654724121 61:0.4849465787410736 62:0.011445443145930767 63:0.9656473994255066 64:-0.25985589623451233 65:0.6415920853614807 66:0.0 67:0.9998984932899475 68:0.01424554642289877 69:0.7394047975540161 70:0.01507070753723383 71:0.977249801158905 72:0.21209144592285156 73:0.8402904272079468 74:0.0431232824921608 75:0.9509374499320984 76:0.3093832731246948 77:0.9504807591438293 78:0.08374333381652832 79:0.9382778406143188 80:0.345882385969162 
-0.0 -6.537122195827838 -0.0 0.0 0.0 0.0 0.0 3.1404714277847026 2.284500029063541 0.0 1.2313438538213053 0.0 11.089548622349783 0.0 0.0 0.0 0.0 0.0 5.981746431935289 0.0 0.0 1:0.0849514901638031 2:0.09223300218582153 3:0.0 4:1.0 5:0.0849514901638031 6:0.15048542618751526 7:0.0 8:1.0 9:0.0849514901638031 10:0.20873785018920898 11:0.0 12:1.0 13:0.0849514901638031 14:0.2669902741909027 15:0.0 16:1.0 17:0.0849514901638031 18:0.47087371349334717 19:0.035692259669303894 20:0.9993628263473511 21:0.09951489418745041 22:0.6747572422027588 23:0.22162126004695892 24:0.9751328229904175 25:0.15776708722114563 26:0.7912620902061462 27:0.3162267506122589 28:0.9486836194992065 29:0.17718449234962463 30:0.9077668786048889 31:0.0926230177283287 32:0.9957013130187988 33:0.17718449234962463 34:1.0 35:0.0 36:-1.0 37:0.17718449234962463 38:0.8252426981925964 39:0.0 40:-1.0 41:0.17718449234962463 42:0.6504854559898376 43:0.0 44:-1.0 45:0.17718449234962463 46:0.47572821378707886 47:0.0 48:-1.0 49:0.17718449234962463 50:0.3009709417819977 51:0.05872182175517082 52:-0.9982743859291077 53:0.19660189747810364 54:0.14563120901584625 55:0.27472010254859924 56:-0.961524248123169 57:0.25485408306121826 58:0.029126277193427086 59:0.8137331604957581 60:-0.5812387466430664 61:0.4004853069782257 62:0.0 63:0.995634138584137 64:-0.09334083646535873 65:0.5655339360237122 66:0.0 67:1.0 68:0.0 69:0.6820383071899414 70:0.0 71:0.9895328879356384 72:0.14430725574493408 73:0.7985427379608154 74:0.033980537205934525 75:0.9298068881034851 76:0.3680478036403656 77:0.9150484800338745 78:0.09223300218582153 79:0.8944284915924072 80:0.4472111165523529 
-4.10361349486761 -0.0 -0.0 1.4823219017429445 2.955728384278897 4.820279052472988 3.6954582605672415 0.0 0.0 0.0 0.0 3.599427389237362 0.0 0.0 3.856148097247549 1.0353732127189814 0.013213448905015709 0.0 0.0 0.1619898041354464 4.290688167590757 1:0.2805280387401581 2:0.12541253864765167 3:-0.9383431077003479 4:0.34570544958114624 5:0.21782177686691284 6:0.14851485192775726 7:-0.14980259537696838 8:0.9887158870697021 9:0.2640267014503479 10:0.2343234270811081 11:0.3817601203918457 12:0.9242614507675171 13:0.3432343006134033 14:0.45214521884918213 15:0.21503186225891113 16:0.9766069650650024 17:0.3432343006134033 18:0.594059407711029 19:0.0 20:1.0 21:0.3432343006134033 22:0.6798679828643799 23:0.0 24:1.0 25:0.3432343006134033 26:0.8283828496932983 27:0.1531035453081131 28:0.9882100820541382 29:0.37953805923461914 30:0.9141913652420044 31:0.34319308400154114 32:0.9392648935317993 33:0.40594059228897095 34:1.0 35:-0.9838699102401733 36:0.1788852959871292 37:0.3432343006134033 38:0.9207920432090759 39:-0.3552177846431732 40:-0.9347835183143616 41:0.3432343006134033 42:0.8349834680557251 43:0.0 44:-1.0 45:0.3432343006134033 46:0.7491748929023743 47:0.0 48:-1.0 49:0.3432343006134033 50:0.6369636654853821 51:0.0 52:-1.0 53:0.3432343006134033 54:0.46534642577171326 55:0.03527300804853439 56:-0.9993777275085449 57:0.35313552618026733 58:0.35643571615219116 59:0.40744316577911377 60:-0.9132305979728699 61:0.4389442503452301 62:0.25082507729530334 63:0.5812371969223022 64:-0.8137341737747192 65:0.4686468541622162 66:0.19471944868564606 67:0.6088162660598755 68:-0.7933111786842346 69:0.547854483127594 70:0.10891083627939224 71:0.7661909461021423 72:-0.6426129937171936 73:0.6732670068740845 74:0.02310222201049328 75:0.9068349599838257 76:-0.42148590087890625 77:0.7821782231330872 78:0.0 79:0.9782343506813049 80:-0.20750285685062408 
-10.563839830385 -0.0 -14.637647306960764 8.24961443970652 3.5981958617022523 5.249947712021481 0.0 0.0 6.897348087512616 6.5870529333867545 13.479815899670864 3.011844243435291 0.0 2.4939322830134607 0.7023098399875887 0.5083991691220968 5.343661139537584 5.207396420440518 2.0541335098538314 10.405761786762277 2.9015141214167812 1:0.06391632556915283 2:0.022080184891819954 3:0.9914543032646179 4:-0.13045451045036316 5:0.10807669907808304 6:0.016269609332084656 7:0.8050557971000671 8:0.5931990742683411 9:0.10807669907808304 10:0.05461940914392471 11:0.09191880375146866 12:0.9957665205001831 13:0.11853595077991486 14:0.12957583367824554 15:0.1013520210981369 16:0.9948506355285645 17:0.13015687465667725 18:0.2713538706302643 19:0.09004903584718704 20:0.9959372878074646 21:0.14758896827697754 22:0.4509005844593048 23:0.08492680639028549 24:0.996387243270874 25:0.16269564628601074 26:0.6531086564064026 27:0.099502794444561 28:0.995037317276001 29:0.18535734713077545 30:0.8285879492759705 31:0.0798281729221344 32:0.996808648109436 33:0.18535734713077545 34:0.9360836744308472 35:0.0 36:1.0 37:0.18535734713077545 38:0.974433422088623 39:-0.19610659778118134 40:0.9805825352668762 41:0.1725747287273407 42:1.0 43:-0.9987524151802063 44:-0.049936387687921524 45:0.1388729214668274 46:0.9721092581748962 47:-0.43577444553375244 48:-0.9000558853149414 49:0.11040142178535461 50:0.8715862035751343 51:-0.10852605104446411 52:-0.994093656539917 53:0.10981990396976471 54:0.7059849500656128 55:0.12862910330295563 56:-0.9916927218437195 57:0.16443952918052673 58:0.4549681842327118 59:0.3839353024959564 60:-0.9233599305152893 61:0.29633912444114685 62:0.25740841031074524 63:0.642066478729248 64:-0.7666489481925964 65:0.4369547665119171 66:0.12957583367824554 67:0.8318061232566833 68:-0.5550662875175476 69:0.6002327799797058 70:0.054619427770376205 71:0.9383991956710815 72:-0.34555304050445557 73:0.7699013948440552 74:0.0069726635701954365 75:0.9870324730873108 76:-0.16052107512950897 77:0.9360836744308472 78:0.0 79:0.9991209506988525 80:-0.041921041905879974 
-0.0 -0.0 -13.327398314054403 2.4327149683838747 0.0 0.0 0.0 0.0 0.6370328135247634 0.0 0.0 0.0 0.0 1.2973092743012025 0.0 0.0 0.0 2.470397237187119 6.627189320948312 0.0 8.215839380262834 1:0.19731387495994568 2:0.18250688910484314 3:-0.44717466831207275 4:0.894446611404419 5:0.18491852283477783 6:0.20730029046535492 7:-0.5522433519363403 8:0.8336830139160156 9:0.12568920850753784 10:0.2906336188316345 11:-0.4565330743789673 12:0.8897064924240112 13:0.0637044683098793 14:0.44352617859840393 15:-0.23931871354579926 16:0.9709410667419434 17:0.05337447673082352 18:0.584022045135498 19:-0.06953956186771393 20:0.9975792765617371 21:0.04373294115066528 22:0.7300275564193726 23:0.016864486038684845 24:0.9998577833175659 25:0.05819524824619293 26:0.869834840297699 27:0.14054609835147858 28:0.990074098110199 29:0.07472451031208038 30:0.9483470320701599 31:0.17442859709262848 32:0.9846698045730591 33:0.0795452743768692 34:0.9903582334518433 35:0.0929260179400444 36:0.9956730008125305 37:0.0795452743768692 38:1.0 39:0.0 40:-1.0 41:0.0795452743768692 42:0.975206732749939 43:0.22903519868850708 44:-0.9734181761741638 45:0.1070929765701294 46:0.8829200267791748 47:0.3508301079273224 48:-0.9364391565322876 49:0.16907772421836853 50:0.7362258434295654 51:0.3977900445461273 52:-0.9174764752388 53:0.2351931631565094 54:0.5874654054641724 55:0.42410123348236084 56:-0.9056147933006287 57:0.3267909586429596 58:0.39944908022880554 59:0.55586177110672 60:-0.831274688243866 61:0.4631541967391968 62:0.24655649065971375 63:0.7071065902709961 64:-0.7071069478988647 65:0.5974520444869995 66:0.1287878453731537 67:0.7916089296340942 68:-0.6110279560089111 69:0.7227967977523804 70:0.04614327475428581 71:0.8958489894866943 72:-0.4443586468696594 73:0.8570947051048279 74:0.0 75:0.989714503288269 76:-0.14305667579174042 77:0.9562670588493347 78:0.012396696954965591 79:0.9922776818275452 80:0.12403624504804611 
-5.611988475378685 -2.802529974230462 -3.218954361444955 -0.0 9.331410488637555 4.436494113144613 3.093809976167824 2.184972085297545 5.125965244143288 0.0 10.886243381187915 0.0 2.329155671924917 11.675636188855734 10.061509436043378 3.2393065614548857 0.0 9.298215832897714 5.262227665390167 0.0 0.6658923530808466 1:0.5366876125335693 2:0.21383647620677948 3:0.06543257087469101 4:-0.9978569746017456 5:0.5422780513763428 6:0.12858140468597412 7:-0.00411585159599781 8:-0.9999915957450867 9:0.5359886884689331 10:0.04402516037225723 11:-0.5131222009658813 12:-0.8583155870437622 13:0.46540892124176025 14:0.0 15:-0.9978516101837158 16:0.06551551818847656 17:0.39762410521507263 18:0.053109705448150635 19:-0.5128556489944458 20:0.858474850654602 21:0.3689727783203125 22:0.16142554581165314 23:-0.14905168116092682 24:0.9888294339179993 25:0.3689727783203125 26:0.2431865632534027 27:0.04522141069173813 28:0.99897700548172 29:0.3766597509384155 30:0.33123689889907837 31:0.1464305967092514 32:0.9892209768295288 33:0.40041929483413696 34:0.45562544465065 35:0.19735963642597198 36:0.9803311228752136 37:0.4192871153354645 38:0.5429769158363342 39:0.14198823273181915 40:0.9898682832717896 41:0.4248775243759155 42:0.626135528087616 43:0.07387227565050125 44:0.9972677230834961 45:0.4318658411502838 46:0.7127883434295654 47:0.03728853538632393 48:0.9993045330047607 49:0.4318658411502838 50:0.8134171366691589 51:-0.09852812439203262 52:0.9951342344284058 53:0.4109014868736267 54:0.9245283603668213 55:-0.2984843850135803 56:0.9544144868850708 57:0.37526214122772217 58:0.9944095015525818 59:-0.8115345239639282 60:0.5843043923377991 61:0.3060796856880188 62:1.0 63:-0.9967508912086487 64:0.08054548501968384 65:0.33752623200416565 66:0.4444444477558136 67:1.0 68:0.0 69:0.4528301954269409 70:0.4444444477558136 71:1.0 72:0.0 73:0.5646400451660156 74:0.4444444477558136 75:1.0 76:0.0 77:0.693920373916626 78:0.4444444477558136 79:1.0 80:0.0 
-2.273586667882993 -0.0 -2.443392218899594 -4.088181837474531 8.914713698424805 0.0 0.0 0.0 0.0 2.2318703197410135 0.0 1.8606796314261242 0.0 4.145307787129279 3.508508409361873 0.0945573262643572 0.1422070482571981 0.0 8.087571685152962 0.0 10.51062598497144 1:0.6666666865348816 2:0.20000000298023224 3:0.0 4:-1.0 5:0.6666666865348816 6:0.1666666716337204 7:-0.3162279725074768 8:-0.9486831426620483 9:0.6333333253860474 10:0.10000000149011612 11:-0.4472135603427887 12:-0.8944272398948669 13:0.6000000238418579 14:0.03333333507180214 15:-0.7071068286895752 16:-0.7071067094802856 17:0.5333333015441895 18:0.0 19:-0.9805806875228882 20:-0.1961161196231842 21:0.4333333373069763 22:0.0 23:-0.800000011920929 24:0.6000000238418579 25:0.3999999761581421 26:0.10000000149011612 27:-0.11043161898851395 28:0.9938837289810181 29:0.3999999761581421 30:0.30000001192092896 31:0.0 32:1.0 33:0.3999999761581421 34:0.5333333611488342 35:0.08304554969072342 36:0.9965457320213318 37:0.4333333373069763 38:0.699999988079071 39:0.1788855344057083 40:0.9838699102401733 41:0.46666666865348816 42:0.8999999761581421 43:0.21693044900894165 44:0.9761871099472046 45:0.5 46:1.0 47:0.4472135901451111 48:0.8944271802902222 49:0.5 50:0.9666666388511658 51:-0.5547000765800476 52:-0.8320503830909729 53:0.4333333373069763 54:0.8999999761581421 55:-0.7071067690849304 56:-0.7071067690849304 57:0.23333331942558289 58:0.7666666507720947 59:0.8462327122688293 60:-0.532813549041748 61:0.41333311796188354 62:0.6533333659172058 63:0.8349583745002747 64:-0.5503130555152893 65:0.5266667604446411 66:0.5733333826065063 67:0.9079594612121582 68:-0.41905805468559265 69:0.6733332276344299 70:0.5333333611488342 71:0.9514445662498474 72:-0.30782032012939453 73:0.753333568572998 74:0.5 75:0.5734626650810242 76:-0.8192316889762878 77:0.7666666507720947 78:0.4000000059604645 79:0.13216128945350647 80:-0.9912282824516296 
-6.235257520616159 -8.24956734123805 -13.409259941212945 -7.333839029085514 9.041723757787272 12.971488773815087 4.403064369686707 5.248118681702553 10.534806303795145 7.3339413535069475 6.542847645910262 10.735199162653881 6.129433666722201 0.5862902180683123 2.1656791549875276 6.632340091520326 3.739526962210076 2.442489231389214 0.4484784882266026 7.899923337394475 5.20089127235731 1:0.6475409865379333 2:0.0 3:-0.9896606206893921 4:0.1434289813041687 5:0.5605295896530151 6:0.012610339559614658 7:-0.8355079889297485 8:0.5494782328605652 9:0.5075662136077881 10:0.09205547720193863 11:-0.44176802039146423 12:0.8971292972564697 13:0.4785624146461487 14:0.17906683683395386 15:-0.23257316648960114 16:0.9725789427757263 17:0.4659520983695984 18:0.2660781741142273 19:-0.15743227303028107 20:0.9875297546386719 21:0.4508196711540222 22:0.35308951139450073 23:-0.086629718542099 24:0.9962405562400818 25:0.4508196711540222 26:0.44010087847709656 27:-0.0937875434756279 28:0.9955922365188599 29:0.4344262480735779 30:0.5271122455596924 31:-0.09378758817911148 32:0.9955922365188599 33:0.4344262480735779 34:0.614123523235321 35:0.0 36:1.0 37:0.4344262480735779 38:0.7011349201202393 39:-0.09378774464130402 40:0.9955922365188599 41:0.41803279519081116 42:0.7881461977958679 43:-0.09378774464130402 44:0.9955922365188599 45:0.41803279519081116 46:0.8751575946807861 47:0.09378771483898163 48:0.9955922365188599 49:0.4344262480735779 50:0.9621689319610596 51:0.0 52:1.0 53:0.41803279519081116 54:1.0 55:-0.3976072371006012 56:0.9175556898117065 57:0.2540983557701111 58:0.5245901346206665 59:0.9938838481903076 60:-0.11043097823858261 61:0.3721311688423157 62:0.5114754438400269 63:0.9933457374572754 64:-0.11517036706209183 65:0.480327844619751 66:0.49836066365242004 67:0.9917778968811035 68:-0.12797147035598755 69:0.5754098296165466 70:0.4852459132671356 71:0.9940717220306396 72:-0.1087266355752945 73:0.6901639103889465 74:0.4754098355770111 75:0.9883716702461243 76:-0.15205730497837067 77:0.7459016442298889 78:0.4590163826942444 79:0.9593654870986938 80:-0.28216636180877686 
-0.0 -0.0 -0.0 -0.0 11.417555772629632 3.831288561677756 0.0 0.04682129083065541 0.0 0.0 1.034139340511885 0.0 0.0 0.0 1.9965569053024166 0.0 14.062670112579529 0.0 0.03366679197112375 4.276705679403645 0.0 1:0.7764706015586853 2:0.16470588743686676 3:0.0 4:-1.0 5:0.7764706015586853 6:0.13781511783599854 7:0.0 8:-1.0 9:0.7764706015586853 10:0.1109243705868721 11:0.0 12:-1.0 13:0.7764706015586853 14:0.07899158447980881 15:-0.22904057800769806 16:-0.9734168648719788 17:0.7563024163246155 18:0.025210071355104446 19:-0.6080787777900696 20:-0.7938766479492188 21:0.7159661054611206 22:0.0 23:-0.9828722476959229 24:-0.18428818881511688 25:0.6756300926208496 26:0.010084040462970734 27:-0.8436606526374817 28:0.5368767380714417 29:0.6235294342041016 30:0.05882352963089943 31:-0.6015025973320007 32:0.7988708019256592 33:0.5680670738220215 34:0.15294121205806732 35:-0.5197215676307678 36:0.8543356657028198 37:0.5008401274681091 38:0.2605043053627014 39:-0.4519018530845642 40:0.8920676708221436 41:0.4386555552482605 42:0.4084033668041229 43:-0.339644193649292 44:0.9405539631843567 45:0.3915965259075165 46:0.5630252957344055 47:-0.29014894366264343 48:0.9569814801216125 49:0.34285709261894226 50:0.7243698835372925 51:-0.2252420037984848 52:0.9743028283119202 53:0.3193276524543762 54:0.875630259513855 55:-0.17412781715393066 56:0.9847230315208435 57:0.29411762952804565 58:1.0 59:-0.19866198301315308 60:0.9800680875778198 61:0.2235293984413147 62:0.5529412031173706 63:1.0 64:0.0 65:0.2588235139846802 66:0.5529412031173706 67:1.0 68:0.0 69:0.3529411554336548 70:0.5529412031173706 71:1.0 72:0.0 73:0.4470588266849518 74:0.5529412031173706 75:1.0 76:0.0 77:0.541176438331604 78:0.5529412031173706 79:1.0 80:0.0 
-1.3352767770583045 -0.0 -0.0 -2.627383345391851 0.0 0.0 0.0 0.0 0.0 0.5472923672697543 0.0 0.0 0.0 0.0 0.0 0.0 0.0 0.0 0.0 0.45957800128883264 0.0 1:0.47330594062805176 2:0.052361391484737396 3:-0.5766844749450684 4:-0.8169668912887573 5:0.43634483218193054 6:0.0 7:-0.938054084777832 8:-0.346488893032074 9:0.3593430519104004 10:0.01026693731546402 11:-0.848730742931366 12:0.5288252830505371 13:0.3028748035430908 14:0.08316221088171005 15:-0.3263380825519562 16:0.9452530741691589 17:0.29979467391967773 18:0.18275152146816254 19:0.06584668159484863 20:0.9978297352790833 21:0.31622183322906494 22:0.28542089462280273 23:0.23184706270694733 24:0.9727522730827332 25:0.34702247381210327 26:0.3809034824371338 27:0.25633183121681213 28:0.9665888547897339 29:0.3655029237270355 30:0.4712525010108948 31:0.20952942967414856 32:0.9778023958206177 33:0.3901436924934387 34:0.5821354985237122 35:0.23934726417064667 36:0.9709340333938599 37:0.41991788148880005 38:0.6919917464256287 39:0.14491885900497437 40:0.9894434809684753 41:0.41991788148880005 42:0.785420835018158 43:0.05437525361776352 44:0.99852055311203 45:0.43121159076690674 46:0.8993839025497437 47:-0.15486571192741394 48:0.987935483455658 49:0.3901436924934387 50:0.9753594398498535 51:-0.7611221671104431 52:0.6486085653305054 53:0.31314170360565186 54:1.0 55:-0.9524244666099548 56:0.3047748804092407 57:0.29979467391967773 58:0.4394250214099884 59:0.8944271206855774 60:-0.4472135603427887 61:0.3798767924308777 62:0.3993839621543884 63:0.923076868057251 64:-0.384615421295166 65:0.4599589407444 66:0.3726899027824402 67:0.9701425433158875 68:-0.2425355464220047 69:0.5400410890579224 70:0.35934290289878845 71:0.9883716702461243 72:-0.15205714106559753 73:0.6334701776504517 74:0.34599587321281433 75:0.9863938689231873 76:-0.16439910233020782 77:0.7002053260803223 78:0.3326488435268402 79:0.9805806875228882 80:-0.1961161494255066 
-6.14161614446212 -0.0 -0.0 -0.0 0.0 0.38778114863804375 0.0 0.0 2.138163652839043 0.0 5.055689895339142 0.0 0.0 0.0 0.0 0.0 0.0 0.0 0.7865562071837057 0.0 0.16281430517770665 1:0.6988636255264282 2:0.07954545319080353 3:-0.316227525472641 4:-0.9486834406852722 5:0.6761363744735718 6:0.011363636702299118 7:-0.7525765895843506 8:-0.6585047245025635 9:0.6079545617103577 10:0.0 11:-0.8944271802902222 12:0.4472135603427887 13:0.5625 14:0.06818182021379471 15:-0.47058814764022827 16:0.8823530673980713 17:0.5170454978942871 18:0.17045454680919647 19:-0.2982747256755829 20:0.9544800519943237 21:0.5056818723678589 22:0.25 23:-0.24253572523593903 24:0.9701424837112427 25:0.47159093618392944 26:0.35227271914482117 27:-0.24253569543361664 28:0.9701424837112427 29:0.4602273106575012 30:0.4318181872367859 31:-0.13216377794742584 32:0.991227924823761 33:0.4488636553287506 34:0.5227272510528564 35:-0.14834055304527283 36:0.9889363646507263 37:0.4261363744735718 38:0.6590909361839294 39:-0.14834043383598328 40:0.9889364242553711 41:0.41477274894714355 42:0.75 43:-0.14142124354839325 44:0.9899494647979736 45:0.40340912342071533 46:0.8181818127632141 47:-0.16439905762672424 48:0.9863938689231873 49:0.3920454680919647 50:0.8863636255264282 51:-0.1842886507511139 52:0.9828720688819885 53:0.3693181872367859 54:1.0 55:-0.37139055132865906 56:0.9284767508506775 57:0.34659093618392944 58:1.0 59:-1.0 60:0.0 61:0.3011363744735718 62:0.5 63:1.0 64:0.0 65:0.3693181872367859 66:0.5 67:0.9970544576644897 68:-0.07669641822576523 69:0.4488636553287506 70:0.4886363744735718 71:0.9970545172691345 72:-0.07669641077518463 73:0.5170454978942871 74:0.4886363744735718 75:0.9284766316413879 76:0.37139084935188293 77:0.5625 78:0.5340909361839294 79:0.7071062922477722 80:0.7071072459220886 
-0.0 -0.0 -0.0 -0.0 2.350449621461403 0.0 0.0 0.0 2.376312374495866 0.497614463904893 0.0 0.0 0.0 0.0 0.0 0.0 2.0033622773331374 22.75672740572417 4.9737078140858895 9.650762759503543 0.0 1:0.798701286315918 2:0.15584415197372437 3:0.0 4:-1.0 5:0.798701286315918 6:0.09740259498357773 7:0.04163533076643944 8:-0.9991328716278076 9:0.803030788898468 10:0.051948051899671555 11:0.1520572453737259 12:-0.988371729850769 13:0.8116883039474487 14:0.012987012974917889 15:-0.5546941757202148 16:-0.8320543169975281 17:0.7683992981910706 18:0.0 19:-0.9968153238296509 20:0.07974475622177124 21:0.7034626603126526 22:0.021645013242959976 23:-0.8715770840644836 24:0.49025842547416687 25:0.6298701167106628 26:0.07792207598686218 27:-0.6731421947479248 28:0.739513099193573 29:0.5497840642929077 30:0.19047610461711884 31:-0.5421280264854431 32:0.8402958512306213 33:0.45670944452285767 34:0.3463203012943268 35:-0.43772533535957336 36:0.8991087675094604 37:0.3896103799343109 38:0.5194805264472961 39:-0.3334203064441681 40:0.9427782893180847 41:0.3311688303947449 42:0.7012985944747925 43:-0.28248488903045654 44:0.9592717885971069 45:0.2857142984867096 46:0.8722943663597107 47:-0.2911614775657654 48:0.9566739201545715 49:0.24025975167751312 50:1.0 51:-0.33532464504241943 52:0.9421026110649109 53:0.18831169605255127 54:0.5194805264472961 55:1.0 56:0.0 57:0.2142857164144516 58:0.5194805264472961 59:1.0 60:0.0 61:0.30519479513168335 62:0.5194805264472961 63:1.0 64:0.0 65:0.3961039185523987 66:0.5194805264472961 67:1.0 68:0.0 69:0.5735940933227539 70:0.5194805264472961 71:1.0 72:0.0 73:0.6753246784210205 74:0.5194805264472961 75:1.0 76:0.0 77:0.7467532157897949 78:0.5194805264472961 79:1.0 80:0.0 
-0.0 -0.0 -0.0 -0.0 0.0 0.0 0.0 0.0 0.0 0.0 0.0 0.0 0.0 0.0 0.0 0.0 0.0 0.0 0.0 0.31865551349126753 0.0 1:0.7576079368591309 2:0.17763623595237732 3:0.0 4:-1.0 5:0.7576079368591309 6:0.14154282212257385 7:0.0 8:-1.0 9:0.7576079368591309 10:0.10544939339160919 11:0.0 12:-1.0 13:0.7576079368591309 14:0.08209484070539474 15:-0.283015638589859 16:-0.9591152667999268 17:0.7321304082870483 18:0.019108273088932037 19:-0.4472159445285797 20:-0.8944259881973267 21:0.7165602445602417 22:0.0 23:-0.9994449615478516 24:-0.03331436961889267 25:0.6896669864654541 26:0.017692845314741135 27:-0.7034322619438171 28:0.7107623219490051 29:0.6486199498176575 30:0.06864826381206512 31:-0.5363628268241882 32:0.8439875245094299 33:0.5934184193611145 34:0.1691436767578125 35:-0.4056367576122284 36:0.914034366607666 37:0.5424627661705017 38:0.30785566568374634 39:-0.3396451771259308 40:0.9405536651611328 41:0.4830147624015808 42:0.47487616539001465 43:-0.34223031997680664 44:0.9396160840988159 45:0.422859251499176 46:0.6362350583076477 47:-0.3413870334625244 48:0.9399228096008301 49:0.3740268051624298 50:0.774946928024292 51:-0.30700427293777466 52:0.951708197593689 53:0.33793312311172485 54:0.8995046615600586 55:-0.26670536398887634 56:0.9637780785560608 57:0.31174808740615845 58:1.0 59:-0.25214114785194397 60:0.9676904678344727 61:0.24239209294319153 62:0.46496811509132385 63:1.0 64:0.0 65:0.25973108410835266 66:0.46496811509132385 67:1.0 68:0.0 69:0.31174808740615845 70:0.46496811509132385 71:1.0 72:0.0 73:0.3934890329837799 74:0.46496811509132385 75:0.9995121359825134 76:-0.031234735623002052 77:0.6288039684295654 78:0.45506012439727783 79:0.9991147518157959 80:-0.042067959904670715 
-0.0 -0.0 -0.0 -0.0 0.0 0.0 0.0 0.0 0.0 0.0 0.0 0.0 0.0 0.0 0.0 0.0 0.0 59.576371683677074 0.0 0.0 0.0 1:0.7960526347160339 2:0.10526315867900848 3:0.0 4:-1.0 5:0.7960526347160339 6:0.08646616339683533 7:0.0 8:-1.0 9:0.7960526347160339 10:0.04511277750134468 11:-0.08540529757738113 12:-0.9963462948799133 13:0.7904132604598999 14:0.020676687359809875 15:-0.7893500328063965 16:-0.6139433979988098 17:0.7453011274337769 18:0.0056390948593616486 19:-0.975716233253479 20:-0.21903827786445618 21:0.698307991027832 22:0.0 23:-0.9979690909385681 24:0.06370016932487488 25:0.6569551229476929 26:0.011278202757239342 27:-0.8344639539718628 28:0.5510625839233398 29:0.5986841917037964 30:0.06578947603702545 31:-0.7021434903144836 32:0.7120354175567627 33:0.5234969258308411 34:0.14661657810211182 35:-0.594187319278717 36:0.8043266534805298 37:0.44454875588417053 38:0.27443620562553406 39:-0.49360740184783936 40:0.8696848750114441 41:0.36560139060020447 42:0.42481207847595215 43:-0.39256522059440613 44:0.91972416639328 45:0.31296980381011963 46:0.582706868648529 47:-0.2635921239852905 48:0.9646342396736145 49:0.27725541591644287 50:0.7481204867362976 51:-0.13888439536094666 52:0.9903086423873901 53:0.2697368264198303 54:0.8909775614738464 55:-0.029836656525731087 56:0.9995548129081726 57:0.2697368264198303 58:1.0 59:0.0 60:1.0 61:0.20394736528396606 62:0.4736842215061188 63:1.0 64:0.0 65:0.22697368264198303 66:0.4736842215061188 67:1.0 68:0.0 69:0.2763157784938812 70:0.4736842215061188 71:0.9970544576644897 72:-0.07669665664434433 73:0.3552631735801697 74:0.4638157784938812 75:0.9869328737258911 76:-0.16113193333148956 77:0.5986841917037964 78:0.42105263471603394 79:0.9849172830581665 80:-0.173025980591774 
-0.0 -0.0 -0.0 -0.0 0.0 0.0 0.0 0.0 0.14904344342034326 0.0 8.30749835913352 0.0 0.0 0.0 0.0 0.0 0.0 20.882188559023646 0.0 0.0 0.0 1:0.75 2:0.05714285746216774 3:-0.5240973830223083 4:-0.8516583442687988 5:0.7148351669311523 6:0.0 7:-0.9660965800285339 8:-0.2581809461116791 9:0.6225274801254272 10:0.02307692915201187 11:-0.816967785358429 12:0.5766832828521729 13:0.5653846263885498 14:0.10549452155828476 15:-0.44495928287506104 16:0.8955507874488831 17:0.5357142686843872 18:0.19780221581459045 19:-0.3511236608028412 20:0.9363291263580322 21:0.4961538016796112 22:0.29010993242263794 23:-0.3559952676296234 24:0.9344877600669861 25:0.4653846025466919 26:0.38241761922836304 27:-0.24795886874198914 28:0.9687705636024475 29:0.44890111684799194 30:0.47472527623176575 31:-0.23162052035331726 32:0.9728062152862549 33:0.4214285612106323 34:0.5670329928398132 35:-0.31622788310050964 36:0.9486832022666931 37:0.38736259937286377 38:0.6593407392501831 39:-0.3313509225845337 40:0.9435075521469116 41:0.35659337043762207 42:0.7516484260559082 43:-0.31622761487960815 44:0.9486833214759827 45:0.32582417130470276 46:0.8439561128616333 47:-0.187111958861351 48:0.9823386073112488 49:0.3214285671710968 50:0.9362637996673584 51:-0.2067050039768219 52:0.9784033298492432 53:0.2928571403026581 54:1.0 55:-0.4090562164783478 56:0.9125091433525085 57:0.25 58:0.4714285731315613 59:0.9838699102401733 60:0.17888545989990234 61:0.3442857265472412 62:0.488571435213089 63:0.9893591403961182 64:0.14549396932125092 65:0.44428572058677673 66:0.5 67:0.9984167814254761 68:0.056248802691698074 69:0.5471428632736206 70:0.5 71:1.0 72:0.0 73:0.6414285898208618 74:0.5 75:0.9941444993019104 76:0.10805937647819519 77:0.6785714626312256 78:0.5142857432365417 79:0.933345377445221 80:0.35897958278656006 
-0.23122767394255483 -12.348482988106454 -4.4883606546041 -1.726621789259777 -0.0 4.5068826950023615 7.390861238737259 9.871820209897972 4.256840187374726 0.0 3.1646734190807826 11.520286530205947 9.75065607383812 0.9455721477040646 1.170728295578052 4.731062894324844 0.0 0.0 0.0 0.0 0.0 1:0.6681720018386841 2:0.0 3:0.980108916759491 4:0.1984604299068451 5:0.693880021572113 6:0.005205568857491016 7:-0.6019313335418701 8:0.7985478639602661 9:0.5992240905761719 10:0.09146925061941147 11:-0.7821781039237976 12:0.6230549216270447 13:0.4468826949596405 14:0.20195475220680237 15:-0.773292601108551 16:0.6340493559837341 17:0.28476619720458984 18:0.3493041694164276 19:-0.6723158359527588 20:0.7402644157409668 21:0.2187928855419159 22:0.45309680700302124 23:-0.21264387667179108 24:0.9771298170089722 25:0.2490701675415039 26:0.5133326649665833 27:0.9072061777114868 28:0.420686274766922 29:0.37251707911491394 30:0.5243812203407288 31:0.9818879961967468 32:-0.18946221470832825 33:0.5386695861816406 34:0.4574524164199829 35:0.8373246192932129 36:-0.5467060208320618 37:0.6636037826538086 38:0.3343248665332794 39:0.6091752648353577 40:-0.7930355668067932 41:0.730851411819458 42:0.20726655423641205 43:0.4358859360218048 44:-0.9000018239021301 45:0.7341443300247192 46:0.18867523968219757 47:-0.2821539044380188 48:0.9593691229820251 49:0.7170413732528687 50:0.25422292947769165 51:-0.1530148983001709 52:0.9882239103317261 53:0.6921818852424622 54:0.45968344807624817 55:-0.058943603187799454 56:0.9982613325119019 57:0.690268874168396 58:0.7076385617256165 59:0.009845394641160965 60:0.9999516010284424 61:0.6964306831359863 62:0.8912143707275391 63:0.02488313615322113 64:0.9996903538703918 65:0.697067379951477 66:0.9807713627815247 67:0.0331866480410099 68:0.9994491934776306 69:0.7000429034233093 70:1.0 71:0.808636486530304 72:-0.5883086323738098 73:0.7348873615264893 74:0.9532561302185059 75:0.6311204433441162 76:-0.7756848931312561 77:0.7812070846557617 78:0.9002443552017212 79:0.6579768657684326 80:-0.753038227558136 
-1.4985860252192493 -0.6223780032941972 -2.3363231905911706 -1.8665169641444697 -0.0 0.0 1.3837619175490858 0.0 11.69069593840739 6.849619389248632 0.0 26.49528841003063 0.46164725005090623 4.036250627044805 14.088424597753239 3.336281672392847 0.0 0.0 0.0 0.0 4.650553750588232 1:0.6313363909721375 2:0.0 3:-1.0 4:0.0 5:0.5161289572715759 6:0.0 7:-0.9186691641807556 8:0.3950275182723999 9:0.4009215235710144 10:0.09907833486795425 11:-0.6648731231689453 12:0.7469564080238342 13:0.32949307560920715 14:0.20967741310596466 15:-0.31337693333625793 16:0.9496288299560547 17:0.3248848021030426 18:0.32949307560920715 19:0.24253560602664948 20:0.9701425433158875 21:0.3755760192871094 22:0.39400920271873474 23:0.9712108969688416 24:0.23822155594825745 25:0.44700464606285095 26:0.35944700241088867 27:0.8320501446723938 28:-0.5547004342079163 29:0.5622118711471558 30:0.2695852220058441 31:0.6246950030326843 32:-0.7808689475059509 33:0.6313363909721375 34:0.12903226912021637 35:0.4138033986091614 36:-0.9103662371635437 37:0.6313363909721375 38:0.11751148849725723 39:-0.11684083938598633 40:0.9931506514549255 41:0.6175115704536438 42:0.24654366075992584 43:-0.23361161351203918 44:0.9723299741744995 45:0.5460829734802246 46:0.47235023975372314 47:-0.2960989475250244 48:0.9551572799682617 49:0.47465431690216064 50:0.7073732018470764 51:-0.2084341198205948 52:0.9780364632606506 53:0.45622119307518005 54:0.8940091133117676 55:0.06286782026290894 56:0.9980218410491943 57:0.4930875897407532 58:1.0 59:0.8551978468894958 60:0.5183016657829285 61:0.6082950234413147 62:0.9861750602722168 63:0.8708240389823914 64:-0.49159470200538635 65:0.635944664478302 66:0.9193547964096069 67:0.5591414570808411 68:-0.8290723562240601 69:0.6751152276992798 70:0.8870967626571655 71:0.35340121388435364 72:-0.9354718327522278 73:0.6751152276992798 74:0.8156682252883911 75:0.0 76:-1.0 77:0.6751152276992798 78:0.7442396283149719 79:0.0 80:-1.0 
