svm_type c_svc
kernel_type rbf
gamma 0.015625
nr_class 24
total_sv 329
rho 0.0938708709086096 0.5198634237909788 0.34109669924063607 -0.16419440174343417 1.1941848546533795 -0.06974530538962125 0.2824364064549157 -0.07812532253000645 0.5099968646922585 0.1989580746006221 0.1688288718458017 0.2724290255141226 0.16649769589817512 0.10834569108761016 0.5952671997905775 -0.060958565013244266 0.21539808648629047 0.4669100614414809 0.013466507684276522 0.25935365979052416 0.25143750443997814 0.2507555276924538 0.12791563374462622 0.6385435657456148 0.20257192737759547 -0.15481991776033135 0.08554245471726772 -0.37953197833797964 0.4119507698958033 -0.17343669994006308 0.7865856555894931 0.182440117774045 -0.019646043613792595 0.14507174054815683 -0.007947802875062847 -0.10189179032308598 0.6342499100657828 -0.4781220111898901 0.16994822846215782 0.41462972041471413 -0.2380996589236228 0.3527215804278736 -0.05238844178979819 0.29021955326679383 -0.06394741660166348 -0.08226697375231945 -0.543999169298104 -0.4769447607033783 -0.39646233240533174 0.0028354297583856997 -0.34844836900148335 0.44132139108337604 -0.08350202678777935 -0.30856976279810244 0.1444835951838472 -0.32814774177811407 -0.15929169796944526 0.5343699042618517 -0.5265155493854641 0.005515276874306795 0.1397931414101638 -0.3617751410598826 -0.133497708360435 -0.604036220512092 -0.23951780332389558 -0.5233277043598584 -0.5220322138923884 -0.23208567783827144 -0.427162079197375 0.15432549752699543 -0.4249901886615506 0.24188379699471088 -0.10349604105062168 -0.2491817624111701 0.09365100645850143 -0.3672413580790714 -0.14030784091220105 0.2707035840328442 -0.530299315809756 -0.07571885183612215 0.14629057451751898 -0.4908733237954516 -0.10836514404960657 -0.7036982580601979 -0.08722545241209191 -0.3196836368272948 0.17147603602399394 0.33002910304452654 0.5921189307763876 -0.5839373387461356 0.8724885238001835 0.4193423856884864 0.8090031067568476 0.7164902951604063 0.04043454745129741 0.4016230830668908 0.8846825483004473 -0.21644858060327343 0.7836073675219923 0.532408935461602 -0.17301727598237474 0.6013606245767547 0.1684117755938288 1.5086227275551307 0.1462820757321486 -0.09338919880285966 0.12389352642697664 -0.21631343038412024 0.36576735790730475 0.060990509138026845 0.00606816736258862 0.20418941246651812 0.08154764445914657 0.07380040680976342 0.6383302107498458 -0.2327489232531677 0.11948290404606338 0.4162829954433921 -0.1937733461262579 0.13014736162210758 -0.19785822528151784 -0.06112272145491525 0.07445336898084906 0.8765191869779105 -0.1695796358712537 0.9350576858203083 0.554080204753198 0.3656065836977887 1.4315022650272666 1.262108074609014 -0.2964824948185087 0.9465405619225853 -0.8192240127686363 0.41385339832760903 0.47600373189517364 -0.0805903023516777 0.925921579442458 0.0843186923170523 1.1126249828409953 0.16227611616991647 -0.46979635729638974 0.17579892901358243 -0.2572613042096288 -0.47183099452674115 -0.25334388570238586 -0.4405095047986267 -0.42760851459018995 0.1375841537812894 -0.8664749176705346 -0.09235411645190762 0.08430093425709555 -0.8357836145353114 -0.25678554125272446 -0.3491590587993498 -0.1274073975945098 -0.4027434427396476 0.7185510334279783 0.2578088012650386 0.8043780014544578 0.47859765668901505 0.2420720928562532 0.49712481363187977 0.7868395894367275 -0.15561972000359256 0.5298507907051185 0.6446290083104863 -0.0567312644561632 0.6433431277470915 0.12744367784587346 0.795986873573265 0.2468162903466918 -0.5098028881001582 -0.6785687380066263 -0.38412269123619686 -0.5993240007869904 -0.4664608730454174 0.07248861760040487 -0.8096442066644901 -0.3150507776114371 -0.031156500984372806 -0.5813156628795326 -0.29787716679265475 -0.39408930151818644 -0.3745484034500333 -0.7042021473522035 -0.15538608443600493 0.11677524537519603 0.19029509008869966 -0.040963075589249144 0.49639555806641766 0.04142803913503317 -0.12447232169575517 0.2396986589144052 -0.46518094704303736 0.11037498493584694 -0.20946905506556357 0.1918530601695356 -0.35916450134113603 0.39234686997661883 -0.02731210304390319 -0.2948539959091698 0.5421413574052064 -0.42452112347460896 0.10557980122898228 0.40156184426013897 -0.2310346194708117 0.3343870643270196 -0.10641541163719795 0.6112802578451207 0.00291536905930052 -0.49820027704815406 -0.5712297409615866 0.5206543741551372 -1.1836274889967298 0.001057275397824787 0.22878903814716367 -0.48954447239278703 0.08026794324386437 -0.34564416562084144 0.08933200032922192 -0.49021833784785696 -0.006404050860911608 0.5915351072524669 -2.261755013200825 0.3385104536099118 0.3828337187543641 -0.7839414642411003 0.5466205640103277 -0.20787398140877342 0.25823442064183827 -0.4073794649739498 0.4821977332833897 -0.6571963328479858 0.25472614888932277 0.2791956982080296 -0.31664341956784436 0.43922921215760286 -0.10313691795003366 0.21695952633470844 0.02573569531158171 -0.9803283807454939 -0.32374448864888317 -0.04332259610998993 -0.7407084620940858 -0.3585733085386755 -0.575550144982722 -0.31142044499969146 -0.7871908688464125 0.6845775585299306 0.5291892694690679 0.042024211992202555 0.7421165910984837 0.17294689356226936 0.431289405211489 0.46323329824202 0.2717307351447194 -0.5709840514134311 0.07542742297499797 -0.22566663543380192 0.512021791590836 -0.17022453577909402 -0.5345931849514711 -0.38900512368540757 -0.4307085631492153 -0.34072165727555315 -0.39655826133187655 0.5660452829649738 0.1338041178538207 0.26420443863320886 0.417975271820096 -0.22985785425643346 -0.1039526575775058 -0.16575707999499664 0.20505008912148712 0.23713978910437894 -0.3857019035923775
label 45 34 43 94 41 61 39 37 62 35 60 125 33 123 47 42 40 93 64 91 36 126 63 92
nr_sv 10 15 15 13 15 13 13 15 14 15 12 14 15 15 12 15 15 14 13 13 14 10 15 14
SV
1.7136144660677457 1.78334765504204 2.6301533247445663 0.4737360713283287 1.3105272563071726 0.8288857566508152 1.1768574091821882 0.37444923657633844 1.9430673596331316 1.588530221106638 0.9766390646717656 1.4528311385385133 1.8977977837001978 0.8797875980287709 2.677086916341887 1.8049771902367002 1.6884294492117096 2.2623893848788255 2.097406689619401 2.170532758747574 4.794909789489977 0.9081503270673916 2.2169368912441065 1:0.07766859233379364 2:0.5599515438079834 3:-0.894415557384491 4:-0.44723692536354065 5:0.055339884012937546 6:0.548786461353302 7:-0.8883211016654968 8:-0.4592227637767792 9:0.020387668162584305 10:0.5303398370742798 11:-0.8688087463378906 12:-0.4951478838920593 13:0.010196085087954998 14:0.523058295249939 15:-0.941738486289978 16:-0.3363458812236786 17:0.0 18:0.523058295249939 19:-1.0 20:0.0 21:0.009223314002156258 22:0.523058295249939 23:0.9849996566772461 24:-0.172556534409523 25:0.13300848007202148 26:0.4997572898864746 27:0.9970731139183044 28:-0.07645323127508163 29:0.3131062984466553 30:0.4997572600841522 31:0.9998359680175781 32:0.018112925812602043 33:0.4009709656238556 34:0.5046116709709167 35:0.9910816550254822 36:-0.13325603306293488 37:0.6019383668899536 38:0.4609223008155823 39:0.985030472278595 40:-0.17238037288188934 41:0.7699035406112671 42:0.4400484561920166 43:0.9976648092269897 44:-0.06829988211393356 45:0.8004828095436096 46:0.4473299980163574 47:0.9555771946907043 48:0.29474103450775146 49:0.9194176197052002 50:0.48616501688957214 51:0.9615261554718018 52:0.2747132480144501 53:0.936409592628479 54:0.48616501688957214 55:1.0 56:0.0 57:0.9582518935203552 58:0.48616501688957214 59:0.9805780649185181 60:-0.1961291879415512 61:0.9631067514419556 62:0.4808252155780792 63:0.7710674405097961 64:-0.6367534399032593 65:0.9694207310676575 66:0.47694170475006104 67:0.9734192490577698 68:-0.22903041541576385 69:0.9796123504638672 70:0.47694170475006104 71:1.0 72:0.0 73:0.9898039102554321 74:0.47694170475006104 75:0.9111024141311646 76:0.4121800363063812 77:1.0 78:0.48616501688957214 79:0.7415980696678162 80:0.6708444952964783 
0.0 1.4860923615925272 0.0 0.0 4.227298957404236 0.0 0.3185211347451647 0.43047128597445883 0.8740886152482736 0.0 0.0418334600248352 0.5267829485051241 0.6189913400401038 0.2466904290099672 0.18911490078205065 0.0 0.21375851791486292 1.0842077161192747 0.0 0.3702919499201525 0.5302173929417403 0.2505593071947919 0.0 1:0.11920405179262161 2:0.6258280277252197 3:-1.0 4:0.0 5:0.059603944420814514 6:0.6258280277252197 7:-1.0 8:0.0 9:0.0 10:0.6258280277252197 11:-1.0 12:0.0 13:0.04635606333613396 14:0.6258280277252197 15:1.0 16:0.0 17:0.10596001148223877 18:0.6258280277252197 19:1.0 20:0.0 21:0.16556011140346527 22:0.6258280277252197 23:1.0 24:0.0 25:0.22516405582427979 26:0.6258280277252197 27:0.9486851692199707 28:-0.31622225046157837 29:0.2847680151462555 30:0.5860928297042847 31:0.7682275176048279 32:-0.6401768922805786 33:0.3443719446659088 34:0.5264900922775269 35:0.8106759190559387 36:-0.585495114326477 37:0.4039720594882965 38:0.5 39:0.9761865139007568 40:-0.21693278849124908 41:0.4635760188102722 42:0.5 43:1.0 44:0.0 45:0.5231761336326599 46:0.5 47:1.0 48:0.0 49:0.5827800631523132 50:0.5 51:1.0 52:0.0 53:0.6423839926719666 54:0.5 55:1.0 56:0.0 57:0.7019879221916199 58:0.5 59:0.9938836097717285 60:-0.11043278127908707 61:0.7615880370140076 62:0.4867549538612366 63:0.8532791137695312 64:-0.5214545130729675 65:0.8211920261383057 66:0.42715218663215637 67:0.7270201444625854 68:-0.686616063117981 69:0.880795955657959 70:0.37417200207710266 71:0.9138097763061523 72:-0.40614235401153564 73:0.9403960704803467 74:0.37417200207710266 75:1.0 76:0.0 77:1.0 78:0.37417200207710266 79:1.0 80:0.0 
0.18392145590692585 2.578434343739916 0.0 0.0 0.0 0.0300854364750695 1.20465850919287 0.0 0.35567032655230096 0.9535403897105518 0.5276228448848781 0.0 0.18257394253400167 0.0 0.46247993707716295 0.4938279555400415 0.025461388340870677 0.0 0.0 0.3961134655009398 5.547806849671486 0.42238565424641866 0.19097580866957037 1:0.021410778164863586 2:0.5358942151069641 3:-1.0 4:0.0 5:0.0 6:0.5358942151069641 7:-1.0 8:0.0 9:0.016372647136449814 10:0.5358942151069641 11:1.0 12:0.0 13:0.05415607616305351 14:0.5358942151069641 15:0.9791345596313477 16:-0.20321319997310638 17:0.08312441408634186 18:0.5220403075218201 19:0.9503102898597717 20:-0.3113043010234833 21:0.12720495462417603 22:0.511964738368988 23:0.9872410297393799 24:-0.15923312306404114 25:0.20025238394737244 26:0.50314861536026 27:0.9896450042724609 28:-0.1435367465019226 29:0.29219189286231995 30:0.48803526163101196 31:0.9967725872993469 32:-0.08027701079845428 33:0.38790979981422424 34:0.48803526163101196 35:1.0 36:0.0 37:0.4345097839832306 38:0.48803526163101196 39:1.0 40:0.0 41:0.541561484336853 42:0.48803526163101196 43:1.0 44:0.0 45:0.6083124876022339 46:0.48803526163101196 47:0.9930353164672852 48:-0.11781689524650574 49:0.6901772022247314 50:0.4704030156135559 51:0.9899495244026184 52:-0.14142131805419922 53:0.7758188843727112 54:0.4641057848930359 55:0.9992135167121887 56:-0.03965124115347862 57:0.8488677740097046 58:0.4641057848930359 59:1.0 60:0.0 61:0.9030231237411499 62:0.4641057848930359 63:1.0 64:0.0 65:0.9458446502685547 66:0.4641057848930359 67:1.0 68:0.0 69:0.9836273789405823 70:0.4641057848930359 71:1.0 72:0.0 73:1.0 74:0.4641057848930359 75:-1.0 76:0.0 77:0.9785899519920349 78:0.4641057848930359 79:-1.0 80:0.0 
0.0 0.0 0.8271680839810797 0.0 1.095454629115336 0.0 0.0 0.0 0.0 0.0 0.0 0.0 0.0 0.0 0.0 0.0 0.0 0.0 0.0 0.0 10.09040790820712 0.0 0.0 1:0.0 2:0.533707857131958 3:1.0 4:0.0 5:0.007096365559846163 6:0.533707857131958 7:0.967074990272522 8:-0.2544914782047272 9:0.01123595517128706 10:0.5307510495185852 11:0.3807521164417267 12:-0.9246771335601807 13:0.01123595517128706 14:0.5236546397209167 15:0.5812358856201172 16:-0.8137351870536804 17:0.01714959368109703 18:0.5224719047546387 19:0.9974586963653564 20:-0.07124713063240051 21:0.02779422700405121 22:0.5224719047546387 23:1.0 24:0.0 25:0.0490834079682827 26:0.5224719047546387 27:1.0 28:0.0 29:0.08456532657146454 30:0.5224719047546387 31:1.0 32:0.0 33:0.12891773879528046 34:0.5224719047546387 35:1.0 36:0.0 37:0.19278527796268463 38:0.5224719047546387 39:1.0 40:0.0 41:0.253104567527771 42:0.5224719047546387 43:1.0 44:0.0 45:0.30987584590911865 46:0.5224719047546387 47:0.9954825639724731 48:-0.09494458884000778 49:0.4577173888683319 50:0.5029568672180176 51:0.9913958311080933 52:-0.13089852035045624 53:0.5830868482589722 54:0.4863986074924469 55:0.9922778606414795 56:-0.12403491139411926 57:0.6469544768333435 58:0.47930219769477844 59:0.9943592548370361 60:-0.10606515407562256 61:0.716144323348999 62:0.47220578789711 63:0.9954954385757446 64:-0.09480906277894974 65:0.7835600972175598 66:0.466292142868042 67:0.9987270832061768 68:-0.050440713763237 69:0.8332346081733704 70:0.466292142868042 71:1.0 72:0.0 73:0.9077467322349548 74:0.466292142868042 75:1.0 76:0.0 77:1.0 78:0.466292142868042 79:1.0 80:0.0 
2.5097760000255396 2.767016851866233 4.496902714684635 3.1950549803791164 1.5109590906328858 1.526709767305289 1.0359685964353984 2.7242448336230987 1.7702316501670445 1.467174663747148 2.5025543901134237 1.578510895017358 1.269677239063973 1.5975841319477968 2.5775576945189966 0.3508508744446858 1.9017684286243202 2.4478487771375907 0.3627649671967777 2.1586060492081574 2.1468565673080398 2.8974349529289 2.8699596065962307 1:0.0 2:0.546068549156189 3:0.9917794466018677 4:-0.1279584914445877 5:0.010737873613834381 6:0.5446831583976746 7:0.9512927532196045 8:-0.3082890510559082 9:0.03740902990102768 10:0.5339452624320984 11:0.9288078546524048 12:-0.37056174874305725 13:0.07758969068527222 14:0.5180116295814514 15:0.955542266368866 16:-0.29485413432121277 17:0.1586427241563797 18:0.49653586745262146 19:0.9868745803833008 20:-0.16148829460144043 21:0.2680981755256653 22:0.48683756589889526 23:0.9991094470024109 24:-0.04219326376914978 25:0.3882922828197479 26:0.48683756589889526 27:1.0 28:0.0 29:0.5396604537963867 30:0.48683756589889526 31:1.0 32:0.0 33:0.6775199770927429 34:0.48683756589889526 35:0.9997035264968872 36:-0.024349190294742584 37:0.7814337611198425 38:0.4809488356113434 39:0.9946485161781311 40:-0.10331601649522781 41:0.8742642402648926 42:0.4664013683795929 43:0.9898179173469543 44:-0.14233940839767456 45:0.9379981160163879 46:0.4584343135356903 47:0.9940303564071655 48:-0.10910379141569138 49:0.987876296043396 50:0.45393142104148865 51:0.9969475865364075 52:-0.07807350158691406 53:0.9954971075057983 54:0.45393142104148865 55:1.0 56:0.0 57:1.0 58:0.45393142104148865 59:-0.8575958013534546 60:0.5143243074417114 61:0.9937650561332703 62:0.45497018098831177 63:-0.8320490717887878 64:0.5547020435333252 65:0.9937650561332703 66:0.45808807015419006 67:0.0 68:1.0 69:0.9937650561332703 70:0.4577414095401764 71:-0.8064106106758118 72:0.5913560390472412 73:0.9833734035491943 74:0.465708464384079 75:-0.8140537738800049 76:0.5807894468307495 77:0.9345340132713318 78:0.5 79:-0.8184126615524292 80:0.5746309757232666 
0.0 0.0 0.0 0.0 18.826383009662194 0.0 0.0 0.0 0.0 0.0 0.0 0.0 0.0 0.0 0.0 0.0 0.0 0.0 0.0 0.0 0.0 0.0 0.0 1:0.0 2:0.48750001192092896 3:1.0 4:0.0 5:0.05263061448931694 6:0.48750001192092896 7:1.0 8:0.0 9:0.10526428371667862 10:0.48750001192092896 11:1.0 12:0.0 13:0.15789489448070526 14:0.48750001192092896 15:1.0 16:0.0 17:0.21052856743335724 18:0.48750001192092896 19:1.0 20:0.0 21:0.2631591856479645 22:0.48750001192092896 23:1.0 24:0.0 25:0.3157897889614105 26:0.48750001192092896 27:1.0 28:0.0 29:0.36842042207717896 30:0.48750001192092896 31:1.0 32:0.0 33:0.421051025390625 34:0.48750001192092896 35:1.0 36:0.0 37:0.4736877381801605 38:0.48750001192092896 39:1.0 40:0.0 41:0.526318371295929 42:0.48750001192092896 43:1.0 44:0.0 45:0.578948974609375 46:0.48750001192092896 47:1.0 48:0.0 49:0.631579577922821 50:0.48750001192092896 51:1.0 52:0.0 53:0.6842101812362671 54:0.48750001192092896 55:1.0 56:0.0 57:0.7368408441543579 58:0.48750001192092896 59:1.0 60:0.0 61:0.789471447467804 62:0.48750001192092896 63:1.0 64:0.0 65:0.8421081304550171 66:0.48750001192092896 67:1.0 68:0.0 69:0.8947387933731079 70:0.48750001192092896 71:1.0 72:0.0 73:0.947369396686554 74:0.48750001192092896 75:1.0 76:0.0 77:1.0 78:0.48750001192092896 79:1.0 80:0.0 
0.0 0.0 1.7846807532301547 0.0 4.7072679217283495 0.0 0.0 0.0 0.0 0.0 0.0 0.0 0.0 0.0 0.0 0.0 0.0 0.0 0.0 0.0 4.729137527405539 0.0 0.0 1:0.0 2:0.53125 3:0.0 4:-1.0 5:0.0 6:0.5137061476707458 7:0.8073950409889221 8:-0.5900112986564636 9:0.028509140014648438 10:0.5104166865348816 11:0.9990282654762268 12:-0.044074587523937225 13:0.07456143945455551 14:0.5104166865348816 15:1.0 16:0.0 17:0.13486862182617188 18:0.5104166865348816 19:0.9994716048240662 20:-0.032503411173820496 21:0.2094300538301468 22:0.5060306787490845 23:0.99163818359375 24:-0.12904897332191467 25:0.2949562072753906 26:0.4895833432674408 27:0.9929882884025574 28:-0.11821296066045761 29:0.34758758544921875 30:0.4895833432674408 31:1.0 32:0.0 33:0.4462718963623047 34:0.4895833432674408 35:1.0 36:0.0 37:0.5635960698127747 38:0.4895833432674408 39:1.0 40:0.0 41:0.6425437927246094 42:0.4895833432674408 43:1.0 44:0.0 45:0.6940791010856628 46:0.4895833432674408 47:1.0 48:0.0 49:0.7817980647087097 50:0.4895833432674408 51:1.0 52:0.0 53:0.8695170283317566 54:0.4895833432674408 55:1.0 56:0.0 57:0.9078941345214844 58:0.4895833432674408 59:1.0 60:0.0 61:0.92982417345047 62:0.4895833432674408 63:1.0 64:0.0 65:0.9572365880012512 66:0.4895833432674408 67:1.0 68:0.0 69:0.9857457280158997 70:0.4895833432674408 71:0.9970545172691345 72:-0.07669644802808762 73:1.0 74:0.48629385232925415 75:0.5646806359291077 76:-0.8253094553947449 77:1.0 78:0.46875 79:0.0 80:-1.0 
0.0 0.0 0.0 1.4061324007133467 2.442412746626546 1.3224996300829561 1.0657530669626074 0.6895867828150108 2.711085951412516 1.139473279027676 0.6909528220083984 1.6506504319787285 0.7091937774256297 0.5433158584627121 1.4794085724204074 1.2629542954221222 1.1292850413127202 0.7250903308142169 1.4420715719117476 0.0 3.6245148407311913 1.1635376053713524 5.773290010598702 1:0.0 2:0.44999998807907104 3:1.0 4:0.0 5:0.03157959133386612 6:0.44999998807907104 7:1.0 8:0.0 9:0.06315918266773224 10:0.44999998807907104 11:1.0 12:0.0 13:0.09473876655101776 14:0.44999998807907104 15:1.0 16:0.0 17:0.15263061225414276 18:0.44999998807907104 19:1.0 20:0.0 21:0.215789794921875 22:0.44999998807907104 23:1.0 24:0.0 25:0.27894896268844604 26:0.44999998807907104 27:0.986394464969635 28:0.16439570486545563 29:0.3421081602573395 30:0.4710526168346405 31:0.9230731129646301 32:0.3846243917942047 33:0.40526121854782104 34:0.5026315450668335 35:0.8944222331047058 36:0.44722357392311096 37:0.4684204161167145 38:0.5342105031013489 39:0.9363285899162292 40:0.35112494230270386 41:0.5315765142440796 42:0.550000011920929 43:0.9922777414321899 44:0.12403544783592224 45:0.5947357416152954 46:0.550000011920929 47:1.0 48:0.0 49:0.6578949093818665 50:0.550000011920929 51:1.0 52:0.0 53:0.710528552532196 54:0.550000011920929 55:1.0 56:0.0 57:0.7421051263809204 58:0.550000011920929 59:1.0 60:0.0 61:0.773681640625 62:0.550000011920929 63:0.997054398059845 64:-0.07669709622859955 65:0.8105255365371704 66:0.5447368621826172 67:0.9383465647697449 68:-0.3456960618495941 69:0.8736847043037415 70:0.5131579041481018 71:0.8944264054298401 72:-0.44721508026123047 73:0.936840832233429 74:0.4815789461135864 75:0.8944264054298401 76:-0.44721508026123047 77:1.0 78:0.44999998807907104 79:0.8944307565689087 80:-0.4472064971923828 
0.0 0.0 1.1548325929223768 0.0 0.0 0.0 0.0 0.0 0.0 0.0 0.0 0.0 0.47165792888945757 0.0 1.3215870029871786 0.0 0.0 0.0 0.0 0.0 0.0 0.0 0.0 1:0.0 2:0.47902098298072815 3:0.948682427406311 4:0.3162304162979126 5:0.02870786376297474 6:0.4885903596878052 7:0.9883714914321899 8:0.15205836296081543 9:0.05741572752594948 10:0.4878542423248291 11:0.9873645901679993 12:-0.1584649384021759 13:0.08833280950784683 14:0.47902098298072815 15:0.9950372576713562 16:-0.09950347244739532 17:0.1457485407590866 18:0.47902098298072815 19:1.0 20:0.0 21:0.19138747453689575 22:0.47902098298072815 23:1.0 24:0.0 25:0.23113800585269928 26:0.47902098298072815 27:1.0 28:0.0 29:0.2789844572544098 30:0.47902098298072815 31:1.0 32:0.0 33:0.3334551155567169 34:0.47902098298072815 35:0.9997889399528503 36:0.020543666556477547 37:0.38645583391189575 38:0.481229305267334 39:0.9917779564857483 40:0.1279703676700592 41:0.4247329831123352 42:0.490798681974411 43:0.9917779564857483 44:0.1279703676700592 45:0.47773370146751404 46:0.49300700426101685 47:0.9989685416221619 48:0.04540711268782616 49:0.5380944609642029 50:0.49595141410827637 51:0.9952064156532288 52:0.09779667854309082 53:0.6050778031349182 54:0.5055208206176758 55:0.9997264742851257 56:0.023385854437947273 57:0.6639668941497803 58:0.4988958537578583 59:0.9973010420799255 60:-0.07342082262039185 61:0.7250635027885437 62:0.49668753147125244 63:0.998352587223053 64:0.05737636610865593 65:0.7920502424240112 66:0.5062569379806519 67:0.9974062442779541 68:0.07197730243206024 69:0.8678687214851379 70:0.5069929957389832 71:0.9993757009506226 72:0.03533129766583443 73:0.937798798084259 74:0.5114096403121948 75:0.9944446086883545 76:0.10526162385940552 77:1.0 78:0.5209790468215942 79:0.988371729850769 80:0.15205703675746918 
1.3537934302003203 1.209013760320056 2.5428043677936483 0.0 0.0 0.0 0.0 0.0 0.0 0.0 0.0 0.0 0.0 0.0 0.0 0.0 0.0 0.0 0.0 0.0 0.0 0.0 0.0 1:0.0 2:0.48275861144065857 3:1.0 4:0.0 5:0.0258620698004961 6:0.48275861144065857 7:0.980580747127533 8:0.1961159110069275 9:0.043103449046611786 10:0.4913792908191681 11:0.9899495244026184 12:0.14142118394374847 13:0.08620689809322357 14:0.4913792908191681 15:0.9958931803703308 16:0.0905359536409378 17:0.13793103396892548 18:0.5 19:0.9938836693763733 20:0.11043177545070648 21:0.16379310190677643 22:0.5 23:1.0 24:0.0 25:0.22413793206214905 26:0.5 27:1.0 28:0.0 29:0.2931034564971924 30:0.5 31:1.0 32:0.0 33:0.32758620381355286 34:0.5 35:0.9970544576644897 36:-0.07669667899608612 37:0.4051724076271057 38:0.4913792908191681 39:0.9986178278923035 40:-0.05255894735455513 41:0.4913793206214905 42:0.4913792908191681 43:1.0 44:0.0 45:0.568965494632721 46:0.4913792908191681 47:1.0 48:0.0 49:0.6120689511299133 50:0.4913792908191681 51:0.9977851510047913 52:0.06651914864778519 53:0.6982758641242981 54:0.5 55:0.9986178278923035 56:0.052558936178684235 57:0.7758620977401733 58:0.5 59:0.9974587559700012 60:0.07124698162078857 61:0.818965494632721 62:0.5086206793785095 63:0.9965458512306213 64:0.08304539322853088 65:0.8793103694915771 66:0.5086206793785095 67:0.9974587559700012 68:0.07124694436788559 69:0.9396551847457886 70:0.517241358757019 71:0.9965458512306213 72:0.08304539322853088 73:0.982758641242981 74:0.517241358757019 75:1.0 76:0.0 77:1.0 78:0.517241358757019 79:1.0 80:0.0 
-0.3342814444406134 0.7471990222577259 1.967815358658397 0.0 0.0 0.06327801286379463 1.3443451919078349 0.0 1.5002489775251227 2.767445123409276 0.0 0.18602608040551658 1.2497607842073355 0.5389990285995185 0.0 0.0 0.4370823695467707 0.2554693107054651 0.0 1.3556492956915778 0.0 0.0 0.0 1:0.39534884691238403 2:0.22093021869659424 3:0.0 4:1.0 5:0.39534884691238403 6:0.22383719682693481 7:-0.7071069478988647 8:0.7071065902709961 9:0.36627906560897827 10:0.2499999850988388 11:-0.7203202247619629 12:0.6936416625976562 13:0.31686046719551086 14:0.2994185984134674 15:-0.7452412843704224 16:0.6667948961257935 17:0.25581395626068115 18:0.3488371968269348 19:-0.6663310527801514 20:0.7456560730934143 21:0.19476744532585144 22:0.4360464811325073 23:-0.5836359858512878 24:0.8120154142379761 25:0.12209302186965942 26:0.5348837375640869 27:-0.541874885559082 28:0.8404591679573059 29:0.05232558026909828 30:0.6569767594337463 31:-0.4836861193180084 32:0.8752415180206299 33:0.0 34:0.7558139562606812 35:-0.4678877592086792 36:0.8837878704071045 37:0.6976743936538696 38:0.43023255467414856 39:0.70710688829422 40:-0.7071066498756409 41:0.7906976938247681 42:0.3372092843055725 43:0.800000011920929 44:-0.5999999642372131 45:0.8837209343910217 46:0.2906976640224457 47:0.8682430982589722 48:-0.4961390495300293 49:0.9534883499145508 50:0.24418602883815765 51:0.8574929237365723 52:-0.5144957900047302 53:1.0 54:0.22093021869659424 55:0.8944272994995117 56:0.447213351726532 57:1.0 58:0.26744183897972107 59:-0.44721370935440063 60:0.8944271206855774 61:0.9534883499145508 62:0.3139534890651703 63:-0.6246948838233948 64:0.7808688879013062 65:0.9069767594337463 66:0.38372093439102173 67:-0.5299988985061646 68:0.847998321056366 69:0.8372092843055725 70:0.5 71:-0.5368755459785461 72:0.8436614871025085 73:0.7441860437393188 74:0.6395348906517029 75:-0.5038709044456482 76:0.8637789487838745 77:0.6744186282157898 78:0.7790697813034058 79:-0.44721344113349915 80:0.8944272398948669 
-0.6957760952179061 3.4955759240141524 0.0 2.4565922905100406 0.3471676296331188 4.705434871374066 0.0 0.0 3.112381592243621 3.676863951338994 1.8095309344342625 5.843850109221183 1.8030109014892748 0.0 1.4882878253477878 2.516368338703583 3.0026994987734685 0.0 0.9393963963446206 0.0 0.8172547192956341 1.1427924994497833 17.049177128060517 1:0.0833333432674408 2:0.0 3:0.4856414794921875 4:0.8741580247879028 5:0.1296294629573822 6:0.0833333358168602 7:0.42808640003204346 8:0.9037378430366516 9:0.1666666865348816 10:0.17592592537403107 11:0.38461631536483765 12:0.9230765104293823 13:0.22222232818603516 14:0.3055555820465088 15:0.30600908398628235 16:0.9520285725593567 17:0.25 18:0.43518519401550293 19:0.1065327376127243 20:0.9943092465400696 21:0.25 22:0.5648148059844971 23:0.1065339520573616 24:0.9943090081214905 25:0.2777779996395111 26:0.694444477558136 27:0.3060091733932495 28:0.9520285725593567 29:0.3333333432674408 30:0.8240740895271301 31:0.2095283418893814 32:0.9778025150299072 33:0.3333333432674408 34:0.9537037014961243 35:0.42808642983436584 36:0.9037378430366516 37:0.4166666865348816 38:1.0 39:0.8741573095321655 40:0.4856429100036621 41:0.5 42:0.0833333358168602 43:0.4061371684074402 44:0.9138121008872986 45:0.5370368957519531 46:0.1666666716337204 47:0.4678879380226135 48:0.8837878704071045 49:0.5833333730697632 50:0.24074073135852814 51:0.5547005534172058 52:0.8320500254631042 53:0.6666666269302368 54:0.3611110746860504 55:0.32711029052734375 56:0.9449861645698547 57:0.6666666269302368 58:0.4814814627170563 59:0.46788784861564636 60:0.8837878704071045 61:0.75 62:0.5185185074806213 63:0.4678879678249359 64:0.8837877511978149 65:0.75 66:0.6388888359069824 67:0.46788737177848816 68:0.8837881088256836 69:0.8333332538604736 70:0.6759259104728699 71:0.635707437992096 72:0.7719300985336304 73:0.8796297311782837 74:0.7962962985038757 75:0.3271106481552124 76:0.9449859857559204 77:0.9166666269302368 78:0.9166666865348816 79:0.2940847873687744 80:0.9557793140411377 
-0.0 0.0 0.0 0.7573299465021365 0.0 2.092839017894766 3.5414827535141375 0.7419359496305199 1.1849884912284534 2.0259203637968506 4.403270847412583 2.1372449405823515 1.4100378661721171 3.4182646999529607 0.4313194647893784 2.923250069123449 1.3843443488817033 0.3203685053828012 0.9552187054888024 3.983948851360751 0.0 0.40842933706804674 0.34195753460711065 1:0.3205128312110901 2:0.20512819290161133 3:-0.6121761798858643 4:0.7907214164733887 5:0.25213623046875 6:0.2934472858905792 7:-0.6948143243789673 8:0.7191891670227051 9:0.1581186205148697 10:0.37321937084198 11:-0.7040111422538757 12:0.7101889848709106 13:0.08974359184503555 14:0.4572649598121643 15:-0.5782358050346375 16:0.8158695697784424 17:0.05413035675883293 18:0.5199429988861084 19:-0.5999997854232788 20:0.8000001907348633 21:0.025641025975346565 22:0.5427350997924805 23:-0.517422616481781 24:0.8557299971580505 25:0.017092972993850708 26:0.5811966061592102 27:-0.3861384987831116 28:0.9224408864974976 29:0.0 30:0.6039885878562927 31:-0.30111443996429443 32:0.9535879492759705 33:0.0 34:0.6353276968002319 35:0.0 36:1.0 37:0.0 38:0.6538461446762085 39:0.0 40:1.0 41:1.0 42:0.3717948794364929 43:-1.0 44:0.0 45:0.9145304560661316 46:0.3717948794364929 47:-0.9615233540534973 48:0.2747232913970947 49:0.8803429007530212 50:0.4059829115867615 51:-0.5098053216934204 52:0.8602896928787231 53:0.8461538553237915 54:0.4871794879436493 55:-0.30320820212364197 56:0.9529242515563965 57:0.8205128312110901 58:0.5940171480178833 59:-0.13216371834278107 60:0.9912278652191162 61:0.8205128312110901 62:0.6794871687889099 63:-0.16896384954452515 64:0.985622227191925 65:0.7948718070983887 66:0.7435897588729858 67:-0.26962098479270935 68:0.9629665017127991 69:0.7905993461608887 70:0.7863248586654663 71:-0.38463136553764343 72:0.9230702519416809 73:0.7735032439231873 74:0.7948718070983887 75:-0.983870804309845 76:0.17888037860393524 77:0.7435897588729858 78:0.7948718070983887 79:-1.0 80:0.0 
-0.0 0.0 0.0 0.0 0.0 0.8777746247515735 0.0 0.0 0.0 0.0 0.0 0.0 0.2352810505228222 0.0 0.0 0.048310886514603725 0.0 0.0 0.0 0.0 0.0 0.0 0.0 1:0.22727271914482117 2:0.0 3:0.0 4:1.0 5:0.22727271914482117 6:0.10909091681241989 7:0.0 8:1.0 9:0.22727271914482117 10:0.20000000298023224 11:0.0 12:1.0 13:0.22727271914482117 14:0.2545454502105713 15:0.0 16:1.0 17:0.22727271914482117 18:0.3272727429866791 19:0.0 20:1.0 21:0.22727271914482117 22:0.40909090638160706 23:0.0 24:1.0 25:0.22727271914482117 26:0.4636363685131073 27:-0.11040488630533218 28:0.9938867092132568 29:0.2090953290462494 30:0.572727382183075 31:-0.21692724525928497 32:0.9761877059936523 33:0.1545465588569641 34:0.7909091711044312 35:-0.20602254569530487 36:0.978547215461731 37:0.13636362552642822 38:0.918181836605072 39:-0.08663492649793625 40:0.9962401390075684 41:0.13636362552642822 42:1.0 43:0.0 44:1.0 45:0.8636363744735718 46:0.0 47:0.0 48:1.0 49:0.8636363744735718 50:0.05681818351149559 51:0.0 52:1.0 53:0.8636363744735718 54:0.11363636702299118 55:0.0 56:1.0 57:0.8636363744735718 58:0.17045454680919647 59:0.0 60:1.0 61:0.8636363744735718 62:0.22727273404598236 63:0.0 64:1.0 65:0.8636363744735718 66:0.28977271914482117 67:0.0 68:1.0 69:0.8636363744735718 70:0.375 71:-0.14142146706581116 72:0.9899494647979736 73:0.8295454382896423 74:0.5284090638160706 75:-0.24987809360027313 76:0.9682772755622864 77:0.7727272510528564 78:0.7272727489471436 79:-0.27472108602523804 80:0.9615239500999451 
-1.0118769924531636 2.1663579511286617 3.9491469409087 0.22167364036251652 2.017194458933064 0.0 2.4644649564183796 1.3549166096754095 2.5416363030860083 1.2830360223511352 0.4108333550005065 0.8025591677635399 3.3322081157300976 0.4508221033437102 5.580600970367996 1.950513510935978 0.1743057157993943 2.512386060333104 2.1348020504988203 1.4126120459694025 1.4551728836206113 1.0112429178553102 0.0 1:0.2450120747089386 2:0.0 3:0.0 4:1.0 5:0.2450120747089386 6:0.14684759080410004 7:-0.07179301977157593 8:0.9974194765090942 9:0.2226659208536148 10:0.3104548156261444 11:-0.1226370632648468 12:0.9924516081809998 13:0.20191553235054016 14:0.4956102967262268 15:-0.10016482323408127 16:0.9949708580970764 17:0.18675212562084198 18:0.6671985983848572 19:-0.06619346886873245 20:0.9978068470954895 21:0.18036726117134094 22:0.8204310536384583 23:-0.005832548253238201 24:0.999983012676239 25:0.1851554811000824 26:0.9409412741661072 27:0.13216526806354523 28:0.9912276864051819 29:0.2043100744485855 30:1.0 31:0.7213886976242065 32:0.6925303339958191 33:0.2450120747089386 34:0.9984033703804016 35:0.8568750023841858 36:-0.51552414894104 37:0.30247414112091064 38:0.9409412741661072 39:0.7071065902709961 40:-0.7071069478988647 41:0.733439564704895 42:0.05746206268668175 43:-0.18711160123348236 44:0.9823387265205383 45:0.7079010009765625 46:0.1915399134159088 47:-0.277309775352478 48:0.9607806205749512 49:0.6544293165206909 50:0.33120474219322205 51:-0.28157442808151245 52:0.9595393538475037 53:0.6256982684135437 54:0.47166746854782104 55:-0.08738483488559723 56:0.9961746335029602 57:0.6304864883422852 58:0.604149580001831 59:0.12818731367588043 60:0.9917500019073486 61:0.6560259461402893 62:0.7063043713569641 63:0.3452983498573303 64:0.9384929537773132 65:0.6927376985549927 66:0.7733433246612549 67:0.5980839729309082 68:0.8014333844184875 69:0.7358341217041016 70:0.8132474422454834 71:0.8785446286201477 72:0.477660208940506 73:0.7749403715133667 74:0.8180364966392517 75:0.999818742275238 76:-0.019039757549762726 77:0.8196327686309814 78:0.8116516470909119 79:0.9899488091468811 80:-0.14142616093158722 
-0.0 0.0 0.0 0.0 0.0 0.0 0.0 0.0 0.0 0.0 0.0 0.0 0.0 0.0 0.0 0.0 0.0 0.0 0.01893312088486861 1.2240237864506576 0.12259437726906593 0.0 0.0 1:0.1851806789636612 2:0.3333333432674408 3:0.0 4:-1.0 5:0.1851806789636612 6:0.20370370149612427 7:0.0 8:-1.0 9:0.1851806789636612 10:0.25925925374031067 11:-0.39389896392822266 12:0.9191536903381348 13:0.1296285092830658 14:0.3333333432674408 15:-0.8741573095321655 16:0.4856429398059845 17:0.018514007329940796 18:0.35185185074806213 19:-0.6000118255615234 20:0.7999911904335022 21:0.018514007329940796 22:0.4814814627170563 23:0.0 24:1.0 25:0.018514007329940796 26:0.6111111640930176 27:0.0 28:1.0 29:0.018514007329940796 30:0.7407407760620117 31:0.0 32:1.0 33:0.018514007329940796 34:0.8703703880310059 35:0.0 36:1.0 37:0.018514007329940796 38:1.0 39:0.0 40:1.0 41:0.8518472909927368 42:0.0 43:1.0 44:0.0 45:0.9814859628677368 46:0.0 47:1.0 48:0.0 49:0.9259237051010132 50:0.0 51:-0.9191548824310303 52:0.3938962519168854 53:0.8518472909927368 54:0.05555558204650879 55:-0.3714008033275604 56:0.9284726977348328 57:0.8518472909927368 58:0.18518519401550293 59:0.0 60:1.0 61:0.8518472909927368 62:0.31481480598449707 63:0.0 64:1.0 65:0.8518472909927368 66:0.4444445073604584 67:-0.2747287154197693 68:0.9615217447280884 69:0.77777099609375 70:0.5740740895271301 71:-0.5407575964927673 72:0.8411784172058105 73:0.6851806640625 74:0.7037037014961243 75:-0.3363291621208191 76:0.9417445063591003 77:0.6851806640625 78:0.8333333134651184 79:0.0 80:1.0 
-0.0 0.37718038850892255 0.6249710586172155 0.0 0.0 0.0 0.0 0.0 0.0 0.0 0.0 0.5694885649906127 2.7620319319055087 0.0 0.0 0.38938528557651775 0.0 0.4575439345974385 0.2039287336167223 1.4971382880883348 0.0 0.0 0.0 1:0.341269850730896 2:0.1111111119389534 3:-0.4299336075782776 4:-0.9028604626655579 5:0.28835979104042053 6:0.0 7:-0.9838699102401733 8:-0.17888544499874115 9:0.22486773133277893 10:0.08994708955287933 11:-0.36804842948913574 12:0.9298065900802612 13:0.18783068656921387 14:0.2539682686328888 15:-0.17579065263271332 16:0.9844275712966919 17:0.17195767164230347 18:0.38624337315559387 19:-0.1414213329553604 20:0.9899494647979736 21:0.15079365670681 22:0.5132275223731995 23:-0.1579904407262802 24:0.9874407052993774 25:0.12962964177131653 26:0.6507936716079712 27:-0.1520572006702423 28:0.9883716106414795 29:0.10846561193466187 30:0.7883597612380981 31:-0.07974525541067123 32:0.9968153238296509 33:0.10846561193466187 34:0.9153439402580261 35:0.0 36:1.0 37:0.7010582089424133 38:0.28042328357696533 39:0.316231369972229 40:-0.9486821293830872 41:0.7412703633308411 42:0.1597883403301239 43:0.388056218624115 44:-0.9216357469558716 45:0.8026452660560608 46:0.03915344178676605 47:0.665786862373352 48:-0.7461420297622681 49:0.8640214204788208 50:0.022222205996513367 51:0.31623154878616333 52:0.9486820101737976 53:0.8576724529266357 54:0.20423279702663422 55:-0.04756603017449379 56:0.9988680481910706 57:0.8492063283920288 58:0.3333333432674408 59:-0.0327712707221508 60:0.999462902545929 61:0.8492063283920288 62:0.4624338448047638 63:0.0 64:1.0 65:0.8492063283920288 66:0.6169312596321106 67:0.0 68:1.0 69:0.8492063283920288 70:0.7587301135063171 71:0.08038435131311417 72:0.9967640042304993 73:0.8703703880310059 74:0.879365086555481 75:0.1727995127439499 76:0.9849570393562317 77:0.8915343880653381 78:1.0 79:0.17279931902885437 80:0.9849570989608765 
-0.0 0.0 0.0 3.155434571715622 0.0 9.947225913419508 0.0 1.5661037561167124 0.0 0.0 0.0 1.7243667011098953 1.2605068486824826 3.252370004793553 1.3610278318070437 2.3025154613715664 0.4121058158317666 0.0 0.0 0.0 0.0 0.6661346721699022 0.6806391857351574 1:0.25 2:0.25 3:0.0 4:1.0 5:0.25 6:0.3125 7:0.0 8:1.0 9:0.25 10:0.375 11:0.0 12:1.0 13:0.25 14:0.4375 15:0.0 16:1.0 17:0.25 18:0.5 19:0.0 20:1.0 21:0.25 22:0.625 23:0.0 24:1.0 25:0.25 26:0.75 27:0.0 28:1.0 29:0.25 30:0.875 31:0.0 32:1.0 33:0.25 34:1.0 35:0.0 36:1.0 37:0.75 38:0.0 39:0.0 40:1.0 41:0.75 42:0.07500000298023224 43:0.0 44:1.0 45:0.75 46:0.15000000596046448 47:0.0 48:1.0 49:0.75 50:0.22500000894069672 51:0.0 52:1.0 53:0.75 54:0.30000001192092896 55:0.0 56:1.0 57:0.75 58:0.375 59:0.0 60:1.0 61:0.75 62:0.45000001788139343 63:0.0 64:1.0 65:0.75 66:0.5500000715255737 67:0.0 68:1.0 69:0.75 70:0.7000000476837158 71:0.0 72:1.0 73:0.75 74:0.8500000238418579 75:0.0 76:1.0 77:0.75 78:1.0 79:0.0 80:1.0 
-0.0 0.04076448587947615 0.0 3.298913468478332 0.0 2.0194871905253953 0.16505940555600068 1.7334504662031214 1.478979221699459 0.0 2.73150868416704 3.058955967226708 1.5733237988237219 4.102465959390574 3.030365207242164 0.26101810069874176 2.1437726751161867 1.1079747462262077 1.4496591605162563 3.959507687677723 0.0 3.1095421120216438 0.0 1:0.09090909361839294 2:0.4545454680919647 3:0.5812380909919739 4:-0.8137335181236267 5:0.1818181872367859 6:0.3272727131843567 7:0.6689653992652893 8:-0.7432935833930969 9:0.25454574823379517 10:0.27272728085517883 11:0.5812382102012634 12:-0.8137334585189819 13:0.27272728085517883 14:0.19999998807907104 15:-1.0 16:0.0 17:0.21818126738071442 18:0.27272728085517883 19:-0.4856428802013397 20:0.8741572499275208 21:0.1818181872367859 22:0.3636363744735718 23:-0.16439656913280487 24:0.9863943457603455 25:0.1818181872367859 26:0.49090906977653503 27:0.0 28:1.0 29:0.1818181872367859 30:0.6181818246841431 31:0.0 32:1.0 33:0.1818181872367859 34:0.7454545497894287 35:0.0 36:1.0 37:0.1818181872367859 38:0.8727272152900696 39:-0.3363364338874817 40:0.9417420029640198 41:0.09090909361839294 42:1.0 43:-0.5812380313873291 44:0.8137336373329163 45:0.9090908765792847 46:0.0 47:-0.4472132623195648 48:0.8944273591041565 49:0.8636363744735718 50:0.09090909361839294 51:-0.7071066498756409 52:0.70710688829422 53:0.7272727489471436 54:0.1818181872367859 55:-0.5144957304000854 56:0.8574929237365723 57:0.7272727489471436 58:0.3181818127632141 59:-0.44721370935440063 60:0.8944271206855774 61:0.6363636255264282 62:0.3636363744735718 63:-0.44721370935440063 64:0.8944271206855774 65:0.6363636255264282 66:0.5 67:0.0 68:1.0 69:0.6363636255264282 70:0.6363636255264282 71:0.0 72:1.0 73:0.6363636255264282 74:0.7727272510528564 75:0.0 76:1.0 77:0.6363636255264282 78:0.9090909361839294 79:0.0 80:1.0 
-0.6976007601640991 0.0 1.1573244289388376 1.346790015697081 0.11577843269429554 0.0 0.0 0.5240339589306966 0.0 0.0 1.0577981115787451 0.0 0.0 0.0 0.0 0.0 0.0 0.0 0.0 0.0 0.0 0.645391870340933 0.9026364647841725 1:0.0 2:0.11968681216239929 3:0.8192316889762878 4:0.5734626054763794 5:0.008948545902967453 6:0.12595079839229584 7:0.8192320466041565 8:0.5734621286392212 9:0.017897091805934906 10:0.1322147697210312 11:0.6431877017021179 12:0.7657086253166199 13:0.027740273624658585 14:0.14832216501235962 15:0.41750258207321167 16:0.9086756706237793 17:0.07874763756990433 18:0.2646532654762268 19:0.39958614110946655 20:0.9166957139968872 21:0.1342281848192215 22:0.39261746406555176 23:0.3902346193790436 24:0.9207154512405396 25:0.19328837096691132 26:0.5348994731903076 27:0.35350632667541504 28:0.9354321956634521 29:0.2505592703819275 30:0.7004474401473999 31:0.16439996659755707 32:0.9863938093185425 33:0.23266218602657318 34:0.7711409330368042 35:-0.22849012911319733 36:0.9735462069511414 37:0.22997719049453735 38:0.7881431579589844 39:0.5256963968276978 40:-0.8506723046302795 41:0.33109620213508606 42:0.6118568181991577 43:0.4975625276565552 44:-0.8674281239509583 45:0.7964205741882324 46:0.1375839114189148 47:0.28734859824180603 48:0.9578260779380798 49:0.8031319975852966 50:0.15995526313781738 51:0.3511233925819397 52:0.9363291263580322 53:0.8232662081718445 54:0.20917227864265442 55:0.3603992164134979 56:0.9327981472015381 57:0.8791946172714233 58:0.35682326555252075 59:0.40613847970962524 60:0.9138115048408508 61:0.9664429426193237 62:0.5313199162483215 63:0.376190185546875 64:0.9265424609184265 65:1.0 66:0.6543624401092529 67:0.14479918777942657 68:0.9894610047340393 69:0.9932885766029358 70:0.7147650718688965 71:-0.031898725777864456 72:0.9994911551475525 73:0.9932885766029358 74:0.8646532297134399 75:0.0 76:1.0 77:0.9932885766029358 78:0.8803131580352783 79:0.0 80:1.0 
-0.7857318809809671 4.264358030964165 0.7139390640925564 0.0 1.3326125677087812 0.0 0.0 0.08444708541481442 2.0220063376597794 0.5081253752324828 0.8551215866351675 0.0 0.016782832038390174 0.0 1.2674241248814184 0.0 0.0 1.1316350275103308 0.0 2.2077202224603925 1.2590923518496033 0.8603518375278454 1.330614463989036 1:0.2198721170425415 2:0.03205128386616707 3:-0.512669026851654 4:0.858586311340332 5:0.16666823625564575 6:0.12115384638309479 7:-0.5046291351318359 8:0.8633363246917725 9:0.11346122622489929 10:0.2141025811433792 11:-0.23814278841018677 12:0.971230149269104 13:0.1339752972126007 14:0.25448715686798096 15:0.3254257142543793 16:0.9455676078796387 17:0.18141058087348938 18:0.4115384519100189 19:0.12746383249759674 20:0.9918432235717773 21:0.17500030994415283 22:0.5737179517745972 23:-0.02229388803243637 24:0.9997514486312866 25:0.17372013628482819 26:0.7564102411270142 27:0.21661022305488586 28:0.9762581586837769 29:0.22051376104354858 30:0.7788462042808533 31:0.9897580146789551 32:-0.14275500178337097 33:0.30705222487449646 34:0.7371794581413269 35:0.8443890810012817 36:-0.5357304215431213 37:0.3730766177177429 38:0.6820513010025024 39:0.5976628661155701 40:-0.8017475008964539 41:0.4121797978878021 42:0.5961538553237915 43:0.4143199920654297 44:-0.9101313352584839 45:0.7262823581695557 46:0.0 47:-0.22763019800186157 48:0.9737476110458374 49:0.7118592262268066 50:0.06169871613383293 51:-0.3724097013473511 52:0.9280683994293213 53:0.6253207921981812 54:0.25160256028175354 55:-0.3469310700893402 56:0.9378906488418579 57:0.6173080205917358 58:0.3173076808452606 59:0.44111862778663635 60:0.8974487781524658 61:0.671795129776001 62:0.3461538553237915 63:0.7097110748291016 64:0.7044929265975952 65:0.7262823581695557 66:0.42548078298568726 67:0.5734624862670898 68:0.8192318081855774 69:0.8176285028457642 70:0.5544871687889099 71:0.3536449074745178 72:0.9353797435760498 73:0.861699104309082 74:0.7836538553237915 75:0.15285848081111908 76:0.9882480502128601 77:0.8865387439727783 78:1.0 79:0.11406498402357101 80:0.9934732913970947 
-0.0 0.0 0.0 0.0 0.0 4.379552393553721 0.0 0.0 0.0 0.0 0.34268207316406135 0.0 0.0 0.003398480455488612 0.9680060828744382 1.5681205373514255 0.0 0.0 0.0 0.27028767110067 0.0 0.0 0.0 1:0.4000000059604645 2:0.10000000149011612 3:0.0 4:1.0 5:0.4000000059604645 6:0.20000000298023224 7:0.0 8:1.0 9:0.4000000059604645 10:0.30000001192092896 11:0.0 12:1.0 13:0.4000000059604645 14:0.4000000059604645 15:0.0 16:1.0 17:0.4000000059604645 18:0.5 19:-0.7071067690849304 20:0.7071067690849304 21:0.30000001192092896 22:0.5 23:-0.4472135901451111 24:0.8944271802902222 25:0.30000001192092896 26:0.699999988079071 27:0.0 28:1.0 29:0.30000001192092896 30:0.800000011920929 31:0.0 32:1.0 33:0.30000001192092896 34:0.8999999761581421 35:0.7071068286895752 36:0.7071066498756409 37:0.4000000059604645 38:0.8999999761581421 39:0.7071067094802856 40:0.70710688829422 41:0.4000000059604645 42:1.0 43:0.0 44:1.0 45:0.7000000476837158 46:0.0 47:0.0 48:1.0 49:0.7000000476837158 50:0.10000000149011612 51:0.0 52:1.0 53:0.7000000476837158 54:0.20000000298023224 55:0.0 56:1.0 57:0.7000000476837158 58:0.30000001192092896 59:0.0 60:1.0 61:0.7000000476837158 62:0.4000000059604645 63:0.0 64:1.0 65:0.7000000476837158 66:0.5 67:0.0 68:1.0 69:0.7000000476837158 70:0.6000000238418579 71:0.0 72:1.0 73:0.7000000476837158 74:0.699999988079071 75:0.0 76:1.0 77:0.7000000476837158 78:0.800000011920929 79:0.0 80:1.0 
-0.0 0.0 0.0 0.0 0.0 0.0 0.0 0.0 0.0 0.0 0.0 0.0 0.0 0.0 0.0 0.0 0.0 0.0 0.0 0.0 0.0 0.0 0.11839243971606356 1:0.0833333432674408 2:0.0 3:0.0 4:1.0 5:0.0833333432674408 6:0.06666667014360428 7:0.0 8:1.0 9:0.0833333432674408 10:0.13333334028720856 11:0.0 12:1.0 13:0.0833333432674408 14:0.23333334922790527 15:0.0 16:1.0 17:0.0833333432674408 18:0.36666667461395264 19:0.0 20:1.0 21:0.0833333432674408 22:0.5 23:0.0 24:1.0 25:0.0833333432674408 26:0.5666666626930237 27:0.0 28:1.0 29:0.0833333432674408 30:0.6333333253860474 31:0.0 32:1.0 33:0.0833333432674408 34:0.7333333492279053 35:0.0 36:1.0 37:0.0833333432674408 38:0.8666667342185974 39:0.0 40:1.0 41:0.0833333432674408 42:1.0 43:0.0 44:1.0 45:0.9166666269302368 46:0.0 47:0.0 48:1.0 49:0.9166666269302368 50:0.0625 51:0.0 52:1.0 53:0.9166666269302368 54:0.125 55:0.0 56:1.0 57:0.9166666269302368 58:0.2291666716337204 59:0.0 60:1.0 61:0.9166666269302368 62:0.4166666567325592 63:0.0 64:1.0 65:0.9166666269302368 66:0.6041666865348816 67:0.0 68:1.0 69:0.9166666269302368 70:0.75 71:0.0 72:1.0 73:0.9166666269302368 74:0.875 75:0.0 76:1.0 77:0.9166666269302368 78:1.0 79:0.0 80:1.0 
-0.0 0.0 0.0 0.0 0.0 0.0 0.0 0.7498813293558413 0.6062219743596414 0.0 1.5630553217451901 1.0328027127779387 0.0 0.0 1.4582671092261694 0.0 0.0 0.49089478286826466 0.0 0.0 0.0 0.0 0.0 1:0.21268656849861145 2:0.19402985274791718 3:0.688750147819519 4:-0.7249988913536072 5:0.24419574439525604 6:0.16086235642433167 7:0.9849571585655212 8:0.17279833555221558 9:0.25995054841041565 10:0.20232172310352325 11:0.14876815676689148 12:0.9888721108436584 13:0.2723880708217621 14:0.3482586741447449 15:-0.04422811418771744 16:0.9990214705467224 17:0.24585416913032532 18:0.5207297205924988 19:-0.12604548037052155 20:0.9920244216918945 21:0.2276119440793991 22:0.7006633281707764 23:-0.03314538300037384 24:0.9994505643844604 25:0.23507462441921234 26:0.8457711338996887 27:0.10212479531764984 28:0.9947715997695923 29:0.25 30:0.9187396764755249 31:0.33992668986320496 32:0.9404518604278564 33:0.28482648730278015 34:0.9834161996841431 35:0.6289471387863159 36:0.7774480581283569 37:0.30970150232315063 38:0.9925373196601868 39:0.9388729333877563 40:0.3442640006542206 41:0.7873134613037109 42:0.11194030195474625 43:-0.2100205421447754 44:-0.97769695520401 45:0.7632673978805542 46:0.0 47:-0.2920338809490204 48:-0.9564079642295837 49:0.7541458606719971 50:0.0033167493529617786 51:-0.6199570298194885 52:0.7846358418464661 53:0.7101995944976807 54:0.06716416776180267 55:-0.3977162539958954 56:0.9175084233283997 57:0.6703983545303345 58:0.19651740789413452 59:-0.20260854065418243 60:0.9792598485946655 61:0.6504971981048584 62:0.3557214140892029 63:-0.11187537014484406 64:0.9937222599983215 65:0.6281100511550903 66:0.5721392035484314 67:-0.04796122387051582 68:0.9988491535186768 69:0.6314259767532349 70:0.7529021501541138 71:0.1290302276611328 72:0.9916406273841858 73:0.6728852987289429 74:0.9162520170211792 75:0.2317684143781662 76:0.9727709293365479 77:0.6902984976768494 78:1.0 79:0.20356996357440948 80:0.9790604114532471 
-2.2358381789437813 3.2364495171501617 2.4588701038283003 0.8478164460447135 1.6921606509129443 0.0 1.4524983396252344 0.09114901551903959 2.2816860136886614 1.319656546691125 0.9980543267146008 1.0538398188840148 0.713568634299528 0.0 2.137569596930027 0.0 1.4651145158159378 1.9920977038252767 0.366232863339156 1.2074114598728112 1.8777243503643515 1.8937400558745816 0.8418458930972686 1:0.18421050906181335 2:0.42105263471603394 3:0.23635172843933105 4:-0.9716675281524658 5:0.21052631735801697 6:0.3128654956817627 7:0.2707456350326538 8:-0.9626509547233582 9:0.2368420958518982 10:0.23391814529895782 11:0.2918066680431366 12:-0.9564773440361023 13:0.2631579041481018 14:0.14035086333751678 15:0.5692101716995239 16:-0.8221920132637024 17:0.2631579041481018 18:0.19590644538402557 19:0.0 20:1.0 21:0.2631579041481018 22:0.3040935695171356 23:-0.12933143973350525 24:0.9916013479232788 25:0.22807231545448303 26:0.4649123251438141 27:-0.21517951786518097 28:0.9765745401382446 29:0.1871337741613388 30:0.6491228342056274 31:-0.21370317041873932 32:0.9768986701965332 33:0.14619845151901245 34:0.8391813039779663 35:-0.22722774744033813 36:0.9738416075706482 37:0.10526314377784729 38:1.0 39:-0.2466772347688675 40:0.9690976738929749 41:0.736842155456543 42:0.2631579041481018 43:0.2940939664840698 44:-0.9557765126228333 45:0.7719309329986572 46:0.14912281930446625 47:0.44720959663391113 48:-0.8944292664527893 49:0.8333323001861572 50:0.07017544656991959 51:0.6357039213180542 52:-0.7719329595565796 53:0.8947368860244751 54:0.0 55:1.0 56:-3.6400768976818654E-7 57:0.8947368860244751 58:0.0701754242181778 59:-0.10469778627157211 60:0.9945041537284851 61:0.8771908283233643 62:0.16666662693023682 63:0.0 64:1.0 65:0.8947368860244751 66:0.31578946113586426 67:-0.026300156489014626 68:0.9996541142463684 69:0.8684210777282715 70:0.49999991059303284 71:-0.18710929155349731 72:0.982339084148407 73:0.8245625495910645 74:0.684210479259491 75:-0.20952916145324707 76:0.9778023958206177 77:0.7894736528396606 78:0.8684210777282715 79:-0.18711808323860168 80:0.9823374152183533 
-0.569189596346366 -0.4291783151073746 4.602666396943708 2.5721828849815007 2.515411200221174 1.051526387238291 0.16762872711072022 2.4469832590611356 4.625484987331366 0.8548482692139631 2.4604890818257603 1.6185691612448994 0.43327983145332516 1.016490567475864 4.518008063691152 0.0 0.4248022371590456 2.204832665330399 0.6238370241637324 0.6956940426589803 0.3073575379202273 5.4227406179762125 1.2248573997197336 1:0.0928383469581604 2:0.4031830430030823 3:-0.6247001886367798 4:-0.7808647155761719 5:0.07161790132522583 6:0.3766578435897827 7:0.31622323393821716 8:-0.9486847519874573 9:0.10875321924686432 10:0.35543766617774963 11:0.9814905524253845 12:-0.19151043891906738 13:0.1803712546825409 14:0.35543766617774963 15:1.0 16:0.0 17:0.2758619785308838 18:0.35543766617774963 19:0.9987769722938538 20:-0.049444373697042465 21:0.44827592372894287 22:0.34217506647109985 23:0.9943889379501343 24:-0.10578599572181702 25:0.6498677730560303 26:0.3156498372554779 27:0.994278073310852 28:-0.10682312399148941 29:0.7692311406135559 30:0.3076923191547394 31:0.9913318753242493 32:-0.13138160109519958 33:0.8700262904167175 34:0.2864721417427063 35:0.9889363050460815 36:-0.1483406275510788 37:0.9283820986747742 38:0.28381964564323425 39:0.9989685416221619 40:-0.04540696740150452 41:0.42705583572387695 42:0.02122015692293644 43:0.0 44:-1.0 45:0.42705583572387695 46:0.0 47:0.0 48:1.0 49:0.42705583572387695 50:0.03183024376630783 51:-0.0787011906504631 52:0.9968982338905334 53:0.4190984070301056 54:0.10079576820135117 55:-0.1351131647825241 56:0.99083012342453 57:0.4031831622123718 58:0.20689657330513 59:-0.10933972150087357 60:0.994004487991333 61:0.3899208903312683 62:0.36604779958724976 63:-0.07735371589660645 64:0.9970037341117859 65:0.3793104887008667 66:0.5145888924598694 67:-0.032242268323898315 68:0.9994800686836243 69:0.3793104887008667 70:0.6949602961540222 71:0.05705054849386215 72:0.9983712434768677 73:0.40053093433380127 74:0.885941743850708 75:0.15463894605636597 76:0.9879710078239441 77:0.42705583572387695 78:1.0 79:0.22651126980781555 80:0.9740085005760193 
-0.5904703496859758 -0.0 0.0 0.5463392606661752 0.0 1.2695728462900902 1.9940082740470455 0.3408283282442747 0.0 0.0 1.6721281209152858 0.7953874010019558 0.0 0.0 0.0 0.0 0.49506953532620535 0.11394204963273544 0.0 1.2145464135880877 0.0 1.552125321860584 0.18339305767516773 1:0.5874587297439575 2:0.0 3:0.0525466725230217 4:0.998618483543396 5:0.5900983810424805 6:0.05016501620411873 7:-0.056444212794303894 8:0.9984058141708374 9:0.5788759589195251 10:0.15181517601013184 11:-0.08351930975914001 12:0.9965061545372009 13:0.5709571242332458 14:0.27854788303375244 15:-0.019793279469013214 16:0.9998040199279785 17:0.573596715927124 18:0.41848185658454895 19:0.04459835961461067 20:0.9990049600601196 21:0.5841584205627441 22:0.5742574334144592 23:0.1034458726644516 24:0.9946351051330566 25:0.6079214215278625 26:0.7485148906707764 27:0.12245222926139832 28:0.9924744367599487 29:0.621783435344696 30:0.8792079091072083 31:0.07788772881031036 32:0.9969621896743774 33:0.624423086643219 34:0.9597360491752625 35:-0.011439104564487934 36:0.9999346137046814 37:0.6204620003700256 38:0.9947194457054138 39:-0.09790535271167755 40:0.9951958060264587 41:0.6204620003700256 42:1.0 43:0.0 44:1.0 45:0.056105613708496094 46:0.5610560774803162 47:0.8221924901008606 48:-0.5692095160484314 49:0.09364686906337738 50:0.5350660085678101 51:0.9439013004302979 52:-0.3302277624607086 53:0.3391089141368866 54:0.46204620599746704 55:0.9688026905059814 56:-0.2478332817554474 57:0.5903465151786804 58:0.4080033004283905 59:0.9860417246818542 60:-0.16649863123893738 61:0.778877854347229 62:0.3877887725830078 63:0.9974241852760315 64:-0.07172790914773941 65:0.8943894505500793 66:0.3861386179924011 67:0.9998875260353088 68:-0.01499821525067091 69:0.9438943862915039 70:0.3853135406970978 71:0.9977478384971619 72:-0.06707566231489182 73:0.9434818625450134 74:0.38283827900886536 75:-0.799996554851532 76:-0.6000046730041504 77:0.9405940771102905 78:0.38283827900886536 79:-1.0 80:0.0 
-0.0 -0.01921282554175263 0.5561379230427876 0.0 0.0 0.0 0.19272928477928833 0.0 7.215924887433344 3.512199430529697 0.0 0.0 0.8238880774388899 0.0 0.0 2.9044656419747144 0.3967921967863794 0.0 0.0 0.0 0.0 0.0 0.9548738349216389 1:0.59375 2:0.0 3:-0.6643751263618469 4:0.7473992109298706 5:0.5381927490234375 6:0.0625 7:-0.3387194871902466 8:0.9408873915672302 9:0.53125 10:0.1736111044883728 11:-0.030281739309430122 12:0.9995414018630981 13:0.53125 14:0.2916666567325592 15:0.0 16:1.0 17:0.53125 18:0.4097222089767456 19:-0.2558925449848175 20:0.9667052626609802 21:0.46875 22:0.5277777910232544 23:-0.33282235264778137 24:0.9429894685745239 25:0.44791603088378906 26:0.6458333134651184 27:-0.25589263439178467 28:0.9667052030563354 29:0.40625 30:0.7638888359069824 31:-0.17378276586532593 32:0.9847840070724487 33:0.40625 34:0.8819444179534912 35:0.0 36:1.0 37:0.40625 38:1.0 39:0.0 40:1.0 41:0.03125 42:0.625 43:1.0 44:0.0 45:0.15625 46:0.625 47:1.0 48:0.0 49:0.28125 50:0.625 51:0.9701425433158875 52:-0.24253563582897186 53:0.40625 54:0.5625 55:0.9805806875228882 56:-0.1961161345243454 57:0.59375 58:0.5625 59:1.0 60:0.0 61:0.71875 62:0.5625 63:1.0 64:0.0 65:0.84375 66:0.5625 67:0.9486832618713379 68:0.3162277638912201 69:0.90625 70:0.625 71:1.0 72:0.0 73:0.96875 74:0.5625 75:0.7071067690849304 76:-0.7071067690849304 77:0.96875 78:0.5625 79:0.0 80:0.0 
-0.0 -1.700856147453138 0.015195364615176754 2.2249806705220556 0.542187355213592 2.080161415289946 1.8979579756471754 3.391654540967386 0.299150059944211 0.915937539990473 3.4100093966996763 2.176492881248177 2.7216834906783016 2.187046148593051 1.1813447683986893 1.3934292403525366 2.111905089224002 3.1172147680947333 1.1370248053624576 4.775111749130206 0.0 4.069701338876434 0.3295231449591583 1:0.18541768193244934 2:0.5166666507720947 3:-0.9926291704177856 4:-0.12119160592556 5:0.04208272695541382 6:0.49916666746139526 7:-0.9203308820724487 8:-0.3911406993865967 9:0.05208435654640198 10:0.4599999785423279 11:0.9158364534378052 12:-0.40155160427093506 13:0.15041810274124146 14:0.4516666531562805 15:0.9978743195533752 16:0.0651673823595047 17:0.4604176878929138 18:0.4866666793823242 19:0.9861313700675964 20:0.16596676409244537 21:0.6604176759719849 22:0.5375000238418579 23:0.9624231457710266 24:0.27155399322509766 25:0.8620859980583191 26:0.6000000238418579 27:0.9638801217079163 28:0.2663361430168152 29:0.913750171661377 30:0.6075000166893005 31:0.9954089522361755 32:0.09571319073438644 33:0.9487518668174744 34:0.6083333492279053 35:0.9992887377738953 36:-0.037709951400756836 37:0.9579172730445862 38:0.6058332920074463 39:-0.8376159071922302 40:-0.5462597608566284 41:0.9104176759719849 42:0.5833333134651184 43:-0.9037365317344666 44:-0.4280889630317688 45:0.7437509894371033 46:0.0 47:-0.37478911876678467 48:0.9271101355552673 49:0.7041676640510559 50:0.09791667014360428 51:-0.22762933373451233 52:0.9737477898597717 53:0.6687510013580322 54:0.32083332538604736 55:-0.15027391910552979 56:0.9886443614959717 57:0.6250010132789612 58:0.6187499761581421 59:-0.1829078495502472 60:0.9831300973892212 61:0.5687510371208191 62:0.8583333492279053 63:-0.19472888112068176 64:0.9808571338653564 65:0.5687510371208191 66:0.9020833373069763 67:0.0 68:1.0 69:0.5687510371208191 70:0.9666666388511658 71:0.0 72:1.0 73:0.5687510371208191 74:0.9854166507720947 75:0.0 76:1.0 77:0.5687510371208191 78:1.0 79:0.0 80:1.0 
-0.0 -1.9056721246739663 1.039249859449647 0.0 0.8542209682332392 0.0 0.0 0.0 4.151055484431286 0.0 0.0 0.5275035690619874 0.0 0.0 0.0 0.0 0.0 1.7225096707428076 0.0 0.5981401830299061 0.0 0.0 0.0 1:0.45945945382118225 2:0.024324340745806694 3:0.9578262567520142 4:-0.2873478829860687 5:0.5135135054588318 6:0.008108125999569893 7:0.7071284651756287 8:-0.7070850729942322 9:0.48108240962028503 10:0.0027027130126953125 11:-0.6401844620704651 12:0.7682213187217712 13:0.45945945382118225 14:0.07297298312187195 15:-0.07975012063980103 16:0.9968147873878479 17:0.45945945382118225 18:0.2729729413986206 19:0.0 20:1.0 21:0.45945945382118225 22:0.45675674080848694 23:0.0 24:1.0 25:0.45945945382118225 26:0.6405404806137085 27:0.0 28:1.0 29:0.45945945382118225 30:0.7918918132781982 31:0.0 32:1.0 33:0.45945945382118225 34:0.9324323534965515 35:0.18115778267383575 36:0.9834539890289307 37:0.4972963035106659 38:0.9972972869873047 39:0.0 40:-1.0 41:0.45945945382118225 42:0.8891891837120056 43:-0.33034273982048035 44:-0.9438610672950745 45:0.027027027681469917 46:0.5108107924461365 47:-0.8944272994995117 48:-0.44721338152885437 49:0.0 50:0.4972972869873047 51:0.8320503234863281 52:-0.5547001361846924 53:0.10810811072587967 54:0.45675674080848694 55:0.9877628684043884 56:-0.15596258640289307 57:0.2567567527294159 58:0.45675674080848694 59:1.0 60:0.0 61:0.45945945382118225 62:0.45675674080848694 63:1.0 64:0.0 65:0.6486486196517944 66:0.45675674080848694 67:1.0 68:0.0 69:0.7837837934494019 70:0.45675674080848694 71:1.0 72:0.0 73:0.9189189076423645 74:0.45675674080848694 75:1.0 76:0.0 77:1.0 78:0.45675674080848694 79:1.0 80:0.0 
-1.0433180607920889 -0.08959440657125431 0.9949086501814315 0.2863077964869754 1.468549434097533 0.0 2.0965505098989925 0.8266842305612673 0.8720278388597206 0.0 0.9693480264177872 1.0593426194948259 0.0 0.5704453466247855 1.4876465984020384 0.0 0.10214276369819963 2.0338339545475037 0.14116846463942853 0.45536137725725145 0.9983164148611781 1.0576329241241471 0.0 1:0.5411471128463745 2:0.06733167916536331 3:-0.3713896870613098 4:-0.9284769892692566 5:0.5336658358573914 6:0.04862843081355095 7:-0.15596213936805725 8:-0.987762987613678 9:0.5336658358573914 10:0.019950125366449356 11:0.07669690251350403 12:-0.9970545172691345 13:0.5374065041542053 14:0.0 15:0.6507919430732727 16:-0.7592560648918152 17:0.5486284494400024 18:0.0024937705602496862 19:0.07239020615816116 20:0.9973763823509216 21:0.5486284494400024 22:0.15461349487304688 23:0.07369076460599899 24:0.9972811341285706 25:0.5860349535942078 26:0.5087282061576843 27:0.009399866685271263 28:0.9999557733535767 29:0.5548640489578247 30:0.8179552555084229 31:-0.08213913440704346 32:0.9966208934783936 33:0.5486284494400024 34:0.9625934958457947 35:-0.03595481067895889 36:0.9993534684181213 37:0.5486284494400024 38:0.9912719130516052 39:-0.19611704349517822 40:0.9805805683135986 41:0.5411471128463745 42:1.0 43:-0.675709068775177 44:-0.7371684312820435 45:0.5349133014678955 46:0.9763092994689941 47:0.2918071448802948 48:-0.956477165222168 49:0.5860349535942078 50:0.8528679013252258 51:0.3826230764389038 52:-0.9239045977592468 53:0.1970074474811554 54:0.47880303859710693 55:-0.9701424837112427 56:-0.24253568053245544 57:0.07730668783187866 58:0.44887784123420715 59:0.9954954385757446 60:-0.09480921179056168 61:0.35411468148231506 62:0.46384042501449585 63:0.9954954981803894 64:-0.09480912238359451 65:0.7057356834411621 66:0.3890274465084076 67:0.9685830473899841 68:-0.24869021773338318 69:0.9077306985855103 70:0.3216957747936249 71:0.9535826444625854 72:-0.3011312782764435 73:0.9189527034759521 74:0.3216957747936249 75:0.4472143054008484 76:-0.8944268226623535 77:0.9226933121681213 78:0.2917706072330475 79:0.12403351813554764 80:-0.9922780394554138 
-0.0 -0.0 1.991752813078366 0.0 0.043423453753350806 0.0 0.7153673076552433 0.0 0.0 0.0 0.19714723248170696 0.0 0.0 0.0 0.0 0.0 0.0 0.0 0.0 0.0 0.0 0.0 0.0 1:0.4049456715583801 2:0.0 3:0.07124970108270645 4:0.9974585175514221 5:0.4075148105621338 6:0.035966601222753525 7:0.03817981854081154 8:0.9992709159851074 9:0.4123319983482361 10:0.19332049787044525 11:0.01228758879005909 12:0.9999244809150696 13:0.4116899073123932 14:0.3757225573062897 15:0.022434448823332787 16:0.9997482895851135 17:0.42035970091819763 18:0.5510597229003906 19:0.06991913169622421 20:0.9975526928901672 21:0.43577373027801514 22:0.7193320989608765 23:0.08154789358377457 24:0.9966694116592407 25:0.44637197256088257 26:0.8689788579940796 27:0.05019623041152954 28:0.9987394213676453 29:0.44829827547073364 30:0.968529224395752 31:0.012251090258359909 32:0.9999249577522278 33:0.4479772448539734 34:1.0 35:-0.09145177155733109 36:0.9958094954490662 37:0.4454081058502197 38:1.0 39:-1.0 40:0.0 41:0.07546591758728027 42:0.6098265647888184 43:0.9486843347549438 44:-0.3162246644496918 45:0.1062946692109108 46:0.5995504260063171 47:0.9447916150093079 48:-0.3276718258857727 49:0.18657740950584412 50:0.5712909698486328 51:0.9653218984603882 52:-0.26106253266334534 53:0.3105331063270569 54:0.5443159937858582 55:0.989014208316803 56:-0.1478205770254135 57:0.48522844910621643 58:0.5266538262367249 59:0.9975319504737854 60:-0.07021472603082657 61:0.7074500322341919 62:0.5163776278495789 63:0.9991814494132996 64:-0.040452759712934494 65:0.881824254989624 66:0.510597288608551 67:0.9993609189987183 68:-0.035744559019804 69:0.9229288101196289 70:0.5086705088615417 71:0.9986177682876587 72:-0.052559856325387955 73:0.9245340824127197 74:0.5083493590354919 75:-0.7739399075508118 76:-0.6332591772079468 77:0.9193965792655945 78:0.5057803392410278 79:-0.8944084644317627 80:-0.44725093245506287 
-1.7897815538759125 -2.516521688082735 0.28399042340211733 0.0 0.0 0.42815805633236137 0.6203237944404122 0.0 2.0369774591986864 1.7185447364156268 0.5065639999527157 2.323932257881071 0.10212614374399101 0.0 1.0519123092993115 0.3946838668211808 0.40562199743384775 0.0 0.0 0.37530660011793376 1.9998877219562996 0.04539530836348573 1.1382748923050803 1:0.5758426785469055 2:0.1488763988018036 3:-0.13819599151611328 4:0.9904049038887024 5:0.567415714263916 6:0.2092696577310562 7:-0.05546984076499939 8:0.9984603524208069 9:0.5660112500190735 10:0.3258426785469055 11:-0.04920140653848648 12:0.9987888336181641 13:0.5533707737922668 14:0.49438202381134033 15:-0.05086010694503784 16:0.9987058043479919 17:0.550561785697937 18:0.6292134523391724 19:-0.049390073865652084 20:0.9987796545028687 21:0.540730357170105 22:0.75 23:-0.1296650469303131 24:0.9915578365325928 25:0.5266854166984558 26:0.8117977380752563 27:-0.2940857708454132 28:0.9557790160179138 29:0.5126404762268066 30:0.841292142868042 31:-0.47222191095352173 32:0.8814796805381775 33:0.5056179761886597 34:0.851123571395874 35:0.9333449006080627 36:-0.3589809238910675 37:0.5308988690376282 38:0.834269642829895 39:0.8320503234863281 40:-0.5547001957893372 41:0.0 42:0.5014044642448425 43:0.9938836097717285 44:0.11043266206979752 45:0.05056179687380791 46:0.507022500038147 47:0.9984603524208069 48:0.0554703027009964 49:0.20224718749523163 50:0.5126404762268066 51:0.998792827129364 52:0.0491209477186203 53:0.3932584226131439 54:0.523876428604126 55:0.9995269179344177 56:0.030754538252949715 57:0.658707857131958 58:0.526685357093811 59:0.9999949932098389 60:0.0031746537424623966 61:0.8356741666793823 62:0.5252809524536133 63:0.9999589920043945 64:-0.009049207903444767 65:0.9691011309623718 66:0.523876428604126 67:0.9999634623527527 68:-0.008546875789761543 69:1.0 70:0.523876428604126 71:0.9980524778366089 72:0.06237960234284401 73:0.9915730357170105 74:0.5252809524536133 75:-0.986393928527832 76:0.16439899802207947 77:0.966292142868042 78:0.5294944047927856 79:-0.9863941073417664 80:0.16439785063266754 
-0.0 -0.0 0.0 0.0 0.0 0.0 0.3735587525877825 0.0 9.828597021139295 5.6587062238559485 0.0 0.03559054804160057 3.32483259705344 1.1029185053856356 2.4161747736305372 1.8610813488145046 1.806250308037215 0.0 0.4857793185592966 0.44190467422492213 0.0 0.0 0.0 1:0.5777778029441833 2:0.0 3:-0.3162333071231842 4:0.9486814141273499 5:0.5622219443321228 6:0.04666666314005852 7:-0.23463979363441467 8:0.9720824956893921 9:0.5466668009757996 10:0.12888887524604797 11:-0.17784182727336884 12:0.9840590357780457 13:0.5288886427879333 14:0.23111110925674438 15:-0.2849717140197754 16:0.9585359692573547 17:0.49777764081954956 18:0.2933333218097687 19:-0.3905485272407532 20:0.9205824136734009 21:0.46666666865348816 22:0.3777777850627899 23:-0.3615269362926483 24:0.9323616623878479 25:0.4133334755897522 26:0.5111110210418701 27:-0.4045945703983307 28:0.914496123790741 29:0.30444473028182983 30:0.7444444298744202 31:-0.4128885865211487 32:0.9107815027236938 33:0.26222196221351624 34:0.8444444537162781 35:-0.3813328146934509 36:0.9244377613067627 37:0.23111097514629364 38:0.9222221970558167 39:-0.37138932943344116 40:0.9284771680831909 41:0.20000000298023224 42:1.0 43:-0.37138915061950684 44:0.9284772872924805 45:0.0 46:0.4888888895511627 47:1.0 48:0.0 49:0.02777777798473835 50:0.4888888895511627 51:1.0 52:0.0 53:0.07777778059244156 54:0.4888888895511627 55:1.0 56:0.0 57:0.16111111640930176 58:0.4888888895511627 59:1.0 60:0.0 61:0.25555557012557983 62:0.4888888895511627 63:1.0 64:0.0 65:0.35277777910232544 66:0.4888888895511627 67:1.0 68:0.0 69:0.44999998807907104 70:0.4888888895511627 71:0.9996769428253174 72:-0.025415489450097084 73:0.6805555820465088 74:0.48055556416511536 75:0.9991847276687622 76:-0.04037109762430191 77:1.0 78:0.46666666865348816 79:0.9990561008453369 80:-0.04343724623322487 
-0.21515406455972613 -0.0 0.0 2.154710118781418 0.9735621658108703 0.22087539701484804 0.24541883184744245 0.0 0.0 1.1760711181027381 0.8287838228355424 2.11145894368411 1.0606859324271796 1.2074916037866883 3.129802331946354 2.1643786380844574 3.2319183925459973 0.0 3.808834344955927 1.3262103475550804 1.6202405617793687 3.5999186138817545 1.0437234265220638 1:0.6037735939025879 2:0.1037735864520073 3:0.0 4:-1.0 5:0.6037735939025879 6:0.08490566909313202 7:0.0 8:-1.0 9:0.6037735939025879 10:0.047169819474220276 11:0.0 12:-1.0 13:0.6037735939025879 14:0.028301894664764404 15:0.0 16:0.0 17:0.6037735939025879 18:0.047169819474220276 19:0.0 20:1.0 21:0.6037735939025879 22:0.2924528419971466 23:0.0 24:1.0 25:0.6037735939025879 26:0.40566039085388184 27:-0.08304542303085327 28:0.9965457916259766 29:0.5849056839942932 30:0.5188679099082947 31:-0.2248595654964447 32:0.9743911027908325 33:0.5471698045730591 34:0.650943398475647 35:-0.25766265392303467 36:0.9662349820137024 37:0.5094339847564697 38:0.801886796951294 39:-0.29408586025238037 40:0.955778956413269 41:0.4716981053352356 42:0.8962264060974121 43:-0.4061386287212372 44:0.913811445236206 45:0.43396225571632385 46:0.9716981053352356 47:-0.44721361994743347 48:0.8944272398948669 49:0.0 50:0.5188679099082947 51:1.0 52:0.0 53:0.03773584961891174 54:0.5188679099082947 55:1.0 56:0.0 57:0.07547169923782349 58:0.5188679099082947 59:1.0 60:0.0 61:0.1320754736661911 62:0.5188679099082947 63:1.0 64:0.0 65:0.24528302252292633 66:0.5188679099082947 67:1.0 68:0.0 69:0.6415094137191772 70:0.5188679099082947 71:0.9994060397148132 72:-0.034462250769138336 73:0.7924528121948242 74:0.5 75:0.987762987613678 76:-0.1559625267982483 77:1.0 78:0.46226415038108826 79:0.9838699102401733 80:-0.17888543009757996 
-0.0 -1.8337838934303166 0.0 0.0 0.0 0.0 0.0 0.0 3.304892858214288 3.1641764558383243 0.0 0.0 0.0 0.0 0.0 0.0 0.0 0.0 0.0 0.3560229216379512 0.0 0.0 0.0 1:0.7758620977401733 2:0.0 3:0.0 4:1.0 5:0.7758620977401733 6:0.08275862038135529 7:-0.04541042819619179 8:0.9989684820175171 9:0.7689651250839233 10:0.15172414481639862 11:-0.24254068732261658 12:0.9701412916183472 13:0.7482752799987793 14:0.19310344755649567 15:-0.26312029361724854 16:0.9647630453109741 17:0.7275853157043457 18:0.30344831943511963 19:-0.16006898880004883 20:0.9871058464050293 21:0.7068965435028076 22:0.4482758641242981 23:-0.14141903817653656 24:0.9899497628211975 25:0.6862066984176636 26:0.5931034684181213 27:-0.14480046927928925 28:0.9894608855247498 29:0.6655168533325195 30:0.731034517288208 31:-0.15596045553684235 32:0.9877633452415466 33:0.6448279619216919 34:0.8551724553108215 35:-0.13216155767440796 36:0.9912282228469849 37:0.6379311084747314 38:0.9379310607910156 39:-0.04756724089384079 40:0.9988680481910706 41:0.6379311084747314 42:1.0 43:0.0 44:1.0 45:0.08620688319206238 46:0.48275861144065857 47:1.0 48:0.0 49:0.10775861144065857 50:0.48275861144065857 51:0.9938836693763733 52:0.11043177545070648 53:0.16379308700561523 54:0.4913793206214905 55:0.9834532141685486 56:0.18116256594657898 57:0.2715517282485962 58:0.5129310488700867 59:0.985460102558136 60:0.16990692913532257 61:0.4137931168079376 62:0.5344827771186829 63:0.9880120158195496 64:0.15437689423561096 65:0.5474138259887695 66:0.556034505367279 67:0.9771763682365417 68:0.21242965757846832 69:0.6120690107345581 70:0.5775862336158752 71:0.9761871099472046 72:0.21693016588687897 73:0.7413793802261353 74:0.5991379022598267 75:0.9899495244026184 76:0.14142121374607086 77:0.9137930870056152 78:0.6206896305084229 79:0.9922778606414795 80:0.1240348219871521 
-4.089843595752773 -4.156883952260892 4.352647275455007 0.0 2.202151162327141 0.0 0.782712292644383 0.0 2.4519335853908246 1.1126259946424628 0.0 0.0 2.1745492076745205 0.0 1.637405572809954 0.0 0.8390466671942818 0.8112150665851214 0.08928845457934367 0.7386124835710801 3.398277359911549 0.0 4.631502387652564 1:0.0841466411948204 2:0.5121951103210449 3:-1.0 4:0.0 5:0.06219482421875 6:0.5121951103210449 7:-1.0 8:0.0 9:0.07926829159259796 10:0.5121951103210449 11:1.0 12:0.0 13:0.1353663057088852 14:0.5121951103210449 15:1.0 16:0.0 17:0.2304881066083908 18:0.5121951103210449 19:1.0 20:0.0 21:0.31585395336151123 22:0.5121951103210449 23:0.9988123178482056 24:-0.04872243106365204 25:0.4304884076118469 26:0.502439022064209 27:0.9940857887268066 28:-0.10859756171703339 29:0.6060976982116699 30:0.4804878234863281 31:0.9918357133865356 32:-0.12752178311347961 33:0.7719518542289734 34:0.4585365653038025 35:0.988564670085907 36:-0.15079772472381592 37:0.8939030170440674 38:0.436585396528244 39:0.9667051434516907 40:-0.2558929920196533 41:0.93780517578125 42:0.4146341383457184 43:0.8944256901741028 44:-0.4472165107727051 45:0.523171067237854 46:0.0 47:0.0 48:1.0 49:0.523171067237854 50:0.0731707289814949 51:0.0 52:1.0 53:0.523171067237854 54:0.19512194395065308 55:0.0 56:1.0 57:0.523171067237854 58:0.24390244483947754 59:0.0 60:1.0 61:0.523171067237854 62:0.4146341383457184 63:0.0 64:1.0 65:0.523171067237854 66:0.5121951103210449 67:0.0 68:1.0 69:0.523171067237854 70:0.7317073345184326 71:0.0 72:1.0 73:0.523171067237854 74:0.8780487775802612 75:0.0 76:1.0 77:0.523171067237854 78:1.0 79:0.0 80:1.0 
-1.3055336010830236 -0.0 2.900840783573545 0.0 1.5152180833454005 0.0 0.9246583060297543 0.0 0.0 0.0 0.0 0.010274551396946073 2.265535467811955 0.0 0.0 0.0 0.0 2.401958807873637 0.18350098284506008 0.6774646451970187 2.4902698088777546 0.0 0.0 1:0.539393961429596 2:0.11649832129478455 3:-0.5480228662490845 4:-0.8364633917808533 5:0.5265994668006897 6:0.09696970880031586 7:-0.5755113959312439 8:-0.8177937269210815 9:0.5138035416603088 10:0.08013468980789185 11:-0.8027453422546387 12:0.5963220000267029 13:0.5030303001403809 14:0.11447814106941223 15:-0.13277862966060638 16:0.9911457300186157 17:0.47609493136405945 18:0.36161619424819946 19:-0.08510340005159378 20:0.9963721036911011 21:0.45925959944725037 22:0.6269359588623047 23:-0.077909454703331 24:0.996960461139679 25:0.4363636374473572 26:0.8700336813926697 27:-0.09837223589420319 28:0.9951497316360474 29:0.43030303716659546 30:0.9198653101921082 31:-0.5943964123725891 32:-0.804172158241272 33:0.4249156713485718 34:0.8545454740524292 35:-0.16639740765094757 36:-0.98605877161026 37:0.39393940567970276 38:0.7043771147727966 39:-0.20202361047267914 40:-0.9793806672096252 41:0.0 42:0.41952863335609436 43:0.7071062922477722 44:-0.7071073651313782 45:0.024242423474788666 46:0.3952861726284027 47:0.8682430982589722 48:-0.4961390495300293 49:0.08484848588705063 50:0.37104377150535583 51:1.0 52:0.0 53:0.28484848141670227 54:0.3952861726284027 55:0.9882102012634277 56:0.15310297906398773 57:0.5151515007019043 58:0.4377104341983795 59:0.9926851391792297 60:0.12073198705911636 61:0.7333333492279053 62:0.44983163475990295 63:0.9973075985908508 64:0.07333143800497055 65:0.9272727370262146 66:0.4680134654045105 67:0.9987522959709167 68:0.04993768781423569 69:0.9757575988769531 70:0.4619528651237488 71:0.9363291263580322 72:-0.351123571395874 73:0.9757575988769531 74:0.44983163475990295 75:0.5546998977661133 76:-0.8320505023002625 77:1.0 78:0.4255892336368561 79:0.7071067690849304 80:-0.7071067690849304 
-0.22061415046490693 -0.9109550921200606 0.3460349605249641 0.0 1.5304923944547344 0.0 0.0 0.0 0.8058511109042431 2.3550381238818887 0.0 0.31562561081442464 0.06278513299681071 0.0 0.9495473639942469 0.0 0.0 0.0 0.0 0.6689529431955227 0.0 0.0 0.0 1:0.44285714626312256 2:0.12142857909202576 3:0.0 4:1.0 5:0.44285714626312256 6:0.19285714626312256 7:0.0 8:1.0 9:0.44285714626312256 10:0.26428574323654175 11:0.0 12:1.0 13:0.44285714626312256 14:0.4642857313156128 15:0.0 16:1.0 17:0.44285714626312256 18:0.5785714387893677 19:0.09950372576713562 20:0.9950372576713562 21:0.4714285731315613 22:0.75 23:0.11043154448270798 24:0.9938836693763733 25:0.4714285731315613 26:0.8357142210006714 27:0.11043154448270798 28:0.9938836693763733 29:0.48571428656578064 30:0.8785713911056519 31:0.0 32:1.0 33:0.4714285731315613 34:0.8642857074737549 35:-0.7071075439453125 36:-0.7071060538291931 37:0.014285714365541935 38:0.5499999523162842 39:-1.0 40:0.0 41:0.0 42:0.5499999523162842 43:1.0 44:0.0 45:0.04285714402794838 46:0.5499999523162842 47:1.0 48:0.0 49:0.18571428954601288 50:0.5499999523162842 51:1.0 52:0.0 53:0.30000001192092896 54:0.5499999523162842 55:0.9962406158447266 56:-0.08662942796945572 57:0.5142857432365417 58:0.5214285850524902 59:0.9970544576644897 60:-0.07669633626937866 61:0.6714285612106323 62:0.5214285850524902 63:0.9958932399749756 64:-0.09053575247526169 65:0.8285714387893677 66:0.4928571581840515 67:0.9938837885856628 68:-0.11043153703212738 69:0.9285714030265808 70:0.4928571581840515 71:0.9965457320213318 72:0.08304565399885178 73:1.0 74:0.5071429014205933 75:0.8944272398948669 76:0.44721361994743347 77:0.9857142567634583 78:0.5214285850524902 79:-0.7071082592010498 80:0.707105278968811 
-0.0 -0.7652268746617765 0.605253127628363 1.5175312560891083 1.3704699180772542 5.775141749955144 0.8513942691275606 1.270663050346707 4.367004766670948 1.5464467403426394 0.6498909935473246 7.452970400303311 2.6074597675148254 1.622735528886355 9.434897415674111 11.394606511733643 2.585054526740788 0.9218675005775877 4.89741930428101 0.0 0.5887355384836082 0.006189846167485783 6.110201570185415 1:0.6428571343421936 2:2.9802322387695312E-8 3:0.0 4:1.0 5:0.6428571343421936 6:0.08441560715436935 7:-0.15206168591976166 8:0.9883710741996765 9:0.61688232421875 10:0.16883118450641632 11:-0.3896399140357971 12:0.9209673404693604 13:0.5714285969734192 14:0.2532467544078827 15:-0.2599691152572632 16:0.9656169414520264 17:0.5714285969734192 18:0.33766233921051025 19:0.0 20:1.0 21:0.5714285969734192 22:0.48701295256614685 23:0.0 24:1.0 25:0.5714285969734192 26:0.5779221057891846 27:0.0 28:1.0 29:0.5714285969734192 30:0.6623376607894897 31:0.0 32:1.0 33:0.5714285969734192 34:0.7467532157897949 35:0.0 36:1.0 37:0.5714285969734192 38:0.8311687707901001 39:0.0 40:1.0 41:0.5714285969734192 42:0.9155844449996948 43:0.3896397054195404 44:0.9209673404693604 45:0.6428571343421936 46:1.0 47:0.645942211151123 48:0.7633863091468811 49:0.0 50:0.5 51:0.7893503308296204 52:0.6139430403709412 53:0.0918361097574234 54:0.5714285373687744 55:0.932003915309906 56:0.36244824528694153 57:0.1836722195148468 58:0.5714285373687744 59:1.0 60:0.0 61:0.3367353081703186 62:0.5714285373687744 63:1.0 64:0.0 65:0.4489789605140686 66:0.5714285373687744 67:1.0 68:0.0 69:0.6020420789718628 70:0.5714285373687744 71:0.9918816089630127 72:-0.12716464698314667 73:0.8469368815422058 74:0.5204081535339355 75:0.9842711091041565 76:-0.1766645312309265 77:1.0 78:0.5 79:0.9912281632423401 80:-0.13216204941272736 
-5.993377180052503 -0.7544679038366051 -2.577913296151845 0.0 4.604418848719243 0.0 0.0 0.0 1.1420806408734336 0.0 0.0 0.0 0.0 0.0 1.3171167802723776 0.0 0.0 0.0 0.0 0.0 0.031924603372708804 0.0 1.237466265883917 1:0.0 2:0.642105221748352 3:0.8898278474807739 4:-0.4562963545322418 5:0.02160773053765297 6:0.631024956703186 7:0.8133295178413391 8:-0.5818033814430237 9:0.07589946687221527 10:0.5878116488456726 11:0.806397557258606 12:-0.591373860836029 13:0.14625822007656097 14:0.5396121740341187 15:0.816731870174408 16:-0.5770173668861389 17:0.22881373763084412 18:0.4797784090042114 19:0.8350647687911987 20:-0.550151526927948 21:0.33462685346603394 22:0.41551247239112854 23:0.8773654699325562 24:-0.47982272505760193 25:0.4415501654148102 26:0.36343491077423096 27:0.9034237265586853 28:-0.42874884605407715 29:0.5307462811470032 30:0.32243767380714417 31:0.9162946343421936 32:-0.40050479769706726 33:0.6088610291481018 34:0.2903047204017639 35:0.9134836792945862 36:-0.4068754315376282 37:0.6576172113418579 38:0.2659280002117157 39:0.8669915795326233 40:-0.4983227550983429 41:0.6792249083518982 42:0.24986150860786438 43:0.8856256604194641 44:-0.4643997848033905 45:0.7030479311943054 46:0.24210527539253235 47:0.8637829422950745 48:0.503864049911499 49:0.7191148996353149 50:0.27313023805618286 51:0.2817937433719635 52:0.9594749808311462 53:0.7263157963752747 54:0.32132965326309204 55:0.2169177234172821 56:0.976189911365509 57:0.7445980906486511 58:0.38781166076660156 59:0.3071056306362152 60:0.9516754746437073 61:0.7767320871353149 62:0.4775623679161072 63:0.43907082080841064 64:0.8984524011611938 65:0.8282586336135864 66:0.5590027570724487 67:0.5474079251289368 68:0.8368659019470215 69:0.8825503587722778 70:0.6393351554870605 71:0.6307965517044067 72:0.7759482264518738 73:0.9462582468986511 74:0.7041550874710083 75:0.7037734985351562 76:0.7104244828224182 77:1.0 78:0.75789475440979 79:0.7071205377578735 80:0.7070930600166321 
-0.0 -0.09494862589703448 -0.5794844208821727 1.0676514820778042 0.0 1.2442227523219809 0.6626847669851598 0.5330116081255794 1.5464100984036988 2.502053357868257 1.2564327861401954 1.4921018402841366 2.8238242432800873 2.328819349747313 3.3747277987081494 0.9131798410769671 2.2283604171698874 0.42501948700861064 0.26660159832692193 1.8289827035104178 0.0 3.4318522991780176 0.3120206614741871 1:0.13461536169052124 2:0.8956043720245361 3:0.15596577525138855 4:-0.987762451171875 5:0.15109921991825104 6:0.791208803653717 7:0.6050834059715271 8:-0.7961620688438416 9:0.2390109747648239 10:0.7582417726516724 11:0.6660174131393433 12:-0.7459361553192139 13:0.2884625196456909 14:0.6373625993728638 15:0.39643600583076477 16:-0.9180624485015869 17:0.3434065878391266 18:0.5164834856987 19:0.49400702118873596 20:-0.8694579005241394 21:0.42582425475120544 22:0.3956044018268585 23:0.6435977816581726 24:-0.765363872051239 25:0.5467021465301514 26:0.2747252285480499 27:0.49400681257247925 28:-0.869458019733429 29:0.5631859302520752 30:0.15384617447853088 31:0.41380664706230164 32:-0.9103647470474243 33:0.6565934419631958 34:0.03296700865030289 35:0.5189818143844604 36:-0.8547852635383606 37:0.6565934419631958 38:0.0 39:0.0 40:1.0 41:0.6565934419631958 42:0.12087906152009964 43:0.0 44:1.0 45:0.6565934419631958 46:0.24175822734832764 47:0.0 48:1.0 49:0.6565934419631958 50:0.36263737082481384 51:0.02324763685464859 52:0.9997296929359436 53:0.6620875000953674 54:0.4780219495296478 55:0.6050834059715271 56:0.7961620688438416 57:0.7609890103340149 58:0.49999991059303284 59:0.5692113041877747 60:0.8221911787986755 61:0.7609890103340149 62:0.6208791732788086 63:0.0 64:1.0 65:0.7609890103340149 66:0.7417582273483276 67:0.3867238461971283 68:0.922195553779602 69:0.8324169516563416 70:0.791208803653717 71:0.6050831079483032 72:0.7961623072624207 73:0.8653846383094788 74:0.879120945930481 75:0.15596559643745422 76:0.9877625107765198 77:0.8653846383094788 78:1.0 79:0.0 80:1.0 
-0.0 -0.0 -0.0 0.0 0.0 0.0 0.0 0.0 0.0 0.0 0.0 0.0 2.0237276499211334 0.0 0.0971689430550891 0.0 0.0 0.0 0.9758273856927355 0.0 0.0 0.0 0.0 1:0.0 2:0.9887217879295349 3:0.8454885482788086 4:-0.5339935421943665 5:0.0714285746216774 6:0.9436089396476746 7:0.487364798784256 8:-0.8731984496116638 9:0.0902252197265625 10:0.8270676732063293 11:0.29300200939178467 12:-0.9561118483543396 13:0.1428571492433548 14:0.7105262279510498 15:0.19087085127830505 16:-0.9816151261329651 17:0.1428571492433548 18:0.5563909411430359 19:0.03701241314411163 20:-0.9993147850036621 21:0.1541355699300766 22:0.4060150682926178 23:0.25850942730903625 24:-0.9660088419914246 25:0.2142857164144516 26:0.28947368264198303 27:0.24987703561782837 28:-0.9682775735855103 29:0.2142857164144516 30:0.17293226718902588 31:0.01639474742114544 32:-0.9998655915260315 33:0.2180459201335907 34:0.06015034392476082 35:0.40416407585144043 36:-0.9146865010261536 37:0.2857142984867096 38:0.011278212070465088 39:0.9486825466156006 40:0.3162299692630768 41:0.2857142984867096 42:0.08270664513111115 43:0.0 44:1.0 45:0.2857142984867096 46:0.19924810528755188 47:0.4041636884212494 48:0.9146866798400879 49:0.3571428656578064 50:0.24436084926128387 51:0.5608454346656799 52:0.8279206156730652 53:0.4436078667640686 54:0.43233075737953186 55:0.48640698194503784 56:0.873732328414917 57:0.560150146484375 58:0.6090226173400879 59:0.5475298166275024 60:0.8367862105369568 61:0.6428571343421936 62:0.7368420958518982 63:0.5637480020523071 64:0.8259468078613281 65:0.7218061089515686 66:0.8458646535873413 67:0.7706459164619446 68:0.6372635364532471 69:0.8383461833000183 70:0.898496150970459 71:0.9040712714195251 72:0.4273819029331207 73:0.9285714030265808 74:0.9436088800430298 75:0.8731971383094788 76:0.4873672127723694 77:1.0 78:0.9887217879295349 79:0.8454883098602295 80:0.5339938998222351 
-2.547203182061069 -5.925379488755996 -6.769372078863293 1.724559513917283 2.806130493513028 2.890389862208837 5.200645466442312 1.135673558477271 5.049507471693205 5.816410454166292 3.0113913523505986 5.153436244306529 6.411426224032208 2.1406740944449654 4.017782346880943 3.8664103697969865 2.6040065326313457 3.826392826575527 2.56197823853591 3.7803942162749733 1.5939083836261196 2.420218072617455 3.868513572321012 1:0.517241358757019 2:0.0 3:-0.693641722202301 4:0.7203201055526733 5:0.38916251063346863 6:0.13300493359565735 7:-0.6283370852470398 8:0.7779411673545837 9:0.3103448152542114 10:0.25615763664245605 11:-0.7514400482177734 12:0.6598014235496521 13:0.18719220161437988 14:0.3103448152542114 15:-0.6139404773712158 16:0.7893522381782532 17:0.13793104887008667 18:0.47783252596855164 19:-0.15205736458301544 20:0.9883716702461243 21:0.13793104887008667 22:0.6305419206619263 23:-0.1359800398349762 24:0.9907115697860718 25:0.103448286652565 26:0.7290640473365784 27:0.0 28:1.0 29:0.13793104887008667 30:0.8965517282485962 31:0.20165294408798218 32:0.9794570207595825 33:0.13793104887008667 34:0.8965517282485962 35:-0.8741573095321655 36:0.48564276099205017 37:0.06896552443504333 38:0.9348658919334412 39:0.3624466359615326 40:-0.9320046305656433 41:0.16475099325180054 42:0.8275862336158752 43:0.657829225063324 44:-0.7531670928001404 45:0.33333322405815125 46:0.6321839094161987 47:0.6097108125686646 48:-0.7926239371299744 49:0.4329502582550049 50:0.47892722487449646 51:0.8000000715255737 52:-0.5999998450279236 53:0.532567024230957 54:0.48275861144065857 55:0.707106351852417 56:0.7071071267127991 57:0.5747125148773193 58:0.6206896305084229 59:0.29680508375167847 60:0.9549380540847778 61:0.6206896305084229 62:0.7662835121154785 63:0.35743388533592224 64:0.9339385032653809 65:0.6934866905212402 66:0.931034505367279 67:0.5936490297317505 68:0.8047240972518921 69:0.7931034564971924 70:1.0 71:0.8221920728683472 72:0.5692102313041687 73:0.7931034564971924 74:1.0 75:0.2940857708454132 76:-0.9557790756225586 77:0.9310344457626343 78:0.5517241358757019 79:0.2940857708454132 80:-0.9557790756225586 
-0.0 -0.0 -0.0 0.0 0.0 0.0907253263929165 0.9225858829209984 0.31600628120946245 0.2512013652587965 0.0 0.5497425172757311 0.18471679507519115 1.7050385957902174 0.3550487812640542 0.0 0.1312103460468623 0.0 1.9501108452370477 0.2804092308383805 0.0 0.0 0.0 0.41411777514932047 1:0.3093351721763611 2:0.7406648993492126 3:0.7316979169845581 4:-0.6816291213035583 5:0.32059136033058167 6:0.730178952217102 7:-0.8221897482872009 8:0.5692135095596313 9:0.20294231176376343 10:0.8143221735954285 11:-0.831100583076477 12:0.5561221241950989 13:0.148977130651474 14:0.8450127840042114 15:-0.949158787727356 16:0.314797967672348 17:0.15204742550849915 18:0.83120197057724 19:0.16725270450115204 20:-0.9859141111373901 21:0.1538364589214325 22:0.8163682222366333 23:0.3940967917442322 24:-0.9190689325332642 25:0.20984219014644623 26:0.6964194178581238 27:0.39474669098854065 28:-0.9187900424003601 29:0.37403929233551025 30:0.3038365840911865 31:0.39913299679756165 32:-0.9168930053710938 33:0.47915562987327576 34:0.07774937897920609 35:0.43566569685935974 36:-0.9001085162162781 37:0.521100640296936 38:0.0 39:0.526742696762085 40:-0.8500248193740845 41:0.5162413120269775 42:0.017902789637446404 43:-0.09378860145807266 44:0.9955921769142151 45:0.5098491907119751 46:0.11943727731704712 47:0.07032217085361481 48:0.9975243806838989 49:0.5343973636627197 50:0.2754475176334381 51:0.22091686725616455 52:0.9752926230430603 53:0.5906640887260437 54:0.47621479630470276 55:0.3021531403064728 56:0.9532594084739685 57:0.6829913854598999 58:0.7442450523376465 59:0.35066109895706177 60:0.9365023970603943 61:0.7607407569885254 62:0.9304345846176147 63:0.3736942410469055 64:0.9275518655776978 65:0.7832484245300293 66:0.9930945038795471 67:0.23247824609279633 68:0.972601592540741 69:0.7773687839508057 70:1.0 71:0.6047333478927612 72:-0.7964279651641846 73:0.8510228395462036 74:0.9038362503051758 75:0.24939003586769104 76:-0.968403160572052 77:0.8341432809829712 78:0.7795397043228149 79:-0.1345655620098114 80:-0.990904688835144 
-0.0 -1.1507385671172883 -4.61691066001689 0.0 0.0 0.0 0.0 1.4909871440884324 0.7435655540370586 0.0 1.0786603176809113 0.31442682926094584 0.0 0.0 0.0 0.0 0.0 2.648990198850004 0.0 0.6928747661029604 0.0 1.9884194194327416 0.0 1:0.0 2:0.8713449835777283 3:0.20602403581142426 4:-0.9785469770431519 5:0.0233934186398983 6:0.7602338790893555 7:0.575493574142456 8:-0.8178063035011292 9:0.1111111119389534 10:0.7134503126144409 11:0.8178061842918396 12:-0.5754938721656799 13:0.1812879741191864 14:0.6491227746009827 15:0.5754932761192322 16:-0.8178065419197083 17:0.2222222238779068 18:0.555555522441864 19:0.8035567998886108 20:-0.5952280759811401 21:0.3391825258731842 22:0.532163679599762 23:0.8902502655982971 24:-0.4554717540740967 25:0.4736870527267456 26:0.4269005358219147 27:0.8624156713485718 28:-0.5062006711959839 29:0.6081882119178772 30:0.3742689788341522 31:0.8209017515182495 32:-0.5710695385932922 33:0.7426893711090088 34:0.23976603150367737 35:0.5332984328269958 36:-0.8459271192550659 37:0.7777777910232544 38:0.10526309162378311 39:0.6794096827507019 40:-0.7337591648101807 41:0.8888888955116272 42:0.08187125623226166 43:0.7848831415176392 44:-0.6196438074111938 45:0.8888888955116272 46:0.017543911933898926 47:-0.640177309513092 48:0.7682271599769592 49:0.8304104208946228 50:0.15204674005508423 51:-0.38176023960113525 52:0.9242613911628723 53:0.7777777910232544 54:0.2865496873855591 55:-0.19201526045799255 56:0.9813918471336365 57:0.7777777910232544 58:0.42105263471603394 59:0.5754930377006531 60:0.8178066611289978 61:0.8888888955116272 62:0.44444456696510315 63:0.5754932761192322 64:0.817806601524353 65:0.8888888955116272 66:0.5789474248886108 67:0.0 68:1.0 69:0.8888888955116272 70:0.7134502530097961 71:0.3100261986255646 72:0.9507279992103577 73:0.9766099452972412 74:0.8479532599449158 75:0.3817601501941681 76:0.9242614507675171 77:1.0 78:0.9824560880661011 79:0.17132879793643951 80:0.9852139353752136 
-0.0 -0.0 -0.0 0.0 0.0 0.0 0.0 0.21170895802005113 0.0 0.0 0.0 0.0 0.0 0.0 0.0 0.0 0.0 0.0 0.0 0.0 0.0 0.0 0.0 1:0.13333332538604736 2:1.0 3:0.0 4:-1.0 5:0.13333332538604736 6:0.9368420839309692 7:0.42700931429862976 8:-0.9042471647262573 9:0.1929829865694046 10:0.8736841678619385 11:0.45764291286468506 12:-0.8891360759735107 13:0.2561401426792145 14:0.698245644569397 15:0.374981164932251 16:-0.927032470703125 17:0.3192993402481079 18:0.5614035129547119 19:0.43273255228996277 20:-0.9015223979949951 21:0.3824564814567566 22:0.4350877106189728 23:0.49942395091056824 24:-0.866357684135437 25:0.4912272095680237 26:0.26315784454345703 27:0.5172601342201233 28:-0.8558281064033508 29:0.575439453125 30:0.11578948050737381 31:0.4199198782444 32:-0.9075612425804138 33:0.6000000238418579 34:0.02807016298174858 35:0.4579474627971649 36:-0.8889793157577515 37:0.6350870728492737 38:0.0 39:0.9986177682876587 40:0.05255912244319916 41:0.6666666865348816 42:0.03157895430922508 43:0.31623372435569763 44:0.9486812949180603 45:0.6666666865348816 46:0.09473685920238495 47:0.19086293876171112 48:0.9816166758537292 49:0.6912271976470947 50:0.1578947752714157 51:0.4121676981449127 52:0.9111080169677734 53:0.7333333492279053 54:0.24210534989833832 55:0.18155121803283691 56:0.983381450176239 57:0.7333333492279053 58:0.38596490025520325 59:0.04391035810112953 60:0.9990354776382446 61:0.7473673820495605 62:0.5614035129547119 63:0.23257377743721008 64:0.972578763961792 65:0.8105265498161316 66:0.7087720036506653 67:0.3002883195877075 68:0.9538484811782837 69:0.8666666746139526 70:0.9403508305549622 71:0.1915096491575241 72:0.9814907312393188 73:0.8666666746139526 74:0.9964912533760071 75:0.0 76:-1.0 77:0.8666666746139526 78:0.9333333373069763 79:0.0 80:-1.0 
-0.0 -0.0 -0.0 0.0 0.0 0.0 0.0 0.1637477208732837 0.19233522314653037 0.0 0.0 0.0 0.0 0.0 0.0 0.0 0.0 0.746531038462552 0.0 0.0 0.0 0.0 0.0 1:0.0 2:0.9285714626312256 3:0.9986178278923035 4:-0.05255863070487976 5:0.1428571492433548 6:0.9210526943206787 7:0.7415331602096558 8:-0.6709161400794983 9:0.1578935831785202 10:0.7857142686843872 11:0.67091304063797 12:-0.7415359616279602 13:0.2857142984867096 14:0.763157844543457 15:0.7415381669998169 16:-0.670910656452179 17:0.3157893717288971 18:0.6428571939468384 19:0.6709132790565491 20:-0.7415357828140259 21:0.4285714328289032 22:0.6052631139755249 23:0.5144959092140198 24:-0.8574928045272827 25:0.4285714328289032 26:0.45488718152046204 27:0.20749729871749878 28:-0.9782355427742004 29:0.481201171875 30:0.3571428656578064 31:0.6709133386611938 32:-0.7415357828140259 33:0.5714285969734192 34:0.2969924211502075 35:0.741537868976593 36:-0.6709109544754028 37:0.6390969157218933 38:0.2142857164144516 39:0.6709134578704834 40:-0.7415356636047363 41:0.7142857313156128 42:0.13909775018692017 43:0.7415379881858826 44:-0.6709108352661133 45:0.7969927191734314 46:0.0714285671710968 47:0.9877629280090332 48:0.1559630185365677 49:0.8571428656578064 50:0.16165420413017273 51:-0.1543741375207901 52:0.9880124926567078 53:0.7593994140625 54:0.3120301067829132 55:-0.42905670404434204 56:0.9032775163650513 57:0.7142857313156128 58:0.4624061584472656 59:-0.1483432799577713 60:0.9889359474182129 61:0.7142857313156128 62:0.6127821207046509 63:0.0 64:1.0 65:0.7142857313156128 66:0.7631579637527466 67:0.0 68:1.0 69:0.7142857313156128 70:0.9135339260101318 71:0.6332332491874695 72:0.7739610075950623 73:0.8496224284172058 74:0.9285714626312256 75:0.9986178278923035 76:0.05255863815546036 77:1.0 78:0.9285714626312256 79:1.0 80:0.0 
-0.2230770725345436 -0.45047445769815325 -0.9012573922101026 0.0 0.3993789114317918 0.32076629820784147 1.7967102394894179 0.1243025381086966 0.15430915835068093 0.8158509710675088 0.769434338103666 0.0 0.5106338998080858 0.0 0.025520617003765202 0.4810818187979405 0.6860069717936333 0.126763842416979 0.25277827949997533 1.2802112796490686 0.7401348496267934 0.059136796014719197 0.4386173596156491 1:0.19175641238689423 2:0.7760968208312988 3:-0.8398171663284302 4:0.5428693890571594 5:0.16679224371910095 6:0.7922340035438538 7:-0.787077009677887 8:0.6168546676635742 9:0.06467597186565399 10:0.8756933808326721 11:-0.8001507520675659 12:0.5997989177703857 13:0.009709000587463379 14:0.9099847674369812 15:-0.9871042370796204 16:-0.1600790172815323 17:0.046018362045288086 18:0.872667670249939 19:0.7208324074745178 20:-0.6931094527244568 21:0.18671303987503052 22:0.7397882342338562 23:0.6277138590812683 24:-0.778444230556488 25:0.3715347349643707 26:0.4689863622188568 27:0.47233185172080994 28:-0.8814207911491394 29:0.48045817017555237 30:0.19162899255752563 31:0.35560593008995056 32:-0.9346359968185425 33:0.5424895882606506 34:0.019667204469442368 35:0.32815083861351013 36:-0.9446253776550293 37:0.5470276474952698 38:0.0 39:0.05689492076635361 40:-0.998380184173584 41:0.5434954166412354 42:0.002017138060182333 43:0.052177686244249344 44:0.998637855052948 45:0.5475282669067383 46:0.00958144199103117 47:0.2312639355659485 48:0.972891092300415 49:0.5520663261413574 50:0.03807360678911209 51:0.26608991622924805 52:0.9639482498168945 53:0.6070380210876465 54:0.22516390681266785 55:0.30005794763565063 56:0.9539209604263306 57:0.7096595764160156 58:0.5390818119049072 59:0.3162248432636261 60:0.9486842155456543 61:0.8142974972724915 62:0.8469487428665161 63:0.3717438578605652 64:0.9283353686332703 65:0.8906963467597961 66:0.9911749362945557 67:0.5671612620353699 68:0.8236067891120911 69:0.9196933507919312 70:1.0 71:0.809970498085022 72:-0.5864706039428711 73:0.9902909994125366 74:0.9190620183944702 75:-0.9068209528923035 76:-0.42151594161987305 77:0.8193408846855164 78:0.9533533453941345 79:-0.98046875 80:0.19667477905750275 
-1.2977885014372355 -0.0 -0.0 0.0 0.0 0.0 0.0 0.0 0.0 0.0 0.0 0.0 0.0 0.0 0.0 0.0 0.0 0.0 0.0 0.0 5.811077291040035 0.0 0.0 1:0.0 2:0.7857142686843872 3:0.9670748114585876 4:-0.2544924020767212 5:0.0714285746216774 6:0.76691734790802 7:0.548026442527771 8:-0.8364609479904175 9:0.0714285746216774 10:0.6766917705535889 11:0.4137965738773346 12:-0.910369336605072 13:0.1278185099363327 14:0.6428571939468384 15:0.5480260848999023 16:-0.8364613056182861 17:0.1428571492433548 18:0.567669153213501 19:0.2544957995414734 20:-0.967073917388916 21:0.16541290283203125 22:0.5 23:0.5480263829231262 24:-0.8364609479904175 25:0.2142857164144516 26:0.45864665508270264 27:0.638019323348999 28:-0.7700204253196716 29:0.2744358479976654 30:0.3684210777282715 31:0.6207029223442078 32:-0.7840458750724792 33:0.3571428656578064 34:0.27819550037384033 35:0.5774621963500977 36:-0.816417396068573 37:0.3834577202796936 38:0.2142857015132904 39:0.8768120408058167 40:-0.4808333218097687 41:0.47368404269218445 42:0.2142857015132904 43:1.0 44:0.0 45:0.5639103651046753 46:0.2142857015132904 47:0.8364620208740234 48:0.5480248332023621 49:0.5827069878578186 50:0.2857142686843872 51:0.6139381527900696 52:0.789354145526886 53:0.6428571343421936 54:0.3157893419265747 55:0.6715173721313477 56:0.7409888505935669 57:0.6917288899421692 58:0.40601497888565063 59:0.6105054020881653 60:0.7920120358467102 61:0.7819541096687317 62:0.49624061584472656 63:0.5503146052360535 64:0.834957480430603 65:0.800751805305481 66:0.5714285373687744 67:0.5677375793457031 68:0.8232095837593079 69:0.8571428656578064 70:0.6052629947662354 71:0.6601160168647766 72:0.75116366147995 73:0.9097747802734375 74:0.695488691329956 75:0.7949507832527161 76:0.6066740155220032 77:1.0 78:0.7142857313156128 79:0.9789801836013794 80:0.2039554864168167 
-0.36389559864617294 -0.0 -0.6289906150410337 0.0 3.023154607531608 0.0 0.0 0.0 0.0 0.0 0.0 0.0 0.0 0.0 0.0 0.0 0.0 0.0 0.0 0.0 2.242499288132659 0.0 1.5170483221688147 1:0.0 2:0.7947368621826172 3:0.0 4:-1.0 5:0.0 6:0.6736842393875122 7:0.20600968599319458 8:-0.9785500168800354 9:0.04210510104894638 10:0.5947368144989014 11:0.9001604914665222 12:-0.43555840849876404 13:0.16315917670726776 14:0.5947368144989014 15:0.8823531270027161 16:-0.47058776021003723 17:0.20000000298023224 18:0.5105262994766235 19:0.7926213145256042 20:-0.6097142696380615 21:0.30000001192092896 22:0.4894736707210541 23:0.7371529340744019 24:-0.6757259368896484 25:0.326315313577652 26:0.3947368562221527 27:0.5754935145378113 28:-0.8178063631057739 29:0.4000000059604645 30:0.347368448972702 31:0.6448705196380615 32:-0.7642918825149536 33:0.4684204161167145 34:0.22631579637527466 35:0.3817600607872009 36:-0.9242613911628723 37:0.5 38:0.10526314377784729 39:0.83205646276474 40:-0.5546910762786865 41:0.5 42:0.20526324212551117 43:0.1644023358821869 44:0.9863933324813843 45:0.5315796136856079 46:0.2947368621826172 47:0.5754936337471008 48:0.8178062438964844 49:0.6000000238418579 50:0.347368448972702 51:0.8178061842918396 52:0.5754938125610352 53:0.6736847162246704 54:0.3947368562221527 55:0.5754932165145874 56:0.8178065419197083 57:0.699999988079071 58:0.48947373032569885 59:0.5051775574684143 60:0.8630154728889465 61:0.800000011920929 62:0.610526442527771 63:0.5546966791152954 64:0.8320526480674744 65:0.836840808391571 66:0.6947368383407593 67:0.5754936933517456 68:0.8178062438964844 69:0.8999999761581421 70:0.7526315450668335 71:0.3328259289264679 72:0.9429882168769836 73:0.8999999761581421 74:0.873684287071228 75:0.5754932761192322 76:0.8178064823150635 77:1.0 78:0.8947368860244751 79:0.9785498976707458 80:0.2060101479291916 
-0.18614290322506738 -1.8189540457483442 -0.0 1.8753139842986493 0.0 0.0 0.0 0.0 0.0 0.0 0.0 0.0 0.0 0.0 0.0 0.0 0.0 0.0 0.0 0.0 0.0 0.0 0.3810908252241065 1:0.0 2:0.7224880456924438 3:0.9785496592521667 4:-0.20601105690002441 5:0.09090909361839294 6:0.703349232673645 7:0.8178060054779053 8:-0.5754939913749695 9:0.1291864514350891 10:0.6315789222717285 11:0.575493335723877 12:-0.8178064823150635 13:0.1818181872367859 14:0.5741626024246216 15:0.8178060054779053 16:-0.5754939913749695 17:0.2583729028701782 18:0.5406697988510132 19:0.8320517539978027 20:-0.5546979904174805 21:0.3684220612049103 22:0.4497607350349426 23:0.8630148768424988 24:-0.5051785707473755 25:0.4545454680919647 26:0.42583727836608887 27:0.8178061246871948 28:-0.5754937529563904 29:0.4976085424423218 30:0.3588516414165497 31:0.7642902731895447 32:-0.6448723673820496 33:0.6076549291610718 34:0.2966506779193878 35:0.7875028252601624 36:-0.6163110733032227 37:0.7177026867866516 38:0.18660280108451843 39:0.7071068286895752 40:-0.7071068286895752 41:0.8086118102073669 42:0.09569379687309265 43:0.894432008266449 44:0.4472041428089142 45:0.7559814453125 46:0.20574167370796204 47:0.043440066277980804 48:0.9990560412406921 49:0.8181818127632141 50:0.31578943133354187 51:0.2719547152519226 52:0.9623100161552429 53:0.8181818127632141 54:0.42583727836608887 55:0.5407592058181763 56:0.8411774039268494 57:0.9043065905570984 58:0.4497607350349426 59:0.5754930973052979 60:0.817806601524353 61:0.9090909361839294 62:0.5550240278244019 63:0.022215144708752632 64:0.9997531771659851 65:0.9090909361839294 66:0.6650717258453369 67:0.2998272478580475 68:0.9539934992790222 69:0.9617226123809814 70:0.7224880456924438 71:0.5754928588867188 72:0.8178068399429321 73:1.0 74:0.7942584753036499 75:0.2060099095106125 76:0.9785499572753906 77:1.0 78:0.904306173324585 79:0.0 80:1.0 
