svm_type c_svc
kernel_type rbf
gamma 0.015625
nr_class 15
total_sv 203
rho -0.5220322138923884 0.15432549752699543 -0.4249901886615506 -0.10349604105062168 -0.2491817624111701 -0.3672413580790714 0.2707035840328442 -0.530299315809756 -0.07571885183612215 0.14629057451751898 -0.4908733237954516 -0.10836514404960657 -0.7036982580601979 -0.08722545241209191 0.5921189307763876 -0.5839373387461356 0.4193423856884864 0.8090031067568476 0.04043454745129741 0.8846825483004473 -0.21644858060327343 0.7836073675219923 0.532408935461602 -0.17301727598237474 0.6013606245767547 0.1684117755938288 1.5086227275551307 -0.46979635729638974 -0.2572613042096288 -0.47183099452674115 -0.4405095047986267 0.1375841537812894 -0.8664749176705346 -0.09235411645190762 0.08430093425709555 -0.8357836145353114 -0.25678554125272446 -0.3491590587993498 -0.1274073975945098 0.2578088012650386 0.8043780014544578 0.2420720928562532 0.7868395894367275 -0.15561972000359256 0.5298507907051185 0.6446290083104863 -0.0567312644561632 0.6433431277470915 0.12744367784587346 0.795986873573265 -0.15538608443600493 0.19029509008869966 0.49639555806641766 0.04142803913503317 -0.12447232169575517 0.2396986589144052 -0.46518094704303736 0.11037498493584694 -0.20946905506556357 0.1918530601695356 -0.02731210304390319 0.5421413574052064 -0.42452112347460896 0.10557980122898228 0.40156184426013897 -0.2310346194708117 0.3343870643270196 -0.10641541163719795 0.6112802578451207 0.5915351072524669 -2.261755013200825 0.3385104536099118 0.3828337187543641 -0.7839414642411003 0.5466205640103277 -0.20787398140877342 0.25823442064183827 -0.9803283807454939 -0.32374448864888317 -0.04332259610998993 -0.7407084620940858 -0.3585733085386755 -0.575550144982722 -0.31142044499969146 0.6845775585299306 0.5291892694690679 0.042024211992202555 0.7421165910984837 0.17294689356226936 0.431289405211489 0.2717307351447194 -0.5709840514134311 0.07542742297499797 -0.22566663543380192 0.512021791590836 -0.5345931849514711 -0.38900512368540757 -0.4307085631492153 -0.34072165727555315 0.5660452829649738 0.1338041178538207 0.26420443863320886 -0.22985785425643346 -0.1039526575775058 0.20505008912148712
label 94 41 37 62 60 125 123 42 40 93 64 91 36 126 63
nr_sv 13 15 15 12 12 14 15 15 15 14 12 13 13 10 15
SV
0.0 0.0 0.0 0.0 0.0 0.0 1.3171167802723776 0.0 0.0 0.0 0.0 0.0 0.031924603372708804 0.0 1:0.0 2:0.642105221748352 3:0.8898278474807739 4:-0.4562963545322418 5:0.02160773053765297 6:0.631024956703186 7:0.8133295178413391 8:-0.5818033814430237 9:0.07589946687221527 10:0.5878116488456726 11:0.806397557258606 12:-0.591373860836029 13:0.14625822007656097 14:0.5396121740341187 15:0.816731870174408 16:-0.5770173668861389 17:0.22881373763084412 18:0.4797784090042114 19:0.8350647687911987 20:-0.550151526927948 21:0.33462685346603394 22:0.41551247239112854 23:0.8773654699325562 24:-0.47982272505760193 25:0.4415501654148102 26:0.36343491077423096 27:0.9034237265586853 28:-0.42874884605407715 29:0.5307462811470032 30:0.32243767380714417 31:0.9162946343421936 32:-0.40050479769706726 33:0.6088610291481018 34:0.2903047204017639 35:0.9134836792945862 36:-0.4068754315376282 37:0.6576172113418579 38:0.2659280002117157 39:0.8669915795326233 40:-0.4983227550983429 41:0.6792249083518982 42:0.24986150860786438 43:0.8856256604194641 44:-0.4643997848033905 45:0.7030479311943054 46:0.24210527539253235 47:0.8637829422950745 48:0.503864049911499 49:0.7191148996353149 50:0.27313023805618286 51:0.2817937433719635 52:0.9594749808311462 53:0.7263157963752747 54:0.32132965326309204 55:0.2169177234172821 56:0.976189911365509 57:0.7445980906486511 58:0.38781166076660156 59:0.3071056306362152 60:0.9516754746437073 61:0.7767320871353149 62:0.4775623679161072 63:0.43907082080841064 64:0.8984524011611938 65:0.8282586336135864 66:0.5590027570724487 67:0.5474079251289368 68:0.8368659019470215 69:0.8825503587722778 70:0.6393351554870605 71:0.6307965517044067 72:0.7759482264518738 73:0.9462582468986511 74:0.7041550874710083 75:0.7037734985351562 76:0.7104244828224182 77:1.0 78:0.75789475440979 79:0.7071205377578735 80:0.7070930600166321 
1.0676514820778042 0.6626847669851598 0.5330116081255794 2.502053357868257 1.2564327861401954 2.8238242432800873 3.3747277987081494 0.9131798410769671 2.2283604171698874 0.42501948700861064 0.26660159832692193 1.8289827035104178 0.0 3.4318522991780176 1:0.13461536169052124 2:0.8956043720245361 3:0.15596577525138855 4:-0.987762451171875 5:0.15109921991825104 6:0.791208803653717 7:0.6050834059715271 8:-0.7961620688438416 9:0.2390109747648239 10:0.7582417726516724 11:0.6660174131393433 12:-0.7459361553192139 13:0.2884625196456909 14:0.6373625993728638 15:0.39643600583076477 16:-0.9180624485015869 17:0.3434065878391266 18:0.5164834856987 19:0.49400702118873596 20:-0.8694579005241394 21:0.42582425475120544 22:0.3956044018268585 23:0.6435977816581726 24:-0.765363872051239 25:0.5467021465301514 26:0.2747252285480499 27:0.49400681257247925 28:-0.869458019733429 29:0.5631859302520752 30:0.15384617447853088 31:0.41380664706230164 32:-0.9103647470474243 33:0.6565934419631958 34:0.03296700865030289 35:0.5189818143844604 36:-0.8547852635383606 37:0.6565934419631958 38:0.0 39:0.0 40:1.0 41:0.6565934419631958 42:0.12087906152009964 43:0.0 44:1.0 45:0.6565934419631958 46:0.24175822734832764 47:0.0 48:1.0 49:0.6565934419631958 50:0.36263737082481384 51:0.02324763685464859 52:0.9997296929359436 53:0.6620875000953674 54:0.4780219495296478 55:0.6050834059715271 56:0.7961620688438416 57:0.7609890103340149 58:0.49999991059303284 59:0.5692113041877747 60:0.8221911787986755 61:0.7609890103340149 62:0.6208791732788086 63:0.0 64:1.0 65:0.7609890103340149 66:0.7417582273483276 67:0.3867238461971283 68:0.922195553779602 69:0.8324169516563416 70:0.791208803653717 71:0.6050831079483032 72:0.7961623072624207 73:0.8653846383094788 74:0.879120945930481 75:0.15596559643745422 76:0.9877625107765198 77:0.8653846383094788 78:1.0 79:0.0 80:1.0 
0.0 0.0 0.0 0.0 0.0 2.0237276499211334 0.0971689430550891 0.0 0.0 0.0 0.9758273856927355 0.0 0.0 0.0 1:0.0 2:0.9887217879295349 3:0.8454885482788086 4:-0.5339935421943665 5:0.0714285746216774 6:0.9436089396476746 7:0.487364798784256 8:-0.8731984496116638 9:0.0902252197265625 10:0.8270676732063293 11:0.29300200939178467 12:-0.9561118483543396 13:0.1428571492433548 14:0.7105262279510498 15:0.19087085127830505 16:-0.9816151261329651 17:0.1428571492433548 18:0.5563909411430359 19:0.03701241314411163 20:-0.9993147850036621 21:0.1541355699300766 22:0.4060150682926178 23:0.25850942730903625 24:-0.9660088419914246 25:0.2142857164144516 26:0.28947368264198303 27:0.24987703561782837 28:-0.9682775735855103 29:0.2142857164144516 30:0.17293226718902588 31:0.01639474742114544 32:-0.9998655915260315 33:0.2180459201335907 34:0.06015034392476082 35:0.40416407585144043 36:-0.9146865010261536 37:0.2857142984867096 38:0.011278212070465088 39:0.9486825466156006 40:0.3162299692630768 41:0.2857142984867096 42:0.08270664513111115 43:0.0 44:1.0 45:0.2857142984867096 46:0.19924810528755188 47:0.4041636884212494 48:0.9146866798400879 49:0.3571428656578064 50:0.24436084926128387 51:0.5608454346656799 52:0.8279206156730652 53:0.4436078667640686 54:0.43233075737953186 55:0.48640698194503784 56:0.873732328414917 57:0.560150146484375 58:0.6090226173400879 59:0.5475298166275024 60:0.8367862105369568 61:0.6428571343421936 62:0.7368420958518982 63:0.5637480020523071 64:0.8259468078613281 65:0.7218061089515686 66:0.8458646535873413 67:0.7706459164619446 68:0.6372635364532471 69:0.8383461833000183 70:0.898496150970459 71:0.9040712714195251 72:0.4273819029331207 73:0.9285714030265808 74:0.9436088800430298 75:0.8731971383094788 76:0.4873672127723694 77:1.0 78:0.9887217879295349 79:0.8454883098602295 80:0.5339938998222351 
1.724559513917283 5.200645466442312 1.135673558477271 5.816410454166292 3.0113913523505986 6.411426224032208 4.017782346880943 3.8664103697969865 2.6040065326313457 3.826392826575527 2.56197823853591 3.7803942162749733 1.5939083836261196 2.420218072617455 1:0.517241358757019 2:0.0 3:-0.693641722202301 4:0.7203201055526733 5:0.38916251063346863 6:0.13300493359565735 7:-0.6283370852470398 8:0.7779411673545837 9:0.3103448152542114 10:0.25615763664245605 11:-0.7514400482177734 12:0.6598014235496521 13:0.18719220161437988 14:0.3103448152542114 15:-0.6139404773712158 16:0.7893522381782532 17:0.13793104887008667 18:0.47783252596855164 19:-0.15205736458301544 20:0.9883716702461243 21:0.13793104887008667 22:0.6305419206619263 23:-0.1359800398349762 24:0.9907115697860718 25:0.103448286652565 26:0.7290640473365784 27:0.0 28:1.0 29:0.13793104887008667 30:0.8965517282485962 31:0.20165294408798218 32:0.9794570207595825 33:0.13793104887008667 34:0.8965517282485962 35:-0.8741573095321655 36:0.48564276099205017 37:0.06896552443504333 38:0.9348658919334412 39:0.3624466359615326 40:-0.9320046305656433 41:0.16475099325180054 42:0.8275862336158752 43:0.657829225063324 44:-0.7531670928001404 45:0.33333322405815125 46:0.6321839094161987 47:0.6097108125686646 48:-0.7926239371299744 49:0.4329502582550049 50:0.47892722487449646 51:0.8000000715255737 52:-0.5999998450279236 53:0.532567024230957 54:0.48275861144065857 55:0.707106351852417 56:0.7071071267127991 57:0.5747125148773193 58:0.6206896305084229 59:0.29680508375167847 60:0.9549380540847778 61:0.6206896305084229 62:0.7662835121154785 63:0.35743388533592224 64:0.9339385032653809 65:0.6934866905212402 66:0.931034505367279 67:0.5936490297317505 68:0.8047240972518921 69:0.7931034564971924 70:1.0 71:0.8221920728683472 72:0.5692102313041687 73:0.7931034564971924 74:1.0 75:0.2940857708454132 76:-0.9557790756225586 77:0.9310344457626343 78:0.5517241358757019 79:0.2940857708454132 80:-0.9557790756225586 
0.0 0.9225858829209984 0.31600628120946245 0.0 0.5497425172757311 1.7050385957902174 0.0 0.1312103460468623 0.0 1.9501108452370477 0.2804092308383805 0.0 0.0 0.0 1:0.3093351721763611 2:0.7406648993492126 3:0.7316979169845581 4:-0.6816291213035583 5:0.32059136033058167 6:0.730178952217102 7:-0.8221897482872009 8:0.5692135095596313 9:0.20294231176376343 10:0.8143221735954285 11:-0.831100583076477 12:0.5561221241950989 13:0.148977130651474 14:0.8450127840042114 15:-0.949158787727356 16:0.314797967672348 17:0.15204742550849915 18:0.83120197057724 19:0.16725270450115204 20:-0.9859141111373901 21:0.1538364589214325 22:0.8163682222366333 23:0.3940967917442322 24:-0.9190689325332642 25:0.20984219014644623 26:0.6964194178581238 27:0.39474669098854065 28:-0.9187900424003601 29:0.37403929233551025 30:0.3038365840911865 31:0.39913299679756165 32:-0.9168930053710938 33:0.47915562987327576 34:0.07774937897920609 35:0.43566569685935974 36:-0.9001085162162781 37:0.521100640296936 38:0.0 39:0.526742696762085 40:-0.8500248193740845 41:0.5162413120269775 42:0.017902789637446404 43:-0.09378860145807266 44:0.9955921769142151 45:0.5098491907119751 46:0.11943727731704712 47:0.07032217085361481 48:0.9975243806838989 49:0.5343973636627197 50:0.2754475176334381 51:0.22091686725616455 52:0.9752926230430603 53:0.5906640887260437 54:0.47621479630470276 55:0.3021531403064728 56:0.9532594084739685 57:0.6829913854598999 58:0.7442450523376465 59:0.35066109895706177 60:0.9365023970603943 61:0.7607407569885254 62:0.9304345846176147 63:0.3736942410469055 64:0.9275518655776978 65:0.7832484245300293 66:0.9930945038795471 67:0.23247824609279633 68:0.972601592540741 69:0.7773687839508057 70:1.0 71:0.6047333478927612 72:-0.7964279651641846 73:0.8510228395462036 74:0.9038362503051758 75:0.24939003586769104 76:-0.968403160572052 77:0.8341432809829712 78:0.7795397043228149 79:-0.1345655620098114 80:-0.990904688835144 
0.0 0.0 1.4909871440884324 0.0 1.0786603176809113 0.0 0.0 0.0 0.0 2.648990198850004 0.0 0.6928747661029604 0.0 1.9884194194327416 1:0.0 2:0.8713449835777283 3:0.20602403581142426 4:-0.9785469770431519 5:0.0233934186398983 6:0.7602338790893555 7:0.575493574142456 8:-0.8178063035011292 9:0.1111111119389534 10:0.7134503126144409 11:0.8178061842918396 12:-0.5754938721656799 13:0.1812879741191864 14:0.6491227746009827 15:0.5754932761192322 16:-0.8178065419197083 17:0.2222222238779068 18:0.555555522441864 19:0.8035567998886108 20:-0.5952280759811401 21:0.3391825258731842 22:0.532163679599762 23:0.8902502655982971 24:-0.4554717540740967 25:0.4736870527267456 26:0.4269005358219147 27:0.8624156713485718 28:-0.5062006711959839 29:0.6081882119178772 30:0.3742689788341522 31:0.8209017515182495 32:-0.5710695385932922 33:0.7426893711090088 34:0.23976603150367737 35:0.5332984328269958 36:-0.8459271192550659 37:0.7777777910232544 38:0.10526309162378311 39:0.6794096827507019 40:-0.7337591648101807 41:0.8888888955116272 42:0.08187125623226166 43:0.7848831415176392 44:-0.6196438074111938 45:0.8888888955116272 46:0.017543911933898926 47:-0.640177309513092 48:0.7682271599769592 49:0.8304104208946228 50:0.15204674005508423 51:-0.38176023960113525 52:0.9242613911628723 53:0.7777777910232544 54:0.2865496873855591 55:-0.19201526045799255 56:0.9813918471336365 57:0.7777777910232544 58:0.42105263471603394 59:0.5754930377006531 60:0.8178066611289978 61:0.8888888955116272 62:0.44444456696510315 63:0.5754932761192322 64:0.817806601524353 65:0.8888888955116272 66:0.5789474248886108 67:0.0 68:1.0 69:0.8888888955116272 70:0.7134502530097961 71:0.3100261986255646 72:0.9507279992103577 73:0.9766099452972412 74:0.8479532599449158 75:0.3817601501941681 76:0.9242614507675171 77:1.0 78:0.9824560880661011 79:0.17132879793643951 80:0.9852139353752136 
0.0 0.0 0.21170895802005113 0.0 0.0 0.0 0.0 0.0 0.0 0.0 0.0 0.0 0.0 0.0 1:0.13333332538604736 2:1.0 3:0.0 4:-1.0 5:0.13333332538604736 6:0.9368420839309692 7:0.42700931429862976 8:-0.9042471647262573 9:0.1929829865694046 10:0.8736841678619385 11:0.45764291286468506 12:-0.8891360759735107 13:0.2561401426792145 14:0.698245644569397 15:0.374981164932251 16:-0.927032470703125 17:0.3192993402481079 18:0.5614035129547119 19:0.43273255228996277 20:-0.9015223979949951 21:0.3824564814567566 22:0.4350877106189728 23:0.49942395091056824 24:-0.866357684135437 25:0.4912272095680237 26:0.26315784454345703 27:0.5172601342201233 28:-0.8558281064033508 29:0.575439453125 30:0.11578948050737381 31:0.4199198782444 32:-0.9075612425804138 33:0.6000000238418579 34:0.02807016298174858 35:0.4579474627971649 36:-0.8889793157577515 37:0.6350870728492737 38:0.0 39:0.9986177682876587 40:0.05255912244319916 41:0.6666666865348816 42:0.03157895430922508 43:0.31623372435569763 44:0.9486812949180603 45:0.6666666865348816 46:0.09473685920238495 47:0.19086293876171112 48:0.9816166758537292 49:0.6912271976470947 50:0.1578947752714157 51:0.4121676981449127 52:0.9111080169677734 53:0.7333333492279053 54:0.24210534989833832 55:0.18155121803283691 56:0.983381450176239 57:0.7333333492279053 58:0.38596490025520325 59:0.04391035810112953 60:0.9990354776382446 61:0.7473673820495605 62:0.5614035129547119 63:0.23257377743721008 64:0.972578763961792 65:0.8105265498161316 66:0.7087720036506653 67:0.3002883195877075 68:0.9538484811782837 69:0.8666666746139526 70:0.9403508305549622 71:0.1915096491575241 72:0.9814907312393188 73:0.8666666746139526 74:0.9964912533760071 75:0.0 76:-1.0 77:0.8666666746139526 78:0.9333333373069763 79:0.0 80:-1.0 
0.0 0.0 0.1637477208732837 0.0 0.0 0.0 0.0 0.0 0.0 0.746531038462552 0.0 0.0 0.0 0.0 1:0.0 2:0.9285714626312256 3:0.9986178278923035 4:-0.05255863070487976 5:0.1428571492433548 6:0.9210526943206787 7:0.7415331602096558 8:-0.6709161400794983 9:0.1578935831785202 10:0.7857142686843872 11:0.67091304063797 12:-0.7415359616279602 13:0.2857142984867096 14:0.763157844543457 15:0.7415381669998169 16:-0.670910656452179 17:0.3157893717288971 18:0.6428571939468384 19:0.6709132790565491 20:-0.7415357828140259 21:0.4285714328289032 22:0.6052631139755249 23:0.5144959092140198 24:-0.8574928045272827 25:0.4285714328289032 26:0.45488718152046204 27:0.20749729871749878 28:-0.9782355427742004 29:0.481201171875 30:0.3571428656578064 31:0.6709133386611938 32:-0.7415357828140259 33:0.5714285969734192 34:0.2969924211502075 35:0.741537868976593 36:-0.6709109544754028 37:0.6390969157218933 38:0.2142857164144516 39:0.6709134578704834 40:-0.7415356636047363 41:0.7142857313156128 42:0.13909775018692017 43:0.7415379881858826 44:-0.6709108352661133 45:0.7969927191734314 46:0.0714285671710968 47:0.9877629280090332 48:0.1559630185365677 49:0.8571428656578064 50:0.16165420413017273 51:-0.1543741375207901 52:0.9880124926567078 53:0.7593994140625 54:0.3120301067829132 55:-0.42905670404434204 56:0.9032775163650513 57:0.7142857313156128 58:0.4624061584472656 59:-0.1483432799577713 60:0.9889359474182129 61:0.7142857313156128 62:0.6127821207046509 63:0.0 64:1.0 65:0.7142857313156128 66:0.7631579637527466 67:0.0 68:1.0 69:0.7142857313156128 70:0.9135339260101318 71:0.6332332491874695 72:0.7739610075950623 73:0.8496224284172058 74:0.9285714626312256 75:0.9986178278923035 76:0.05255863815546036 77:1.0 78:0.9285714626312256 79:1.0 80:0.0 
0.0 1.7967102394894179 0.1243025381086966 0.8158509710675088 0.769434338103666 0.5106338998080858 0.025520617003765202 0.4810818187979405 0.6860069717936333 0.126763842416979 0.25277827949997533 1.2802112796490686 0.7401348496267934 0.059136796014719197 1:0.19175641238689423 2:0.7760968208312988 3:-0.8398171663284302 4:0.5428693890571594 5:0.16679224371910095 6:0.7922340035438538 7:-0.787077009677887 8:0.6168546676635742 9:0.06467597186565399 10:0.8756933808326721 11:-0.8001507520675659 12:0.5997989177703857 13:0.009709000587463379 14:0.9099847674369812 15:-0.9871042370796204 16:-0.1600790172815323 17:0.046018362045288086 18:0.872667670249939 19:0.7208324074745178 20:-0.6931094527244568 21:0.18671303987503052 22:0.7397882342338562 23:0.6277138590812683 24:-0.778444230556488 25:0.3715347349643707 26:0.4689863622188568 27:0.47233185172080994 28:-0.8814207911491394 29:0.48045817017555237 30:0.19162899255752563 31:0.35560593008995056 32:-0.9346359968185425 33:0.5424895882606506 34:0.019667204469442368 35:0.32815083861351013 36:-0.9446253776550293 37:0.5470276474952698 38:0.0 39:0.05689492076635361 40:-0.998380184173584 41:0.5434954166412354 42:0.002017138060182333 43:0.052177686244249344 44:0.998637855052948 45:0.5475282669067383 46:0.00958144199103117 47:0.2312639355659485 48:0.972891092300415 49:0.5520663261413574 50:0.03807360678911209 51:0.26608991622924805 52:0.9639482498168945 53:0.6070380210876465 54:0.22516390681266785 55:0.30005794763565063 56:0.9539209604263306 57:0.7096595764160156 58:0.5390818119049072 59:0.3162248432636261 60:0.9486842155456543 61:0.8142974972724915 62:0.8469487428665161 63:0.3717438578605652 64:0.9283353686332703 65:0.8906963467597961 66:0.9911749362945557 67:0.5671612620353699 68:0.8236067891120911 69:0.9196933507919312 70:1.0 71:0.809970498085022 72:-0.5864706039428711 73:0.9902909994125366 74:0.9190620183944702 75:-0.9068209528923035 76:-0.42151594161987305 77:0.8193408846855164 78:0.9533533453941345 79:-0.98046875 80:0.19667477905750275 
0.0 0.0 0.0 0.0 0.0 0.0 0.0 0.0 0.0 0.0 0.0 0.0 5.811077291040035 0.0 1:0.0 2:0.7857142686843872 3:0.9670748114585876 4:-0.2544924020767212 5:0.0714285746216774 6:0.76691734790802 7:0.548026442527771 8:-0.8364609479904175 9:0.0714285746216774 10:0.6766917705535889 11:0.4137965738773346 12:-0.910369336605072 13:0.1278185099363327 14:0.6428571939468384 15:0.5480260848999023 16:-0.8364613056182861 17:0.1428571492433548 18:0.567669153213501 19:0.2544957995414734 20:-0.967073917388916 21:0.16541290283203125 22:0.5 23:0.5480263829231262 24:-0.8364609479904175 25:0.2142857164144516 26:0.45864665508270264 27:0.638019323348999 28:-0.7700204253196716 29:0.2744358479976654 30:0.3684210777282715 31:0.6207029223442078 32:-0.7840458750724792 33:0.3571428656578064 34:0.27819550037384033 35:0.5774621963500977 36:-0.816417396068573 37:0.3834577202796936 38:0.2142857015132904 39:0.8768120408058167 40:-0.4808333218097687 41:0.47368404269218445 42:0.2142857015132904 43:1.0 44:0.0 45:0.5639103651046753 46:0.2142857015132904 47:0.8364620208740234 48:0.5480248332023621 49:0.5827069878578186 50:0.2857142686843872 51:0.6139381527900696 52:0.789354145526886 53:0.6428571343421936 54:0.3157893419265747 55:0.6715173721313477 56:0.7409888505935669 57:0.6917288899421692 58:0.40601497888565063 59:0.6105054020881653 60:0.7920120358467102 61:0.7819541096687317 62:0.49624061584472656 63:0.5503146052360535 64:0.834957480430603 65:0.800751805305481 66:0.5714285373687744 67:0.5677375793457031 68:0.8232095837593079 69:0.8571428656578064 70:0.6052629947662354 71:0.6601160168647766 72:0.75116366147995 73:0.9097747802734375 74:0.695488691329956 75:0.7949507832527161 76:0.6066740155220032 77:1.0 78:0.7142857313156128 79:0.9789801836013794 80:0.2039554864168167 
0.0 0.0 0.0 0.0 0.0 0.0 0.0 0.0 0.0 0.0 0.0 0.0 2.242499288132659 0.0 1:0.0 2:0.7947368621826172 3:0.0 4:-1.0 5:0.0 6:0.6736842393875122 7:0.20600968599319458 8:-0.9785500168800354 9:0.04210510104894638 10:0.5947368144989014 11:0.9001604914665222 12:-0.43555840849876404 13:0.16315917670726776 14:0.5947368144989014 15:0.8823531270027161 16:-0.47058776021003723 17:0.20000000298023224 18:0.5105262994766235 19:0.7926213145256042 20:-0.6097142696380615 21:0.30000001192092896 22:0.4894736707210541 23:0.7371529340744019 24:-0.6757259368896484 25:0.326315313577652 26:0.3947368562221527 27:0.5754935145378113 28:-0.8178063631057739 29:0.4000000059604645 30:0.347368448972702 31:0.6448705196380615 32:-0.7642918825149536 33:0.4684204161167145 34:0.22631579637527466 35:0.3817600607872009 36:-0.9242613911628723 37:0.5 38:0.10526314377784729 39:0.83205646276474 40:-0.5546910762786865 41:0.5 42:0.20526324212551117 43:0.1644023358821869 44:0.9863933324813843 45:0.5315796136856079 46:0.2947368621826172 47:0.5754936337471008 48:0.8178062438964844 49:0.6000000238418579 50:0.347368448972702 51:0.8178061842918396 52:0.5754938125610352 53:0.6736847162246704 54:0.3947368562221527 55:0.5754932165145874 56:0.8178065419197083 57:0.699999988079071 58:0.48947373032569885 59:0.5051775574684143 60:0.8630154728889465 61:0.800000011920929 62:0.610526442527771 63:0.5546966791152954 64:0.8320526480674744 65:0.836840808391571 66:0.6947368383407593 67:0.5754936933517456 68:0.8178062438964844 69:0.8999999761581421 70:0.7526315450668335 71:0.3328259289264679 72:0.9429882168769836 73:0.8999999761581421 74:0.873684287071228 75:0.5754932761192322 76:0.8178064823150635 77:1.0 78:0.8947368860244751 79:0.9785498976707458 80:0.2060101479291916 
1.8753139842986493 0.0 0.0 0.0 0.0 0.0 0.0 0.0 0.0 0.0 0.0 0.0 0.0 0.0 1:0.0 2:0.7224880456924438 3:0.9785496592521667 4:-0.20601105690002441 5:0.09090909361839294 6:0.703349232673645 7:0.8178060054779053 8:-0.5754939913749695 9:0.1291864514350891 10:0.6315789222717285 11:0.575493335723877 12:-0.8178064823150635 13:0.1818181872367859 14:0.5741626024246216 15:0.8178060054779053 16:-0.5754939913749695 17:0.2583729028701782 18:0.5406697988510132 19:0.8320517539978027 20:-0.5546979904174805 21:0.3684220612049103 22:0.4497607350349426 23:0.8630148768424988 24:-0.5051785707473755 25:0.4545454680919647 26:0.42583727836608887 27:0.8178061246871948 28:-0.5754937529563904 29:0.4976085424423218 30:0.3588516414165497 31:0.7642902731895447 32:-0.6448723673820496 33:0.6076549291610718 34:0.2966506779193878 35:0.7875028252601624 36:-0.6163110733032227 37:0.7177026867866516 38:0.18660280108451843 39:0.7071068286895752 40:-0.7071068286895752 41:0.8086118102073669 42:0.09569379687309265 43:0.894432008266449 44:0.4472041428089142 45:0.7559814453125 46:0.20574167370796204 47:0.043440066277980804 48:0.9990560412406921 49:0.8181818127632141 50:0.31578943133354187 51:0.2719547152519226 52:0.9623100161552429 53:0.8181818127632141 54:0.42583727836608887 55:0.5407592058181763 56:0.8411774039268494 57:0.9043065905570984 58:0.4497607350349426 59:0.5754930973052979 60:0.817806601524353 61:0.9090909361839294 62:0.5550240278244019 63:0.022215144708752632 64:0.9997531771659851 65:0.9090909361839294 66:0.6650717258453369 67:0.2998272478580475 68:0.9539934992790222 69:0.9617226123809814 70:0.7224880456924438 71:0.5754928588867188 72:0.8178068399429321 73:1.0 74:0.7942584753036499 75:0.2060099095106125 76:0.9785499572753906 77:1.0 78:0.904306173324585 79:0.0 80:1.0 
2.8736879649196663 3.6241101211768982 1.6180146068714403 1.9634314912130695 2.366045427574999 1.34398011625413 3.23449429413932 2.131945687940265 4.066767954231319 1.297390739288469 1.7915004407805126 1.1231835768837837 6.046415643463577 4.427780695758131 1:0.0 2:0.7396901845932007 3:0.685388445854187 4:-0.7281777262687683 5:0.2043745070695877 6:0.5225564241409302 7:0.7151967883110046 8:-0.6989231705665588 9:0.3804965913295746 10:0.3678514361381531 11:0.7383979558944702 12:-0.6743651628494263 13:0.4960126280784607 14:0.25620871782302856 15:0.6986446976661682 16:-0.7154688835144043 17:0.5602641701698303 18:0.1837548464536667 19:0.6845229268074036 20:-0.7289914488792419 21:0.5942128896713257 22:0.15162909030914307 23:0.7808688282966614 24:-0.6246950030326843 25:0.6012758016586304 26:0.1509455442428589 27:0.5681929588317871 28:0.8228954076766968 29:0.6008203029632568 30:0.16119839251041412 31:0.34088221192359924 32:0.9401060342788696 33:0.6229211091995239 34:0.2106403112411499 35:0.44928407669067383 36:0.8933889269828796 37:0.6798816919326782 38:0.3184097707271576 39:0.5075936317443848 40:0.8615965843200684 41:0.7637273669242859 42:0.44964683055877686 43:0.5196671485900879 44:0.8543688654899597 45:0.8411939144134521 46:0.5836182832717896 47:0.5337799191474915 48:0.8456234931945801 49:0.9138754606246948 50:0.687514066696167 51:0.5719152092933655 52:0.8203127980232239 53:0.9712918400764465 54:0.7702211141586304 55:0.49285832047462463 56:0.8701096177101135 57:0.9876962900161743 58:0.8178399801254272 59:0.25957468152046204 60:0.9657229781150818 61:0.9924812912940979 62:0.8490544557571411 63:0.2544991075992584 64:0.9670730233192444 65:0.9956709742546082 66:0.8481430411338806 67:0.6757234334945679 68:-0.7371553182601929 69:1.0 70:0.8408522009849548 71:0.14142189919948578 72:-0.9899494647979736 73:1.0 74:0.8178399801254272 75:-0.10613909363746643 76:-0.9943512678146362 77:0.9956709742546082 78:0.8002962470054626 79:-0.23957043886184692 80:-0.9708789587020874 
-4.878598660296176 1.4693877812719562 0.0 2.7015631387155583 6.135416676339308 2.4574813683971413 6.790540228042336 0.49766364068504537 3.25012663114327 2.0454273839259005 1.0317865178516943 0.8777153021667528 3.0448695710377347 11.051141846868578 1:0.21875 2:0.0625 3:0.9945054650306702 4:-0.1046847403049469 5:0.28125 6:0.055921055376529694 7:0.7709575891494751 8:-0.636886477470398 9:0.2944068908691406 10:0.0 11:0.8269277215003967 12:-0.562308132648468 13:0.36348724365234375 14:0.0 15:1.0 16:0.0 17:0.43256568908691406 18:0.0 19:0.9544796347618103 20:0.2982759475708008 21:0.46875 22:0.03289473056793213 23:0.5958516597747803 24:0.8030945658683777 25:0.5082244873046875 26:0.10197365283966064 27:0.6178227066993713 28:0.7863174676895142 29:0.5773029327392578 30:0.17105260491371155 31:0.5263510346412659 32:0.8502674102783203 33:0.59375 34:0.24013155698776245 35:0.4803191125392914 36:0.8770938515663147 37:0.6529617309570312 38:0.30921047925949097 39:0.6709132790565491 40:0.7415357828140259 41:0.71875 42:0.37828946113586426 43:0.42992714047431946 44:0.902863621711731 45:0.71875 46:0.4473683834075928 47:0.1182107925415039 48:0.9929884672164917 49:0.7351970672607422 50:0.5164473056793213 51:0.41216784715652466 52:0.9111078977584839 53:0.78125 54:0.5855262875556946 55:0.31622961163520813 56:0.9486826658248901 57:0.78125 58:0.6546052098274231 59:0.0 60:1.0 61:0.78125 62:0.7236841917037964 63:0.0 64:1.0 65:0.78125 66:0.7927631139755249 67:0.0 68:1.0 69:0.78125 70:0.8618420362472534 71:-0.3751957416534424 72:0.9269455075263977 73:0.7253284454345703 74:0.9309209585189819 75:-0.41216766834259033 76:0.9111079573631287 77:0.71875 78:1.0 79:-0.09480179101228714 80:0.9954961538314819 
-2.076197598063947 3.8019962853965943 0.0 1.2122788461491638 1.8742396367594272 5.422199215897646 2.05537955167404 2.487883556846218 5.325283839494433 2.3754660106130103 3.649466620847416 3.6357523004251546 1.5887427956513567 3.9229921520499658 1:0.5665513277053833 2:0.018427113071084023 3:-0.7533999681472778 4:-0.6575625538825989 5:0.5575029850006104 6:0.010529778897762299 7:-0.7609499096870422 8:-0.6488105058670044 9:0.5509212017059326 10:0.0051003615371882915 11:-0.5300378203392029 12:-0.8479740023612976 13:0.5509212017059326 14:0.0 15:0.43383389711380005 16:0.9009928703308105 17:0.5573381185531616 18:0.018427113071084023 19:0.3573465943336487 20:0.9339718222618103 21:0.5798781514167786 22:0.07568275183439255 23:0.33570724725723267 24:0.9419663548469543 25:0.6132768988609314 26:0.17538663744926453 27:0.1926080286502838 28:0.9812757968902588 29:0.6233136653900146 30:0.29697269201278687 31:-0.028174476698040962 32:0.9996030926704407 33:0.6060380339622498 34:0.43221452832221985 35:-0.16865016520023346 36:0.9856759905815125 37:0.5767521262168884 38:0.5691016316413879 39:-0.22392074763774872 40:0.9746074080467224 41:0.5430237054824829 42:0.7064822316169739 43:-0.2920912802219391 44:0.9563904404640198 45:0.49037501215934753 46:0.8519250154495239 47:-0.43554210662841797 48:0.9001683592796326 49:0.434600293636322 50:0.9305692315101624 51:-0.5732520818710327 52:0.8193790316581726 53:0.4007070064544678 54:0.9800921678543091 55:-0.6342840194702148 56:0.7731000781059265 57:0.38573548197746277 58:0.9901283383369446 59:-0.775479257106781 60:0.6313729882240295 61:0.3821156620979309 62:0.9952287077903748 63:-0.6900884509086609 64:0.7237250208854675 65:0.37898963689804077 66:0.99720299243927 67:-0.7511605024337769 68:0.6601197123527527 69:0.37668633460998535 70:1.0 71:0.6013626456260681 72:-0.7989762425422668 73:0.39050617814064026 74:0.981902003288269 75:0.6466487646102905 76:-0.762787938117981 77:0.4508883059024811 78:0.9124712347984314 79:0.6562254428863525 80:-0.7545649409294128 
-0.0 0.3055873412526483 0.0 0.0 0.0 0.0 0.0 0.0 3.0157708318714125 1.1693777065573574 0.0 0.007586692055621176 0.01753066506083964 0.0 1:0.4830162227153778 2:0.0 3:0.600000262260437 4:0.7999997735023499 5:0.5300487279891968 6:0.06270996481180191 7:0.5618836879730225 8:0.8272162079811096 9:0.5770813226699829 10:0.13848449289798737 11:0.52789705991745 12:0.8493083715438843 13:0.6312060952186584 14:0.22545723617076874 15:0.5003089308738708 16:0.8658469915390015 17:0.6782386302947998 18:0.31354981660842896 19:0.3771819770336151 20:0.9261391758918762 21:0.7107127904891968 22:0.42067936062812805 23:0.24455977976322174 24:0.9696342349052429 25:0.7312431335449219 26:0.52370285987854 27:0.08319845050573349 28:0.9965329766273499 29:0.72788405418396 30:0.6263530254364014 31:-0.12123602628707886 32:0.9926236867904663 33:0.7073537111282349 34:0.719298243522644 35:-0.33416587114334106 36:0.9425142407417297 37:0.669653058052063 38:0.7905934453010559 39:-0.5454564094543457 40:0.8381392359733582 41:0.6155282855033875 42:0.8603956699371338 43:-0.6871009469032288 44:0.7265619039535522 45:0.5591638684272766 46:0.9074281454086304 47:-0.8025601506233215 48:0.5965712070465088 49:0.5035465359687805 50:0.9436356425285339 51:-0.8877128958702087 52:0.4603974521160126 53:0.43896961212158203 54:0.9697648882865906 55:-0.9589802026748657 56:0.2834729254245758 57:0.38484570384025574 58:0.978723406791687 59:-0.9876444339752197 60:0.15671148896217346 61:0.337813138961792 62:0.9858155846595764 63:-0.9861571192741394 64:0.16581372916698456 65:0.30048561096191406 66:0.9929078221321106 67:-0.9934353828430176 68:0.11439468711614609 69:0.2762221693992615 70:0.9929078221321106 71:-1.0 72:0.0 73:0.26875683665275574 74:0.9929078221321106 75:0.9073159098625183 76:0.4204494059085846 77:0.2915268540382385 78:1.0 79:0.9547595381736755 80:0.2973789870738983 
-0.0 1.6533143049960546 0.0 0.0 0.0 0.0 0.0 0.0 2.702772397997679 0.0 0.0 0.0 0.0 0.0 1:0.4051074683666229 2:0.0 3:0.6334836483001709 4:0.7737560868263245 5:0.43115636706352234 6:0.031816914677619934 7:0.6423914432525635 8:0.7663766741752625 9:0.47162532806396484 10:0.07935618609189987 11:0.6950107216835022 12:0.718999445438385 13:0.5281887054443359 14:0.13219837844371796 15:0.7131330966949463 16:0.7010286450386047 17:0.5921945571899414 18:0.1978789120912552 19:0.6275786757469177 20:0.7785531282424927 21:0.6465251445770264 22:0.2790026068687439 23:0.49740421772003174 24:0.8675189018249512 25:0.6867151260375977 26:0.3627315163612366 27:0.3199574649333954 28:0.9474318623542786 29:0.706344723701477 30:0.45613545179367065 31:0.09105091542005539 32:0.9958462715148926 33:0.7044841051101685 34:0.5570752024650574 35:-0.10884485393762589 36:0.9940586686134338 37:0.6839240789413452 38:0.6608988046646118 39:-0.2988843023777008 40:0.9542893171310425 41:0.6446645259857178 42:0.7480694651603699 43:-0.49608486890792847 44:0.8682740926742554 45:0.5926597118377686 46:0.8206345438957214 47:-0.6321439743041992 48:0.7748509049415588 49:0.5391663312911987 50:0.8773839473724365 51:-0.7267602682113647 52:0.6868912577629089 53:0.4892081618309021 54:0.9184108972549438 55:-0.8181164860725403 56:0.5750525593757629 57:0.43645918369293213 58:0.9495766162872314 59:-0.8787761330604553 60:0.4772341251373291 61:0.3865942060947418 62:0.9741371273994446 63:-0.921199381351471 64:0.38909077644348145 65:0.33998504281044006 66:0.9903247952461243 67:-0.9506728053092957 68:0.3101956248283386 69:0.3073309063911438 70:1.0 71:-0.9920933842658997 72:0.12550173699855804 73:0.29365527629852295 74:0.9961856007575989 75:-0.5477555394172668 76:-0.8366384506225586 77:0.29374825954437256 78:0.9792539477348328 79:0.005491598974913359 80:-0.9999849200248718 
-0.0 0.0 23.158412511142586 0.0 0.0 0.0 0.0 0.0 0.0 0.0 0.0 0.0 0.0 0.0 1:0.28856396675109863 2:0.0 3:0.7405598759651184 4:0.6719903945922852 5:0.35873931646347046 6:0.06367771327495575 7:0.7398792505264282 8:0.6727397441864014 9:0.4303445816040039 10:0.12891489267349243 11:0.7337722778320312 12:0.6793954968452454 13:0.5148148536682129 14:0.20818714797496796 15:0.7213412523269653 16:0.6925798058509827 17:0.5933074951171875 18:0.28538012504577637 19:0.6734581589698792 20:0.7392253279685974 21:0.6478883028030396 22:0.3542560040950775 23:0.5810924172401428 24:0.8138375282287598 25:0.6919427514076233 26:0.4235217869281769 27:0.41469699144363403 28:0.9099595546722412 29:0.7114360332489014 30:0.49369725584983826 31:0.10486201196908951 32:0.9944868087768555 33:0.7080572843551636 34:0.5763482451438904 35:-0.21780653297901154 36:0.97599196434021 37:0.67037034034729 38:0.6777127981185913 39:-0.41529297828674316 40:0.9096876978874207 41:0.6261857748031616 42:0.7556855082511902 43:-0.5819928050041199 44:0.8131939768791199 45:0.5755033493041992 46:0.8102664351463318 47:-0.7043279409408569 48:0.7098748087882996 49:0.5271605253219604 50:0.8554906249046326 51:-0.7487605810165405 52:0.6628405451774597 53:0.4803771376609802 54:0.8944769501686096 55:-0.7682214975357056 56:0.6401841640472412 57:0.4390513300895691 58:0.9289149045944214 59:-0.7682229280471802 60:0.640182375907898 61:0.4000647962093353 62:0.9614035487174988 63:-0.8362033367156982 64:0.5484195947647095 65:0.35899943113327026 66:0.9814165234565735 67:-0.9131001234054565 68:0.40773555636405945 69:0.3174135386943817 70:0.9983106255531311 71:-0.9475600719451904 72:0.31957772374153137 73:0.30389872193336487 74:1.0 75:-0.997513473033905 76:0.07047604769468307 77:0.29350224137306213 78:1.0 79:-1.0 80:0.0 
-0.5864166868532794 0.0 6.995335351902691 0.0 0.0 0.0 0.0 0.0 0.0 0.0 0.0 0.0 0.0 0.0 1:0.20262253284454346 2:0.0 3:0.9701436758041382 4:0.2425309717655182 5:0.23626022040843964 6:0.008409250527620316 7:0.9460392594337463 8:0.3240519165992737 9:0.2824100852012634 10:0.0273300614207983 11:0.9020214676856995 12:0.4316912889480591 13:0.34608006477355957 14:0.060967057943344116 15:0.8516583442687988 16:0.5240973234176636 17:0.4307733178138733 18:0.11863049119710922 19:0.7787546515464783 20:0.6273285746574402 21:0.5298826694488525 22:0.2090298980474472 23:0.6541773080825806 24:0.7563411593437195 25:0.6596243381500244 26:0.3832215368747711 27:0.5906842947006226 28:0.8069027662277222 29:0.7421146035194397 30:0.4989488124847412 31:0.5619073510169983 32:0.827200174331665 33:0.7961756587028503 34:0.5842427015304565 35:0.3313237726688385 36:0.9435171484947205 37:0.7973774671554565 38:0.6563219428062439 39:-0.11272311210632324 40:0.9936264753341675 41:0.7799577116966248 42:0.727199912071228 43:-0.35549893975257874 44:0.9346766471862793 45:0.7439182996749878 46:0.7968766093254089 47:-0.5770514011383057 48:0.8167077898979187 49:0.7001701593399048 50:0.8401241898536682 51:-0.7235217094421387 52:0.6903016567230225 53:0.6545199155807495 54:0.8821703195571899 55:-0.7348071336746216 56:0.6782761216163635 57:0.6064661145210266 58:0.926619291305542 59:-0.7574485540390015 60:0.6528948545455933 61:0.5566123723983765 62:0.9665632843971252 63:-0.7896707057952881 64:0.6135309338569641 65:0.5135644674301147 66:0.9987987875938416 67:-0.8262950778007507 68:0.5632374286651611 69:0.5075591802597046 70:1.0 71:-0.9938812255859375 72:-0.11045382916927338 73:0.5036546587944031 74:0.9976974725723267 75:-0.6637816429138184 76:-0.7479264140129089 77:0.5012510418891907 78:0.9928922057151794 79:-0.44736000895500183 80:-0.8943539261817932 
-0.0 0.0 17.547344776676855 0.0 0.0 0.0 0.0 0.0 7.673368240229667 0.0 0.0 0.0 0.0 0.0 1:0.3125 2:0.0 3:1.0 4:0.0 5:0.33223724365234375 6:0.0 7:1.0 8:0.0 9:0.3519744873046875 10:0.0 11:1.0 12:0.0 13:0.3717104494571686 14:0.0 15:1.0 16:0.0 17:0.3914477229118347 18:0.0 19:0.8360515236854553 20:0.5486509203910828 21:0.44188690185546875 22:0.046052634716033936 23:0.7213848233222961 24:0.6925343871116638 25:0.5010960698127747 26:0.10526317358016968 27:0.6689603924751282 28:0.7432981133460999 29:0.5603065490722656 30:0.17763157188892365 31:0.61630779504776 32:0.7875053882598877 33:0.6195169687271118 34:0.2565789520740509 35:0.4961448907852173 36:0.86823970079422 37:0.65679931640625 38:0.3464912176132202 39:0.2893871068954468 40:0.9572120904922485 41:0.6765339970588684 42:0.445175439119339 43:0.1537017524242401 44:0.9881172776222229 45:0.6875 46:0.5438596606254578 47:0.05547550693154335 48:0.998460054397583 49:0.6875 50:0.6425439119338989 51:-0.034462761133909225 52:0.9994059801101685 53:0.6809209585189819 54:0.7346491813659668 55:-0.15206003189086914 56:0.9883713126182556 57:0.6611837148666382 58:0.8135964870452881 59:-0.2821618616580963 60:0.9593667984008789 61:0.6370620727539062 62:0.8837719559669495 63:-0.5017157196998596 64:0.8650324940681458 65:0.5975875854492188 66:0.9232456684112549 67:-0.7071122527122498 68:0.7071012258529663 69:0.5603065490722656 70:0.9605262875556946 71:-0.707103431224823 72:0.7071101069450378 73:0.5405706167221069 74:0.9802631735801697 75:-0.7071019411087036 76:0.7071115970611572 77:0.5208333730697632 78:1.0 79:-0.7071142792701721 80:0.7070993185043335 
-0.0 0.0 0.0 0.0 0.9741913490478662 0.0 0.0 0.0 2.970923331793256 0.010893057359294927 0.0 0.0 0.0 11.852435885685816 1:0.3233031630516052 2:0.01665205880999565 3:0.11042759567499161 4:-0.9938841462135315 5:0.32466644048690796 6:0.0043821209110319614 7:0.5375118851661682 8:-0.8432562351226807 9:0.3339175879955292 10:0.0 11:0.9974108934402466 12:0.0719132199883461 13:0.35573095083236694 14:0.0066218688152730465 15:0.9067468047142029 16:0.42167553305625916 17:0.39799439907073975 18:0.029798422008752823 19:0.8159000873565674 20:0.5781930088996887 21:0.4693736433982849 22:0.08715551346540451 23:0.7629746794700623 24:0.6464283466339111 25:0.5484474897384644 26:0.1572694182395935 27:0.703353762626648 28:0.7108399271965027 29:0.6248904466629028 30:0.244327574968338 31:0.5241175889968872 32:0.8516458868980408 33:0.6766968965530396 34:0.36566364765167236 35:0.16772085428237915 36:0.985834538936615 37:0.6759181022644043 38:0.5442594289779663 39:-0.05182063207030296 40:0.9986563920974731 41:0.6609210968017578 42:0.6696854829788208 43:-0.21818102896213531 44:0.9759083390235901 45:0.6326807737350464 46:0.7376569509506226 47:-0.5246501564979553 48:0.8513178825378418 49:0.5576977133750916 50:0.8371797800064087 51:-0.6429474949836731 52:0.7659102082252502 53:0.488071084022522 54:0.9099230170249939 55:-0.715976893901825 56:0.6981240510940552 57:0.4327593743801117 58:0.9590027928352356 59:-0.7753378748893738 60:0.631546676158905 61:0.3956572413444519 62:0.9851981401443481 63:-0.842988908290863 64:0.5379310250282288 65:0.372480571269989 66:0.997468113899231 67:-0.9063278436660767 68:0.4225752353668213 69:0.36391061544418335 70:1.0 71:-0.9995998740196228 72:-0.0282879751175642 73:0.3621579706668854 74:0.9971759915351868 75:-0.2071470022201538 76:-0.9783098101615906 77:0.3621579706668854 78:0.9917226433753967 79:0.0 80:-1.0 
-0.0 1.159005976319828 0.0 2.7122007594680357 8.745826314588031 1.2326566970230224 0.0 3.26536511449439 0.0 0.0 0.0 2.5372447061089454 0.0 0.0 1:0.40909090638160706 2:0.0 3:0.0499483123421669 4:0.9987517595291138 5:0.4114837646484375 6:0.04784689098596573 7:0.46484124660491943 8:0.8853940367698669 9:0.4593311548233032 10:0.09569378197193146 11:0.6790398955345154 12:0.7341014742851257 13:0.5 14:0.14354068040847778 15:0.46482113003730774 16:0.8854045867919922 17:0.5095686316490173 18:0.19138756394386292 19:0.42905697226524353 20:0.9032773971557617 21:0.5454545617103577 22:0.23923444747924805 23:0.31002646684646606 24:0.9507279396057129 25:0.5454545617103577 26:0.3014354407787323 27:0.0 28:1.0 29:0.5454545617103577 30:0.38038280606269836 31:0.1300332248210907 32:0.9915096163749695 33:0.5645931959152222 34:0.44736844301223755 35:0.26910465955734253 36:0.9631109237670898 37:0.5909091234207153 38:0.5430622100830078 39:0.1362190544605255 40:0.9906787276268005 41:0.5909091234207153 42:0.6387559771537781 43:0.0 44:1.0 45:0.5909091234207153 46:0.7081339955329895 47:0.0 48:1.0 49:0.5909091234207153 50:0.755980908870697 51:0.0 52:1.0 53:0.5909091234207153 54:0.8038278222084045 55:0.0 56:1.0 57:0.5909091234207153 58:0.8516746759414673 59:-0.351118266582489 60:0.9363310933113098 61:0.5550245642662048 62:0.8995215892791748 63:-0.42905697226524353 64:0.9032773971557617 65:0.5454545617103577 66:0.9473684430122375 67:-0.6742770671844482 68:0.7384784817695618 69:0.504784345626831 70:0.9545454382896423 71:-0.6709136962890625 72:0.741535484790802 73:0.5 74:0.9976076483726501 75:-0.7415334582328796 76:0.6709158420562744 77:0.45454543828964233 78:1.0 79:-0.9986177682876587 80:0.05255896598100662 
-0.0 0.0 0.0 0.0 0.0 0.0 0.0 0.0 17.297231484918488 0.0 0.0 0.0 0.012410508241195653 0.0 1:0.18129968643188477 2:0.004734237212687731 3:0.9958932399749756 4:-0.09053593128919601 5:0.23337619006633759 6:0.0 7:0.99932461977005 8:0.03674647584557533 9:0.30126953125 10:0.009145685471594334 11:0.9549515247344971 12:0.2967621088027954 13:0.4113406836986542 14:0.055304501205682755 15:0.8815203309059143 16:0.4721461534500122 17:0.5097908973693848 18:0.12083064019680023 19:0.7861299514770508 20:0.6180613040924072 21:0.5985580682754517 22:0.2024962157011032 23:0.67586350440979 24:0.7370268106460571 25:0.6524637937545776 26:0.2764149308204651 27:0.5439632534980774 28:0.8391090631484985 29:0.7008823156356812 30:0.3603399693965912 31:0.38634514808654785 32:0.9223542809486389 33:0.7718958258628845 34:0.5615450739860535 35:0.31276264786720276 36:0.9498313069343567 37:0.8175164461135864 38:0.7145470380783081 39:0.2066093236207962 40:0.978423535823822 41:0.8187003135681152 42:0.7831934094429016 43:-0.0674864873290062 44:0.9977202415466309 45:0.8085864782333374 46:0.846567690372467 47:-0.21080763638019562 48:0.9775275588035583 49:0.7920162081718445 50:0.9069291949272156 51:-0.37419822812080383 52:0.9273487329483032 53:0.7689905166625977 54:0.9446955323219299 55:-0.5564825534820557 56:0.830859363079071 57:0.7455346584320068 58:0.9763287305831909 59:-0.7079347372055054 60:0.7062778472900391 61:0.7230470180511475 62:0.9905315041542053 63:-0.8695486187934875 64:0.4938473701477051 65:0.7059392333030701 66:0.9988163709640503 67:-0.9464581608772278 68:0.3228263854980469 69:0.6952874064445496 70:1.0 71:-0.9771764278411865 72:-0.21242955327033997 73:0.68119215965271 74:0.9934365749359131 75:-0.8785088062286377 76:-0.4777263104915619 77:0.6658058166503906 78:0.9839681386947632 79:-0.8516603112220764 80:-0.5240941047668457 
-0.0 0.0 0.0 0.0 1.354133537930915 0.24849027873524204 0.4853690030259577 0.6618489133814898 0.0 0.0 0.402562425119836 0.0 0.0 0.0 1:0.4357204735279083 2:0.0 3:0.9968981146812439 4:0.07870256155729294 5:0.4685073494911194 6:0.0025884401984512806 7:0.9157881736755371 8:0.40166154503822327 9:0.4849008023738861 10:0.021570323035120964 11:0.4061408042907715 12:0.9138104915618896 13:0.4926662743091583 14:0.056945644319057465 15:0.3131971061229706 16:0.949688196182251 17:0.5116481781005859 18:0.10267473757266998 19:0.3713892102241516 20:0.9284772872924805 21:0.5340811014175415 22:0.16048318147659302 23:0.2646087110042572 24:0.9643558859825134 25:0.5504745841026306 26:0.2441760152578354 27:0.19611679017543793 28:0.9805805683135986 29:0.5685937404632568 30:0.3330457806587219 31:0.17326515913009644 32:0.9848751425743103 33:0.5832614898681641 34:0.43054360151290894 35:0.0746804028749466 36:0.997207522392273 37:0.5832614898681641 38:0.5289042592048645 39:-0.09504538029432297 40:0.9954729676246643 41:0.566868007183075 42:0.6022433638572693 43:-0.2425362467765808 44:0.9701424241065979 45:0.53839510679245 46:0.7083693146705627 47:-0.2767148017883301 48:0.9609520435333252 49:0.5194131731987 50:0.7670405507087708 51:-0.31187185645103455 52:0.9501241445541382 53:0.5012942552566528 54:0.8213978409767151 55:-0.29037436842918396 56:0.9569131731987 57:0.48144930601119995 58:0.8921484351158142 59:-0.31002092361450195 60:0.9507297277450562 61:0.46246764063835144 62:0.9404659867286682 63:-0.47948384284973145 64:0.8775507211685181 65:0.4357204735279083 66:0.9758412837982178 67:-0.6216579675674438 68:0.7832888960838318 69:0.4193270206451416 70:0.994823157787323 71:-0.6178233027458191 72:0.786316990852356 73:0.4167385399341583 74:1.0 75:0.8253070712089539 76:-0.5646842122077942 77:0.4357204735279083 78:0.9836065769195557 79:0.7568243145942688 80:-0.6536183953285217 
-0.0 0.08572746711687025 3.101694470035215 1.2396510168987882 0.15547387064187052 2.7484717790975854 7.50211001716124 1.6555739321823182 0.0 0.6230332510399529 1.6468433897599177 1.3309934230452942 0.0 3.381460217983113 1:0.43796712160110474 2:0.0 3:0.7840902209281921 4:0.6206468343734741 5:0.4938242435455322 6:0.04421371966600418 7:0.7959786057472229 8:0.6053246855735779 9:0.569349467754364 10:0.09991345554590225 11:0.7464917302131653 12:0.66539466381073 13:0.6386594772338867 14:0.1733143925666809 15:0.5769016146659851 16:0.816813588142395 17:0.6834238767623901 18:0.2614271640777588 19:0.35756421089172363 20:0.9338885545730591 21:0.7079694867134094 22:0.35433873534202576 23:0.16446946561336517 24:0.9863821864128113 25:0.713004469871521 26:0.438832551240921 27:-0.035136640071868896 28:0.999382495880127 29:0.7017543315887451 30:0.5311148166656494 31:-0.20611335337162018 32:0.9785281419754028 33:0.6734325289726257 34:0.626701295375824 35:-0.3540422022342682 36:0.935229480266571 37:0.6317363381385803 38:0.716072678565979 39:-0.5285975337028503 40:0.8488725423812866 41:0.5720242261886597 42:0.7895524501800537 43:-0.7298205494880676 44:0.6836387515068054 45:0.4862717390060425 46:0.8523325324058533 47:-0.8340980410575867 48:0.5516161322593689 49:0.3950122594833374 50:0.9066162109375 51:-0.8501418232917786 52:0.526553750038147 53:0.33600813150405884 54:0.9454015493392944 55:-0.8274414539337158 56:0.5615520477294922 57:0.30099913477897644 58:0.9704192280769348 59:-0.7806225419044495 60:0.6250027418136597 61:0.2870742678642273 62:0.9845802783966064 63:-0.5893506407737732 64:0.8078773021697998 65:0.286995530128479 66:0.989615261554718 67:0.14451977610588074 68:0.9895018339157104 69:0.28809690475463867 70:0.9915820956230164 71:0.7126486897468567 72:0.701521098613739 73:0.2920305132865906 74:0.9945716261863708 75:0.6828068494796753 76:0.7305989861488342 77:0.29596415162086487 78:1.0 79:0.5867785811424255 80:0.8097473978996277 
-0.0 0.0 0.9759193965709742 0.0 6.181539253868256 0.0 0.0 0.0 1.1560740391545261 0.0 0.0 2.2659199215804033 0.0 0.0 1:0.4221600294113159 2:0.06470690667629242 3:0.3552176058292389 4:-0.9347836375236511 5:0.4353797137737274 6:0.02991824597120285 7:0.20016632974147797 8:-0.9797619581222534 9:0.4353797137737274 10:0.0 11:0.367674320936203 12:-0.9299545884132385 13:0.4412940740585327 14:0.014959120191633701 15:0.5434249639511108 16:0.8394577503204346 17:0.48199719190597534 18:0.0720125213265419 19:0.581356406211853 20:0.8136489391326904 21:0.5183497667312622 22:0.1228039488196373 23:0.5722412467002869 24:0.820085346698761 25:0.5587059259414673 26:0.18194466829299927 27:0.5394002199172974 28:0.8420495390892029 29:0.5952327847480774 30:0.24282486736774445 31:0.5330924391746521 32:0.8460569977760315 33:0.6446323394775391 34:0.3183162212371826 35:0.47615954279899597 36:0.8793588876724243 37:0.6769876480102539 38:0.393807590007782 39:0.3162305951118469 40:0.9486823678016663 41:0.7027299404144287 42:0.4926072955131531 43:0.1551240086555481 44:0.9878950119018555 45:0.7100368738174438 46:0.6042789816856384 47:-0.058771368116140366 48:0.9982714653015137 49:0.6915984153747559 50:0.6816837787628174 51:-0.36988210678100586 52:0.9290786981582642 53:0.6512438058853149 54:0.7519568204879761 55:-0.5750189423561096 56:0.8181400895118713 57:0.5969740152359009 58:0.8163158893585205 59:-0.6557509899139404 60:0.7549771666526794 61:0.5454862713813782 62:0.8737172484397888 63:-0.7641482353210449 64:0.6450406908988953 65:0.47086405754089355 66:0.9227691292762756 67:-0.8708184957504272 68:0.491604745388031 69:0.40128642320632935 70:0.9551226496696472 71:-0.9170332551002502 72:0.3988107442855835 73:0.3372745215892792 74:0.9808661937713623 75:-0.9274734258651733 76:0.37388893961906433 77:0.28996312618255615 78:1.0 79:-0.9270561337471008 80:0.37492260336875916 
-0.0 0.0 0.0 0.514356106116704 0.0 0.0 0.0 0.0 7.050569607795264 0.0 0.0 0.0 0.0 0.0 1:0.3035714328289032 2:0.0 3:1.0 4:0.0 5:0.35432326793670654 6:0.0 7:1.0 8:0.0 9:0.4050750732421875 10:0.0 11:1.0 12:0.0 13:0.45582690834999084 14:0.0 15:0.9532307982444763 16:0.30224335193634033 17:0.4821428656578064 18:0.02443608269095421 19:0.8574924468994141 20:0.5144965648651123 21:0.5216162204742432 22:0.03947367146611214 23:0.7355449795722961 24:0.6774759888648987 25:0.5535714030265808 26:0.09022556245326996 27:0.30028843879699707 28:0.9538484811782837 29:0.5535714030265808 30:0.1409774124622345 31:0.4338121712207794 32:0.901003360748291 33:0.6024430990219116 34:0.19172930717468262 35:0.4719744026660919 36:0.881612241268158 37:0.6531955003738403 38:0.32706764340400696 39:0.2602766752243042 40:0.9655340909957886 41:0.6607142686843872 42:0.40789467096328735 43:0.18498584628105164 44:0.9827411770820618 45:0.6832705736160278 46:0.4868420958518982 47:0.20877841114997864 48:0.9779629707336426 49:0.6964285373687744 50:0.5751879811286926 51:0.07586806267499924 52:0.997117817401886 53:0.6964285373687744 54:0.6597744226455688 55:0.0 56:1.0 57:0.6964285373687744 58:0.7424811124801636 59:0.0 60:1.0 61:0.6964285373687744 62:0.7969924211502075 63:0.0 64:1.0 65:0.6964285373687744 66:0.847744345664978 67:-0.3600761890411377 68:0.932922899723053 69:0.6550750732421875 70:0.9041352868080139 71:-0.4617350399494171 72:0.8870178461074829 73:0.625 74:0.9849624037742615 75:-0.5658414959907532 76:0.8245140314102173 77:0.5892857313156128 78:1.0 79:-0.9216352105140686 80:0.3880571722984314 
-0.0 0.0 0.0 0.0 0.4637581672361788 0.0 0.0 0.0 0.0 0.0 0.0 0.0 0.0 0.0 1:0.3695652186870575 2:0.0 3:1.0 4:0.0 5:0.43363887071609497 6:0.0 7:0.9037378430366516 8:0.4280862808227539 9:0.45652174949645996 10:0.04118993133306503 11:0.7318918704986572 12:0.6814208626747131 13:0.5 14:0.06178488954901695 15:0.8741564154624939 16:0.48564448952674866 17:0.5389012694358826 18:0.08695652335882187 19:0.5749459266662598 20:0.818191409111023 21:0.5594966411590576 22:0.1464530974626541 23:0.3624483346939087 24:0.9320038557052612 25:0.5869565010070801 26:0.21052630245685577 27:0.3060106933116913 28:0.9520280957221985 29:0.60068678855896 30:0.27459952235221863 31:0.3212962746620178 32:0.946978747844696 33:0.6304347515106201 34:0.3386727571487427 35:0.22612738609313965 36:0.9740977883338928 37:0.6304347515106201 38:0.4027459919452667 39:0.0 40:1.0 41:0.6304347515106201 42:0.46681922674179077 43:0.0 44:1.0 45:0.6304347515106201 46:0.5308924317359924 47:0.0 48:1.0 49:0.6304347515106201 50:0.5949656367301941 51:0.0 52:1.0 53:0.6304347515106201 54:0.6590389013290405 55:-0.20952795445919037 56:0.9778026938438416 57:0.6029749512672424 58:0.7231121063232422 59:-0.3404427170753479 60:0.9402652978897095 61:0.5823795795440674 62:0.7917619943618774 63:-0.32754385471343994 64:0.9448359608650208 65:0.54347825050354 66:0.8947368264198303 67:-0.5546988844871521 68:0.832051157951355 69:0.5 70:0.9153317809104919 71:-0.7318916916847229 72:0.6814210414886475 73:0.477117121219635 74:0.95652174949646 75:-0.456804484128952 76:0.8895670771598816 77:0.45652174949645996 78:1.0 79:-0.4280933439731598 80:0.903734564781189 
-0.8772010911565679 -2.547363191963989 0.9778795311629039 0.6994003544652216 0.6505141884242287 2.0971119363200357 2.1820323638379278 0.16275632777802468 3.278573760493268 0.8485574213118797 1.0166994027673715 0.6119718739745605 0.22594908987197398 2.4265858075513576 1:0.3103448152542114 2:0.2068965584039688 3:0.47885245084762573 4:0.8778954148292542 5:0.3448275923728943 6:0.270114928483963 7:0.9958933591842651 8:0.09053520113229752 9:0.4367823302745819 10:0.2183908075094223 11:0.678280234336853 12:-0.7348034381866455 13:0.48275864124298096 14:0.12068965286016464 15:0.0 16:-1.0 17:0.4367823302745819 18:0.06896551698446274 19:-0.9965458512306213 20:-0.0830456092953682 21:0.3448275923728943 22:0.10919538140296936 23:-0.7739591002464294 24:0.6332356333732605 25:0.3103448152542114 26:0.17241379618644714 27:-0.47885221242904663 28:0.8778955936431885 29:0.8275861740112305 30:0.0 31:-0.5999999642372131 32:0.800000011920929 33:0.7241379022598267 34:0.13793103396892548 35:-0.5734622478485107 36:0.8192319869995117 37:0.5862069129943848 38:0.3448275923728943 39:-0.47058820724487305 40:0.8823529481887817 41:0.4482758641242981 42:0.6551724076271057 43:-0.4902612566947937 44:0.8715754747390747 45:0.27586206793785095 46:0.8965517282485962 47:-0.6246950626373291 48:0.7808688282966614 49:0.17241379618644714 50:1.0 51:-0.7071067690849304 52:0.7071067690849304 53:0.5862069129943848 54:0.5862069129943848 55:0.9670741558074951 56:-0.25449472665786743 57:0.6954019069671631 58:0.5574712157249451 59:0.877895176410675 60:0.47885292768478394 61:0.7126433849334717 62:0.6551724076271057 63:-0.25997108221054077 64:0.9656164050102234 65:0.6551724076271057 66:0.7068965435028076 67:-0.9578264951705933 68:0.28734713792800903 69:0.5977004766464233 70:0.6896551847457886 71:-0.33034756779670715 72:-0.9438593983650208 73:0.6149429082870483 74:0.5919539928436279 75:0.5913655757904053 76:-0.806403636932373 77:0.7241379022598267 78:0.517241358757019 79:0.8253063559532166 80:-0.5646853446960449 
-0.2220583134154739 -0.0 0.0 0.0 0.0 0.0 0.0 0.0 0.0 0.0 0.0 0.0 0.0 0.0 1:0.37037038803100586 2:0.14814814925193787 3:-0.8804715275764465 4:0.47409889101982117 5:0.2098761796951294 6:0.23456789553165436 7:-0.5633368492126465 8:0.8262273669242859 9:0.18518519401550293 10:0.4197531044483185 11:0.04343855753540993 12:0.9990561008453369 13:0.222222238779068 14:0.5185185074806213 15:0.9593653678894043 16:0.2821667492389679 17:0.3950613737106323 18:0.48148149251937866 19:0.874157190322876 20:-0.4856429696083069 21:0.4444444477558136 22:0.3950617015361786 23:0.21693193912506104 24:-0.9761867523193359 25:0.4444444477558136 26:0.25925925374031067 27:0.0 28:-1.0 29:0.6296296119689941 30:0.0 31:-0.28216615319252014 32:0.9593655467033386 33:0.5925925970077515 34:0.1259259283542633 35:-0.3095862865447998 36:0.9508712887763977 37:0.5259258151054382 38:0.3185185194015503 39:-0.3481871783733368 40:0.9374249577522278 41:0.39999955892562866 42:0.6444445252418518 43:-0.36919477581977844 44:0.9293521046638489 45:0.3111109137535095 46:0.859259307384491 47:-0.36804744601249695 48:0.9298069477081299 49:0.25925928354263306 50:1.0 51:-0.34570416808128357 52:0.9383435845375061 53:0.6296296119689941 54:0.6296296119689941 55:-0.39391928911209106 56:0.9191450476646423 57:0.5925925970077515 58:0.716049313545227 59:-0.055468909442424774 60:0.9984604120254517 61:0.6172841787338257 62:0.8518518805503845 63:0.7371538281440735 64:0.675724983215332 65:0.7407407164573669 66:0.8518518805503845 67:0.9161571264266968 68:-0.4008192718029022 69:0.8148148059844971 70:0.7654321193695068 71:0.1737855076789856 72:-0.9847835302352905 73:0.7777777910232544 74:0.6419753432273865 75:-0.6507914066314697 76:-0.7592566013336182 77:0.6666666269302368 78:0.5925925970077515 79:-0.913811445236206 80:-0.40613847970962524 
-1.9610105488521552 -2.460738465931685 2.0026607457229715 0.5495161253689811 1.53709455643062 2.4128628579024896 1.8488363810918969 1.0360160375439869 2.557889023003622 2.6589055992811357 1.7126930719217872 1.1630732411778764 1.6365110577533382 3.0724167642951046 1:0.38999998569488525 2:0.11999999731779099 3:-0.6000000238418579 4:-0.7999999523162842 5:0.32999998331069946 6:0.03999999910593033 7:-0.9284766912460327 8:-0.3713906705379486 9:0.18999998271465302 10:0.03999999910593033 11:-0.8944272398948669 12:0.44721361994743347 13:0.16999998688697815 14:0.11999999731779099 15:0.8320503234863281 16:0.5547001361846924 17:0.3100000023841858 18:0.11999999731779099 19:0.986393928527832 20:-0.16439898312091827 21:0.4099999964237213 22:0.07999999821186066 23:0.8574928641319275 24:-0.5144957304000854 25:0.5099999904632568 26:0.0 27:0.7808688282966614 28:-0.6246951222419739 29:0.75 30:0.03999999910593033 31:-0.46788787841796875 32:0.8837878108024597 33:0.6599999666213989 34:0.20999999344348907 35:-0.5547001957893372 36:0.8320503234863281 37:0.4699999988079071 38:0.46000000834465027 39:-0.5734623074531555 40:0.8192319273948669 41:0.3100000023841858 42:0.7099999785423279 43:-0.5199469923973083 44:0.8541985154151917 45:0.18999998271465302 46:0.9200000166893005 47:-0.49613893032073975 48:0.8682430982589722 49:0.6299999952316284 50:0.7200000286102295 51:-0.6357075572013855 52:0.771929919719696 53:0.5499999523162842 54:0.8171428442001343 55:-0.5254929661750793 56:0.8507980108261108 57:0.5099999904632568 58:0.9142857193946838 59:0.062376465648412704 60:0.9980527758598328 61:0.5614281892776489 62:1.0 63:0.9570246934890747 64:0.2900065779685974 65:0.6985718011856079 66:0.9714285135269165 67:0.9363293647766113 68:-0.35112297534942627 69:0.7899999618530273 70:0.9142857193946838 71:0.648465633392334 72:-0.7612439393997192 73:0.8300000429153442 74:0.8171428442001343 75:-0.20165276527404785 76:-0.9794570803642273 77:0.75 78:0.7200000286102295 79:-0.6357075572013855 80:-0.771929919719696 
-0.6707784599035735 -0.30345433316170334 1.1998491198031664 1.050154323851624 1.7095019082583736 1.2941674194088224 1.481800142664042 0.8787216598275969 1.211293274066849 0.5890248917735106 1.5316800730837214 1.024984808748552 1.3371355384668753 0.23967118364292964 1:0.5742573738098145 2:0.0 3:-0.8192318677902222 4:0.5734624266624451 5:0.3762376010417938 6:0.13861386477947235 7:-0.8192318677902222 8:0.5734624266624451 9:0.3762376010417938 10:0.13861386477947235 11:-0.22082556784152985 12:0.9753133058547974 13:0.3366336524486542 14:0.31353136897087097 15:0.8804710507392883 16:0.47409990429878235 17:0.46204614639282227 18:0.18481847643852234 19:0.0 20:-1.0 21:0.3366336524486542 22:0.1782178282737732 23:-0.9986178278923035 24:-0.05255875736474991 25:0.3366336524486542 26:0.1782178282737732 27:1.0 28:0.0 29:0.5247524976730347 30:0.1782178282737732 31:0.999687671661377 32:0.024992182850837708 33:0.7326732873916626 34:0.1881188154220581 35:0.9988681674003601 36:0.04756513610482216 37:0.7326732873916626 38:0.1881188154220581 39:-0.558376669883728 40:0.8295875787734985 41:0.6171616315841675 42:0.35973599553108215 43:-0.5268679261207581 44:0.8499471545219421 45:0.38283824920654297 46:0.7524752616882324 47:-0.47948578000068665 48:0.8775496482849121 49:0.2673267126083374 50:1.0 51:-0.4228854477405548 52:0.9061831831932068 53:0.2673267126083374 54:0.9900990128517151 55:0.6585045456886292 56:-0.7525767087936401 57:0.6138613224029541 58:0.594059407711029 59:0.6585045456886292 60:-0.7525767087936401 61:0.6138613224029541 62:0.594059407711029 63:-0.16148826479911804 64:0.9868746399879456 65:0.5841584205627441 66:0.7755774855613708 67:0.7270135879516602 68:0.6866230964660645 69:0.7326732873916626 70:0.7062705755233765 71:0.4594229459762573 72:-0.888217568397522 73:0.6831682920455933 74:0.5841584205627441 75:-0.3757055401802063 76:-0.9267390966415405 77:0.6237623691558838 78:0.5544554591178894 79:0.0 80:0.0 
-2.535279820685671 -0.2214862825230828 0.34811919989088336 2.164311099457179 0.6043766107497326 0.8007610306524698 0.9923756591778122 1.4997624812347012 0.027758882696754545 1.1159382986849467 0.8420497099495096 0.7294615849899322 1.6623363037640402 0.3680738142673379 1:0.6741071939468384 2:0.0 3:-0.5368748307228088 4:0.8436618447303772 5:0.5907739996910095 6:0.1309523731470108 7:-0.4740992486476898 8:0.8804714679718018 9:0.5074408054351807 10:0.3095237910747528 11:-0.5421271324157715 12:0.8402964472770691 13:0.3526785671710968 14:0.5 15:-0.5225626230239868 16:0.8526009321212769 17:0.28125 18:0.6785714030265808 19:-0.2707456052303314 20:0.9626508951187134 21:0.2455357015132904 22:0.8809523582458496 23:0.0 24:1.0 25:0.28125 26:1.0 27:0.2873479425907135 28:0.9578263163566589 29:0.209821417927742 30:0.1071428582072258 31:-0.24253565073013306 32:0.9701425433158875 33:0.1830357015132904 34:0.2142857164144516 35:0.7071067690849304 36:0.7071067094802856 37:0.2991071343421936 38:0.1964285671710968 39:0.7071068286895752 40:-0.7071067690849304 41:0.2901785671710968 42:0.1071428582072258 43:-0.14142130315303802 44:-0.9899495244026184 45:0.28125 46:0.0714285746216774 47:-0.2425355166196823 48:-0.9701424837112427 49:0.6383928656578064 50:0.6428571343421936 51:-0.08662701398134232 52:0.9962407946586609 53:0.6281890869140625 54:0.7602041363716125 55:-0.15044216811656952 56:0.988618791103363 57:0.6026785373687744 58:0.8775510191917419 59:0.2355993688106537 60:0.9718502163887024 61:0.669005274772644 62:0.9285714030265808 63:0.9983713626861572 64:0.05704975500702858 65:0.78125 66:0.8877550959587097 67:0.6831566691398621 68:-0.7302718162536621 69:0.8169642686843872 70:0.7704081535339355 71:0.0487208217382431 72:-0.9988124370574951 73:0.7914537191390991 74:0.6785714030265808 75:-0.5486562848091125 76:-0.8360480070114136 77:0.7098214626312256 78:0.6071428656578064 79:-0.7525752186775208 80:-0.6585062146186829 
-0.0 -0.0 0.0 0.8220560383893413 0.0 0.0 0.0 0.0 0.0 0.0 0.0 0.0 0.2658487654104269 0.0 1:0.31578946113586426 2:0.0 3:-0.7071028351783752 4:0.7071107029914856 5:0.23308362066745758 6:0.0827067643404007 7:-0.6904757618904114 8:0.7233555316925049 9:0.15789473056793213 10:0.1654135286808014 11:0.0 12:1.0 13:0.23308362066745758 14:0.21052631735801697 15:0.9912278652191162 16:0.13216406106948853 17:0.3834581971168518 18:0.19548873603343964 19:0.9221930503845215 20:-0.3867298662662506 21:0.4661640226840973 22:0.11278197914361954 23:0.09053289890289307 24:-0.9958934783935547 25:0.39849531650543213 26:0.03007517382502556 27:-0.7999973297119141 28:-0.6000036001205444 29:0.31578946113586426 30:0.0 31:-0.9397923350334167 32:-0.3417462706565857 33:0.6315789222717285 34:0.21052631735801697 35:-0.44721466302871704 36:0.8944266438484192 37:0.45613983273506165 38:0.5614034533500671 39:-0.47885215282440186 40:0.8778955340385437 41:0.31578946113586426 42:0.7894736528396606 43:-0.40273767709732056 44:0.9153155088424683 45:0.2631579041481018 46:1.0 47:-0.24253550171852112 48:0.9701425433158875 49:0.6842105388641357 50:0.6842105388641357 51:-0.3807500898838043 52:0.9246780276298523 53:0.6315789222717285 54:0.8120300769805908 55:-0.2509623169898987 56:0.9679968357086182 57:0.6315789222717285 58:0.8872180581092834 59:0.24254094064235687 60:0.9701411724090576 61:0.6616548299789429 62:0.9323309063911438 63:0.9863940477371216 64:-0.16439852118492126 65:0.8120309710502625 66:0.8571428060531616 67:0.7682199478149414 68:-0.640186071395874 69:0.8421052694320679 70:0.7819548845291138 71:-1.0702016879804432E-5 72:-1.0 73:0.8120293617248535 74:0.7067669034004211 75:-0.7327935695648193 76:-0.680450975894928 77:0.7368420958518982 78:0.6842105388641357 79:-0.9578256011009216 80:-0.28735002875328064 
-0.0 -0.3072302620753462 0.40670578860857187 0.5002892890547773 0.4862856387023129 1.2594764417864706 0.9368601456676249 0.0 1.3094729328300434 0.0 0.0 0.0 0.0 1.7792328764316896 1:0.3509315848350525 2:0.1304347813129425 3:-0.8221927881240845 4:0.569209098815918 5:0.27018606662750244 6:0.18633539974689484 7:-0.41380220651626587 8:0.9103667736053467 9:0.25776407122612 10:0.3354037404060364 11:0.6206998229026794 12:0.784048318862915 13:0.38819754123687744 14:0.3354037404060364 15:0.9715203642845154 16:-0.23695607483386993 17:0.5124226808547974 18:0.2732919156551361 19:0.6139442920684814 20:-0.7893493175506592 21:0.5186336040496826 22:0.1677018404006958 23:-0.3644048273563385 24:-0.9312406778335571 25:0.45652109384536743 26:0.1304347813129425 27:-0.9761871695518494 28:-0.21693015098571777 29:0.3509315848350525 30:0.1304347813129425 31:-1.0 32:0.0 33:0.6552793979644775 34:0.0 35:-0.2524218261241913 36:0.9676172733306885 37:0.5900620222091675 38:0.25 39:-0.3250797688961029 40:0.9456865787506104 41:0.41614896059036255 42:0.695652186870575 43:-0.41036465764045715 44:0.911921501159668 45:0.29658377170562744 46:0.9021739363670349 47:-0.5038710236549377 48:0.8637789487838745 49:0.26397505402565 50:0.95652174949646 51:-0.5144960880279541 52:0.8574926853179932 53:0.6552793979644775 54:0.739130437374115 55:-0.6246979832649231 56:0.7808665037155151 57:0.5393365025520325 58:0.8840579390525818 59:-0.4061410129070282 60:0.9138104319572449 61:0.5393365025520325 62:1.0 63:0.8479999899864197 64:0.5299963355064392 65:0.6552793979644775 66:0.95652174949646 67:0.732795000076294 68:-0.6804494857788086 69:0.7422358989715576 70:0.8115942478179932 71:0.0 72:-1.0 73:0.6552793979644775 74:0.782608687877655 75:-0.9977851510047913 76:0.06651873886585236 77:0.5248446464538574 78:0.8260869383811951 79:-0.9486832618713379 80:0.3162277638912201 
-1.4842460090707223 -0.0 0.0 1.203817262293853 0.0 1.2939206019991547 0.0 1.5196591841586953 0.39480731794611257 0.0 0.6865420484192662 0.8937676562327532 0.0752641671897705 1.4203399865352822 1:0.4163424074649811 2:0.1284046620130539 3:-0.5718010663986206 4:-0.820392370223999 5:0.39844319224357605 6:0.10272374004125595 7:-0.9792608022689819 8:0.20260345935821533 9:0.3937741219997406 10:0.13307391107082367 11:0.7775131464004517 12:0.6288664937019348 13:0.45136186480522156 14:0.14552530646324158 15:0.16440893709659576 16:-0.9863922595977783 17:0.3968871533870697 18:0.11439688503742218 19:-0.9805806279182434 20:-0.19611643254756927 21:0.3852140009403229 22:0.13229571282863617 23:-0.5462679266929626 24:0.8376104831695557 25:0.7470817565917969 26:0.0 27:0.7633792161941528 28:0.6459506154060364 29:0.7639425992965698 30:0.01426718384027481 31:-0.1854078620672226 32:0.9826616048812866 33:0.7081712484359741 34:0.2062256783246994 35:-0.4831327199935913 36:0.8755470514297485 37:0.46692606806755066 38:0.5525291562080383 39:-0.5063180327415466 40:0.8623467683792114 41:0.2581069767475128 42:0.9727625846862793 43:-0.45851120352745056 44:0.8886886835098267 45:0.2360573709011078 46:1.0 47:0.1182015910744667 48:-0.9929895997047424 49:0.26459142565727234 50:0.9182879328727722 51:0.32967954874038696 52:-0.944092869758606 53:0.5564202070236206 54:0.7626459002494812 55:0.879290759563446 56:0.47628530859947205 57:0.5719844102859497 58:0.7710765600204468 59:0.28734922409057617 60:0.9578258991241455 61:0.5680934190750122 62:0.801556408405304 63:0.1818484216928482 64:0.9833266139030457 65:0.5894941687583923 66:0.8657587766647339 67:0.8211864829063416 68:0.5706599950790405 69:0.6446167826652527 70:0.8547341227531433 71:0.8690627813339233 72:-0.49470168352127075 73:0.6316469311714172 74:0.8417639136314392 75:-0.6561692953109741 76:-0.7546136975288391 77:0.6186770796775818 78:0.8249027132987976 79:-0.6097018122673035 80:-0.7926308512687683 
-0.8663661887991803 -0.8075098911727618 1.7922550661623742 0.20801849580024528 3.4691137910473486 0.47934616945491104 0.8444666659894251 0.0 1.1813179278630086 1.77681407977561 0.0 1.86945800137884 0.0 0.7132142561415055 1:0.8729729652404785 2:0.0 3:-0.5199467539787292 4:0.8541986346244812 5:0.816216230392456 6:0.09324324876070023 7:-0.5692099332809448 8:0.8221921920776367 9:0.6540540456771851 10:0.31621623039245605 11:-0.5895730257034302 12:0.8077150583267212 13:0.41081079840660095 14:0.6486486792564392 15:-0.5669828057289124 16:0.8237296938896179 17:0.2243243157863617 18:0.9405405521392822 19:-0.5383893251419067 20:0.8426962494850159 21:0.1918918788433075 22:0.2918919026851654 23:0.9486832618713379 24:-0.31622785329818726 25:0.2405405193567276 26:0.2756756842136383 27:0.7808687686920166 28:-0.6246951222419739 29:0.2729729413986206 30:0.2270270437002182 31:0.9922778606414795 32:-0.12403474748134613 33:0.3702702522277832 34:0.2594594657421112 35:0.4961389899253845 36:0.8682431578636169 37:0.337837815284729 38:0.3405405580997467 39:-0.5547001361846924 40:0.8320503234863281 41:0.2405405193567276 42:0.4540540874004364 43:-0.8804711103439331 44:0.47409987449645996 45:0.1270270049571991 46:0.4540540874004364 47:-0.7071067094802856 48:-0.7071068286895752 49:0.1432432234287262 50:0.3567567765712738 51:0.16439898312091827 52:-0.986393928527832 53:0.824324369430542 54:0.6324324607849121 55:0.3328203856945038 56:0.942990243434906 57:0.8567568063735962 58:0.7243242859840393 59:0.051216062158346176 60:0.9986875653266907 61:0.8351354598999023 62:0.8432433009147644 63:-0.3511236310005188 64:0.9363291263580322 65:0.7756756544113159 66:0.9405405521392822 67:-0.7949517965316772 68:0.6066726446151733 69:0.6297297477722168 70:1.0 71:-0.9926459193229675 72:-0.12105416506528854 73:0.5540542602539062 74:0.9135136008262634 75:-0.059892307966947556 76:-0.9982048869132996 77:0.6135135293006897 78:0.7297297716140747 79:0.30781930685043335 80:-0.9514448046684265 
-0.6272836489350224 -0.9917026236966006 0.0 0.20233995928565748 2.58328628191707 0.8125061192122816 0.0 0.4313915039421168 1.2399322980741763 0.0 0.0 1.4061870500930724 0.0 0.26506841533806946 1:0.8499999642372131 2:0.0 3:-0.9191454648971558 4:0.39391833543777466 5:0.7923527359962463 6:0.024705883115530014 7:-0.6289458274841309 8:0.7774491906166077 9:0.6523534655570984 10:0.24431374669075012 11:-0.5383892059326172 12:0.8426963090896606 13:0.47666651010513306 14:0.5188235640525818 15:-0.5574343204498291 16:0.8302210569381714 17:0.26529449224472046 18:0.820784330368042 19:-0.5712049603462219 20:0.8208074569702148 21:0.15000003576278687 22:0.9882352352142334 23:-0.5671030282974243 24:0.8236468434333801 25:0.31470590829849243 26:0.23333331942558289 27:1.0 28:0.0 29:0.35313794016838074 30:0.23333331942558289 31:0.5390549898147583 32:0.8422704935073853 33:0.35862764716148376 34:0.3019607961177826 35:-0.423941969871521 36:0.9056894183158875 37:0.2927454710006714 38:0.3623529076576233 39:-0.9037383198738098 40:0.4280853867530823 41:0.20215672254562378 42:0.37607839703559875 43:-0.7752364873886108 44:-0.631671130657196 45:0.21862748265266418 46:0.3019607663154602 47:0.21693266928195953 48:-0.9761866331100464 49:0.6990196108818054 50:0.6862744688987732 51:0.9899493455886841 52:0.14142215251922607 53:0.7401960492134094 54:0.6921568512916565 55:0.5122758150100708 56:0.8588209748268127 57:0.7656858563423157 58:0.7980391979217529 59:0.046247448772192 60:0.998930037021637 61:0.7500001192092896 62:0.9039216041564941 63:-0.47514933347702026 64:0.8799051642417908 65:0.6598033905029297 66:0.9941176176071167 67:-0.8962308764457703 68:0.443587988615036 69:0.5558820962905884 70:1.0 71:-0.8823519349098206 72:-0.47059008479118347 73:0.5127453207969666 74:0.9156862497329712 75:-0.09861478954553604 76:-0.9951256513595581 77:0.5343137383460999 78:0.782352864742279 79:0.15968726575374603 80:-0.9871675968170166 
-0.21765084674701834 -0.0 0.0 0.03872084692834448 0.0 0.0 0.7787553669649393 0.0 0.0 1.3019506785959787 0.38704742842049533 0.0 0.0 0.0 1:0.6826087236404419 2:0.0 3:-0.16023966670036316 4:0.987078070640564 5:0.6681159734725952 6:0.08927550166845322 7:-0.27255672216415405 8:0.9621397256851196 9:0.5765217542648315 10:0.3744926154613495 11:-0.36513906717300415 12:0.9309529662132263 13:0.38753610849380493 14:0.804637610912323 15:-0.42801445722579956 16:0.9037718772888184 17:0.2802897095680237 18:1.0 19:-0.6032664179801941 20:0.7975397706031799 21:0.2507246434688568 22:0.9855072498321533 23:-0.8979198336601257 24:-0.4401589334011078 25:0.13768115639686584 26:0.17971014976501465 27:-0.6332381367683411 28:0.7739570140838623 29:0.024637673050165176 30:0.3178742825984955 31:-0.3723633289337158 32:0.9280869960784912 33:0.010144919157028198 34:0.49758443236351013 35:0.39391911029815674 36:0.9191451668739319 37:0.12318839877843857 38:0.5478261113166809 39:0.9531083703041077 40:-0.3026292324066162 41:0.2748793363571167 42:0.4135264456272125 43:0.5230161547660828 44:-0.8523228168487549 45:0.2797101140022278 46:0.2927536368370056 47:-0.4557393789291382 48:-0.8901132345199585 49:0.2130434662103653 50:0.2927536368370056 51:-1.0 52:0.0 53:0.8536232709884644 54:0.6579710245132446 55:-0.6471338868141174 56:0.7623763084411621 57:0.747826099395752 58:0.782608687877655 59:-0.364874005317688 60:0.9310569167137146 61:0.769565224647522 62:0.8724637627601624 63:0.9921289682388306 64:0.12522032856941223 65:0.8971015214920044 66:0.8014492988586426 67:0.7798666954040527 68:-0.6259456872940063 69:0.9898550510406494 70:0.695652186870575 71:0.5196669101715088 72:-0.8543688654899597 73:0.9826086759567261 74:0.6608695387840271 75:-0.5931985974311829 76:-0.8050562143325806 77:0.9492753744125366 78:0.6405797004699707 79:-0.8541985750198364 80:-0.5199469923973083 
-0.0 -0.0 0.0 0.0 0.8657432327032152 0.0 0.0 0.0 0.0 0.0 0.0 0.0 0.0 0.0 1:0.26666656136512756 2:0.07999999821186066 3:-0.2425355762243271 4:0.9701424837112427 5:0.22666656970977783 6:0.23999999463558197 7:-0.27472105622291565 8:0.9615239500999451 9:0.1866665780544281 10:0.36000001430511475 11:0.19611608982086182 12:0.9805806279182434 13:0.26666656136512756 14:0.4399999976158142 15:0.9701424837112427 16:-0.2425357699394226 17:0.3466665744781494 18:0.3199999928474426 19:0.2747211754322052 20:-0.9615239500999451 21:0.3466665744781494 22:0.1599999964237213 23:-0.24253568053245544 24:-0.9701424837112427 25:0.26666656136512756 26:0.0 27:-0.44721364974975586 28:-0.8944271206855774 29:0.7866665124893188 30:0.07999999821186066 31:-0.46400871872901917 32:0.8858306407928467 33:0.6986660957336426 34:0.24799999594688416 35:-0.4940092861652374 36:0.8694566488265991 37:0.5866665840148926 38:0.43199998140335083 39:-0.4534565508365631 40:0.8912784457206726 41:0.466666579246521 42:0.703999936580658 43:-0.4664084017276764 44:0.884569525718689 45:0.354667067527771 46:0.871999979019165 47:-0.5598573684692383 48:0.8285890221595764 49:0.26666656136512756 50:1.0 51:-0.5665309429168701 52:0.824040412902832 53:0.7066665887832642 54:0.7599999904632568 55:-0.7999989986419678 56:0.6000013947486877 57:0.6000003218650818 58:0.8399999737739563 59:-0.47058913111686707 60:0.8823524713516235 61:0.5999996662139893 62:0.9599999785423279 63:0.5546987056732178 64:0.8320513367652893 65:0.7066665887832642 66:1.0 67:0.9922778606414795 68:-0.12403500825166702 69:0.8133327960968018 70:0.9333332777023315 71:0.470588743686676 72:-0.8823527097702026 73:0.8133333921432495 74:0.800000011920929 75:-0.5240958333015442 76:-0.8516592383384705 77:0.7066665887832642 78:0.7599999904632568 79:-0.9363292455673218 80:-0.35112321376800537 
-0.8711686605104066 -0.0 0.0647399550208834 1.3174855037763313 2.3256645228960116 0.7556525346258042 0.84595399979675 1.1084236186417802 0.04013635803294656 0.898669981658461 0.4203246076180004 0.8711929518439869 0.8903994775045 0.3356811969502104 1:0.1666666716337204 2:0.06666667014360428 3:0.8192294239997864 4:-0.5734659433364868 5:0.26190388202667236 6:0.0 7:0.9981310367584229 8:0.06111009418964386 9:0.4000000059604645 10:0.08095239102840424 11:0.4266199767589569 12:0.9044309258460999 13:0.3809519410133362 14:0.25238093733787537 15:-0.35599690675735474 16:0.9344871640205383 17:0.28571370244026184 18:0.380952388048172 19:-0.8672524094581604 20:0.4978686273097992 21:0.123809814453125 22:0.4000000059604645 23:-0.9413391351699829 24:-0.3374618589878082 25:0.03333333134651184 26:0.2904762327671051 27:-0.15398620069026947 28:-0.9880730509757996 29:0.06666666269302368 30:0.03333333507180214 31:0.12855400145053864 32:-0.9917024970054626 33:0.7333333492279053 34:0.06666667014360428 35:-0.39391955733299255 36:0.9191449284553528 37:0.6583333015441895 38:0.24166665971279144 39:-0.3713907301425934 40:0.9284766316413879 41:0.5333333015441895 42:0.5666666626930237 43:-0.36652448773384094 44:0.9304084181785583 45:0.4416666626930237 46:0.7916666865348816 47:-0.3589790165424347 48:0.9333456754684448 49:0.36666667461395264 50:1.0 51:-0.3387194573879242 52:0.9408873915672302 53:0.7000000476837158 54:0.6333333253860474 55:0.9191446304321289 56:-0.3939201831817627 57:0.8555551767349243 58:0.5666666626930237 59:0.9991330504417419 60:0.04163043200969696 61:0.9666666984558105 62:0.6444444060325623 63:0.16440026462078094 64:0.9863936305046082 65:0.8999999761581421 66:0.8333333134651184 67:-0.7071064114570618 68:0.7071071863174438 69:0.7111114263534546 70:0.8999999761581421 71:-0.9486833810806274 72:-0.31622761487960815 73:0.6666666269302368 74:0.7555555701255798 75:0.0738707035779953 76:-0.9972677826881409 77:0.7333333492279053 78:0.6000000238418579 79:0.39391958713531494 80:-0.919144868850708 
-1.3676475088319924 -0.5869602552227918 0.04485594786654943 1.1106722744789816 0.44994867384171294 1.373643219203558 1.2242430623851985 1.7627329355232404 0.6389539815778795 1.6848753647954768 0.847278583627752 1.885360986738727 0.22152386849840952 0.0 1:0.8838547468185425 2:0.2822725772857666 3:-0.9816157221794128 4:0.19086791574954987 5:0.8622797727584839 6:0.28646767139434814 7:-0.8743389248847961 8:0.48531574010849 9:0.7478125095367432 10:0.3577849864959717 11:-0.8356238007545471 12:0.5493022203445435 13:0.5404530763626099 14:0.4980223476886749 15:-0.7765619158744812 16:0.6300410032272339 17:0.33489155769348145 18:0.6927964091300964 19:-0.7483607530593872 20:0.663291871547699 21:0.17667505145072937 22:0.8204483985900879 23:-0.7407485842704773 24:0.6717823147773743 25:0.1610931009054184 26:0.8504136204719543 27:-0.4613535404205322 28:0.8872163891792297 29:0.24199925363063812 30:0.030564548447728157 31:-0.9998433589935303 32:0.0176963210105896 33:0.14041706919670105 34:0.03236246109008789 35:-0.7908310890197754 36:0.6120344996452332 37:0.035239070653915405 38:0.19057895243167877 39:0.0294953566044569 40:0.9995648860931396 41:0.14850768446922302 42:0.3065444231033325 43:0.9965457916259766 44:0.08304547518491745 45:0.3372887372970581 46:0.21574975550174713 47:0.6585046052932739 48:-0.7525767087936401 49:0.3624595105648041 50:0.062028054147958755 51:-0.3511234223842621 52:-0.9363292455673218 53:0.2563825845718384 54:0.0 55:-0.8632476925849915 56:-0.5047805905342102 57:0.7921611070632935 58:0.7605178952217102 59:-0.9153861403465271 60:0.40257683396339417 61:0.7234807014465332 62:0.7907227873802185 63:-0.34445229172706604 64:0.9388038516044617 65:0.7188063859939575 66:0.9604460000991821 67:0.6760686635971069 68:0.7368385791778564 69:0.9154980182647705 70:1.0 71:0.8482765555381775 72:-0.5295534729957581 73:0.9647608995437622 74:0.8069040179252625 75:-0.4798406660556793 76:-0.877355694770813 77:0.76878821849823 78:0.7317512035369873 79:-0.9336983561515808 80:-0.35806041955947876 
-0.506045380107004 -0.24857385060599035 0.0 1.8422781694589376 1.363377735880666 0.12332256421669335 0.5287231828650584 2.7247787066571827 1.9392461983960962 0.0 2.3775553633466573 0.9296367159445851 0.9833259881522904 1.6194213687273058 1:0.15789473056793213 2:0.21052631735801697 3:-0.4472135007381439 4:0.8944272398948669 5:0.10526315867900848 6:0.31578949093818665 7:1.0 8:0.0 9:0.21052631735801697 10:0.21052631735801697 11:0.4472135901451111 12:-0.8944271802902222 13:0.21052631735801697 14:0.10526316612958908 15:-0.7071067690849304 16:-0.7071067690849304 17:0.05263157933950424 18:0.05263158679008484 19:-0.9701424837112427 20:0.24253562092781067 21:0.0 22:0.15789474546909332 23:-0.4472135901451111 24:0.8944271802902222 25:0.7368420958518982 26:0.05263158679008484 27:-0.31622764468193054 28:0.9486833214759827 29:0.6842105388641357 30:0.21052631735801697 31:-0.7071067690849304 32:0.7071068286895752 33:0.4736842215061188 34:0.31578949093818665 35:-0.7682213187217712 36:0.6401844024658203 37:0.3684210479259491 38:0.4736842215061188 39:-0.5547002553939819 40:0.8320502638816833 41:0.15789473056793213 42:0.7894736528396606 43:-0.40613847970962524 44:0.9138115048408508 45:0.15789473056793213 46:0.9473683834075928 47:0.0 48:1.0 49:0.7894737124443054 50:0.5789474248886108 51:-0.34570571780204773 52:0.9383429884910583 53:0.7368420958518982 54:0.7218044996261597 55:-0.18116256594657898 56:0.9834532141685486 57:0.7368420958518982 58:0.864661693572998 59:0.5462669730186462 60:0.8376110792160034 61:0.8496238589286804 62:0.8947368860244751 63:0.9982743263244629 64:-0.05872221291065216 65:0.9924814105033875 66:0.8496240377426147 67:0.6246955394744873 68:-0.780868411064148 69:1.0 70:0.7067669630050659 71:-0.2659280598163605 72:-0.9639929533004761 73:0.9323312640190125 74:0.6315789222717285 75:-0.9417418241500854 76:-0.33633673191070557 77:0.7894737124443054 78:0.6315789222717285 79:-1.0 80:0.0 
-0.0 -0.0 -0.08893456494354753 0.0 0.0 0.0 0.0 0.0 0.0 0.1108755583296327 0.0 0.8495701455878018 0.0 0.0 1:0.42500001192092896 2:0.08750000596046448 3:-1.0 4:0.0 5:0.3868408203125 6:0.08750000596046448 7:-0.8895630836486816 8:0.45681241154670715 9:0.3763168454170227 10:0.11250000447034836 11:0.5734914541244507 12:0.8192115426063538 13:0.4144744873046875 14:0.1269736886024475 15:0.9786531925201416 16:0.2055186778306961 17:0.5078948736190796 18:0.14013159275054932 19:0.9876211285591125 20:0.15685822069644928 21:0.6381576657295227 22:0.16250000894069672 23:0.9773228764533997 24:0.21175439655780792 25:0.7447357177734375 26:0.19144737720489502 27:0.968991756439209 28:0.2470931112766266 29:0.9013153314590454 30:0.2296052724123001 31:0.9728702306747437 32:0.2313513308763504 33:0.9605270624160767 34:0.24276317656040192 35:0.8872177600860596 36:0.4613509178161621 37:1.0 38:0.2809210419654846 39:0.42660418152809143 40:0.9044384956359863 41:0.993420422077179 42:0.3125 43:-0.7824277877807617 44:0.6227414011955261 45:0.9355255365371704 46:0.3322368562221527 47:-0.9397932291030884 48:0.34174367785453796 49:0.834210216999054 50:0.3703947365283966 51:-0.880300760269165 52:0.474416047334671 53:0.715789794921875 54:0.4506579339504242 55:-0.8519256114959717 56:0.5236628651618958 57:0.5473693609237671 58:0.5467104911804199 59:-0.8776264190673828 60:0.47934532165527344 61:0.3881576657295227 62:0.6296052932739258 63:-0.8365128636360168 64:0.5479472279548645 65:0.20789489150047302 66:0.7690789699554443 67:-0.8101859092712402 68:0.5861730575561523 69:0.10263214260339737 70:0.8361842632293701 71:-0.7638360261917114 72:0.6454103589057922 73:0.03815765306353569 74:0.9125000238418579 75:-0.8024640679359436 76:0.5967005491256714 77:0.0 78:0.9125000238418579 79:-1.0 80:0.0 
-0.13260591088699022 -13.821096791578265 -1.777806558317944 2.099660672065105 2.540224066877159 1.5876575801816686 1.3287700791408437 1.4365780071621657 0.0 0.7874405796008603 0.8538041126255819 3.275331634890785 0.0 0.0 1:0.22784200310707092 2:0.0 3:0.626033365726471 4:0.779796302318573 5:0.2625240683555603 6:0.04320048540830612 7:0.6680858731269836 8:0.7440841197967529 9:0.3152063488960266 10:0.09730249643325806 11:0.7265826463699341 12:0.6870790719985962 13:0.3930889368057251 14:0.1666666716337204 15:0.7380127906799316 16:0.6747867465019226 17:0.5140705704689026 18:0.27912989258766174 19:0.723063051700592 20:0.6907820105552673 21:0.6307423114776611 22:0.39371004700660706 23:0.6802216172218323 24:0.7330065965652466 25:0.7086248397827148 26:0.48878151178359985 27:0.6436213254928589 28:0.7653440833091736 29:0.7519267797470093 30:0.537813127040863 31:0.6498515009880066 32:0.7600612640380859 33:0.7721580266952515 34:0.5630894303321838 35:-0.4781907796859741 36:0.8782560229301453 37:0.728805422782898 38:0.5802783370018005 39:-0.872799813747406 40:0.48807841539382935 41:0.7027938365936279 42:0.6018785834312439 43:-0.5887856483459473 44:0.8082892298698425 45:0.6941233277320862 46:0.6278901696205139 47:-0.7942222952842712 48:0.607627272605896 49:0.6141999363899231 50:0.6696581840515137 51:-0.8726487755775452 52:0.4883483350276947 53:0.5421991348266602 54:0.7129094004631042 55:-0.7993237972259521 56:0.6009005904197693 57:0.49899861216545105 58:0.7562620639801025 59:-0.7272315621376038 60:0.6863921880722046 61:0.4297865033149719 62:0.8190092444419861 63:-0.745923638343811 64:0.6660314798355103 65:0.35768434405326843 66:0.8824408650398254 67:-0.7620881199836731 68:0.6474733352661133 69:0.3144838809967041 70:0.9169708490371704 71:-0.739137589931488 72:0.6735544800758362 73:0.276252418756485 74:0.9566473960876465 75:-0.6598517894744873 76:0.7513957619667053 77:0.24157032370567322 78:1.0 79:-0.6246951818466187 80:0.7808687090873718 
-0.0 -2.5815137474875307 -0.0 0.2321293144251428 4.634867000899911 0.3951410903682122 0.0 0.0 2.744620079362995 0.07294281291220707 0.1135371979143742 1.923006159052305 0.0 2.5600881927871946 1:0.24710649251937866 2:0.08796296268701553 3:-0.3680485188961029 4:-0.9298065900802612 5:0.22511574625968933 6:0.032407406717538834 7:-0.23046554625034332 8:-0.9730805158615112 9:0.22627323865890503 10:0.0 11:0.9894611239433289 12:-0.14479875564575195 13:0.27256953716278076 14:0.02546297013759613 15:0.7988146543502808 16:0.6015772223472595 17:0.3200231194496155 18:0.07060185074806213 19:0.7890487313270569 20:0.6143305897712708 21:0.4346066117286682 22:0.15162035822868347 23:0.8298799395561218 24:0.5579419136047363 25:0.5248842239379883 26:0.2083333432674408 27:0.8445565104484558 28:0.5354664921760559 29:0.6591435670852661 30:0.29398149251937866 31:0.8434886336326599 32:0.537147045135498 33:0.7575230598449707 34:0.3564814627170563 35:0.8390418291091919 36:0.5440669059753418 37:0.8072915077209473 38:0.39004629850387573 39:0.7787541151046753 40:0.6273292303085327 41:0.8408564329147339 42:0.4236110746860504 43:0.3095891773700714 44:0.9508704543113708 45:0.8234953880310059 46:0.43981480598449707 47:-0.8376106023788452 48:0.5462678670883179 49:0.7609952688217163 50:0.4756944477558136 51:-0.8377591967582703 52:0.546039879322052 53:0.6938658952713013 54:0.524305522441864 55:-0.7614020109176636 56:0.6482800841331482 57:0.5584491491317749 58:0.6481481790542603 59:-0.7448721528053284 60:0.6672073006629944 61:0.449652761220932 62:0.743055522441864 63:-0.7573526501655579 64:0.6530060172080994 65:0.29803240299224854 66:0.8726851940155029 67:-0.7427198886871338 68:0.6696022748947144 69:0.2262730747461319 70:0.9444444179534912 71:-0.70710688829422 72:0.7071067094802856 73:0.17071756720542908 74:1.0 75:-0.8298421502113342 76:0.5579981803894043 77:0.15914353728294373 78:0.9895833134651184 79:-0.7432922720909119 80:-0.6689668297767639 
-0.36674972110876236 -0.0 -0.06380316803875585 0.19842168001373975 1.792598785409459 0.4995976071297158 3.3526860763429043 0.4716645284986343 0.0 1.8876122209099724 0.48591026900836604 1.0757309801535317 0.0 0.0 1:0.2481209933757782 2:0.0 3:0.7071061730384827 4:0.707107424736023 5:0.3358401358127594 6:0.08771929889917374 7:0.7754353284835815 8:0.6314270496368408 9:0.4235592782497406 10:0.1428571492433548 11:0.7071059346199036 12:0.7071076035499573 13:0.4636593759059906 14:0.2155388444662094 15:0.6667938828468323 16:0.7452422380447388 17:0.5513784885406494 18:0.2857142984867096 19:0.7912858724594116 20:0.6114464402198792 21:0.6290733814239502 22:0.3433583974838257 23:0.7943572998046875 24:0.6074507832527161 25:0.6791977882385254 26:0.3834586441516876 27:0.5974812507629395 28:0.8018828630447388 29:0.7243114709854126 30:0.47117796540260315 31:0.5872315168380737 32:0.8094189763069153 33:0.7719305753707886 34:0.5112782120704651 35:0.9377461075782776 36:0.3473213315010071 37:0.7919790744781494 38:0.49624061584472656 39:-0.953582763671875 40:-0.30113109946250916 41:0.7243114709854126 42:0.49624061584472656 43:-0.9541462063789368 44:0.29934102296829224 45:0.664159893989563 46:0.5363408923149109 47:-0.7565370798110962 48:0.6539508104324341 49:0.576440691947937 50:0.6240601539611816 51:-0.7071062326431274 52:0.7071073055267334 53:0.4887215793132782 54:0.7117794752120972 55:-0.7332652807235718 56:0.6799427270889282 57:0.4385972023010254 58:0.7518797516822815 59:-0.794357180595398 60:0.6074509620666504 61:0.360902339220047 62:0.8095238208770752 63:-0.7456576228141785 64:0.6663293838500977 65:0.320802241563797 66:0.8571428656578064 67:-0.7571559548377991 68:0.6532341241836548 69:0.2330830991268158 70:0.9197995066642761 71:-0.6196422576904297 72:0.7848843932151794 73:0.2080208957195282 74:1.0 75:0.6156458854675293 76:0.7880229353904724 77:0.2957400381565094 78:1.0 79:1.0 80:0.0 
-0.0 -15.05843883083785 -1.2391579768640906 0.0495352954429815 3.2464459577525075 0.0 0.0 0.0 3.740972140200375 0.0 0.0 0.0 0.0 0.0 1:0.15224209427833557 2:0.0 3:1.0 4:0.0 5:0.15390191972255707 6:0.0 7:0.9467493891716003 8:0.32197144627571106 9:0.2035081833600998 10:0.0174346212297678 11:0.9234862327575684 12:0.3836315870285034 13:0.23734025657176971 14:0.0346616767346859 15:0.8069189786911011 16:0.5906621813774109 17:0.32741791009902954 18:0.10813615471124649 19:0.827154278755188 20:0.5619749426841736 21:0.5034255981445312 22:0.21544209122657776 23:0.8530178070068359 24:0.5218818187713623 25:0.675487756729126 26:0.3210875391960144 27:0.8526746034622192 28:0.5224422812461853 29:0.8137198686599731 30:0.40556249022483826 31:0.8331288695335388 32:0.5530788898468018 33:0.8477579355239868 34:0.43545040488243103 35:0.33611729741096497 36:0.9418201446533203 37:0.8357193470001221 38:0.46720629930496216 39:-0.4846354126930237 40:0.8747162222862244 41:0.8222289085388184 42:0.4815276265144348 43:-0.7373974919319153 44:0.6754591464996338 45:0.8135137557983398 46:0.4875467121601105 47:-0.8014875650405884 48:0.5980113744735718 49:0.7821714878082275 50:0.5114155411720276 51:-0.8311188817024231 52:0.5560948252677917 53:0.6711301803588867 54:0.5828143954277039 55:-0.7772310972213745 56:0.6292153000831604 57:0.5216895341873169 58:0.7222913503646851 59:-0.6542133092880249 60:0.7563100457191467 61:0.390514612197876 62:0.9072229266166687 63:-0.6325609087944031 64:0.7745105624198914 65:0.29877716302871704 66:0.9952263236045837 67:-0.7810035347938538 68:0.6245266795158386 69:0.2744919955730438 70:1.0 71:-0.9931512475013733 72:0.11683601886034012 73:0.2705484628677368 74:0.9985471963882446 75:-0.9301562905311584 76:-0.3671637177467346 77:0.258717805147171 78:0.9937734007835388 79:-0.927349865436554 80:-0.37419548630714417 
-1.8732415651397105 -13.73437024547985 -0.0 1.2816280672371498 0.999556011620618 0.005222351068514504 1.671797277192373 0.3842266362375993 2.3148360557812335 0.0 0.0 0.0 1.1526790284640116 2.911096785398439 1:0.19269442558288574 2:0.0 3:0.7071068286895752 4:0.7071067690849304 5:0.20861482620239258 6:0.015920398756861687 7:0.8224634528160095 8:0.5688180327415466 9:0.27614036202430725 10:0.057711441069841385 11:0.8542150259017944 12:0.5199198722839355 13:0.35557475686073303 14:0.10536788403987885 15:0.8834747076034546 16:0.4684789180755615 17:0.45590469241142273 18:0.15303482115268707 19:0.9086918830871582 20:0.4174673557281494 21:0.5631998777389526 22:0.20075413584709167 23:0.8560411930084229 24:0.5169075727462769 25:0.6137679815292358 26:0.24835819005966187 27:0.8368021249771118 28:0.5475054383277893 29:0.7089552283287048 30:0.2961193919181824 31:0.8420282602310181 32:0.5394335389137268 33:0.7626447081565857 34:0.3437339663505554 35:0.7309988141059875 36:0.6823787093162537 37:0.7993453741073608 38:0.3804975152015686 39:0.40684613585472107 40:0.913496732711792 41:0.8073055744171143 42:0.4440115690231323 43:-0.05446317419409752 44:0.998515784740448 45:0.7915003895759583 46:0.5243257284164429 47:-0.2708893418312073 48:0.9626106023788452 49:0.7696308493614197 50:0.5778894424438477 51:-0.4973999857902527 52:0.867521345615387 53:0.706116795539856 54:0.673244297504425 55:-0.69896399974823 56:0.7151567935943604 57:0.5978267192840576 58:0.7536737322807312 59:-0.7542080283164978 60:0.656635582447052 61:0.5224980115890503 62:0.8331081867218018 63:-0.6466929316520691 64:0.7627503871917725 65:0.48582878708839417 66:0.8857711553573608 67:-0.590385913848877 68:0.8071210384368896 69:0.45199793577194214 70:0.9294893741607666 71:-0.6691661477088928 72:0.7431128621101379 73:0.3973029553890228 74:0.9840795993804932 75:-0.7067914605140686 76:0.7074220180511475 77:0.3815501630306244 78:1.0 79:-0.703355073928833 80:0.7108387351036072 
-0.0 -6.583286890944823 -0.0 0.0 0.0 0.0 0.0 0.0 4.171529625661387 0.0 0.0 0.0 0.0 2.4269783196972314 1:0.19999998807907104 2:0.0 3:1.0 4:0.0 5:0.27368468046188354 6:0.0 7:0.9520273804664612 8:0.3060131072998047 9:0.3473663330078125 10:0.04736841842532158 11:0.9007663130760193 12:0.4343041181564331 13:0.421051025390625 14:0.07105262577533722 15:0.8343369960784912 16:0.5512547492980957 17:0.4947357177734375 18:0.14473684132099152 19:0.8343369364738464 20:0.5512548089027405 21:0.56842041015625 22:0.16842105984687805 23:0.8343369960784912 24:0.5512546896934509 25:0.6421051025390625 26:0.24210524559020996 27:0.7071091532707214 28:0.7071044445037842 29:0.715789794921875 30:0.31578946113586426 31:0.7071090340614319 32:0.707104504108429 33:0.7894744873046875 34:0.38947367668151855 35:0.4961375296115875 36:0.868243932723999 37:0.800000011920929 38:0.46315789222717285 39:-0.23161621391773224 40:0.9728072881698608 41:0.7631592154502869 42:0.5 43:-0.527929425239563 44:0.8492882251739502 45:0.7394744753837585 46:0.5605262517929077 47:-0.5872315764427185 48:0.8094189763069153 49:0.6657898426055908 50:0.634210467338562 51:-0.7071090340614319 52:0.707104504108429 53:0.5921050906181335 54:0.7078946828842163 55:-0.7863202691078186 56:0.61781907081604 57:0.518420398235321 58:0.75 59:-0.8249318599700928 60:0.5652320981025696 61:0.44999998807907104 62:0.8052631616592407 63:-0.6976200938224792 64:0.7164678573608398 65:0.421051025390625 66:0.8500000238418579 67:-0.8430657386779785 68:0.5378104448318481 69:0.29736632108688354 70:0.9026315808296204 71:-0.8920339345932007 72:0.4519684612751007 73:0.22368468344211578 74:0.949999988079071 75:-0.707099199295044 76:0.7071143388748169 77:0.19999998807907104 78:1.0 79:-0.42809343338012695 80:0.9037345051765442 
-0.9624067250439098 -0.0 -3.1864556954779126 0.5439634836664133 0.3961847769633278 2.4732667588457002 3.0812838325071636 1.3890316962284708 1.274433353968668 2.645078771398502 2.029695307521749 2.303687976798692 1.4249022695999973 0.0 1:0.07746478915214539 2:0.052816905081272125 3:-0.9284766912460327 4:-0.3713906407356262 5:0.007042253389954567 6:0.024647891521453857 7:-0.9647638201713562 8:-0.2631174325942993 9:0.0 10:0.031690143048763275 11:-0.44721361994743347 12:0.8944272398948669 13:0.0 14:0.03873239830136299 15:0.8320502638816833 16:0.5547001361846924 17:0.14788731932640076 18:0.13028168678283691 19:0.9235916137695312 20:0.38337767124176025 21:0.3732394278049469 22:0.19366197288036346 23:0.9752604961395264 24:0.22105903923511505 25:0.6760563254356384 26:0.25 27:0.9857363700866699 28:0.1682964563369751 29:0.9507042169570923 30:0.2922535240650177 31:0.9778024554252625 32:0.2095290720462799 33:0.9718309640884399 34:0.31338027119636536 35:0.7682215571403503 36:0.6401841044425964 37:0.9929577708244324 38:0.3274647891521454 39:0.800000011920929 40:0.6000000238418579 41:1.0 42:0.3345070481300354 43:-0.44721436500549316 44:0.8944268226623535 45:0.9718309640884399 46:0.3697183132171631 47:-0.7703943252563477 48:0.6375677585601807 49:0.7957746386528015 50:0.5035211443901062 51:-0.828283429145813 52:0.5603094100952148 53:0.49295774102211 54:0.6936619877815247 55:-0.8237296342849731 56:0.5669828057289124 57:0.2535211145877838 58:0.8767606019973755 59:-0.7980414032936096 60:0.6026026606559753 61:0.14788731932640076 62:0.9542253613471985 63:-0.7761141657829285 64:0.6305923461914062 65:0.14084507524967194 66:0.9683098196983337 67:0.0 68:1.0 69:0.14788731932640076 70:0.9753521084785461 71:0.4472143352031708 72:-0.8944268226623535 73:0.14788731932640076 74:0.9542253613471985 75:0.8087360858917236 76:-0.5881717205047607 77:0.3802816867828369 78:0.8063380122184753 79:0.8436614871025085 80:-0.5368756055831909 
-2.258448493594844 -0.0 -0.48090739059605336 0.5411933766471897 1.967950487936582 0.0 0.059093671687768454 0.0 0.1949241033298093 1.9745229277493332 0.0 0.0 1.2993058614405726 8.872921062768695 1:0.010712833143770695 2:0.17645326256752014 3:-0.41614577174186707 4:-0.9092979431152344 5:0.0 6:0.15304522216320038 7:-0.13767027854919434 8:-0.9904780983924866 9:0.004564134404063225 10:0.13221603631973267 11:0.44723960757255554 12:-0.8944141864776611 13:0.014680685475468636 14:0.12368598580360413 15:0.9952319860458374 16:0.09753627330064774 17:0.11386778950691223 18:0.14292818307876587 19:0.9871327877044678 20:0.15990281105041504 21:0.2902209758758545 22:0.168319970369339 23:0.9940168857574463 24:0.10922691971063614 25:0.49117356538772583 26:0.1843881905078888 27:0.9976687431335449 28:0.06824277341365814 29:0.6788340210914612 30:0.1949019730091095 31:0.9998040199279785 32:0.01979813724756241 33:0.8518156409263611 34:0.19152963161468506 35:0.9996539354324341 36:-0.026306647807359695 37:0.9878995418548584 38:0.18676868081092834 39:0.9997707009315491 40:0.021414197981357574 41:1.0 42:0.194703608751297 43:-0.7947232723236084 44:0.6069719791412354 45:0.9266020655632019 46:0.23358479142189026 47:-0.8762152791023254 48:0.48191991448402405 49:0.7817901968955994 50:0.31471937894821167 51:-0.838203489780426 52:0.5453576445579529 53:0.6256701350212097 54:0.4293791651725769 55:-0.7511041760444641 56:0.6601837873458862 57:0.4556634724140167 58:0.60136878490448 59:-0.6779909133911133 60:0.7350703477859497 61:0.31700122356414795 62:0.764034628868103 63:-0.6696522235870361 64:0.7426748275756836 65:0.24281011521816254 66:0.837432861328125 67:-0.7007765769958496 68:0.7133808732032776 69:0.20670560002326965 70:0.8763140439987183 71:-0.7632301449775696 72:0.6461267471313477 73:0.2078953981399536 74:0.8669905662536621 75:0.43396806716918945 76:-0.900928258895874 77:0.24062742292881012 78:0.8058915138244629 79:0.47222578525543213 80:-0.8814776539802551 
