svm_type c_svc
kernel_type rbf
gamma 0.015625
nr_class 9
total_sv 105
rho -0.05268814561605909 0.14183604350382875 0.12758152491595995 0.5078514254711188 0.18857225266852332 0.1550287749792207 -0.06208749340296197 0.03691547415209692 0.09811667446792413 -0.009377774591508925 0.4863029733253774 0.05925222563828909 0.030180681665537706 -0.15646313861282823 -0.06285520989529207 0.12332435267537031 0.4683737503326795 -0.18301250655974177 0.1670396410916667 -0.4767347438354432 -0.37327212714771435 0.13582173116532212 -0.23018403116423178 0.035897922360358034 -0.3158537184295466 -0.19433505274110388 -0.6430411382669237 -0.08792882270993564 -0.6430029257098183 -0.37759372300793975 0.13138930557796408 -0.15273166771127292 -0.0037692465994478164 -0.2854651078774946 -0.3340443084215881 0.11732427478395437
label 48 54 55 52 53 56 57 50 51
nr_sv 8 12 15 13 12 11 12 12 10
SV
0.0 0.8943565639948226 2.5442657184163338 0.0 0.0 0.0 0.6936232503914062 0.7638471583909108 1:0.022823521867394447 2:0.161746546626091 3:0.8050562143325806 4:0.5931984782218933 5:0.02860563062131405 6:0.16600704193115234 7:0.4103272259235382 8:0.9119383692741394 9:0.025562118738889694 10:0.16783298552036285 11:-0.2743270695209503 12:0.9616364240646362 13:9.119244641624391E-4 14:0.26308560371398926 15:-0.09251859039068222 16:0.9957109689712524 17:0.0 18:0.4429396688938141 19:0.09629978984594345 20:0.9953523278236389 21:0.03986493498086929 22:0.6657029986381531 23:0.34818652272224426 24:0.9374252557754517 25:0.15033484995365143 26:0.8476873636245728 27:0.6805080771446228 28:0.7327405214309692 29:0.3094924986362457 30:0.9560258388519287 31:0.9525803923606873 32:0.30428701639175415 33:0.515214741230011 34:0.9642425775527954 35:0.9859325885772705 36:-0.1671435385942459 37:0.7169815301895142 38:0.8869448900222778 39:0.8641438484191895 40:-0.5032449960708618 41:0.8810093998908997 42:0.7512174844741821 43:0.6398871541023254 44:-0.7684688568115234 45:0.9744378924369812 46:0.5777541399002075 47:0.31793686747550964 48:-0.948111891746521 49:1.0 50:0.3963784873485565 51:-0.05493883043527603 52:-0.9984896779060364 53:0.9555670022964478 54:0.23478379845619202 55:-0.5010371804237366 56:-0.8654257655143738 57:0.839317798614502 58:0.11883717775344849 59:-0.8327382206916809 60:-0.553666889667511 61:0.6731583476066589 62:0.04701732099056244 63:-0.9718921184539795 64:-0.23542669415473938 65:0.496346652507782 66:0.03575742244720459 67:-0.997467577457428 68:0.0711226761341095 69:0.3274514675140381 70:0.07166734337806702 71:-0.9306332468986511 72:0.36595311760902405 73:0.2355419099330902 74:0.13831372559070587 75:-0.18109549582004547 76:0.9834654927253723 77:0.31192898750305176 78:0.1559644341468811 79:0.9743270874023438 80:0.22513708472251892 
6.211940143707335 0.645114197070298 1.0260559348820977 1.3683002347580686 0.0 3.6196992921097877 0.31312858977898667 1.8676259137256572 1:0.653436541557312 2:0.32841235399246216 3:-0.09811171889305115 4:-0.9951753616333008 5:0.6466604471206665 6:0.25968047976493835 7:-0.4067615866661072 8:-0.9135343432426453 9:0.5943844318389893 10:0.1957888901233673 11:-0.7505366802215576 12:-0.6608287692070007 13:0.5251691937446594 14:0.1527104675769806 15:-0.9711459875106812 16:-0.23848582804203033 17:0.40319520235061646 18:0.14883825182914734 19:-0.9650942087173462 20:0.2619028389453888 21:0.2647624611854553 22:0.22337844967842102 23:-0.85065096616745 24:0.5257308483123779 25:0.10793895274400711 26:0.3313165307044983 27:-0.7157818078994751 28:0.6983240246772766 29:0.006776144728064537 30:0.4750725328922272 31:-0.33510100841522217 32:0.942182183265686 33:0.0 34:0.6348016262054443 35:0.4257234036922455 36:0.904853343963623 37:0.14181968569755554 38:0.7621006965637207 39:0.8731976747512817 40:0.4873661994934082 41:0.37463682889938354 42:0.8439012765884399 43:0.9834577441215515 44:0.18113769590854645 45:0.6253620386123657 46:0.8511617183685303 47:0.9949954152107239 48:-0.09992038458585739 49:0.8325261473655701 50:0.7979186773300171 51:0.9064180254936218 52:-0.42238184809684753 53:0.959825873374939 54:0.6953048706054688 55:0.5242676138877869 56:-0.8515535593032837 57:1.0 58:0.5258954763412476 59:-0.04104011133313179 60:-0.9991575479507446 61:0.9457896947860718 62:0.3535817861557007 63:-0.5309425592422485 64:-0.8474078178405762 65:0.8286542296409607 66:0.252420037984848 67:-0.8537963628768921 68:-0.520607054233551 69:0.707647979259491 70:0.208373561501503 71:-0.9521581530570984 72:-0.3056057095527649 73:0.6069701313972473 74:0.18126806616783142 75:-0.9999961256980896 76:0.002785711782053113 77:0.5338818430900574 78:0.20885762572288513 79:-0.9355633854866028 80:0.3531589210033417 
10.828089656316108 0.0 0.0 0.0 1.0485627266909883 0.0 0.0 0.0 1:0.4206896424293518 2:0.05732758343219757 3:-0.045406945049762726 4:-0.9989685416221619 5:0.41875001788139343 6:0.014655170030891895 7:-0.13777048885822296 8:-0.9904642105102539 9:0.4127155542373657 10:0.0 11:-0.9794569611549377 12:0.20165330171585083 13:0.41142240166664124 14:0.016163799911737442 15:-0.30606427788734436 16:0.9520108103752136 17:0.3737068772315979 18:0.12133622169494629 19:-0.4041930139064789 20:0.9146737456321716 21:0.29504308104515076 22:0.27952587604522705 23:-0.4185490012168884 24:0.9081941843032837 25:0.216379314661026 26:0.4627155661582947 27:-0.3069693148136139 28:0.9517194032669067 29:0.1790948510169983 30:0.639008641242981 31:0.02194034308195114 32:0.999759316444397 33:0.22435352206230164 34:0.8260776400566101 35:0.44594094157218933 36:0.8950623273849487 37:0.33017244935035706 38:0.9422413110733032 39:0.8068006038665771 40:0.5908238291740417 41:0.4618535339832306 42:1.0 43:0.9904048442840576 44:0.13819602131843567 45:0.6174569725990295 46:0.9823275208473206 47:0.9423774480819702 48:-0.33455148339271545 49:0.7502155303955078 50:0.8976292014122009 51:0.7195545434951782 52:-0.6944358944892883 53:0.8088362216949463 54:0.7976290583610535 55:0.26697197556495667 56:-0.9637043476104736 57:0.8209051489830017 58:0.6424567699432373 59:-0.13232897222042084 60:-0.9912058711051941 61:0.7635775804519653 62:0.45862069725990295 63:-0.46121275424957275 64:-0.8872895836830139 65:0.6200429201126099 66:0.25603431463241577 67:-0.6465657353401184 68:-0.7628582715988159 69:0.5131464004516602 70:0.1631464958190918 71:-0.8650979399681091 72:-0.5016030073165894 73:0.42564648389816284 74:0.14331895112991333 75:-0.9918853640556335 76:-0.1271352916955948 77:0.32650864124298096 78:0.1392241269350052 79:-0.9991481304168701 80:-0.04126916453242302 
0.0 0.21464268041032705 0.0 1.6863820038584278 1.585183297678215 0.0 0.4083489905238454 0.5160129313638179 1:0.5346336960792542 2:0.0485820546746254 3:-0.4626128673553467 4:0.8865603804588318 5:0.44560396671295166 6:0.21920037269592285 7:-0.444253534078598 8:0.895901083946228 9:0.33891236782073975 10:0.44328221678733826 11:-0.3961946964263916 12:0.9181665182113647 13:0.2508142590522766 14:0.6706182956695557 15:-0.30984780192375183 16:0.9507862329483032 17:0.21013367176055908 18:0.8384472131729126 19:-0.09612758457660675 20:0.9953689575195312 21:0.2240777164697647 22:0.947466254234314 23:0.40710750222206116 24:0.9133802652359009 25:0.28172579407691956 26:0.9990702271461487 27:0.9395284652709961 28:0.34247079491615295 29:0.36819788813591003 30:1.0 31:0.977396547794342 32:-0.21141448616981506 33:0.4869832694530487 34:0.9546722769737244 35:0.8768923282623291 36:-0.4806867837905884 37:0.6166892051696777 38:0.8637843132019043 39:0.7536135911941528 40:-0.6573176383972168 41:0.7271029949188232 42:0.7452347874641418 43:0.5404582023620605 44:-0.8413708209991455 45:0.7866100072860718 46:0.599256157875061 47:0.20671071112155914 48:-0.9784021377563477 49:0.7898663282394409 50:0.4481636881828308 51:-0.0991959497332573 52:-0.9950678944587708 53:0.7573201060295105 54:0.3054393231868744 55:-0.42603999376296997 56:-0.9047043323516846 57:0.6731771230697632 58:0.2003718614578247 59:-0.7244908213615417 60:-0.6892843842506409 61:0.566015362739563 62:0.12343098223209381 63:-0.8958526849746704 64:-0.44435128569602966 65:0.43979430198669434 66:0.08461180329322815 67:-0.9703799486160278 68:-0.24158400297164917 69:0.3428630828857422 70:0.06787540018558502 71:-0.9549737572669983 72:-0.2966902554035187 73:0.2961399555206299 74:0.0399814210832119 75:-0.16550368070602417 76:-0.9862092137336731 77:0.33147236704826355 78:0.0 79:0.6621977090835571 80:-0.749329149723053 
0.0 0.0 0.0 0.0 0.1830975487534333 0.0 0.0 0.0 1:0.3074534237384796 2:0.21118012070655823 3:-0.7543255090713501 4:-0.656500518321991 5:0.27214550971984863 6:0.18045112490653992 7:-0.687887966632843 8:0.7258169054985046 9:0.22442133724689484 10:0.29879045486450195 11:-0.33852487802505493 12:0.9409574866294861 13:0.18911345303058624 14:0.4112454950809479 15:-0.18923799693584442 16:0.981931209564209 17:0.17080745100975037 18:0.5769858956336975 19:-0.009381482377648354 20:0.9999560117721558 21:0.18584711849689484 22:0.7593984603881836 23:0.1671772599220276 24:0.9859268665313721 25:0.22180402278900146 26:0.8777378797531128 27:0.6199350357055664 28:0.7846531867980957 29:0.36302649974823 30:0.983654797077179 31:0.8981572985649109 32:0.439674437046051 33:0.4715583920478821 34:1.0 35:0.9973337650299072 36:-0.07297578454017639 37:0.5774760246276855 38:0.9679633378982544 39:0.8660979866981506 40:-0.4998743236064911 41:0.6833935976028442 42:0.8777378797531128 43:0.6586639285087585 44:-0.7524373531341553 45:0.7703500986099243 46:0.7476299405097961 47:0.429607629776001 48:-0.903015673160553 49:0.8180773258209229 50:0.5946388244628906 51:0.16726037859916687 52:-0.9859127402305603 53:0.8291925191879272 54:0.40078455209732056 55:-0.09274470061063766 56:-0.9956899285316467 57:0.7847347259521484 58:0.2366788387298584 59:-0.40234899520874023 60:-0.9154863953590393 61:0.6938537359237671 62:0.09284091740846634 63:-0.6832289695739746 64:-0.730204164981842 65:0.5755168199539185 66:0.01307621318846941 67:-0.9309378266334534 68:-0.3651776909828186 69:0.4571768343448639 70:0.0 71:-0.9978094696998596 72:0.06615249812602997 73:0.3388368487358093 74:0.028767555952072144 75:-0.8843861818313599 76:0.4667559266090393 77:0.24534161388874054 78:0.11180110275745392 79:-0.7477004528045654 80:0.664036214351654 
0.0 1.3340352174787184 1.1182422782115384 2.975968016398266 3.6139053550216156 0.0 1.1834569512436313 0.5331308817161478 1:0.2630687654018402 2:0.18423253297805786 3:-0.38897213339805603 4:-0.921249508857727 5:0.2470485121011734 6:0.14628984034061432 7:-0.5646975040435791 8:-0.8252979516983032 9:0.21922233700752258 10:0.12015155702829361 11:-0.9970036745071411 12:0.07735421508550644 13:0.14924132823944092 14:0.1538783758878708 15:-0.8069314956665039 16:0.5906450152397156 17:0.05564844608306885 18:0.23988179862499237 19:-0.6039969325065613 20:0.7969866394996643 21:0.006744851358234882 22:0.34190547466278076 23:-0.21328048408031464 24:0.9769910573959351 25:0.0033734035678207874 26:0.4793422818183899 27:-0.025795893743634224 28:0.9996671676635742 29:0.0 30:0.6032884120941162 31:0.01359920110553503 32:0.9999074935913086 33:0.006744851358234882 34:0.7272344827651978 35:0.2672620117664337 36:0.9636239409446716 37:0.05986666679382324 38:0.8191400766372681 39:0.6839403510093689 40:0.7295379042625427 41:0.18381039798259735 42:0.916104793548584 43:0.8948768377304077 44:0.4463132321834564 45:0.3946041166782379 46:0.9860879182815552 47:0.9884993433952332 48:0.15122531354427338 49:0.6357506513595581 50:0.9852447509765625 51:0.9873543977737427 52:-0.1585283726453781 53:0.8777400255203247 54:0.9085162281990051 55:0.8267126679420471 56:-0.5626243948936462 57:1.0 58:0.7373526096343994 59:0.288626492023468 60:-0.9574418067932129 61:1.0 62:0.5029512047767639 63:-0.16677449643611908 64:-0.9859950542449951 65:0.9232721924781799 66:0.28372666239738464 67:-0.5276241898536682 68:-0.8494778871536255 69:0.7470495104789734 70:0.09569951146841049 71:-0.8197371363639832 72:-0.5727399587631226 73:0.5370986461639404 74:0.013912081718444824 75:-0.9982959032058716 76:-0.05835516005754471 77:0.3431699872016907 78:0.07209082692861557 79:-0.9578261375427246 80:0.28734856843948364 
0.0 0.6507368768890567 0.0 0.0 1.6710869018813594 0.0 0.0 0.6092780577617223 1:0.23572474718093872 2:0.18678100407123566 3:0.07808894664049149 4:0.996946394443512 5:0.2430480420589447 6:0.2802760899066925 7:-0.09188161045312881 8:0.9957699775695801 9:0.21501615643501282 10:0.4112110435962677 11:-0.18394502997398376 12:0.9829365015029907 13:0.18280838429927826 14:0.6021752953529358 15:-0.09130966663360596 16:0.9958226084709167 17:0.1817605346441269 18:0.7738966345787048 19:0.1426604986190796 20:0.9897716641426086 21:0.22610005736351013 22:0.90253084897995 23:0.5516155958175659 24:0.8340985774993896 25:0.3198087811470032 26:0.9826395511627197 27:0.9206563830375671 28:0.39037391543388367 29:0.4559709429740906 30:1.0 31:0.9987024664878845 32:-0.050925515592098236 33:0.6151430606842041 34:0.9675799608230591 35:0.9227621555328369 36:-0.3853698968887329 37:0.7454527616500854 38:0.879104733467102 39:0.7163598537445068 40:-0.6977310180664062 41:0.8243053555488586 42:0.7638568878173828 43:0.36444732546806335 44:-0.9312240481376648 45:0.8517046570777893 46:0.6076133251190186 47:0.004657174926251173 48:-0.9999892115592957 49:0.8257684707641602 50:0.4496966004371643 51:-0.3374234437942505 52:-0.9413530230522156 53:0.7452432513237 54:0.31060442328453064 55:-0.608167827129364 56:-0.7938084602355957 57:0.6345942616462708 58:0.20016728341579437 59:-0.7629554271697998 60:-0.6464510560035706 61:0.5206037759780884 62:0.12026770412921906 63:-0.858645498752594 64:-0.5125699639320374 65:0.41560545563697815 66:0.0694415271282196 67:-0.9334233999252319 68:-0.358776718378067 69:0.3225254416465759 70:0.0441330224275589 71:-0.9806236028671265 72:-0.19590136408805847 73:0.22923973202705383 74:0.032210830599069595 75:-0.9693843722343445 76:-0.2455480694770813 77:0.1482953429222107 78:0.0 79:-0.9291359186172485 80:-0.36973831057548523 
21.629501235734203 0.0 3.6973039886037777 1.7801220489097769 0.0 3.8803985122654074 0.1120376199918142 0.0 1:0.4356304407119751 2:0.0 3:-0.7447385191917419 4:0.6673563718795776 5:0.3630717098712921 6:0.06501950323581696 7:-0.659876823425293 8:0.751373827457428 9:0.28556668758392334 10:0.17087124288082123 11:-0.5428074598312378 12:0.8398571610450745 13:0.1953170746564865 14:0.32457733154296875 15:-0.4366927742958069 16:0.899610698223114 17:0.11235421150922775 18:0.527698278427124 19:-0.2815539836883545 20:0.959545373916626 21:0.07672631740570068 22:0.7287386059761047 23:-0.008562360890209675 24:0.9999632835388184 25:0.10923200845718384 26:0.8923276662826538 27:0.45404699444770813 28:0.890977680683136 29:0.20754048228263855 30:0.9854356050491333 31:0.920170247554779 32:0.3915185332298279 33:0.3622899651527405 34:1.0 35:0.9875184893608093 36:-0.15750274062156677 37:0.5581299662590027 38:0.9295188784599304 39:0.8701798915863037 40:-0.4927341639995575 41:0.7490237355232239 42:0.7810143232345581 43:0.6899960041046143 44:-0.7238131165504456 45:0.8819225430488586 46:0.5898570418357849 47:0.4187365472316742 48:-0.9081077575683594 49:0.9232736825942993 50:0.4031210243701935 51:-0.005299363750964403 52:-0.999985933303833 53:0.8801032304763794 54:0.2465541511774063 55:-0.5295994281768799 56:-0.8482478260993958 57:0.7646299004554749 58:0.14902473986148834 59:-0.9061388373374939 60:-0.4229804575443268 61:0.6059812903404236 62:0.11859557777643204 63:-0.9994024038314819 64:0.03456789627671242 65:0.42626863718032837 66:0.16072817146778107 67:-0.9338932037353516 68:0.35755208134651184 69:0.27516254782676697 70:0.24525344371795654 71:-0.7505959272384644 72:0.6607614159584045 73:0.23068921267986298 74:0.332899808883667 75:-0.05190301313996315 76:0.9986522197723389 77:0.2676200270652771 78:0.39037710428237915 79:0.540562093257904 80:0.8413041234016418 
-13.096914256558996 0.0 0.0 0.0 0.0 0.0 0.0 0.0 1:0.601163387298584 2:0.0 3:-0.9234724044799805 4:0.3836648464202881 5:0.4441072344779968 6:0.06525038182735443 7:-0.8399879932403564 8:0.5426051020622253 9:0.28755688667297363 10:0.20257966220378876 11:-0.7058984041213989 12:0.7083131074905396 13:0.2223065197467804 14:0.287809818983078 15:-0.4738915264606476 16:0.8805831670761108 17:0.1502276211977005 18:0.45776429772377014 19:-0.29719963669776917 20:0.9548153877258301 21:0.13075366616249084 22:0.5819423198699951 23:-0.021528173238039017 24:0.9997682571411133 25:0.143904909491539 26:0.7513909935951233 27:0.25434771180152893 28:0.9671127796173096 29:0.19600404798984528 30:0.8300455212593079 31:0.5864365100860596 32:0.809995174407959 33:0.2812342047691345 34:0.9410723447799683 35:0.8554462194442749 36:0.5178917646408081 37:0.47673243284225464 38:1.0 39:0.993560791015625 40:0.11330068856477737 41:0.6272130012512207 42:0.9805260300636292 43:0.9572557806968689 44:-0.28924262523651123 45:0.7579666376113892 46:0.9150227904319763 47:0.8523873686790466 48:-0.5229109525680542 49:0.8300455808639526 50:0.8560950756072998 51:0.49323877692222595 52:-0.8698939681053162 53:0.8692463636398315 54:0.7187657952308655 55:-0.05736416205763817 56:-0.9983533024787903 57:0.8168942928314209 58:0.6272129416465759 59:-0.8666809797286987 60:-0.4988628029823303 61:0.5748609304428101 62:0.5493171215057373 63:-0.9976770877838135 64:-0.06812100112438202 65:0.34648457169532776 66:0.5950935482978821 67:-0.9703971743583679 68:0.24151475727558136 69:0.23545776307582855 70:0.6337885856628418 71:-0.8675538301467896 72:0.4973433315753937 73:0.13075366616249084 74:0.7187657952308655 75:-0.4832625687122345 76:0.8754754662513733 77:0.13075366616249084 78:0.823469877243042 79:0.0 80:1.0 
-9.552074370127931 1.780521015829987 7.46515081708401 2.3057864843958034 1.8743861747688078 1.5096188747490569 1.0650843683901152 1.5804732620053645 1:0.47451943159103394 2:0.0 3:-0.32109978795051575 4:0.9470453262329102 5:0.42154693603515625 6:0.15623602271080017 7:-0.34225979447364807 8:0.9396053552627563 9:0.35516229271888733 10:0.32767099142074585 11:-0.32625696063041687 12:0.9452810883522034 13:0.3039793074131012 14:0.496870756149292 15:-0.26865068078041077 16:0.9632376432418823 17:0.25704100728034973 18:0.6794814467430115 19:-0.18029770255088806 20:0.9836121201515198 21:0.24117165803909302 22:0.8395171761512756 23:0.023803627118468285 24:0.9997166395187378 25:0.263523131608963 26:0.9517209529876709 27:0.5146691203117371 28:0.8573888540267944 29:0.3375054895877838 30:1.0 31:0.9925459027290344 32:0.12187113612890244 33:0.45283982157707214 34:0.9749664664268494 35:0.9100813269615173 36:-0.41442978382110596 37:0.5829216837882996 38:0.8882431983947754 39:0.7574563026428223 40:-0.6528857350349426 41:0.6989278793334961 42:0.7628520727157593 43:0.5836239457130432 44:-0.8120240569114685 45:0.758828341960907 46:0.6434957981109619 47:0.2545393407344818 48:-0.9670623540878296 49:0.7523462176322937 50:0.5599016547203064 51:-0.5224159955978394 52:-0.8526908159255981 53:0.6852917671203613 54:0.5234689116477966 55:-0.9925705790519714 56:-0.12167007476091385 57:0.5791228413581848 58:0.5386677980422974 59:-0.9499326348304749 60:0.3124549984931946 61:0.44881492853164673 62:0.6012516617774963 63:-0.8271085023880005 64:0.5620423555374146 65:0.335718035697937 66:0.7040678858757019 67:-0.6623035073280334 68:0.7492356300354004 69:0.2700052559375763 70:0.8035314083099365 71:-0.30831873416900635 72:0.9512830972671509 73:0.280734121799469 74:0.8737146258354187 75:0.5393311381340027 76:0.8420938849449158 77:0.34286993741989136 78:0.9172999262809753 79:0.8186730146408081 80:0.5742599368095398 
-0.0 0.0 0.9587093550862281 0.0 0.0 0.0 0.0 0.3067228150112439 1:0.48545652627944946 2:0.0 3:0.03184017166495323 4:0.9994929432868958 5:0.4884568452835083 6:0.09418283402919769 7:-0.1799156665802002 8:0.9836820363998413 9:0.4429824650287628 10:0.23222531378269196 11:-0.35347533226013184 12:0.9354438185691833 13:0.3820393979549408 14:0.3758079707622528 15:-0.3250388205051422 16:0.9457007050514221 17:0.33587324619293213 18:0.5438596606254578 19:-0.24332857131958008 20:0.9699438810348511 21:0.2987060546875 22:0.7079870700836182 23:-0.1585620790719986 24:0.9873489737510681 25:0.2880880832672119 26:0.8414127230644226 27:0.06738770753145218 28:0.9977268576622009 29:0.31417256593704224 30:0.936980664730072 31:0.45336195826530457 32:0.8913264870643616 33:0.36288076639175415 34:0.9884579181671143 35:0.9047837853431702 36:0.42587122321128845 37:0.44806015491485596 38:1.0 39:0.9911850094795227 40:-0.1324848085641861 41:0.5493999123573303 42:0.9635272026062012 43:0.886824905872345 44:-0.4621056020259857 45:0.6451972723007202 46:0.8972760438919067 47:0.7426711916923523 48:-0.6696562170982361 49:0.7137579917907715 50:0.8153278231620789 51:0.5133236646652222 52:-0.8581951260566711 53:0.7338417768478394 54:0.7490766048431396 55:-0.07328291982412338 56:-0.9973112344741821 57:0.7054464817047119 58:0.7022160291671753 59:-0.8617429137229919 60:-0.5073451399803162 61:0.6311142444610596 62:0.6885964870452881 63:-0.9997338652610779 64:0.02307124435901642 65:0.525390625 66:0.7063712477684021 67:-0.9688462615013123 68:0.24766282737255096 69:0.4053547978401184 70:0.7463065981864929 71:-0.9284757971763611 72:0.37139299511909485 73:0.30147725343704224 74:0.7959372401237488 75:-0.8947237133979797 76:0.44662004709243774 77:0.26615825295448303 78:0.8157894611358643 79:-0.8717306852340698 80:0.48998525738716125 
-0.0 0.0 1.217398654357213 1.4259810842883134 0.0 3.4080917194920763 0.0 0.0 1:0.5866012573242188 2:0.003267973894253373 3:-0.9486830234527588 4:-0.3162286579608917 5:0.576797366142273 6:0.0 7:-0.7633855938911438 8:0.6459431052207947 9:0.5441176891326904 10:0.03921568766236305 11:-0.6225234270095825 12:0.7826011776924133 13:0.4624183177947998 14:0.1437908560037613 15:-0.5387757420539856 16:0.8424493074417114 17:0.3643791079521179 18:0.3202614486217499 19:-0.4204610586166382 20:0.9073106050491333 21:0.27614378929138184 22:0.5457516312599182 23:-0.28603556752204895 24:0.9582189917564392 25:0.23366013169288635 26:0.758169949054718 27:-0.07061969488859177 28:0.9975032806396484 29:0.25 30:0.915032684803009 31:0.3314860165119171 32:0.9434601664543152 33:0.3186274468898773 34:1.0 35:0.9150861501693726 36:0.4032583236694336 37:0.44281044602394104 38:1.0 39:0.9552859663963318 40:-0.29568371176719666 41:0.593137264251709 42:0.915032684803009 43:0.7719302773475647 44:-0.6357072591781616 45:0.720588207244873 46:0.7712418437004089 47:0.520258367061615 48:-0.8540089130401611 49:0.766339898109436 50:0.6307189464569092 51:0.028158098459243774 52:-0.9996035099029541 53:0.7271242141723633 54:0.5392156839370728 55:-0.7933094501495361 56:-0.6088185906410217 57:0.6258170008659363 58:0.5228758454322815 59:-0.9784033298492432 60:0.2067050337791443 61:0.4950980544090271 62:0.5882353186607361 63:-0.7963564395904541 64:0.6048275828361511 65:0.36764705181121826 66:0.7189542651176453 67:-0.5968644022941589 68:0.8023421764373779 69:0.2957516312599182 70:0.8562091588973999 71:-0.22589051723480225 72:0.9741527438163757 73:0.3153594732284546 74:0.9444444179534912 75:0.7071069478988647 76:0.7071067094802856 77:0.41013070940971375 78:0.970588207244873 79:0.9639925956726074 80:0.2659290134906769 
-2.007816273215237 1.2221591728129495 0.8113492233974186 1.8564646354708203 0.19232206148232805 3.5207396953055543 1.4103579194185638 1.4381968432664418 1:0.7887495160102844 2:0.08256880939006805 3:0.6256832480430603 4:-0.7800772190093994 5:0.8259294033050537 6:0.03621439263224602 7:0.4425487816333771 8:-0.896744430065155 9:0.8254467248916626 10:0.00820859894156456 11:-0.6491174697875977 12:-0.7606881260871887 13:0.7950266003608704 14:0.0 15:-0.9772161841392517 16:0.21224668622016907 17:0.71873539686203 18:0.031385790556669235 19:-0.8715752959251404 20:0.49026161432266235 21:0.5864319801330566 22:0.11733459681272507 23:-0.7750603556632996 24:0.6318873167037964 25:0.44688597321510315 26:0.2530178129673004 27:-0.6847126483917236 28:0.7288130521774292 29:0.3015455901622772 30:0.4205697178840637 31:-0.5580112338066101 32:0.829833447933197 33:0.203042134642601 34:0.6156445145606995 35:-0.32059696316719055 36:0.947215735912323 37:0.1740705966949463 38:0.7971993684768677 39:0.010541225783526897 40:0.9999443888664246 41:0.20642203092575073 42:0.9362626671791077 43:0.5546994209289551 44:0.8320508599281311 45:0.3092707395553589 46:1.0 47:0.9856672883033752 48:0.168700709939003 49:0.4575088918209076 50:0.9792371392250061 51:0.9482986927032471 52:-0.3173791170120239 53:0.6670688986778259 54:0.8802511692047119 55:0.8348318934440613 56:-0.5505049228668213 57:0.7906813621520996 58:0.7595365047454834 59:0.578899085521698 60:-0.8153991103172302 61:0.8254467248916626 62:0.6571705937385559 63:-0.25945845246315 64:-0.9657542109489441 65:0.7472237348556519 66:0.597778856754303 67:-0.9654756784439087 68:-0.2604932188987732 69:0.5999520421028137 70:0.5963302850723267 71:-0.9905784726142883 72:0.13694605231285095 73:0.4328826069831848 74:0.6412360668182373 75:-0.9180624485015869 76:0.39643579721450806 77:0.30251097679138184 78:0.7247706651687622 79:-0.8419875502586365 80:0.539496898651123 
-10.099977471114949 0.0 0.0 0.0 0.0 0.0 0.0 0.0 1:0.6620813012123108 2:0.022727273404598236 3:0.6196523904800415 4:-0.7848763465881348 5:0.680024266242981 6:0.0 7:-0.38808053731918335 8:-0.9216254353523254 9:0.6525112390518188 10:0.0 11:-0.9459466338157654 12:0.3243224024772644 13:0.5962916612625122 14:0.02870813198387623 15:-0.7818979620933533 16:0.6234064102172852 17:0.47547808289527893 18:0.14114834368228912 19:-0.6334549784660339 20:0.773779571056366 21:0.40729695558547974 22:0.2595694363117218 23:-0.4408579170703888 24:0.8975768685340881 25:0.3092106878757477 26:0.479665070772171 27:-0.3145125210285187 28:0.949253261089325 29:0.2757176458835602 30:0.6566985845565796 31:-0.053686950355768204 32:0.9985578060150146 33:0.2912677526473999 34:0.8133971691131592 35:0.26185065507888794 36:0.9651083946228027 37:0.359449565410614 38:0.9653110504150391 39:0.7245586514472961 40:0.6892131567001343 41:0.487440288066864 42:1.0 43:0.995665967464447 44:0.0930013433098793 45:0.5771529674530029 46:0.9856458902359009 47:0.8955650925636292 48:-0.4449306130409241 49:0.6752392053604126 50:0.9066985845565796 51:0.6872801780700684 52:-0.7263924479484558 53:0.7242823839187622 54:0.8301435112953186 55:0.18834953010082245 56:-0.98210209608078 57:0.7087322473526001 58:0.7320573925971985 59:-0.44168606400489807 60:-0.8971696496009827 61:0.6477268934249878 62:0.6746410727500916 63:-0.8362442851066589 64:-0.5483571887016296 65:0.562799334526062 66:0.6363636255264282 67:-0.9696917533874512 68:-0.24433164298534393 69:0.49581319093704224 70:0.6363636255264282 71:-0.9920171499252319 72:0.12610307335853577 73:0.4216499328613281 74:0.6543062329292297 75:-0.9779627919197083 76:0.2087792307138443 77:0.38935402035713196 78:0.6590909361839294 79:-0.9892028570175171 80:0.14655235409736633 
-0.0 0.7785605114820905 0.7067256491199648 1.420398819574847 1.8546643759532733 0.0 0.0 1.4317359890998922 1:0.7628991603851318 2:0.04668304696679115 3:0.8732001185417175 4:-0.4873618185520172 5:0.8157253265380859 6:0.017199018970131874 7:0.7776309847831726 8:-0.6287209987640381 9:0.82063889503479 10:0.0 11:-0.999592125415802 12:0.028559230268001556 13:0.7727271318435669 14:0.018427515402436256 15:-0.8756963610649109 16:0.48286208510398865 17:0.6891896724700928 18:0.07248156517744064 19:-0.8253072500228882 20:0.5646838545799255 21:0.5859949588775635 22:0.14619162678718567 23:-0.733561635017395 24:0.6796229481697083 25:0.4385753571987152 26:0.30466824769973755 27:-0.6027361154556274 28:0.7979406118392944 29:0.3697788119316101 30:0.4324323832988739 31:-0.41327759623527527 32:0.9106051325798035 33:0.29361116886138916 34:0.6240785717964172 35:-0.20086967945098877 36:0.9796179533004761 37:0.28992557525634766 38:0.8218672871589661 39:0.12736152112483978 40:0.9918563365936279 41:0.3341525197029114 42:0.939803421497345 43:0.5466241836547852 44:0.8373780846595764 45:0.4054051637649536 46:0.9987714290618896 47:0.9329662322998047 48:0.3599638044834137 49:0.49017202854156494 50:1.0 51:0.961856484413147 52:-0.27355459332466125 53:0.5393118858337402 54:0.9606879949569702 55:0.3374612033367157 56:-0.941339373588562 57:0.5368550419807434 58:0.8697789311408997 59:-0.1904796063899994 60:-0.9816911220550537 61:0.5073704719543457 62:0.7960687875747681 63:-0.6072091460227966 64:-0.7945420145988464 65:0.42137622833251953 66:0.7186732292175293 67:-0.836858868598938 68:-0.5474187731742859 69:0.34397977590560913 70:0.6891891956329346 71:-0.9452284574508667 72:-0.32640957832336426 73:0.2506144046783447 74:0.6597051620483398 75:-0.9773733615875244 76:-0.21152165532112122 77:0.17936107516288757 78:0.6535626649856567 79:-0.9963048100471497 80:-0.08588790893554688 
-0.0 0.7253015787153558 0.9061051015675995 0.0 0.14314412647032512 2.284911324981713 1.0718386080398026 0.701000424872223 1:0.5654723644256592 2:0.06677524000406265 3:0.148010715842247 4:-0.9889857172966003 5:0.5726384520530701 6:0.018892506137490273 7:0.18756495416164398 8:-0.9822521805763245 9:0.5778501629829407 10:0.001954394392669201 11:-0.20260949432849884 12:-0.9792596101760864 13:0.5687295794487 14:0.0 15:-0.7702872157096863 16:0.6376972198486328 17:0.4983713626861572 18:0.06775245815515518 19:-0.6561114192008972 20:0.7546641230583191 21:0.4104235768318176 22:0.18208472430706024 23:-0.5313252806663513 24:0.8471679091453552 25:0.3224754333496094 26:0.348208487033844 27:-0.35826751589775085 28:0.93361896276474 29:0.2566772997379303 30:0.5827363133430481 31:-0.06623783707618713 32:0.997803807258606 33:0.2918567955493927 34:0.8094462752342224 35:0.393429696559906 36:0.9193546175956726 37:0.41433244943618774 38:0.9511401057243347 39:0.8345054984092712 40:0.5509995222091675 41:0.5804561972618103 42:1.0 43:0.9999743103981018 44:-0.007176992017775774 45:0.6866451501846313 46:0.9491856694221497 47:0.6834863424301147 48:-0.7299633026123047 49:0.7433227300643921 50:0.826058566570282 51:0.20876380801200867 52:-0.9779661297798157 53:0.7413678765296936 54:0.6928339004516602 55:-0.1403781622648239 56:-0.9900979995727539 57:0.7127033472061157 58:0.6100977063179016 59:-0.862162709236145 60:-0.5066315531730652 61:0.6465796232223511 62:0.6371335983276367 63:-0.7972097396850586 64:0.6037024855613708 65:0.4885995388031006 66:0.7798046469688416 67:-0.6808527708053589 68:0.7324202060699463 69:0.39283400774002075 70:0.9100977778434753 71:-0.4445783793926239 72:0.8957399129867554 73:0.40065139532089233 74:0.9570032358169556 75:0.9677842259407043 76:0.25178101658821106 77:0.5530945062637329 78:0.951791524887085 79:0.9994161128997803 80:-0.03416794538497925 
-0.29084289582094314 0.0 0.0 0.0 0.0 0.0 0.0 0.0 1:0.5899124145507812 2:0.0 3:-0.6887496113777161 4:0.7249992489814758 5:0.5482457280158997 6:0.04385964944958687 7:-0.5671015977859497 8:0.8236478567123413 9:0.49780717492103577 10:0.13377194106578827 11:-0.5330374240875244 12:0.846091628074646 13:0.4100878834724426 14:0.2631579339504242 15:-0.5532963275909424 16:0.832984447479248 17:0.29824575781822205 18:0.43421053886413574 19:-0.4093917906284332 20:0.9123587012290955 21:0.25657910108566284 22:0.6052631735801697 23:-0.11172216385602951 24:0.9937395453453064 25:0.25657910108566284 26:0.8048245906829834 27:0.1373712718486786 28:0.9905195832252502 29:0.29824575781822205 30:0.9057018160820007 31:0.5079846978187561 32:0.8613660931587219 33:0.3574562072753906 34:0.9758772253990173 35:0.8923176527023315 36:0.4514080286026001 37:0.48464903235435486 38:1.0 39:0.9881739020347595 40:-0.15333744883537292 41:0.611842155456543 42:0.9364035129547119 43:0.8393559455871582 44:-0.5435822606086731 45:0.7149124145507812 46:0.8508772253990173 47:0.6549301147460938 48:-0.7556894421577454 49:0.7828947305679321 50:0.7390349507331848 51:0.24957560002803802 52:-0.9683552980422974 53:0.7697368860244751 54:0.638157844543457 55:-0.5702148675918579 56:-0.8214955925941467 57:0.6535087823867798 58:0.5526315569877625 59:-0.9307515025138855 60:-0.3656521737575531 61:0.5241228938102722 62:0.5416666865348816 63:-0.9956830739974976 64:0.09281805157661438 65:0.3947369456291199 66:0.5767543911933899 67:-0.8821156620979309 68:0.4710327982902527 69:0.29824575781822205 70:0.6622807383537292 71:-0.720320463180542 72:0.6936414241790771 73:0.21710523962974548 74:0.7478070259094238 75:-0.30653131008148193 76:0.9518605470657349 77:0.25657910108566284 78:0.7916666865348816 79:0.6689662933349609 80:0.7432927489280701 
-0.7315087411824518 0.0 0.0 0.631340697357539 0.2943551572352877 0.0 0.0 0.0 1:0.7444822192192078 2:0.0 3:-0.752577006816864 4:0.6585042476654053 5:0.6867572069168091 6:0.050509337335824966 7:-0.6949464082717896 8:0.7190614938735962 9:0.6099321842193604 10:0.1392190009355545 11:-0.6252572536468506 12:0.7804186940193176 13:0.5140066146850586 14:0.2661290466785431 15:-0.5870687961578369 16:0.8095370531082153 17:0.40831929445266724 18:0.41723257303237915 19:-0.5304056406021118 20:0.8477439880371094 21:0.3153652250766754 22:0.583616316318512 23:-0.4228857457637787 24:0.9061830043792725 25:0.2567911446094513 26:0.7419354915618896 27:-0.23331840336322784 28:0.9724003672599792 29:0.24702897667884827 30:0.8684210777282715 31:0.1600220799446106 32:0.987113356590271 33:0.2920207381248474 34:0.9592530131340027 35:0.7093774676322937 36:0.7048287987709045 37:0.3794570565223694 38:1.0 39:0.9774141907691956 40:0.21133267879486084 41:0.48047566413879395 42:1.0 43:0.9814906120300293 44:-0.19151033461093903 45:0.5882853865623474 46:0.9592530131340027 47:0.894798994064331 48:-0.446469247341156 49:0.6846352815628052 50:0.8981324434280396 51:0.7797484397888184 52:-0.6260929107666016 53:0.7325975894927979 54:0.8433786630630493 55:0.48795512318611145 56:-0.8728687763214111 57:0.7529710531234741 58:0.7758913636207581 59:0.03183072805404663 60:-0.9994933009147644 61:0.7368420362472534 62:0.7101019024848938 63:-0.622782826423645 64:-0.7823947668075562 65:0.6685062646865845 66:0.6697792410850525 67:-0.9632236957550049 68:-0.2687006890773773 69:0.5573002099990845 70:0.6600169539451599 71:-0.9955945014953613 72:0.09376344084739685 73:0.42062872648239136 74:0.6931239366531372 75:-0.910611093044281 76:0.41326436400413513 77:0.34125643968582153 78:0.7580645084381104 79:-0.7739591598510742 80:0.633235514163971 
-2.8903970277371425 0.0 0.0 1.819627886532038 1.9191322521566718 0.20185614779029193 0.0 0.0 1:0.8177257776260376 2:0.03177257627248764 3:-0.5646817088127136 4:-0.8253087401390076 5:0.7959867715835571 6:0.0 7:-0.9586465358734131 8:-0.28459930419921875 9:0.7107027769088745 10:0.0 11:-0.9816649556159973 12:0.19061459600925446 13:0.6237460374832153 14:0.033444810658693314 15:-0.9125099182128906 16:0.40905457735061646 17:0.5167220830917358 18:0.08695652335882187 19:-0.8229559659957886 20:0.5681051015853882 21:0.3645486533641815 22:0.21237461268901825 23:-0.7047046422958374 24:0.709500789642334 25:0.2709035277366638 26:0.33444809913635254 27:-0.4339412748813629 28:0.9009411334991455 29:0.18896269798278809 30:0.5769230723381042 31:-0.2034953534603119 32:0.9790759086608887 33:0.1822742521762848 34:0.760869562625885 35:0.09286314994096756 36:0.9956789016723633 37:0.2190636545419693 38:0.8996655941009521 39:0.3811042606830597 40:0.9245320558547974 41:0.27257513999938965 42:0.9799331426620483 43:0.840295672416687 44:0.5421285033226013 45:0.37458133697509766 46:1.0 47:0.9753133058547974 48:-0.22082556784152985 49:0.4498327076435089 50:0.9397993683815002 51:0.7368754744529724 52:-0.6760285496711731 53:0.5568566918373108 54:0.832775890827179 55:0.5498723387718201 56:-0.8352487087249756 57:0.5819398164749146 58:0.739130437374115 59:0.10104186087846756 60:-0.9948821663856506 61:0.5785956382751465 62:0.6187290549278259 63:-0.5799309015274048 64:-0.814665675163269 65:0.4414716958999634 66:0.5418059825897217 67:-0.9444027543067932 68:-0.3287908434867859 69:0.35284239053726196 70:0.5401337742805481 71:-0.9999537467956543 72:-0.009614735841751099 73:0.26755833625793457 74:0.5401337742805481 75:-0.9586465954780579 76:0.2845991551876068 77:0.24581940472126007 78:0.571906328201294 79:-0.5646806359291077 80:0.8253094553947449 
-0.0 0.0 2.312110161468578 0.0 0.0 0.0 0.0 0.0 1:0.6144983768463135 2:0.02168021723628044 3:0.764911413192749 4:-0.6441355347633362 5:0.640243649482727 6:0.0 7:-1.0 8:0.0 9:0.5968833565711975 10:0.02168021723628044 11:-0.8137322068214417 12:0.5812400579452515 13:0.5359081029891968 14:0.07452574372291565 15:-0.8047254681587219 16:0.5936472415924072 17:0.43157094717025757 18:0.1436314433813095 19:-0.8094611167907715 20:0.587173581123352 21:0.2743903696537018 22:0.26422762870788574 23:-0.6184648871421814 24:0.7858125567436218 25:0.2012181431055069 26:0.4363143742084503 27:-0.33777809143066406 28:0.9412257671356201 29:0.1537943184375763 30:0.6002710461616516 31:-0.034858737140893936 32:0.9993922114372253 33:0.18902434408664703 34:0.7859078645706177 35:0.41928830742836 36:0.9078531265258789 37:0.30962038040161133 38:0.9376693964004517 39:0.8071168661117554 40:0.5903916954994202 41:0.4817069470882416 42:1.0 43:0.9962700605392456 44:0.08629050105810165 45:0.6537950038909912 46:0.9674795866012573 47:0.9359759092330933 48:-0.3520641028881073 49:0.7771000862121582 50:0.8888888955116272 51:0.6996750831604004 52:-0.7144611477851868 53:0.8462057113647461 54:0.7710027098655701 55:0.09614121168851852 56:-0.9953677654266357 57:0.8001347780227661 58:0.6504064798355103 59:-0.7451046705245972 60:-0.6669475436210632 61:0.6524389982223511 62:0.5975610017776489 63:-0.9788320064544678 64:-0.20466530323028564 65:0.5020325183868408 66:0.5880758762359619 67:-0.9967581629753113 68:0.0804554894566536 69:0.35027003288269043 70:0.6219512224197388 71:-0.9150248765945435 72:0.40339741110801697 73:0.24999961256980896 74:0.6991869807243347 75:-0.640182375907898 76:0.7682230472564697 77:0.22831949591636658 78:0.7682926654815674 79:-0.29933881759643555 80:0.9541468620300293 
-0.0 -0.0 0.01662012420731146 0.8477781272921543 0.0 0.0 3.205131519356343 0.0 1:0.2793939709663391 2:0.0 3:-1.0 4:0.0 5:0.25151532888412476 6:0.0 7:1.0 8:0.0 9:0.3496967554092407 10:0.0 11:0.9895616173744202 12:0.1441110521554947 13:0.5012120604515076 14:0.036363635212183 15:0.9802411198616028 16:0.197806254029274 17:0.6200001239776611 18:0.05454545468091965 19:0.9951659440994263 20:0.09820716828107834 21:0.6854544878005981 22:0.05454545468091965 23:1.0 24:0.0 25:0.7484846115112305 26:0.05454545468091965 27:0.8320497870445251 28:0.5547009110450745 29:0.7472725510597229 30:0.09575757384300232 31:-0.3113071024417877 32:0.9503093361854553 33:0.702424168586731 34:0.19515152275562286 35:-0.3489731550216675 36:0.937132716178894 37:0.6393940448760986 38:0.38545456528663635 39:-0.3142210841178894 40:0.9493498206138611 41:0.5884848833084106 42:0.539393961429596 43:-0.346426784992218 44:0.9380770325660706 45:0.5315152406692505 46:0.6775758266448975 47:-0.34704574942588806 48:0.9378482103347778 49:0.48666656017303467 50:0.8145453929901123 51:-0.29234471917152405 52:0.9563129544258118 53:0.46000003814697266 54:0.9115151166915894 55:-0.3037719130516052 56:0.9527447819709778 57:0.43333351612091064 58:0.9818181991577148 59:-0.36919477581977844 60:0.9293520450592041 61:0.4248484969139099 62:1.0 63:-0.4228927791118622 64:0.9061797261238098 65:0.4248484969139099 66:0.5454545617103577 67:1.0 68:0.0 69:0.5036362409591675 70:0.5454545617103577 71:1.0 72:0.0 73:0.6309093236923218 74:0.5454545617103577 75:0.9956341981887817 76:0.09334053844213486 77:0.6975758075714111 78:0.5636363625526428 79:0.9647636413574219 80:0.26311782002449036 
-0.4691377612946192 -0.58726944247371 1.1844794540774592 2.145439327842215 0.5204834881006674 1.3991588755548685 0.5033373654659224 2.408780751617285 1:0.2774326801300049 2:0.21739129722118378 3:-0.6178174614906311 4:0.7863215804100037 5:0.26604562997817993 6:0.23188406229019165 7:1.0 8:0.0 9:0.2981366217136383 10:0.21739129722118378 11:0.9091741442680359 12:-0.41641607880592346 13:0.40165624022483826 14:0.16977226734161377 15:0.8909740447998047 16:-0.45405423641204834 17:0.5134574174880981 18:0.10766047239303589 19:0.8927978873252869 20:-0.45045730471611023 21:0.6293994188308716 22:0.054865434765815735 23:0.896127462387085 24:-0.44379663467407227 25:0.7308486700057983 26:0.0 27:0.9844877123832703 28:-0.17545351386070251 29:0.7339544296264648 30:0.03623184189200401 31:-0.1934564858675003 32:0.9811088442802429 33:0.7018634080886841 34:0.14699789881706238 35:-0.36702239513397217 36:0.930212140083313 37:0.613871693611145 38:0.3405795395374298 39:-0.38595205545425415 40:0.922518789768219 41:0.5320910215377808 42:0.5527949929237366 43:-0.363496333360672 44:0.9315956234931946 45:0.4409938454627991 46:0.7836438417434692 47:-0.39209842681884766 48:0.9199233055114746 49:0.3706004023551941 50:0.9316768646240234 51:-0.3977346420288086 52:0.9175004959106445 53:0.3498964309692383 54:0.9937887787818909 55:-0.2900072932243347 56:0.9570244550704956 57:0.3498964309692383 58:1.0 59:0.0 60:1.0 61:0.66873699426651 62:0.6376811861991882 63:0.7371535897254944 64:-0.6757251620292664 65:0.71221524477005 66:0.5978260636329651 67:-0.8741569519042969 68:-0.48564356565475464 69:0.6035196185112 70:0.6014492511749268 71:-0.9999110698699951 72:-0.013332146219909191 73:0.4404761493206024 74:0.5942028760910034 75:-0.9996713995933533 76:-0.025632595643401146 77:0.3209109306335449 78:0.5942028760910034 79:-1.0 80:0.0 
-0.0 -0.36540892823300114 1.2112790765066366 0.0 0.0 1.1359696938265322 7.1615898913056055 0.46785707693509393 1:0.1855524182319641 2:0.050991497933864594 3:0.9908301830291748 4:-0.13511301577091217 5:0.31019848585128784 6:0.03399433195590973 7:0.9925434589385986 8:-0.1218913123011589 9:0.5084985494613647 10:0.011331441812217236 11:0.9961298108100891 12:-0.08789383620023727 13:0.695467472076416 14:0.0 15:0.9990958571434021 16:-0.04251473769545555 17:0.7747873067855835 18:0.0 19:0.9090647101402283 20:0.416655033826828 21:0.7634561061859131 22:0.031161483377218246 23:-0.5913624167442322 24:0.8064059615135193 25:0.7124645709991455 26:0.08498582988977432 27:-0.5834002494812012 28:0.8121848106384277 29:0.6189801692962646 30:0.2322946935892105 31:-0.4973835349082947 32:0.8675308227539062 33:0.4688388705253601 34:0.5099150538444519 35:-0.46059730648994446 36:0.8876091837882996 37:0.34702548384666443 38:0.7563738822937012 39:-0.4520955979824066 40:0.8919694423675537 41:0.25920647382736206 42:0.9235127568244934 43:-0.5026193857192993 44:0.8645078539848328 45:0.2053827941417694 46:1.0 47:-0.6246903538703918 48:0.7808725833892822 49:0.2365439236164093 50:0.9518412947654724 51:0.5432465076446533 52:-0.8395732045173645 53:0.16855524480342865 54:0.5099149942398071 55:-0.8944272398948669 56:0.44721344113349915 57:0.13456091284751892 58:0.5269121527671814 59:0.9701425433158875 60:0.24253547191619873 61:0.2365439236164093 62:0.5269121527671814 63:0.9987523555755615 64:-0.04993759095668793 65:0.4745042622089386 66:0.5099149942398071 67:0.9972677230834961 68:-0.07387164235115051 69:0.695467472076416 70:0.49291783571243286 71:0.9958932399749756 72:-0.09053578227758408 73:0.8484419584274292 74:0.4759206473827362 75:0.9950371980667114 76:-0.09950389713048935 77:0.8654390573501587 78:0.4759206473827362 79:1.0 80:0.0 
-1.1846492089653209 -1.0402237167867643 0.0 3.151597715769788 1.176694513508376 0.0 0.0 0.0 1:0.06858405470848083 2:0.02654867433011532 3:1.0 4:0.0 5:0.14823007583618164 6:0.02654867433011532 7:1.0 8:0.0 9:0.3517696261405945 10:0.02654867433011532 11:0.9974587559700012 12:-0.07124704867601395 13:0.519911527633667 14:0.0 15:0.9958931803703308 16:-0.09053575247526169 17:0.6438050270080566 18:0.0 19:0.9889363050460815 20:0.14834068715572357 21:0.6969023942947388 22:0.02654867433011532 23:0.08304828405380249 24:0.9965455532073975 25:0.6526548862457275 26:0.10619469732046127 27:-0.33871954679489136 28:0.940887451171875 29:0.6172564029693604 30:0.2477874904870987 31:-0.21951213479042053 32:0.9756097197532654 33:0.5730088949203491 34:0.4601769745349884 35:-0.14142078161239624 36:0.989949643611908 37:0.5464602112770081 38:0.7433629035949707 39:-0.05989231914281845 40:0.9982048273086548 41:0.5464602112770081 42:0.9026548266410828 43:0.0 44:1.0 45:0.5464602112770081 46:1.0 47:0.0 48:1.0 49:0.5464602112770081 50:0.9823009371757507 51:0.0 52:-1.0 53:0.3606194853782654 54:0.5044248104095459 55:-1.0 56:0.0 57:0.3207964599132538 58:0.5044248104095459 59:0.9486832022666931 60:-0.3162279725074768 61:0.4402654767036438 62:0.47787612676620483 63:0.9916004538536072 64:-0.12933911383152008 65:0.6261062622070312 66:0.4646018147468567 67:0.9899495244026184 68:-0.1414213478565216 69:0.8119468688964844 70:0.4247787892818451 71:0.9916004538536072 72:-0.1293392777442932 73:0.9314159154891968 74:0.4247787892818451 75:0.9701424837112427 76:0.24253562092781067 77:0.9181416034698486 78:0.45132747292518616 79:-0.4472127854824066 80:0.8944275975227356 
-0.0 -0.0 0.7565566071345805 0.0 0.0 0.0 1.3556955042392458 0.0 1:0.10094848275184631 2:0.11924119293689728 3:0.922194242477417 4:0.38672706484794617 5:0.14295387268066406 6:0.13685637712478638 7:0.9856838583946228 8:0.16860389709472656 9:0.20392951369285583 10:0.13685637712478638 11:0.9937313199043274 12:-0.11179477721452713 13:0.35975608229637146 14:0.11246612668037415 15:0.9855130314826965 16:-0.16959995031356812 17:0.4952574074268341 18:0.08672086894512177 19:0.9781588912010193 20:-0.20785877108573914 21:0.6849592924118042 22:0.04336044192314148 23:0.9768726229667664 24:-0.21382184326648712 25:0.8109756708145142 26:0.017615176737308502 27:0.9798539280891418 28:-0.19971530139446259 29:0.8976966142654419 30:0.0 31:0.9380964636802673 32:0.3463740050792694 33:0.8990515470504761 34:0.05013549327850342 35:-0.4806715250015259 36:0.8769007921218872 37:0.7974256277084351 38:0.18292680382728577 39:-0.5988850593566895 40:0.8008350133895874 41:0.6659893989562988 42:0.3617885112762451 43:-0.5829082727432251 44:0.8125379681587219 45:0.529132604598999 46:0.5569106340408325 47:-0.6003625988960266 48:0.7997279167175293 49:0.30691051483154297 50:0.8401084542274475 51:-0.6281707882881165 52:0.7780754566192627 53:0.17140918970108032 54:1.0 55:-0.6465217471122742 56:0.7628955841064453 57:0.10094848275184631 58:0.5948509573936462 59:0.9950371384620667 60:-0.09950418025255203 61:0.17140918970108032 62:0.5878048539161682 63:0.9899495244026184 64:-0.14142149686813354 65:0.3228996992111206 66:0.5631436109542847 67:0.99034184217453 68:-0.1386476457118988 69:0.5237127542495728 70:0.5384824275970459 71:0.9905294179916382 72:-0.13730089366436005 73:0.678726315498352 74:0.5138211846351624 75:0.9937312602996826 76:-0.1117948666214943 77:0.8055555820465088 78:0.5067750811576843 79:0.9984604120254517 80:-0.05547028407454491 
-0.0 -0.0 0.09579244162187542 0.0 0.0 0.0 0.0 0.0 1:0.03333282470703125 2:0.0 3:0.9230765700340271 4:0.3846161961555481 5:0.13333258032798767 6:0.0416666679084301 7:0.9854602217674255 8:0.1699064075946808 9:0.2750002443790436 10:0.0416666679084301 11:1.0 12:0.0 13:0.5083326101303101 14:0.0416666679084301 15:1.0 16:0.0 17:0.6666666865348816 18:0.0416666679084301 19:0.9933074116706848 20:-0.11550077795982361 21:0.8666661977767944 22:0.0 23:0.9904922246932983 24:-0.1375681459903717 25:0.9666671752929688 26:0.0 27:0.9103672504425049 28:0.41380128264427185 29:0.9583333134651184 30:0.0416666679084301 31:-0.4008246064186096 32:0.9161548018455505 33:0.9083328247070312 34:0.13333337008953094 35:-0.47410207986831665 36:0.8804699182510376 37:0.8416659235954285 38:0.25833335518836975 39:-0.4594229757785797 40:0.8882176280021667 41:0.7833328247070312 42:0.375 43:-0.49896320700645447 44:0.8666231632232666 45:0.6833330392837524 46:0.5333334803581238 47:-0.3671664297580719 48:0.9301552772521973 49:0.6583328247070312 50:0.6916667819023132 51:-0.24253635108470917 52:0.9701423645019531 53:0.6166661977767944 54:0.800000011920929 55:-0.19611597061157227 56:0.9805806875228882 57:0.6166661977767944 58:0.9000000953674316 59:0.2039540708065033 60:0.9789804220199585 61:0.6583328247070312 62:1.0 63:0.38461539149284363 64:0.9230769276618958 65:0.5333328247070312 66:0.4583333432674408 67:0.9191436767578125 68:-0.393922358751297 69:0.63055419921875 70:0.4166666567325592 71:0.9778022766113281 72:-0.20952963829040527 73:0.727776825428009 74:0.4166666567325592 75:1.0 76:0.0 77:0.8666661977767944 78:0.4166666567325592 79:1.0 80:0.0 
-0.07719167241662138 -0.14512956887691306 0.6212344867696489 0.0 0.18482569404092586 0.0 10.702221522814092 0.0 1:0.16304348409175873 2:0.043478261679410934 3:0.915315568447113 4:-0.40273743867874146 5:0.21245077252388 6:0.021739130839705467 7:0.9563517570495605 8:-0.292217880487442 9:0.3053363263607025 10:0.0 11:0.9952954053878784 12:-0.09688707441091537 13:0.4357711374759674 14:0.0 15:0.9992611408233643 16:0.038433101028203964 17:0.61363685131073 18:0.011857706122100353 19:0.9799873232841492 20:0.19906014204025269 21:0.6887352466583252 22:0.05138339102268219 23:0.6428692936897278 24:0.7659758925437927 25:0.70652174949646 26:0.12252964824438095 27:-0.39489033818244934 28:0.918728232383728 29:0.59189772605896 30:0.27667978405952454 31:-0.6061598658561707 32:0.7953428626060486 33:0.3962448537349701 34:0.529644250869751 35:-0.6022785902023315 36:0.7982860207557678 37:0.25790539383888245 38:0.7193676233291626 39:-0.5427157878875732 40:0.8399164080619812 41:0.14723272621631622 42:0.9150197505950928 43:-0.4954806864261627 44:0.8686190247535706 45:0.09782608598470688 46:1.0 47:-0.5026167631149292 48:0.8645092844963074 49:0.032608695328235626 50:0.5 51:-0.9191449880599976 52:-0.39391931891441345 53:0.01086956262588501 54:0.4906832277774811 55:0.8192295432090759 56:-0.5734658241271973 57:0.06366430968046188 58:0.47826087474823 59:0.9998816847801208 60:0.015382762998342514 61:0.21273273229599 62:0.49378880858421326 63:0.9986740946769714 64:0.05147797614336014 65:0.3649066388607025 66:0.49378880858421326 67:0.9990224838256836 68:-0.04420441761612892 69:0.563664972782135 70:0.47826087474823 71:0.9985617399215698 72:-0.053614046424627304 73:0.8276393413543701 74:0.46894410252571106 75:0.9986972212791443 76:-0.051028359681367874 77:0.989130437374115 78:0.45652174949645996 79:0.9970545172691345 80:-0.07669626176357269 
-0.0 -0.3309354781345699 0.0 0.13485151574242232 0.0 0.0 0.0 0.0 1:0.16746991872787476 2:0.028915660455822945 3:0.6401891112327576 4:-0.7682173848152161 5:0.191566601395607 6:0.0 7:0.988371729850769 8:-0.1520572006702423 9:0.35542169213294983 10:0.0 11:1.0 12:0.0 13:0.5867469906806946 14:0.0 15:0.9988406896591187 16:0.04813699051737785 17:0.7554211020469666 18:0.019277116283774376 19:0.9919757843017578 20:0.12642838060855865 21:0.8325300812721252 22:0.0313253179192543 23:0.672677218914032 24:0.7399360537528992 25:0.8036144375801086 26:0.07228915393352509 27:-0.3823515772819519 28:0.9240168929100037 29:0.774698793888092 30:0.17108435928821564 31:-0.3025773763656616 32:0.9531248211860657 33:0.707229495048523 34:0.3759036362171173 35:-0.27157342433929443 36:0.962417721748352 37:0.6373493671417236 38:0.6578312516212463 39:-0.21693158149719238 40:0.9761867523193359 41:0.6012048125267029 42:0.8530120849609375 43:-0.1050492450594902 44:0.99446702003479 45:0.6012048125267029 46:1.0 47:0.0 48:1.0 49:0.6012048125267029 50:0.9542167782783508 51:0.0 52:-1.0 53:0.4855421781539917 54:0.5204818844795227 55:-1.0 56:0.0 57:0.40843313932418823 58:0.5204818844795227 59:-1.0 60:0.0 61:0.40843313932418823 62:0.5204818844795227 63:1.0 64:0.0 65:0.5144578218460083 66:0.5204818844795227 67:1.0 68:0.0 69:0.6783129572868347 70:0.5204818844795227 71:1.0 72:0.0 73:0.7843367457389832 74:0.5204818844795227 75:1.0 76:0.0 77:0.8036144375801086 78:0.5204818844795227 79:1.0 80:0.0 
-0.15320663758897912 -0.1012131294970459 0.0 1.2683491312811033 1.8867619002787406 0.0 2.875851962182712 0.0 1:0.27272728085517883 2:0.03030303120613098 3:0.5038577914237976 4:-0.8637866973876953 5:0.29040342569351196 6:0.0 7:0.9079563617706299 8:-0.4190647602081299 9:0.3383826017379761 10:0.0 11:1.0 12:0.0 13:0.40909093618392944 14:0.0 15:0.9983713626861572 16:0.05704942345619202 17:0.5151515007019043 18:0.010101014748215675 19:0.9581683278083801 20:0.2862052619457245 21:0.6035360097885132 22:0.05808081850409508 23:0.7310552000999451 24:0.6823182702064514 25:0.6666666269302368 26:0.1515151560306549 27:0.29756030440330505 28:0.9547029733657837 29:0.6641401648521423 30:0.25252532958984375 31:-0.27880993485450745 32:0.9603463411331177 33:0.575757622718811 34:0.46464651823043823 35:-0.4369014501571655 36:0.8995094299316406 37:0.49242424964904785 38:0.6060606241226196 39:-0.535335123538971 40:0.844639778137207 41:0.3484848439693451 42:0.8232324123382568 43:-0.5240985155105591 44:0.8516576290130615 45:0.29040342569351196 46:0.9343435168266296 47:-0.3939194083213806 48:0.9191449880599976 49:0.27272728085517883 50:1.0 51:-0.2599652111530304 52:0.9656179547309875 53:0.27272728085517883 54:0.7272727489471436 55:-0.5547000765800476 56:-0.8320503830909729 57:0.24242424964904785 58:0.6818181872367859 59:0.0 60:-1.0 61:0.27272728085517883 62:0.6666666865348816 63:0.9615238904953003 64:-0.2747214138507843 65:0.3484848439693451 66:0.6515151262283325 67:0.9863938689231873 68:-0.1643991619348526 69:0.45454543828964233 70:0.6363636255264282 71:0.987762987613678 72:-0.15596243739128113 73:0.6363636255264282 74:0.6060606241226196 75:0.9950372576713562 76:-0.09950362890958786 77:0.7575757503509521 78:0.6060606241226196 79:1.0 80:0.0 
-1.114475991942423 -1.1781085115692536 5.018353515069837 3.182243058350489 2.058852235389924 4.531307723739136 0.0 0.7961971748751955 1:0.27708935737609863 2:0.06722689419984818 3:-0.6026065349578857 4:-0.7980385422706604 5:0.24436014890670776 6:0.023883238434791565 7:-0.6852176785469055 8:-0.7283383011817932 9:0.21384257078170776 10:0.0 11:-0.9995220303535461 12:-0.030913354828953743 13:0.2014590948820114 14:0.02255638875067234 15:-0.4320979416370392 16:0.9018266797065735 17:0.1934988796710968 18:0.04245908558368683 19:0.8221933245658875 20:0.5692082643508911 21:0.2762051224708557 22:0.07430341094732285 23:0.99916011095047 24:0.04097520560026169 25:0.47390463948249817 26:0.05395842716097832 27:0.9968298077583313 28:-0.07956443727016449 29:0.6640871167182922 30:0.04334364831447601 31:0.997706413269043 32:-0.06769076734781265 33:0.7737729549407959 34:0.03361344709992409 35:0.9995411038398743 36:-0.030289582908153534 37:0.7954429388046265 38:0.039363108575344086 39:0.7665143609046936 40:0.6422271728515625 41:0.8065011501312256 42:0.061034899204969406 43:-0.13743188977241516 44:0.9905112385749817 45:0.782617449760437 46:0.1318001002073288 47:-0.36447077989578247 48:0.9312148690223694 49:0.7220253944396973 50:0.276868611574173 51:-0.4184618890285492 52:0.9082343578338623 53:0.6242819428443909 54:0.4754532277584076 55:-0.38870057463645935 56:0.9213641285896301 57:0.5429010391235352 58:0.7014595866203308 59:-0.2875441312789917 60:0.9577674269676208 61:0.5039801001548767 62:0.8761610388755798 63:-0.07987262308597565 64:0.9968051314353943 65:0.5207868218421936 66:0.9774435758590698 67:0.22942408919334412 68:0.9733266234397888 69:0.5331703424453735 70:1.0 71:0.2654817998409271 72:-0.9641159176826477 73:0.5375935435295105 74:0.9164087772369385 75:0.13439874351024628 76:-0.9909272789955139 77:0.5628036260604858 78:0.7815126180648804 79:0.18370459973812103 80:-0.9829815030097961 
-0.0 -0.0 0.0 0.0 0.0 0.5268061321607412 2.94667402804448 1.8224934702972033 1:0.255185067653656 2:0.20089466869831085 3:-0.707108736038208 4:-0.7071048617362976 5:0.23363147675991058 6:0.17934119701385498 7:-0.5093184113502502 8:-0.8605781197547913 9:0.2198050618171692 10:0.1411142647266388 11:-0.28444674611091614 12:-0.9586918950080872 13:0.2116713523864746 14:0.10532736778259277 15:0.30562636256217957 16:-0.9521515369415283 17:0.23037837445735931 18:0.10817405581474304 19:0.9911072254180908 20:-0.13306546211242676 21:0.2995118498802185 22:0.093533955514431 23:0.9793073534965515 24:-0.20237888395786285 25:0.4625864326953888 26:0.060187067836523056 27:0.9750083684921265 28:-0.2221682071685791 29:0.6439610719680786 30:0.015046768821775913 31:0.9797390699386597 32:-0.20027804374694824 33:0.7570152282714844 34:0.0 35:0.9951750040054321 36:-0.09811591356992722 37:0.7883286476135254 38:8.133356459438801E-4 39:0.6507923603057861 40:0.7592557668685913 41:0.7814154624938965 42:0.02846686542034149 43:-0.35280296206474304 44:0.9356976747512817 45:0.7415618300437927 46:0.12484744936227798 47:-0.34174466133117676 48:0.9397928714752197 49:0.6886943578720093 50:0.28344857692718506 51:-0.2680673599243164 52:0.9634001851081848 53:0.6354212760925293 54:0.5063031911849976 55:-0.1628764420747757 56:0.9866464734077454 57:0.611021101474762 58:0.7539650201797485 59:-0.027797630056738853 60:0.9996135830879211 61:0.6248475313186646 62:0.8865391612052917 63:0.1714232861995697 64:0.9851974248886108 65:0.6464011073112488 66:0.9572996497154236 67:0.27244293689727783 68:0.9621719121932983 69:0.6569744348526001 70:1.0 71:0.031223461031913757 72:0.9995124340057373 73:0.647620677947998 74:0.9963400363922119 75:0.0 76:-1.0 77:0.6569744348526001 78:0.919479489326477 79:0.12080646306276321 80:-0.9926761388778687 
-0.0 -0.0 0.0 0.0 0.0 0.0 1.6785038891420248 1.5900697310578804 1:0.24285712838172913 2:0.11428571492433548 3:0.8661860823631287 4:-0.49972158670425415 5:0.29238104820251465 6:0.08571428805589676 7:0.9126849174499512 8:-0.4086640775203705 9:0.3704764246940613 10:0.05714285746216774 11:0.9553520083427429 12:-0.2954700291156769 13:0.4771427512168884 14:0.02857142873108387 15:0.9745213389396667 16:-0.2242947667837143 17:0.6104762554168701 18:0.001904760138131678 19:0.991150438785553 20:-0.1327434629201889 21:0.6904759407043457 22:0.0 23:0.9517086148262024 24:0.3070029020309448 25:0.7285714149475098 26:0.03999998793005943 27:-0.12878699600696564 28:0.9916722774505615 29:0.6714285612106323 30:0.14666666090488434 31:-0.3786325752735138 32:0.9255471229553223 33:0.6428571939468384 34:0.2495238184928894 35:-0.2587360441684723 36:0.9659481048583984 37:0.6142857074737549 38:0.36000001430511475 39:-0.24445238709449768 40:0.969661295413971 41:0.5857143402099609 42:0.4761905074119568 43:-0.11550057679414749 44:0.9933074116706848 45:0.5857143402099609 46:0.6057143807411194 47:-0.09820737689733505 48:0.9951659440994263 49:0.5571428537368774 50:0.7657142877578735 51:-0.10653339326381683 52:0.9943091869354248 53:0.5571428537368774 54:0.8723809123039246 55:0.0 56:1.0 57:0.5571428537368774 58:0.9504761695861816 59:0.2184726893901825 60:0.9758430123329163 61:0.5857143402099609 62:1.0 63:0.49972304701805115 64:0.8661852478981018 65:0.3571428656578064 66:0.48571428656578064 67:0.9938837885856628 68:-0.11043118685483932 69:0.44285714626312256 70:0.4761905074119568 71:0.9928768873214722 72:-0.11914528161287308 73:0.5952379703521729 74:0.4571428596973419 75:0.9887154698371887 76:-0.1498054414987564 77:0.7571429014205933 78:0.4285714328289032 79:0.9847835898399353 80:-0.17378515005111694 
-0.2975458673418223 -0.6890968538697303 1.516791620578724 0.0 0.0 1.7621879552513184 0.0 1.0474109653436403 1:0.056074757128953934 2:0.1214953288435936 3:-0.5547001957893372 4:-0.8320503234863281 5:0.03738316893577576 6:0.09345794469118118 7:0.3162277340888977 8:-0.9486832618713379 9:0.07476634532213211 10:0.06542056053876877 11:0.9429903626441956 12:-0.3328201174736023 13:0.1962616741657257 14:0.037383176386356354 15:0.993532657623291 16:-0.11354657262563705 17:0.40186917781829834 18:0.028037382289767265 19:0.9958931803703308 20:-0.0905357226729393 21:0.6074767112731934 22:0.0 23:1.0 24:0.0 25:0.7850466966629028 26:0.028037382289767265 27:0.9956341981887817 28:0.09334072470664978 29:0.9065420627593994 30:0.028037382289767265 31:1.0 32:0.0 33:0.9439252614974976 34:0.028037382289767265 35:1.0 36:0.0 37:0.9626168012619019 38:0.028037382289767265 39:1.0 40:0.0 41:0.9532710313796997 42:0.028037382289767265 43:-0.8944271206855774 44:0.4472137689590454 45:0.9065420627593994 46:0.05607476457953453 47:-0.6357073187828064 48:0.7719302177429199 49:0.822429895401001 50:0.18691588938236237 51:-0.5144957900047302 52:0.8574928641319275 53:0.7383177280426025 54:0.336448609828949 55:-0.46915537118911743 56:0.8831156492233276 57:0.6635513305664062 58:0.4859813153743744 59:-0.48083245754241943 60:0.8768125176429749 61:0.5794392824172974 62:0.6261682510375977 63:-0.46915504336357117 64:0.8831157684326172 65:0.5046728849411011 66:0.7850467562675476 67:-0.422885537147522 68:0.906183123588562 69:0.44859814643859863 70:0.9065420627593994 71:-0.48191866278648376 72:0.876215934753418 73:0.40186917781829834 74:0.9719626307487488 75:-0.5734626054763794 76:0.8192317485809326 77:0.3831775486469269 78:1.0 79:-0.5547012090682983 80:0.8320496082305908 
-0.4426783962934368 -0.06915664939939445 0.0 0.0 0.8005302489665519 0.0 0.0494555361908829 1.2791909989371693 1:0.25 2:0.20454545319080353 3:0.0 4:-1.0 5:0.25 6:0.15909090638160706 7:0.0 8:-1.0 9:0.25 10:0.15909090638160706 11:0.7071070075035095 12:-0.7071065306663513 13:0.27272728085517883 14:0.13636364042758942 15:0.9284767508506775 16:-0.37139061093330383 17:0.3636363744735718 18:0.11363636702299118 19:0.9486833214759827 20:-0.3162277638912201 21:0.47727274894714355 22:0.06818182021379471 23:0.9397934079170227 24:-0.3417430520057678 25:0.6136363744735718 26:0.022727273404598236 27:0.9578263163566589 28:-0.2873478829860687 29:0.7045454978942871 30:0.0 31:0.9863939881324768 32:-0.16439901292324066 33:0.75 34:0.0 35:-0.1414215862751007 36:0.9899494647979736 37:0.6818181872367859 38:0.15909090638160706 39:-0.40081876516342163 40:0.9161573648452759 41:0.5909091234207153 42:0.3636363744735718 43:-0.34570544958114624 44:0.9383431077003479 45:0.5227272510528564 46:0.5909090638160706 47:-0.32852068543434143 48:0.9444966912269592 49:0.40909090638160706 50:0.8863636255264282 51:-0.3807497024536133 52:0.9246781468391418 53:0.3636363744735718 54:0.9772727489471436 55:-0.37139055132865906 56:0.9284767508506775 57:0.3636363744735718 58:1.0 59:0.0 60:1.0 61:0.6363636255264282 62:0.6818181872367859 63:0.2425353229045868 64:-0.9701425433158875 65:0.6477272510528564 66:0.6363636255264282 67:-0.7071068286895752 68:-0.7071068286895752 69:0.5681818127632141 70:0.6136363744735718 71:-0.9938837885856628 72:-0.11043143272399902 73:0.4431818127632141 74:0.6136363744735718 75:-0.9950371980667114 76:0.09950362890958786 77:0.34090909361839294 78:0.6363636255264282 79:-0.9761871099472046 80:0.21693027019500732 
-0.0 -0.0 0.0 2.270758853169734 0.0 0.0 0.0 0.0 1:0.28947389125823975 2:0.07236841320991516 3:0.8682411909103394 4:-0.49614229798316956 5:0.33552610874176025 6:0.04605262354016304 7:0.882352888584137 8:-0.4705882668495178 9:0.38815808296203613 10:0.019736837595701218 11:0.9593657851219177 12:-0.2821653187274933 13:0.4473686218261719 14:0.013157891109585762 15:0.9934089183807373 16:-0.11462379992008209 17:0.5592111349105835 18:0.0 19:1.0 20:0.0 21:0.6381585001945496 22:0.013157891109585762 23:0.8944266438484192 24:0.44721460342407227 25:0.7039475440979004 26:0.07236841320991516 27:0.0963183268904686 28:0.9953505992889404 29:0.6578941345214844 30:0.21710532903671265 31:-0.4307294487953186 32:0.9024810791015625 33:0.5657896995544434 34:0.3618420958518982 35:-0.4961376190185547 36:0.868243932723999 37:0.4473686218261719 38:0.5855262875556946 39:-0.44090303778648376 40:0.8975547552108765 41:0.38157954812049866 42:0.7368422150611877 43:-0.41250738501548767 44:0.9109542965888977 45:0.28947389125823975 46:0.9342106580734253 47:-0.447214812040329 48:0.8944265842437744 49:0.2500002086162567 50:1.0 51:-0.5144965052604675 52:0.8574925065040588 53:0.230263352394104 54:0.5657894611358643 55:-0.4472249448299408 56:-0.8944215178489685 57:0.21710506081581116 58:0.5394737124443054 59:0.44720834493637085 60:-0.8944298624992371 61:0.2565787434577942 62:0.5131579041481018 63:0.9771764278411865 64:-0.21242943406105042 65:0.3684212565422058 66:0.5065789222717285 67:0.9981684684753418 68:-0.06049523502588272 69:0.47368401288986206 70:0.4999999701976776 71:0.9978800415992737 72:-0.06507926434278488 73:0.6710524559020996 74:0.4868420660495758 75:0.9943888783454895 76:-0.10578588396310806 77:0.7828949689865112 78:0.4671052396297455 79:0.9847837090492249 80:-0.17378458380699158 
-0.7581883145197167 -0.8312089998895382 -3.2911564138902696 3.816545561417992 1.3015932642571446 1.0438429032377115 1.0067208196634332 1.7486059644163505 1:0.10663007944822311 2:0.0 3:0.21817904710769653 4:0.9759087562561035 5:0.1378800868988037 6:0.13978040218353271 7:-0.020403901115059853 8:0.9997917413711548 9:0.09987332671880722 10:0.3310810923576355 11:-0.13254119455814362 12:0.991177499294281 13:0.08931589126586914 14:0.5029560923576355 15:0.21891678869724274 16:0.9757434725761414 17:0.15899494290351868 18:0.5945945978164673 19:0.8933839201927185 20:0.4492940604686737 21:0.3067989945411682 22:0.6123310923576355 23:0.9902716279029846 24:-0.1391482651233673 25:0.519636869430542 26:0.5439189076423645 27:0.8912087678909302 28:-0.45359334349632263 29:0.7307854890823364 30:0.3965371549129486 31:0.7470531463623047 32:-0.664764404296875 33:0.9106841087341309 34:0.19594594836235046 35:0.6676648259162903 36:-0.7444620728492737 37:0.8633868098258972 38:0.054054055362939835 39:-0.3107602298259735 40:0.950488269329071 41:0.7826439142227173 42:0.3010134994983673 43:-0.28223395347595215 44:0.9593456387519836 45:0.7093324065208435 46:0.5777027010917664 47:-0.23715463280677795 48:0.971471905708313 49:0.6529145240783691 50:0.8324324488639832 51:-0.19050374627113342 52:0.981686532497406 53:0.6343317627906799 54:0.9641891717910767 55:-0.1153191402554512 56:0.9933284521102905 57:0.6336570978164673 58:0.9983108043670654 59:0.056523438543081284 60:0.9984012842178345 61:0.6363591551780701 62:1.0 63:-0.967070996761322 64:-0.25450655817985535 65:0.6272385120391846 66:0.9966216087341309 67:-0.7327699661254883 68:-0.6804764270782471 69:0.626900315284729 70:0.9912161827087402 71:-0.20323339104652405 72:-0.9791303873062134 73:0.6235219836235046 74:0.978716254234314 75:0.598084568977356 76:-0.8014330267906189 77:0.6606841087341309 78:0.9459459185600281 79:0.75003582239151 80:-0.6613972187042236 
-4.7562808232450395 -7.434631019755853 -0.0 1.9387208232008541 1.4448161841482163 0.13435145128440315 0.3299453146885013 1.215281357819807 1:0.375 2:0.0 3:1.0 4:0.0 5:0.42156803607940674 6:0.0 7:0.336350679397583 8:0.9417367577552795 9:0.3995109796524048 10:0.06862745434045792 11:-0.4409007728099823 12:0.8975558280944824 13:0.3529411852359772 14:0.13970588147640228 15:-0.5829120874404907 16:0.812535285949707 17:0.2377444952726364 18:0.29411765933036804 19:-0.5004099011421204 20:0.8657885789871216 21:0.1985294073820114 22:0.4068627655506134 23:-0.19960236549377441 24:0.9798769950866699 25:0.18382352590560913 26:0.5588235259056091 27:0.2540145516395569 28:0.9672003984451294 29:0.2622554898262024 30:0.649509847164154 31:0.873196542263031 32:0.48736822605133057 33:0.39460664987564087 34:0.6764705777168274 35:0.9960883855819702 36:0.0883626714348793 37:0.5661764740943909 38:0.6764705777168274 39:0.9964283108711243 40:-0.08444266766309738 41:0.6838235259056091 42:0.6519607901573181 43:0.9606451392173767 44:-0.2777785062789917 45:0.7696066498756409 46:0.6176470518112183 47:0.9679968953132629 48:-0.2509622275829315 49:0.8161764740943909 50:0.6176470518112183 51:1.0 52:0.0 53:0.7279411554336548 54:0.38235294818878174 55:-0.5546768307685852 56:-0.8320658802986145 57:0.7083345055580139 58:0.3529411852359772 59:-0.9284735321998596 60:0.3713986575603485 61:0.6789227724075317 62:0.4019607901573181 63:-0.5263583064079285 64:0.8502629399299622 65:0.5808823108673096 66:0.5588235259056091 67:-0.4244381785392761 68:0.9054569005966187 69:0.5318621397018433 70:0.7156862616539001 71:-0.35714030265808105 72:0.9340507388114929 73:0.45343017578125 74:0.8921568393707275 75:-0.32598885893821716 76:0.9453735947608948 77:0.43382352590560913 78:1.0 79:-0.17887485027313232 80:0.9838718175888062 
-0.6083183909583864 -0.7020679361702234 -2.596252995285506 2.1823760426260677 2.184991765851512 2.4203987036156263 2.3792912445301937 0.9797913679641043 1:0.589824914932251 2:0.1739562749862671 3:0.059894122183322906 4:-0.9982047080993652 5:0.5957893133163452 6:0.07455268502235413 7:-0.5843068361282349 8:-0.8115327954292297 9:0.5540394186973572 10:0.12425447255373001 11:-0.17378613352775574 12:0.9847834706306458 13:0.536146879196167 14:0.41252487897872925 15:-0.02005741558969021 16:0.9997988939285278 17:0.5411171317100525 18:0.7683897018432617 19:0.010488626547157764 20:0.9999449849128723 21:0.5421109199523926 22:0.9811133742332458 23:0.0 24:1.0 25:0.5411171317100525 26:1.0 27:-0.17727017402648926 28:-0.9841622710227966 29:0.5132840871810913 30:0.821073591709137 31:-0.15370726585388184 32:-0.9881163835525513 33:0.5967831611633301 34:0.0417495034635067 35:-0.6469799280166626 36:-0.7625070214271545 37:0.5613591074943542 38:0.0 39:-0.9977851510047913 40:0.0665188804268837 41:0.48292076587677 42:0.04934031516313553 43:-0.6873235106468201 44:0.7263513207435608 45:0.3608349859714508 46:0.21191035211086273 47:-0.5537289381027222 48:0.8326969742774963 49:0.23305654525756836 50:0.4250858426094055 51:-0.4774528741836548 52:0.8786574006080627 53:0.19446933269500732 54:0.5180733799934387 55:0.22524011135101318 56:0.9743033051490784 57:0.26025673747062683 58:0.5427435636520386 59:0.9976719617843628 60:0.0681951716542244 61:0.4443344175815582 62:0.5351527333259583 63:0.9992738962173462 64:-0.03810054808855057 65:0.6252485513687134 66:0.5288270711898804 67:0.9995978474617004 68:0.02835744060575962 69:0.7119106650352478 70:0.5427435636520386 71:0.9994849562644958 72:-0.032093506306409836 73:0.7631483674049377 74:0.5243991017341614 75:0.7462955117225647 76:-0.6656147241592407 77:0.8055306673049927 78:0.45924466848373413 79:0.5452770590782166 80:-0.8382560014724731 
-0.0 -0.0 -0.0 0.0 0.0 0.8219868466977995 0.05702228748589697 0.04330338131139263 1:0.3478260934352875 2:0.0 3:1.0 4:0.0 5:0.36363685131073 6:0.0 7:0.0 8:1.0 9:0.3478260934352875 10:0.023715412244200706 11:-0.4808366000652313 12:0.8768101930618286 13:0.3300396502017975 14:0.06126482039690018 15:-0.43690431118011475 16:0.8995079398155212 17:0.280632346868515 18:0.16205532848834991 19:-0.30572694540023804 20:0.9521191716194153 21:0.260869562625885 22:0.2766798138618469 23:-0.029987365007400513 24:0.9995502829551697 25:0.27470332384109497 26:0.3596837818622589 27:0.465277761220932 28:0.885164737701416 29:0.34189704060554504 30:0.4308300316333771 31:0.7638859748840332 32:0.6453511714935303 33:0.3893280029296875 34:0.45652174949645996 35:0.9963980317115784 36:0.0847998633980751 37:0.5276681184768677 38:0.44664034247398376 39:0.9909160137176514 40:-0.13448156416416168 41:0.6660076379776001 42:0.41897234320640564 43:0.987612783908844 44:-0.156910702586174 45:0.739130437374115 46:0.41304346919059753 47:0.9967291355133057 48:-0.08081585168838501 49:0.6086956262588501 50:0.043478261679410934 51:0.49612706899642944 52:-0.8682499527931213 53:0.6211175918579102 54:0.021739130839705467 55:0.0 56:1.0 57:0.6086956262588501 58:0.07763975858688354 59:-0.2927135229110718 60:0.9562001824378967 61:0.5745338797569275 62:0.17391301691532135 63:-0.2806943953037262 64:0.959797203540802 65:0.5124226808547974 66:0.4068323075771332 67:-0.23745197057724 68:0.9713993072509766 69:0.47204989194869995 70:0.593167781829834 71:-0.20009653270244598 72:0.97977614402771 73:0.4223599433898926 74:0.8478260636329651 75:-0.14353683590888977 76:0.9896449446678162 77:0.41304346919059753 78:1.0 79:-0.061108119785785675 80:0.9981311559677124 
-0.0 -0.0 -0.0 0.0 0.0 0.0 0.3827329997386115 0.0 1:0.08391609787940979 2:0.0 3:0.8436614871025085 4:0.5368755459785461 5:0.16083917021751404 6:0.04895104840397835 7:0.6549305319786072 8:0.7556890249252319 9:0.17482519149780273 10:0.10489510744810104 11:-0.047565072774887085 12:0.9988681674003601 13:0.15384617447853088 14:0.1958041936159134 15:-0.2340538501739502 16:0.9722236394882202 17:0.12937064468860626 18:0.2937062978744507 19:-0.10653317719697952 20:0.99430912733078 21:0.13286714255809784 22:0.3916083872318268 23:0.20321644842624664 24:0.9791338443756104 25:0.1678321808576584 26:0.47902098298072815 27:0.588171660900116 28:0.8087361454963684 29:0.24475525319576263 30:0.5454545617103577 31:0.9150862097740173 32:0.4032583236694336 33:0.3741258978843689 34:0.5699300765991211 35:0.999444842338562 36:0.033314865082502365 37:0.5594406127929688 38:0.5559440851211548 39:0.9892034530639648 40:-0.14654876291751862 41:0.7517482042312622 42:0.5139859914779663 43:0.9400621652603149 44:-0.34100306034088135 45:0.9160839319229126 46:0.42657342553138733 47:0.882872462272644 48:-0.469612717628479 49:0.9125874042510986 50:0.04895104840397835 51:-0.5195789337158203 52:0.854422390460968 53:0.8451551198959351 54:0.1598401665687561 55:-0.4432559013366699 56:0.8963950872421265 57:0.7782212495803833 58:0.32067933678627014 59:-0.3690493702888489 60:0.9294098019599915 61:0.6958041191101074 62:0.5359640717506409 63:-0.3299400210380554 64:0.9440019130706787 65:0.6343661546707153 66:0.7322677373886108 67:-0.2698824107646942 68:0.9628932476043701 69:0.5964031219482422 70:0.8906094431877136 71:-0.12754686176776886 72:0.9918325543403625 73:0.6009000539779663 74:0.9925075173377991 75:0.6154365539550781 76:0.7881864309310913 77:0.6818181276321411 78:1.0 79:0.9957405924797058 80:0.09219904243946075 
-0.0 -0.0 -1.7266047288827593 0.035322867078809383 0.15133392872197501 2.624280862508613 0.0 0.4814991383429551 1:0.3915529251098633 2:0.0 3:-0.34970423579216003 4:0.9368601441383362 5:0.33451247215270996 6:0.15281178057193756 7:-0.3595781922340393 8:0.9331150054931641 9:0.2593977153301239 10:0.34294629096984863 11:-0.3947276473045349 12:0.9187981486320496 13:0.19625432789325714 14:0.4746319651603699 15:-0.36746272444725037 16:0.9300382137298584 17:0.1798229217529297 18:0.5443479418754578 19:0.6831949353218079 20:0.7302360534667969 21:0.26784807443618774 22:0.5511552691459656 23:0.9995249509811401 24:-0.03082227148115635 25:0.446245938539505 26:0.536132276058197 27:0.989350438117981 28:-0.14555329084396362 29:0.6060998439788818 30:0.5013916492462158 31:0.9610520005226135 32:-0.2763674855232239 33:0.6633747816085815 34:0.47369304299354553 35:0.9799873232841492 36:-0.19906005263328552 37:0.6962375640869141 38:0.4830824136734009 39:0.9253054857254028 40:0.3792227506637573 41:0.692012369632721 42:0.4854297339916229 43:-0.977015495300293 44:-0.2131684571504593 45:0.6833271980285645 46:0.4802655875682831 47:-0.8595362901687622 48:-0.5110746622085571 49:0.8201770782470703 50:0.059387680143117905 51:-0.04692811518907547 52:0.9988982677459717 53:0.8150129318237305 54:0.16931021213531494 55:-0.1367061883211136 56:0.9906116127967834 57:0.7707489132881165 58:0.41755810379981995 59:-0.16639737784862518 60:0.98605877161026 61:0.7154186964035034 62:0.7594984173774719 63:-0.171431303024292 64:0.9851961731910706 65:0.6818518042564392 66:0.9284396767616272 67:-0.16822245717048645 68:0.9857490062713623 69:0.67594975233078 70:0.9907783269882202 71:-0.14784540235996246 72:0.9890104532241821 73:0.6711543798446655 74:1.0 75:-0.8426948189735413 76:0.538391649723053 77:0.6626706123352051 78:0.999262273311615 79:-0.996240496635437 80:-0.08663052320480347 
-0.594430982889208 -2.0126017138678214 -0.0 0.0 0.05997359355925319 1.004876188621193 0.23428276191720926 0.0 1:0.3535294234752655 2:0.02235293947160244 3:-0.10473646223545074 4:-0.9945000410079956 5:0.35117530822753906 6:0.0 7:-0.882352888584137 8:0.47058844566345215 9:0.33588236570358276 10:0.03176470845937729 11:-0.39972826838493347 12:0.916633665561676 13:0.28294116258621216 14:0.15647058188915253 15:-0.4108527600765228 16:0.9117016792297363 17:0.2123529314994812 18:0.30588236451148987 19:-0.41380295157432556 20:0.9103664755821228 21:0.15941175818443298 22:0.4282352924346924 23:-0.30766862630844116 24:0.9514935612678528 25:0.14882352948188782 26:0.5023528933525085 27:0.31318631768226624 28:0.949691653251648 29:0.1958812028169632 30:0.5388235449790955 31:0.9423581957817078 32:0.33460572361946106 33:0.31117647886276245 34:0.5600000023841858 35:0.996428370475769 36:0.08444251120090485 37:0.4735294282436371 38:0.5623528957366943 39:0.9999373555183411 40:0.011193174868822098 41:0.6264711618423462 42:0.563529372215271 43:0.9908300638198853 44:-0.13511352241039276 45:0.7582347393035889 46:0.5235293507575989 47:0.820641815662384 48:-0.5714429616928101 49:0.8511765003204346 50:0.40705880522727966 51:0.6237342357635498 52:-0.7816364765167236 53:0.7417646646499634 54:0.0011764703085646033 55:-0.3246789872646332 56:0.9458243250846863 57:0.7147064208984375 58:0.07999999821186066 59:-0.1735716611146927 60:0.9848212599754333 61:0.6876465082168579 62:0.3082352876663208 63:-0.13117851316928864 64:0.9913588166236877 65:0.6429412364959717 66:0.6223528981208801 67:-0.11526141315698624 68:0.9933351874351501 69:0.6229400634765625 70:0.8658823370933533 71:0.015572775155305862 72:0.9998787045478821 73:0.6488229632377625 74:1.0 75:0.6311692595481873 76:0.7756451964378357 77:0.720588207244873 78:0.9858823418617249 79:0.9811947345733643 80:-0.19302062690258026 
-0.6987520758038192 -2.3912190554447093 -0.6495328036014423 2.6750776225659965 0.13395528090153047 1.1663924254625595 0.0 0.0 1:0.2569786310195923 2:0.18390804529190063 3:-0.8320528268814087 4:0.5546963810920715 5:0.24121493101119995 6:0.1944170743227005 7:-0.6643649935722351 8:0.7474083304405212 9:0.21494236588478088 10:0.23119869828224182 11:-0.5291002988815308 12:0.8485592603683472 13:0.17159277200698853 14:0.3060755431652069 15:-0.45716023445129395 16:0.8893843293190002 17:0.14269277453422546 18:0.37175697088241577 19:-0.2622298300266266 20:0.9650054574012756 21:0.1387520432472229 22:0.42692938446998596 23:0.1778419315814972 24:0.9840590953826904 25:0.16239720582962036 26:0.4807882010936737 27:0.6823182702064514 28:0.7310552000999451 29:0.23070606589317322 30:0.5254515409469604 31:0.9209679365158081 32:0.38963833451271057 33:0.33316975831985474 34:0.5530377626419067 35:0.9976674914360046 36:0.06826158612966537 37:0.4802955687046051 38:0.5425287485122681 39:0.9881739020347595 40:-0.15333758294582367 41:0.6379310488700867 42:0.5057471394538879 43:0.97384113073349 44:-0.22722958028316498 45:0.8612479567527771 46:0.0 47:-0.4788520932197571 48:0.8778955936431885 49:0.7824302315711975 50:0.14449918270111084 51:-0.5256964564323425 52:0.8506723046302795 53:0.6806239485740662 54:0.29228243231773376 55:-0.5229482054710388 56:0.8523644208908081 57:0.5738916397094727 58:0.4844006597995758 59:-0.4906087815761566 60:0.8713799715042114 61:0.4605911374092102 62:0.6830870509147644 63:-0.44883033633232117 64:0.8936170339584351 65:0.39162561297416687 66:0.8472906351089478 67:-0.37906691431999207 68:0.9253692626953125 69:0.348932683467865 70:0.9556650519371033 71:-0.3162277042865753 72:0.9486832618713379 73:0.3407225012779236 74:1.0 75:0.664363443851471 76:0.7474096417427063 77:0.37520521879196167 78:0.9852216839790344 79:0.9191449284553528 80:-0.3939194679260254 
-0.0 -0.04529499500634415 -0.0 0.0 0.0 0.0 0.0 0.0 1:0.24528300762176514 2:0.0 3:0.0 4:1.0 5:0.24528300762176514 6:0.02915951982140541 7:-0.19930964708328247 8:0.9799365401268005 9:0.22469976544380188 10:0.10120067745447159 11:-0.2710166275501251 12:0.9625747203826904 13:0.19554021954536438 14:0.2058318853378296 15:-0.22589026391506195 16:0.9741527438163757 17:0.16981130838394165 18:0.3379073739051819 19:-0.1080588698387146 20:0.9941444993019104 21:0.16981130838394165 22:0.4425385594367981 23:0.2790546119213104 24:0.9602752327919006 25:0.22813040018081665 26:0.5385934710502625 27:0.75925612449646 28:0.6507919430732727 29:0.3138934373855591 30:0.5660377144813538 31:0.9927337169647217 32:0.12033131718635559 33:0.4545454978942871 34:0.5660377144813538 35:0.9925564527511597 36:-0.1217857077717781 37:0.593482255935669 38:0.531732439994812 39:0.9665313363075256 40:-0.2565484642982483 41:0.732418417930603 42:0.49228131771087646 43:0.9486831426620483 44:-0.31622812151908875 45:0.8301886916160583 46:0.4528301954269409 47:0.9273505806922913 48:-0.3741936981678009 49:0.5471698045730591 50:0.056603774428367615 51:-0.8682430386543274 52:0.49613913893699646 53:0.5283018946647644 54:0.06738544255495071 55:-0.23559948801994324 56:0.9718501567840576 57:0.5256065130233765 58:0.14555256068706512 59:-0.07426240295171738 60:0.9972387552261353 61:0.5094339847564697 62:0.3207547068595886 63:-0.11914487183094025 64:0.9928768277168274 65:0.48517537117004395 66:0.4824797511100769 67:-0.08771104365587234 68:0.9961459636688232 69:0.4716981053352356 70:0.7493261098861694 71:-0.07768696546554565 72:0.9969778656959534 73:0.4528301954269409 74:0.8975741267204285 75:-0.07505643367767334 76:0.9971792697906494 77:0.4528301954269409 78:1.0 79:0.0 80:1.0 
-0.9698973326975773 -0.9605252419465236 -0.0 0.0 0.0 0.4104365837845334 0.028779330279626276 0.0 1:0.379807710647583 2:0.0 3:0.22518427670001984 4:0.9743162393569946 5:0.39188796281814575 6:0.052268240600824356 7:-0.0426911860704422 8:0.9990882277488708 9:0.37364470958709717 10:0.14423075318336487 11:-0.2754254937171936 12:0.9613224864006042 13:0.31545788049697876 14:0.31903350353240967 15:-0.3208380937576294 16:0.9471340775489807 17:0.2553006708621979 18:0.49358972907066345 19:-0.27293822169303894 20:0.9620315432548523 21:0.23557692766189575 22:0.6005917191505432 23:-0.06324902921915054 24:0.9979977011680603 25:0.2464255392551422 26:0.6336292028427124 27:0.7667510509490967 28:0.6419445276260376 29:0.267380952835083 30:0.6272189021110535 31:0.9424877166748047 32:-0.3342406153678894 33:0.323594331741333 34:0.6062623262405396 35:0.9597380757331848 36:-0.2808965742588043 37:0.4291178584098816 38:0.5798816680908203 39:0.978756844997406 40:-0.20502445101737976 41:0.557814359664917 42:0.557199239730835 43:0.9912461638450623 44:-0.13202686607837677 45:0.6623519659042358 46:0.5488165616989136 47:0.9945723414421082 48:-0.10404764860868454 49:0.7180707454681396 50:0.540433943271637 51:0.760033905506134 52:-0.6498833298683167 53:0.7644230723381042 54:0.4615384638309479 55:0.5065590739250183 56:-0.8622052669525146 57:0.7035256624221802 58:0.01923076994717121 59:-0.1737852841615677 60:0.9847835898399353 61:0.6746795177459717 62:0.18269230425357819 63:-0.12488871812820435 64:0.9921707510948181 65:0.6458333134651184 66:0.47756409645080566 67:-0.101083904504776 68:0.9948778748512268 69:0.6137820482254028 70:0.7820512652397156 71:-0.07124711573123932 72:0.9974586963653564 73:0.610576868057251 74:0.9711538553237915 75:0.25589245557785034 76:0.9667052626609802 77:0.6714743375778198 78:1.0 79:0.9037379622459412 80:0.4280860424041748 
-0.0 -0.0 -2.1575603843060946 1.8650262915872287 0.45441280158315533 6.9431675069513625 0.23784542101399947 1.6163564259111705 1:0.46341463923454285 2:0.024390242993831635 3:0.0 4:-1.0 5:0.46341463923454285 6:0.0 7:-1.0 8:0.0 9:0.4146341383457184 10:0.024390242993831635 11:-0.7071068286895752 12:0.7071068286895752 13:0.3658536672592163 14:0.09756097197532654 15:-0.4472135305404663 16:0.8944272398948669 17:0.3414634168148041 18:0.17073170840740204 19:-0.37139078974723816 20:0.9284767508506775 21:0.31707316637039185 22:0.2195121943950653 23:-0.1414213925600052 24:0.9899494647979736 25:0.31707316637039185 26:0.3414634168148041 27:0.2747212052345276 28:0.9615238904953003 29:0.3658536672592163 30:0.39024388790130615 31:0.8000000715255737 32:0.5999999642372131 33:0.4146341383457184 34:0.4146341383457184 35:0.9486832618713379 36:0.31622788310050964 37:0.5121951103210449 38:0.4390243887901306 39:0.9922778606414795 40:0.12403474748134613 41:0.6097561120986938 42:0.4390243887901306 43:0.986393928527832 44:-0.16439905762672424 45:0.6585365533828735 46:0.4146341383457184 47:0.8944269418716431 48:-0.4472140371799469 49:0.6829268336296082 50:0.1463414579629898 51:-0.3162281811237335 52:0.9486832022666931 53:0.6585365533828735 54:0.2195121943950653 55:-0.24253568053245544 56:0.9701424837112427 57:0.6341463327407837 58:0.3414634168148041 59:-0.24253542721271515 60:0.9701426029205322 61:0.585365891456604 62:0.5121951103210449 63:-0.19611597061157227 64:0.9805806875228882 65:0.585365891456604 66:0.5853658318519592 67:-0.19611619412899017 68:0.9805806875228882 69:0.5365853905677795 70:0.7560975551605225 71:-0.2747211754322052 72:0.9615238904953003 73:0.4878048896789551 74:0.9268292784690857 75:-0.2873479723930359 76:0.9578263163566589 77:0.46341463923454285 78:1.0 79:-0.31622788310050964 80:0.9486832618713379 
-0.0 -0.0 -0.0 0.140988101540359 0.0 4.410344425733706 0.0 0.0 1:0.4386792480945587 2:0.014150943607091904 3:0.70710688829422 4:-0.7071067094802856 5:0.4528301954269409 6:0.0 7:-0.8804711103439331 8:0.4740998446941376 9:0.37735849618911743 10:0.04716981202363968 11:-0.7949512600898743 12:0.6066733002662659 13:0.27358490228652954 14:0.13679245114326477 15:-0.7310552597045898 16:0.6823182106018066 17:0.16509434580802917 18:0.24528302252292633 19:-0.602833092212677 20:0.7978673577308655 21:0.11320754885673523 22:0.349056601524353 23:-0.23695620894432068 24:0.9715203046798706 25:0.1179245263338089 26:0.4386792480945587 27:0.4244339168071747 28:0.905458927154541 29:0.18396227061748505 30:0.5 31:0.8752415776252747 32:0.4836859703063965 33:0.2971698045730591 34:0.5377358198165894 35:0.9798765182495117 36:0.19960449635982513 37:0.4386792480945587 38:0.551886796951294 39:0.9994449615478516 40:0.03331490978598595 41:0.5801886916160583 42:0.5471698045730591 43:0.9960377216339111 44:-0.08893192559480667 45:0.7028301954269409 46:0.5283018946647644 47:0.9797149896621704 48:-0.20039619505405426 49:0.7877358198165894 50:0.5047169923782349 51:0.9635178446769714 52:-0.26764392852783203 53:0.8867924213409424 54:0.15566037595272064 55:-0.6438980102539062 56:0.7651113271713257 57:0.7531461715698242 58:0.3144654333591461 59:-0.6021608114242554 60:0.7983748316764832 61:0.6069197654724121 62:0.5267295241355896 63:-0.48958513140678406 64:0.8719555139541626 65:0.5377358198165894 66:0.698113203048706 67:-0.25857803225517273 68:0.9659903645515442 69:0.5235848426818848 70:0.838050365447998 71:0.03843321278691292 72:0.9992611408233643 73:0.5471698045730591 74:0.9433962106704712 75:0.37758269906044006 76:0.9259757995605469 77:0.5896226167678833 78:1.0 79:0.599999725818634 80:0.8000001907348633 
-0.0 -0.0 -0.0 0.0 0.0 0.0 0.2484068710429402 0.0 1:0.2630900740623474 2:0.02575107291340828 3:-0.23695629835128784 4:0.9715203046798706 5:0.24592268466949463 6:0.09613733738660812 7:-0.16148747503757477 8:0.9868746995925903 9:0.23218899965286255 10:0.21459226310253143 11:-0.18164214491844177 12:0.9833647608757019 13:0.19613686203956604 14:0.3656652271747589 15:-0.23635198175907135 16:0.9716675877571106 17:0.17038631439208984 18:0.46866950392723083 19:0.3639979660511017 20:0.9313998222351074 21:0.254506379365921 22:0.5150214433670044 23:0.9809190034866333 24:0.19441697001457214 25:0.36094385385513306 26:0.5064377784729004 27:0.9993346929550171 28:-0.03647192567586899 29:0.48969972133636475 30:0.5064377784729004 31:0.9999099373817444 32:0.013421575538814068 33:0.6167377233505249 34:0.509871244430542 35:0.9993718862533569 36:0.03543867543339729 37:0.7317593693733215 38:0.5150214433670044 39:0.9984104633331299 40:-0.056361738592386246 41:0.8296136856079102 42:0.497854083776474 43:0.9849571585655212 44:-0.17279885709285736 45:0.752360463142395 46:0.02575107291340828 47:-0.8944272994995117 48:-0.44721344113349915 49:0.7008582949638367 50:0.0 51:-0.4228854179382324 52:0.9061831831932068 53:0.6922746300697327 54:0.15450644493103027 55:-0.08789374679327011 56:0.9961299300193787 57:0.6751072406768799 58:0.29184550046920776 59:-0.08304542303085327 60:0.9965457916259766 61:0.6665235757827759 62:0.46351930499076843 63:-0.026306601241230965 64:0.9996539354324341 65:0.6665235757827759 66:0.6180257797241211 67:0.028157759457826614 68:0.9996034502983093 69:0.6751072406768799 70:0.7682403326034546 71:0.03172995522618294 72:0.9994964599609375 73:0.6751072406768799 74:0.8884119987487793 75:0.0 76:1.0 77:0.6751072406768799 78:1.0 79:0.0 80:1.0 
-2.87005344779415 -2.6706669448036098 -0.5123952625046838 -2.3354214182161974 2.220140263482946 4.651765269989112 0.0 4.026092742872237 1:0.9825396537780762 2:0.0 3:-0.9686636328697205 4:0.24837592244148254 5:0.8587304353713989 6:0.0317460335791111 7:-0.9868499040603638 8:0.16163921356201172 9:0.6142857074737549 10:0.06031746044754982 11:-0.9977850914001465 12:0.06651892513036728 13:0.4301585257053375 14:0.06031746044754982 15:-0.9997687935829163 16:0.021500416100025177 17:0.31904762983322144 18:0.06666667014360428 19:-0.7709614634513855 20:0.6368817687034607 21:0.35714271664619446 22:0.12063492089509964 23:0.37955495715141296 24:0.9251691699028015 25:0.369841068983078 26:0.1904762089252472 27:-0.44015687704086304 28:0.8979209065437317 29:0.27777770161628723 30:0.2825396955013275 31:-0.6794077157974243 32:0.7337610125541687 33:0.21111106872558594 34:0.3619047701358795 35:0.30477961897850037 36:0.9524229168891907 37:0.3031748831272125 38:0.3619047701358795 39:0.9741905331611633 40:0.2257271260023117 41:0.47142845392227173 42:0.42222222685813904 43:0.985664427280426 44:0.1687174290418625 45:0.6555556058883667 46:0.42222222685813904 47:0.9775551557540894 48:0.2106795608997345 49:0.8396832942962646 50:0.5015873312950134 51:0.8192316293716431 52:0.5734627842903137 53:0.9730156660079956 54:0.6444445252418518 55:0.1814028024673462 56:0.9834088683128357 57:0.8999998569488525 58:0.8285714983940125 59:-0.5717923641204834 60:0.8203983902931213 61:0.7539682388305664 62:0.9587302207946777 63:-0.9007687568664551 64:0.4342990517616272 65:0.5444443225860596 66:1.0 67:-0.9930498003959656 68:-0.1176949217915535 69:0.3253968060016632 70:0.9079365134239197 71:-0.9415861964225769 72:-0.33677202463150024 73:0.10952414572238922 74:0.8444444537162781 75:-0.9278155565261841 76:-0.37303924560546875 77:0.01746031641960144 78:0.7841269969940186 79:-0.8364620208740234 80:-0.5480248332023621 
-0.810848993434845 -0.3879176067179535 -0.0 -0.0 1.5572670498459866 0.0 0.0 0.0 1:0.38489651679992676 2:0.11746987700462341 3:-1.0 4:0.0 5:0.31561940908432007 6:0.11746987700462341 7:-0.9297204613685608 8:0.36826592683792114 9:0.25236639380455017 10:0.16996558010578156 11:-0.6085171699523926 12:0.7935406565666199 13:0.1882530301809311 14:0.2835628092288971 15:-0.36633071303367615 16:0.9304847121238708 17:0.16630831360816956 18:0.3885542154312134 19:0.17554205656051636 20:0.9844719767570496 21:0.22009426355361938 22:0.4621342718601227 23:0.8426973223686218 24:0.5383875966072083 25:0.36768609285354614 26:0.5172116756439209 27:0.9368845820426941 28:0.3496387004852295 29:0.5475471019744873 30:0.5843373537063599 31:0.8616615533828735 32:0.5074833631515503 33:0.6482360363006592 34:0.6824440956115723 35:0.3248734474182129 36:0.9457575082778931 37:0.6249985694885254 38:0.8098106980323792 39:-0.4478429853916168 40:0.8941121697425842 41:0.526033341884613 42:0.9264200329780579 43:-0.7881881594657898 44:0.6154343485832214 45:0.40511900186538696 46:0.9814974069595337 47:-0.9494157433509827 48:0.31402191519737244 49:0.3035712242126465 50:1.0 51:-0.9987149238586426 52:0.050681326538324356 53:0.26097163558006287 54:0.9888123869895935 55:0.1203312799334526 56:-0.9927338361740112 57:0.31561940908432007 58:0.900602400302887 59:0.5266443490982056 60:-0.8500857353210449 61:0.26742666959762573 62:0.10542168468236923 63:-0.9958932399749756 64:0.09053574502468109 65:0.2260109931230545 66:0.10918674618005753 67:0.8849181532859802 68:-0.4657464921474457 69:0.32465556263923645 70:0.07530120760202408 71:0.9790918231010437 72:-0.20341861248016357 73:0.5558302402496338 74:0.040662650018930435 75:0.9892348647117615 76:-0.14633651077747345 77:0.8336917161941528 78:0.0 79:0.9894610643386841 80:-0.1447991579771042 
-1.1210025968407673 -2.5936680364218634 -1.875844566426438 -2.177954709974349 0.5732851479183199 4.444017761666607 1.3955601679529466 2.3581332181599683 1:0.9057527780532837 2:0.0 3:-0.9931923151016235 4:0.11648572981357574 5:0.856181263923645 6:0.0058139534667134285 7:-0.9830203056335449 8:0.18349702656269073 9:0.6762545108795166 10:0.0428396537899971 11:-0.9910323619842529 12:0.13362233340740204 13:0.4476745128631592 14:0.06089351326227188 15:-0.9999881386756897 16:-0.004871193319559097 17:0.23653613030910492 18:0.040697675198316574 19:-0.9997667074203491 20:0.021603556349873543 21:0.19277848303318024 22:0.06640145927667618 23:-0.5849747061729431 24:0.8110515475273132 25:0.17319461703300476 26:0.1285189688205719 27:-0.41007083654403687 28:0.9120537042617798 29:0.13953489065170288 30:0.18482249975204468 31:-0.4451298117637634 32:0.8954660296440125 33:0.12086904793977737 34:0.23378212749958038 35:-0.2802182137966156 36:0.9599363207817078 37:0.0942472517490387 38:0.3399631977081299 39:-0.11764427274465561 40:0.9930557608604431 41:0.10006120800971985 42:0.40942472219467163 43:0.8684990406036377 44:0.49569085240364075 45:0.22184816002845764 46:0.4127906858921051 47:0.9952971935272217 48:0.09686844795942307 49:0.3861689865589142 50:0.43727049231529236 51:0.9467132687568665 52:0.32207760214805603 53:0.5780293941497803 54:0.5339657068252563 55:0.8915004134178162 56:0.453019917011261 57:0.7426559925079346 58:0.6184209585189819 59:0.802003026008606 60:0.5973199605941772 61:0.8274173736572266 62:0.7197061777114868 63:0.25216978788375854 64:0.9676830172538757 65:0.8047736883163452 66:0.8567930459976196 67:-0.5812379717826843 68:0.8137336373329163 69:0.6606488227844238 70:0.9531822800636292 71:-0.946018636226654 72:0.32411208748817444 73:0.38678109645843506 74:1.0 75:-0.9984973669052124 76:0.05480010434985161 77:0.2313341498374939 78:0.9767441749572754 79:-0.9889934062957764 80:-0.14795953035354614 
-0.7891034926385223 -1.0304907578746574 -2.2916597158285805 -3.171781622412066 0.7826474883479599 0.1528626890724983 0.2669183132809591 0.637448244108897 1:0.20419122278690338 2:0.05144500359892845 3:-0.9083831310272217 4:0.4181387722492218 5:0.18512605130672455 6:0.06022091209888458 7:-0.4154389500617981 8:0.9096210598945618 9:0.18104097247123718 10:0.10213345289230347 11:-0.027316000312566757 12:0.999626874923706 13:0.18104097247123718 14:0.20971404016017914 15:0.04040956497192383 16:0.999183177947998 17:0.19042189419269562 18:0.33408990502357483 19:0.1673383265733719 20:0.9858995079994202 21:0.2173551619052887 22:0.4236646890640259 23:0.5150705575942993 24:0.857147753238678 25:0.2701616585254669 26:0.46678775548934937 27:0.9234356880187988 28:0.38375312089920044 29:0.36699971556663513 30:0.4858526289463043 31:0.9636881947517395 32:0.2670302093029022 33:0.49076980352401733 34:0.5279164910316467 35:0.8856999278068542 36:0.4642582833766937 37:0.5860949754714966 38:0.6006960272789001 39:0.6032114028930664 40:0.7975813150405884 41:0.6180214881896973 42:0.6961718797683716 43:-0.017229055985808372 44:0.9998515844345093 45:0.5827654600143433 46:0.7939173579216003 47:-0.5340704917907715 48:0.8454399704933167 49:0.4968223571777344 50:0.888031542301178 51:-0.7497671842575073 52:0.6617016792297363 53:0.39211684465408325 54:0.9621729254722595 55:-0.8697168231010437 56:0.4935510456562042 57:0.29951581358909607 58:1.0 59:-0.9837969541549683 60:0.1792859137058258 61:0.22855223715305328 62:0.9919807314872742 63:-0.7762163281440735 64:-0.6304666996002197 65:0.1931454986333847 66:0.9136027693748474 67:-0.09729713201522827 68:-0.9952553510665894 69:0.20676347613334656 70:0.7691028118133545 71:0.09382634609937668 72:-0.9955886006355286 73:0.4665607511997223 74:0.036011502146720886 75:0.994819164276123 76:-0.10166035592556 77:0.8189589977264404 78:0.0 79:0.994819164276123 80:-0.10166035592556 
-0.0 -0.0 -0.11155786360813114 -1.0180671645072588 0.0 0.08871130536184005 3.5330010118304704 0.25654008911861337 1:0.4571428596973419 2:0.15714284777641296 3:-0.6401845812797546 4:0.7682211399078369 5:0.4214285612106323 6:0.19999998807907104 7:-0.6585044860839844 8:0.7525767683982849 9:0.3571428656578064 10:0.27142858505249023 11:-0.6709132790565491 12:0.7415358424186707 13:0.2857142984867096 14:0.3499999940395355 15:-0.12403473258018494 16:0.9922778606414795 17:0.34285715222358704 18:0.3857142925262451 19:0.8320502042770386 20:0.5547003746032715 21:0.4357142746448517 22:0.45000001788139343 23:0.7399399280548096 24:0.6726729273796082 25:0.5 26:0.5285714864730835 27:0.2747211456298828 28:0.9615238904953003 29:0.4928571283817291 30:0.6499999761581421 31:-0.2982749938964844 32:0.954479992389679 33:0.4285714328289032 34:0.7571429014205933 35:-0.7219880819320679 36:0.6919055581092834 37:0.3214285671710968 38:0.8142857551574707 39:-0.9535827040672302 40:0.30113112926483154 41:0.15714286267757416 42:0.8428571224212646 43:-0.999671459197998 44:0.025632333010435104 45:0.04285714402794838 46:0.8214285373687744 47:-0.8087361454963684 48:-0.588171660900116 49:0.0 50:0.7285714149475098 51:-0.41905826330184937 52:-0.9079593420028687 53:0.37142857909202576 54:0.2142857015132904 55:0.9363300204277039 56:-0.35112112760543823 57:0.44761961698532104 58:0.18571427464485168 59:0.9728062748908997 60:-0.23162050545215607 61:0.5714285969734192 62:0.1666666567325592 63:0.9953500628471375 64:-0.0963243767619133 65:0.7428571581840515 66:0.15714284777641296 67:0.9995120763778687 68:-0.03123469091951847 69:0.8761910796165466 70:0.15714284777641296 71:0.9962405562400818 72:0.08662966638803482 73:0.9619044661521912 74:0.17619045078754425 75:0.9079586267471313 76:0.4190598428249359 77:1.0 78:0.2142857015132904 79:0.7071093916893005 80:0.7071041464805603 
-0.0 -0.13235062576026332 -0.0 -2.768023219808177 0.0 1.7805828720392196 0.0 0.0 1:0.44366198778152466 2:0.056338027119636536 3:-0.43627479672431946 4:0.8998134732246399 5:0.39859139919281006 6:0.14929577708244324 7:-0.36399519443511963 8:0.9314008355140686 9:0.34788748621940613 10:0.30140843987464905 11:-0.3075640797615051 12:0.9515273571014404 13:0.3084506392478943 14:0.42816904187202454 15:-0.3032042682170868 16:0.9529255628585815 17:0.2887324094772339 18:0.48732396960258484 19:0.4061398208141327 20:0.9138109683990479 21:0.3309859335422516 22:0.47887325286865234 23:0.9411947727203369 24:-0.3378644287586212 25:0.3985918164253235 26:0.4478873014450073 27:0.975789487361908 28:-0.2187119573354721 29:0.4943658411502838 30:0.4422535300254822 31:0.990747332572937 32:0.13571901619434357 33:0.6042256951332092 34:0.47605636715888977 35:0.8659826517105103 36:0.5000741481781006 37:0.6943660378456116 38:0.5577465295791626 39:0.5881708264350891 40:0.8087366819381714 41:0.7394366264343262 42:0.6619718074798584 43:0.08219686150550842 44:0.9966161251068115 45:0.7169017195701599 46:0.830985963344574 47:-0.40081971883773804 48:0.9161570072174072 49:0.6211264133453369 50:0.9323944449424744 51:-0.8566794395446777 52:0.5158491134643555 53:0.4549294114112854 54:0.9887324571609497 55:-0.9820625185966492 56:0.18855580687522888 57:0.26901376247406006 58:1.0 59:-0.9986178278923035 60:-0.052559126168489456 61:0.13380283117294312 62:0.9718309640884399 63:-0.978980302810669 64:-0.20395489037036896 65:0.40140846371650696 66:0.0 67:0.957826554775238 68:0.28734713792800903 69:0.448356956243515 70:0.014084506779909134 71:0.9946918487548828 72:0.10289926826953888 73:0.6737086176872253 74:0.028169013559818268 75:0.999432384967804 76:0.0336887426674366 77:0.8661971688270569 78:0.028169013559818268 79:1.0 80:0.0 
