svm_type c_svc
kernel_type rbf
gamma 0.015625
nr_class 21
total_sv 266
rho 0.4312020436221975 0.17151725038547186 0.26996511489572333 0.06800004570075911 0.3482054246913715 0.09292370853640214 0.35176161175384524 0.20783906117474094 0.06347884214106773 0.03728422851164943 0.324211059612925 0.36854421697783285 0.2655820692164216 0.17813198919981993 0.16553642505984514 -0.02163757975133808 0.4194046997487645 0.40049259554158906 0.04199318264785203 0.14451004930832648 -0.17515773140549676 -0.4402360964750561 -0.4631004116627601 -0.06394930455820712 -0.24704824965554403 -0.06343260292331135 -0.20805695941964275 -0.6150312836680847 -0.5827393522592832 -0.12949815364976253 -0.22436377403747346 -0.18406348086595747 -0.3373934121816393 -0.4150388394825816 -0.662794456902196 0.05050372167266471 -0.1328080321978233 -0.3894551602239372 -0.4032551416109828 -0.04606807931995389 -0.24218250456922438 0.27348059515130735 -0.15469356729557124 0.14348023344375926 -0.035089241983993213 -0.08827348313797177 -0.2353608686653624 0.11900765076546804 0.001056255520866294 0.14877201957014932 -0.05863140752834196 -0.10880890403992059 -0.2840290123199841 0.3690658603342432 0.012887696495408787 -0.23886694613768694 -0.10659130026652375 -0.2013535319152246 0.04200390829345683 -0.11344850552607856 0.14787650248783604 -0.001665418506605721 -0.15859253069871818 -0.24702560298721538 0.07832013938568531 -0.06023440536469645 -0.0027587409494734447 -0.028848939100304227 -0.1811928316903038 -0.1275733570082888 0.4690089872167495 0.05024668111284521 -0.1610607497068236 -0.0776291073456279 0.27850224745944974 0.44022410644944 0.33928700231648257 0.3613344350342434 -0.026477044014582368 0.014457243439530362 0.31953134162172236 0.19105519386425257 0.41446709142605553 0.13837749427818802 -0.004663262644689416 -0.018400282784301673 0.5030264927915075 0.3060178619342601 -0.09898009043768397 0.08674316450573084 -0.3310334410942509 -0.047921500319773144 -0.10026901421141901 -0.5297826698213355 -0.4000054841492079 -0.017687715994568733 -0.17932108160047658 -0.22170617149799335 -0.2048040558378541 -0.3013375873743259 -0.3852111981687833 0.400797765227361 -0.10665709435561554 -0.31537276713711765 -0.6727707699638591 0.26994647534726424 0.1169355181839038 -0.06384447223421306 -0.09877626782538601 0.17144549264252326 0.10158311248118519 0.15149760946487986 0.05692911222705716 -0.09679953647888818 -0.13987901947683523 0.5258916780636134 0.26010330047302727 -0.3164821364956524 0.03708594874299739 -0.15729299441795902 -0.21946343576307017 -0.7970463803212913 -0.10967777266372591 -0.16086428191689026 0.2948892013774577 -0.3853285204429207 -0.35103791830287245 -0.5289220268896283 0.21910232501456867 -0.10841027575850938 -0.32157167420662097 -0.3801609399928842 -0.15591886763053253 -0.24064346408510429 0.09254617327239685 0.008931014100611562 -0.014833292723863774 -0.05612075829879237 -0.2163614831833537 -0.20610686751532753 0.23094464724940986 0.2888256269434594 -0.26065246794437774 -0.14269655953511087 -0.0058948876165054965 0.38947278146844483 0.14241652100348481 0.23677934327724734 0.13643087468645473 -0.0729345214847853 0.07478970839068821 0.4476251891294435 0.3241935620209393 -0.05830398230901632 0.32256638297156726 0.5435622977610236 0.14024641086174283 0.31729053424172976 0.40116647638723113 0.04813602451598731 -0.13445594780962505 0.5236926004451902 0.2808654650787518 0.03323419192825613 0.1580295219968418 -0.15829779189913876 -0.0810286925073301 -0.33786874872980555 -0.5449088761054437 -0.5378685187968297 0.15547130749193594 0.010195158374409036 -0.3055275707241528 -0.29858879765858476 0.2498434521346184 -0.016605302345084862 -0.12897180650179596 -0.1722114677453218 0.23333457839744118 0.14769844826744277 -0.20454266856974937 -0.10274953929786812 -0.06300826116431991 -0.32269827326408285 -0.19702335966003914 0.24100170162964374 0.1026508468224698 -0.21628329484811892 -0.43436610297291306 -0.1910388553899406 -0.8063186729271777 0.32994588128221675 0.14574584597468354 -0.11883341178580221 0.027183885640047752 -0.07955364811325313 0.33647950907097857 0.27730775964951787 0.048037037339518696 0.11205143133199533 0.46904128794726047 0.26932898572065134 0.11386916303025575 0.3887027981643648 -0.4792629892037696 -0.5174766277463085 -0.7052889798508685 -0.24696574949321792 -0.41465296492549447 0.16201672479483428
label 77 71 80 81 74 75 68 69 66 67 86 87 65 90 85 78 79 89 82 83 76
nr_sv 10 15 14 14 10 14 14 15 13 9 13 12 12 13 11 11 10 15 15 12 14
SV
0.23978575673254093 0.46569909501527124 0.4927611083041554 0.9788705698437516 0.9612038388878614 0.46597253361406016 0.7465532905297603 2.307735369789886 0.0 0.8857515216050965 0.8232903983153333 0.0 1.4047796690134775 0.71161607225206 0.0 0.003992165559588443 1.1270628907328788 2.506636269205122 0.0 0.8728010723627129 1:0.0100602051243186 2:0.7521020770072937 3:-0.5034087896347046 4:0.8640483617782593 5:0.0 6:0.76936936378479 7:-0.3531597852706909 8:0.9355629682540894 9:0.0015016478719189763 10:0.7747747302055359 11:0.6238938570022583 12:-0.7815090417861938 13:0.014264262281358242 14:0.7515015006065369 15:0.5388709902763367 16:-0.8423883318901062 17:0.17717738449573517 18:0.500150203704834 19:0.5529705882072449 20:-0.8332007527351379 21:0.35795775055885315 22:0.23363369703292847 23:0.5738505721092224 24:-0.8189601302146912 25:0.44504499435424805 26:0.11786792427301407 27:0.6917266845703125 28:-0.7221593260765076 29:0.4705708920955658 30:0.116066113114357 31:0.402564138174057 32:0.9153918027877808 33:0.5031530261039734 34:0.24999994039535522 35:0.13265268504619598 36:0.9911625385284424 37:0.529128909111023 38:0.5536035299301147 39:0.09194856137037277 40:0.9957636594772339 41:0.5507509708404541 42:0.7654653787612915 43:0.046000316739082336 44:0.9989414811134338 45:0.5412911176681519 46:0.8177176713943481 47:0.498753160238266 48:-0.8667441606521606 49:0.5999996066093445 50:0.6798800230026245 51:0.45342332124710083 52:-0.891295313835144 53:0.7908405065536499 54:0.32717782258987427 55:0.5111445188522339 56:-0.8594947457313538 57:0.9337836503982544 58:0.11861871182918549 59:0.6726463437080383 60:-0.7399640679359436 61:0.9873871207237244 62:0.11096101999282837 63:0.2915118336677551 64:0.9565671682357788 65:0.9935434460639954 66:0.31471455097198486 67:-0.03600380942225456 68:0.9993517398834229 69:0.9689191579818726 70:0.6235731840133667 71:-0.010869372636079788 72:0.9999409317970276 73:0.9884381294250488 74:0.7843842506408691 75:0.11628609895706177 76:0.9932157397270203 77:1.0 78:0.8890389800071716 79:0.10980825871229172 80:0.9939528107643127 
0.30773093141411895 0.0 0.0 0.0 0.0 0.0 0.0 0.0 0.19701127354344256 0.0 0.0 0.0 0.0 0.0 0.0 0.48972318407736726 0.0 0.0 0.2185518057555412 0.16985373728018185 1:0.058006174862384796 2:0.8984139561653137 3:-0.9615233540534973 4:0.27472296357154846 5:0.029456621035933495 6:0.9065710306167603 7:-0.9449277520179749 8:0.3272790014743805 9:0.0 10:0.9185045957565308 11:0.29354527592658997 12:-0.9559451937675476 13:0.05830853059887886 14:0.812613308429718 15:0.49547141790390015 16:-0.8686242699623108 17:0.22945627570152283 18:0.5162386298179626 19:0.49001309275627136 20:-0.8717151284217834 21:0.39864063262939453 22:0.2071751207113266 23:0.4609745740890503 24:-0.8874133229255676 25:0.4552874267101288 26:0.08149540424346924 27:0.5602062344551086 28:-0.828353226184845 29:0.4800609052181244 30:0.08678241074085236 31:0.22786840796470642 32:0.9736919403076172 33:0.49954718351364136 34:0.27061933279037476 35:0.05340539291501045 36:0.9985729455947876 37:0.5075531005859375 38:0.6008309125900269 39:0.04138939827680588 40:0.999143123626709 41:0.5211482048034668 42:0.7920695543289185 43:0.04192516580224037 44:0.9991207122802734 45:0.5173717141151428 46:0.8348187804222107 47:0.7702977061271667 48:-0.6376845240592957 49:0.5623868107795715 50:0.7579305171966553 51:0.530862033367157 52:-0.8474583029747009 53:0.7344412803649902 54:0.488292932510376 55:0.5265989303588867 56:-0.8501138687133789 57:0.9098188281059265 58:0.19705438613891602 59:0.5578175783157349 60:-0.8299636244773865 61:0.9898793697357178 62:0.10823260247707367 63:0.7142482399940491 64:0.6998923420906067 65:1.0 66:0.2854229807853699 67:-0.023242345079779625 68:0.9997299313545227 69:0.9777950048446655 70:0.6280210018157959 71:-0.043838754296302795 72:0.9990386366844177 73:0.975679874420166 74:0.8396527767181396 75:-0.06383275240659714 76:0.9979606866836548 77:0.9592147469520569 78:0.9185045957565308 79:-0.2044023722410202 80:0.9788869619369507 
0.7970784762435514 0.0 0.17837552838656784 0.0703902927167471 0.06129556094913975 0.0 1.1667558326597733 0.0 0.5304968996493235 0.7241342799037553 0.919695494154766 1.5711161246437861 0.9225169889927136 0.9946394053076711 4.308610732500583 0.4279843781618308 0.029947214339703987 0.0 0.0 0.46524948025390034 1:0.0 2:0.9942108392715454 3:0.2550773322582245 4:-0.9669206142425537 5:0.013101761229336262 6:0.9445460438728333 7:0.349439799785614 8:-0.9369588494300842 9:0.05545400083065033 10:0.845521092414856 11:0.3615659475326538 12:-0.9323464632034302 13:0.11578305810689926 14:0.6797685027122498 15:0.27921536564826965 16:-0.9602285027503967 17:0.1678854376077652 18:0.45886659622192383 19:0.18140541017055511 20:-0.9834083914756775 21:0.19683119654655457 22:0.2404022365808487 23:0.19014249742031097 24:-0.9817565083503723 25:0.22760510444641113 26:0.15051798522472382 27:0.870500385761261 28:-0.4921676218509674 29:0.27605119347572327 30:0.19561246037483215 31:0.4538196325302124 32:0.8910935521125793 33:0.3446069359779358 34:0.38025590777397156 35:0.37307921051979065 36:0.9277994632720947 37:0.4268737733364105 38:0.5706886053085327 39:0.47805255651474 40:0.8783312439918518 41:0.48506999015808105 42:0.6383302211761475 43:0.8392255902290344 44:0.5437833070755005 45:0.5463132262229919 46:0.6480804085731506 47:0.8765125870704651 48:-0.4813788831233978 49:0.6182205677032471 50:0.5652042031288147 51:0.527103066444397 52:-0.8498013615608215 53:0.7309566736221313 54:0.35039621591567993 55:0.40303438901901245 56:-0.9151847958564758 57:0.8129189014434814 58:0.12309562414884567 59:0.35465413331985474 60:-0.93499755859375 61:0.861669659614563 62:0.00578916072845459 63:0.7256703972816467 64:-0.6880425214767456 65:0.8951858282089233 66:0.04509444534778595 67:0.40695059299468994 68:0.9134502410888672 69:0.9750152230262756 70:0.26020708680152893 71:0.19755184650421143 72:0.9802924394607544 73:1.0 74:0.5652036666870117 75:0.0277827437967062 76:0.9996140003204346 77:0.989945113658905 78:0.7973796725273132 79:-0.04326661676168442 80:0.9990635514259338 
1.8321497846638022 1.6247820153583459 2.3412948335888677 1.0894836200871683 1.7295234939754924 1.1730106775791265 1.3291438850552462 1.5703409558412744 1.1650513040431445 0.8081336341336837 0.9203958033764187 1.6148967614183771 1.362623869047643 0.6055937720557328 0.4704638237735837 0.4646851654248147 2.6214591287996707 1.759172021767674 0.9113546149782592 0.27370547100417786 1:0.2084399163722992 2:0.805626630783081 3:0.0 4:-1.0 5:0.2084399163722992 6:0.6854220032691956 7:0.153882697224617 8:-0.9880891442298889 9:0.25703325867652893 10:0.4936061501502991 11:0.15058103203773499 12:-0.9885976314544678 13:0.26726341247558594 14:0.2992327809333801 15:0.13262099027633667 16:-0.9911668300628662 17:0.30562663078308105 18:0.1304348260164261 19:0.14834064245224 20:-0.9889363646507263 21:0.30562663078308105 22:0.04347832500934601 23:0.9832821488380432 24:-0.18208883702754974 25:0.37468022108078003 26:0.11764715611934662 27:0.5144956707954407 28:0.8574930429458618 29:0.45140665769577026 30:0.28644511103630066 31:0.3354323208332062 32:0.9420642852783203 33:0.4948849380016327 34:0.4552430510520935 35:0.3734665513038635 36:0.9276436567306519 37:0.5306904315948486 38:0.4833759665489197 39:0.5639617443084717 40:-0.8258008360862732 41:0.5664962530136108 42:0.3503836691379547 43:0.3569428622722626 44:-0.9341261982917786 45:0.6508951187133789 46:0.1687980443239212 47:0.5358239412307739 48:-0.8443297743797302 49:0.735293984413147 50:0.0843990221619606 51:0.6401841640472412 52:-0.7682214975357056 53:0.7915600538253784 54:0.0 55:0.8087369799613953 56:-0.5881705284118652 57:0.7915600538253784 58:0.04347836971282959 59:0.0 60:1.0 61:0.7915600538253784 62:0.18158571422100067 63:-0.09757152944803238 64:0.9952285289764404 65:0.7531968355178833 66:0.4347827732563019 67:-0.09552064538002014 68:0.9954274892807007 69:0.7429667711257935 70:0.6879798173904419 71:0.005318767391145229 72:0.9999858736991882 73:0.7557542324066162 74:0.9156010746955872 75:0.15388265252113342 76:0.9880891442298889 77:0.7915600538253784 78:1.0 79:0.3905518352985382 80:0.9205809235572815 
0.0 0.0 0.0 0.0 0.0 0.2924036057992655 0.07200167503488479 0.0 0.0 0.0 0.0 0.423703139703567 0.0 0.6388310372101833 0.0 0.6660156407170211 0.06914811516260176 0.0 0.9795876366700266 1.0520215253430005 1:0.11872908473014832 2:0.9364548325538635 3:0.0 4:-1.0 5:0.11872908473014832 6:0.7692307829856873 7:0.06707523763179779 8:-0.9977479577064514 9:0.1454848349094391 10:0.5384615659713745 11:0.13639448583126068 12:-0.9906546473503113 13:0.1822742372751236 14:0.3076923191547394 15:0.2468351125717163 16:-0.9690575003623962 17:0.23578573763370514 18:0.18394649028778076 19:0.3113081455230713 20:-0.9503090381622314 21:0.24581938982009888 22:0.11371239274740219 23:0.9701422452926636 24:0.2425367683172226 25:0.2625414729118347 26:0.19063545763492584 27:0.4536854326725006 28:0.8911618590354919 29:0.33946549892425537 30:0.29765889048576355 31:0.5776686668395996 32:0.8162713646888733 33:0.41638755798339844 34:0.408026784658432 35:0.45985186100006104 36:0.8879956007003784 37:0.4364548325538635 38:0.48494985699653625 39:0.9976304173469543 40:0.06880147010087967 41:0.5133769512176514 42:0.41471564769744873 43:0.6850259304046631 44:-0.7285187244415283 45:0.6471575498580933 46:0.26086947321891785 47:0.6215746998786926 48:-0.7833548784255981 49:0.7575238943099976 50:0.10702342540025711 51:0.6401844024658203 52:-0.7682211995124817 53:0.8645488023757935 54:0.0 55:0.8895688056945801 56:-0.45680129528045654 57:0.8812708854675293 58:0.04347827658057213 59:0.12716172635555267 60:0.9918820261955261 61:0.8812708854675293 62:0.13043494522571564 63:0.0 64:1.0 65:0.8812708854675293 66:0.30769240856170654 67:0.0 68:1.0 69:0.8812708854675293 70:0.5752507448196411 71:0.0 72:1.0 73:0.8812708854675293 74:0.8327760696411133 75:0.0 76:1.0 77:0.8812708854675293 78:1.0 79:0.0 80:1.0 
0.5751407037496591 0.0 0.0 0.26383059260309044 0.1756358813587693 0.0 0.230435666602607 0.0 0.2509682066557227 0.6303451713932952 0.0 0.0 0.6063795468371909 0.18080271589867714 0.021933384965607615 0.38753618796371797 0.0 0.0 0.0 0.4089783401328908 1:0.0 2:0.9681440591812134 3:0.6976146101951599 4:-0.7164732813835144 5:0.10249248147010803 6:0.8628808856010437 7:0.45356816053390503 8:-0.8912215828895569 9:0.15789473056793213 10:0.6578947901725769 11:0.36274927854537964 12:-0.9318867921829224 13:0.2631579041481018 14:0.45013853907585144 15:0.43273112177848816 16:-0.9015230536460876 17:0.3573407530784607 18:0.24238230288028717 19:0.3571380078792572 20:-0.9340515732765198 21:0.40720248222351074 22:0.07340723276138306 23:0.6585044264793396 24:-0.7525768280029297 25:0.4736842215061188 26:0.10941827297210693 27:0.2631165385246277 28:0.9647641181945801 29:0.4736842215061188 30:0.31717449426651 31:-0.12566259503364563 32:0.9920730590820312 33:0.42105263471603394 34:0.5249307751655579 35:-0.12566262483596802 36:0.9920730590820312 37:0.42105263471603394 38:0.7326868772506714 39:0.0 40:1.0 41:0.42105263471603394 42:0.8905817866325378 43:0.9312431216239929 44:-0.364398330450058 45:0.5484763979911804 46:0.6828255653381348 47:0.3924374580383301 48:-0.9197787046432495 49:0.5983372926712036 50:0.4750693440437317 51:0.4424249827861786 52:-0.896805465221405 53:0.7534629702568054 54:0.2673131227493286 55:0.5269414782524109 56:-0.849901556968689 57:0.8559562563896179 58:0.05955686792731285 59:0.7231703400611877 60:-0.6906696557998657 61:1.0 62:0.03185594081878662 63:0.45269036293029785 64:0.8916677832603455 65:0.9473684430122375 66:0.2396121770143509 67:-0.12566253542900085 68:0.9920730590820312 69:0.9473684430122375 70:0.44736841320991516 71:-0.00666604982689023 72:0.9999777674674988 73:0.9445985555648804 74:0.6551244854927063 75:-0.1256626695394516 76:0.9920730590820312 77:0.8947368264198303 78:0.8628808856010437 79:-0.23337380588054657 80:0.9723870754241943 
0.0 0.0 0.0 0.16158817459953095 0.0 0.0 0.0 0.0 0.37154362045373807 0.0 0.0 1.0065718653474558 0.0 0.0 0.0 0.0 0.0 0.0 0.2671996543986299 0.0 1:0.16670995950698853 2:0.9259355664253235 3:0.1814056783914566 4:-0.9834083318710327 5:0.1716475933790207 6:0.8991684317588806 7:0.12495730817317963 8:-0.9921621084213257 9:0.1797037124633789 10:0.822765052318573 11:0.23081350326538086 12:-0.9729980230331421 13:0.2319386899471283 14:0.6450103521347046 15:0.310423344373703 16:-0.950598418712616 17:0.3174375891685486 18:0.40098750591278076 19:0.4149124324321747 20:-0.9098613262176514 21:0.4515332281589508 22:0.16346155107021332 23:0.4970081150531769 24:-0.8677458763122559 25:0.5414501428604126 26:0.00987522304058075 27:0.5413655042648315 28:-0.8407873511314392 29:0.5567827224731445 30:0.0 31:0.12507778406143188 32:0.992146909236908 33:0.5567827224731445 34:0.13149690628051758 35:-0.027446243911981583 36:0.9996232986450195 37:0.5469074845314026 38:0.3596673607826233 39:-0.04128130525350571 40:0.9991475343704224 41:0.5414500832557678 42:0.502598762512207 43:-0.027726663276553154 44:0.999615490436554 45:0.5419698357582092 46:0.5376819372177124 47:0.5839853286743164 48:-0.8117642402648926 49:0.604080080986023 50:0.4155404269695282 51:0.5288844108581543 52:-0.84869384765625 53:0.708290159702301 54:0.27078989148139954 55:0.6145154237747192 56:-0.7889048457145691 57:0.8156185150146484 58:0.14397084712982178 59:0.8285893201828003 60:-0.5598568320274353 61:0.8332900404930115 62:0.1863306313753128 63:0.00911521166563034 64:0.9999585151672363 65:0.8182172179222107 66:0.4290542006492615 67:-0.0980910211801529 68:0.9951774477958679 69:0.7761174440383911 70:0.7663722634315491 71:-0.15189409255981445 72:0.9883967638015747 73:0.7454521656036377 74:0.9025468826293945 75:-0.17522181570529938 76:0.9845289587974548 77:0.7345374822616577 78:1.0 79:-0.1113034188747406 80:0.9937865138053894 
0.0 0.0 0.0 0.0 0.08740216380072499 0.0 0.0 0.0 0.0 0.0 0.0 0.0 0.0 0.015852258903593004 0.0 0.0 0.0 0.0 0.0 0.0 1:0.0 2:0.9516172409057617 3:0.9986172914505005 4:0.052570030093193054 5:0.010416666977107525 6:0.9521656036376953 7:0.2199941724538803 8:-0.9755011200904846 9:0.02083333395421505 10:0.859237790107727 11:0.2084573656320572 12:-0.9780314564704895 13:0.08689693361520767 14:0.5933387279510498 15:0.2489728331565857 16:-0.9685104489326477 17:0.12801535427570343 18:0.442297101020813 19:0.2590097188949585 20:-0.9658747315406799 21:0.18201754987239838 22:0.23862385749816895 23:0.3324059247970581 24:-0.94313645362854 25:0.19709427654743195 26:0.24629923701286316 27:0.44852742552757263 28:0.8937691450119019 29:0.25685301423072815 30:0.38774657249450684 31:0.37294676899909973 32:0.9278528094291687 33:0.34429821372032166 34:0.6125273108482361 35:0.4257970154285431 36:0.9048187136650085 37:0.4169407784938812 38:0.7279331088066101 39:0.7298628687858582 40:0.6835936307907104 41:0.47834429144859314 42:0.7380756139755249 43:0.8709285259246826 44:-0.49140968918800354 45:0.5748355388641357 46:0.6388431191444397 47:0.5174059271812439 48:-0.8557400703430176 49:0.6573464274406433 50:0.4420231580734253 51:0.3690059185028076 52:-0.9294270873069763 53:0.7650766968727112 54:0.15967658162117004 55:0.4087277948856354 56:-0.9126563668251038 57:0.8338815569877625 58:0.04783439636230469 59:0.8372349143028259 60:-0.5468434691429138 61:0.8867872357368469 62:0.08018083870410919 63:0.5057737827301025 64:0.8626661896705627 65:0.965186357498169 66:0.2717926502227783 67:0.20964369177818298 68:0.9777778387069702 69:0.9895833134651184 70:0.5596215724945068 71:0.06391351670026779 72:0.9979554414749146 73:1.0 74:0.8153781890869141 75:-0.040913984179496765 76:0.9991626739501953 77:0.9739583134651184 78:0.9412005543708801 79:-0.20267631113529205 80:0.9792458415031433 
0.0 0.0 0.0 0.010437107424321959 0.0 0.0 0.0 0.0 0.0 0.0 0.0 0.0 0.0 0.0 0.0 0.0 0.0 0.0 0.0 0.0 1:0.07741214334964752 2:1.0 3:-0.9433130025863647 4:-0.3319045603275299 5:0.02460869774222374 6:0.9814211130142212 7:-0.9574071168899536 8:-0.2887413799762726 9:0.01580837368965149 10:0.9814211130142212 11:-0.02434583380818367 12:-0.999703586101532 13:0.02428324893116951 14:0.9680573344230652 15:0.2349894493818283 16:-0.9719979166984558 17:0.0373208187520504 18:0.8924381732940674 19:0.389006108045578 20:-0.9212351441383362 21:0.1615058332681656 22:0.643090009689331 23:0.4975970685482025 24:-0.867408275604248 25:0.396512508392334 26:0.266297310590744 27:0.5551489591598511 28:-0.8317508697509766 29:0.5337355136871338 30:0.0853976234793663 31:0.8205762505531311 32:-0.5715369582176208 33:0.5457955598831177 34:0.16232064366340637 35:0.049434956163167953 36:0.9987773299217224 37:0.551336407661438 38:0.4410037696361542 39:-0.02734534814953804 40:0.9996260404586792 41:0.5311280488967896 42:0.6985005736351013 43:-0.0566149540245533 44:0.9983960390090942 45:0.534387469291687 46:0.7398957014083862 47:0.4764142632484436 48:-0.8792208433151245 49:0.6070730686187744 50:0.558344304561615 51:0.41498222947120667 52:-0.9098294973373413 53:0.7935135364532471 54:0.17177365720272064 55:0.4715496897697449 56:-0.8818395137786865 57:0.9056388139724731 58:0.0 59:0.6389318704605103 60:-0.7692633271217346 61:0.9245436191558838 62:0.014015615917742252 63:0.35581162571907043 64:0.9345576763153076 65:0.9841916561126709 66:0.20632310211658478 67:-0.005265732295811176 68:0.9999861121177673 69:0.9216103553771973 70:0.57105553150177 71:-0.20279118418693542 72:0.9792219996452332 73:0.854791522026062 74:0.8311601877212524 75:-0.1131105124950409 76:0.9935824275016785 77:0.8763039112091064 78:0.9690352082252502 79:0.1541629284620285 80:0.9880453944206238 
0.9609856223393525 1.3686529848251825 1.2788094919523607 0.08853194595823169 1.059172830443823 1.1382831670197189 0.7316889919729792 0.6870498850426834 0.7171587653669736 0.22702883646127475 1.5385159505877772 1.6119136249008628 0.0 0.45275151441894224 0.9270508676575812 0.6845785411023387 1.3080389947750657 3.1270625581567586 0.6876909178282242 0.2934113599149419 1:0.13056911528110504 2:0.9853206276893616 3:-0.7008203864097595 4:0.713337779045105 5:0.11614733189344406 6:1.0 7:-0.7840458154678345 8:0.6207029819488525 9:0.11202675104141235 10:1.0 11:0.05075052008032799 12:-0.9987114071846008 13:0.12335815280675888 14:0.8580994009971619 15:0.1616455316543579 16:-0.9868488907814026 17:0.16842646896839142 18:0.6556786894798279 19:0.2404899001121521 20:-0.9706516265869141 21:0.2302343249320984 22:0.4267318844795227 23:0.3315114378929138 24:-0.9434512257575989 25:0.3288693428039551 26:0.1990729570388794 27:0.4789397418498993 28:-0.8778477907180786 29:0.42750445008277893 30:0.06515584141016006 31:0.6509808301925659 32:-0.7590941190719604 33:0.47463300824165344 34:0.02910122089087963 35:0.7365037202835083 36:0.6764335632324219 37:0.5001287460327148 38:0.13185681402683258 39:0.060632143169641495 40:0.998160183429718 41:0.4952355623245239 42:0.36827197670936584 43:0.01761135272681713 44:0.9998449087142944 45:0.5057944655418396 46:0.45351532101631165 47:0.891733705997467 48:-0.4525604844093323 49:0.5809939503669739 50:0.32474905252456665 51:0.509386420249939 52:-0.8605379462242126 53:0.6873550415039062 54:0.14679382741451263 55:0.55937659740448 56:-0.8289136290550232 57:0.7867627143859863 58:0.019830064848065376 59:0.7215325236320496 60:-0.6923805475234985 61:0.8403294682502747 62:0.0 63:0.7756593227386475 64:0.6311517357826233 65:0.8807622790336609 66:0.09631723165512085 67:0.1350812017917633 68:0.9908344745635986 69:0.8879732489585876 70:0.3494720160961151 71:-0.02483719401061535 72:0.9996914863586426 73:0.8684006333351135 74:0.5938706994056702 75:-0.11582974344491959 76:0.9932690858840942 77:0.8400720357894897 78:0.760236918926239 79:-0.16786235570907593 80:0.985810399055481 
-0.982064022939015 1.5102579475240083 6.717490679488396 0.3382449556500465 0.0 0.8176336117182473 0.0 0.0 0.0 0.0 0.0 0.0 0.0 0.0 0.0 0.0 5.237591533817008 0.6255624157823174 1.3394361941217106 0.0 1:0.6711640954017639 2:0.02227800339460373 3:-0.9654382467269897 4:-0.260631799697876 5:0.5886414051055908 6:0.0 7:-0.9889692068099976 8:0.1481209248304367 9:0.46375900506973267 10:0.05334169417619705 11:-0.7689914703369141 12:0.6392590999603271 13:0.3319736123085022 14:0.2133667767047882 15:-0.5152485966682434 16:0.8570407629013062 17:0.21117037534713745 18:0.4734859764575958 19:-0.3243580460548401 20:0.9459344148635864 21:0.1782240867614746 22:0.6617507934570312 23:-0.022635629400610924 24:0.9997438192367554 25:0.20363980531692505 26:0.80608731508255 27:0.31197020411491394 28:0.9500918388366699 29:0.26106056571006775 30:0.9140257239341736 31:0.6192630529403687 32:0.7851836085319519 33:0.35236895084381104 34:0.994665801525116 35:0.889015793800354 36:0.457876592874527 37:0.4279887080192566 38:1.0 39:0.9814267754554749 40:-0.19183702766895294 41:0.5738939046859741 42:0.9513648748397827 43:0.8865442276000977 44:-0.46264389157295227 45:0.6721054315567017 46:0.8726074695587158 47:0.7202532291412354 48:-0.6937112212181091 49:0.7612173557281494 50:0.7709444761276245 51:0.5459535121917725 52:-0.8378154039382935 53:0.8217759132385254 54:0.6429244875907898 55:0.18857842683792114 56:-0.9820581078529358 57:0.8020080924034119 58:0.5585189461708069 59:-0.8021023273468018 60:-0.5971866846084595 61:0.6928145289421082 62:0.5469092726707458 63:-0.9972641468048096 64:0.07392106205224991 65:0.569187343120575 66:0.5757765173912048 67:-0.9249693155288696 68:0.3800417482852936 69:0.404141902923584 70:0.6655160784721375 71:-0.8441377878189087 72:0.5361261367797852 73:0.34044569730758667 74:0.721054196357727 75:-0.6342006921768188 76:0.7731685042381287 77:0.32538437843322754 78:0.7615311741828918 79:-0.34873610734939575 80:0.9372209906578064 
-0.0 0.0 0.0 0.9005874254813798 0.0 0.0 0.29169079921527313 0.0 0.0 0.0 1.4762833246288976 0.3129702710341774 0.488767770443416 4.273068574331464 1.6885625617128852 7.277975804050575 0.0 0.0 1.6191595295978227 1.2572284277312331 1:0.5732394456863403 2:0.1665996015071869 3:0.30037498474121094 4:-0.9538211226463318 5:0.5961771011352539 6:0.09376257658004761 7:0.13234876096248627 8:-0.991203248500824 9:0.592153012752533 10:0.0249496977776289 11:-0.4727463722229004 12:-0.881198525428772 13:0.5458752512931824 14:0.0 15:-0.9992479085922241 16:0.038776710629463196 17:0.45734405517578125 18:0.030181080102920532 19:-0.8085094094276428 20:0.5884833335876465 21:0.35955744981765747 22:0.13561366498470306 23:-0.5803337693214417 24:0.8143786787986755 25:0.2617708146572113 26:0.30462774634361267 27:-0.3637462854385376 28:0.931498110294342 29:0.2074446976184845 30:0.5251509547233582 31:-0.11211470514535904 32:0.9936953186988831 33:0.21468807756900787 34:0.7219315767288208 35:0.1811342090368271 36:0.9834583401679993 37:0.27303826808929443 38:0.881287693977356 39:0.5510088801383972 40:0.8344993591308594 41:0.3812875747680664 42:0.9742454290390015 43:0.8925854563713074 44:0.4508783519268036 45:0.5080481767654419 46:1.0 47:0.999706506729126 48:-0.024225274100899696 49:0.6303824186325073 50:0.9682092666625977 51:0.9019455313682556 52:-0.43184971809387207 53:0.7358149290084839 54:0.8909457325935364 55:0.6283004283905029 56:-0.7779707908630371 57:0.7925553321838379 58:0.7674043774604797 59:0.17016509175300598 60:-0.985415518283844 61:0.7800803184509277 62:0.6346076130867004 63:-0.3138243854045868 64:-0.9494810104370117 65:0.7136822938919067 66:0.5287726521492004 67:-0.710299015045166 68:-0.703900158405304 69:0.6014083623886108 70:0.4575452506542206 71:-0.94629967212677 72:-0.3232908248901367 73:0.4875252842903137 74:0.4515090882778168 75:-0.9992642998695374 76:0.03835143893957138 77:0.412676066160202 78:0.4647887349128723 79:-0.9846234321594238 80:0.17469054460525513 
-0.0 0.0 0.0 0.6747859189072763 0.0 0.0 0.0 0.0 0.0 0.0 0.0 0.0 0.0 0.0 0.0 0.0 0.0 0.0 0.14151688777023824 0.0 1:0.7786589860916138 2:0.054794520139694214 3:-0.7863183617591858 4:-0.6178215146064758 5:0.748377799987793 6:0.031002162024378777 7:-0.9274551868438721 8:-0.3739342987537384 9:0.6427541971206665 10:0.0 11:-0.998928427696228 12:-0.04628237336874008 13:0.5616438984870911 14:0.022350402548909187 15:-0.8325727581977844 16:0.5539157390594482 17:0.3777937889099121 18:0.17627976834774017 19:-0.6670737862586975 20:0.744991660118103 21:0.2591925263404846 22:0.36012977361679077 23:-0.4699627161026001 24:0.8826862573623657 25:0.15284785628318787 26:0.5987743139266968 27:-0.20857934653759003 28:0.9780054688453674 29:0.1618601530790329 30:0.8165104985237122 31:0.3902158737182617 32:0.9207233786582947 33:0.30425381660461426 34:0.956020176410675 35:0.8704367876052856 36:0.4922802150249481 37:0.4863014221191406 38:1.0 39:0.9991598129272461 40:0.04098570719361305 41:0.6294159889221191 42:0.9693583846092224 43:0.8195850849151611 44:-0.5729575157165527 45:0.6827685832977295 46:0.8626532554626465 47:0.16235360503196716 48:-0.9867326021194458 49:0.6665464639663696 50:0.7436913847923279 51:-0.497143417596817 52:-0.8676684498786926 53:0.5483056306838989 54:0.6279739737510681 55:-0.8179558515548706 56:-0.5752810835838318 57:0.45998555421829224 58:0.59841388463974 59:-0.9589541554450989 60:-0.28356125950813293 61:0.41420334577560425 62:0.5883201360702515 63:-0.9863936901092529 64:-0.16440045833587646 65:0.42754149436950684 66:0.5930064916610718 67:0.9990094900131226 68:0.044499095529317856 69:0.5760636329650879 70:0.5955299139022827 71:0.9968910813331604 72:-0.07879215478897095 73:0.7422494888305664 74:0.5681326389312744 75:0.9972386956214905 76:-0.07426244765520096 77:0.8471521139144897 78:0.5753424763679504 79:0.9976465106010437 80:0.06856710463762283 
-0.0 0.0 0.0 0.8418236995495089 0.0 0.0 0.0 0.0 0.0 0.0 0.0 0.0 0.0 0.0 0.0 0.0 0.0 0.0 0.0 0.0 1:0.8430372476577759 2:0.028156450018286705 3:-0.8987497091293335 4:-0.4384620487689972 5:0.7853227853775024 6:0.0 7:-0.9974120855331421 8:0.0718962624669075 9:0.5231237411499023 10:0.05121671408414841 11:-0.8897141814231873 12:0.4565180242061615 13:0.1680467128753662 14:0.31672829389572144 15:-0.5597813129425049 16:0.828640341758728 17:0.0867626965045929 18:0.697158932685852 19:0.1688726842403412 20:0.985637903213501 21:0.2795258164405823 22:0.9673843383789062 23:0.8468526005744934 24:0.5318277478218079 25:0.5689898133277893 26:1.0 27:0.9918392300605774 28:-0.1274953931570053 29:0.8187030553817749 30:0.8980761170387268 31:0.8298817276954651 32:-0.5579392910003662 33:0.8248182535171509 34:0.8280035257339478 35:-0.23754620552062988 36:-0.9713762402534485 37:0.7772963047027588 38:0.7287552356719971 39:-0.5967985987663269 40:-0.8023911118507385 41:0.7068414688110352 42:0.6693846583366394 43:-0.8081604242324829 44:-0.5889623761177063 45:0.6842911243438721 46:0.6609759330749512 47:-0.9615238904953003 48:-0.2747213542461395 49:0.6738436222076416 50:0.659956693649292 51:-0.9983327984809875 52:-0.05771998316049576 53:0.6247930526733398 54:0.657535970211029 55:-0.9991589784622192 56:-0.04100281372666359 57:0.6148552894592285 58:0.657535970211029 59:0.9961745142936707 60:0.08738616853952408 61:0.6465790271759033 62:0.6594470739364624 63:0.9937360286712646 64:0.11175259202718735 65:0.7621350288391113 66:0.6740986108779907 67:0.999281108379364 68:0.03791144862771034 69:0.8715760707855225 70:0.6679831743240356 71:0.990346372127533 72:-0.13861504197120667 73:0.9132373332977295 74:0.6529493927955627 75:0.874813437461853 76:-0.48445987701416016 77:0.9035545587539673 78:0.6502739191055298 79:-0.9638811349868774 80:-0.26633262634277344 
-0.5407901285352267 0.0 0.0 0.0 0.0 0.0 0.0 0.0 1.8275403869549371 0.0 0.0 0.0 0.0 0.0 0.0 14.472293027170846 0.0 0.0 0.7187558292910373 0.0 1:0.7599681615829468 2:0.1116427332162857 3:-0.5905188918113708 4:-0.8070237636566162 5:0.73604416847229 6:0.07894736528396606 7:-0.7201581001281738 8:-0.693809986114502 9:0.6945773363113403 10:0.048644330352544785 11:-0.8844943642616272 12:-0.4665508568286896 13:0.5909099578857422 14:0.0023923353292047977 15:-0.9639541506767273 16:-0.2660684287548065 17:0.518341064453125 18:0.0 19:-0.9256290197372437 20:0.37843218445777893 21:0.44657111167907715 22:0.06140352040529251 23:-0.6107097268104553 24:0.7918545603752136 25:0.3301438093185425 26:0.24401913583278656 27:-0.4740051031112671 28:0.8805220723152161 29:0.21132314205169678 30:0.49840521812438965 31:-0.35836124420166016 32:0.9335829615592957 33:0.1443379819393158 34:0.7280702590942383 35:-0.1182108074426651 36:0.9929885268211365 37:0.1634771227836609 38:0.90031898021698 39:0.39391809701919556 40:0.9191455841064453 41:0.2591700851917267 42:0.996012806892395 43:0.9274414777755737 44:0.3739682137966156 45:0.4106861352920532 46:1.0 47:0.99008709192276 48:-0.14045439660549164 49:0.6020729541778564 50:0.9473683834075928 51:0.8874282836914062 52:-0.46094581484794617 53:0.7392346858978271 54:0.8293461203575134 55:0.639550507068634 56:-0.7687491774559021 57:0.8389161825180054 58:0.6626793146133423 59:0.351386696100235 60:-0.9362304210662842 61:0.8556619882583618 62:0.5191386342048645 63:-0.14328886568546295 64:-0.9896808862686157 65:0.8046255111694336 66:0.42583730816841125 67:-0.8826920986175537 68:-0.4699517786502838 69:0.6834133863449097 70:0.42743220925331116 71:-0.9811317324638367 72:0.19334040582180023 73:0.5334925651550293 74:0.47926637530326843 75:-0.918484091758728 76:0.39545801281929016 77:0.396331787109375 78:0.5510366559028625 79:-0.88603276014328 80:0.46362248063087463 
-0.0 0.0 3.319805473146801 0.663696337351271 1.9645021723270957 0.17499743471213147 0.0 0.0 0.0 0.0 0.6585242606593867 0.2981187892136514 0.07461240607367757 0.0 0.0 0.0 0.07486345467234859 0.3132493087313722 1.6625102950881776 0.0 1:0.8231511116027832 2:0.11414790898561478 3:-0.6507911682128906 4:-0.7592567801475525 5:0.7845659255981445 6:0.06913183629512787 7:-0.8245132565498352 8:-0.5658425688743591 9:0.6591640114784241 10:0.0016077160835266113 11:-0.9992009401321411 12:-0.03996804729104042 13:0.46302250027656555 14:0.05627009645104408 15:-0.8795813918113708 16:0.4757483899593353 17:0.1479099690914154 18:0.2781350612640381 19:-0.6712794303894043 20:0.7412043213844299 21:0.0 22:0.5675241351127625 23:-0.1389886438846588 24:0.9902940392494202 25:0.07073955237865448 26:0.827974259853363 27:0.7248710989952087 28:0.6888845562934875 29:0.4533762037754059 30:0.9983922839164734 31:0.9781717658042908 32:0.20779812335968018 33:0.6913183331489563 34:0.9598070383071899 35:0.9148282408714294 36:-0.4038431644439697 37:0.8102893829345703 38:0.8408359885215759 39:0.28216639161109924 40:-0.9593654870986938 41:0.7717041969299316 42:0.6864951848983765 43:-0.4148108661174774 44:-0.9099076390266418 45:0.7106109261512756 46:0.6221864819526672 47:-0.9086767435073853 48:-0.417500376701355 49:0.6527331471443176 50:0.6318327784538269 51:-0.9325680136680603 52:0.3609943985939026 53:0.610932469367981 54:0.6607717275619507 55:-0.9028602838516235 56:0.4299338757991791 57:0.5852090120315552 58:0.6639871597290039 59:-0.9486832618713379 60:0.3162277638912201 61:0.6012861728668213 62:0.6639871597290039 63:0.977176308631897 64:-0.212429940700531 65:0.7331189513206482 66:0.6318327784538269 67:0.9909553527832031 68:-0.13419198989868164 69:0.909967839717865 70:0.6221864819526672 71:0.9981904625892639 72:-0.06013191491365433 73:1.0 74:0.6157556176185608 75:0.99083012342453 76:-0.13511309027671814 77:0.9807074069976807 78:0.6125401854515076 79:-0.9863939881324768 80:-0.16439899802207947 
-0.0 2.1707254242395724 0.0 0.0 0.0 1.3355348525666648 3.2285962681972267 1.3115505743694669 0.0 2.768847251066604 0.82735241491034 0.0 0.0 6.18048388800546 0.0 29.972700115598087 0.3900724046018031 0.0 0.0 1.2525298496789645 1:0.4583333432674408 2:0.0 3:-0.7568238973617554 4:0.6536186933517456 5:0.3618418276309967 6:0.0833333358168602 7:-0.8499038815498352 8:0.5269378423690796 9:0.2390340119600296 10:0.13596491515636444 11:-0.7474098801612854 12:0.6643631458282471 13:0.0855255052447319 14:0.32894739508628845 15:-0.5094899535179138 16:0.860476553440094 17:0.041666656732559204 18:0.46929824352264404 19:-0.1434265375137329 20:0.9896609783172607 21:0.041666656732559204 22:0.6315789222717285 23:0.0 24:1.0 25:0.041666656732559204 26:0.8245614171028137 27:0.2990913689136505 28:0.9542244076728821 29:0.1337738037109375 30:0.9254385828971863 31:0.768220067024231 32:0.6401857733726501 33:0.2521921694278717 34:1.0 35:0.9725111126899719 36:0.23285642266273499 37:0.4451751708984375 38:1.0 39:0.9899495840072632 40:-0.14142096042633057 41:0.5899124145507812 42:0.9517543911933899 43:0.9021348357200623 44:-0.4314541518688202 45:0.7478078603744507 46:0.8552631735801697 47:0.8198408484458923 48:-0.5725915431976318 49:0.8662261962890625 50:0.7587718963623047 51:0.7371528744697571 52:-0.6757259964942932 53:0.9583333730697632 54:0.6622807383537292 55:0.43073704838752747 56:-0.9024775624275208 57:0.9583333730697632 58:0.565789520740509 59:-0.18588536977767944 60:-0.9825714230537415 61:0.9276326894760132 62:0.5 63:-0.9333443641662598 64:-0.35898223519325256 65:0.7872823476791382 66:0.5 67:-1.0 68:0.0 69:0.6513164043426514 70:0.5 71:-1.0 72:0.0 73:0.5548248291015625 74:0.5 75:-1.0 76:0.0 77:0.4583333432674408 78:0.5 79:-1.0 80:0.0 
-0.5776145565950443 1.3402937478701025 11.845717715461912 0.30039024820658133 1.847362883529139 0.5975248909277099 1.193056669826831 0.9834817313088565 0.0 1.00359471097704 0.015233352638732222 1.2908060379386184 0.9109321146431864 0.3526120275867377 0.00821306720972978 0.0 3.696575219932825 2.126802224545332 0.1569641748499005 0.0 1:0.737785279750824 2:0.0 3:-0.9873309135437012 4:0.15867501497268677 5:0.651386022567749 6:0.013885317370295525 7:-0.9564400911331177 8:0.2919287085533142 9:0.32919809222221375 10:0.12471071630716324 11:-0.8764633536338806 12:0.4814685881137848 13:0.10536101460456848 14:0.3138338625431061 15:-0.48865872621536255 16:0.8724750280380249 17:0.07810389995574951 18:0.5730264782905579 19:0.18399746716022491 20:0.9829267263412476 21:0.20949913561344147 22:0.870146632194519 23:0.6931915283203125 24:0.7207533717155457 25:0.48874983191490173 26:1.0 27:0.9965633749961853 28:0.08283419162034988 29:0.7616978883743286 30:0.9160453081130981 31:0.8056126236915588 32:-0.5924426317214966 33:0.9177786707878113 34:0.6844947934150696 35:0.4359876811504364 36:-0.8999525904655457 37:0.9218961000442505 38:0.5853689908981323 39:-0.2876672148704529 40:-0.9577304124832153 41:0.8662248849868774 42:0.5128567814826965 43:-0.8202199339866638 44:-0.5720482468605042 45:0.7561706304550171 46:0.4697866141796112 47:-0.9695127010345459 48:-0.24504119157791138 49:0.6205314993858337 50:0.45075857639312744 51:-0.9889587759971619 52:-0.14819124341011047 53:0.5880023837089539 54:0.4445873200893402 55:-0.9851062297821045 56:-0.17194664478302002 57:0.5851755142211914 58:0.4445873200893402 59:0.99421226978302 60:0.10743394494056702 61:0.5927615165710449 62:0.4451015889644623 63:0.9860662817955017 64:0.16635289788246155 65:0.6377598643302917 66:0.4534584879875183 67:0.9911662936210632 68:0.13262495398521423 69:0.8281684517860413 70:0.47660067677497864 71:0.9969518780708313 72:0.07801838964223862 73:0.897337019443512 74:0.47377219796180725 75:0.9963005185127258 76:-0.08593818545341492 77:0.9161087870597839 78:0.4690151810646057 79:0.9693589806556702 80:-0.24564851820468903 
-0.0 0.0 6.162367713930857 0.0 0.0 0.0 0.0 0.0 0.0 0.0 0.0 0.0 0.0 0.0 0.0 0.0 0.0 0.0 0.0 0.0 1:0.749451756477356 2:0.0486111119389534 3:-0.058041296899318695 4:-0.9983140826225281 5:0.7476242780685425 6:0.017178364098072052 7:-0.5852677822113037 8:-0.8108400702476501 9:0.7143640518188477 10:0.0 11:-0.9968777894973755 12:-0.07896058261394501 13:0.599963366985321 14:0.005482455249875784 15:-0.9338221549987793 16:0.3577376902103424 17:0.3642178475856781 18:0.13413742184638977 19:-0.785871148109436 20:0.6183903813362122 21:0.1763523817062378 22:0.33881568908691406 23:-0.4995574355125427 24:0.8662807941436768 25:0.07693713903427124 26:0.6323099136352539 27:-0.027324719354510307 28:0.999626636505127 29:0.1631944477558136 30:0.8201754689216614 31:0.6203163266181946 32:0.7843517661094666 33:0.3174341022968292 34:0.9364035129547119 35:0.9076595306396484 36:0.4197072684764862 37:0.5520832538604736 38:1.0 39:0.9969019293785095 40:0.07865463197231293 41:0.7158259749412537 42:0.9678362607955933 43:0.8537452816963196 44:-0.52069091796875 45:0.818165123462677 46:0.8377192616462708 47:0.34570568799972534 48:-0.9383430480957031 49:0.8156067728996277 50:0.6970029473304749 51:-0.3620215356349945 52:-0.9321697354316711 53:0.7278874516487122 54:0.6052631735801697 55:-0.7986191511154175 56:-0.6018368005752563 57:0.6123902797698975 58:0.5438596606254578 59:-0.9326420426368713 60:-0.36080312728881836 61:0.527595043182373 62:0.5277777910232544 63:-0.9435448050498962 64:-0.33124494552612305 65:0.5780335664749146 66:0.531798243522644 67:0.9995871186256409 68:-0.028732599690556526 69:0.7691885828971863 70:0.5208333134651184 71:0.9955673217773438 72:-0.094051294028759 73:0.8952850699424744 74:0.5018274784088135 75:0.9840935468673706 76:-0.17765097320079803 77:0.9230628609657288 78:0.4930555522441864 79:0.9535827040672302 80:-0.30113112926483154 
-0.9551459162781992 2.2455482756711675 2.1756408824013045 0.5469009497872244 2.6050501527712053 1.3151950965742287 2.105180048790768 2.216142209935731 1.3911692689629924 1.1920467593575677 3.621354114303125 1.1412731956298088 1.7855108002899656 1.4049545362050075 1.1666823380214917 0.0 2.3637980320134506 2.198182665324187 0.2610499837395436 2.7378126758180197 1:0.7786299586296082 2:0.0 3:-0.9858575463294983 4:0.16758517920970917 5:0.6705737709999084 6:0.018368389457464218 7:-0.9007033109664917 8:0.43443477153778076 9:0.29117101430892944 10:0.23511528968811035 11:-0.7290423512458801 12:0.6844685077667236 13:0.07176315784454346 14:0.5805675387382507 15:-0.1900157630443573 16:0.9817810654640198 17:0.16664615273475647 18:0.878515362739563 19:0.6378263831138611 20:0.7701801657676697 21:0.4191170632839203 22:1.0 23:0.9779092073440552 24:0.2090299129486084 25:0.6585392951965332 26:0.9836584329605103 27:0.917356014251709 28:-0.39806774258613586 29:0.7738162279129028 30:0.8460856080055237 31:0.46355098485946655 32:-0.886070191860199 33:0.764442503452301 34:0.7812261581420898 35:-0.6189042925834656 36:-0.7854664325714111 37:0.6810874342918396 38:0.728401243686676 39:-0.930206298828125 40:-0.3670370876789093 41:0.5962127447128296 42:0.7148467302322388 43:-0.9932758212089539 44:-0.1157722994685173 45:0.5854452252388 46:0.717253565788269 47:-0.9741872549057007 48:0.22574131190776825 49:0.58582603931427 50:0.717253565788269 51:1.0 52:0.0 53:0.5859517455101013 54:0.717253565788269 55:1.0 56:0.0 57:0.5889921188354492 58:0.717253565788269 59:0.999552845954895 60:0.02990042418241501 61:0.6155948638916016 62:0.7181403040885925 63:0.9997177124023438 64:-0.023760473355650902 65:0.8021923899650574 66:0.7121863961219788 67:0.998164713382721 68:-0.060557249933481216 69:0.9225369095802307 70:0.6995185613632202 71:0.9937243461608887 72:-0.11185652017593384 73:0.9282368421554565 74:0.6979984641075134 75:-0.9962653517723083 76:0.08634405583143234 77:0.8845332264900208 78:0.7028122544288635 79:-0.9939885139465332 80:0.10948412865400314 
-0.0 0.0 3.067934406798274 0.0 0.0 0.0 0.0 0.0 0.0 0.5279709290900281 0.0 0.0 0.0 0.17756461080192734 0.0 1.6632582472981692 0.0 0.0 0.0 0.0 1:0.7429735660552979 2:0.007726120762526989 3:-0.9956667423248291 4:-0.0929926186800003 5:0.6602504253387451 6:0.0 7:-0.9496331810951233 8:0.3133638799190521 9:0.41154977679252625 10:0.11709071695804596 11:-0.7957141399383545 12:0.6056722402572632 13:0.11755672097206116 14:0.41308116912841797 15:-0.39727964997291565 16:0.917697548866272 17:0.13993629813194275 18:0.7445052266120911 19:0.4436422288417816 20:0.8962039947509766 21:0.38917022943496704 22:0.9617690443992615 23:0.8572325110435486 24:0.5149295926094055 25:0.5652729272842407 26:1.0 27:0.9999985694885254 28:-0.0016850087558850646 29:0.7054088115692139 30:0.9612361788749695 31:0.8342084884643555 32:-0.551449179649353 33:0.7389769554138184 34:0.8851738572120667 35:0.18364600837230682 36:-0.98299241065979 37:0.7329831123352051 38:0.8136406540870667 39:-0.17565467953681946 40:-0.9844518899917603 41:0.7083395719528198 42:0.7134674787521362 43:-0.382286936044693 44:-0.9240437150001526 45:0.6662448644638062 46:0.6523244976997375 47:-0.6774446368217468 48:-0.7355737686157227 49:0.6276147365570068 50:0.6258159279823303 51:-0.9474452137947083 52:-0.31991809606552124 53:0.5636743903160095 54:0.6176901459693909 55:-0.99630206823349 56:-0.08591997623443604 57:0.5550155639648438 58:0.6195550560951233 59:0.9980652928352356 60:0.062174733728170395 61:0.6043033599853516 62:0.6202211380004883 63:0.9945774078369141 64:-0.10399845242500305 65:0.7359132766723633 66:0.6006394028663635 67:0.9916850328445435 68:-0.12868855893611908 69:0.8732517957687378 70:0.5853203535079956 71:0.9900929927825928 72:-0.14041319489479065 73:0.8824433088302612 74:0.5798587799072266 75:-0.8625709414482117 76:-0.5059361457824707 77:0.8593982458114624 78:0.5771946310997009 79:-0.9933838844299316 80:-0.11484119296073914 
-1.6572566507955397 0.5228740060240831 0.0 1.3748645974936438 1.7615489991654836 0.6790263066044856 1.9197290533989992 1.0738143082200695 2.3765480995724317 0.4530550644919159 1.3444927513829648 2.7220995361322133 3.275268596515588 0.17254389375890675 2.0569948508955385 0.0 2.001360209938845 1.5283868173086004 1.351735360944661 0.5431833715891653 1:0.7733812928199768 2:0.18705035746097565 3:0.7071071267127991 4:-0.7071064114570618 5:0.8021582961082458 6:0.158273383975029 7:0.5144955515861511 8:-0.8574930429458618 9:0.8165467381477356 10:0.11510791629552841 11:-0.1240348368883133 12:-0.9922778606414795 13:0.7877697944641113 14:0.04316546767950058 15:-0.6305925846099854 16:-0.7761140465736389 17:0.7230215668678284 18:0.0 19:-0.9761871099472046 20:-0.21693044900894165 21:0.5935251712799072 22:0.0 23:-0.9532306790351868 24:0.3022438883781433 25:0.42805755138397217 26:0.09352517873048782 27:-0.715187132358551 28:0.698932945728302 29:0.27697843313217163 30:0.3093525171279907 31:-0.4522312879562378 32:0.8919006586074829 33:0.16906476020812988 34:0.6043165326118469 35:-0.11961688846349716 36:0.9928202033042908 37:0.2050359845161438 38:0.9064748287200928 39:0.4273795783519745 40:0.9040723443031311 41:0.35611510276794434 42:1.0 43:0.9747322797775269 44:0.2233760952949524 45:0.5503597259521484 46:0.9856114983558655 47:0.9526592493057251 48:-0.30404022336006165 49:0.6942445635795593 50:0.8920863270759583 51:0.6804510354995728 52:-0.7327934503555298 53:0.7374100685119629 54:0.7841726541519165 55:-0.06651879101991653 56:-0.997785210609436 57:0.6798561215400696 58:0.6762589812278748 59:-0.5943911075592041 60:-0.8041760921478271 61:0.6151078939437866 62:0.6187050342559814 63:-0.9037380218505859 64:-0.42808613181114197 65:0.5431654453277588 66:0.6115108132362366 67:-0.986393928527832 68:-0.16439922153949738 69:0.528777003288269 70:0.6043165326118469 71:0.9805805683135986 72:-0.19611643254756927 73:0.6510791778564453 74:0.5899280309677124 75:0.9863938689231873 76:-0.16439904272556305 77:0.8309352397918701 78:0.5539568066596985 79:0.9805806875228882 80:-0.19611619412899017 
-0.0 0.0 0.0 0.0 1.360835748961223 0.0 1.9273818154118594 0.0 1.318049840964243 3.5788530133367313 0.0 0.0 1.4047714793355963 7.205516517938063 0.0 5.969758630772136 0.7775810913066802 0.013568887205934278 0.0 0.9901269968493815 1:0.6672267913818359 2:0.020963825285434723 3:-0.9786292314529419 4:-0.20563289523124695 5:0.5674576759338379 6:0.0 7:-0.9874415397644043 8:0.15798510611057281 9:0.4259645938873291 10:0.05956442281603813 11:-0.8402873873710632 12:0.5421411991119385 13:0.305503249168396 14:0.16900917887687683 15:-0.6924117207527161 16:0.7215026021003723 17:0.21203172206878662 18:0.2824854254722595 19:-0.43299633264541626 20:0.9013957381248474 21:0.16941659152507782 22:0.45230934023857117 23:-0.20756039023399353 24:0.9782221913337708 25:0.1492590606212616 26:0.5783299803733826 27:-0.03865186125040054 28:0.9992527365684509 29:0.15732207894325256 30:0.7649844288825989 31:0.2021770179271698 32:0.9793490171432495 33:0.2177097648382187 34:0.9099063873291016 35:0.46980828046798706 36:0.882768452167511 37:0.2781059443950653 38:0.991936981678009 39:0.9280475974082947 40:0.37246158719062805 41:0.442192405462265 42:1.0 43:0.9345186948776245 44:-0.35591402649879456 45:0.5739420652389526 46:0.8792669773101807 47:0.6087798476219177 48:-0.793339192867279 49:0.6182037591934204 50:0.7706285715103149 51:0.1349894106388092 52:-0.9908470511436462 53:0.6028839945793152 54:0.666827917098999 55:-0.2332531213760376 56:-0.9724160432815552 57:0.5626368522644043 58:0.5389739871025085 59:-0.4072389304637909 60:-0.9133216738700867 61:0.5111269950866699 62:0.46104294061660767 63:0.015004315413534641 64:-0.9998874068260193 65:0.5635280013084412 66:0.4795878231525421 67:0.9956876635551453 68:0.09276936203241348 69:0.6495901346206665 70:0.47394371032714844 71:0.9835758805274963 72:-0.18049506843090057 73:0.7606474161148071 74:0.4434146285057068 75:0.9432860612869263 76:-0.3319810628890991 77:0.850740909576416 78:0.4031504988670349 79:0.9129725098609924 80:-0.40802106261253357 
-0.0 0.5167966185135228 0.0 0.6015405983905434 1.7198339966541816 1.0854452666671717 0.0 0.8036604450252836 0.0 0.0 0.0 0.0 0.0 0.0 0.0 0.0 0.0 0.9108712517668508 0.8689622860303369 1.9214699169108802 1:0.8563217520713806 2:0.0 3:-0.9548574090003967 4:0.29706454277038574 5:0.8218387365341187 6:0.01072796992957592 7:-0.7777926325798035 8:0.6285209655761719 9:0.7804598808288574 10:0.061302684247493744 11:-0.6962293386459351 12:0.7178193926811218 13:0.7229883670806885 14:0.11264368146657944 15:-0.8072977066040039 16:0.5901443958282471 17:0.5383141040802002 18:0.2383141815662384 19:-0.7728286385536194 20:0.6346148252487183 21:0.41877371072769165 22:0.3624521493911743 23:-0.6443864703178406 24:0.7646999955177307 25:0.29616880416870117 26:0.5256704688072205 27:-0.565208375453949 28:0.8249481320381165 29:0.18199217319488525 30:0.7080458998680115 31:-0.4216095209121704 32:0.9067775011062622 33:0.14367824792861938 34:0.8536398410797119 35:0.03478912636637688 36:0.9993947148323059 37:0.19042131304740906 38:0.9501916170120239 39:0.7071071863174438 40:0.707106351852417 41:0.2900385856628418 42:1.0 43:0.9962835907936096 44:0.08613357692956924 45:0.4563216269016266 46:0.9731799960136414 47:0.9630072712898254 48:-0.26947543025016785 49:0.6432947516441345 50:0.9011493921279907 51:0.8773579001426697 52:-0.47983649373054504 53:0.7911875247955322 54:0.7900382280349731 55:0.6704617142677307 56:-0.7419441342353821 57:0.8517239689826965 58:0.6704981327056885 59:0.09207279980182648 60:-0.9957522749900818 61:0.8118771314620972 62:0.5662835240364075 63:-0.6341284513473511 64:-0.7732276916503906 65:0.73294997215271 66:0.5256704688072205 67:-0.9949215054512024 68:-0.10065340995788574 69:0.6149424314498901 70:0.546360194683075 71:-0.9623093008995056 72:0.27195748686790466 73:0.4862068295478821 74:0.5954023599624634 75:-0.8998872637748718 76:0.43612268567085266 77:0.39042139053344727 78:0.6551724076271057 79:-0.8483796119689941 80:0.5293883085250854 
-0.0 0.0 2.043190545486569 0.0 0.4945390644754046 0.0 1.5800158603427454 0.0 1.060691234412637 0.0 2.186075247642792 0.42075896096184623 0.0 0.14669894154543195 0.6933571593669159 0.0 0.4398785591774121 0.012539550081183903 0.0 1.2221206998675287 1:0.6345136761665344 2:0.08238097280263901 3:-0.802752673625946 4:-0.5963121056556702 5:0.5954826474189758 6:0.053387392312288284 7:-0.9884536266326904 8:-0.15152378380298615 9:0.4017292559146881 10:0.04669657349586487 11:-0.9675812721252441 12:0.25255998969078064 13:0.19710014760494232 14:0.15737397968769073 15:-0.7244818210601807 16:0.6892939209938049 17:0.05157497525215149 18:0.37984395027160645 19:-0.39465948939323425 20:0.9188274145126343 21:0.0 22:0.616253137588501 23:0.007992343977093697 24:0.9999680519104004 25:0.054921749979257584 26:0.798578143119812 27:0.5914583206176758 28:0.8063355088233948 29:0.23250767588615417 30:0.933230996131897 31:0.9493044018745422 32:0.3143581748008728 33:0.522163987159729 34:0.9533034563064575 35:0.9941636919975281 36:-0.10788220167160034 37:0.7694450616836548 38:0.8749649524688721 39:0.8937119841575623 40:-0.4486411511898041 41:0.870924174785614 42:0.7782267332077026 43:0.222070574760437 44:-0.9750306010246277 45:0.8165585398674011 46:0.6681069135665894 47:-0.8121740818023682 48:-0.5834152102470398 49:0.655142605304718 50:0.6232227087020874 51:-0.9947602152824402 52:-0.1022353395819664 53:0.4747711718082428 54:0.6329801082611084 55:-0.999738335609436 56:0.022874154150485992 57:0.4480073153972626 58:0.6279619932174683 59:0.952086865901947 60:-0.3058277666568756 61:0.5207698941230774 62:0.6182044744491577 63:0.9902377724647522 64:-0.13938824832439423 65:0.8282696604728699 66:0.5744353532791138 67:0.9898881316184998 68:-0.14185075461864471 69:0.9701712727546692 70:0.5538053512573242 71:0.9912590980529785 72:-0.13192982971668243 73:0.9832738637924194 74:0.5538053512573242 75:0.9423342943191528 76:-0.3346731662750244 77:1.0 78:0.5432115793228149 79:0.8448064923286438 80:-0.5350720286369324 
-1.013564744561639 -1.5134840285364253 1.1511667085988486 0.4634277220490473 0.8431068678339733 1.5864120159294184 2.004281836386848 0.914089948437436 0.11212379734977035 0.4342966887267705 0.9722376080010705 1.327761172254922 0.2714861066236707 1.043703153434516 0.9877339417736587 1.325532304033326 2.1231634384990765 1.6176235391125466 1.233650922568795 0.21621715261196206 1:0.3520301878452301 2:0.06871422380208969 3:-0.08108113706111908 4:0.9967074990272522 5:0.33068719506263733 6:0.33107760548591614 7:-0.1281481385231018 8:0.9917550086975098 9:0.2801925837993622 10:0.6246747374534607 11:-0.2380521595478058 12:0.9712523818016052 13:0.20054656267166138 14:0.8620511293411255 15:-0.3070835471153259 16:0.9516825675964355 17:0.16462776064872742 18:0.9828216433525085 19:-0.3086801767349243 20:0.9511659145355225 21:0.15577825903892517 22:1.0 23:0.0 24:-1.0 25:0.16462776064872742 26:0.9370120763778687 27:0.13912880420684814 28:-0.9902743697166443 29:0.06780317425727844 30:0.07183759659528732 31:0.97942715883255 32:-0.2017979919910431 33:0.36530449986457825 34:0.010541385971009731 35:0.9912778735160828 36:-0.13178838789463043 37:0.6081467866897583 38:0.0 39:0.998684287071228 40:0.05128142982721329 41:0.813899040222168 42:0.03357626497745514 43:0.9457783102989197 44:0.32481274008750916 45:0.917360782623291 46:0.10619470477104187 47:0.5602349042892456 48:0.8283337950706482 49:0.932196855545044 50:0.2084851861000061 51:-0.3060090243816376 52:0.9520286321640015 53:0.8541125059127808 54:0.30296725034713745 55:-0.7820368409156799 56:0.6232322454452515 57:0.7283966541290283 58:0.37090063095092773 59:-0.9465588331222534 60:0.3225310742855072 61:0.5378708839416504 62:0.41072362661361694 63:-0.9887446761131287 64:0.1496126502752304 65:0.4316762089729309 66:0.4157991111278534 67:-0.9966506958007812 68:-0.0817764550447464 69:0.38560643792152405 70:0.3982301354408264 71:-0.9465469121932983 72:-0.3225662112236023 73:0.3617907166481018 74:0.39198338985443115 75:-0.5900168418884277 76:0.8073908686637878 77:0.3707703948020935 78:0.4185320734977722 79:0.320403128862381 80:0.9472813010215759 
-0.0 -0.0 0.0 0.0 0.0 25.699831973079547 0.0 0.0 0.0 0.0 0.0 0.0 0.0 0.0 0.0 0.0 0.0 0.0 0.0 0.3613930011900256 1:0.20670393109321594 2:0.16201117634773254 3:0.0 4:1.0 5:0.20670393109321594 6:0.2048417180776596 7:0.17532408237457275 8:0.9845107197761536 9:0.23091253638267517 10:0.2979516088962555 11:0.17947031557559967 12:0.9837633371353149 13:0.2569832503795624 14:0.4804469347000122 15:0.06683573126792908 16:0.997763991355896 17:0.2569832503795624 18:0.6871508955955505 19:-0.06454171240329742 20:0.9979150295257568 21:0.23277470469474792 22:0.8547486066818237 23:-0.17579065263271332 24:0.9844275712966919 25:0.20111733675003052 26:1.0 27:-0.2129497528076172 28:0.9770631790161133 29:0.11173185706138611 30:0.25139665603637695 31:0.09053577482700348 32:-0.9958931803703308 33:0.12011174857616425 34:0.15921787917613983 35:0.46850255131721497 36:-0.8834620714187622 37:0.20949721336364746 38:0.0670391097664833 39:0.8488538861274719 40:-0.5286275744438171 41:0.3533519506454468 42:0.013966480270028114 43:0.9695391654968262 44:-0.24493622779846191 45:0.4748603403568268 46:0.0 47:0.9778023958206177 48:0.2095290571451187 49:0.6075419187545776 50:0.06843575090169907 51:0.7982549667358398 52:0.6023197770118713 53:0.7821228504180908 54:0.23184357583522797 55:0.6405141949653625 56:0.7679463624954224 57:0.8743016719818115 58:0.3882681429386139 59:0.313749760389328 60:0.9495057463645935 61:0.8882681131362915 62:0.5530726313591003 63:-0.3495904803276062 64:0.9369025826454163 65:0.7695530652999878 66:0.6689944267272949 67:-0.9040722250938416 68:0.42737963795661926 69:0.5810055732727051 70:0.6983240246772766 71:-0.9993091821670532 72:0.03716442734003067 73:0.43156424164772034 74:0.6815642714500427 75:-0.9725789427757263 76:-0.2325732260942459 77:0.3240223526954651 78:0.6368715167045593 79:-0.9234312772750854 80:-0.38376384973526 
-0.0 -0.0 0.0 0.0 0.0 7.995912138502068 0.0 0.0 0.44933972339886447 0.0 0.0 0.0 0.0 0.0 0.0 0.0 0.0 0.0 0.0 0.31989808264997915 1:0.2112363874912262 2:0.10269835591316223 3:0.14101985096931458 4:0.9900067448616028 5:0.25070518255233765 6:0.3797825574874878 7:0.1053427904844284 8:0.9944359660148621 9:0.271647185087204 10:0.6729762554168701 11:0.008709590882062912 12:0.9999620914459229 13:0.2547321617603302 14:0.8421264886856079 15:-0.024057209491729736 16:0.9997106194496155 17:0.26439788937568665 18:0.9742247462272644 19:0.03059791959822178 20:0.9995318055152893 21:0.2595650255680084 22:1.0 23:-0.7474088072776794 24:0.6643643975257874 25:0.24989929795265198 26:0.9871124029159546 27:-0.6000011563301086 28:-0.7999990582466125 29:0.19673779606819153 30:0.06403544545173645 31:0.9496577382087708 32:-0.31328916549682617 33:0.3139347434043884 34:0.02537253499031067 35:0.966315507888794 36:-0.25736039876937866 37:0.4371727705001831 38:0.0 39:0.9988499879837036 40:-0.047944795340299606 41:0.5404752492904663 42:0.014498591423034668 43:0.9342183470726013 44:0.3567016124725342 45:0.6365283727645874 46:0.076117604970932 47:0.6623396277427673 48:0.7492037415504456 49:0.7615787982940674 50:0.2645992934703827 51:0.461879700422287 52:0.8869425654411316 53:0.8032622337341309 54:0.39629483222961426 55:0.1263376772403717 56:0.9919872879981995 57:0.7942005395889282 58:0.5207410454750061 59:-0.39609140157699585 60:0.9182111024856567 61:0.7235199213027954 62:0.5811518430709839 63:-0.9539259672164917 64:0.30004197359085083 65:0.5157067775726318 66:0.6083367466926575 67:-0.997617781162262 68:0.06898421049118042 69:0.26923075318336487 70:0.6125654578208923 71:-0.9998055100440979 72:-0.019720129668712616 73:0.20942406356334686 74:0.6022956371307373 75:-0.9676172733306885 76:-0.25242188572883606 77:0.2136528193950653 78:0.5980668663978577 79:0.7071055173873901 80:-0.7071080207824707 
-0.0 -0.0 0.0 0.0 0.0 8.857709554085858 0.04167358640027215 0.0 0.0 0.0 0.0 0.0 0.0 0.0 0.0 0.0 0.0 0.0 0.0 0.0 1:0.17784669995307922 2:0.08220610022544861 3:0.19043634831905365 4:0.981699526309967 5:0.22147098183631897 6:0.30708929896354675 7:0.17148372530937195 8:0.9851869940757751 9:0.2640804350376129 10:0.5776254534721375 11:0.1210852786898613 12:0.9926421046257019 13:0.2830173969268799 14:0.8116391897201538 15:0.07675952464342117 16:0.9970496296882629 17:0.2948533296585083 18:0.9773426651954651 19:0.05735723301768303 20:0.9983537793159485 21:0.29383906722068787 22:1.0 23:-0.06958184391260147 24:0.9975762367248535 25:0.29383906722068787 26:0.9918838739395142 27:0.0 28:-1.0 29:0.29383906722068787 30:0.981738805770874 31:0.0 32:-1.0 33:0.27490153908729553 34:0.018291933462023735 35:0.9872884750366211 36:-0.158938467502594 37:0.3885267376899719 38:0.0 39:0.9999825954437256 40:0.005902097560465336 41:0.5301276445388794 42:0.01979832910001278 43:0.951334536075592 44:0.30816006660461426 45:0.6934638023376465 46:0.0987764298915863 47:0.7861575484275818 48:0.618026077747345 49:0.7847088575363159 50:0.21993356943130493 51:0.4463188350200653 52:0.8948739767074585 53:0.8221533298492432 54:0.35680028796195984 55:0.13017751276493073 56:0.9914906620979309 57:0.8161278963088989 58:0.45923516154289246 59:-0.3925178050994873 60:0.9197443723678589 61:0.7494158744812012 62:0.5272380709648132 63:-0.885654628276825 64:0.46434450149536133 65:0.6478416919708252 66:0.5474668145179749 67:-0.9903848171234131 68:0.13833948969841003 69:0.4104769825935364 70:0.5745819211006165 71:-0.9972598552703857 72:0.073978491127491 73:0.3519427478313446 74:0.5694171190261841 75:-0.9632452130317688 76:-0.26862359046936035 77:0.3340813219547272 78:0.5532771944999695 79:-0.7419574856758118 80:-0.6704469323158264 
-0.0 -0.0 0.0 0.0 0.0 0.0 0.0 0.0 0.0 0.0 0.0 0.192915397084254 0.0 0.0 0.0 0.0 0.0 0.0 0.0 0.0 1:0.20392273366451263 2:0.2077122926712036 3:0.0 4:1.0 5:0.20392273366451263 6:0.2430238574743271 7:-0.005250241607427597 8:0.9999861717224121 9:0.20261362195014954 10:0.45705199241638184 11:-0.01359899714589119 12:0.9999075531959534 13:0.19737717509269714 14:0.7243059277534485 15:0.04995838552713394 16:0.9987513422966003 17:0.2287958413362503 18:0.9804781675338745 19:0.07810955494642258 20:0.9969447255134583 21:0.21897751092910767 22:1.0 23:-0.2483569234609604 24:-0.9686685800552368 25:0.1875588446855545 26:0.8196411728858948 27:-0.08207443356513977 28:-0.9966261982917786 29:0.1836315244436264 30:0.5707952380180359 31:0.017871100455522537 32:-0.999840259552002 33:0.1967226266860962 34:0.30695202946662903 35:0.08681772649288177 36:-0.9962241649627686 37:0.22159573435783386 38:0.13515998423099518 39:0.38175705075263977 40:-0.9242626428604126 41:0.3000275492668152 42:0.05684301257133484 43:0.856788694858551 44:-0.515667736530304 45:0.4461658000946045 46:0.0 47:0.9887456893920898 48:-0.1496058851480484 49:0.6237913966178894 50:0.007854707539081573 51:0.9529634714126587 52:0.3030852675437927 53:0.7811602354049683 54:0.10654330998659134 55:0.8189029097557068 56:0.5739320516586304 57:0.8333868980407715 58:0.15475071966648102 59:0.1785951405763626 60:0.9839227199554443 61:0.8171952962875366 62:0.3050689399242401 63:-0.3609812259674072 64:0.9325730800628662 65:0.707459568977356 66:0.4800763428211212 67:-0.7565388679504395 68:0.6539487242698669 69:0.5211409330368042 70:0.5609769821166992 71:-0.9659295082092285 72:0.25880518555641174 73:0.3371993899345398 74:0.5792815685272217 75:-0.9962506294250488 76:-0.08651398867368698 77:0.16661307215690613 78:0.5301899313926697 79:-0.9609973430633545 80:-0.2765575349330902 
-0.0 -0.0 0.0 0.0 0.0 8.02257044842617 0.0 0.0 0.0 0.0 0.0 0.0 0.0 0.0 0.0 0.0 0.0 0.0 0.0 0.0 1:0.19437938928604126 2:0.18735362589359283 3:0.07728755474090576 4:0.9970088005065918 5:0.2031615972518921 6:0.30064404010772705 7:0.18957699835300446 8:0.9818658232688904 9:0.25644028186798096 10:0.5087822079658508 11:0.25830909609794617 12:0.9660623073577881 13:0.31235361099243164 14:0.7090163826942444 15:0.22835122048854828 16:0.9735788106918335 17:0.34309130907058716 18:0.8782201409339905 19:0.1569495052099228 20:0.9876065850257874 21:0.3553864359855652 22:0.9798009395599365 23:0.16132067143917084 24:0.9869019985198975 25:0.3629976511001587 26:1.0 27:0.4648326635360718 28:0.8853985667228699 29:0.3615339398384094 30:0.9915105104446411 31:-0.1788858324289322 32:-0.9838698506355286 33:0.35831379890441895 34:0.9742388725280762 35:-0.18328270316123962 36:-0.9830602407455444 37:0.3817330002784729 38:0.007025761064141989 39:0.9964681267738342 40:-0.08397207409143448 41:0.4651053249835968 42:0.0 43:0.9960725903511047 44:0.08853977918624878 45:0.5714285373687744 46:0.02388758584856987 47:0.929042637348175 48:0.3699725866317749 49:0.6768149733543396 50:0.08430911600589752 51:0.6633078455924988 52:0.748346745967865 53:0.7723654508590698 54:0.2505854666233063 55:0.4054543972015381 56:0.9141152501106262 57:0.8056206107139587 58:0.37470725178718567 59:-0.35024604201316833 60:0.936657726764679 61:0.6903982162475586 62:0.46978920698165894 63:-0.8874201774597168 64:0.46096134185791016 65:0.5044494271278381 66:0.5311475396156311 67:-0.9724353551864624 68:0.2331724911928177 69:0.34660422801971436 70:0.5522248148918152 71:-0.9970154762268066 72:0.07720251381397247 73:0.2927400469779968 74:0.5475409626960754 75:-0.9886444211006165 76:-0.15027345716953278 77:0.2880561947822571 78:0.5433255434036255 79:-0.7432978749275208 80:-0.6689605712890625 
-0.0 -0.17806094353199334 0.0 1.7936453156082244 0.6956906145496484 0.0 0.0 1.6143046808649562 0.4185884812007771 0.0 0.0 0.0 0.3306316765739743 0.548161923472135 0.0526402244129468 1.131372759081751 0.0 0.0 0.9469870427774952 0.0 1:0.2903883457183838 2:0.03142328932881355 3:0.06723877787590027 4:0.9977368712425232 5:0.2975510060787201 6:0.13770794868469238 7:0.07878176122903824 8:0.9968919157981873 9:0.31441792845726013 10:0.33548983931541443 11:0.07151217013597488 12:0.9974397420883179 13:0.3241221606731415 14:0.5083179473876953 15:-0.007957353256642818 16:0.9999683499336243 17:0.3116452693939209 18:0.6839186549186707 19:-0.05932158976793289 20:0.9982389211654663 21:0.304020494222641 22:0.8465803861618042 23:-0.012890246696770191 24:0.9999168515205383 25:0.30841052532196045 26:0.9348428845405579 27:0.03767834231257439 28:0.9992899298667908 29:0.30933475494384766 30:0.987523078918457 31:0.007092136889696121 32:0.9999748468399048 33:0.30887264013290405 34:1.0 35:-0.037012189626693726 36:0.9993147850036621 37:0.3606286346912384 38:0.029574861750006676 39:0.978620171546936 40:-0.20567603409290314 41:0.46968597173690796 42:0.006654344033449888 43:0.9905248284339905 44:-0.13733401894569397 45:0.5739380121231079 46:0.0 47:0.9632912278175354 48:0.26845866441726685 49:0.6726430654525757 50:0.06321625411510468 51:0.5863623023033142 52:0.8100489377975464 53:0.7096116542816162 54:0.18743067979812622 55:0.06620632857084274 56:0.9978059530258179 57:0.693345844745636 58:0.3752310574054718 59:-0.24750643968582153 60:0.9688862562179565 61:0.6360445022583008 62:0.4754159152507782 63:-0.7045387625694275 64:0.7096654772758484 65:0.5410345792770386 66:0.5286506414413452 67:-0.9638022780418396 68:0.26661786437034607 69:0.42088669538497925 70:0.5349352955818176 71:-0.9900534749031067 72:-0.1406916230916977 73:0.33031368255615234 74:0.4987061321735382 75:-0.8769589066505432 76:-0.48056545853614807 77:0.30147892236709595 78:0.46950092911720276 79:-0.7025793194770813 80:-0.711605429649353 
-0.0 -0.3919399118248842 0.0 0.7013861169839366 0.0 0.0 3.677102474993407 1.3400194145229993 0.0 0.13218013864287412 0.3498206498006181 0.0 0.0 0.7315186264705906 0.16558133669413902 0.4870126051374068 1.2782038879320303 0.0 1.6959467100778858 0.0 1:0.20182093977928162 2:0.034901365637779236 3:0.17550338804721832 4:0.9844788908958435 5:0.22609978914260864 6:0.17109255492687225 7:0.1141679510474205 8:0.9934614896774292 9:0.2450682818889618 10:0.41122910380363464 11:0.016580957919359207 12:0.9998624920845032 13:0.2348254919052124 14:0.6972686052322388 15:-0.01981170102953911 16:0.9998037219047546 17:0.23520559072494507 18:0.9089528918266296 19:0.08103346079587936 20:0.9967113733291626 21:0.2575872540473938 22:0.9772382378578186 23:0.39760109782218933 24:0.9175583720207214 25:0.27465859055519104 26:1.0 27:0.6000003218650818 28:0.7999997138977051 29:0.19271624088287354 30:0.021244309842586517 31:0.9966109395027161 32:-0.08225993812084198 33:0.3122154772281647 34:0.011380882002413273 35:0.9977424740791321 36:-0.06715582311153412 37:0.5083456039428711 38:0.0 39:0.9994378685951233 40:0.03352411836385727 41:0.674127459526062 42:0.023520486429333687 43:0.9496017098426819 44:0.31345924735069275 45:0.7427928447723389 46:0.07738997787237167 47:0.6531575918197632 48:0.757222056388855 49:0.7860391139984131 50:0.15326248109340668 51:0.38301122188568115 52:0.9237436652183533 53:0.8072837591171265 54:0.23292867839336395 55:-0.028765158727765083 56:0.9995861649513245 57:0.7814867496490479 58:0.3114566504955292 59:-0.6416341662406921 60:0.7670108079910278 61:0.6752655506134033 62:0.39074352383613586 63:-0.9571948647499084 64:0.2894442081451416 65:0.49544766545295715 66:0.3979514241218567 67:-0.999828577041626 68:-0.01851523295044899 69:0.3065250515937805 70:0.3839150369167328 71:-0.9926633238792419 72:-0.12091067433357239 73:0.2431711107492447 74:0.3672230541706085 75:-0.8904344439506531 76:-0.4551115036010742 77:0.23823976516723633 78:0.34901362657546997 79:-0.26139697432518005 80:-0.9652313590049744 
-0.8831587370318458 -2.759168699883548 1.133676036730096 0.35854395232871583 1.8123477189056474 1.980974898990523 0.2934229643095473 1.9203461002659048 1.0229934885892165 0.8498530533374362 1.0366997420774553 0.4795328289757226 0.48272080928797173 0.9709100236430525 0.6031386641268834 1.7206730185187105 3.21496512636616 0.7187048526530506 1.3343129582695774 1.186299275349283 1:0.27034687995910645 2:0.0 3:-0.9954954981803894 4:0.09480903297662735 5:0.2480538785457611 6:0.002123141661286354 7:-0.8367038369178772 8:0.5476556420326233 9:0.21195992827415466 10:0.03821656107902527 11:-0.35112354159355164 12:0.9363291263580322 13:0.20346787571907043 14:0.12101911008358002 15:0.025634411722421646 16:0.9996713399887085 17:0.21939145028591156 18:0.3280254304409027 19:0.053420595824718475 20:0.9985721111297607 21:0.2310682237148285 22:0.6369425654411316 23:0.02792208455502987 24:0.9996101260185242 25:0.23531502485275269 26:0.8980891704559326 27:0.035066090524196625 28:0.9993850588798523 29:0.24380706250667572 30:1.0 31:0.3767978847026825 32:0.9262954592704773 33:0.26079273223876953 34:0.9607219099998474 35:-0.1031469851732254 36:-0.9946662187576294 37:0.22894558310508728 38:0.8566879034042358 39:-0.29271429777145386 40:-0.9561999440193176 41:0.1779901683330536 42:0.03821656107902527 43:-0.991227924823761 44:-0.1321636289358139 45:0.16206660866737366 46:0.036093421280384064 47:0.9759811758995056 48:0.21785485744476318 49:0.2176218181848526 50:0.047062989324331284 51:0.9988945722579956 52:0.04700677841901779 53:0.43276724219322205 54:0.04883226752281189 55:0.9951810240745544 56:0.09805447608232498 57:0.6988680362701416 58:0.09447983652353287 59:0.925095796585083 60:0.37973374128341675 61:0.8379334211349487 62:0.2151450663805008 63:0.2658875286579132 64:0.9640039801597595 65:0.7735315561294556 66:0.36518049240112305 67:-0.6894811987876892 68:0.7243035435676575 69:0.5576785802841187 70:0.5095542073249817 71:-0.8952919840812683 72:0.44547969102859497 73:0.33474868535995483 74:0.5835102200508118 75:-0.9419828057289124 76:0.3356613516807556 77:0.2448691576719284 78:0.6210191249847412 79:-0.9228612780570984 80:0.385132372379303 
-0.4883456744760136 -1.593952910777059 2.6742030235667262 1.3825392166627628 2.949779837347989 3.301624327977618 2.601692206801439 0.0 1.1322274878363368 1.6043079683190076 1.6638539309435076 1.0751001686049828 2.061326463543018 0.959475775939901 0.47316739110740086 0.4284182885345645 4.576465711516552 4.340569774105291 1.0415991608213304 0.7146818472341159 1:0.29330337047576904 2:0.00667094299569726 3:-0.894427478313446 4:0.4472128748893738 5:0.2889415919780731 6:0.008851828053593636 7:-0.25139784812927246 8:0.967883825302124 9:0.2881718873977661 10:0.026427196338772774 11:0.13691729307174683 12:0.9905825257301331 13:0.30805641412734985 14:0.1471455991268158 15:0.1203746423125267 16:0.9927284717559814 17:0.3307632803916931 18:0.3776780068874359 19:0.0876990482211113 20:0.9961470365524292 21:0.35526615381240845 22:0.6833868026733398 23:0.09760772436857224 24:0.9952249526977539 25:0.38438740372657776 26:0.9244387149810791 27:0.13332104682922363 28:0.9910728931427002 29:0.39785757660865784 30:1.0 31:0.20208963751792908 32:0.9793670773506165 33:0.38772284984588623 34:0.9406029582023621 35:-0.1681959629058838 36:-0.9857535362243652 37:0.28406667709350586 38:5.131494835950434E-4 39:0.9999919533729553 40:-0.004019259940832853 41:0.4117382764816284 42:0.0 43:0.9818686842918396 44:0.18956232070922852 45:0.5977036356925964 46:0.06106478348374367 47:0.8291988968849182 48:0.5589536428451538 49:0.7159333229064941 50:0.20505444705486298 51:0.3581218421459198 52:0.9336748719215393 53:0.7069018483161926 54:0.34576013684272766 55:-0.4589031934738159 56:0.8884862661361694 57:0.5729697942733765 58:0.48184734582901 59:-0.7916053533554077 60:0.6110327243804932 61:0.4279537796974182 62:0.5610775351524353 63:-0.9005730748176575 64:0.4347047209739685 65:0.39798587560653687 66:0.5663117170333862 67:-0.9897987246513367 68:0.1424729824066162 69:0.4008594751358032 70:0.5649775266647339 71:0.9966849088668823 72:-0.0813584178686142 73:0.4030146896839142 74:0.5659012198448181 75:0.7546050548553467 76:0.6561791300773621 77:0.41030144691467285 78:0.5731879472732544 79:0.7071082592010498 80:0.7071053385734558 
-0.0 -0.0 0.0 0.0 0.0 7.195837995635702 0.0 0.0 0.0 0.0 0.0 0.0 0.0 0.0 0.0 0.0 0.0 0.0 0.0 0.0 1:0.29532164335250854 2:0.005847954656928778 3:-0.2169305384159088 4:0.9761871099472046 5:0.26608186960220337 6:0.13742689788341522 7:-0.09950374811887741 8:0.9950371980667114 9:0.26608186960220337 10:0.2982456088066101 11:0.0 12:1.0 13:0.26608186960220337 14:0.4444444179534912 15:0.0 16:1.0 17:0.26608186960220337 18:0.5760233998298645 19:0.0 20:1.0 21:0.26608186960220337 22:0.7368420958518982 23:0.0 24:1.0 25:0.26608186960220337 26:0.8684210777282715 27:0.0 28:1.0 29:0.26608186960220337 30:1.0 31:0.0 32:1.0 33:0.26608186960220337 34:0.9853801131248474 35:0.0 36:-1.0 37:0.2514619827270508 38:0.049707602709531784 39:0.9486833810806274 40:-0.3162277638912201 41:0.3742690086364746 42:0.008771931752562523 43:0.9801293015480042 44:-0.19835954904556274 45:0.49707597494125366 46:0.0 47:0.9778023958206177 48:0.2095291167497635 49:0.6198829412460327 50:0.06140349805355072 51:0.7888002395629883 52:0.6146495938301086 53:0.7222221493721008 54:0.17543859779834747 55:0.47733157873153687 56:0.8787233233451843 57:0.7485380172729492 58:0.2982456088066101 59:2.2904259822098538E-7 60:1.0 61:0.7222222089767456 62:0.43567246198654175 63:-0.41300496459007263 64:0.9107287526130676 65:0.6345028877258301 66:0.5497076511383057 67:-0.8053366541862488 68:0.5928177833557129 69:0.5116959810256958 70:0.5906432867050171 71:-0.9753604531288147 72:0.2206171602010727 73:0.3888888955116272 74:0.6052631735801697 75:-1.0 76:0.0 77:0.32456138730049133 78:0.5906432867050171 79:-0.9751327633857727 80:-0.2216210663318634 
-0.0 -0.0 0.0 0.7521022379037547 0.25573305945401925 0.0 0.0 0.1873652381616434 0.16718604742334414 0.0 1.3814118214305289 0.7786882972736505 0.5303471194103163 0.0 0.40569243507333497 0.0 0.0 0.7717604198069442 0.37077503646415866 0.3557986678494269 1:0.229611337184906 2:0.13660554587841034 3:0.10994330793619156 4:0.9939379096031189 5:0.25149208307266235 6:0.33441752195358276 7:0.12021783739328384 8:0.9927475452423096 9:0.2857910394668579 10:0.6005322337150574 11:0.09917798638343811 12:0.995069682598114 13:0.2961399555206299 14:0.7823772430419922 15:0.07476779073476791 16:0.9972009658813477 17:0.3103328049182892 18:0.9278532862663269 19:0.13331103324890137 20:0.99107426404953 21:0.3254127502441406 22:1.0 23:0.1108831912279129 24:0.9938334226608276 25:0.3183163106441498 26:0.9994085431098938 27:-0.19784681499004364 28:-0.9802329540252686 29:0.3124025762081146 30:0.935541033744812 31:-0.09219938516616821 32:-0.995740532875061 33:0.30826300382614136 34:0.0020697815343737602 35:0.9999465346336365 36:-0.010337794199585915 37:0.5084673166275024 38:0.0 39:0.9862378239631653 40:0.16533306241035461 41:0.6303962469100952 42:0.05607225000858307 43:0.7712740898132324 44:0.6365031599998474 45:0.706601619720459 46:0.1635127067565918 47:0.5025012493133545 48:0.8645764589309692 49:0.7549592852592468 50:0.270388662815094 51:0.33608588576316833 52:0.9418312907218933 53:0.770388662815094 54:0.3422665297985077 55:-0.024418583139777184 56:0.9997017979621887 57:0.751948893070221 58:0.39363473653793335 59:-0.633463978767395 60:0.7737722396850586 61:0.6845870018005371 62:0.44707271456718445 63:-0.8981617093086243 64:0.43966519832611084 65:0.5455352067947388 66:0.49467769265174866 67:-0.9769237637519836 68:0.21358831226825714 69:0.3816462755203247 70:0.5133057236671448 71:-0.9988511204719543 72:0.04792200028896332 73:0.3455190658569336 74:0.5042738914489746 75:-0.8589832782745361 76:-0.5120036005973816 77:0.34344929456710815 78:0.4905381202697754 79:-0.14900262653827667 80:-0.9888368248939514 
-0.11838805998254838 -0.0 0.0 0.0 0.28324091878135615 4.85160405176648 0.0 0.0 0.0 0.0 0.0 0.0 0.0 0.0 0.0 0.0 0.5234858059441541 0.412041956483757 0.5733427696502006 2.3406513500969512 1:0.2666666507720947 2:0.0 3:-0.09950362145900726 4:0.9950371980667114 5:0.25333333015441895 6:0.13333334028720856 7:-0.024382969364523888 8:0.9997027516365051 9:0.25999999046325684 10:0.273333340883255 11:0.049322567880153656 12:0.9987828731536865 13:0.2666666507720947 14:0.4033333361148834 15:0.025632575154304504 16:0.999671459197998 17:0.2666666507720947 18:0.5333333611488342 19:0.0 20:1.0 21:0.2666666507720947 22:0.6633333563804626 23:-0.025632578879594803 24:0.999671459197998 25:0.25999999046325684 26:0.7933333516120911 27:-0.051214706152677536 28:0.9986876845359802 29:0.25333333015441895 30:0.9233333468437195 31:-0.03224126622080803 32:0.999480128288269 33:0.25333333015441895 34:1.0 35:0.0 36:1.0 37:0.3199999928474426 38:0.013333333656191826 39:0.9934588670730591 40:-0.11419068276882172 41:0.4359999895095825 42:0.0 43:0.998352587223053 44:-0.05737660452723503 45:0.5519999265670776 46:0.0 47:0.9733437299728394 48:0.2293512523174286 49:0.6679999828338623 50:0.05466669797897339 51:0.7282001376152039 52:0.6853645443916321 53:0.7333333492279053 54:0.1706666797399521 55:0.3211221396923065 56:0.9470378160476685 57:0.746666669845581 58:0.2866666615009308 59:-0.022982561960816383 60:0.9997358322143555 61:0.7279999852180481 62:0.40266671776771545 63:-0.4405101239681244 64:0.8977476358413696 65:0.6413332223892212 66:0.5013333559036255 67:-0.8404592275619507 68:0.5418748259544373 69:0.5253332853317261 70:0.5333333611488342 71:-0.9814388155937195 72:0.19177542626857758 73:0.4093332886695862 74:0.54666668176651 75:-1.0 76:0.0 77:0.30666667222976685 78:0.5333333611488342 79:-0.9916720390319824 80:-0.1287885159254074 
-0.955676879146753 -1.8698895252885468 2.331436139766833 0.0 1.4275268846695401 0.0 2.8928023280610495 1.63493395600971 0.24018084359434358 1.8750559487050296 1.4840518681520998 0.6012862490103171 0.7318232313623346 1.2771494188347705 0.23893614142619968 0.5312908575286486 2.945479763899442 1.211781784509961 0.0 1.7176710738241168 1:0.22259096801280975 2:0.17944608628749847 3:0.0 4:1.0 5:0.22259096801280975 6:0.2538338303565979 7:0.015065673738718033 8:0.9998865127563477 9:0.22693978250026703 10:0.46807050704956055 11:0.030113166198134422 12:0.999546468257904 13:0.23563742637634277 14:0.6868849992752075 15:0.05631290003657341 16:0.9984132051467896 17:0.2523460388183594 18:0.9185168743133545 19:0.1046847403049469 20:0.9945054650306702 21:0.268596887588501 22:1.0 23:0.3324657380580902 24:0.9431153535842896 25:0.274776816368103 26:0.9821469187736511 27:0.05604502931237221 28:-0.998428225517273 29:0.274776816368103 30:0.889906108379364 31:-0.04092942550778389 32:-0.9991620779037476 33:0.2631036937236786 34:0.697184681892395 35:-0.09154552966356277 36:-0.9958009123802185 37:0.2317463755607605 38:0.42183569073677063 39:-0.10843850672245026 40:-0.9941031336784363 41:0.213893324136734 42:0.24605172872543335 43:-0.006507449317723513 44:-0.9999788403511047 45:0.2296864092350006 46:0.10528726875782013 47:0.31333425641059875 48:-0.9496428966522217 49:0.2882811427116394 50:0.02059963531792164 51:0.9142470955848694 52:-0.4051571190357208 53:0.46726974844932556 54:0.0 55:0.9947864413261414 56:0.10198025405406952 57:0.6432822942733765 58:0.056992482393980026 59:0.8242228627204895 60:0.5662655830383301 61:0.7707713842391968 62:0.20851463079452515 63:0.353169322013855 64:0.9355594515800476 65:0.7861067056655884 66:0.43533995747566223 67:-0.28828632831573486 68:0.9575442671775818 69:0.6675440073013306 70:0.5513848066329956 71:-0.898017168045044 72:0.4399603307247162 73:0.4226367473602295 74:0.6134126782417297 75:-0.99480140209198 76:0.1018340215086937 77:0.22259096801280975 78:0.5969329476356506 79:-0.9966239929199219 80:-0.08210168033838272 
-0.0 -3.916625816276304 -0.0 0.0 0.0 0.0 0.0 0.0 0.0 0.6162619131254915 0.0 0.0 0.0 0.0 0.0 0.0 0.0 0.0 0.0 0.0 1:0.47575756907463074 2:0.08939392864704132 3:-0.8721429705619812 4:0.4892509877681732 5:0.35151514410972595 6:0.15909090638160706 7:-0.7902198433876038 8:0.6128235459327698 9:0.17878787219524384 10:0.31969696283340454 11:-0.6370460987091064 12:0.7708256840705872 13:0.04848484694957733 14:0.5257575511932373 15:-0.3883512318134308 16:0.9215114712715149 17:0.0 18:0.7439393997192383 19:0.04028983414173126 20:0.9991880059242249 21:0.06363636255264282 22:0.9015151858329773 23:0.851362943649292 24:0.5245771408081055 25:0.30000001192092896 26:0.928787887096405 27:0.9969553351402283 28:-0.07797419279813766 29:0.6060606241226196 30:0.8590909242630005 31:0.9431018233299255 32:-0.33250391483306885 33:0.7727272510528564 34:0.7621212005615234 35:0.6167457103729248 36:-0.7871624827384949 37:0.8363636136054993 38:0.5651515126228333 39:0.10957251489162445 40:-0.9939787983894348 41:0.8151515126228333 42:0.37727272510528564 43:-0.20843395590782166 44:-0.9780364036560059 45:0.7575757503509521 46:0.19545453786849976 47:-0.4317949712276459 48:-0.9019718170166016 49:0.678787887096405 50:0.09242423623800278 51:-0.8922132849693298 52:-0.4516141414642334 53:0.5121212005615234 54:0.07121211290359497 55:-0.9919978976249695 56:-0.12625427544116974 57:0.657575786113739 58:0.6439394354820251 59:0.9269469380378723 60:0.37519243359565735 61:0.7848485112190247 62:0.6954545378684998 63:0.9119215607643127 64:0.41036462783813477 65:0.8999999761581421 66:0.7530303001403809 67:0.9125093221664429 68:0.4090559184551239 69:0.960606038570404 70:0.7742424011230469 71:0.9005516767501831 72:0.4347490966320038 73:0.9878787994384766 74:0.7954545617103577 75:0.7926238775253296 76:0.6097109317779541 77:1.0 78:0.8045454621315002 79:0.800000011920929 80:0.6000000238418579 
-0.0 -0.0 -0.0 0.0 0.0 0.0 0.0 0.0 0.0 0.0 0.0 0.0 0.0 0.0 0.0 0.0 0.6105965320358404 0.2597770378659671 0.0 0.0 1:0.43805310130119324 2:0.05530976131558418 3:-0.999687671661377 4:-0.024991989135742188 5:0.4159291684627533 6:0.05475666746497154 7:-0.8610415458679199 8:0.5085346102714539 9:0.27323007583618164 10:0.15265490114688873 11:-0.7380679249763489 12:0.6747264266014099 13:0.119469054043293 14:0.3257743716239929 15:-0.5415744185447693 16:0.8406527638435364 17:0.050884947180747986 18:0.49778762459754944 19:-0.31361323595046997 20:0.9495508074760437 21:0.019911497831344604 22:0.627212405204773 23:0.16226506233215332 24:0.9867472052574158 25:0.09181414544582367 26:0.7466814517974854 27:0.7944031953811646 28:0.607390820980072 29:0.29480087757110596 30:0.8373894095420837 31:0.996786892414093 32:0.08009906858205795 33:0.5873892307281494 34:0.7865045070648193 35:0.939985454082489 36:-0.3412145972251892 37:0.8478983640670776 38:0.6366150975227356 39:0.7123253345489502 40:-0.7018495202064514 41:0.9634956121444702 42:0.4159293472766876 43:0.3123045563697815 44:-0.9499820470809937 45:0.980088472366333 46:0.2345132678747177 47:-0.1994209736585617 48:-0.9799139499664307 49:0.8993363380432129 50:0.10066378116607666 51:-0.7825849652290344 52:-0.6225438714027405 53:0.6852874755859375 54:0.0 55:-0.9807612299919128 56:-0.1952115297317505 57:0.43805310130119324 58:0.008849583566188812 59:-0.9993599653244019 60:0.03577139973640442 61:0.4690265357494354 62:0.5121681690216064 63:0.4314553737640381 64:0.9021342396736145 65:0.5542035102844238 66:0.6902655363082886 67:0.37139078974723816 68:0.9284766316413879 69:0.6084071397781372 70:0.8606195449829102 71:0.4244340658187866 72:0.9054588079452515 73:0.6703540086746216 74:0.9380531311035156 75:0.5214499831199646 76:0.8532817959785461 77:0.6935840845108032 78:1.0 79:0.3511234521865845 80:0.936329185962677 
-0.0 -4.697213774540943 -0.0 0.0 0.0 0.0 0.0 0.0 0.0 0.0 0.0 0.0 0.0 0.0 0.0 0.0 0.0 0.0 0.0 0.0 1:0.4980691969394684 2:0.08602773398160934 3:-0.9862582683563232 4:-0.16521120071411133 5:0.4029921591281891 6:0.07010108232498169 7:-0.9887990951538086 8:0.14925287663936615 9:0.25506746768951416 10:0.12270728498697281 11:-0.8492359519004822 12:0.5280135273933411 13:0.1056937500834465 14:0.2549467384815216 15:-0.5897213220596313 16:0.8076068162918091 17:0.014718789607286453 18:0.4518580436706543 19:-0.20864816009998322 20:0.9779906868934631 21:0.0 22:0.7503620982170105 23:0.19801273941993713 24:0.9801994562149048 25:0.10207570344209671 26:0.8842908143997192 27:0.8755010366439819 28:0.483216255903244 29:0.32528847455978394 30:0.9298989176750183 31:0.9984076619148254 32:-0.056410763412714005 33:0.5419881343841553 34:0.8594354391098022 35:0.901099681854248 36:-0.4336119592189789 37:0.742518424987793 38:0.7291265726089478 39:0.5812394022941589 40:-0.8137326240539551 41:0.8026067614555359 42:0.4945705235004425 43:0.14723336696624756 44:-0.989101767539978 45:0.8067088723182678 46:0.29790037870407104 47:-0.2315230816602707 48:-0.9728294610977173 49:0.7261101007461548 50:0.17314165830612183 51:-0.8039815425872803 52:-0.5946542620658875 53:0.5796329379081726 54:0.12994667887687683 55:-0.9591641426086426 56:-0.282850056886673 57:0.41964250802993774 58:0.5158059597015381 59:0.5648804306983948 60:0.8251727223396301 61:0.48363837599754333 62:0.609290599822998 63:0.7906933426856995 64:0.6122123599052429 65:0.6781365871429443 66:0.7159509062767029 67:0.9043928980827332 68:0.42670074105262756 69:0.9065160155296326 70:0.8088080883026123 71:0.9442142248153687 72:0.3293318450450897 73:0.9893342852592468 74:0.8244933485984802 75:0.9827972054481506 76:0.18468792736530304 77:1.0 78:0.8263756632804871 79:0.9847815036773682 80:0.17379695177078247 
-0.0 -0.0 -0.6585378768257408 0.0 0.5356539774049783 0.0 0.0 0.0 0.0 0.0 0.0 0.0 0.0 0.0 0.0 0.0 1.7300522975530959 0.8878311937471007 0.0 0.0 1:0.36538463830947876 2:0.03846153989434242 3:-0.8320503830909729 4:0.5547000169754028 5:0.2884615361690521 6:0.08974358439445496 7:-0.5407576560974121 8:0.8411784172058105 9:0.25 10:0.21794870495796204 11:-0.25242185592651367 12:0.9676172733306885 13:0.21153846383094788 14:0.38461539149284363 15:-0.09950371086597443 16:0.9950371980667114 17:0.21153846383094788 18:0.6025640964508057 19:0.0 20:1.0 21:0.21153846383094788 22:0.8205127716064453 23:0.3387194275856018 24:0.9408873915672302 25:0.32692307233810425 26:0.9230769276618958 27:0.9383428692817688 28:0.34570586681365967 29:0.455128014087677 30:0.9102564454078674 31:0.9209673404693604 32:-0.389639675617218 33:0.6602566242218018 34:0.7820513248443604 35:0.7071070075035095 36:-0.7071065902709961 37:0.75 38:0.6153846383094788 39:0.3259902596473694 40:-0.9453731179237366 41:0.7884615659713745 42:0.41025644540786743 43:0.029399266466498375 44:-0.9995677471160889 45:0.7628206014633179 46:0.17948737740516663 47:-0.38235175609588623 48:-0.9240168929100037 49:0.634615421295166 50:0.03846153989434242 51:-0.8320499658584595 52:-0.5547006130218506 53:0.493589848279953 54:0.0 55:-0.9990561008453369 56:-0.043437566608190536 57:0.3397436738014221 58:0.025640927255153656 59:-0.9037379622459412 60:0.42808622121810913 61:0.25 62:0.11538461595773697 63:-0.7071067094802856 64:0.7071068286895752 65:0.557692289352417 66:0.6153846383094788 67:0.6507915258407593 68:0.7592564821243286 69:0.634615421295166 70:0.7051282525062561 71:0.5734626650810242 72:0.8192317485809326 73:0.7371796369552612 74:0.8717949390411377 75:0.4625660479068756 76:0.8865848183631897 77:0.7884615659713745 78:1.0 79:0.37139007449150085 80:0.9284769296646118 
-1.5300757727536771 -0.24411993827496595 -1.0021358885087355 1.093056048690998 4.047503183298538 0.9978455185266657 0.7104650958066471 1.9907175711403997 1.1730269937002713 0.5884688647468792 1.0582552605979074 3.1467094985653286 2.708789354940885 0.6202022208583732 1.1042100866674511 0.0 4.19888669689088 4.72241085725755 0.22973013020515595 0.5443835061636956 1:0.0763520747423172 2:0.20952634513378143 3:-0.35027050971984863 4:0.9366486072540283 5:0.004771960899233818 6:0.40093672275543213 7:-0.16508063673973083 8:0.9862801432609558 9:0.0 10:0.665694534778595 11:0.295158714056015 12:0.9554482102394104 13:0.12778374552726746 14:0.7991339564323425 15:0.8760693669319153 16:0.4821849763393402 17:0.33492398262023926 18:0.8500353097915649 19:0.9976133704185486 20:0.06904810667037964 21:0.5950865745544434 22:0.8314775228500366 23:0.9695984125137329 24:-0.24470144510269165 25:0.818840503692627 26:0.7279073596000671 27:0.7220616340637207 28:-0.691828727722168 29:0.9201129674911499 30:0.5200600624084473 31:0.2604842185974121 32:-0.9654781222343445 33:0.9416754245758057 34:0.27262285351753235 35:-0.049719639122486115 36:-0.9987632036209106 37:0.8999646902084351 38:0.11532346159219742 39:-0.6171014904975891 40:-0.786883533000946 41:0.767585813999176 42:0.05063629150390625 43:-0.9785016179084778 44:-0.20623894035816193 45:0.5947331786155701 46:0.05098976939916611 47:-0.976619303226471 48:0.21497613191604614 49:0.39342525601387024 50:0.1329975426197052 51:-0.863629937171936 52:0.5041261911392212 53:0.2601626217365265 54:0.24628843367099762 55:-0.7618895173072815 56:0.6477069854736328 57:0.6323789358139038 58:0.6690526604652405 59:0.872809648513794 60:0.48806077241897583 61:0.7449628710746765 62:0.7320077419281006 63:0.827971339225769 64:0.5607705116271973 65:0.8488157391548157 66:0.8156415224075317 67:0.7512525320053101 68:0.6600149273872375 69:0.9227996468544006 70:0.8882467150688171 71:0.7290732860565186 72:0.6844356656074524 73:0.9839165806770325 74:0.9424707889556885 75:0.7840455770492554 76:0.6207032203674316 77:1.0 78:0.9493637084960938 79:0.9191445112228394 80:0.39392054080963135 
-0.0 -8.05296429746136 -1.2594661195578232 0.4728850336169399 0.0 1.1965246540150745 0.2326822490009761 1.1777525082489284 0.0 0.06008583659457849 1.621255473710445 0.0 0.0 0.6760016054500962 0.3396478173676113 1.0290845834847793 0.14471881370611595 0.19875512474655224 0.6761637768715909 0.3505236470125287 1:0.4221137464046478 2:0.12627330422401428 3:-0.9839910268783569 4:0.17821790277957916 5:0.3119693696498871 6:0.14622236788272858 7:-0.9261513948440552 8:0.3771519362926483 9:0.16362474858760834 10:0.23153647780418396 11:-0.5676425695419312 12:0.823275089263916 13:0.0 14:0.5986841917037964 15:-0.18283407390117645 16:0.9831438064575195 17:0.057300493121147156 18:0.8032681941986084 19:0.7229998707771301 20:0.6908481121063232 21:0.37224113941192627 22:0.9543718099594116 23:0.9669688940048218 24:0.2548943758010864 25:0.6112055778503418 26:0.9492783546447754 27:0.9885590076446533 28:-0.15083444118499756 29:0.8493209481239319 30:0.8815789222717285 31:0.8285548686981201 32:-0.5599079132080078 33:1.0 34:0.6865448951721191 35:0.22493790090084076 36:-0.9743731021881104 37:0.9823853373527527 38:0.3051782250404358 39:-0.3022735118865967 40:-0.9532212018966675 41:0.8092106580734253 42:0.08488963544368744 43:-0.8454370498657227 44:-0.5340750813484192 45:0.5715194344520569 46:0.04562816023826599 47:-0.9796026945114136 48:0.20094424486160278 49:0.4119269549846649 50:0.1663837730884552 51:-0.6057223081588745 52:0.7956761121749878 53:0.3421052396297455 54:0.3469863831996918 55:-0.3605944514274597 56:0.9327227473258972 57:0.5876485705375671 58:0.7166807651519775 59:0.8349579572677612 60:0.5503135919570923 61:0.7090407013893127 62:0.7966892719268799 63:0.8612692952156067 64:0.5081489086151123 65:0.8635398745536804 66:0.879456639289856 67:0.8817847371101379 68:0.4716520309448242 69:0.9463073015213013 70:0.9235992431640625 71:0.8944270610809326 72:0.4472138583660126 73:0.9463073015213013 74:0.9208403825759888 75:-0.7071067690849304 76:-0.7071067690849304 77:0.9352716207504272 78:0.9125635623931885 79:-0.7999979257583618 80:-0.6000027656555176 
-0.0 -0.0 -0.0 0.0 0.0 0.0 0.20368258294425778 0.0 0.0 0.5310913518218332 0.0 0.0 0.0 0.0 0.0 0.0 0.0 0.0 0.0 0.0 1:0.28155407309532166 2:0.05524718761444092 3:-0.7924734950065613 4:0.6099063158035278 5:0.10238537937402725 6:0.19313965737819672 7:-0.6483966112136841 8:0.7613027095794678 9:0.0 10:0.3858286142349243 11:-0.21674124896526337 12:0.9762290716171265 13:0.015503574162721634 14:0.5844659209251404 15:0.3028494119644165 16:0.9530383944511414 17:0.13248634338378906 18:0.8027505874633789 19:0.7776739001274109 20:0.6286677718162537 21:0.3720400333404541 22:0.8726882338523865 23:0.987560510635376 24:0.1572393774986267 25:0.5762661695480347 26:0.8734092116355896 27:0.9573836326599121 28:-0.2888190448284149 29:0.726956307888031 30:0.7656187415122986 31:0.5886101126670837 32:-0.808417022228241 33:0.8055451512336731 34:0.5585097074508667 35:0.289681077003479 36:-0.9571232795715332 37:0.8419573903083801 38:0.3856483995914459 39:0.0284999068826437 40:-0.9995937943458557 41:0.8150990009307861 42:0.22342199087142944 43:-0.370394229888916 44:-0.9288746118545532 45:0.7500274777412415 46:0.1551065742969513 47:-0.924798309803009 48:-0.3804577887058258 49:0.6411545872688293 50:0.15186205506324768 51:-0.9888747334480286 52:0.14875049889087677 53:0.494791716337204 54:0.19350016117095947 55:-0.961835503578186 56:0.27362820506095886 57:0.6002389192581177 58:0.6738706827163696 59:0.6597647666931152 60:0.7514722347259521 61:0.7216199040412903 62:0.8121236562728882 63:0.7728964686393738 64:0.63453209400177 65:0.8594037294387817 66:0.8866396546363831 67:0.8956992030143738 68:0.44466063380241394 69:0.9850044250488281 70:0.9428781867027283 71:0.9241667985916138 72:0.38198915123939514 73:1.0 74:0.9447528123855591 75:0.9615190029144287 76:-0.2747384309768677 77:0.9915651679039001 78:0.9410035610198975 79:-0.9137939214706421 80:-0.40617799758911133 
-0.24572531331954076 -2.608764788196217 -2.4207897201629662 1.9033615130466652 0.0 2.009714247074393 0.434531700340039 1.0494459081721164 0.0 1.0578432051660103 0.0 0.0 0.0 2.3051856197557403 0.0 3.910274210035663 8.632432396292009 0.633534485157638 1.5371497790670452 0.0 1:0.43939393758773804 2:0.03030303120613098 3:-0.9191446900367737 4:-0.3939199447631836 5:0.3686870038509369 6:0.0 7:-0.9593654870986938 8:0.28216639161109924 9:0.26767683029174805 10:0.08080807328224182 11:-0.6139410138130188 12:0.7893519401550293 13:0.22727271914482117 14:0.1818181872367859 15:-0.2900075912475586 16:0.9570242762565613 17:0.1666666567325592 18:0.41414138674736023 19:-0.14834047853946686 20:0.9889363050460815 21:0.1666666567325592 22:0.5858585238456726 23:0.09632417559623718 24:0.9953499436378479 25:0.19696968793869019 26:0.7272727489471436 27:0.5098019242286682 28:0.8602917790412903 29:0.3282826542854309 30:0.8585858345031738 31:0.8814800977706909 32:0.4722212553024292 33:0.4797980487346649 34:0.8787878751754761 35:0.9922778606414795 36:-0.12403462082147598 37:0.6515151262283325 38:0.8181818127632141 39:0.854787290096283 40:-0.5189785361289978 41:0.7626259326934814 42:0.7070707678794861 43:0.6163084506988525 44:-0.7875047922134399 45:0.8333333730697632 46:0.5858586430549622 47:0.26963120698928833 48:-0.9629637002944946 49:0.8333333730697632 50:0.4545454680919647 51:-0.17134082317352295 52:-0.9852117896080017 53:0.7929294109344482 54:0.35353538393974304 55:-0.6459420919418335 56:-0.7633863687515259 57:0.6111112833023071 58:0.1919192671775818 59:-0.8682432174682617 60:-0.49613887071609497 61:0.43939393758773804 62:0.1515151560306549 63:-0.9734171628952026 64:-0.2290394902229309 65:0.6212121248245239 66:0.6060606241226196 67:0.0 68:1.0 69:0.6212121248245239 70:0.747474730014801 71:0.10653305053710938 72:0.99430912733078 73:0.6515151262283325 74:0.8888888359069824 75:0.5144956707954407 76:0.857492983341217 77:0.7727272510528564 78:1.0 79:0.7371540069580078 80:0.6757248044013977 
-0.0 -0.0 -0.0 0.0 0.5013244223762919 0.0 0.0 0.0 0.0 0.0 0.0 0.0 0.0 0.0 0.0 0.0 0.0 0.0 0.0 0.0 1:0.3530486822128296 2:0.020094746723771095 3:-0.6553158164024353 4:0.7553550004959106 5:0.27179598808288574 6:0.11375131458044052 7:-0.5474529266357422 8:0.8368364572525024 9:0.16760596632957458 10:0.3035624623298645 11:-0.3208165168762207 12:0.9471413493156433 13:0.13253551721572876 14:0.52488774061203 15:-0.04774865135550499 16:0.9988594651222229 17:0.14661292731761932 18:0.7427182197570801 19:0.3944379687309265 20:0.9189225435256958 21:0.2883960008621216 22:0.8879960775375366 23:0.8987571597099304 24:0.43844687938690186 25:0.5017228722572327 26:0.9159539341926575 27:0.9974923729896545 28:-0.07077416032552719 29:0.6959638595581055 30:0.8590782880783081 31:0.8541284203529358 32:-0.5200621485710144 33:0.814895749092102 34:0.725269079208374 35:0.4556414484977722 36:-0.8901634216308594 37:0.8674644827842712 38:0.5240262746810913 39:-0.12341250479221344 40:-0.992355465888977 41:0.7572324872016907 42:0.26160088181495667 43:-0.5270589590072632 44:-0.8498286604881287 45:0.5901495218276978 46:0.07688427716493607 47:-0.8024095296859741 48:-0.5967738032341003 49:0.4090135991573334 50:0.002621021354570985 51:-0.9645107388496399 52:-0.2640433609485626 53:0.30930280685424805 54:0.0 55:-0.9958275556564331 56:0.09125440567731857 57:0.21832892298698425 58:0.020094746723771095 59:-0.9764627814292908 60:0.21568576991558075 61:0.4388420581817627 62:0.5956684947013855 63:0.652605414390564 64:0.7576979994773865 65:0.5918231010437012 66:0.773284912109375 67:0.632806658744812 68:0.7743098735809326 69:0.6591829657554626 70:0.865280270576477 71:0.5958542227745056 72:0.8030926585197449 73:0.7327446937561035 74:0.9632191061973572 75:0.6727197170257568 76:0.7398974299430847 77:0.7816710472106934 78:1.0 79:0.799324095249176 80:0.6009001731872559 
-1.1131725631650444 -9.306167801766364 -0.0 0.11171721374914871 1.2806199978914672 0.0 3.932897620984193 0.20556154530890794 0.7671067467257068 2.0799877135394387 1.188270313909596 1.304612637187421 1.5492404861941398 2.1827608300651145 1.146702400107769 0.5550057653787253 0.0 1.02355494076041 0.2982054038484972 1.594774970879691 1:0.5877862572669983 2:0.17557251453399658 3:0.41209298372268677 4:-0.9111418128013611 5:0.6432569622993469 6:0.052926208823919296 7:-0.9610484838485718 8:-0.27637964487075806 9:0.4320608973503113 10:0.13078880310058594 11:-0.9277199506759644 12:0.37327679991722107 13:0.2549620270729065 14:0.20916031301021576 15:-0.7828512787818909 16:0.6222088932991028 17:0.07989828288555145 18:0.41068705916404724 19:-0.50760418176651 20:0.8615903854370117 21:0.022900760173797607 22:0.6030533909797668 23:-0.03672126680612564 24:0.9993255138397217 25:0.06564866751432419 26:0.7984733581542969 27:0.5834441781044006 28:0.8121532797813416 29:0.277353972196579 30:0.9572518467903137 31:0.8983843922615051 32:0.4392099678516388 33:0.4778624176979065 34:1.0 35:0.999142587184906 36:0.04140104353427887 37:0.645801305770874 38:0.972519040107727 39:0.9488267302513123 40:-0.3157970607280731 41:0.8142490386962891 42:0.8880407810211182 43:0.7359075546264648 44:-0.6770819425582886 45:0.9577608704566956 46:0.6854963302612305 47:0.3812296390533447 48:-0.9244803786277771 49:0.9770992398262024 50:0.493129700422287 51:-0.02644522488117218 52:-0.9996502995491028 53:0.9475829601287842 54:0.3007633090019226 55:-0.2873488664627075 56:-0.9578260183334351 57:0.8641217350959778 58:0.11653941124677658 59:-0.6075004935264587 60:-0.7943193316459656 61:0.7175572514533997 62:0.0 63:-0.782720685005188 64:-0.6223732233047485 65:0.40458014607429504 66:0.6335877776145935 67:0.7682211399078369 68:0.6401845812797546 69:0.4961831867694855 70:0.7099236845970154 71:0.7926240563392639 72:0.6097107529640198 73:0.7022901177406311 74:0.8625954389572144 75:0.8169679045677185 76:0.5766831040382385 77:0.885496199131012 78:0.9847328066825867 79:0.8320503234863281 80:0.5547001361846924 
