svm_type c_svc
kernel_type rbf
gamma 0.00390625
nr_class 22
total_sv 277
rho -0.21351307210177314 -0.08329006166217887 -0.2539546705558774 0.05696764603825737 0.46095231802464154 -0.0124225651913495 -0.2372716362009351 -0.11191838968447443 0.03342042064177762 -0.06694412657378529 -0.20949693133068917 -0.1230843648218757 -0.06982553319449275 -0.3331052459195767 0.33214347805574823 -0.33868774618262715 -0.12003875694490833 -0.1421646095232734 0.06605963977696125 -0.09647112673580181 -0.13982234353925438 0.6826191284115501 0.42933614112130025 0.3307657171857194 0.6147665756968379 0.8874539009379144 -0.8450913913872428 0.09027385453584583 0.9592909083797417 0.2013008028218213 0.4495074816779919 0.11506085646184681 0.5928023397969908 -0.17405983740139824 0.4202442844560961 -0.2110801607715197 0.03240833510960743 -0.016490398945492344 0.6456879059777431 0.025900475710282377 0.1577996485437316 -0.019895738879934316 0.0810957901037274 0.3313450849776828 -0.08736630126942235 -0.5610453712883128 -0.391208070256571 0.3964579800230859 -0.2485653330057188 -0.0777827239265894 -0.23543756255028964 -0.2787289860685566 -0.32569708430444116 0.12667596371132941 -0.5871359819966698 -0.21852098740748888 -0.3205035607835908 -0.0661099570008823 -0.2862487396353319 -0.11634020118265923 0.15763659551958614 0.33896935564527253 0.3771511934845963 -0.12217096750398385 -0.04522992501988608 0.15707153304287627 -0.08364786474618476 0.015180531580855148 -0.021332404069182114 0.3121007180088847 -0.12736535063416957 0.24928097691454032 -0.025887639891004385 -0.12626760994889505 -0.1910811908051157 0.1869531959509028 -0.09658004764271694 0.08189760037176806 0.6008668006251692 -0.1415589986188723 -0.356000567986331 -0.2686403329967588 -0.01762424501764627 -0.23621483000005813 -0.2526745830192623 -0.26436987397903144 -0.40240539821240084 -0.5115021330807311 -0.03298472450856134 -0.3015463170713359 -0.34204321166523954 -0.4796406222369244 -0.1870136065177651 -0.4618374858175034 -0.2597895622374162 0.11108634632974161 -0.802488353421741 -0.6217545355037049 -0.05659695081105312 -0.5344921499455386 -0.31465324690615787 -0.5879209516386018 -0.22094835805834048 -1.409534280634793 -0.7718084851550179 -0.6703127063212793 -0.5977741408337517 -1.0862271141979696 -0.5429825898021338 -0.6404705911062879 -0.6132093902206597 -0.4934105674989858 -0.7246315284248572 0.03988692636506914 -0.24973129910839997 -0.21601802611662915 -0.28956504241619213 -0.5552201253325549 -0.3925395503933741 0.008992522283360428 -0.3578597452886358 -0.22131131116706476 -0.44059021915299884 -0.27580045596707997 -0.14594646429645192 -0.15260072682772594 0.16571366211958688 0.9273323642547667 0.08594895567847856 0.2805016980509339 0.19501124940535486 0.6222660115194332 -0.5709889061124339 0.44235456909712506 0.21605877734278736 0.02394928774015928 -0.0039028925367211656 0.3369466756413824 -0.012929735817818984 0.14300109576554404 0.7506163271125358 0.16482186451922132 0.298579418120197 0.07540928989654716 0.7266570184466339 -0.16423367735870328 0.34968574527236446 -0.23273942564938674 0.10060158060743675 0.008616110773076594 0.3442746867203237 0.09694605669031643 0.17845485049194032 -0.37383309452310615 -0.27283730999892125 -0.3022181591536804 -0.46567350062103435 -0.8458209121637303 -0.010298470736931256 -0.8164998567852189 -0.2970383418101872 -0.47161636629801357 -0.09556874069295783 -0.29831529038074434 -0.3066978465327068 0.1547429203709592 0.03980651240542524 0.0997700074972906 -0.1517893487089504 0.14161515267089445 -0.03982020821976807 -0.03818685227716099 -0.10963571326276385 0.4013169315429001 -0.1821995432512174 -0.025992207925084176 -0.2489497574540829 -0.06270944043658123 -0.3227268946850382 0.11766011702572292 -0.23071549596724092 -0.3731940705660035 -0.639418365925129 -0.0027511210343779137 -0.5912584079975792 -0.18554582937151165 0.23739851803435053 -0.17397417807510104 0.2648569143005714 -0.1391839919486326 0.09726364620907027 -0.15545216654633492 0.13227122862645846 -0.022751287220191572 -0.08816386373493901 -0.26463668117609324 0.17795208415477318 -0.33048737234205977 -0.138842061688786 -0.1906080051861164 -0.3931822470844737 -0.14660844177147012 -0.27405771001009965 1.4106786859231455 0.2558219897263106 0.06246298388080001 0.13261713663921396 0.337088094268482 0.08328960550242775 -0.016408276638771847 -0.3911404125709168 -0.3617066638403686 -0.2844611498340402 -0.19908805342530292 -0.310985497433157 -0.2393283535319211 6.249725750721192E-4 0.030263079604377133 0.31761403651025405 0.03728712212088219 0.04009548853629822 -0.03037807991583268 0.22788904472735583 -0.18143188775063976 -2.2296416084710658E-4 0.2288859077762197 -0.018334447693809514 -0.06500532429041166 -0.2883337957670097 -0.2611310356767407 0.017860077943293685
label 106 104 118 114 102 113 100 98 110 121 109 107 119 117 115 103 112 101 99 97 122 111
nr_sv 13 14 13 11 15 15 12 15 14 15 12 13 12 14 12 12 15 7 9 11 13 10
SV
0.0 0.0 0.0 0.0 0.0 0.0 0.0 0.0 0.0 0.0 0.0 0.6178324893470425 0.0 0.0 0.0 2.7074088789502557 0.0 0.0 0.0 0.0 0.6890607700198271 1:0.552837610244751 2:0.29941290616989136 3:0.7893518805503845 4:0.613940954208374 5:0.5880626440048218 6:0.32681018114089966 7:0.3643992841243744 8:0.931242823600769 9:0.5880626440048218 10:0.38943246006965637 11:0.27074554562568665 12:0.9626509547233582 13:0.6232876777648926 14:0.4520547688007355 15:0.30700331926345825 16:0.9517084360122681 17:0.6272016763687134 18:0.5107632279396057 19:0.3643990457057953 20:0.9312428832054138 21:0.6585127115249634 22:0.5420743823051453 23:0.31622669100761414 24:0.9486836194992065 25:0.6585127115249634 26:0.6046966910362244 27:0.0 28:1.0 29:0.6585127115249634 30:0.7025440335273743 31:0.0 32:1.0 33:0.6585127115249634 34:0.7651662826538086 35:0.0 36:1.0 37:0.6585127115249634 38:0.8277886509895325 39:0.0 40:1.0 41:0.6585127115249634 42:0.8904109597206116 43:-0.2707454562187195 44:0.9626509547233582 45:0.6232876777648926 46:0.9530332684516907 47:-0.6163080334663391 48:0.7875051498413086 49:0.5880626440048218 50:0.980430543422699 51:-0.8320502042770386 52:0.5547003746032715 53:0.552837610244751 54:1.0 55:-0.9847835302352905 56:-0.1737857460975647 57:0.5215265154838562 58:0.9686888456344604 59:-0.7893524765968323 60:-0.6139402389526367 61:0.4823874831199646 62:0.9452055096626282 63:-0.8705639839172363 64:-0.49205517768859863 65:0.43150636553764343 66:0.9178081750869751 67:-0.8877542614936829 68:-0.4603177011013031 69:0.3767123222351074 70:0.8904109001159668 71:-0.7071049809455872 72:-0.7071084976196289 73:0.3414872884750366 74:0.8277886509895325 75:-0.490261435508728 76:-0.8715754151344299 77:0.6232876777648926 78:0.0 79:0.0 80:0.0 
0.0 0.0 0.0 0.0 0.0 0.0 0.0 0.0 0.0 0.0 0.0 0.0 0.0 0.0 0.0 0.0 0.0 0.0 0.0 0.0 0.933388954896655 1:0.5921052694320679 2:0.3947368562221527 3:0.6441360116004944 4:0.7649109959602356 5:0.6184210777282715 6:0.4259868562221527 7:0.28408852219581604 8:0.9587979912757874 9:0.6184210777282715 10:0.48355263471603394 11:0.0 12:1.0 13:0.6184210777282715 14:0.5559210777282715 15:0.1381959170103073 16:0.9904048442840576 17:0.6381579041481018 18:0.625 19:0.20344661176204681 20:0.9790860414505005 21:0.6447368860244751 22:0.6825658082962036 23:0.06959842145442963 24:0.9975751042366028 25:0.6480263471603394 26:0.7664473652839661 27:0.18290765583515167 28:0.9831300973892212 29:0.6710526347160339 30:0.8240131735801697 31:0.19611592590808868 32:0.9805806279182434 33:0.6710526347160339 34:0.8815789222717285 35:-0.28408804535865784 36:0.9587982296943665 37:0.6447368860244751 38:0.9128289222717285 39:-0.2840878665447235 40:0.9587982296943665 41:0.6447368860244751 42:0.9703947305679321 43:-0.6556869149208069 44:0.7550329566001892 45:0.5904605388641357 46:0.9753289222717285 47:-0.9778023958206177 48:0.20952902734279633 49:0.5065789222717285 50:1.0 51:-0.9999323487281799 52:-0.0116270761936903 53:0.4490131735801697 54:0.9736841917037964 55:-0.9374251961708069 56:-0.3481867015361786 57:0.39144736528396606 58:0.9572368264198303 59:-0.891278088092804 60:-0.4534570872783661 61:0.3552631437778473 62:0.9259868264198303 63:-0.7071067690849304 64:-0.7071067690849304 65:0.32894736528396606 66:0.8947368264198303 67:-0.644135594367981 68:-0.7649112939834595 69:0.6184210777282715 70:0.0 71:-0.24253682792186737 72:0.9701421856880188 73:0.6052631139755249 74:0.05263157933950424 75:-0.2425357699394226 76:0.9701424241065979 77:0.5921052694320679 78:0.10526315867900848 79:-0.24253474175930023 80:0.970142662525177 
0.0 2.9148981108268432 0.6322018037489997 0.0 0.0 0.0 1.8617499221242357 0.0 0.0 0.0 0.0 0.0 0.0 0.0 0.8703143796441195 0.0 0.0 0.0 0.0 0.0 3.1173698963186323 1:0.529411792755127 2:0.0 3:0.7070942521095276 4:0.707119345664978 5:0.57275390625 6:0.04334365203976631 7:0.4568043351173401 8:0.8895672559738159 9:0.5882352590560913 10:0.11455108225345612 11:0.15080095827579498 12:0.988564133644104 13:0.6006182432174683 14:0.2260061651468277 15:0.1920095682144165 16:0.981393039226532 17:0.6439622044563293 18:0.39938080310821533 19:0.27215445041656494 20:0.9622536301612854 21:0.6873061656951904 22:0.5325077176094055 23:0.3899947702884674 24:0.9208170771598816 25:0.7554177641868591 26:0.6625386476516724 27:0.4640078842639923 28:0.8858309984207153 29:0.8235294222831726 30:0.792569637298584 31:0.2533600628376007 32:0.967371940612793 33:0.8235294222831726 34:0.9226005673408508 35:0.0 36:1.0 37:0.8235294222831726 38:0.9783281683921814 39:-0.2696208655834198 40:0.9629665017127991 41:0.8018583655357361 42:1.0 43:-0.9629643559455872 44:0.2696286737918854 45:0.7461296319961548 46:1.0 47:-1.0 48:0.0 49:0.6160996556282043 50:1.0 51:-0.9888367652893066 52:-0.14900286495685577 53:0.5201236605644226 54:0.9659442901611328 55:-0.9207528233528137 56:-0.3901465833187103 57:0.4334357678890228 58:0.9226006269454956 59:-0.887995719909668 60:-0.4598516821861267 61:0.34674787521362305 62:0.8761610388755798 63:-0.7931491136550903 64:-0.6090273857116699 65:0.2600618004798889 66:0.7894737124443054 67:-0.7071018815040588 68:-0.7071117162704468 69:0.20433492958545685 70:0.7337461113929749 71:-0.6448704600334167 72:-0.7642918825149536 73:0.1764705777168274 74:0.6904025077819824 75:-0.3060150444507599 76:-0.9520267248153687 77:0.1764705777168274 78:0.6470588445663452 79:0.0 80:-1.0 
0.0 0.0 0.0 0.0 0.0 0.0 0.0 0.0 0.0 0.0 0.0 0.0 0.0 0.0 0.0 0.0 0.9289465190978319 0.0 0.0 2.322072839026013 0.0 1:0.4864864945411682 2:0.37837839126586914 3:0.8395698070526123 4:-0.5432518720626831 5:0.5135135054588318 6:0.36089029908180237 7:0.6043890714645386 8:-0.7966892123222351 9:0.5214629173278809 10:0.3322734236717224 11:0.7854892611503601 12:0.6188752055168152 13:0.5659773349761963 14:0.4022257626056671 15:0.3691927492618561 16:0.9293528199195862 17:0.5675675868988037 18:0.44833070039749146 19:0.22486256062984467 20:0.97439044713974 21:0.5945945978164673 22:0.526232123374939 23:0.1856067180633545 24:0.9826241731643677 25:0.5945945978164673 26:0.5914149284362793 27:0.0 28:1.0 29:0.5945945978164673 30:0.6772655248641968 31:-0.13267481327056885 32:0.9911596179008484 33:0.5675675868988037 34:0.793322741985321 35:-0.1462368369102478 36:0.989249587059021 37:0.5675675868988037 38:0.8600953817367554 39:-0.33633503317832947 40:0.9417424201965332 41:0.5278221368789673 42:0.9046105146408081 43:-0.554705798625946 44:0.8320465683937073 45:0.5103330612182617 46:0.9459459185600281 47:-0.7071087956428528 48:0.7071047425270081 49:0.4658186435699463 50:0.9666136503219604 51:-0.8980607390403748 52:0.43987149000167847 53:0.4324324131011963 54:0.9841017723083496 55:-0.8804718852043152 56:0.4740983843803406 57:0.4038151800632477 58:1.0 59:-0.977176308631897 60:0.2124302089214325 61:0.35930076241493225 62:1.0 63:-0.9928767085075378 64:-0.11914650350809097 65:0.3243243098258972 66:0.990460991859436 67:-0.5432543754577637 68:-0.8395681977272034 69:0.3243243098258972 70:0.9459459185600281 71:0.0 72:-1.0 73:0.6486486196517944 74:0.0 75:0.7071065306663513 76:0.7071070075035095 77:0.675675630569458 78:0.027027027681469917 79:0.7071065306663513 80:0.7071070075035095 
1.725093886156051 7.870391326699052 0.0 9.11709968489103 11.003815091527084 1.5306910176305213 8.066090574606246 2.5702639224337074 18.18475876666192 3.6930679064857683 3.8621980314220647 3.4431810951964485 2.430915220219635 11.959944743319456 14.592160370365109 8.018749413913593 4.182478376011948 2.5026795620819864 3.2413049979287285 6.5556892558019735 2.031839443181875 1:0.5723289251327515 2:0.02270483784377575 3:-0.7498396039009094 4:-0.6616196036338806 5:0.5555469989776611 6:0.007897336035966873 7:-0.8705617785453796 8:-0.4920591413974762 9:0.5496242046356201 10:0.009871670044958591 11:0.0 12:1.0 13:0.5555469989776611 14:0.009871669113636017 15:0.8944270610809326 16:-0.44721388816833496 17:0.569367527961731 18:0.0 19:0.9972677826881409 20:-0.0738714337348938 21:0.5822005867958069 22:0.007897336035966873 23:0.8516563177108765 24:0.5241007804870605 25:0.6019439101219177 26:0.33859819173812866 27:0.049527477473020554 28:0.9987727999687195 29:0.6042220592498779 30:0.3845394253730774 31:0.11314770579338074 32:0.9935781955718994 33:0.6140936613082886 34:0.44528818130493164 35:0.19502820074558258 36:0.9807976484298706 37:0.6304198503494263 38:0.5162882208824158 39:0.1998177319765091 40:0.9798331260681152 41:0.6456069350242615 42:0.5998177528381348 43:0.14688213169574738 44:0.9891539812088013 45:0.6547194719314575 46:0.6799300909042358 47:-0.030217094346880913 48:0.9995433688163757 49:0.6406713724136353 50:0.7630799412727356 51:-0.24733878672122955 52:0.9689290523529053 53:0.6133342385292053 54:0.8420532941818237 55:-0.3922281563282013 56:0.9198679327964783 57:0.5768851637840271 58:0.9126737117767334 59:-0.5999993681907654 60:0.8000004291534424 61:0.5301845073699951 62:0.9529197812080383 63:-0.7764127850532532 64:0.6302247047424316 65:0.4861416220664978 66:0.9863314628601074 67:-0.8914852738380432 68:0.4530496299266815 69:0.43754273653030396 70:1.0 71:-0.9997026324272156 72:0.02438373863697052 73:0.3927403688430786 74:0.9886096119880676 75:-0.9660367369651794 76:-0.2584048807621002 77:0.34528055787086487 78:0.9753208160400391 79:-0.9629637598991394 80:-0.2696308493614197 
0.0 0.0 0.0 0.0 0.0 0.0 0.0 0.0 2.446631826522022 0.7589384617453573 0.0 0.0 0.0 0.0 0.0 0.0 0.0 0.0 0.0 0.0 0.0 1:0.4411570429801941 2:0.22682447731494904 3:0.4270053803920746 4:0.9042490720748901 5:0.45233386754989624 6:0.2504931092262268 7:0.35834595561027527 8:0.9335888028144836 9:0.4661405086517334 10:0.2919132113456726 11:0.2945101857185364 12:0.9556483030319214 13:0.48454976081848145 14:0.3550296127796173 15:0.3515050709247589 16:0.9361859560012817 17:0.5325442552566528 18:0.4687705636024475 19:0.39648541808128357 20:0.9180409908294678 21:0.5825111865997314 22:0.5818541049957275 23:0.3923659026622772 24:0.9198092222213745 25:0.6127545833587646 26:0.6568047404289246 27:0.3185308575630188 28:0.9479125738143921 29:0.6370807886123657 30:0.7442471981048584 31:0.25956395268440247 32:0.9657258987426758 33:0.6574622392654419 34:0.8231427073478699 35:0.047158051282167435 36:0.9988874793052673 37:0.6443129181861877 38:0.8974359631538391 39:-0.29234540462493896 40:0.9563128352165222 41:0.6186718344688416 42:0.9500328898429871 43:-0.5667776465415955 44:0.8238707184791565 45:0.5805389881134033 46:0.990138053894043 47:-0.871403157711029 48:0.49056756496429443 49:0.5299144387245178 50:1.0 51:-0.9999331831932068 52:-0.011559497565031052 53:0.4667978286743164 54:0.9888231754302979 55:-0.9260357618331909 56:-0.3774358928203583 57:0.3911897540092468 58:0.9434582591056824 59:-0.7752344608306885 60:-0.6316735744476318 61:0.34253770112991333 62:0.8875740170478821 63:-0.6566171050071716 64:-0.7542240619659424 65:0.34253770112991333 66:0.0 67:0.0 68:1.0 69:0.34253770112991333 70:0.009861933067440987 71:0.0 72:1.0 73:0.34253770112991333 74:0.02958580106496811 75:0.24253591895103455 76:0.9701423645019531 77:0.35239964723587036 78:0.04930966719985008 79:0.4472140669822693 80:0.8944269418716431 
0.0 0.5638256740457435 1.8707236341538191 0.0 0.0 0.0 0.0 0.0 0.0 0.0 0.0 3.891820632872704 0.0 0.0 0.0 0.0 0.0 0.0 0.0 0.0 1.0052983150593424 1:0.5138888955116272 2:0.4722222089767456 3:0.539053738117218 4:0.8422713279724121 5:0.5416666865348816 6:0.515625 7:0.29408594965934753 8:0.9557790160179138 9:0.5416666865348816 10:0.5625 11:0.0 12:1.0 13:0.5416666865348816 14:0.6493055820465088 15:0.0 16:1.0 17:0.5416666865348816 18:0.7013888955116272 19:0.0 20:1.0 21:0.5416666865348816 22:0.7673611044883728 23:0.0 24:1.0 25:0.5416666865348816 26:0.8263888955116272 27:0.0 28:1.0 29:0.5416666865348816 30:0.8871527910232544 31:0.0 32:1.0 33:0.5416666865348816 34:0.9305555820465088 35:-0.42579713463783264 36:0.9048186540603638 37:0.5138888955116272 38:0.9461805820465088 39:-0.7348038554191589 40:0.67827969789505 41:0.4965277910232544 42:0.9722222089767456 43:-0.5225621461868286 44:0.852601170539856 45:0.4809027910232544 46:1.0 47:-0.9048186540603638 48:0.42579713463783264 49:0.4375 50:1.0 51:-1.0 52:0.0 53:0.366319477558136 54:1.0 55:-0.9656156301498413 56:-0.25997376441955566 57:0.347222238779068 58:0.9756944179534912 59:-0.7612430453300476 60:-0.6484667062759399 61:0.319444477558136 62:0.9600694179534912 63:-0.8715755939483643 64:-0.4902612864971161 65:0.2916666865348816 66:0.9444444179534912 67:-0.871575653553009 68:-0.4902610778808594 69:0.7083333730697632 70:0.0833333358168602 71:0.0 72:-1.0 73:0.7083333730697632 74:0.0416666679084301 75:0.0 76:-1.0 77:0.7083333730697632 78:0.0 79:0.0 80:-1.0 
0.0 0.0 2.1742095506878956 0.0 0.0 0.0 0.0 0.0 0.0 0.0 0.0 0.0 0.0 0.0 0.0 0.0 0.5061876285989669 0.45456357002204306 0.0 0.46790158979622537 0.0 1:0.5846153497695923 2:0.32307693362236023 3:0.31622886657714844 4:-0.9486829042434692 5:0.5923076868057251 6:0.30000001192092896 7:0.7071081399917603 8:0.7071053981781006 9:0.6000000238418579 10:0.3384615480899811 11:0.16439898312091827 12:0.9863938689231873 13:0.607692301273346 14:0.39230769872665405 15:0.2747211456298828 16:0.9615240097045898 17:0.6307692527770996 18:0.446153849363327 19:0.19611632823944092 20:0.9805806279182434 21:0.6307692527770996 22:0.5076923370361328 23:0.0 24:1.0 25:0.6307692527770996 26:0.6000000238418579 27:-0.09053609520196915 28:0.9958931803703308 29:0.615384578704834 30:0.6769230961799622 31:-0.17888543009757996 32:0.9838699102401733 33:0.6000000238418579 34:0.7692307829856873 35:-0.22162093222141266 36:0.9751328825950623 37:0.5769230723381042 38:0.8461538553237915 39:-0.31622812151908875 40:0.9486832022666931 41:0.5538461208343506 42:0.9076923131942749 43:-0.4228857755661011 44:0.9061830639839172 45:0.5230768918991089 46:0.9615384340286255 47:-0.5547001957893372 48:0.8320503234863281 49:0.4923076629638672 50:1.0 51:-0.8741570115089417 52:0.4856433868408203 53:0.45384615659713745 54:1.0 55:-0.9805806875228882 56:-0.1961161345243454 57:0.41538459062576294 58:0.9846153855323792 59:-0.8479982018470764 60:-0.5299990177154541 61:0.39230766892433167 62:0.9615384340286255 63:-0.6000000238418579 64:-0.800000011920929 65:0.3692307472229004 66:0.9230769276618958 67:-0.5144960284233093 68:-0.8574927449226379 69:0.6000000238418579 70:0.04615384712815285 71:0.4472121596336365 72:-0.8944278955459595 73:0.615384578704834 74:0.015384615398943424 75:0.5547001361846924 76:-0.8320503234863281 77:0.6307692527770996 78:0.0 79:0.7071081399917603 80:-0.7071054577827454 
0.7679718974128459 0.0 0.8292082882444742 0.3638153611146381 0.0 0.0 0.0 0.0 1.754972093736298 5.038694206286854 2.7959612916063175 0.0 0.0 0.0 0.0 0.0 0.0 0.3329065254603793 1.8120811298048136 0.0 0.0 1:0.6834862232208252 2:0.2844036817550659 3:-0.4472130239009857 4:0.8944275379180908 5:0.6743119359016418 6:0.302752286195755 7:-0.316226989030838 8:0.9486835598945618 9:0.6651376485824585 10:0.33944955468177795 11:-0.09950343519449234 12:0.9950372576713562 13:0.6651376485824585 14:0.39449542760849 15:0.0 16:1.0 17:0.6651376485824585 18:0.4678899049758911 19:0.0 20:1.0 21:0.6651376485824585 22:0.642201840877533 23:-0.03996819257736206 24:0.9992009401321411 25:0.6559633016586304 26:0.6972476840019226 27:-0.1414218544960022 28:0.9899493455886841 29:0.6467889547348022 30:0.7706422209739685 31:-0.29827457666397095 32:0.9544801115989685 33:0.6100918054580688 34:0.8440366983413696 35:-0.4705878794193268 36:0.8823531270027161 37:0.5733945369720459 38:0.9082568883895874 39:-0.581238329410553 40:0.8137333393096924 41:0.5183486342430115 42:0.9724770784378052 43:-0.7682212591171265 44:0.6401842832565308 45:0.4633027911186218 46:1.0 47:-0.9701425433158875 48:0.24253550171852112 49:0.4082568883895874 50:1.0 51:-0.986393928527832 52:-0.16439902782440186 53:0.35321101546287537 54:0.9816513657569885 55:-0.857492983341217 56:-0.5144955515861511 57:0.3165137767791748 58:0.9449541568756104 59:-0.7071071267127991 60:-0.7071065306663513 61:0.6467889547348022 62:0.0 63:0.0 64:1.0 65:0.6467889547348022 66:0.00917431153357029 67:0.0 68:1.0 69:0.6467889547348022 70:0.027522936463356018 71:0.0 72:1.0 73:0.6467889547348022 74:0.03669724613428116 75:-0.24253353476524353 76:0.9701430201530457 77:0.6376147270202637 78:0.06422018259763718 79:-0.31622514128685 80:0.9486841559410095 
10.741742755178635 5.55077415788416 3.582985302764598 7.040481780014175 5.607210511800911 14.701997357422785 8.836175013820025 9.419568532226124 15.61436862872652 1.170122319634614 10.062166536506227 1.80087507909639 8.666085256979427 0.37497282111801095 5.519153661881991 11.569441889962514 0.9943534440517255 2.799262474275611 5.876315476808827 0.0 4.279256808019523 1:0.6123291254043579 2:0.3287280201911926 3:-0.8584731817245483 4:0.512858510017395 5:0.6007658839225769 6:0.3356359899044037 7:-0.5581775903701782 8:0.8297215104103088 9:0.5678778886795044 10:0.3948040306568146 11:-0.31277504563331604 12:0.949827253818512 13:0.5518090128898621 14:0.4843069612979889 15:-0.07363937795162201 16:0.9972849488258362 17:0.5524091124534607 18:0.6042948961257935 19:-0.06881999224424362 20:0.9976290464401245 21:0.5345398187637329 22:0.7346448302268982 23:-0.27902457118034363 24:0.9602839946746826 25:0.4792770445346832 26:0.8559843897819519 27:-0.5496379137039185 28:0.8354030251502991 29:0.3987840414047241 30:0.9409821033477783 31:-0.7641793489456177 32:0.6450038552284241 33:0.3251987099647522 34:0.9860338568687439 35:-0.9334878921508789 36:0.35860902070999146 37:0.24515575170516968 38:1.0 39:-0.9998493194580078 40:-0.01735805906355381 41:0.19545035064220428 42:0.9837813377380371 43:-0.7810296416282654 44:-0.6244940161705017 45:0.1762276589870453 46:0.9448866248130798 47:-0.44306614995002747 48:-0.8964889645576477 49:0.8237723112106323 50:0.0 51:-0.5093242526054382 52:0.8605746626853943 53:0.8032413721084595 54:0.03468989580869675 55:-0.5187071561813354 56:0.8549520373344421 57:0.7640684843063354 58:0.09840602427721024 59:-0.5941340327262878 60:0.8043661117553711 61:0.6958678960800171 62:0.18005706369876862 63:-0.7054766416549683 64:0.7087331414222717 65:0.6109127998352051 66:0.2522686719894409 67:-0.8165175318717957 68:0.5773206353187561 69:0.5653678178787231 70:0.2723274528980255 71:-0.8780012130737305 72:0.4786584675312042 73:0.5377581715583801 74:0.29215025901794434 75:-0.5051769614219666 76:0.8630157113075256 77:0.5313860774040222 78:0.3303799331188202 79:-0.16441109776496887 80:0.9863919615745544 
2.2759758363218077 17.84060640451017 8.71383154111262 6.181667842937507 3.8709442651474166 7.581018758881049 0.0 1.0535690384824516 8.184870168677529 2.026823199910997 8.924813494710572 3.2467716082383054 4.792653105363838 0.0 0.0 0.0 4.924575611655662 0.6364724043606163 4.580343988322603 8.70015649592505 1.7623061666025805 1:0.39469030499458313 2:0.389380544424057 3:1.0 4:0.0 5:0.40589970350265503 6:0.389380544424057 7:0.9966847896575928 8:0.0813600942492485 9:0.42359936237335205 10:0.3917404115200043 11:0.8489006757736206 12:0.5285524725914001 13:0.4371686279773712 14:0.4088495671749115 15:0.49562743306159973 16:0.8685352206230164 17:0.4855457544326782 18:0.5002949833869934 19:0.4569776654243469 20:0.8894781470298767 21:0.5362832546234131 22:0.6017699241638184 23:0.43201419711112976 24:0.9018667936325073 25:0.5663719177246094 26:0.6690265536308289 27:0.4456762969493866 28:0.8951942324638367 29:0.604719877243042 30:0.7392330765724182 31:0.459805428981781 32:0.8880196809768677 33:0.6436581611633301 34:0.818289041519165 35:0.3384552597999573 36:0.9409825205802917 37:0.6584070324897766 38:0.8884955644607544 39:0.013447982259094715 40:0.999909520149231 41:0.6454275846481323 42:0.9498525261878967 43:-0.35670197010040283 44:0.9342182874679565 45:0.6212388277053833 46:0.9858407378196716 47:-0.7651076316833496 48:0.6439024209976196 49:0.5858405828475952 50:1.0 51:-0.9962655305862427 52:0.08634243160486221 53:0.5327432155609131 54:0.9935103058815002 55:-0.944164514541626 56:-0.32947415113449097 57:0.47256630659103394 58:0.9604719877243042 59:-0.7916820049285889 60:-0.6109334230422974 61:0.40353986620903015 62:0.8938053250312805 63:-0.7192949652671814 64:-0.6947047710418701 65:0.3415929675102234 66:0.0 67:1.0 68:0.0 69:0.3710913062095642 70:0.0 71:0.9701422452926636 72:0.2425365298986435 73:0.38879042863845825 74:0.011799411848187447 75:0.8837886452674866 76:0.4678863286972046 77:0.4212389886379242 78:0.02654867246747017 79:0.9103673696517944 80:0.4138009548187256 
1.6037234217656735 6.023066375114385 0.0 0.0 0.0 2.2756785910373196 1.9808373723745771 0.0 5.7749494217632975 0.0 0.0 0.0 0.0 9.959725464558824 2.7580700592695764 4.874955859686509 0.0 0.6618896895102738 0.0 0.0 0.0 1:0.75 2:0.0 3:0.0 4:1.0 5:0.75 6:0.049707602709531784 7:0.0 8:1.0 9:0.75 10:0.09941520541906357 11:0.0 12:1.0 13:0.75 14:0.1871345043182373 15:0.0 16:1.0 17:0.75 18:0.25438594818115234 19:0.0 20:1.0 21:0.75 22:0.33040937781333923 23:0.0 24:1.0 25:0.75 26:0.429824560880661 27:0.0 28:1.0 29:0.75 30:0.5292397737503052 31:0.0 32:1.0 33:0.75 34:0.6286548972129822 35:-0.014703040011227131 36:0.9998918771743774 37:0.7470762729644775 38:0.7280701398849487 39:-0.25589343905448914 40:0.9667049050331116 41:0.6973682045936584 42:0.8274853825569153 43:-0.5472496747970581 44:0.8369693756103516 45:0.6476609706878662 46:0.8801169395446777 47:-0.496137410402298 48:0.8682440519332886 49:0.6388888955116272 50:0.9298245906829834 51:-0.563336968421936 52:0.8262272477149963 53:0.6038013100624084 54:0.9444444179534912 55:-0.991881787776947 56:0.1271631419658661 57:0.5248531699180603 58:0.9444444179534912 59:-0.9887992143630981 60:0.14925207197666168 61:0.4488304853439331 62:0.9678361415863037 63:-0.9323613047599792 64:0.36152783036231995 65:0.3815782368183136 66:1.0 67:-0.9791337251663208 68:0.20321711897850037 69:0.29385969042778015 70:1.0 71:-0.9990137815475464 72:-0.04440068453550339 73:0.25 74:0.9941520690917969 75:-0.6196444630622864 76:-0.7848826050758362 77:0.25 78:0.9444444179534912 79:0.0 80:-1.0 
0.0 0.0 0.24564794880772656 12.51187555100007 4.8185503076985645 2.5840773530851466 0.0 0.0 0.0 0.0 6.297900754541232 0.0 0.0 1.6561737430411676 0.8202270006405721 0.0 0.0 6.415986107485255 0.0 0.18306338729359875 1.2963852906277418 1:0.5243902206420898 2:0.31707316637039185 3:0.0 4:-1.0 5:0.5243902206420898 6:0.2728658616542816 7:0.0 8:-1.0 9:0.5243902206420898 10:0.30792683362960815 11:0.0929298922419548 12:0.9956726431846619 13:0.5350610017776489 14:0.3871951103210449 15:0.2793296277523041 16:0.9601953029632568 17:0.5731707215309143 18:0.47560974955558777 19:0.37935322523117065 20:0.9252519607543945 21:0.5975610017776489 22:0.5396341681480408 23:0.2873479723930359 24:0.9578262567520142 25:0.6189024448394775 26:0.6280487775802612 27:0.13663730025291443 28:0.9906211495399475 29:0.6219512224197388 30:0.7164633870124817 31:0.018515324220061302 32:0.999828577041626 33:0.6219512224197388 34:0.792682945728302 35:-0.052558768540620804 36:0.9986178278923035 37:0.6143292784690857 38:0.8612805008888245 39:-0.17503319680690765 40:0.9845625758171082 41:0.5975610017776489 42:0.9298780560493469 43:-0.3314861059188843 44:0.9434600472450256 45:0.5746951103210449 46:0.9740853905677795 47:-0.6912230253219604 48:0.7226415872573853 49:0.5304877758026123 50:1.0 51:-0.9596285820007324 52:0.28127023577690125 53:0.48628050088882446 54:1.0 55:-1.0 56:0.0 57:0.43292683362960815 58:1.0 59:-0.9660088419914246 60:-0.2585091292858124 61:0.37804877758026123 62:0.9710366129875183 63:-0.5299988389015198 64:-0.8479983806610107 65:0.40243902802467346 66:0.9512194991111755 67:0.7761133909225464 68:-0.6305932402610779 69:0.5243902206420898 70:0.04878048598766327 71:1.0 72:0.0 73:0.5731707215309143 74:0.04878048598766327 75:0.8320505023002625 76:-0.5546999573707581 77:0.5975610017776489 78:0.0 79:0.44721415638923645 80:-0.8944269418716431 
-0.0 0.0 0.0 0.0 0.0 0.0 10.888166818622679 0.0 0.0 0.0 0.0 0.0 0.0 0.0 0.0 0.0 1.144658242325322 0.0 0.0 0.0 0.0 1:0.3187134265899658 2:0.0 3:-0.07319732755422592 4:0.9973174929618835 5:0.3109161853790283 6:0.10623782128095627 7:0.0 8:1.0 9:0.3187134265899658 10:0.21832360327243805 11:0.07147816568613052 12:0.9974421858787537 13:0.3323587477207184 14:0.40545809268951416 15:0.05713539198040962 16:0.9983664155006409 17:0.33723193407058716 18:0.5419103503227234 19:0.019226785749197006 20:0.9998151659965515 21:0.33723193407058716 22:0.6588694453239441 23:0.08565695583820343 24:0.9963247179985046 25:0.3557504713535309 26:0.7573099732398987 27:0.16039584577083588 28:0.9870527982711792 29:0.37524357438087463 30:0.8927875757217407 31:0.1520572304725647 32:0.988371729850769 33:0.39278751611709595 34:0.9980506896972656 35:-0.3162271976470947 36:0.948683500289917 37:0.3557504713535309 38:0.9512670040130615 39:-0.24104273319244385 40:-0.9705144762992859 41:0.3557504713535309 42:0.8489277958869934 43:0.0655866339802742 44:-0.9978469014167786 45:0.36939579248428345 46:0.7436646223068237 47:0.3579358160495758 48:-0.9337461590766907 49:0.4454190135002136 50:0.6150097250938416 51:0.6779636144638062 52:-0.7350954413414001 53:0.5428849458694458 54:0.5555555820465088 55:0.9711913466453552 56:-0.23830091953277588 57:0.655945360660553 58:0.5633529424667358 59:0.7606865763664246 60:0.6491193175315857 61:0.6890838146209717 62:0.6803119778633118 63:0.12247506529092789 64:0.9924716353416443 65:0.6842104196548462 66:0.792397677898407 67:-0.09228765219449997 68:0.9957323670387268 69:0.6705652475357056 70:0.8801169991493225 71:-0.26266372203826904 72:0.9648874402046204 73:0.6364521384239197 74:0.967836320400238 75:0.0 76:1.0 77:0.6705652475357056 78:1.0 79:0.7275905609130859 80:0.6860116124153137 
-0.06602148908225394 0.10190853600214979 0.2402670683203207 2.9147436676442577 5.582987532330118 3.8927088684664164 8.65233316435909 0.0 6.076099403502124 0.0 2.750668850446938 0.0 0.0 1.4764061281643248 6.257170620395245 0.0 1.5992283613640947 3.327119957971995 3.599737528348948 3.2758064789018433 0.0 1:0.29950839281082153 2:0.0012090194504708052 3:-0.9301525950431824 4:-0.3671732246875763 5:0.2964456081390381 6:0.0 7:-0.13365890085697174 8:0.9910274147987366 9:0.2962037920951843 10:0.025711314752697945 11:0.06335540860891342 12:0.9979910850524902 13:0.3049086332321167 14:0.13331179320812225 15:0.052652757614851 16:0.9986128807067871 17:0.3128073215484619 18:0.34061408042907715 19:0.0600929781794548 20:0.9981927871704102 21:0.33037805557250977 22:0.5563794374465942 23:0.057898662984371185 24:0.9983224868774414 25:0.337390273809433 26:0.7644876837730408 27:0.01716579869389534 28:0.9998525977134705 29:0.3362618088722229 30:0.8990891575813293 31:-0.015383015386760235 32:0.9998816847801208 33:0.33473044633865356 34:0.9373739957809448 35:-0.4946165084838867 36:-0.8691112995147705 37:0.3306198716163635 38:0.8891754746437073 39:0.053352683782577515 40:-0.9985758066177368 41:0.34553074836730957 42:0.7352300882339478 43:0.24064016342163086 44:-0.9706144332885742 45:0.39082780480384827 46:0.6463286876678467 47:0.771764874458313 48:-0.6359080672264099 49:0.4760214686393738 50:0.6277101635932922 51:0.9905366897583008 52:0.1372479349374771 53:0.5810428857803345 54:0.6726847290992737 55:0.79298996925354 56:0.6092346906661987 57:0.6579350233078003 58:0.7674698829650879 59:0.45034897327423096 60:0.8928526639938354 61:0.6828403472900391 62:0.8745062947273254 63:0.1742354929447174 64:0.9847039580345154 65:0.6917061805725098 66:0.9583299160003662 67:0.13233260810375214 68:0.9912052750587463 69:0.6994439363479614 70:0.9988714456558228 71:0.23855653405189514 72:0.9711286425590515 73:0.7019423842430115 74:1.0 75:0.28734681010246277 76:-0.9578266143798828 77:0.7037962675094604 78:0.9843636155128479 79:0.11773751676082611 80:-0.9930447936058044 
-0.0 1.5934588815293038 0.6905260124321898 0.0 3.9666671410922003 0.9057326563006827 0.0 1.138084969850136 0.0 0.0 0.0 0.0 0.6968999689092314 0.0 0.0 0.0 0.0 0.0 0.0 0.0 0.0 1:0.36213627457618713 2:0.0 3:0.9985433220863342 4:0.053954895585775375 5:0.37516146898269653 6:7.037981995381415E-4 7:0.10022915154695511 8:0.9949643611907959 9:0.37532538175582886 10:0.13092689216136932 11:-0.015651380643248558 12:0.9998774528503418 13:0.3711603879928589 14:0.2563100755214691 15:-0.03806869685649872 16:0.9992750883102417 17:0.36213627457618713 18:0.4771311581134796 19:-0.041817598044872284 20:0.9991252422332764 21:0.3552910387516022 22:0.6354678273200989 23:-0.04213995113968849 24:0.9991117119789124 25:0.3491303324699402 26:0.7854938507080078 27:-0.1044369488954544 28:0.9945314526557922 29:0.32038044929504395 30:0.9679141640663147 31:-0.3305799961090088 32:0.9437779188156128 33:0.2991602420806885 34:0.9281542301177979 35:0.1284761130809784 36:-0.9917126297950745 37:0.3340708315372467 38:0.8622375130653381 39:0.5137222409248352 40:-0.8579564690589905 41:0.3924384117126465 42:0.7723723649978638 43:0.46668243408203125 44:-0.8844249844551086 45:0.47252747416496277 46:0.5998438596725464 47:0.5058114528656006 48:-0.8626440763473511 49:0.5362361669540405 50:0.5271302461624146 51:0.9093490242958069 52:-0.41603410243988037 53:0.6417876482009888 54:0.5224060416221619 55:0.8613234758377075 56:0.5080569982528687 57:0.6746447086334229 58:0.6087713837623596 59:0.19151028990745544 60:0.9814906120300293 61:0.6822804808616638 62:0.7299318909645081 63:0.014646803960204124 64:0.9998927712440491 65:0.678809642791748 66:0.893098771572113 67:-0.03162609413266182 68:0.9994997978210449 69:0.6746447086334229 70:0.9712501168251038 71:0.17742463946342468 72:0.984134316444397 73:0.6980823278427124 74:1.0 75:0.9788398146629333 76:0.20462803542613983 77:0.7008397579193115 78:0.976726233959198 79:0.11765514314174652 80:-0.9930545091629028 
-8.011988885712656 0.0 0.0 3.405381541393843 0.0 2.7584335377655744 0.0 0.0 4.999842353717688 0.0 5.1771840593420375 0.0 0.0 0.0 0.0 0.0 0.0 0.0 0.0 0.9716905182281458 0.0 1:0.5421686768531799 2:0.0 3:-0.11719905585050583 4:0.9931084513664246 5:0.5301204919815063 6:0.10209257900714874 7:-0.1385323405265808 8:0.9903578758239746 9:0.5123652219772339 10:0.21306279301643372 11:-0.17146389186382294 12:0.9851904511451721 13:0.49270766973495483 14:0.31705769896507263 15:-0.302808940410614 16:0.9530512690544128 17:0.4521242678165436 18:0.4026632606983185 19:-0.23361165821552277 20:0.9723299741744995 21:0.4457831382751465 22:0.5123652815818787 23:-0.18791784346103668 24:0.9821847081184387 25:0.40456563234329224 26:0.6512365937232971 27:-0.26085299253463745 28:0.96537846326828 29:0.37159159779548645 30:0.7869372367858887 31:-0.23419702053070068 32:0.9721891283988953 33:0.35003167390823364 34:0.877615749835968 35:-0.3553527593612671 36:0.9347323179244995 37:0.3132530152797699 38:0.9403930902481079 39:-0.6643615365028381 40:-0.7474113702774048 41:0.329740047454834 42:0.8547875285148621 43:0.29950591921806335 44:-0.954094409942627 45:0.37476229667663574 46:0.7444515228271484 47:0.45324647426605225 48:-0.8913852572441101 49:0.44388073682785034 50:0.6303107142448425 51:0.6670305728912354 52:-0.7450303435325623 53:0.5320228934288025 54:0.5688015222549438 55:0.9687844514846802 56:-0.24790461361408234 57:0.6322129964828491 58:0.5821179151535034 59:0.8591013550758362 60:0.5118053555488586 61:0.6810400485992432 62:0.6575777530670166 63:0.30247780680656433 64:0.9531564712524414 65:0.6867469549179077 66:0.7539632320404053 67:-0.06787077337503433 68:0.9976940751075745 69:0.6683576703071594 70:0.8440075516700745 71:-0.2526922821998596 72:0.9675466418266296 73:0.6385542154312134 74:0.9384909272193909 75:-0.18766263127326965 76:0.9822335243225098 77:0.6385542154312134 78:1.0 79:0.0 80:1.0 
-4.415390118511016 11.1228906091121 1.6473100426313065 4.197713475904524 13.803583051325266 5.767817918406459 34.20126169850115 13.007624412329562 8.508433089081665 3.251189664573701 7.817002998455778 13.984302802251122 11.930737431149561 4.4342377920947 7.961182678152679 14.2617944614544 4.201076259733127 3.4301123783256346 0.0 2.233757524312914 3.06660037632839 1:0.2837640047073364 2:0.0 3:-0.009183136746287346 4:0.9999577403068542 5:0.282354474067688 6:0.15348471701145172 7:0.03689807280898094 8:0.9993190169334412 9:0.29817283153533936 10:0.39023759961128235 11:0.0692179873585701 12:0.9976015686988831 13:0.314252108335495 14:0.6132081151008606 15:0.04012758657336235 16:0.9991945624351501 17:0.3138866722583771 18:0.7815191745758057 19:-0.05103512853384018 20:0.9986968636512756 21:0.30020880699157715 22:0.8880188465118408 23:-0.17013879120349884 24:0.9854201674461365 25:0.28705307841300964 26:0.9369356036186218 27:-0.2537290155887604 28:0.9672753214836121 29:0.2882537245750427 30:0.9335944652557373 31:0.40129727125167847 32:-0.9159478545188904 33:0.32605063915252686 34:0.8479249477386475 35:0.4422922134399414 36:-0.8968709707260132 37:0.3953797221183777 38:0.7163665890693665 39:0.5402131080627441 40:-0.8415282368659973 41:0.4805794358253479 42:0.6072044968605042 43:0.7391197085380554 44:-0.6735740303993225 45:0.5678675174713135 46:0.5591751337051392 47:0.9886680841445923 48:-0.1501176655292511 49:0.6325502395629883 50:0.5841295123100281 51:0.6388716101646423 52:0.7693133354187012 53:0.6829286813735962 54:0.6977289319038391 55:0.24047107994556427 56:0.9706562757492065 57:0.6955103874206543 58:0.8382667899131775 59:0.07143484055995941 60:0.997445285320282 61:0.6998956203460693 62:0.9346384406089783 63:0.09188003093004227 64:0.9957700967788696 65:0.7093449234962463 66:0.9882016181945801 67:0.2620731592178345 68:0.9650480151176453 69:0.717645525932312 70:1.0 71:0.4458116888999939 72:-0.8951267600059509 73:0.7160271406173706 74:0.9747846722602844 75:-0.2088640183210373 76:-0.9779446721076965 77:0.7053250074386597 78:0.9423127770423889 79:-0.31301891803741455 80:-0.9497469067573547 
-0.0 0.6957909491329153 0.0 0.0 0.0 0.0 0.0 4.096566438082987 0.0 0.2873976698526879 0.0 0.3124986180482746 8.853631324390657 0.0 0.0 0.0 0.0 0.0 0.0 0.0 0.0 1:0.10978120565414429 2:0.0 3:0.0 4:1.0 5:0.10978120565414429 6:0.24667073786258698 7:0.02249063551425934 8:0.9997470378875732 9:0.11805865913629532 10:0.36794689297676086 11:0.10369186848402023 12:0.9946094751358032 13:0.13474902510643005 14:0.48616135120391846 15:0.18738681077957153 16:0.9822862148284912 17:0.16435006260871887 18:0.6106075644493103 19:0.2543775141239166 20:0.967104971408844 21:0.19778499007225037 22:0.7258145809173584 23:0.1799422800540924 24:0.9836771488189697 25:0.20798617601394653 26:0.8491498827934265 27:0.08324483782052994 28:0.9965291619300842 29:0.2183905690908432 30:0.9724852442741394 31:0.47104084491729736 32:0.8821114897727966 33:0.21969111263751984 34:0.8710695505142212 35:0.18043027818202972 36:-0.9835878014564514 37:0.25500917434692383 38:0.772864580154419 39:0.43396976590156555 40:-0.9009274840354919 41:0.31147465109825134 42:0.6805256009101868 43:0.5437431931495667 44:-0.839251697063446 45:0.3729662001132965 46:0.5908013582229614 47:0.6702558398246765 48:-0.7421301007270813 49:0.44463175535202026 50:0.5330895185470581 51:0.9251036643981934 52:-0.3797147274017334 53:0.5885592699050903 54:0.5023097991943359 55:0.9982673525810242 56:0.058841124176979065 57:0.7034274339675903 58:0.5483437776565552 59:0.8384842276573181 60:0.5449258089065552 61:0.7856330275535583 62:0.6303868293762207 63:0.6269221901893616 64:0.7790818810462952 65:0.8344306945800781 66:0.7111427187919617 67:0.41101542115211487 68:0.9116284251213074 69:0.8613899350166321 70:0.798414945602417 71:0.22603601217269897 72:0.9741189479827881 73:0.8800311088562012 74:0.9076610803604126 75:0.14157050848007202 76:0.989928126335144 77:0.8902187943458557 78:1.0 79:0.10966383665800095 80:0.993968665599823 
-0.0 12.150915604312287 0.0 0.0 0.0 0.0 0.0 0.0 4.74438677446354 0.0 0.0 0.0 0.5758259072336619 0.0 0.0 0.0 0.0 0.0 0.0 1.8825540234170515 0.0 1:0.3314659297466278 2:0.0 3:0.0 4:1.0 5:0.3314659297466278 6:0.12978523969650269 7:0.05662541836500168 8:0.9983955025672913 9:0.3492063581943512 10:0.31279176473617554 11:0.05748055875301361 12:0.9983466863632202 13:0.3492063581943512 14:0.43790850043296814 15:0.07488790899515152 16:0.9971919059753418 17:0.3669467866420746 18:0.5490196347236633 19:0.08377524465322495 20:0.996484637260437 21:0.3669467866420746 22:0.6489262580871582 23:0.13341160118579865 24:0.991060733795166 25:0.39309048652648926 26:0.7432305812835693 27:0.1857641190290451 28:0.98259437084198 29:0.40242764353752136 30:0.8366013169288635 31:0.04944487288594246 32:0.9987768530845642 33:0.40242764353752136 34:0.9318393468856812 35:-0.13030777871608734 36:0.9914736151695251 37:0.3809524178504944 38:1.0 39:-0.24253499507904053 40:-0.970142662525177 41:0.3809524178504944 42:0.8459382057189941 43:0.17611734569072723 44:-0.9843692183494568 45:0.43324005603790283 46:0.7077497243881226 47:0.41273045539855957 48:-0.9108532071113586 49:0.4892623722553253 50:0.6069093942642212 51:0.5876338481903076 52:-0.8091269731521606 53:0.5546218752861023 54:0.5406162142753601 55:0.9055966734886169 56:-0.42413991689682007 57:0.636788010597229 58:0.5378151535987854 59:0.8141838312149048 60:0.5806072354316711 61:0.6685340404510498 62:0.6218487620353699 63:0.18560683727264404 64:0.9826240539550781 65:0.6685340404510498 66:0.7058823108673096 67:0.0 68:1.0 69:0.6685340404510498 70:0.7899159789085388 71:-0.1344461888074875 72:0.990920901298523 73:0.6433240175247192 74:0.8916900157928467 75:-0.13262052834033966 76:0.991166889667511 77:0.6507936716079712 78:0.9225022792816162 79:0.23560044169425964 80:0.9718499779701233 
-0.0 0.0 0.0 2.1731987690991073 2.6181773971287177 15.352518531989071 0.0 0.0 0.0410140753058208 0.0 6.872425868461845 0.0 0.0 0.0 0.0 0.0 0.8526050782497181 3.8581021839271936 0.25005149839472834 1.3643247647463586 0.0 1:0.3214285671710968 2:0.0 3:0.0 4:1.0 5:0.3214285671710968 6:0.0714285746216774 7:0.0 8:1.0 9:0.3214285671710968 10:0.2142857164144516 11:0.0 12:1.0 13:0.3214285671710968 14:0.3571428656578064 15:0.0 16:1.0 17:0.3214285671710968 18:0.5357142686843872 19:0.0 20:1.0 21:0.3214285671710968 22:0.6785714030265808 23:0.0 24:1.0 25:0.3214285671710968 26:0.7857142686843872 27:0.0 28:1.0 29:0.3214285671710968 30:0.8928571343421936 31:0.0 32:1.0 33:0.3214285671710968 34:0.9642857313156128 35:0.7071070671081543 36:0.7071064710617065 37:0.3571428656578064 38:0.9285714030265808 39:0.5547001361846924 40:-0.8320503234863281 41:0.3928571343421936 42:0.8571428656578064 43:0.4472135603427887 44:-0.8944271206855774 45:0.4285714328289032 46:0.7857142686843872 47:0.24253572523593903 48:-0.9701424837112427 49:0.4285714328289032 50:0.7142857313156128 51:0.5547001361846924 52:-0.8320503234863281 53:0.5 54:0.6785714030265808 55:0.8944272398948669 56:0.44721344113349915 57:0.5 58:0.75 59:0.0 60:1.0 61:0.5 62:0.8214285969734192 63:0.0 64:1.0 65:0.5 66:0.8928571343421936 67:0.5547001361846924 68:0.8320502638816833 69:0.5714285373687744 70:0.9285714030265808 71:0.8320502042770386 72:0.5547003149986267 73:0.6071428656578064 74:0.9642857313156128 75:0.8320503830909729 76:0.5547000765800476 77:0.6785714626312256 78:1.0 79:0.8944273591041565 80:0.4472132921218872 
-0.0 0.9234451919335775 5.053257260438209 0.0 0.0 0.0 0.0 0.0 0.0 5.557016494222271 0.0 0.0 0.0 0.0 0.0 8.13710006409663 0.0 3.2129015049624985 0.0 0.0 4.062422600314781 1:0.4674875736236572 2:0.0 3:0.0 4:1.0 5:0.4674875736236572 6:0.029040401801466942 7:-0.09736325591802597 8:0.9952489137649536 9:0.4561237096786499 10:0.11616161465644836 11:-0.13911136984825134 12:0.9902767539024353 13:0.43023982644081116 14:0.294191837310791 15:-0.18884733319282532 16:0.9820064306259155 17:0.374053031206131 18:0.5429292917251587 19:-0.2467328906059265 20:0.9690834879875183 21:0.33428096771240234 22:0.6710858345031738 23:-0.3367707133293152 24:0.9415867328643799 25:0.28125032782554626 26:0.8023989796638489 27:-0.33813539147377014 28:0.9410974383354187 29:0.2440025806427002 30:0.9223483800888062 31:-0.26207420229911804 32:0.9650476574897766 33:0.22758859395980835 34:1.0 35:0.03123539686203003 36:0.9995120763778687 37:0.24589656293392181 38:0.9829545617103577 39:0.5940966010093689 40:-0.8043936491012573 41:0.2989271879196167 42:0.9034091234207153 43:0.5765829682350159 44:-0.8170385956764221 45:0.38667982816696167 46:0.7834596633911133 47:0.6362646222114563 48:-0.771470844745636 49:0.5009473562240601 50:0.6584596633911133 51:0.7213049530982971 52:-0.6926175355911255 53:0.608901858329773 54:0.5700757503509521 55:0.855789065361023 56:-0.5173248648643494 57:0.6972863078117371 58:0.5397726893424988 59:0.9974156022071838 60:0.07184772938489914 61:0.7578913569450378 62:0.5808080434799194 63:0.5348321795463562 64:0.8449583649635315 65:0.7724114060401917 66:0.6584596037864685 67:-0.018630575388669968 68:0.9998264312744141 69:0.754103422164917 70:0.7840909361839294 71:-0.23956763744354248 72:0.9708797931671143 73:0.7124366760253906 74:0.9015151858329773 75:-0.36418846249580383 76:0.9313252568244934 77:0.6714017391204834 78:0.995580792427063 79:-0.39984726905822754 80:0.9165818095207214 
-0.0 0.0 0.0 0.0 0.0 1.574772479607917 0.0 36.46434253236427 0.0 0.0 0.0 0.0 0.0 0.0 0.0 1.1793777991983734 0.0 0.0 0.0 0.0 0.0 1:0.4861111342906952 2:0.0 3:-0.3497563302516937 4:0.9368407130241394 5:0.4451751708984375 6:0.10964912921190262 7:-0.29014867544174194 8:0.9569815397262573 9:0.4027777910232544 10:0.27485382556915283 11:-0.2842319905757904 12:0.9587555527687073 13:0.347222238779068 14:0.44005849957466125 15:-0.25678887963294983 16:0.966467559337616 17:0.3223690688610077 18:0.5774853825569153 19:-0.09697658568620682 20:0.9952866435050964 21:0.319444477558136 22:0.7251462340354919 23:-0.010472830384969711 24:0.9999451637268066 25:0.319444477558136 26:0.8567251563072205 27:0.0 28:1.0 29:0.319444477558136 30:0.9254385828971863 31:-0.5900170207023621 32:0.8073908090591431 33:0.2916666865348816 34:0.8947368264198303 35:-0.20164617896080017 36:-0.9794583916664124 37:0.2989773452281952 38:0.8260233402252197 39:0.25148749351501465 40:-0.9678605794906616 41:0.3399115800857544 42:0.709064245223999 43:0.3958258330821991 44:-0.9183256030082703 45:0.4086253046989441 46:0.5716373920440674 47:0.620001494884491 48:-0.7846006751060486 49:0.5051168203353882 50:0.5 51:0.9443041086196899 52:-0.32907411456108093 53:0.6016082763671875 54:0.5043860673904419 55:0.9144781827926636 56:0.4046352505683899 57:0.6703220009803772 58:0.5730994343757629 59:0.5426347255706787 60:0.839968740940094 61:0.7083333730697632 62:0.6695906519889832 63:0.19325484335422516 64:0.9811485409736633 65:0.7083333730697632 66:0.7660819292068481 67:-0.008768687956035137 68:0.9999615550041199 69:0.7068718671798706 70:0.8362575173377991 71:-0.1658141314983368 72:0.9861570596694946 73:0.6805555820465088 74:0.9312865734100342 75:-0.1586812138557434 76:0.98732990026474 77:0.6805555820465088 78:1.0 79:0.0 80:1.0 
-0.0 0.0 0.0 0.0 2.026833312220934 0.0 13.616992415890163 35.25588913624686 11.96807806969472 0.0 0.0 0.0 5.938394134445012 5.53682976244397 4.292414447850139 5.865709423034197 0.0 0.0 17.77933112818878 0.0 8.424884561537933 1:0.604039192199707 2:0.0 3:-0.268155574798584 4:0.9633756279945374 5:0.5875153541564941 6:0.059363532811403275 7:-0.2888624966144562 8:0.9573705792427063 9:0.561199426651001 10:0.14198288321495056 11:-0.29787471890449524 12:0.9546050429344177 13:0.5097918510437012 14:0.3084455728530884 15:-0.3309776782989502 16:0.9436386227607727 17:0.41738057136535645 18:0.5520196557044983 19:-0.3923403024673462 20:0.9198201298713684 21:0.3445531725883484 22:0.6958385109901428 23:-0.4072171747684479 24:0.9133313894271851 25:0.28886178135871887 26:0.8402693867683411 27:-0.35159623622894287 28:0.9361516833305359 29:0.244797945022583 30:0.9614443778991699 31:-0.22989368438720703 32:0.9732157588005066 33:0.2521420419216156 34:0.9957161545753479 35:0.9810441136360168 36:-0.19378462433815002 37:0.2943696677684784 38:0.9516525268554688 39:0.5729753375053406 40:-0.8195725679397583 41:0.3488371670246124 42:0.8574053645133972 43:0.5702146887779236 44:-0.8214956521987915 45:0.43880051374435425 46:0.7435742020606995 47:0.6534122228622437 48:-0.7570022940635681 49:0.5495715737342834 50:0.6248471140861511 51:0.7318560481071472 52:-0.6814591884613037 53:0.643206775188446 54:0.5532436966896057 55:0.9114471077919006 56:-0.41141727566719055 57:0.7258262634277344 58:0.5452876687049866 59:0.963291585445404 60:0.26845723390579224 61:0.755202054977417 62:0.5844553709030151 63:0.09950438886880875 64:0.9950370788574219 65:0.7380662560462952 66:0.6676867604255676 67:-0.2544938623905182 68:0.9670743942260742 69:0.7031823396682739 70:0.7821298241615295 71:-0.3405538499355316 72:0.9402250051498413 73:0.6536109447479248 74:0.9008569121360779 75:-0.41418808698654175 76:0.9101912975311279 77:0.604039192199707 78:1.0 79:-0.44721508026123047 80:0.8944264054298401 
-0.0 3.7093710016500276 0.0 3.088894530577325 0.0 0.0 0.0 0.0 0.0 0.0 0.0 0.5552471740543956 18.43986921032316 0.0 0.0 0.0 0.0 0.0 17.469395643619965 0.0 0.0 1:0.19999998807907104 2:0.0 3:0.0 4:1.0 5:0.19999998807907104 6:0.0884210467338562 7:0.0 8:1.0 9:0.19999998807907104 10:0.1768420934677124 11:0.0 12:1.0 13:0.19999998807907104 14:0.30526313185691833 15:0.0 16:1.0 17:0.19999998807907104 18:0.46736839413642883 19:0.22971318662166595 20:0.973258376121521 21:0.2800000011920929 22:0.6442105174064636 23:0.22704078257083893 24:0.9738852381706238 25:0.2800000011920929 26:0.8105262517929077 27:0.07417677342891693 28:0.997245192527771 29:0.2989477515220642 30:0.8989472985267639 31:0.2206171452999115 32:0.9753604531288147 33:0.3199999928474426 34:0.9873684048652649 35:0.9240151643753052 36:0.3823557198047638 37:0.36000001430511475 38:0.9242106080055237 39:0.28735336661338806 40:-0.9578246474266052 41:0.36421144008636475 42:0.8399999737739563 43:0.2852545976638794 44:-0.9584517478942871 45:0.4126318097114563 46:0.7473684549331665 47:0.47165679931640625 48:-0.8817821741104126 49:0.4610546827316284 50:0.6589474678039551 51:0.5491729378700256 52:-0.835708737373352 53:0.509472668170929 54:0.6000000238418579 55:0.8510304689407349 56:-0.5251162648200989 57:0.5600000023841858 58:0.5978946685791016 59:0.7237416505813599 60:0.6900709867477417 61:0.6000000238418579 62:0.6863157749176025 63:0.41216781735420227 64:0.9111079573631287 65:0.6399999856948853 66:0.774736762046814 67:0.5038756728172302 68:0.8637762069702148 69:0.7031591534614563 70:0.8631578087806702 71:0.5615014433860779 72:0.8274757266044617 73:0.7599999904632568 74:0.9515788555145264 75:0.5776637196540833 76:0.8162749409675598 77:0.800000011920929 78:1.0 79:0.6368809342384338 80:0.7709621787071228 
-4.62110730352909 0.0 0.0 0.0 3.35586782577023 8.376444977051309 22.975077921040086 0.0 5.400656853810933 0.0 0.0 0.0 0.0 1.5418954762691408 0.9675767374339614 8.341151890712926 0.0 0.0 0.0 0.0 0.0 1:0.5710526704788208 2:0.0 3:-0.045408107340335846 4:0.9989684820175171 5:0.5657894611358643 6:0.11578946560621262 7:-0.12244845181703568 8:0.9924748539924622 9:0.5424811840057373 10:0.23157893121242523 11:-0.2894594967365265 12:0.9571903347969055 13:0.4996240735054016 14:0.3345864713191986 15:-0.3037313222885132 16:0.952757716178894 17:0.4710526466369629 18:0.4556390941143036 19:-0.2583617568016052 20:0.9660481810569763 21:0.4304511249065399 22:0.5932331085205078 23:-0.2679230272769928 24:0.9634402990341187 25:0.39661654829978943 26:0.723308265209198 27:-0.3336206078529358 28:0.9427074193954468 29:0.3484962284564972 30:0.8248119950294495 31:-0.35396891832351685 32:0.9352571964263916 33:0.3146616518497467 34:0.9398496150970459 35:-0.9284773468971252 36:0.3713890016078949 37:0.3372180759906769 38:0.8293232321739197 39:0.30620551109313965 40:-0.9519654512405396 41:0.3906015455722809 42:0.7037593126296997 43:0.4666960537433624 44:-0.884417712688446 45:0.45902255177497864 46:0.5984962582588196 47:0.6416510343551636 48:-0.7669967412948608 49:0.5522556304931641 50:0.5105262994766235 51:0.8476454019546509 52:-0.530563235282898 53:0.6620301008224487 54:0.4714285731315613 55:0.928114652633667 56:0.372294545173645 57:0.6853383779525757 58:0.5639097690582275 59:0.04646126553416252 60:0.9989201426506042 61:0.6710526347160339 62:0.6654136180877686 63:-0.1926203966140747 64:0.981273353099823 65:0.6454887390136719 66:0.7669172883033752 67:-0.2873479723930359 68:0.9578262567520142 69:0.6101503968238831 70:0.8684210181236267 71:-0.2729182839393616 72:0.962037205696106 73:0.5853383541107178 74:0.9789474606513977 75:0.13587114214897156 76:0.9907265901565552 77:0.6281955242156982 78:1.0 79:0.8975551724433899 80:0.44090208411216736 
-0.0 0.0 32.33630769854473 0.0 0.0 0.0 0.0 14.675050762562273 0.0 6.791163761135837 0.0 2.733661165687707 13.871849551442338 0.0 0.0 0.0 0.6604744156502844 0.0 11.569942390722712 0.0 0.0 1:0.20628702640533447 2:0.0 3:-0.06251485645771027 4:0.9980440735816956 5:0.1971144676208496 6:0.1464390903711319 7:-0.05949835106730461 8:0.9982283711433411 9:0.18794190883636475 10:0.3077836036682129 11:-0.035535868257284164 12:0.9993683695793152 13:0.18450219929218292 14:0.5011314749717712 15:-0.021183643490076065 16:0.9997755885124207 17:0.1804891973733902 18:0.6595190763473511 19:-0.04953809455037117 20:0.9987722635269165 21:0.17131663858890533 22:0.7669748067855835 23:-0.06727626919746399 24:0.9977344274520874 25:0.16329064965248108 26:0.9145805239677429 27:0.006547071039676666 28:0.9999785423278809 29:0.17246320843696594 30:0.9420982003211975 31:0.7524872422218323 32:-0.6586068272590637 33:0.17360977828502655 34:0.9055488109588623 35:0.07832112163305283 36:-0.9969281554222107 37:0.1799159198999405 38:0.8472346663475037 39:0.27585867047309875 40:-0.9611982107162476 41:0.20743361115455627 42:0.7876935005187988 43:0.5663256645202637 44:-0.8241814970970154 45:0.27039432525634766 46:0.7155601978302002 47:0.6924524307250977 48:-0.7214635610580444 49:0.37211716175079346 50:0.6161103248596191 51:0.8576295971870422 52:-0.5142679214477539 53:0.48186612129211426 54:0.5887535214424133 55:0.993257462978363 56:-0.115929014980793 57:0.5487694144248962 58:0.5954921841621399 59:0.9087716341018677 60:0.4172937273979187 61:0.6060577630996704 62:0.6457803845405579 63:0.6846123337745667 64:0.7289073467254639 65:0.661002516746521 66:0.7149868607521057 67:0.6106210350990295 68:0.791922926902771 69:0.7158769369125366 70:0.7882063984870911 71:0.5796149969100952 72:0.8148905038833618 73:0.7725014686584473 74:0.8717451095581055 75:0.49554380774497986 76:0.8685829639434814 77:0.8367093801498413 78:1.0 79:0.4476623237133026 80:0.8942025899887085 
-0.0 -2.2368177729670404 25.49443935534332 5.104620361184489 0.0 0.6196792254154244 0.0 0.0 0.0 0.0 0.0 0.0 0.0 0.0 0.0 0.0 0.0 0.2013696245374329 6.836559723783492 0.0 7.912206327699941 1:0.07871398329734802 2:0.0731707289814949 3:0.0 4:1.0 5:0.07871398329734802 6:0.16629712283611298 7:0.0 8:1.0 9:0.07871398329734802 10:0.25942349433898926 11:0.04540419578552246 12:0.9989686608314514 13:0.08758248388767242 14:0.36141905188560486 15:0.17378336191177368 16:0.984783947467804 17:0.11862482130527496 18:0.48558756709098816 19:0.31166359782218933 20:0.9501925110816956 21:0.1784917116165161 22:0.6385809183120728 23:0.33770275115966797 24:0.9412528872489929 25:0.22283807396888733 26:0.7760531306266785 27:0.2835228443145752 28:0.9589654803276062 29:0.25388041138648987 30:0.8935697674751282 31:0.2827145755290985 32:0.9592040777206421 33:0.28492271900177 34:0.9866961240768433 35:0.7348037362098694 36:0.6782797574996948 37:0.36917993426322937 38:1.0 39:0.9751328229904175 40:-0.22162139415740967 41:0.4312633275985718 42:0.9534368515014648 43:0.5605626106262207 44:-0.828112006187439 45:0.4667398929595947 46:0.8558759093284607 47:0.402739554643631 48:-0.9153145551681519 49:0.5288245677947998 50:0.7317073941230774 51:0.4783540666103363 52:-0.8781670331954956 53:0.6152995824813843 54:0.5831485986709595 55:0.48019903898239136 56:-0.8771595358848572 57:0.695122480392456 58:0.42793795466423035 59:0.4182277023792267 60:-0.9083422422409058 61:0.7572058439254761 62:0.27494460344314575 63:0.408844918012619 64:-0.9126038551330566 65:0.8192905187606812 66:0.15077607333660126 67:0.4812573790550232 68:-0.8765794038772583 69:0.8813738822937012 70:0.04878050088882446 71:0.5603089928627014 72:-0.8282837271690369 73:0.9212859869003296 74:0.0 75:0.9138144850730896 76:-0.40613195300102234 77:0.9212859869003296 78:0.031042128801345825 79:0.0 80:1.0 
-1.4051006498367644 -0.0 1.4411878185526958 0.0 0.0 0.0 0.0 0.0 0.0 0.0 6.92349782212309 0.0 0.0 0.0 0.0 0.0 0.0 0.0 0.0 0.0 0.0 1:0.03836542367935181 2:0.0 3:0.7889048457145691 4:0.6145153641700745 5:0.05520044267177582 6:0.013113593682646751 7:0.4382685720920563 8:0.8988440632820129 9:0.07310079783201218 10:0.07123870402574539 11:0.4310437738895416 12:0.9023310542106628 13:0.13105008006095886 14:0.1718944013118744 15:0.45486727356910706 16:0.890559196472168 17:0.20760338008403778 18:0.33457380533218384 19:0.38750067353248596 20:0.9218694567680359 21:0.29284051060676575 22:0.5567960739135742 23:0.3385951817035675 24:0.9409321546554565 25:0.36230799555778503 26:0.7644870281219482 27:0.3238876163959503 28:0.9460955858230591 29:0.4163575768470764 30:0.9175969958305359 31:0.38743388652801514 32:0.9218975305557251 33:0.45711344480514526 34:0.9900762438774109 35:0.555931031703949 36:0.8312283754348755 37:0.4714692533016205 38:1.0 39:0.9602179527282715 40:0.2792516052722931 41:0.46686264872550964 42:0.9929115176200867 43:-0.2548425495624542 44:-0.9669825434684753 45:0.46366989612579346 46:0.9704058766365051 47:0.11525966972112656 48:-0.9933353662490845 49:0.4783775210380554 50:0.8936735987663269 51:0.28386369347572327 52:-0.9588646292686462 53:0.5349129438400269 54:0.7297536134719849 55:0.3831668794155121 56:-0.9236791729927063 57:0.6410590410232544 58:0.5015062689781189 59:0.47271472215652466 60:-0.881215512752533 61:0.7592592239379883 62:0.31153643131256104 63:0.5838756561279297 64:-0.8118430376052856 65:0.8820661306381226 66:0.16640079021453857 67:0.683683454990387 68:-0.7297787070274353 69:0.9616345763206482 70:0.09551654011011124 71:0.8389158844947815 72:-0.54426109790802 73:0.9612794518470764 74:0.11500978469848633 75:-0.7014556527137756 76:0.7127130627632141 77:0.8733822703361511 78:0.18518517911434174 79:-0.7814857959747314 80:0.6239230036735535 
-0.0 -0.0 0.0 0.0 0.03152895606776401 0.0 0.0 0.0 0.0 0.0 0.0 0.0 0.0 0.6627224644614552 0.0 0.0 0.0 0.0 0.0 1.5474160078524761 0.0 1:0.0 2:0.15789474546909332 3:1.0 4:0.0 5:0.0827069953083992 6:0.15789474546909332 7:0.9877629280090332 8:0.15596258640289307 9:0.1428571492433548 10:0.1804511398077011 11:0.4961375296115875 12:0.8682438731193542 13:0.1428571492433548 14:0.2631579041481018 15:0.0 16:1.0 17:0.1428571492433548 18:0.3909774422645569 19:0.0 20:1.0 21:0.1428571492433548 22:0.5563909411430359 23:0.2490457445383072 24:0.9684917330741882 25:0.2105276882648468 26:0.6541353464126587 27:0.6207029223442078 28:0.7840458750724792 29:0.2857142984867096 30:0.7368420958518982 31:0.41379669308662415 32:0.910369336605072 33:0.2857142984867096 34:0.8195489048957825 35:0.17887206375598907 36:0.9838723540306091 37:0.3157871663570404 38:0.902255654335022 39:0.5633446574211121 40:0.8262220025062561 41:0.39849853515625 42:0.9849624037742615 43:0.9397938251495361 44:0.3417419493198395 45:0.481201171875 46:0.9624059796333313 47:0.8436620831489563 48:-0.536874532699585 49:0.5639125108718872 50:0.8796992301940918 51:0.7071077823638916 52:-0.7071057558059692 53:0.6466151475906372 54:0.7969924807548523 55:0.6757162809371948 56:-0.7371618151664734 57:0.7293221354484558 58:0.6992482542991638 59:0.5321826934814453 60:-0.8466296195983887 61:0.8120335340499878 62:0.5338345170021057 63:0.36040207743644714 64:-0.9327970743179321 65:0.8571428656578064 66:0.3684210777282715 67:0.13510313630104065 68:-0.9908315539360046 69:0.8571428656578064 70:0.20300762355327606 71:0.2169296145439148 72:-0.9761872291564941 73:0.9172930121421814 74:0.09774432331323624 75:0.6050830483436584 76:-0.7961623668670654 77:1.0 78:0.015037596225738525 79:0.7071079015731812 80:-0.7071056365966797 
-0.0 -0.0 0.0 1.3700569421902058 0.549854184597843 0.0 0.0 0.0 0.0 2.1766142182568355 0.0 16.165539055936566 0.0 2.0151149481894657 0.0 0.0 0.0 13.204547878199635 0.0 0.0 2.4121119636404034 1:0.06185567378997803 2:0.010309278033673763 3:0.0 4:1.0 5:0.06185567378997803 6:0.05154639109969139 7:0.09053575247526169 8:0.9958931803703308 9:0.07216495275497437 10:0.12371134012937546 11:0.22162112593650818 12:0.9751328825950623 13:0.11340206861495972 14:0.27835050225257874 15:0.29221856594085693 16:0.9563515782356262 17:0.18556702136993408 18:0.49484536051750183 19:0.4008188545703888 20:0.9161573052406311 21:0.25773197412490845 22:0.6082473993301392 23:0.47885215282440186 24:0.8778955340385437 25:0.30927836894989014 26:0.7216494679450989 27:0.41380295157432556 28:0.9103664755821228 29:0.3608247637748718 30:0.8350515365600586 31:0.5646838545799255 32:0.825307309627533 33:0.44329896569252014 34:0.9175257682800293 35:0.668964684009552 36:0.7432942986488342 37:0.4536082446575165 38:0.938144326210022 39:0.7071068286895752 40:0.7071068286895752 41:0.4845360815525055 42:0.9587628841400146 43:0.7808690071105957 44:0.62469482421875 45:0.5051546692848206 46:0.9793814420700073 47:0.8320504426956177 48:0.5547000169754028 49:0.5463917851448059 50:1.0 51:0.9938837289810181 52:0.11043152213096619 53:0.5979381799697876 54:0.9896907210350037 55:0.8741572499275208 56:-0.4856429398059845 57:0.639175295829773 58:0.9484536051750183 59:0.47058823704719543 60:-0.8823529481887817 61:0.6804124116897583 62:0.8350515365600586 63:0.25589239597320557 64:-0.9667052626609802 65:0.7319587469100952 66:0.5979381203651428 67:0.20094400644302368 68:-0.9796026945114136 69:0.7628865838050842 70:0.4329896867275238 71:0.24253566563129425 72:-0.9701425433158875 73:0.8247422575950623 74:0.22680412232875824 75:0.375192791223526 76:-0.9269468784332275 77:0.938144326210022 78:0.0 79:0.44721364974975586 80:-0.8944272398948669 
-15.03031025165591 -0.0 0.0 0.7284820337458041 0.0 0.0 0.0 0.0 0.0 0.0 0.0 0.0 0.0 0.0 0.0 0.0 0.0 0.0 0.0 0.0 2.347127254069786 1:0.1288371980190277 2:0.1474418193101883 3:0.995701253414154 4:0.09262347221374512 5:0.16883724927902222 6:0.1511627584695816 7:0.8859221935272217 8:0.46383383870124817 9:0.2176743745803833 10:0.19395345449447632 11:0.6215314865112305 12:0.7833892107009888 13:0.2581394910812378 14:0.26372087001800537 15:0.37361085414886475 16:0.9275856018066406 17:0.2851162254810333 18:0.36139529943466187 19:0.24633437395095825 20:0.9691848754882812 21:0.31488364934921265 22:0.486976683139801 23:0.2980843484401703 24:0.9545394778251648 25:0.36790692806243896 26:0.6265115141868591 27:0.38173240423202515 28:0.9242728352546692 29:0.43302324414253235 30:0.7730231881141663 31:0.4526740610599518 32:0.8916760087013245 33:0.5065116882324219 34:0.8995347619056702 35:0.5472494959831238 36:0.8369695544242859 37:0.5595349073410034 38:0.9665115475654602 39:0.6757240295410156 40:0.7371546626091003 41:0.598604679107666 42:1.0 43:0.6997805237770081 44:-0.7143579721450806 45:0.6265116930007935 46:0.8981395363807678 47:0.1861417293548584 48:-0.9825229048728943 49:0.6437208652496338 50:0.7618605494499207 51:0.09351897984743118 52:-0.9956174492835999 53:0.6567442417144775 54:0.5762791633605957 55:0.10238264501094818 56:-0.994745135307312 57:0.6846508979797363 58:0.36418619751930237 59:0.14893744885921478 60:-0.9888466000556946 61:0.7134884595870972 62:0.19953489303588867 63:0.21764050424098969 64:-0.9760289788246155 65:0.7451163530349731 66:0.09302327781915665 67:0.35740411281585693 68:-0.9339498281478882 69:0.7772091627120972 70:0.03302326425909996 71:0.5974299907684326 72:-0.8019210696220398 73:0.8144185543060303 74:0.0 75:0.9836354851722717 76:0.18017011880874634 77:0.8711627721786499 78:0.05023251846432686 79:0.7487626671791077 80:0.6628382205963135 
-24.328151147587675 -11.41913102580018 3.0110196073176554 13.725499507623855 13.906521652760983 16.228323705621275 13.840039599437906 8.288285017273509 40.61192262459093 7.7234629393633405 22.721940363770475 6.149478439523514 14.174626277729093 6.762089081110807 9.785388318477754 19.040368228093744 7.732635562871137 3.563437730443534 6.258318701431124 10.315604691255626 1.565857534327134 1:0.17625901103019714 2:0.14388488233089447 3:0.0 4:1.0 5:0.17625901103019714 6:0.20683452486991882 7:0.4190581738948822 8:0.9079593420028687 9:0.2841726839542389 10:0.37769782543182373 11:0.5734623074531555 12:0.8192319273948669 13:0.3651078939437866 14:0.4766186773777008 15:0.6726727485656738 16:0.7399400472640991 17:0.4640287756919861 18:0.5755395293235779 19:0.7071068286895752 20:0.7071067094802856 21:0.5629496574401855 22:0.6744604110717773 23:0.6246950626373291 24:0.7808688282966614 25:0.6079136729240417 26:0.7553956508636475 27:0.2216210663318634 28:0.9751328229904175 29:0.6079136729240417 30:0.8723021149635315 31:0.0 32:1.0 33:0.6079136729240417 34:0.935251772403717 35:0.0 36:1.0 37:0.8237409591674805 38:0.0 39:0.0 40:1.0 41:0.8237409591674805 42:0.12949639558792114 43:0.0 44:1.0 45:0.8237409591674805 46:0.2589927911758423 47:-0.19087280333042145 48:0.9816148281097412 49:0.7733803987503052 50:0.38848915696144104 51:-0.40613633394241333 52:0.913812518119812 53:0.7086337804794312 54:0.5179855823516846 55:-0.4472110867500305 56:0.8944284319877625 57:0.6438848972320557 58:0.6474819779396057 59:-0.36244848370552063 60:0.9320037961006165 61:0.6079136729240417 62:0.7769783139228821 63:-0.14980542659759521 64:0.9887155294418335 65:0.6079136729240417 66:0.8848919868469238 67:0.0 68:1.0 69:0.6079136729240417 70:0.9496402144432068 71:0.0 72:1.0 73:0.6079136729240417 74:1.0 75:0.0 76:-1.0 77:0.6079136729240417 78:0.935251772403717 79:0.0 80:-1.0 
-0.0 -9.399286996972643 0.0 0.0 0.0 0.0 15.813840823418229 13.965248624785717 10.05581439130631 4.974281629400285 0.0 0.0 10.59441887268834 2.1171853066591444 4.322958476448838 14.827102800960986 0.0 0.0 6.270379762580613 0.0 18.03160876688476 1:0.0 2:0.24994856119155884 3:0.5948743224143982 4:0.8038186430931091 5:0.02487659454345703 6:0.2835628390312195 7:0.44186699390411377 8:0.8970805406570435 9:0.0646587610244751 10:0.3812190890312195 11:0.33008840680122375 12:0.9439499974250793 13:0.111328125 14:0.5307872891426086 15:0.36304971575737 16:0.9317697286605835 17:0.1720806360244751 18:0.6569181084632874 19:0.4667913317680359 20:0.8843674659729004 21:0.2380756139755249 22:0.7709189057350159 23:0.5373354554176331 24:0.843368649482727 25:0.29625821113586426 26:0.8518195748329163 27:0.6468222737312317 28:0.7626407146453857 29:0.33624589443206787 30:0.8866673111915588 31:0.9897323846817017 32:0.14293250441551208 33:0.3809621334075928 34:0.8640521168708801 35:0.6964564323425293 36:-0.7175990343093872 37:0.45137739181518555 38:0.7680407166481018 39:0.5482504963874817 40:-0.8363142609596252 41:0.5386512279510498 42:0.6235094666481018 43:0.5664525628089905 44:-0.8240944147109985 45:0.6778371334075928 46:0.43857938051223755 47:0.6710140705108643 48:-0.7414445877075195 49:0.861842155456543 50:0.2663959860801697 51:0.7319714426994324 52:-0.6813353300094604 53:0.9616570472717285 54:0.17439347505569458 55:0.7051388621330261 56:-0.7090693116188049 57:0.9909539222717285 58:0.13656455278396606 59:0.5669161677360535 60:-0.8237754702568054 61:1.0 62:0.1186780333518982 63:0.2842370867729187 64:-0.9587540626525879 65:0.9978413581848145 66:0.11333268880844116 67:-0.9999409317970276 68:0.010865086689591408 69:0.9905428886413574 70:0.11878079175949097 71:-0.805833101272583 72:0.5921427011489868 73:0.9656662940979004 74:0.13697558641433716 75:-0.8241863250732422 76:0.566318690776825 77:0.921875 78:0.16596418619155884 79:-0.8338527679443359 80:0.5519869923591614 
-0.0 -0.0 5.942731505788263 0.0 0.0 0.0 0.0 0.0 0.0 1.7411488824710555 0.0 0.0 0.0 0.0 0.0 0.0 0.0 0.0 0.0 0.0 2.7585408192985437 1:0.06360030174255371 2:0.20555981993675232 3:0.05989309027791023 4:0.9982048273086548 5:0.06377812474966049 6:0.20852349698543549 7:0.26597583293914795 8:0.9639796614646912 9:0.07432875782251358 10:0.2444431036710739 11:0.32723870873451233 12:0.9449416399002075 13:0.11072264611721039 14:0.3440815210342407 15:0.441169798374176 16:0.8974236249923706 17:0.20087730884552002 18:0.5018670558929443 19:0.48494744300842285 20:0.8745432496070862 21:0.289787232875824 22:0.6670025587081909 23:0.4688877761363983 24:0.8832577466964722 25:0.36044102907180786 26:0.8024419546127319 27:0.417633980512619 28:0.9086153507232666 29:0.40554800629615784 30:0.9188547134399414 31:0.3031121790409088 32:0.952954888343811 33:0.4172841012477875 34:0.9811509847640991 35:0.20106643438339233 36:0.9795776009559631 37:0.42220374941825867 38:1.0 39:0.6552526950836182 40:0.7554097771644592 41:0.4265900254249573 42:0.9918793439865112 43:0.39052191376686096 44:-0.9205936789512634 45:0.46499913930892944 46:0.8991166353225708 47:0.3791864216327667 48:-0.9253203868865967 49:0.5625630021095276 50:0.6600674390792847 51:0.43785104155540466 52:-0.8990475535392761 53:0.7329145669937134 54:0.3490009903907776 55:0.5029164552688599 56:-0.8643350005149841 57:0.8810977339744568 58:0.11261922866106033 59:0.511264979839325 60:-0.8594231605529785 61:0.9276272654533386 62:0.021693989634513855 63:0.4335019886493683 64:-0.9011526107788086 65:0.9352735280990601 66:0.0 67:0.3961796164512634 68:-0.9181729555130005 69:0.9363996982574463 70:0.001363285118713975 71:-0.2747285068035126 72:0.9615218043327332 73:0.9333767294883728 74:0.006638601887971163 75:-0.6523125171661377 76:0.7579501271247864 77:0.8924781680107117 78:0.05239760875701904 79:-0.6663992404937744 80:0.7455950975418091 
-0.0 -7.2425449779324955 30.818533781330164 3.4800114022893918 5.191003814736622 7.823243488234124 0.0 1.0485788202989828 0.0 0.0 7.051014618893527 0.0 7.706783203294862 0.0 0.0 0.0 3.797779583033267 3.158085272857889 2.5601013465950437 4.768040448086879 0.0 1:0.0 2:0.19635626673698425 3:1.0 4:0.0 5:0.06072998046875 6:0.19635626673698425 7:0.865426242351532 8:0.5010362863540649 9:0.07692307978868484 10:0.24089068174362183 11:0.15204589068889618 12:0.9883733987808228 13:0.07692307978868484 14:0.30161941051483154 15:0.08304715156555176 16:0.996545672416687 17:0.08906907588243484 18:0.38663968443870544 19:0.26311445236206055 20:0.9647646546363831 21:0.14979670941829681 22:0.5688259601593018 23:0.3671668469905853 24:0.9301550984382629 25:0.21052668988704681 26:0.6943320035934448 27:0.5070207118988037 28:0.8619338870048523 29:0.2712543308734894 30:0.7753036022186279 31:0.5655269622802734 32:0.8247298002243042 33:0.3076923191547394 34:0.8360323905944824 35:0.32711631059646606 36:0.9449841380119324 37:0.3076923191547394 38:0.8805668354034424 39:0.0 40:-1.0 41:0.3076923191547394 42:0.8198380470275879 43:0.6074461936950684 44:-0.7943608164787292 45:0.36032339930534363 46:0.8117408752441406 47:0.8137350678443909 48:-0.5812360048294067 49:0.42105337977409363 50:0.7388663291931152 51:0.5510608553886414 52:-0.8344650864601135 53:0.5020235776901245 54:0.5971659421920776 55:0.5347949862480164 56:-0.8449819087982178 57:0.6234811544418335 58:0.41902822256088257 59:0.6298022866249084 60:-0.7767554521560669 61:0.7449387907981873 62:0.29757076501846313 63:0.8000026345252991 64:-0.5999965071678162 65:0.8178147673606873 66:0.2732793390750885 67:0.8320509791374207 68:-0.5546991229057312 69:0.8785423636436462 70:0.20850196480751038 71:0.6196445822715759 72:-0.7848825454711914 73:0.9392723441123962 74:0.11943319439888 75:0.8064054846763611 76:-0.5913629531860352 77:1.0 78:0.11943319439888 79:1.0 80:0.0 
-0.0 -0.0 0.0 0.0 0.0 0.0 0.0 0.0 0.0 0.027419835352048075 0.0 0.0 0.0 0.0 0.0 0.0 0.0 0.0 0.0 0.0 0.0 1:0.0 2:0.20820537209510803 3:0.5146434903144836 4:0.8574042916297913 5:0.07898242771625519 6:0.33979135751724243 7:0.5195854306221008 8:0.8544184565544128 9:0.14837253093719482 10:0.45219263434410095 11:0.5461151003837585 12:0.8377100825309753 13:0.19218310713768005 14:0.513434886932373 15:0.5756428241729736 16:0.8177013397216797 17:0.23128163814544678 18:0.569965124130249 19:0.5626180171966553 20:0.826716959476471 21:0.26645350456237793 22:0.6225686073303223 23:0.5298182964324951 24:0.8481112122535706 25:0.3014991581439972 26:0.6823664307594299 27:0.5123175382614136 28:0.8587960600852966 29:0.3373301327228546 30:0.7413788437843323 31:0.6464208364486694 32:0.7629809975624084 33:0.38129496574401855 34:0.7765507102012634 35:0.7515857219696045 36:0.6596354246139526 37:0.42834505438804626 38:0.8212588429450989 39:0.6840373873710632 40:0.7294468283653259 41:0.4807943105697632 42:0.8826552629470825 43:0.9665408134460449 44:0.2565127909183502 45:0.5333417654037476 46:0.8491241931915283 47:0.6549971103668213 48:-0.7556313276290894 49:0.5859453082084656 50:0.7613487839698792 51:0.5598111152648926 52:-0.8286203145980835 53:0.6465424299240112 54:0.6815670132637024 55:0.569489598274231 56:-0.8219985961914062 57:0.7047414183616638 58:0.589879035949707 59:0.3904120922088623 60:-0.920640230178833 61:0.7485520839691162 62:0.4410155713558197 63:0.3385262191295624 64:-0.9409568905830383 65:0.8004263043403625 66:0.32391631603240967 67:0.500718891620636 68:-0.8656100034713745 69:0.8619770407676697 70:0.24493393301963806 71:0.6653391718864441 72:-0.7465412020683289 73:0.9298105835914612 74:0.1787412017583847 75:0.7343169450759888 76:-0.678806722164154 77:1.0 78:0.11734473705291748 79:0.7526791095733643 80:-0.6583875417709351 
-0.0 -0.0 0.0 0.0 0.0 0.0 0.0 0.0 0.0 0.0 0.0 0.0 0.0 0.0 0.0 0.0 0.0 0.0 0.0 0.0 2.6173739711101134 1:0.0980769693851471 2:0.14615383744239807 3:0.8454889059066772 4:0.5339929461479187 5:0.17115388810634613 6:0.19230768084526062 7:0.5339915156364441 8:0.8454897999763489 9:0.19038429856300354 10:0.29230767488479614 11:0.4041638672351837 12:0.9146865606307983 13:0.24423080682754517 14:0.35769227147102356 15:0.3823505640029907 16:0.9240173101425171 17:0.28269162774086 18:0.5153845548629761 19:0.2283693552017212 20:0.9735745787620544 21:0.317307710647583 22:0.6692306399345398 23:0.3939180076122284 24:0.9191455841064453 25:0.37499895691871643 26:0.730769157409668 27:0.4041637182235718 28:0.9146866798400879 29:0.39038464426994324 30:0.8346153497695923 31:0.08739213645458221 32:0.9961739778518677 33:0.3942315876483917 34:0.9499999284744263 35:0.4041639566421509 36:0.9146866202354431 37:0.4634615480899811 38:0.9999998807907104 39:0.9434594511985779 40:0.33148807287216187 41:0.5365384817123413 42:1.0 43:0.9434611797332764 44:-0.3314829170703888 45:0.6057705879211426 46:0.9499999284744263 47:0.4041634202003479 48:-0.9146867990493774 49:0.6096153259277344 50:0.8346153497695923 51:0.3115456998348236 52:-0.95023113489151 53:0.682692289352417 54:0.7153846025466919 55:0.49159371852874756 56:-0.8708246946334839 57:0.7442305088043213 58:0.596153736114502 59:0.29300209879875183 60:-0.9561117887496948 61:0.7557692527770996 62:0.47692301869392395 63:0.08038254827260971 64:-0.996764063835144 65:0.7634608745574951 66:0.35769230127334595 67:0.29300183057785034 68:-0.9561119079589844 69:0.8288460969924927 70:0.23846158385276794 71:0.5021374225616455 72:-0.8647878170013428 73:0.9019230604171753 74:0.11923085898160934 75:0.29300209879875183 76:-0.9561117887496948 77:0.9019230604171753 78:0.0 79:0.0 80:-1.0 
-0.0 -0.0 0.0 0.0 3.1338597576748715 2.3236313168682887 0.0 0.0 2.906700437815588 3.7830971296930023 0.0 16.133753564654633 14.216866129990894 0.0 2.9159861063243313 0.0 1.162895595118552 0.0 0.0 0.0 10.740319501058664 1:0.03413921594619751 2:0.23071683943271637 3:0.23293542861938477 4:0.9724922180175781 5:0.062402497977018356 6:0.3487144410610199 7:0.1982276439666748 8:0.9801559448242188 9:0.0956069603562355 10:0.5346500873565674 11:0.2861090898513794 12:0.9581970572471619 13:0.1706945300102234 14:0.7113911509513855 15:0.4847617447376251 16:0.8746463060379028 17:0.2704753279685974 18:0.8501617312431335 19:0.6591619253158569 20:0.7520011067390442 21:0.3762114942073822 22:0.9458540081977844 23:0.7884251475334167 24:0.6151307225227356 25:0.4579431116580963 26:0.9964244365692139 27:0.9367372989654541 28:0.3500329852104187 29:0.5211137533187866 30:1.0 31:0.986193835735321 32:-0.16559483110904694 33:0.5492063760757446 34:0.9811001420021057 35:0.5339974761009216 36:-0.8454861044883728 37:0.6008012890815735 38:0.8738295435905457 39:0.4276331961154938 40:-0.9039523601531982 41:0.629917562007904 42:0.8104888200759888 43:0.3934532105922699 44:-0.9193446636199951 45:0.7055169343948364 46:0.6291504502296448 47:0.3896040618419647 48:-0.9209824800491333 49:0.761876106262207 50:0.4985528886318207 51:0.39092665910720825 52:-0.920421838760376 53:0.8131266236305237 54:0.37578755617141724 55:0.38118109107017517 56:-0.9245004057884216 57:0.8611451387405396 58:0.2577899992465973 59:0.39092862606048584 60:-0.9204210638999939 61:0.9149514436721802 62:0.13604633510112762 63:0.40458783507347107 64:-0.9144991040229797 65:0.956663966178894 66:0.041886623948812485 67:0.3504713177680969 68:-0.9365735054016113 69:0.9658607840538025 70:0.0 71:-0.2889050543308258 72:-0.9573577642440796 73:0.948494017124176 74:0.014813493005931377 75:-0.5635668635368347 76:0.8260703682899475 77:0.9011579155921936 78:0.09484077990055084 79:-0.509105920791626 80:0.8607038855552673 
-0.0 -0.0 0.0 0.0 1.570139593520983 0.0 0.0 0.0 0.0 0.0 0.0 0.0 0.0 0.9079633849916559 0.30245583912360774 0.0 0.0 0.0 0.0 3.0424732538410173 0.0 1:0.03140336275100708 2:0.023455152288079262 3:0.7071031928062439 4:-0.7071103453636169 5:0.04005284607410431 6:0.014805581420660019 7:0.90739905834198 8:-0.4202702045440674 9:0.03880615159869194 10:0.02002648264169693 11:0.4629373550415039 12:0.8863910436630249 13:0.08665156364440918 14:0.10402863472700119 15:0.4746167063713074 16:0.8801925778388977 17:0.162549689412117 18:0.24951300024986267 19:0.3331535756587982 20:0.9428725838661194 21:0.21694067120552063 22:0.47276559472084045 23:0.2583616375923157 24:0.9660483002662659 25:0.26291587948799133 26:0.6247954368591309 27:0.2638661861419678 28:0.9645592570304871 29:0.30289092659950256 30:0.7869555950164795 31:0.22336606681346893 32:0.9747346043586731 33:0.32930731773376465 34:0.9145172834396362 35:0.2679038345813751 36:0.9634456038475037 37:0.3567364811897278 38:0.9805969595909119 39:0.44949206709861755 40:0.8932843804359436 41:0.37232139706611633 42:1.0 43:0.8296887874603271 44:-0.5582263469696045 45:0.4369983673095703 46:0.9265956282615662 47:0.5491359829902649 48:-0.8357329368591309 49:0.5341697931289673 50:0.7536820769309998 51:0.42675045132637024 52:-0.9043694138526917 53:0.6200421452522278 54:0.5386893153190613 55:0.4273541569709778 56:-0.904084324836731 57:0.6906414031982422 58:0.42266032099723816 59:0.506263017654419 60:-0.8623790740966797 61:0.7726954221725464 62:0.2786565124988556 63:0.49838992953300476 64:-0.8669530153274536 65:0.8614510297775269 66:0.12553568184375763 67:0.5585851073265076 68:-0.8294472098350525 69:0.932751476764679 70:0.040988072752952576 71:0.6491957902908325 72:-0.7606213688850403 73:0.9685966372489929 74:0.0 75:0.15224787592887878 76:-0.9883423447608948 77:0.9375049471855164 78:0.010130129754543304 79:-0.9508060812950134 80:0.3097865879535675 
-1.1926865487728702 -11.916591423483315 -1.077502320027079 2.6118638929627025 8.468394253972694 10.042865308020716 8.640697778607342 23.061473808134863 6.191849888943128 10.193284454338173 10.752532999658838 5.718367993146384 10.522988940882222 2.9606968332600485 6.3823174489226595 11.192579273807544 4.312068227538011 3.6785258531711764 7.295829722865557 2.778187494075278 0.0 1:0.0431266725063324 2:0.0 3:0.054051950573921204 4:0.998538076877594 5:0.059299178421497345 6:0.2987655997276306 7:0.02559233270585537 8:0.9996724128723145 9:0.059299178421497345 10:0.631720781326294 11:0.016249625012278557 12:0.9998679757118225 13:0.06809482723474503 14:0.8399773240089417 15:0.008216500282287598 16:0.9999662637710571 17:0.06213640794157982 18:0.977017879486084 19:-0.1031700149178505 20:0.9946637749671936 21:0.0514967143535614 22:1.0 23:-0.9999751448631287 24:0.007047736551612616 25:0.021846953779459 26:0.977301836013794 27:-0.8399173617362976 28:-0.5427142977714539 29:0.005390822887420654 30:0.9702085852622986 31:-0.07860895991325378 32:-0.996905505657196 33:0.015604916960000992 34:0.8981413841247559 35:0.22489620745182037 36:-0.974382758140564 37:0.06852025538682938 38:0.6966947317123413 39:0.20456096529960632 40:-0.9788538813591003 41:0.10540490597486496 42:0.4684354364871979 43:0.2886224389076233 44:-0.9574429988861084 45:0.19818410277366638 46:0.26656273007392883 47:0.5264462828636169 48:-0.8502083420753479 49:0.3021705746650696 50:0.15065976977348328 51:0.8632537722587585 52:-0.5047701597213745 53:0.4861682057380676 54:0.09816986322402954 55:0.9968746900558472 56:-0.07899917662143707 57:0.7389702200889587 58:0.1160447746515274 59:0.9761238098144531 60:0.21721501648426056 61:0.8992761969566345 62:0.19009801745414734 63:0.7732482552528381 64:0.6341034173965454 65:0.9597105383872986 66:0.2970632016658783 67:0.38313552737236023 68:0.9236921072006226 69:0.9852463006973267 70:0.39736124873161316 71:0.21724386513233185 72:0.9761173725128174 73:0.9907785654067993 74:0.4366576671600342 75:0.9927344918251038 76:-0.12032599747180939 77:0.9946091771125793 78:0.3962264060974121 79:0.09432142227888107 80:-0.9955418109893799 
-0.0 -0.0 -0.7255316247556346 0.0 0.0 0.0 0.0 0.0 0.0 0.0 0.0 0.40052010359892953 0.0 0.0 0.0 0.0 0.0 0.0 0.0 0.0 0.0 1:0.11416730284690857 2:0.0 3:0.1772433966398239 4:0.9841670393943787 5:0.14280332624912262 6:0.15900525450706482 7:0.06080102548003197 8:0.9981499314308167 9:0.13225321471691132 10:0.2969103157520294 11:-0.05397528409957886 12:0.998542308807373 13:0.12923888862133026 14:0.4099472463130951 15:0.028055472299456596 16:0.9996063113212585 17:0.142426535487175 18:0.6593820452690125 19:0.07556729018688202 20:0.9971407055854797 21:0.16201959550380707 22:0.8425018191337585 23:0.0431014820933342 24:0.9990707039833069 25:0.15712133049964905 26:1.0 27:0.03282894194126129 28:0.9994609951972961 29:0.16541069746017456 30:0.9457422494888306 31:0.07627981156110764 32:-0.9970865249633789 33:0.17822155356407166 34:0.724189817905426 35:-0.028014453127980232 36:-0.999607503414154 37:0.15712133049964905 38:0.649962306022644 39:-0.18526111543178558 40:-0.9826892614364624 41:0.15222306549549103 42:0.5862848162651062 43:0.03981655836105347 44:-0.9992070198059082 45:0.16503390669822693 46:0.45139411091804504 47:0.12635044753551483 48:-0.9919856786727905 49:0.18764129281044006 50:0.3082139790058136 51:0.32457593083381653 52:-0.9458596706390381 53:0.2396383285522461 54:0.23398637771606445 55:0.7697036266326904 56:-0.6384015083312988 57:0.3157497048377991 58:0.20195931196212769 59:0.9588120579719543 60:-0.2840411365032196 61:0.5003767013549805 62:0.15674452483654022 63:0.9740817546844482 64:-0.22619609534740448 65:0.5964581966400146 66:0.1367746740579605 67:0.9937165975570679 68:-0.11192536354064941 69:0.7479277849197388 70:0.12886208295822144 71:0.9987131357192993 72:0.05071604996919632 73:0.885832667350769 74:0.15146951377391815 75:0.9759159088134766 76:0.21814687550067902 77:0.7799547910690308 78:0.13602109253406525 79:-0.9895224571228027 80:-0.1443791687488556 
-0.0 -0.0 -15.100735621997998 0.0 0.0 0.0 0.0 0.0 0.0 0.0 0.0 0.0 0.0 0.0 0.0 0.0 0.0 0.0 0.0 0.0 0.0 1:0.16610927879810333 2:0.0 3:0.17806068062782288 4:0.9840194582939148 5:0.1872909963130951 6:0.11705685406923294 7:0.16370031237602234 8:0.9865100383758545 9:0.20847269892692566 10:0.25529542565345764 11:0.08268526196479797 12:0.996575653553009 13:0.20847269892692566 14:0.37235227227211 15:0.0 16:1.0 17:0.20847269892692566 18:0.4894091486930847 19:-0.01746445521712303 20:0.9998474717140198 21:0.2040134221315384 22:0.6276477575302124 23:-0.0909254252910614 24:0.9958577156066895 25:0.185061514377594 26:0.7458193898200989 27:-0.22548092901706696 28:0.9742475748062134 29:0.14492756128311157 30:0.8829432129859924 31:-0.3420746326446533 32:0.9396727085113525 33:0.09253063797950745 34:1.0 35:-0.47059011459350586 36:0.8823518753051758 37:0.1270902305841446 38:0.9163880348205566 39:0.33035027980804443 40:-0.9438583850860596 41:0.16276472806930542 42:0.7993310689926147 43:0.3037189245223999 44:-0.9527616500854492 45:0.20847269892692566 46:0.6610924601554871 47:0.3308965265750885 48:-0.9436669945716858 49:0.2530657947063446 50:0.5418060421943665 51:0.3762681782245636 52:-0.9265108108520508 53:0.3121514916419983 54:0.4057970941066742 55:0.4165167808532715 56:-0.9091280102729797 57:0.3690078556537628 58:0.2887401878833771 59:0.4671781361103058 60:-0.8841632008552551 61:0.44704562425613403 62:0.15050171315670013 63:0.6413102149963379 64:-0.7672817707061768 65:0.5562987923622131 66:0.0646599754691124 67:0.9163466691970825 68:-0.40038564801216125 69:0.6945374011993408 70:0.04236343502998352 71:0.9990177750587463 72:-0.04431135952472687 73:0.8327761888504028 74:0.05239684134721756 75:0.9582394957542419 76:0.28596678376197815 77:0.9074693918228149 78:0.1059085875749588 79:0.8129118084907532 80:0.5823867321014404 
-0.0 -0.0 -0.0 0.0 0.0 0.0 0.0 0.0 0.0 0.0 0.0 0.0 0.0 0.0 0.0 0.0 0.0 0.0 1.7383502670225517 0.0 0.0 1:0.0849514901638031 2:0.09223300218582153 3:0.0 4:1.0 5:0.0849514901638031 6:0.15048542618751526 7:0.0 8:1.0 9:0.0849514901638031 10:0.20873785018920898 11:0.0 12:1.0 13:0.0849514901638031 14:0.2669902741909027 15:0.0 16:1.0 17:0.0849514901638031 18:0.47087371349334717 19:0.035692259669303894 20:0.9993628263473511 21:0.09951489418745041 22:0.6747572422027588 23:0.22162126004695892 24:0.9751328229904175 25:0.15776708722114563 26:0.7912620902061462 27:0.3162267506122589 28:0.9486836194992065 29:0.17718449234962463 30:0.9077668786048889 31:0.0926230177283287 32:0.9957013130187988 33:0.17718449234962463 34:1.0 35:0.0 36:-1.0 37:0.17718449234962463 38:0.8252426981925964 39:0.0 40:-1.0 41:0.17718449234962463 42:0.6504854559898376 43:0.0 44:-1.0 45:0.17718449234962463 46:0.47572821378707886 47:0.0 48:-1.0 49:0.17718449234962463 50:0.3009709417819977 51:0.05872182175517082 52:-0.9982743859291077 53:0.19660189747810364 54:0.14563120901584625 55:0.27472010254859924 56:-0.961524248123169 57:0.25485408306121826 58:0.029126277193427086 59:0.8137331604957581 60:-0.5812387466430664 61:0.4004853069782257 62:0.0 63:0.995634138584137 64:-0.09334083646535873 65:0.5655339360237122 66:0.0 67:1.0 68:0.0 69:0.6820383071899414 70:0.0 71:0.9895328879356384 72:0.14430725574493408 73:0.7985427379608154 74:0.033980537205934525 75:0.9298068881034851 76:0.3680478036403656 77:0.9150484800338745 78:0.09223300218582153 79:0.8944284915924072 80:0.4472111165523529 
-3.0082162869988363 -0.0 -0.0 1.33522088901056 2.1517379305291233 3.327969929422758 2.948942811947751 0.0 0.0 0.0 0.0 1.884242405545531 0.0 0.0 3.8167903014711153 0.2020524286525019 0.013692812530155071 0.0 0.0 0.21792310092893977 4.3255902774580814 1:0.2805280387401581 2:0.12541253864765167 3:-0.9383431077003479 4:0.34570544958114624 5:0.21782177686691284 6:0.14851485192775726 7:-0.14980259537696838 8:0.9887158870697021 9:0.2640267014503479 10:0.2343234270811081 11:0.3817601203918457 12:0.9242614507675171 13:0.3432343006134033 14:0.45214521884918213 15:0.21503186225891113 16:0.9766069650650024 17:0.3432343006134033 18:0.594059407711029 19:0.0 20:1.0 21:0.3432343006134033 22:0.6798679828643799 23:0.0 24:1.0 25:0.3432343006134033 26:0.8283828496932983 27:0.1531035453081131 28:0.9882100820541382 29:0.37953805923461914 30:0.9141913652420044 31:0.34319308400154114 32:0.9392648935317993 33:0.40594059228897095 34:1.0 35:-0.9838699102401733 36:0.1788852959871292 37:0.3432343006134033 38:0.9207920432090759 39:-0.3552177846431732 40:-0.9347835183143616 41:0.3432343006134033 42:0.8349834680557251 43:0.0 44:-1.0 45:0.3432343006134033 46:0.7491748929023743 47:0.0 48:-1.0 49:0.3432343006134033 50:0.6369636654853821 51:0.0 52:-1.0 53:0.3432343006134033 54:0.46534642577171326 55:0.03527300804853439 56:-0.9993777275085449 57:0.35313552618026733 58:0.35643571615219116 59:0.40744316577911377 60:-0.9132305979728699 61:0.4389442503452301 62:0.25082507729530334 63:0.5812371969223022 64:-0.8137341737747192 65:0.4686468541622162 66:0.19471944868564606 67:0.6088162660598755 68:-0.7933111786842346 69:0.547854483127594 70:0.10891083627939224 71:0.7661909461021423 72:-0.6426129937171936 73:0.6732670068740845 74:0.02310222201049328 75:0.9068349599838257 76:-0.42148590087890625 77:0.7821782231330872 78:0.0 79:0.9782343506813049 80:-0.20750285685062408 
-12.866251727725768 -0.0 -16.91010279990453 8.07474143888029 5.056599941171016 4.621560092105819 0.23410410800135067 0.0 6.913759524633498 5.514954201035196 13.74068769901532 3.411115468484387 2.543438957115994 2.3626431998506527 0.6633803110076594 0.7423359886341198 5.345487939725367 4.809847073409525 1.7093710500580535 10.107271578348895 3.125710907253312 1:0.06391632556915283 2:0.022080184891819954 3:0.9914543032646179 4:-0.13045451045036316 5:0.10807669907808304 6:0.016269609332084656 7:0.8050557971000671 8:0.5931990742683411 9:0.10807669907808304 10:0.05461940914392471 11:0.09191880375146866 12:0.9957665205001831 13:0.11853595077991486 14:0.12957583367824554 15:0.1013520210981369 16:0.9948506355285645 17:0.13015687465667725 18:0.2713538706302643 19:0.09004903584718704 20:0.9959372878074646 21:0.14758896827697754 22:0.4509005844593048 23:0.08492680639028549 24:0.996387243270874 25:0.16269564628601074 26:0.6531086564064026 27:0.099502794444561 28:0.995037317276001 29:0.18535734713077545 30:0.8285879492759705 31:0.0798281729221344 32:0.996808648109436 33:0.18535734713077545 34:0.9360836744308472 35:0.0 36:1.0 37:0.18535734713077545 38:0.974433422088623 39:-0.19610659778118134 40:0.9805825352668762 41:0.1725747287273407 42:1.0 43:-0.9987524151802063 44:-0.049936387687921524 45:0.1388729214668274 46:0.9721092581748962 47:-0.43577444553375244 48:-0.9000558853149414 49:0.11040142178535461 50:0.8715862035751343 51:-0.10852605104446411 52:-0.994093656539917 53:0.10981990396976471 54:0.7059849500656128 55:0.12862910330295563 56:-0.9916927218437195 57:0.16443952918052673 58:0.4549681842327118 59:0.3839353024959564 60:-0.9233599305152893 61:0.29633912444114685 62:0.25740841031074524 63:0.642066478729248 64:-0.7666489481925964 65:0.4369547665119171 66:0.12957583367824554 67:0.8318061232566833 68:-0.5550662875175476 69:0.6002327799797058 70:0.054619427770376205 71:0.9383991956710815 72:-0.34555304050445557 73:0.7699013948440552 74:0.0069726635701954365 75:0.9870324730873108 76:-0.16052107512950897 77:0.9360836744308472 78:0.0 79:0.9991209506988525 80:-0.041921041905879974 
-0.0 -0.0 -19.68759007529579 3.3326007825503763 0.0 0.0 0.0 0.0 0.0 0.0 0.0 0.0 0.0 1.1680925405546654 0.0 0.0 0.0 6.263642928777306 7.7517868672685575 0.0 5.20718001312527 1:0.19731387495994568 2:0.18250688910484314 3:-0.44717466831207275 4:0.894446611404419 5:0.18491852283477783 6:0.20730029046535492 7:-0.5522433519363403 8:0.8336830139160156 9:0.12568920850753784 10:0.2906336188316345 11:-0.4565330743789673 12:0.8897064924240112 13:0.0637044683098793 14:0.44352617859840393 15:-0.23931871354579926 16:0.9709410667419434 17:0.05337447673082352 18:0.584022045135498 19:-0.06953956186771393 20:0.9975792765617371 21:0.04373294115066528 22:0.7300275564193726 23:0.016864486038684845 24:0.9998577833175659 25:0.05819524824619293 26:0.869834840297699 27:0.14054609835147858 28:0.990074098110199 29:0.07472451031208038 30:0.9483470320701599 31:0.17442859709262848 32:0.9846698045730591 33:0.0795452743768692 34:0.9903582334518433 35:0.0929260179400444 36:0.9956730008125305 37:0.0795452743768692 38:1.0 39:0.0 40:-1.0 41:0.0795452743768692 42:0.975206732749939 43:0.22903519868850708 44:-0.9734181761741638 45:0.1070929765701294 46:0.8829200267791748 47:0.3508301079273224 48:-0.9364391565322876 49:0.16907772421836853 50:0.7362258434295654 51:0.3977900445461273 52:-0.9174764752388 53:0.2351931631565094 54:0.5874654054641724 55:0.42410123348236084 56:-0.9056147933006287 57:0.3267909586429596 58:0.39944908022880554 59:0.55586177110672 60:-0.831274688243866 61:0.4631541967391968 62:0.24655649065971375 63:0.7071065902709961 64:-0.7071069478988647 65:0.5974520444869995 66:0.1287878453731537 67:0.7916089296340942 68:-0.6110279560089111 69:0.7227967977523804 70:0.04614327475428581 71:0.8958489894866943 72:-0.4443586468696594 73:0.8570947051048279 74:0.0 75:0.989714503288269 76:-0.14305667579174042 77:0.9562670588493347 78:0.012396696954965591 79:0.9922776818275452 80:0.12403624504804611 
-0.0 -0.0 -8.545575973959398 0.0 0.0 0.0 0.0 0.0 0.0 0.0 0.0 0.0 0.0 0.0 0.0 0.0 0.0 0.0 0.0 0.0 0.0 1:0.19572952389717102 2:0.0 3:0.0 4:1.0 5:0.19572952389717102 6:0.16370105743408203 7:0.0 8:1.0 9:0.19572952389717102 10:0.3985764980316162 11:0.0 12:1.0 13:0.19572952389717102 14:0.5017793774604797 15:0.0 16:1.0 17:0.19572952389717102 18:0.6619216799736023 19:0.0 20:1.0 21:0.19572952389717102 22:0.7686833143234253 23:0.0 24:1.0 25:0.19572952389717102 26:0.8683273792266846 27:0.11914768069982529 28:0.9928766489028931 29:0.21708227694034576 30:0.9466192126274109 31:0.4568046033382416 32:0.8895670175552368 33:0.2633451819419861 34:1.0 35:0.9333444833755493 36:-0.3589820861816406 37:0.2633451819419861 38:0.9288256168365479 39:0.0 40:-1.0 41:0.2633451819419861 42:0.8291814923286438 43:0.0 44:-1.0 45:0.2633451819419861 46:0.7010678052902222 47:0.13699276745319366 48:-0.9905719757080078 49:0.3096081018447876 50:0.49466198682785034 51:0.17806068062782288 52:-0.9840195775032043 53:0.33096086978912354 54:0.32740217447280884 55:0.23337741196155548 56:-0.9723861813545227 57:0.37366634607315063 58:0.22775804996490479 59:0.3511211574077606 60:-0.9363300800323486 61:0.4056934118270874 62:0.12811391055583954 63:0.6351031064987183 64:-0.7724273204803467 65:0.505338191986084 66:0.06761565804481506 67:0.9568802118301392 68:-0.29048269987106323 69:0.6049809455871582 70:0.06761565804481506 71:1.0 72:0.0 73:0.7046257257461548 74:0.06761565804481506 75:1.0 76:0.0 77:0.8042705059051514 78:0.06761565804481506 79:1.0 80:0.0 
-0.0 -0.0 -0.0 0.0 0.0 0.0 0.0 0.0 0.0 0.0 0.0 4.304486461033686 0.0 0.0 0.0 0.0 0.0 0.0 0.0 0.0 0.0 1:0.08695653080940247 2:0.1835748702287674 3:0.0 4:1.0 5:0.08695653080940247 6:0.28985506296157837 7:0.0 8:1.0 9:0.08695653080940247 10:0.39613524079322815 11:0.0 12:1.0 13:0.08695653080940247 14:0.5024154782295227 15:0.0 16:1.0 17:0.08695653080940247 18:0.6376811265945435 19:0.0 20:1.0 21:0.08695653080940247 22:0.7971014380455017 23:0.0 24:1.0 25:0.08695653080940247 26:0.9130434393882751 27:0.0 28:1.0 29:0.08695653080940247 30:1.0 31:0.0 32:-1.0 33:0.08695653080940247 34:0.8937197923660278 35:0.0 36:-1.0 37:0.08695653080940247 38:0.7874395847320557 39:0.0 40:-1.0 41:0.08695653080940247 42:0.6811594367027283 43:0.15711447596549988 44:-0.987580418586731 45:0.1207728236913681 46:0.5748792290687561 47:0.3786327838897705 48:-0.9255469441413879 49:0.17391306161880493 50:0.46859899163246155 51:0.5881719589233398 52:-0.8087357878684998 53:0.2753623127937317 54:0.36231884360313416 55:0.6989330649375916 56:-0.715187132358551 57:0.3816424608230591 58:0.25603872537612915 59:0.7071071267127991 60:-0.7071065306663513 61:0.48792293667793274 62:0.14975839853286743 63:0.7483472228050232 64:-0.6633071899414062 65:0.5942031145095825 66:0.06763285398483276 67:0.8436611294746399 68:-0.5368761420249939 69:0.7004828453063965 70:0.014492785558104515 71:0.9529256224632263 72:-0.3032042682170868 73:0.8067630529403687 74:0.0 75:0.9976837038993835 76:-0.06802394986152649 77:0.9130434989929199 78:0.0 79:1.0 80:0.0 
-0.0 -8.203083154789184 -0.0 0.0 0.0 2.9978785835466546 0.0 0.0 0.0 0.0 0.0 0.0 12.091010847616914 0.0 0.0 0.0 0.0 0.0 0.0 0.0 0.0 1:0.17902761697769165 2:0.0 3:0.0 4:1.0 5:0.17902761697769165 6:0.0997115820646286 7:0.013265792280435562 8:0.9999119639396667 9:0.1823238581418991 10:0.24845489859580994 11:0.05546994507312775 12:0.9984602928161621 13:0.19962915778160095 14:0.47053977847099304 15:0.07422837615013123 16:0.997241199016571 17:0.22023077309131622 18:0.7577255368232727 19:0.10165322571992874 20:0.9948199391365051 21:0.24206838011741638 22:0.8858672976493835 23:0.23700113594532013 24:0.9715093970298767 25:0.27008652687072754 26:0.9620930552482605 27:0.4030708074569702 28:0.9151687622070312 29:0.29233622550964355 30:1.0 31:0.715675950050354 32:0.6984325647354126 33:0.30428510904312134 34:0.9954676628112793 35:0.0803842768073082 36:-0.9967638850212097 37:0.29645654559135437 38:0.9489080905914307 39:-0.14883361756801605 40:-0.9888622164726257 41:0.2799752950668335 42:0.8339513540267944 43:-0.1990811973810196 44:-0.9799829721450806 45:0.23794801533222198 46:0.6608981490135193 47:-0.20304258167743683 48:-0.9791698455810547 49:0.21034198999404907 50:0.4981457591056824 51:-0.09776957333087921 52:-0.9952090978622437 53:0.21034198999404907 54:0.37989285588264465 55:0.2582370936870575 56:-0.9660815000534058 57:0.2564895749092102 58:0.32550469040870667 59:0.808506965637207 60:-0.5884867310523987 61:0.3360116481781006 62:0.2884218692779541 63:0.9231972694396973 64:-0.38432642817497253 65:0.44355183839797974 66:0.2476307898759842 67:0.9782522916793823 68:-0.20741882920265198 69:0.610012412071228 70:0.23032549023628235 71:0.9891343712806702 72:-0.14701421558856964 73:0.7290893793106079 74:0.20519158244132996 75:0.9868074059486389 76:-0.16189813613891602 77:0.8209723830223083 78:0.19571486115455627 79:0.9947232604026794 80:-0.1025947630405426 
-0.9816535060226582 -19.84799350409426 -4.660873652391662 1.1139247878504783 0.0 1.1215784959479762 3.214859870313613 22.488808280717603 6.434132035886354 3.8620309058296147 1.216313344779162 0.0 6.79268558186924 0.47780997489385324 0.12634491565739023 4.870790331013771 0.0 0.0 8.771463557350488 0.0 7.490313194670758 1:0.2029598206281662 2:0.14799155294895172 3:-0.31622546911239624 4:0.94868403673172 5:0.1670193076133728 6:0.25581395626068115 7:-0.1602933406829834 8:0.9870693683624268 9:0.1627906858921051 10:0.39534881711006165 11:-0.01492474228143692 12:0.9998885989189148 13:0.1627906858921051 14:0.5391120314598083 15:0.0 16:1.0 17:0.1627906858921051 18:0.6828752756118774 19:-0.06603126227855682 20:0.9978175163269043 21:0.14376342296600342 22:0.8266385197639465 23:-0.19757765531539917 24:0.9802872538566589 25:0.10782229900360107 26:0.9556025266647339 27:-0.33342260122299194 28:0.9427775144577026 29:0.08245241641998291 30:1.0 31:-0.2873445153236389 32:-0.9578273892402649 33:0.08879504352807999 34:0.8921775221824646 35:0.19061656296253204 36:-0.9816645383834839 37:0.12473616003990173 38:0.7822411060333252 39:0.2726005017757416 40:-0.9621272683143616 41:0.16067606210708618 42:0.6384777426719666 43:0.3982827365398407 44:-0.9172626733779907 45:0.26427021622657776 46:0.4608880281448364 47:0.5421276688575745 48:-0.8402960896492004 49:0.37209299206733704 50:0.31078222393989563 51:0.6261924505233765 52:-0.7796685099601746 53:0.4799157381057739 54:0.19238907098770142 55:0.7246447801589966 56:-0.6891226768493652 57:0.5877378582954407 58:0.10570826381444931 59:0.8262267112731934 60:-0.5633376836776733 61:0.7124733328819275 62:0.03382670134305954 63:0.9242025017738342 64:-0.38190263509750366 65:0.8435513377189636 66:0.0 67:0.995723307132721 68:0.09238641709089279 69:0.9175475835800171 70:0.05285415053367615 71:0.2609117925167084 72:0.9653626084327698 73:0.8858351111412048 74:0.15644818544387817 75:-0.17784200608730316 76:0.9840590357780457 77:0.8858351111412048 78:0.2283298224210739 79:0.0 80:1.0 
